2968 64
6239.T27C10.6 0.221263 -0.15341388 0.26262665 0.111359484 0.1252624 -0.199194 0.13118398 -0.32459548 -0.23238994 -0.14166449 0.101931475 -0.16264649 -0.03806666 -0.16384459 -0.085000105 0.07967451 -0.07901718 -0.15814433 -0.17598969 0.026354168 0.18308772 0.45819622 -0.00904945 -0.27837604 -0.2322047 0.15540722 -0.032668673 0.0050493646 -0.15386018 0.004743876 -0.0006317999 0.0019415948 -0.009609635 -0.20431654 0.03727556 0.116609156 0.08492804 -0.10059437 0.095895454 0.06449634 -0.06638641 0.09023644 -0.13312168 0.10384964 0.20654376 -0.24022718 0.009379247 -0.15469143 -0.097347006 -0.03690929 0.075750805 0.17740184 -0.06433649 -0.046678245 0.024605542 0.010138937 0.08852571 -0.17943054 -0.05978211 0.05838915 0.09156197 -0.012638547 -0.122260734 -0.11161894
6239.T25C8.2.1 0.04824427 -0.031541385 0.15228158 0.011805115 0.102082886 -0.28672382 0.27522552 -0.15760508 -0.36938077 -0.08075942 -0.035980824 -0.087319106 0.20832698 -0.15235111 -0.30412686 0.17610928 -0.046800565 -0.029129835 -0.061508566 0.03502389 0.2911199 0.16263731 -0.05041853 -0.17133619 -0.27461138 0.16214421 -0.18034919 0.0012367426 0.100784004 0.02539134 0.038203254 0.23257428 0.08011215 -0.25449646 0.02338501 0.13192287 -0.05875292 0.10678428 0.16184199 0.10451684 0.18341368 -0.030001825 -0.16618353 0.2845876 0.18662268 -0.13695587 -0.01699159 -0.18491554 -0.18804714 0.007892727 -0.058710914 0.124970846 -0.021244215 -0.045558814 -0.0024758098 0.31113696 -0.06455589 -0.10203282 -0.055220056 0.16970907 0.013795235 0.018905321 -0.0768201 0.0021486257
6239.T07A9.6 0.21753876 -0.15044257 0.2708325 0.09381178 -0.09866477 -0.26151636 -0.14671357 -0.021798847 -0.058050543 0.03267128 0.056631315 -0.015854372 0.10425071 -0.11158566 0.041007716 0.20436513 -0.04557442 -0.37363228 0.012988594 0.17126794 0.2246226 0.33089194 -0.017665116 -0.31817606 -0.02498338 0.053539302 -0.3575612 0.07293024 0.13550958 -0.14986254 0.20447463 -0.0005553369 -0.1418842 -0.13319166 -0.10364059 0.08352461 -0.12653933 0.06340589 -0.062593624 0.11402548 0.051900607 0.12245206 -0.29051858 -0.2170055 0.3844832 -0.12883031 0.0003480127 -0.31427348 -0.2865485 -0.18162209 0.043201413 0.0022153433 -0.101677984 0.097778685 0.0828406 -0.05759403 -0.04142343 -0.11896715 -0.20873421 0.23127161 -0.14150149 -0.07508598 0.054913323 -0.25649342
6239.F43C1.2b 0.30414373 -0.018735815 0.13251479 0.22602698 0.2672458 -0.23471655 0.11146263 -0.21555339 -0.1979436 -0.09907115 0.057773896 -0.20319097 0.11222937 -0.30697468 -0.096079215 -0.10521611 -0.004695791 -0.34977502 -0.07356371 0.28554484 0.1586204 0.23599471 0.010791328 -0.23195621 -0.09241004 0.11465758 -0.21614812 0.31459397 -0.12387705 -0.117631115 -0.12201822 -0.11022618 -0.16562 -0.1171114 0.092062205 0.30591857 -0.14291896 0.15663412 0.010450883 0.17210992 0.040380318 0.01835865 -0.19694552 -0.015158218 0.16249111 -0.1933224 -0.091789976 -0.16807532 0.008863009 0.04631004 -0.03330676 0.04283488 0.011443906 0.15750553 0.036412634 0.08465643 -0.042717725 -0.06713312 -0.00031760754 0.26360703 -0.14385462 -0.37059605 -0.0922563 -0.25931132
6239.T05G5.3.2 0.3291259 -0.015206868 0.03740858 0.003698075 0.124406315 -0.2984718 -0.07873563 -0.05616933 0.0139261065 0.0570139 0.09664415 -0.19403572 0.06488132 -0.12928937 -0.10469026 0.14205979 0.025332732 -0.15428092 0.05162863 0.22989911 0.25699854 0.38159862 -0.23479518 -0.2258004 -0.10949551 0.07146925 -0.22137311 0.18654342 -0.028503364 -0.19334766 0.15070729 -0.09127606 0.16907272 0.06389058 0.09794322 0.04618987 0.0041982094 0.22858165 -0.18300655 0.41100028 -0.14111418 0.034543447 -0.22580196 0.025848925 0.32167736 -0.30824658 0.05136048 -0.36108187 -0.08091405 -0.024862386 0.0071206763 0.009749038 0.023252854 0.04507487 0.1733599 -0.10013069 0.106676996 -0.14287597 -0.0561673 0.280552 0.06792711 -0.11122875 -0.19754 0.035132967
6239.Y55D5A.5a 0.23194753 -0.023344137 0.39782894 0.26845914 -0.014298285 -0.21443696 0.15718694 -0.2029782 -0.30611762 0.06354488 0.1257869 0.01162436 0.026336566 -0.26007807 0.16579618 0.18007159 -0.1144965 -0.026929226 -0.11682995 0.099559344 0.19565399 0.34339404 -0.090356015 -0.2535731 -0.039099153 0.19999255 -0.33303112 0.06260879 0.077920765 0.06738804 0.09376555 0.20252907 -0.122233145 -0.12392949 0.13647085 0.17253886 -0.11438215 0.0829101 0.0063282624 0.0044607655 0.16295077 -0.08771391 -0.0945262 -0.06824154 0.26824805 -0.19892398 0.03885037 -0.027175944 0.10927015 -0.050822668 0.11400042 0.1435276 0.0041642715 0.028007476 -0.2378837 -0.035653625 -0.3360683 -0.16645223 -0.07379228 0.09202469 -0.0313534 -0.30837306 0.21797222 -0.17945129
6239.C47E8.5.2 0.273734 0.0051262956 0.12802471 0.30510268 0.18029152 -0.39581844 -0.029322583 -0.31067178 -0.28968868 -0.30533895 0.097647384 -0.20903905 0.13450238 -0.08615361 -0.21147174 0.12766963 -0.24146044 -0.0979143 -0.01938161 -0.07737176 0.20495795 0.3553379 -0.14811459 -0.037042994 -0.1574717 0.14216897 -0.16446729 0.2389261 0.009263101 0.037380558 -0.008583976 0.08981732 -0.07292394 0.06906451 0.018889483 0.24896552 -0.0023882447 -0.034295674 -0.022231836 0.05899358 -0.2126628 0.11900135 -0.1919384 0.28525862 -0.042097885 -0.15524432 -0.018069755 -0.25609812 0.0721768 -0.1464265 0.032944523 0.09853097 0.26540363 0.10378147 -0.019695202 0.1484017 -0.0014663808 -0.19292016 0.039389603 0.28525677 -0.023576714 -0.17121676 0.07656651 -0.1116026
6239.R13H8.1h 0.2558785 -0.26448518 0.36299238 0.2413546 0.04107549 -0.21236767 0.18813126 -0.16647618 -0.26527178 -0.026778743 0.17982928 0.0006847163 -0.020336157 -0.31912538 0.1383176 0.10951071 -0.23749639 0.030132202 0.048130363 0.0268819 0.026277678 0.18215467 -0.14577378 -0.12103988 -0.14143713 0.1467114 -0.31481656 0.14877029 -0.059794717 0.1252781 -0.032469455 0.13760512 -0.20835608 -0.001888032 0.035364494 0.084431306 -0.19440626 0.025788106 0.054394614 0.11709687 0.09217143 0.10487483 -0.29428184 0.08538768 0.28893986 -0.14558776 0.04450783 -0.17653525 -0.10748991 0.102483645 -0.059734154 0.17714252 0.22746627 0.0591021 -0.20651267 -0.069043174 -0.3745833 -0.29167366 -0.11339275 0.093892835 -0.106167406 -0.42589432 0.32577148 -0.13919364
6239.ZK792.6 -0.019404124 -0.11423426 0.044913646 0.15602222 0.0990713 -0.17461866 -0.023068883 -0.40881172 -0.38434964 0.13566034 0.10977912 -0.087605245 0.1445797 -0.17140128 -0.048027482 -0.03482814 -0.16837761 -0.1952044 0.15458055 0.42037034 -0.008111633 0.3337894 0.036506373 -0.22545415 -0.19561885 0.25368103 -0.23255749 0.11721166 0.032775965 -0.08205657 -0.02042605 -0.013755342 0.022981234 -0.29738936 -0.20847465 0.23517147 0.006379263 0.025981298 0.3185323 0.04749225 -0.037285443 0.007177326 -0.19388852 -0.03145809 0.2762346 -0.17542437 -0.089329675 -0.18732668 0.0839732 -0.0810167 -0.0023087177 0.071411215 0.02636273 0.13971278 -0.03073737 0.107627645 0.059356596 0.052933842 -0.13158219 0.38202882 0.068994515 -0.08768991 -0.1941658 -0.21391256
6239.F02A9.6 0.16116318 -0.08948954 0.064004295 0.2176845 0.00032524325 -0.4968225 -0.19343966 -0.19847432 0.12059115 -0.008587717 -0.12343141 -0.014314948 0.10860263 -0.09328892 0.0470021 0.24982278 -0.17220876 -0.10695328 -0.005295215 0.37613064 0.07416242 0.08981214 -0.13031721 -0.29751426 -0.0019918424 -0.0631743 -0.2445655 -0.13772593 0.051837564 -0.15833527 0.075933866 0.21553205 0.18627888 -0.03411215 0.27970907 0.089728504 -0.16002895 0.20898646 -0.09983824 0.2717725 0.19440563 0.15519096 -0.31086224 -0.25520286 0.35610494 -0.14143908 0.05182992 -0.24550852 -0.119866244 0.119195834 0.016390692 -0.033765715 0.078610405 -0.10689034 -0.013030995 0.15872794 -0.04576334 -0.26065347 -0.13773261 0.2979982 0.0069351806 -0.12437323 0.08570796 -0.081138715
6239.B0218.3 0.3976079 -0.10866279 0.15328577 0.4227536 0.26036716 -0.23960607 0.30901194 -0.17296965 -0.22430676 -0.0726301 0.1394205 -0.058950342 0.2348599 -0.43155965 -0.15152252 -0.1790649 -0.15720902 -0.18995576 -0.2147006 -0.023172118 0.18685773 0.22170281 0.097927056 -0.058760155 -0.10198866 0.06610702 -0.2984925 0.35036308 -0.1983268 -0.0069816746 -0.05041659 -0.18302616 -0.18327342 -0.073173925 0.075084105 0.25830972 -0.2313612 0.2788712 0.12949598 0.19549756 -0.12973028 -0.12842785 -0.270814 -0.015802082 0.1901385 -0.11240441 0.028174497 -0.17413731 0.05876636 0.20352182 0.08113411 -0.17542702 0.29382044 -0.11524232 -0.05442016 0.13833416 -0.096516564 -0.31380054 -0.10895003 0.14251152 -0.27246487 -0.3727768 0.013665102 -0.07567182
6239.Y43C5A.6a 0.095738105 0.027803857 0.14288653 0.23453307 0.26563814 -0.5378369 -0.27503985 -0.07895603 -0.009497297 0.07755415 -0.102639556 -0.06540429 0.060762517 -0.027727744 -0.051217098 0.14349572 -0.026220072 0.14585133 0.014443625 -0.0029344205 0.23076735 0.34630242 -0.22709775 -0.3014662 -0.18703203 -0.042692695 -0.001921771 0.18164383 0.15824431 -0.03253289 0.1075809 0.010510691 0.0602051 -0.25792697 0.16494815 0.16259111 0.17873703 -0.15875515 -0.2705393 0.27888504 -0.27509186 0.16188022 -0.27490053 -0.06728497 0.3349885 -0.23030685 0.18584454 -0.42979282 -0.088297635 -0.18812935 0.18667781 -0.20418867 -0.008950998 -0.030043896 0.058557052 0.10897459 -0.05497774 -0.1009197 -0.2715817 0.16819781 -0.19901729 0.06158501 -0.18902546 0.0026024194
6239.C14B9.4b 0.25292993 0.023385186 0.092081346 -0.05282326 0.11093253 -0.4200533 -0.04367185 -0.19826828 0.12289934 0.1612132 0.12250915 -0.16078621 0.17783917 0.120382175 -0.1836076 0.27533543 0.10758752 -0.12540238 0.091917954 0.27203336 0.2841835 0.23945498 -0.18292242 -0.2857023 -0.24728273 0.14020918 -0.23080006 0.2321096 0.07227667 -0.21412747 0.3780862 -0.11617749 0.11665442 0.006119986 0.029550327 -0.09236206 0.06850781 0.107659765 -0.2611507 0.2213809 -0.10937883 0.09029077 -0.1213344 0.008189658 0.43283775 -0.35719782 -0.019596279 -0.31183186 -0.24044633 -0.041872244 0.0793869 -0.07652616 -0.12525865 0.03299799 0.228514 -0.23805672 -0.042693358 -0.06470578 -0.077783115 0.37245134 0.052340653 0.013415305 -0.07598511 -0.105330534
6239.B0261.2a 0.35580286 -0.16331038 0.106482714 0.2732525 0.29559645 -0.22019231 0.123834394 -0.16731529 -0.16902484 0.0962544 0.13828413 -0.15124558 0.06516118 -0.35976493 -0.12352202 0.23378727 -0.24097872 -0.20178738 -0.22831282 0.06404539 -0.03505394 0.23740575 -0.11197905 -0.19262734 -0.0021602784 0.23680529 -0.3128787 0.07518156 0.22244288 -0.10117702 0.06846986 -0.022364074 -0.030076658 -0.25030175 -0.05556785 0.2970906 -0.08786807 0.018052127 -0.020403214 0.12023671 -0.16678068 0.19345659 -0.13074255 -0.09989466 0.1855809 -0.34528056 0.18438537 -0.22735617 -0.21410991 -0.17147969 -0.13387953 0.11051132 -0.031970557 -0.13731499 -0.11680062 -0.04619534 -0.3741776 -0.017095353 -0.21882986 -0.026003549 0.20154528 -0.12179587 0.1827815 0.08966229
6239.F11C3.3.1 0.13258404 -0.034578856 0.3693865 -0.06250815 -0.07385602 -0.13900551 0.41374248 -0.15753922 -0.17839885 -0.0557014 0.09108766 0.0901081 0.031546578 -0.073327176 -0.05118597 0.016836703 0.011373514 0.061355226 -0.13627566 0.2736013 0.23830403 -0.028061457 0.072716735 -0.3190178 -0.22118136 0.1391852 -0.24300049 0.09261951 0.17462142 0.04585454 -0.060671113 0.13639927 0.014358179 -0.25342607 0.20306939 0.24985415 -0.17569 0.2125821 0.07776817 -0.21629477 0.0850183 0.035552725 -0.22478066 0.31868058 0.17273243 -0.21366175 0.057580497 -0.18011998 -0.26204 0.023831025 -0.08090941 0.15201898 0.12665607 -0.13530377 -0.015830649 -0.018113488 0.07313013 -0.19621293 0.025669118 0.27928823 0.20899487 0.016244428 -0.05529133 -0.076480135
6239.C12D8.10b 0.3017074 -0.021858433 0.14173482 0.16130708 0.0926408 -0.25235277 -0.034512736 -0.2096572 -0.2834582 0.12644506 0.007904024 -0.096591294 0.18915117 -0.31620976 0.071138255 0.0812863 -0.10048335 -0.2673816 -0.075535424 -0.22899553 0.15110333 0.4785393 -0.13232546 -0.29374173 -0.051899053 0.29642832 -0.35685638 -0.0035189097 0.075309135 -0.101878665 -0.08108962 0.033096988 -0.15599196 -0.15087561 0.005427435 0.26253885 -0.07784577 0.09943919 0.19102243 0.075417705 -0.01170906 0.0033709798 -0.22912066 -0.13118209 0.30849624 -0.0065696887 -0.043140568 -0.12991925 -0.15349874 0.045482427 0.13938782 0.17685547 0.038503002 0.14648503 0.04772112 -0.06809178 -0.0811083 -0.10850243 -0.2419747 0.14849721 -0.024750382 -0.29518288 0.037284944 -0.27275187
6239.R07G3.1 0.04548738 -0.05584304 0.03231389 0.00068556884 -0.12431152 -0.025221033 0.13360621 -0.49018782 -0.34911495 -0.0068953326 -0.033887297 0.032551415 0.30791995 -0.21196052 -0.3299433 -0.09732432 0.03862079 -0.2740963 -0.12111707 0.31587726 0.04399446 0.1987556 0.04108604 -0.43899643 -0.1786519 0.17660902 -0.2262426 0.025233833 0.10635357 0.0066778036 0.15877622 0.28177562 -0.056095857 -0.21475007 -0.1817843 0.12536694 0.054630764 0.013240611 0.18669069 0.02540419 0.022296375 0.038102247 -0.28141454 -0.024489937 0.28456038 -0.21633692 0.10713118 -0.24720751 -0.09656637 0.07698588 -0.052127987 0.3374532 0.02213588 -0.110579185 0.10738703 0.1508642 0.093716785 0.037884124 -0.34370026 0.5083631 -0.14011303 -0.097539306 -0.07965111 0.018083874
6239.Y43E12A.1 0.28931364 -0.09612363 0.040727306 0.124933496 -0.06693544 -0.32981881 0.027225569 0.14484005 0.14480808 0.18610796 0.08939953 -0.08440211 0.1924222 0.066713005 -0.10144548 0.12378105 0.03577751 -0.14081843 0.12880494 0.37476942 0.2505216 0.18074712 -0.1841267 -0.3076742 -0.12370573 -0.02963168 -0.31667307 0.08255011 -0.0094060255 -0.07133997 0.12758018 -0.061914634 0.21922255 -0.18670283 -0.0063100965 -0.050999448 -0.109963864 0.024933303 -0.27460837 0.30104887 -0.31918973 0.034890324 -0.13074622 -0.053738903 0.4159598 -0.37856975 0.03726865 -0.43934026 -0.02141101 0.00010990902 0.16687067 -0.26061007 -0.14149065 0.047655717 0.17525491 0.005567113 0.11135197 -0.28211096 -0.09961082 0.3375262 0.04563016 -0.108176775 -0.1403548 -0.20350097
6239.D2021.1 0.28598386 -0.021220664 0.19008161 0.067434765 0.35625607 -0.2711503 0.123932466 -0.4784754 -0.12213454 -0.055901308 0.120539375 -0.27799764 0.041597042 0.14941879 0.009503752 0.32951966 -0.18333672 0.013103311 0.03566359 0.17456456 0.24207261 0.30389503 -0.16435681 -0.08509374 -0.34479234 -0.10503255 -0.13775754 0.19021428 0.10527706 0.046323393 -0.1277501 -0.02333828 0.15858981 -0.080532834 0.10518022 -0.19967459 0.10550479 0.04943073 -0.03668622 0.091841504 -0.43263945 0.16175815 -0.04110872 0.1310907 -0.10069947 -0.28598458 -0.23989782 -0.33086616 0.025291484 -0.099251874 0.034915958 0.24643968 -0.0351719 -0.09183204 0.13282837 -0.04309605 -0.17611194 -0.21321608 -0.0012428453 0.28018457 -0.011878585 0.05009706 -0.14643839 -0.045527603
6239.H31G24.4.2 0.2277994 -0.06830134 -0.000939185 0.14153154 0.06870742 -0.40357184 0.105633706 0.121303245 0.1375593 0.09471667 0.047865137 -0.1163682 0.16285436 0.0929343 -0.031676963 0.18335703 0.11300574 -0.17666875 0.15661305 0.3878257 0.30962598 0.16236895 -0.15587802 -0.33744812 -0.11982143 0.11424739 -0.26190606 0.11412127 -0.014133596 -0.14488527 0.24237089 -0.06877075 0.20943622 -0.19968201 0.0004908302 -0.066001326 -0.026321309 0.12134082 -0.27084807 0.30403522 -0.18379012 0.046798527 -0.0709769 0.04517329 0.34438458 -0.29459575 0.069242306 -0.45337537 -0.10747237 -0.06043316 0.1728008 -0.2477377 -0.111900136 -0.03674345 0.19720307 -0.01711182 0.072118506 -0.24340232 -0.11267463 0.32845637 0.12635389 -0.08833701 -0.17550652 -0.16118345
6239.ZK1067.1c 0.03357503 -0.14981903 -0.08125918 -0.01872013 0.034793608 -0.20028858 0.17284364 -0.36106518 -0.20192625 -0.19067822 -0.034603603 -0.10477471 0.027889648 -0.29297826 -0.07450115 -0.0069600004 -0.26568693 -0.21407555 0.07968141 0.29282072 0.17254075 0.3363223 -0.035810027 -0.35553777 -0.049809508 0.27529377 -0.20147893 -0.0878678 -0.099859916 -0.116105504 -0.040278647 0.1994818 -0.2250288 -0.2076426 0.1238436 0.28197908 -0.07439758 0.0069930716 0.11332065 0.036342874 0.188007 0.033085626 -0.21589214 -0.11877814 0.18346292 0.16804555 0.022340843 -0.44258732 -0.17145218 0.16157447 0.016019981 0.30625874 0.035201102 0.14155143 -0.02447512 0.023682164 -0.023860127 -0.020151764 0.046472594 0.13984568 -0.1516199 -0.24484955 -0.043568835 -0.12720242
6239.F25B5.4a.2 0.32447737 -0.21159369 -0.24569334 0.12304715 0.12392405 -0.43881026 0.10898734 0.022490004 -0.17360017 -0.20316654 0.12441084 -0.011279736 -0.015145933 -0.26469606 -0.02845457 0.22361316 -0.0023358522 -0.47841048 0.063164055 0.009388495 0.4130183 0.06017158 -0.4359686 -0.21816887 -0.052986342 0.2218847 -0.17589994 0.21985197 -0.08344203 0.009372398 -0.14453839 0.28628957 -0.08699867 -0.2220505 0.12782094 -0.09084265 0.29668757 -0.2448553 -0.21446104 0.09313306 -0.12196427 0.1427516 -0.19381629 0.1614645 0.19264223 -0.2953334 0.11022306 -0.48188245 -0.25071007 -0.13496542 0.10083455 0.03773504 -0.02211527 0.1555204 0.106684506 0.00841911 0.106856115 -0.03675673 -0.22606884 -0.03488588 0.041552283 -0.022605365 0.08186713 -0.07611002
6239.M03D4.1c 0.18314546 -0.052854277 0.047170077 -0.061810173 0.023611002 -0.33902305 -0.012225573 -0.1178073 0.123045 0.060459364 0.07077222 0.015483028 0.26310965 -0.0481288 -0.056180544 0.32742923 -0.032219905 -0.017936224 -0.15020938 0.24271953 0.34886694 0.18842523 0.042701174 -0.2283247 -0.25768343 0.03222713 -0.16685736 0.13236839 0.19609155 -0.12692933 0.29429865 -0.012426426 0.22547546 0.04123711 0.061761003 -0.021815008 0.07258655 0.039396957 -0.192909 0.32101285 -0.018328685 0.0379869 -0.14187436 -0.07719446 0.39565054 -0.40572056 0.10051594 -0.41268545 -0.09080132 -0.1463426 0.11322172 -0.07493383 -0.114771485 -0.19805922 0.22781432 -0.034155816 0.11248497 0.0055394038 -0.25003424 0.31822392 -0.011638213 0.034444716 -0.32672045 -0.1030186
6239.ZK177.6 0.12732075 -0.12984309 0.1446884 0.015887955 0.2380553 -0.2923401 -0.091605976 0.11691521 0.12759511 -0.07512629 -0.0720929 -0.28000632 0.06798313 -0.074526735 -0.011261293 -0.0062012686 -0.07107324 -0.2492016 -0.004399666 0.29821676 0.40893245 0.2928857 -0.10071139 -0.16642317 -0.19333485 0.16588308 -0.081502475 0.20186687 -0.098215215 -0.21340457 0.24724908 0.04950633 0.206755 -0.02022125 0.19884111 -0.14666453 -0.097710766 0.14640097 -0.18443683 0.44833598 -0.19489482 0.043438513 -0.12171843 0.094119765 0.25297183 -0.33690837 -0.039433904 -0.44268742 -0.1503225 -0.12990874 0.18747064 -0.1506146 -0.08159388 0.019830711 0.048571415 -0.251386 -0.09642561 -0.1595233 -0.2408381 0.28385353 0.05980304 -0.1940079 -0.30470216 -0.08583702
6239.K12F2.1 0.18449809 -0.08373193 0.34592006 0.014853198 0.0161774 -0.2194076 0.2870546 0.0034584613 -0.30148754 -0.09633352 0.08106663 -0.015730092 -0.032421723 -0.041923486 0.03718387 0.095466554 -0.14170705 0.06633394 -0.10902069 0.39063945 0.17085579 -0.08841725 0.17756283 -0.18598619 -0.3761375 0.25852433 -0.25670308 0.13696465 0.15726912 0.03079507 -0.14476342 0.2011707 0.00936589 -0.34505096 0.07517685 0.20175213 -0.0846045 0.14127178 0.03991086 -0.19011684 -0.097949825 0.010813385 -0.19620742 0.4076854 0.27645877 -0.07936424 0.08543826 -0.15335487 -0.22058357 0.20172864 -0.030951187 0.11908525 0.020658378 0.02239761 0.06179964 -0.047025375 0.15436567 -0.0037139254 -0.08503741 0.17994311 0.22500394 0.020898568 -0.03825047 -0.14474985
6239.F36A4.7 0.04704171 -0.16658312 0.2812109 0.35831264 0.40593505 -0.531989 0.00035391378 -0.090734616 -0.32687518 -0.12562414 0.19340636 -0.3096222 -0.108820684 -0.06356163 0.085636035 0.22184996 -0.15798615 0.11476255 0.05346398 0.027539138 0.27462038 0.13912688 -0.16237348 -0.1384972 -0.047660418 0.23234664 -0.30554745 0.13766271 -0.17390756 -0.004761495 0.091294095 -0.029584577 0.16075163 -0.04851106 0.15327494 -0.04897521 -0.22527608 -0.053944483 -0.17093024 0.16889742 -0.37096548 0.34320292 -0.13408646 0.12586567 0.19504574 -0.22167628 -0.126494 -0.22663227 0.048686344 -0.08864426 0.028725851 0.0008784643 0.025136922 -0.089133814 0.06743119 -0.016197965 0.012229327 -0.059916068 -0.09312445 0.013918054 -0.0031053207 0.1580659 -0.048131283 0.20452087
6239.C09D1.1b 0.31912678 0.04876085 0.27030334 -0.03098663 0.07373699 -0.17502566 0.30446887 -0.1125995 -0.3351966 0.007308214 0.07278186 -0.22506292 0.025300158 0.014402852 -0.17899701 0.10991859 -0.004186994 -0.08840206 -0.319479 0.10984382 0.09872377 0.03948213 0.1837533 -0.2388555 -0.20507291 0.16124788 -0.28098205 0.0008072619 0.17320235 -0.10791819 -0.18680197 0.11734978 -0.023356834 -0.2923885 0.05921642 0.27718228 0.09066726 0.2081438 0.010855235 -0.05212771 -0.11235394 -0.058656774 -0.30517566 0.093830384 0.33596545 -0.029318692 0.071438745 -0.2851375 -0.056552056 -0.13623603 -0.17905347 0.11371234 0.06428403 -0.06075227 0.10827537 -0.16096312 0.06646582 -0.150094 -0.2062664 0.21169141 0.100598805 0.12570034 -0.15271826 -0.13145514
6239.B0334.8 0.39443138 -0.20771751 0.15650116 0.35173538 0.12409945 -0.2705078 0.14335704 -0.1612612 -0.30581653 0.04199959 0.10997689 -0.05017523 0.09417293 -0.17951827 -0.013331733 0.2880791 -0.06705378 -0.00571941 -0.33984601 0.116055496 -0.03057855 0.19367836 -0.20810153 -0.23273505 0.03307734 0.17109899 -0.16747518 0.034376677 0.1629194 0.11748785 0.06590014 -0.06997404 -0.19295995 -0.26114523 -0.18290567 0.18692191 -0.2166525 -0.096816316 -0.1317179 0.10563232 0.07639031 0.21856001 -0.19235879 -0.11009734 0.33480614 -0.108753495 0.14203854 -0.28302976 -0.18601732 -0.06228841 0.13162272 0.120245524 0.028702479 0.09035874 -0.16192792 -0.023002706 -0.35597888 -0.036299158 -0.3649356 0.15585302 -0.0123407645 -0.14413299 0.19428378 -0.099159025
6239.T12E12.4b.1 0.06645089 0.02479897 0.26424915 0.08525598 0.11217494 -0.40489504 0.077425666 -0.3033401 0.09882592 0.025805378 0.19007005 -0.14261489 -0.06956922 -0.32311845 -0.009153804 0.2956294 -0.04848875 -0.21560468 -0.0056793536 0.13664573 0.16895422 0.19434388 -0.06012827 -0.4008157 -0.4080601 0.14974071 0.09058778 0.038585592 0.112955436 0.0127271535 0.29564124 0.042027254 0.06755483 0.10809219 -0.060665548 0.21398607 0.082848 -0.09224335 0.07253048 0.013924887 -0.17934054 0.3989618 -0.041828454 -0.004891378 0.17183037 -0.2606291 -0.15802951 -0.33187085 -0.023861397 0.0059596673 0.0507764 0.10841565 0.15735534 -0.09084008 0.003828575 0.1421065 0.17891368 -0.08957221 -0.1252548 -0.17036551 -0.100496694 0.09503965 -0.30123824 -0.023689093
6239.C09G12.8b 0.17910823 -0.030803435 0.025914596 -0.03815106 0.024966614 0.028082635 0.18725853 -0.43552247 -0.3625967 0.028708283 -0.19649757 0.0035602546 0.2806507 -0.10740979 -0.33364052 0.04811887 0.052972496 -0.3430502 -0.14840163 0.47532064 -0.07090961 0.20183498 0.030959187 -0.3809818 -0.14807118 0.3134429 -0.2579307 0.057203107 -0.061694454 0.12752171 0.16899344 0.042839345 -0.19537595 -0.19685699 -0.08721978 0.13938136 -0.050098512 0.04562704 0.20690191 0.05342682 0.085588485 -0.036000654 -0.2584835 0.10859838 0.18909168 -0.1348507 0.14573382 -0.2111127 -0.09713436 -0.1727633 0.09682636 0.39763516 0.12899981 -0.04502612 0.04936323 0.10366597 -0.004144116 0.08760998 -0.40607896 0.485624 -0.07840912 0.050246894 -0.20111535 -0.1535256
6239.T05C12.6a 0.029144136 0.068612725 -0.027973281 -0.08453443 -0.0423163 -0.23969516 0.098168775 -0.17703329 0.1759918 0.084256575 0.35848406 -0.0059385886 -0.04927111 0.018215453 0.00087746413 0.28349188 0.018907934 -0.36014917 0.20165902 0.2835342 0.22962254 0.3626793 -0.036026016 -0.22111498 -0.110554084 -0.110479265 -0.3762734 0.051966373 -0.31539348 -0.05403995 -0.017458942 0.023405772 -0.014157462 -0.018108971 0.2688228 0.17937009 0.022515107 -0.0036613287 -0.05841608 -0.04472018 0.071621574 0.13265277 -0.1578898 -0.1617175 0.4829339 -0.07676319 0.14453779 -0.3547413 -0.023757037 -0.21437433 0.15692423 0.053521235 -0.03676594 -0.3206646 0.18655497 -0.11565213 0.19998507 -0.1949292 -0.13540876 0.47272334 -0.0700579 -0.04960586 0.14640833 -0.0981482
6239.ZC168.4.2 0.122362636 0.064676 0.03187359 0.1538011 0.17008589 -0.27233526 0.027407732 -0.044457808 0.084743366 -0.023534723 0.010894976 -0.039633177 0.12947352 0.1095034 -0.013157851 0.32929918 -0.04116809 -0.16834526 0.13018435 0.27671045 0.42225406 0.28008682 -0.15281178 -0.3182919 -0.11974851 0.05271538 -0.24515675 0.1996289 -0.023273595 -0.17111509 0.11872094 -0.14186056 0.23386621 -0.08166533 0.06736775 -0.14476623 -0.1459517 0.18469164 -0.20404005 0.41858077 -0.1743843 -0.04089473 0.047524795 -0.05076717 0.4655197 -0.3409274 0.060717598 -0.31948927 -0.039754376 -0.13123672 0.11198938 -0.13213228 0.0058845095 0.09481336 0.1620943 -0.1055383 -0.013876045 -0.17949726 -0.08353435 0.4278116 0.049739193 -0.19419184 -0.26607493 -0.053683512
6239.R11A8.4a 0.16221336 -0.01334118 0.22225156 0.23323482 0.30470386 -0.20206966 -0.12068546 -0.2841172 -0.14066783 0.09657593 0.17494886 -0.24073957 0.06880142 -0.2592866 0.13259628 0.26334488 -0.15634003 0.08607607 0.26649842 -0.00038032793 0.07772478 0.37632114 -0.10095165 -0.235778 -0.26270872 0.15839098 -0.46058813 0.20768584 0.0012867664 0.1154402 -0.050306562 -0.10839161 0.07724556 -0.044108704 -0.082387336 -0.07300676 -0.19959173 0.059232287 -0.064538226 0.29901424 -0.35523653 0.051657274 -0.1814042 0.06842906 0.0661017 -0.0500812 0.20268755 -0.20545737 -0.18694161 -0.13483699 -0.06246829 0.21203786 0.20250674 0.08732359 0.07463189 0.0672333 -0.19928361 -0.20641099 -0.09607317 0.13520637 -0.20950294 -0.12417365 0.026657235 -0.025290657
6239.T04C12.5.1 0.28809458 -0.077797495 0.26163346 -0.04274834 0.13196228 -0.3159917 -0.021399744 -0.30404112 -0.21203981 -0.25425544 -0.13563472 -0.060949422 0.15829533 -0.0057005025 -0.41760027 0.09243143 -0.113410674 -0.014300937 -0.14037946 0.10322593 0.4188883 0.11097608 -0.050300613 -0.24708767 -0.28998333 0.10258084 -0.11663353 -0.06973766 0.1115492 -0.18445314 0.13529015 -0.0123188235 0.0034198796 -0.27804783 -0.039906252 0.10297862 -0.09021596 0.118941866 0.029873436 0.29014555 0.08039378 0.19535814 0.026966792 0.14477132 0.16273354 -0.47263718 0.07551743 -0.14231035 -0.40803993 0.022996744 0.023135222 0.092560895 -0.12021288 0.0047047497 -0.031930417 0.19662061 -0.11981793 -0.0624016 -0.17624131 0.2299337 -0.09758764 -0.035259936 -0.0478856 0.026892643
6239.C07H6.1 0.02898818 -0.016301684 0.010451149 0.24715416 0.24691811 -0.37421417 -0.12805296 -0.072848745 0.059318878 0.18861753 0.20153612 -0.16317466 -0.0010102785 -0.029115526 -0.018862158 0.2787662 0.10517112 -0.13788457 0.023066755 -0.016606128 0.1685432 0.26435164 -0.18387333 -0.4990421 -0.39243823 0.33329955 -0.27743095 0.20663318 0.005725183 -0.030845646 0.023177937 0.09219558 0.1409541 -0.29312414 0.037702672 0.0014266414 0.110077664 -0.3453178 -0.1703574 0.116980895 -0.16683112 -0.041519664 -0.25418457 0.047639273 0.14628606 -0.18445906 0.24413426 -0.30894402 -0.17507894 -0.11945089 0.15986024 0.054517616 0.023635987 0.1547227 0.068704784 0.0035990295 -0.028768528 -0.09163699 -0.15591557 0.0430434 0.019852843 -0.073636845 -0.06644823 0.041762967
6239.F28H6.1a 0.31235686 -0.082352996 0.15346979 0.2603484 -0.020071121 -0.18462487 -0.017040448 -0.24278769 -0.26414415 0.06108339 0.020364685 -0.051557664 0.20413528 -0.23352228 0.04854193 0.12164981 -0.0994638 -0.19039842 -0.08359652 -0.18765043 0.26089844 0.48671845 -0.21188775 -0.42038128 -0.07952157 0.19441286 -0.26263946 0.063626654 0.17985018 -0.071674876 -0.15791054 0.02511986 -0.1341488 -0.20370035 -0.05190283 0.1584403 -0.15005556 0.11754476 0.15867662 -0.048360217 0.04684552 0.054833308 -0.20621644 -0.1519255 0.23138314 -0.0044358517 0.058531154 -0.2308947 -0.11010021 0.10428528 0.0016296181 0.33113477 0.018782964 0.006101184 -0.015095989 -0.107438646 -0.06694733 -0.12107317 -0.095803745 0.13748507 -0.105590306 -0.34514898 0.07769417 -0.25598577
6239.C02C6.1b 0.10020526 0.113011904 0.063891456 0.0060435017 0.27460337 -0.1855971 0.21549961 -0.22571836 0.043814838 -0.06865151 0.086925484 -0.079941966 -0.05011618 -0.37523878 -0.16216415 0.32118624 -0.035424832 -0.3340812 -0.027257152 0.29259044 0.2546392 -0.02179591 -0.0075677526 -0.392061 -0.3371432 0.4542088 -0.037910793 -0.2553063 0.1592015 0.02968918 0.2360282 0.05257042 -0.20566444 -0.008719484 -0.057978705 0.18269719 -0.0068102963 -0.18750745 0.21114434 0.046377305 -0.1180463 0.266479 -0.078788474 0.21406716 0.17856169 -0.14838547 -0.20238633 -0.15269732 -0.0997674 0.032111734 0.0064790277 0.46388978 0.1609621 0.054054383 0.019877482 0.33257803 0.16249318 -0.106833704 -0.19170934 -0.04394278 -0.07873495 0.032189444 -0.19303124 -0.22060198
6239.K05C4.6b 0.31189862 0.14303543 -0.05279737 0.34850684 0.13523676 -0.24967216 0.14879999 -0.5228685 0.011752631 -0.15687917 -0.015568518 -0.106035195 0.20189214 -0.096798494 0.0076567987 0.11523776 -0.20796728 -0.3079998 0.13796587 0.19956475 0.06546507 0.39207354 -0.08015072 -0.21086705 -0.061435197 0.06922196 -0.3558083 0.048745304 -0.168685 0.12134557 -0.074971884 0.08752379 0.06526342 -0.030920863 0.22500049 0.15881142 -0.09145402 -0.0075253835 0.017237311 0.12846272 0.10332476 0.08096319 -0.47482273 -0.033640638 -0.1359945 -0.019129975 0.022341898 -0.1059122 0.0028632882 0.13675492 -0.019029105 0.3397572 0.085835315 -0.043287095 -0.12873398 -0.26712984 0.31545028 -0.10743583 -0.2936849 0.3071035 0.07400031 -0.08542271 -0.23440857 -0.12658533
6239.F29B9.6 0.27527487 0.10974363 0.11069414 0.18303324 0.042979706 -0.34091488 -0.069432095 -0.32086673 -0.104221225 -0.027360765 0.19158328 -0.19358571 -0.06036022 -0.011269289 0.12784447 0.1724338 -0.23421955 -0.08507628 0.13763162 0.13622579 0.2784061 0.23326078 -0.22492126 -0.13631521 0.022521658 0.18659012 -0.18604228 0.18872869 -0.07186219 -0.2805653 0.24740115 0.09035525 0.20875347 -0.12127858 0.031238547 -0.083268836 0.07042537 0.0969711 -0.2840988 0.2206131 -0.14562309 0.18879245 -0.013398382 0.3092077 0.2241847 -0.26286304 0.23638365 -0.40096015 -0.12442029 -0.1390826 0.18539262 0.08104045 -0.14751478 0.08753726 0.103508085 -0.16941784 0.07266755 -0.22381556 -0.11506314 -0.051461488 0.021069506 0.006943252 -0.0981493 -0.32612768
6239.R08C7.3.2 0.17299585 -0.01727116 0.027832625 0.015012138 0.27138826 -0.28142557 -0.13400629 -0.3692573 0.054956745 0.15976153 -0.062164266 -0.23047872 0.07874055 0.0866476 -0.10982712 0.3264814 -0.42071307 0.08799763 0.17372352 0.08215467 0.3154289 0.41646084 -0.33816895 -0.2147959 -0.11548149 -0.095485225 -0.384396 0.11911446 -0.18984307 0.04077043 0.020752825 -0.14096713 0.1932282 0.057694107 0.09561448 -0.016467825 -0.15773226 0.12391607 -0.024550058 0.36390704 -0.012395975 0.25981855 -0.005636214 0.1929753 0.25316706 -0.18216588 0.14969915 -0.49585927 -0.05525819 -0.108410776 0.15968917 0.0821585 -0.049401168 0.14263642 0.1803516 -0.2005072 -0.06363203 -0.10209996 0.040465415 -0.013939122 0.08269822 0.002279081 -0.18621488 0.08842295
6239.M117.2a.2 0.28859824 -0.26542568 0.28865802 0.021291483 0.020758998 -0.29943877 0.21944822 -0.20847423 -0.3772816 -0.17433986 -0.031038217 -0.09445754 0.27082685 -0.01894049 -0.16976494 0.074872114 0.09004328 -0.01888598 -0.14425912 0.035761654 0.19011232 0.31591767 -0.24328107 -0.20857659 -0.039164793 0.16850057 -0.0062206867 -0.078523435 -0.048902307 -0.18880998 -0.14929575 0.26995087 -0.053200047 -0.20330387 -0.08160709 0.11628992 0.08275951 -0.092762604 -0.06278036 0.23404315 -0.05462084 0.18109134 -0.15685508 -0.034044754 0.21850674 -0.22528574 -0.016444154 -0.16305377 -0.09951028 -0.1395072 0.1599528 0.052841093 -0.07446458 0.13285697 -0.036777873 0.045493197 -0.110423885 -0.27038556 -0.26347265 0.37236533 -0.0151516 -0.1172854 -0.13235135 -0.175329
6239.C48B6.6a 0.3181765 -0.27191627 -0.034760516 0.2558175 0.22546414 -0.34037882 -0.0050405567 -0.19758253 -0.2668354 0.07042078 0.09025452 -0.12941422 -0.007984152 -0.2870753 -0.017920338 0.07230773 -0.019617336 -0.1473862 -0.4235869 0.12056585 -0.100621566 0.32634225 -0.08640259 -0.20628642 -0.029871944 0.21065776 -0.11528219 -0.02492568 0.048866533 0.0075348164 -0.04257118 -0.22936901 0.14598572 -0.27899647 -0.012409244 0.31150854 -0.21745794 -0.017565804 -0.026403295 0.11754687 -0.28219855 0.17797211 -0.07240582 0.063834496 0.22226799 -0.40044248 0.18212089 -0.43459737 -0.3576112 -0.20147583 -0.06361389 0.03145276 0.017445082 -0.107331395 0.093156606 -0.016567834 -0.40535778 0.08433244 -0.27555043 0.20602316 0.14920133 0.034712497 0.10173719 0.064234026
6239.T06E6.2a.2 0.25204238 -0.04160886 0.10228404 0.084190466 0.21513516 -0.24584548 0.059387438 0.05037124 0.14896901 0.07367505 0.07486427 -0.094441295 0.14900629 0.12327482 -0.08747076 0.33766702 -0.0060572163 -0.15845336 0.16677488 0.34662628 0.4075508 0.2674219 -0.12348093 -0.24255069 -0.15798062 0.06806919 -0.11706724 0.19451547 -0.037861083 -0.082475536 0.18019705 -0.10860972 0.25793892 0.070027776 0.07400765 -0.15617642 -0.1802801 0.14587975 -0.20790221 0.3614136 -0.260952 0.011035153 -0.078234896 0.053875595 0.42539173 -0.43427747 -0.009739202 -0.33325735 -0.1622899 -0.061153688 0.118069075 -0.1324543 -0.052361604 0.18181552 0.21154967 -0.13940349 -0.017614346 -0.26513317 -0.14619784 0.26354915 0.2778809 0.079987824 -0.21517172 0.013945289
6239.B0207.4 0.09814417 0.05823006 0.0711324 -0.025619421 0.3175263 -0.37829074 -0.024265165 -0.014311133 0.015136503 0.17231813 0.052263092 -0.25426328 0.12513795 0.0013740228 -0.29666537 0.19922356 -0.20654494 -0.084614925 -0.06935431 0.16397147 0.23821831 0.31538287 -0.18517475 -0.3075489 -0.14273085 0.13271262 -0.22184272 0.1954235 0.16890445 -0.19424576 0.39309657 -0.19322565 0.3286285 -0.029064141 0.07852906 -0.1872689 0.045078263 0.1384411 -0.19523789 0.26105303 -0.17817353 0.008451841 -0.26633793 -0.08381612 0.5053641 -0.33972156 0.20266391 -0.25138178 -0.079576686 -0.021733139 0.039960008 -0.049654778 -0.06584847 0.062392298 0.1559264 -0.06919973 0.05480883 -0.22135904 -0.12809506 0.089760825 0.02663539 -0.13881104 -0.15720423 -0.024010556
6239.F26D10.3.1 0.078838974 -0.03529324 -0.023846893 0.44589913 0.14830533 -0.30218023 0.12601767 -0.18992014 0.0012466183 -0.2344955 0.06944712 -0.32575288 0.21293409 -0.34648412 -0.1621982 0.0030325886 -0.23361799 -0.18621258 -0.025198191 0.03092143 0.6001693 0.089985974 -0.23043597 -0.35967198 -0.3777782 0.21671128 0.03150582 -0.14761876 -0.1338481 -0.061668612 -0.106894545 0.051928163 0.016442807 0.13639764 -0.032619435 0.30847898 0.22093499 -0.02513023 -0.083567075 -0.06740937 -0.2996343 0.1559567 -0.28190207 0.23367685 -0.049033865 -0.30263308 -0.074115895 -0.14873542 -0.22267054 -0.07417047 -0.33026505 0.071855545 0.42798114 -0.100877084 -0.03849237 0.06578152 0.15859817 -0.10205095 -0.14825265 0.035113156 -0.12063258 -0.053765483 0.05989556 -0.04338759
6239.C32F10.2 0.06100721 -0.20721611 0.22895268 -0.052300557 0.15421163 -0.3000733 -0.0009248885 -0.16975981 0.06774051 -0.045290012 -0.00473692 -0.1527371 -0.079133116 -0.02985485 -0.062468838 0.42798597 -0.20115615 -0.22154875 0.24116859 0.3510445 0.023873312 0.30124465 -0.09536692 -0.03214661 -0.13560598 0.3051131 -0.22013406 0.4452687 -0.13040148 0.03834102 0.124919266 -0.067805625 0.22016518 0.1608562 0.3280477 -0.13111499 0.005834295 0.087694556 0.07398002 0.26727375 -0.07867994 0.22496502 -0.23861109 -0.06263146 0.36804464 -0.07268522 0.11368035 -0.50981444 -0.22239496 -0.0292562 0.23251455 -0.051065702 -0.012472698 -0.0015964607 0.06281674 0.09153238 0.12839292 -0.06698226 -0.13668293 0.20860977 0.002213188 -0.19833273 -0.064912796 0.08302231
6239.C54D1.6 0.40753114 0.21381617 -0.12852389 0.26534638 0.3165622 -0.15734625 0.4101985 -0.38857713 0.028895633 -0.20774955 0.020246083 0.1333298 0.13872994 0.082572475 -0.07941531 -0.053009935 -0.09516454 -0.2695939 0.04420007 0.3217781 0.026376233 0.4084375 0.013737058 -0.24602957 -0.12450764 0.036388125 -0.27074352 0.2781161 -0.0032182692 -0.02473131 -0.26785976 -0.025882978 0.04747343 -0.06323776 0.25779623 0.23684736 -0.19642104 0.032678105 0.030698828 0.103409424 0.0718243 0.010493042 -0.30012822 0.097168 0.017183479 0.09601362 0.015136331 0.04542781 -0.16676468 -0.08207715 -0.012314129 0.13735235 0.2521461 -0.033853192 -0.3793467 -0.21805501 0.3424193 -0.30608281 -0.42117387 0.2118822 0.1535224 0.07168104 0.045986075 -0.038159665
6239.Y51H4A.3 0.18159242 0.009122056 0.095865116 0.015804676 0.018372992 -0.13101016 0.18284395 -0.44583118 -0.2938238 -0.064546324 0.054072503 -0.18185686 0.38385043 -0.30825242 -0.2101261 -0.12609024 0.02688003 -0.33432 -0.14841203 0.3712531 0.08830846 0.25212133 0.03532419 -0.4545804 -0.14344634 0.16631952 -0.25710887 -0.051843137 0.10561257 -0.043145306 0.12510622 0.07341252 -0.15163268 -0.16607048 -0.12552302 0.21245754 0.021872604 0.0053110593 0.203814 -0.08256576 -0.0778953 0.0064204833 -0.33057728 -0.04081844 0.15015477 -0.21558845 0.07960389 -0.13923116 -0.12511057 0.01930515 -0.015289383 0.36345345 -0.07043221 0.007996612 0.12518866 0.052598566 0.073637836 0.13580738 -0.3451396 0.43069595 -0.07135639 -0.08084191 -0.22577898 0.06546393
6239.K12H4.8 0.3621133 -0.16004983 0.10865344 0.050123688 0.19588748 -0.36405477 -0.11853235 -0.015166785 0.05671794 0.1402285 -0.12496664 -0.111717254 -0.117918134 -0.09810715 0.2742304 0.19717894 -0.120320864 -0.09178107 0.1278285 0.2871813 0.3755023 0.5376998 -0.1487107 -0.1826131 -0.01309303 0.31176785 -0.32884863 0.31361225 0.11059965 -0.10681977 0.06401451 -0.08386305 0.09450684 -0.0055074696 0.2149618 0.18624753 0.0835112 -0.07057755 -0.05825092 0.1993954 -0.036593445 0.33128154 -0.11606734 0.13075857 0.055435713 -0.06526295 0.06911889 -0.3232888 0.2171813 -0.1415127 -0.11515404 -0.18944079 0.048275813 -0.10166677 0.010219364 0.1933621 -0.1334904 0.03556771 -0.07894475 0.26552474 -0.08069157 0.14239202 -0.09537602 0.20677626
6239.C07H6.5 0.2014224 -0.08186052 0.17189972 0.3063512 0.040570896 -0.3063955 -0.05424738 -0.07420394 0.129603 -0.19488975 -0.1125129 -0.020115174 0.06990855 -0.007592905 0.11251857 0.04115789 -0.032586034 -0.15116012 0.1180267 0.15599169 0.3491101 0.37552777 -0.26703876 -0.24242173 -0.13125928 0.18550214 -0.17347476 -0.062482413 0.010105046 -0.18831708 0.1300378 -0.03954238 0.13122427 -0.09172339 0.082371436 0.055359483 -0.29391718 -0.2205436 -0.12912863 0.25894442 -0.11046573 0.2834115 -0.08787026 -0.051855553 0.43414384 -0.13020438 0.09196683 -0.2933112 0.2782892 -0.0692882 -0.280294 -0.28388113 -0.091601014 -0.07638579 0.16665593 0.24421474 -0.03386262 -0.19953695 -0.013568291 0.37260532 0.075257994 0.21924114 -0.07738963 -0.18468383
6239.F18H3.5b 0.37288734 -0.017541476 0.12792583 0.09349029 0.19717264 -0.3556049 0.15042955 0.055976056 -0.15719329 -0.037226062 0.09364975 -0.19580828 0.031081052 -0.200716 0.008145886 -0.008675931 0.0407306 -0.19020745 -0.0012605046 0.2709066 0.08403554 0.43301827 -0.15656358 -0.35527474 0.018280946 0.26662683 -0.19265054 0.25089243 -0.09615327 0.06687983 0.025303036 -0.28301823 0.23216043 0.048294954 0.21675815 -0.13922422 -0.14972724 0.0076651624 -0.032039486 0.30034524 -0.22124967 0.009027471 -0.2644009 0.067151204 0.14774014 -0.27910542 -0.06508812 -0.4293412 -0.102037765 -0.035341524 -0.02064812 0.14855547 -0.07940497 0.1402366 0.029045638 -0.13671863 0.027848804 -0.05695135 -0.14180131 0.32330778 -0.05217456 -0.38488105 -0.22965576 0.14746402
6239.M142.1c -0.055100024 -0.040523592 0.25329003 -0.06671686 -0.08751082 -0.43092787 -0.10517657 -0.03218363 -0.12059676 0.07652042 -0.008312386 -0.26078704 -0.008285987 -0.2742077 -0.06095248 0.1588859 -0.0074857776 -0.0887663 -0.029692005 0.59105694 -0.07051252 -0.00080011087 0.03360996 -0.1444391 -0.24427986 0.4303632 -0.39224184 0.09339204 0.15644044 0.21837798 0.07135878 0.21405116 0.16470037 0.05677416 0.20705678 0.05245068 0.08187656 0.019906748 -0.0021194695 0.16419527 0.2985085 -0.05436277 -0.2323372 0.1488992 0.25458726 -0.09099264 -0.12514012 -0.15804935 -0.034296885 0.12809478 0.22325704 0.048623495 0.000669286 -0.060174417 -0.02121329 -0.065420255 -0.038232815 -0.18482693 0.0611192 0.3473757 0.14069541 -0.068181254 0.15692456 -0.35696945
6239.ZK909.2c 0.25133976 0.01890077 0.19214962 -0.12316991 0.2334457 -0.22763483 0.4452871 0.10212022 -0.4694037 -0.20202923 0.132954 -0.24655434 -0.14379488 -0.33481446 -0.033206873 0.1817076 -0.13827918 -0.073608615 -0.12338157 0.32630104 0.08186122 0.34059635 0.07293919 -0.038730495 -0.12103546 -0.003383534 -0.18286912 -0.002977768 -0.053291872 -0.20543791 -0.20402262 0.050729066 -0.035863776 -0.3472562 -0.1693623 0.18899049 -0.38384414 -0.0032781265 0.052355397 -0.07424282 -0.087138236 -0.052182846 -0.27441967 0.0567278 0.1781787 -0.035539854 0.13190123 -0.18579651 -0.09714042 -0.048066095 0.14856167 0.16774665 0.1981582 -0.100185506 0.0729912 0.12893413 0.2233875 -0.32761642 0.014342406 -0.005462829 0.06972924 -0.2030051 -0.20403422 -0.005445771
6239.B0350.2f.2 0.19014962 0.0028279847 0.16843991 -0.030237118 0.15086125 0.08647096 0.25745773 -0.25398207 -0.16898648 -0.03662054 0.021000523 -0.13131885 -0.069929 -0.037678834 -0.22745557 -0.014772024 0.08678049 0.016206486 -0.40458184 0.33722842 0.26668027 0.2267259 0.071070604 -0.17641819 -0.16794352 0.41773525 -0.3044145 -0.07931767 -0.02516144 -0.19161135 -0.30771488 0.26409915 0.17325078 -0.2414966 0.14183794 0.11660538 0.06278501 -0.07772555 0.19481282 0.085818574 0.10517532 0.23871289 -0.37419766 0.04070451 0.1297773 -0.2320998 0.09968125 -0.30978975 0.025278736 -0.13738993 0.06627256 0.16306649 -0.28817892 0.0532431 -0.029062297 0.026745128 -0.08776073 -0.22005017 -0.04132988 0.23370206 0.14490955 -0.1017078 -0.13509288 -0.103992425
6239.C02F4.2c 0.073512875 0.008820177 0.36644927 -0.20861194 0.28189048 -0.097474165 0.39240637 -0.27209783 -0.3794139 -0.26961207 0.16017938 -0.21988553 -0.3085692 -0.096939705 -0.06778381 0.23251262 -0.10940623 -0.07690044 -0.14467739 0.29190367 0.11713909 0.27208385 -0.096077554 -0.15714237 -0.107738174 0.04858156 -0.1958067 0.19849032 0.02791656 -0.3968728 -0.23641698 -0.02000325 0.0008043902 -0.11392701 0.044272788 -0.06252736 -0.27063683 -0.092157766 -0.011077024 -0.02758529 -0.107620105 0.008884283 -0.2538474 0.16254102 0.3197111 -0.31716773 -0.22388361 -0.06529953 -0.0069673853 0.101163484 -0.021196708 0.07615038 0.0036057387 -0.08671867 -0.124696314 0.29321927 -0.092087805 -0.22428344 -0.17072417 0.0005736228 0.1286736 -0.38808405 -0.1586295 -0.014724296
6239.W06B3.2c 0.3840582 -0.14562912 0.34773168 0.18148263 0.008706993 -0.09074332 0.41764107 -0.18170819 -0.34752798 0.0012698772 0.096290715 -0.28354686 -0.04350247 -0.32558674 0.029129108 -0.10966917 -0.09403123 -0.12698083 -0.060474448 0.105805464 0.16560416 0.2709833 0.1970471 0.08799414 -0.1435986 0.13857003 0.025840458 0.16206066 0.15632583 -0.16939251 -0.3261144 -0.038964987 -0.1330136 -0.2186031 -0.0384422 0.2320161 -0.27905533 0.3059008 0.11578965 0.22798458 -0.031336706 -0.21225804 -0.20256764 0.084853195 0.36152825 -0.22770697 -0.012646234 -0.31217024 -0.007817941 -0.091573134 -0.00920784 0.050119538 -0.08724772 0.1831078 0.07090186 0.29951182 0.03791121 -0.3776447 -0.06861224 0.26224855 -0.10803792 -0.21081834 -0.2949261 -0.019315882
6239.F52D10.3a.1 0.34729677 -0.16845483 0.2888806 0.13981622 0.047758132 -0.27226022 0.22246411 -0.21825507 -0.4377744 -0.10320123 -0.11456374 -0.22353797 0.13217987 0.080066204 -0.01942884 -0.0074008 -0.035529803 0.04851372 -0.35229477 0.031833343 0.22984512 0.25342488 -0.29826188 -0.26151282 -0.08056904 0.14588884 0.06529716 0.0032625138 -0.06238357 -0.18430288 -0.17229626 0.18981577 -0.18206027 -0.2503731 -0.121658035 0.16650988 0.123870425 -0.20411031 -0.0109556075 0.33873248 -0.12905593 0.1368441 -0.14604658 -0.0014540893 0.26695672 -0.34419796 -0.06596642 -0.23868033 0.014648674 -0.1183157 0.19805932 0.08312789 -0.082414664 0.11890871 -0.17474364 0.09955806 -0.07805014 -0.15562248 -0.15426299 0.2621496 0.003925298 -0.20996502 -0.13479815 -0.1514784
6239.T06E4.3a 0.23225033 -0.12136235 -0.03673808 0.08401888 0.23412398 -0.45540947 -0.02323074 -0.12176662 -0.1153441 -0.009364707 0.11366829 -0.18488242 0.018515911 -0.14011198 -0.042891726 0.20753185 -0.10533534 -0.1031566 -0.23613158 0.24328393 0.013464856 0.13116442 -0.06403161 -0.367088 -0.12579286 0.19725579 -0.010439385 -0.06016238 0.078608 0.11407191 0.032132924 -0.1342412 0.046612665 -0.24681461 -0.033282805 0.0049043726 -0.03776803 -0.2586222 -0.34595454 0.2167676 -0.26741612 0.1905046 -0.14566313 -0.04251016 0.38528177 -0.21949345 0.36340058 -0.4601166 -0.20095327 -0.2960044 0.095756404 0.04948388 -0.0071916413 -0.17546785 -0.08751747 -0.1401027 -0.49550053 -0.022840142 -0.22265802 0.1549607 0.13308634 0.005494698 -0.0481437 0.1364261
6239.K07C11.2.2 0.0073342454 -0.013637018 0.16094619 -0.06767648 0.14234138 -0.3909259 0.037829895 0.06269115 0.14184311 -0.005983683 -0.014741678 -0.090611786 0.2520826 0.036207918 -0.14617364 -0.028020132 0.0033511906 -0.17468576 -0.1068283 0.21771084 0.2708958 0.19236536 -0.28068286 -0.38749978 -0.14280193 0.064384565 -0.28355187 0.2151523 -0.084678166 -0.31575656 0.36750817 -0.16094069 0.30737513 0.045686014 0.11641126 -0.0073231645 -0.055712227 0.093529254 -0.14409104 0.31606948 -0.055757612 0.12795214 -0.26589662 -0.096619 0.44547424 -0.45998752 0.08197707 -0.3641582 -0.20677243 -0.052468248 0.123961195 -0.03299679 -0.14139706 0.01700394 0.084131934 -0.014451865 0.038588796 -0.18486957 -0.23544452 0.246835 -0.14973104 -0.23276132 -0.23339897 -0.0014565038
6239.F32D1.10 0.12066232 0.033765003 -0.05030784 0.029549574 0.11313955 -0.34610313 -0.085192606 -0.25516546 0.062166132 0.086649 0.04645298 -0.02766837 0.15120643 0.09764028 -0.1704592 0.2906541 -0.0758141 -0.120249376 0.14638725 0.20424992 0.36666632 0.3436069 -0.039277487 -0.28618267 -0.250499 -0.01038297 -0.34609208 0.21938767 -0.11285099 -0.34838977 0.2407009 -0.25892985 0.25064456 0.020158969 0.03736303 -0.0018638655 0.05870844 0.12633353 -0.24183583 0.39903086 -0.030681873 0.14490445 -0.13604051 0.14504203 0.47318867 -0.3586444 0.12447462 -0.3827532 -0.022797262 -0.1715533 0.13970998 -0.14239718 0.0625455 0.07399608 0.041506767 -0.18177816 0.10585659 0.06698293 -0.17267036 0.18757719 0.030467015 0.019418225 -0.31068295 0.1552087
6239.F42G8.3a 0.3368716 0.13591678 0.18287559 0.35342005 0.23288608 -0.17242265 0.22938032 -0.051965024 -0.24896799 -0.118990175 0.21711649 -0.2354045 0.053938176 -0.40141138 -0.20790176 -0.19324337 -0.29214966 -0.29583898 -0.2808597 0.036690675 0.3018346 0.28713548 0.17433333 -0.08921797 -0.14792074 0.15095875 -0.0973594 0.32396016 -0.17921063 -0.12863097 -0.25215292 -0.271786 -0.16298123 -0.08945027 -0.05222833 0.44512302 -0.16471335 0.19483092 0.04131093 0.26717156 -0.23696402 -0.10769038 -0.20729013 -0.0029004896 -0.021594921 -0.35430187 0.03813181 -0.20954815 0.1403371 -0.05817764 0.0325116 0.089716926 0.098432474 -0.02762453 0.06902293 0.17134026 0.015723793 -0.1979044 -0.090214424 0.3732949 -0.18936191 -0.32257792 -0.14653996 -0.11075989
6239.C44C11.1a 0.27562192 -0.04623531 0.10110828 0.18858978 -0.08195616 0.06755906 0.29845396 -0.2534638 -0.6121439 0.136962 -0.12719834 -0.21457104 0.23101752 -0.16767702 -0.12540111 -0.058612872 -0.104920745 -0.14535697 -0.08619696 0.30095986 0.0040904297 0.17784302 -0.036615886 -0.4466923 -0.118383996 0.121797554 -0.08067705 0.07564978 0.33463454 0.0009342405 -0.09226345 0.013969438 0.13694808 -0.20167805 -0.17291716 0.20525727 -0.17220391 0.17574985 0.18520406 -0.12535867 -0.058518577 -0.093820035 -0.1964509 0.030636491 0.24287936 -0.16931614 -0.17131186 -0.27973887 -0.23418152 -0.17694454 0.028556006 0.12589315 -0.040276494 0.16631684 -0.08370966 0.07101214 0.025309585 -0.053201918 -0.16015543 0.34013215 -0.117518745 -0.17711428 -0.20049594 -0.0865765
6239.K01A6.2a 0.28947854 -0.22286217 0.1245146 -0.009145376 0.26700357 -0.19406667 0.14295265 -0.4767268 -0.20053631 -0.13186751 -0.13813445 -0.1736151 -0.112103 -0.22330564 0.11495744 0.008683642 0.048757054 -0.18880558 -0.23569034 0.18764067 0.23513685 0.17854135 -0.07471027 -0.22042547 -0.19230714 -0.0049620587 -0.24278702 0.07859965 0.04196652 -0.13527071 -0.028679622 0.099156946 0.09711397 -0.32038254 0.21700786 0.20938294 0.13449319 -0.17618985 0.020340871 -0.15929393 0.04662341 -0.015262916 -0.23502642 0.016769176 0.15498647 -0.41260913 -0.061205525 -0.038493004 0.042970236 0.010183476 0.19065699 0.26999494 -0.06191585 -0.06817807 0.09712995 0.052229892 0.3351356 0.015591987 -0.16442122 0.2137203 -0.23962043 -0.11122435 -0.120620824 0.033166874
6239.B0478.1a 0.0031239442 -0.17403743 0.034399323 0.13405675 0.26961973 -0.06386941 0.16222899 -0.070487775 -0.110928595 -0.011666826 -0.032636564 -0.03241257 0.08089677 -0.29447275 0.05020575 0.100494415 -0.22693649 -0.13733871 -0.13844976 0.12822756 0.18403372 0.33964694 -0.034468252 -0.46980473 -0.16451305 0.26443595 -0.535196 0.016897568 0.005843012 -0.0536893 -0.02537888 0.15143512 -0.07282184 -0.095240764 -0.22781835 0.09256507 -0.032241717 0.27479514 0.1273716 -0.08704278 -0.25505307 -0.2786955 -0.43334523 -0.10439828 0.17298494 0.03788742 0.052857246 -0.20471351 -0.163201 0.12843907 -0.029561581 0.40904686 0.026047751 0.16022752 -0.10102182 -0.19277324 -0.07157774 -0.29672828 -0.11799929 0.15088007 0.0107659055 -0.27693748 0.07726073 -0.3076928
6239.Y18D10A.5 0.13627209 -0.08118342 -0.061931737 0.102337964 0.21828477 -0.13876577 0.149513 -0.21924022 -0.07867696 -0.038643677 0.18649659 -0.09495759 0.2367565 -0.23686267 -0.17214505 0.020138804 -0.17056586 -0.17512935 0.053017695 0.03448431 0.117707506 0.61375546 -0.13574813 -0.32397 -0.03567179 0.10524986 -0.37828723 0.053348333 -0.03290748 -0.13366063 -0.022828126 0.0860376 -0.018984575 -0.18896355 0.00027345016 -0.047597002 -0.18148698 0.06524236 0.058830727 0.0840428 -0.0260488 0.088437386 -0.19739486 -0.1067538 0.07548795 -0.22275881 0.23439613 -0.15967509 -0.13457075 -0.03697847 0.15217797 0.43127084 -0.016970748 0.12814784 0.2094198 -0.11965477 0.07447439 -0.30565286 -0.056010127 0.16502987 -0.040341213 -0.23984012 -0.039365653 -0.36305466
6239.F17E5.1a 0.14122258 -0.0031645547 -0.058697883 -0.1849244 0.29208773 -0.19087175 0.29740253 -0.3063942 -0.16998681 -0.18091358 -0.28480157 0.00954195 -0.25547767 0.058270298 -0.04190198 0.03337136 -0.254111 -0.070420206 -0.2513162 0.18574262 0.15930521 0.17606504 -0.10751697 -0.350713 -0.17763226 0.13627034 -0.25075197 0.09909291 0.12100764 -0.1559253 -0.14956619 0.1544187 0.10529011 -0.30800536 0.19666043 0.278196 0.045929343 -0.19953875 0.16434526 -0.045550764 0.12335086 -0.095191486 -0.3529978 -0.016875425 0.3345016 -0.05396906 0.13142285 -0.11465178 -0.0760786 -0.23183838 0.050519004 0.16103221 -0.18186511 0.07052096 0.085309245 0.03908095 0.16411756 0.10217639 -0.15776284 0.19823112 -0.2975051 0.051056925 -0.011082573 -0.24724665
6239.F37A4.8 0.1506284 -0.19706123 0.028673602 0.13626441 0.12772404 -0.31486964 -0.053380173 -0.19348995 0.002974999 0.078225225 0.11850615 -0.18390799 0.026275728 0.012610082 -0.059682272 0.3605249 -0.11021326 0.10262825 0.13887195 0.22445226 0.37433508 0.36783877 -0.08632536 -0.045569632 -0.2265784 0.07306514 -0.26869592 0.09672378 -0.17996918 -0.11880347 0.1960634 0.1325336 0.31091225 -0.025571583 0.18298872 0.1166971 -0.134872 0.11267386 -0.28775194 0.23013698 -0.1718839 0.46990412 -0.11037273 -0.12464514 0.19991092 -0.22894111 0.10186265 -0.49126112 -0.03086861 -0.13943656 0.07798486 -0.007373646 0.05666477 0.015595402 0.08285541 -0.056270476 -0.15024945 0.038537454 -0.088979006 0.002185669 -0.08016905 -0.057992887 -0.22792873 0.025778107
6239.ZK524.2d 0.023421083 0.1597336 0.19860037 0.003042045 0.12925948 -0.1478736 0.42920414 -0.037955556 -0.023098044 -0.14231841 -0.0025958358 -0.15860969 -0.25662717 -0.04582029 -0.086384125 0.21145871 -0.16940981 0.009035706 -0.21384652 0.5626563 0.21505877 -0.0031660744 -0.08428548 -0.20794886 -0.2209093 0.38395894 -0.20836565 -0.16168368 0.277424 0.10739386 -0.21216235 0.24316247 0.108919345 -0.15287775 -0.02510186 0.18681626 -0.35617632 -0.12181472 0.1615851 -0.23121485 0.13808134 -0.14484605 -0.5017232 0.23297352 0.35470647 0.072770625 0.057609618 0.13228622 -0.034082744 -0.067157485 0.22562326 0.0054538995 -0.12476667 0.1997998 0.012025414 -0.08238551 0.046732362 -0.18988074 -0.3107121 0.10643987 0.017330132 -0.013298169 0.10736511 -0.33296397
6239.K06A5.7.1 0.034443982 -0.0023412802 0.21620864 0.12908484 0.0057016024 -0.29509947 0.043755054 0.012369099 0.055266593 0.03989173 0.09804376 0.15654558 0.325344 -0.057021685 0.16418652 0.08562731 0.046695508 -0.3047617 0.010305017 0.21072236 0.30076805 0.13986465 -0.030613936 -0.2778797 0.020335617 -0.016931968 -0.21216625 0.22355054 -0.097599804 -0.18934308 0.35623607 -0.15009776 0.08549329 -0.24012262 0.120160714 0.010847434 -0.2117447 0.08800666 -0.23627451 0.3036698 0.023417026 0.2586481 -0.18068208 -0.10385838 0.55450445 -0.079813026 -0.0011106052 -0.42342794 -0.20358735 -0.052900165 0.19263527 -0.2506579 -0.037636466 0.08256991 -0.02853028 -0.09485139 -0.00029885513 -0.2589182 -0.19481231 0.4037923 -0.046571255 -0.18408647 -0.13054484 -0.06866863
6239.F43E2.8.1 0.23034197 -0.17782076 0.24561042 0.14511998 -0.032219373 -0.2955031 0.17418014 -0.14837833 -0.090131775 -0.0599572 0.24358118 0.0009940275 0.2565003 -0.10456085 -0.08447064 0.25145206 -0.07329728 -0.14757217 -0.12885152 0.053194217 0.40016246 0.36743456 -0.22128166 -0.18778518 -0.088351965 0.32041097 -0.3211239 -0.23902953 0.1879431 -0.15440439 0.10926592 0.23558296 0.12650938 -0.022380846 -0.074316554 0.20895214 0.26420647 -0.08777711 -0.11020482 -0.23088434 -0.44671544 0.0025501915 -0.09528611 0.291509 -0.03177037 0.035250347 0.022470232 -0.16218469 -0.103017285 -0.2977811 -0.18538842 -0.030966813 0.6617981 -0.093783006 -0.09103643 0.005961615 -0.033858698 -0.36050794 0.056167718 0.068356924 -0.1886916 -0.21338934 -0.03923313 -0.019765742
6239.C37A2.4a 0.117785566 -0.18643288 0.03245935 0.16243662 0.14203532 -0.4541529 -0.021417346 -0.09014049 -0.013527049 -0.08838594 0.06627202 -0.06550081 0.2637318 -0.0051098014 0.19839796 0.22799906 -0.027723987 -0.10760395 0.0777059 0.3274288 0.13611324 0.27524337 -0.04253901 -0.36781412 0.033798188 0.09370496 -0.25648633 0.18661202 0.016359165 0.026857521 0.22832647 -0.1697583 0.16161317 -0.014525258 0.16990009 -0.050405677 -0.052996486 0.27640137 -0.24115548 0.3033782 -0.04778907 0.037103254 -0.14200363 -0.01215357 0.39703813 -0.18897195 -0.0059647677 -0.3617939 -0.09860636 -0.06542495 0.22063924 -0.103711665 -0.094946206 0.24662353 0.039568473 -0.01652784 0.018388156 -0.1599327 -0.12546343 0.4658258 0.095282964 -0.09249829 -0.3013303 -0.06853999
6239.K07A9.2 0.11909237 0.02652707 0.15308386 -0.00341775 0.2599695 -0.104789466 0.11762619 -0.28575313 -0.23039666 -0.19562611 -0.32565078 -0.15952587 -0.028799145 -0.29785073 -0.022864629 0.1489133 -0.118765004 -0.039167874 -0.19569492 0.33504683 0.14350413 0.15327144 -0.22893682 -0.27934387 -0.23976411 0.081662044 -0.31459895 -0.13844813 0.1251693 -0.013320482 -0.2509174 0.2650876 -0.25065187 -0.09272239 0.07829722 0.11422625 -0.194744 -0.021918558 0.15280044 -0.016014827 -0.05169485 0.04274627 -0.28228343 0.21775806 0.18068072 -0.12251451 -0.003951037 -0.120427795 0.032041404 -0.016563883 -0.012690712 0.37922043 -0.20927839 0.11867493 -0.005673629 -0.08520505 0.033113312 -0.28999934 0.021294383 0.100142375 -0.03974556 -0.3327189 -0.2677322 -0.12183957
6239.R07E4.6c 0.060624316 0.039644588 0.36406606 -0.04658952 0.016982665 -0.28194138 0.31476536 0.08942563 -0.46962088 -0.12626854 0.32833254 -0.25310102 -0.2933128 -0.24169889 0.048641603 0.15776601 -0.06992279 -0.107619815 -0.21697105 0.33723298 0.15314308 0.3306777 -0.09035019 -0.060795758 -0.21067564 0.1340249 -0.14060546 -0.067476735 0.17170201 -0.30415922 -0.026034337 -0.029347803 -0.18757936 -0.2750731 0.050953485 0.121179394 -0.33115834 -0.11122118 0.049514733 0.09916717 -0.17622083 0.027302375 -0.17067787 0.22451928 0.2854612 -0.17459399 0.08618969 -0.031085953 0.11779111 0.038154196 0.06641162 0.12110174 0.104133554 -0.19057125 0.11760641 0.15869822 0.05868845 -0.11699847 0.1849774 0.1310151 0.05165354 -0.17220056 -0.14358829 -0.07508358
6239.K03E5.3 0.36391082 -0.009335669 0.12316498 0.10882991 0.13975833 -0.2760284 0.05624885 0.046302676 -0.121058784 -0.09156284 0.13443276 -0.30313718 0.0022068329 -0.18419535 0.10640924 0.002266136 0.1848271 -0.0014061456 -0.03534712 0.23309717 0.23809803 0.3875881 -0.14873488 -0.478982 0.019620428 0.19789264 -0.1593962 0.35063332 -0.066662274 0.15046725 0.049449116 -0.15561861 0.21842483 -0.16717474 0.10231417 -0.07580158 -0.1672112 0.0898766 -0.09995121 0.27285215 -0.33084646 0.009624447 -0.060563464 0.025476305 0.20692436 -0.28417653 -0.086999856 -0.45814556 -0.19544837 0.08344463 0.049518794 0.019920254 -0.07650083 0.032045737 0.034121443 -0.09624498 -0.021292381 -0.0687934 -0.12437815 0.35273528 0.0595404 -0.4110989 -0.19201946 -0.0025739272
6239.T21H3.3 0.1973754 0.06868148 0.15743801 -0.15983038 0.3073845 -0.15452577 0.10615327 -0.28153646 -0.12179272 -0.45271468 0.16738303 -0.067447536 -0.00528316 -0.27249596 -0.16359991 0.11461058 -0.016806902 -0.18355016 -0.1140926 0.061012156 0.25487107 0.15233222 -0.13878833 -0.27892572 -0.19781893 0.01812327 -0.321006 -0.11418539 0.28720763 -0.13784881 -0.1582318 -0.010660176 -0.016503267 -0.26050392 0.18286373 0.17101727 -0.11168595 -0.21746469 0.1368864 0.12122653 -0.0403259 -0.08309612 -0.39024085 0.3627446 0.30757946 -0.23575644 0.02348907 -0.053162113 -0.09676902 0.055175833 -0.13673331 0.1717671 -0.29624096 0.03336703 -0.06752865 0.14109461 -0.07681261 -0.050886065 -0.09839501 0.08651397 0.08787927 -0.40085834 -0.11838271 -0.12292353
6239.K12C11.2 0.28066388 0.09974724 -0.24194147 0.029227292 0.1385129 -0.29831132 -0.11241847 -0.22674823 -0.15849547 0.09888373 0.012480166 -0.23062168 -0.019249491 -0.23850197 -0.017538505 0.048690025 0.005579364 0.039358236 0.19089513 0.09252072 0.25641292 0.27987006 -0.028705088 -0.16127728 -0.27377754 0.26928368 -0.2610455 0.19606164 0.027136639 -0.17230466 0.075945035 0.033667024 0.047173794 -0.16736008 0.27103654 -0.0315172 0.100150995 0.17126097 -0.36885834 0.3092505 -0.10157137 0.27246237 -0.02916313 0.15095368 0.40126124 -0.44553435 0.10477861 -0.42469317 -0.2192111 -0.056165315 0.048940618 -0.046600573 0.09665945 0.08275824 0.13473772 -0.06592157 -0.08021966 -0.13739814 -0.27006269 -0.19868149 0.011746122 -0.15948938 0.0140073085 -0.05269908
6239.F26H9.6 0.3022588 0.041343782 -0.12700942 -0.038915683 0.13619079 -0.0935942 0.1574582 -0.4607582 0.074011594 -0.016915776 0.14353128 -0.03522051 -0.06453254 -0.5362686 -0.13564031 0.12053141 0.050508082 -0.36834946 -0.13976204 0.3314703 0.17829248 0.024419513 -0.1737303 -0.6749904 -0.43742242 0.23250574 0.02219653 -0.28651342 0.00053987745 0.29975525 0.049112976 0.20588276 -0.06634655 -0.005295507 -0.2583634 0.12255319 -0.0018791744 -0.18660985 0.27588865 -0.015068067 0.28716886 0.22061272 -0.026775097 -0.039498203 0.13812445 -0.14177547 -0.12578008 -0.26502773 -0.2540298 -0.14810717 0.013870627 -0.048565898 -0.100174636 0.009544887 0.04008786 0.22395897 0.12684354 -0.24141361 -0.042202048 0.21008965 0.20864932 0.07137173 -0.18605068 -0.16776292
6239.C33B4.3c 0.31888694 0.049170148 0.033866692 -0.014623616 -0.028083242 0.013053391 0.32628977 -0.3214003 -0.5923689 -0.0839202 -0.015659103 -0.1748987 -0.1481982 -0.011623779 0.0055526313 0.09919522 0.017957097 -0.16179425 -0.31676513 0.23158972 -0.026221933 0.20534466 0.1099569 -0.28329584 -0.30894575 0.18089755 -0.096632175 0.038372792 -0.07992025 -0.42616928 -0.25327307 0.09052613 -0.0075076623 -0.12094142 0.30126205 -0.050845996 0.11056768 -0.108750425 0.11463752 -0.011873943 -0.12090315 0.18462273 -0.15068544 0.14877938 0.36343914 -0.29642984 0.03664098 -0.16230044 -0.16326758 -0.13706452 0.060768146 0.22583973 -0.033691954 -0.10008043 0.022180289 0.048837315 0.012979906 -0.20552205 -0.01843225 0.18247722 -0.06988565 -0.06263296 -0.08866292 -0.2971746
6239.F38A6.1a 0.34548852 -0.184695 0.07183104 0.32052487 -0.043735914 -0.12291916 0.018780388 -0.17101726 -0.34171906 0.19350837 0.0518838 -0.029036742 -0.19549683 -0.23720533 0.03118697 0.36387077 -0.52851266 0.11461192 0.09537028 0.23514643 0.02323084 0.35374293 0.008179652 -0.09640404 -0.011622928 0.06819054 -0.28046814 -0.02442524 -0.10717639 0.095719576 -0.11176673 0.28756037 0.1438618 -0.06929762 0.2622095 0.17831051 -0.0010860497 0.25656146 -0.08811366 0.34470493 -0.049273502 0.038104475 0.008811338 0.02335244 0.30399653 0.11743131 -0.016406823 -0.30298346 -0.06784415 0.07920303 -0.07177709 0.29857653 0.038109746 -0.090724364 -0.117600076 -0.12248557 -0.11926312 -0.3181627 -0.033845168 0.20838705 0.025239192 -0.36509243 0.16208564 0.0032574222
6239.T04C12.6.2 0.23798665 -0.12224465 0.20390676 0.117021695 0.14010195 -0.3713742 -0.04492849 -0.3600699 -0.23310468 -0.2448347 -0.13579895 -0.14693667 0.23256798 0.02495713 -0.38328144 0.12577313 -0.20482434 -0.046502706 -0.013639593 0.018216593 0.3973155 0.06529213 -0.027649928 -0.28030473 -0.26386768 0.31945753 -0.2359442 -0.090894625 0.041228183 -0.086329035 -0.012645835 0.089915894 -0.13381498 -0.31751087 -0.06178973 0.18142052 -0.033274345 0.063898824 0.09429138 0.118658245 -0.007217079 0.19557069 0.047011282 0.24925677 0.17222497 -0.41048327 -0.04280011 -0.17915812 -0.27422243 0.09652845 -0.118229 0.27043173 -0.049333602 -0.06349199 0.018505884 0.2695651 -0.10492168 -0.07511435 -0.09436641 0.20757762 0.08993791 -0.18328452 -0.068133414 0.27024865
6239.Y47G6A.8 0.031178826 0.052772854 0.10922014 0.17751423 0.10809045 -0.20393224 -0.26426795 -0.2192605 0.099563785 0.06151002 0.0035805686 -0.0058886604 0.0011347809 -0.06826725 -0.058097295 0.2794379 0.09039763 0.022964219 0.027710278 -0.01361106 0.2825721 0.45933354 -0.40860644 -0.16895612 -0.26948777 0.17243397 -0.16978924 0.11012522 -0.09774792 -0.09313568 0.23137844 -0.21277675 0.14783812 -0.031541035 0.26888558 0.18039338 0.0009167806 -0.11553471 -0.22031888 0.31356323 -0.27612916 0.13184792 -0.36474556 0.11933379 0.29384917 -0.27134004 0.17045993 -0.46943128 -0.26017323 -0.15639211 0.29458004 -0.10064888 -0.039587896 0.04352129 0.058243025 0.0012945166 0.02808568 0.0044281837 -0.15796806 0.13767424 -0.11867487 0.18912011 -0.12696247 0.039140504
6239.C35C5.4 0.027958306 0.070328884 -0.029150207 -0.17063133 0.03265019 -0.13679746 0.09011367 -0.44401076 -0.346818 0.06317059 -0.047147706 -0.042926226 0.3850078 -0.11991231 -0.23272745 -0.018454637 0.10899429 -0.27142575 -0.085660785 0.5266687 -0.009941647 0.072347656 0.07271173 -0.43173486 -0.19191502 0.26423663 -0.21745236 0.10697718 -0.024000542 0.014127763 0.121170595 0.10645714 -0.05944651 -0.093076736 -0.03951691 0.14322893 0.0020314083 0.020168176 0.30745605 0.07987952 0.0016292352 -0.010892344 -0.22763081 0.04703775 0.105659865 -0.26424584 0.049464986 -0.3760015 -0.036197387 0.07685653 -0.08559415 0.44098768 0.09452743 -0.102440625 -0.012700779 0.039423563 0.10838435 0.12237368 -0.34956494 0.70728785 -0.0754765 0.08470472 -0.16820516 0.0016724265
6239.F42G8.4.1 0.27637142 -0.10726583 0.37098533 0.30210117 0.17574798 -0.069558136 0.39490604 -0.11377704 -0.22357747 -0.0353906 0.1387704 -0.10626187 -0.2196666 -0.14552504 -0.31227806 -0.18974936 0.019205466 -0.14582199 -0.33700824 0.20871739 0.1556496 0.37835994 0.048569348 -0.0421733 -0.17420354 0.40890074 -0.1733807 0.27789068 -0.04551011 -0.28025925 -0.17636313 -0.040137555 -0.055658873 -0.055473093 -0.043811865 0.04657518 -0.11666016 0.059754044 0.1796597 0.18304332 -0.18025723 -0.17939521 -0.16851811 -0.009637686 0.21374413 -0.15423676 0.01648665 -0.31992364 0.013279822 0.002637962 0.004958842 0.15564999 -0.09513776 -0.075574614 0.18852712 0.24010426 -0.12962069 -0.3644074 -0.2127058 0.21266708 -0.28580704 -0.4002928 -0.117782086 -0.13389237
6239.Y49E10.14a.2 0.09166577 -0.11522781 0.2549882 0.05075602 -0.14183971 -0.51326394 0.019033968 0.11095465 0.18143126 0.120186776 -0.07988642 -0.10237967 0.118455306 -0.03043894 0.06092735 0.34883693 -0.17381209 -0.2898683 0.3290789 0.53442097 0.1951379 0.16781558 -0.05174857 -0.21280873 -0.08929152 0.06654663 -0.22895055 -0.034188244 -0.05209427 -0.2149487 0.33558813 0.007999181 0.26935038 -0.054963138 0.03629496 0.1902491 -0.061487697 0.044052348 -0.27153483 0.30631056 -0.090251245 0.04699907 -0.029499289 -0.117831334 0.40124372 -0.30498105 0.08064241 -0.15307808 -0.15183456 0.054663114 0.10630901 -0.19747737 -0.08681083 -0.15062316 -0.06272839 0.03603085 -0.115305334 -0.17323409 -0.21321231 0.47530684 0.16222382 0.067418195 -0.107931 -0.2415843
6239.B0025.1a 0.43683398 -0.097878374 -0.060287233 0.1449486 0.17857519 -0.15428755 -0.04821327 -0.15474007 -0.27525467 0.0004521233 0.09524055 -0.04286882 0.12656751 -0.47049645 -0.14369717 0.37303945 0.01329988 -0.14490466 -0.27118304 -0.0017441298 -0.09740869 0.28486425 -0.031100465 -0.5410175 -0.17758907 0.2560047 -0.2332394 -0.0078864535 0.0833854 0.0036352074 0.07042736 -0.02371533 -0.29715332 -0.036906358 -0.2645283 0.2009641 -0.13998939 -0.3616768 -0.12330275 0.25139868 -0.100423746 0.27049106 0.0037169806 0.06288893 0.13613616 -0.26083168 0.13286486 -0.39824072 -0.26296192 -0.483541 -0.07867807 0.025391381 -0.24996114 -0.09977174 -0.009846545 0.031295687 -0.3930127 -0.12545672 -0.24507101 0.19287242 0.0899046 -0.07103025 -0.092363015 0.08827445
6239.ZK1010.1 0.49152416 -0.39507514 -0.20255016 0.11304051 0.0567003 -0.20729269 0.35928348 -0.037200835 -0.049461517 -0.27132523 0.23930214 0.024086896 -0.13146539 -0.31808263 -0.022815734 0.028542528 -0.014349262 -0.3969609 0.12268266 0.16171928 0.5716375 -0.041788477 -0.46412948 -0.13428253 -0.042839278 0.2749687 -0.06903735 0.11322763 -0.16181025 -0.03142751 -0.23734844 0.265415 -0.2355543 -0.24001768 0.24627249 0.011153094 0.40391266 -0.24073072 -0.339452 0.0748974 -0.30597448 0.19896656 -0.24373879 0.16999233 0.19621798 -0.28792036 0.08274978 -0.6564583 0.079441056 -0.353441 0.09178217 -0.13043784 0.03220237 0.19059941 0.057168413 0.13281274 0.17515047 -0.024811488 -0.29588535 -0.16500327 0.2232782 -0.005008458 0.2817143 -0.04286196
6239.R06C1.1.1 0.24589664 -0.12636666 0.01222602 0.21084863 0.2234413 -0.27025998 0.057608392 -0.15267017 -0.2360325 0.1507674 0.19844486 -0.2379222 -0.061931573 0.102375984 0.10284147 0.28137803 -0.24273308 0.016869668 0.21593736 0.06547614 0.22475187 0.52115816 -0.082553476 -0.12540163 -0.23951009 0.12739308 -0.25222385 0.15738821 -0.107921846 -0.02281797 0.10389692 -0.04079437 0.26985317 0.18928301 0.12158979 -0.012140821 -0.012317341 0.18122695 -0.14578877 0.05299668 -0.23974684 0.46464235 -0.21137173 0.07784603 0.18538004 -0.08766445 -0.0175595 -0.47268617 -0.16213846 -0.10090598 -0.024944277 0.1379914 -0.09064017 -0.02376296 0.04381332 0.03204632 -0.104139976 -0.0369724 -0.18085471 0.0631709 -0.021934168 -0.19669165 -0.088088684 -0.14866556
6239.M03A1.1b 0.1838627 -0.15669009 0.15786718 -0.00038820412 -0.1021323 -0.11690689 0.24610154 -0.27429 -0.058768038 -0.08171125 0.26254094 -0.4502114 0.19661243 -0.07832391 -0.019482672 0.14881407 -0.21148814 -0.16425897 -0.10839656 0.14472036 0.07056053 0.18112156 -0.09935392 -0.29252055 0.017371861 0.083276115 -0.14161567 -0.13469684 -0.062082753 -0.03865093 0.0290053 0.1204911 0.082139924 -0.36258546 0.16489239 0.1782461 -0.13584827 -0.03774743 0.28556964 0.1963925 0.15934426 -0.04632787 -0.16465412 -0.23610386 0.25752926 -0.2063599 0.10373418 -0.40663412 0.20004144 0.005575218 0.20253882 0.17443366 0.1798542 -0.065307006 0.23323052 -0.23830506 -0.0033922326 0.107570246 -0.2992055 0.25236225 -0.16497885 0.105998755 -0.1593736 -0.23252
6239.F38H4.9.2 -0.09405258 -0.09704177 0.21750046 -0.038928412 0.15955055 -0.3604892 0.17888555 -0.07144679 -0.21630894 -0.26271352 0.15135823 -0.1530089 -0.03156223 -0.17730471 -0.20709611 0.11182977 -0.08567349 -0.14485723 -0.0335793 0.06783928 0.14937942 0.2172435 -0.047592327 -0.26643685 0.06555084 0.20457837 0.031615034 0.19085722 0.06664341 -0.22805087 -0.20455398 0.13612147 0.30540174 -0.11204332 0.036775004 -0.08225539 -0.15344985 0.011772329 0.0016352659 0.24239783 -0.26174822 0.323385 -0.21149606 0.10696307 0.32137626 -0.41544077 -0.2709258 -0.24850832 -0.00964419 -0.004124755 0.013040025 0.160998 -0.10906762 -0.0823123 0.0015371449 -0.070139416 -0.030611197 -0.19126762 -0.1651182 0.18101972 0.095839866 -0.20446925 0.034336552 -0.18497284
6239.F58A3.2c -0.08965692 -0.023279406 0.09422548 0.06471276 -0.15682366 0.12308943 0.28393158 -0.05337404 -0.3035322 -0.15265737 -0.16747773 -0.025752239 0.17241976 -0.05943748 0.00744548 0.063269176 -0.3450319 0.14346737 -0.021970952 0.341491 0.0152280815 0.18037264 0.17004985 -0.3482085 -0.074097894 0.12256496 -0.2817407 0.18088414 0.14158016 -0.20557027 -0.3622231 0.21896021 0.063901775 -0.13974753 0.15220867 0.34485236 -0.15872112 0.17072551 0.023712229 -0.07477118 0.036763262 -0.04153406 -0.36690196 -0.023209548 0.33007327 0.16157502 -0.039514277 -0.54217064 -0.03639189 -0.16712616 -0.02798182 0.21583985 -0.03140853 0.25730485 -0.053564597 -0.097407706 0.2656024 -0.24183813 -0.21452853 0.17202112 -0.09117136 0.22744317 -0.08891568 -0.15423793
6239.C27A2.6 0.07492942 -0.00097349845 0.032936975 0.030689595 0.04812244 -0.46831578 0.12266964 -0.32123262 0.12785886 0.07223875 0.05115221 0.11403697 -0.043993272 -0.012549591 0.034873404 0.34413257 0.06911611 -0.1976653 0.14656368 0.2716487 0.40891415 0.3448633 0.022316972 -0.23383057 -0.055059496 -0.038062297 -0.3465582 -0.04851937 -0.17562522 -0.30804858 -0.005430186 -0.12219139 -0.13305831 0.15152787 0.3914436 0.09596158 0.22503626 0.06549692 -0.107698284 0.242768 0.10986937 0.014759361 -0.28465837 0.017967986 0.3774826 -0.30027002 0.06316045 -0.14228658 -0.1312726 -0.2839487 0.34831637 0.370207 -0.05266885 -0.095296025 0.28552485 -0.28439364 0.1998852 -0.046351846 -0.45840082 0.3654978 0.10585272 -0.06680066 -0.0071994066 -0.08362257
6239.C26D10.2a 0.11286829 -0.08180261 0.033583533 0.111988485 0.054701094 -0.47719064 -0.050323807 -0.119195834 -0.013564298 -0.0035710735 -0.17006975 -0.14214018 0.2725655 -0.10523488 -0.090930276 0.10626175 -0.13646105 -0.12970091 0.08757889 0.071926035 0.48498577 0.47604778 -0.3686708 -0.063106164 -0.21958473 0.17436767 -0.17404208 0.09871071 -0.0605928 -0.35975906 -0.043702766 -0.101932995 0.31483242 0.1875183 0.12976049 0.11039544 -0.123162515 0.10138221 -0.046404697 0.3669223 -0.21947499 0.4597547 -0.027018566 0.18289429 0.28910115 -0.26023036 0.108349964 -0.33596525 0.22065902 -0.14768565 -0.19174837 -0.10318521 -0.0098046055 0.025969982 0.014173362 -0.0946102 0.024011062 0.06152591 -0.08419409 0.07294909 -0.1092842 0.28920078 0.04132439 0.08735066
6239.F26E4.10a 0.25879505 -0.20370191 0.064181276 0.032667987 0.20006019 -0.5347177 -0.1055261 0.08364333 0.00093364646 0.33751923 -0.14937553 0.0347688 -0.26530573 -0.06770971 0.25118127 0.26818204 -0.1922157 0.031449515 0.069807775 0.12711433 0.49769515 0.46016818 -0.18079937 -0.1595818 -0.1141552 0.04194552 -0.089263625 0.18990573 -0.1350725 -0.11575431 0.008685275 -0.20762461 0.015601554 -0.10403455 0.09519489 0.023894697 -0.04201837 -0.12693307 0.051839184 0.21559022 -0.06160838 0.37340927 -0.18998504 -0.10656963 0.20448804 -0.22608896 0.08125964 -0.38202947 0.13045391 -0.17053296 -0.09700103 -0.21547596 -0.08467019 -0.05957794 0.094848305 0.13147686 0.09912664 -0.21096131 -0.15943089 0.42213485 -0.33802652 0.2618678 -0.11961887 0.073431775
6239.Y73B6A.5a.1 0.11520643 -0.31774297 0.26182488 0.10385639 0.05035559 -0.2808218 0.28515515 -0.17119099 -0.0012547073 -0.22562553 -0.004838192 -0.052456763 0.048684254 -0.26470515 0.13699068 -0.06844943 -0.34690693 -0.3707152 -0.03526396 0.1729081 -0.026295569 0.41418833 -0.0435736 -0.14353661 0.049078386 0.27857515 -0.058312297 0.14301388 -0.054981105 -0.18110809 -0.011091793 0.049696304 -0.08142598 -0.3090177 -0.03725935 0.26366124 0.0044446704 0.05549832 0.057923045 -0.004969206 0.073713735 -0.08629106 -0.2448643 -0.31600425 0.33092725 -0.33080533 -0.026020775 -0.45406482 0.06277204 -0.140029 0.14288053 0.16109928 -0.0289936 -0.11479702 -0.007824471 0.18072669 -0.004536972 0.060685303 -0.10243946 0.100578345 -0.1446264 -0.14711477 -0.03611677 -0.3946303
6239.C18A3.6a 0.18877484 0.11208352 0.12194755 -0.3151377 0.2067923 -0.03271212 0.32003465 0.14611888 -0.11094224 -0.070230216 -0.05605511 -0.046166252 -0.09933378 -0.32695857 -0.14165385 0.053928036 -0.09018 0.013406576 -0.4391233 0.5979745 0.34644002 0.1198998 0.057833564 -0.17101705 -0.3856664 0.16970643 -0.1523019 -0.023329845 0.19857319 0.06629981 -0.320513 0.4125505 0.0039457832 -0.17947887 -0.14403969 0.23589554 -0.27803284 -0.019894982 0.089439884 -0.2602023 -0.0077883345 -0.024631113 -0.062083744 0.13896148 0.3055094 0.06493515 -0.12085903 -0.11607512 -0.13744415 -0.03744771 0.16191684 0.17302646 -0.28267023 0.15210474 -0.109727316 0.08282141 0.27007627 -0.14475313 -0.1462944 0.32857433 -0.2540323 0.1083414 0.109919496 -0.23303328
6239.C53A5.3 0.2331563 -0.13769332 -0.003260745 0.19724102 0.35631284 -0.2809638 0.05582317 -0.21744996 -0.22111186 0.063324876 0.15610865 -0.24110763 -0.08945411 0.048682682 0.070908256 0.29416803 -0.18828855 -0.0002524391 0.25465703 0.14208706 0.06872623 0.53842753 -0.0969412 -0.067580566 -0.17338544 0.082262136 -0.21488363 0.17682509 -0.14175554 -0.004137306 -0.0015166233 -0.022452734 0.30737287 0.076358564 0.3022917 -0.06341998 -0.09970459 0.17699628 -0.19107723 0.14863409 -0.1471658 0.3718245 -0.0020026797 0.061520334 0.20279834 -0.14734793 -0.15984413 -0.47908604 -0.048654303 -0.05507503 -0.08363959 0.10548848 -0.015799005 -0.0017854309 0.0753744 -0.07470848 -0.056882378 -0.12594822 -0.22342552 0.07248332 0.0061611095 -0.33491787 -0.23897749 -0.13237324
6239.C15H9.6.1 0.23043655 -0.04342048 0.21207853 0.08584035 0.18235327 -0.16361201 0.08014623 -0.26773033 -0.13246046 -0.05096041 0.19313923 -0.03169158 0.37728104 -0.20196037 -0.23483542 0.12788248 -0.038189538 -0.20669147 -0.1361995 0.2587325 0.36335143 0.34938684 -0.13144651 -0.23666862 -0.019807728 0.43082127 -0.24991646 -0.26618075 0.25053445 -0.051507343 0.08771249 0.062901154 0.19777153 -0.018419562 -0.14096454 0.19209531 0.22660911 -0.181085 -0.043271862 -0.13538358 -0.38624087 0.0008895933 0.037810434 0.40028486 -0.062924236 0.02768908 -0.05395529 -0.22875953 -0.011860704 -0.19900224 -0.18592037 -0.04130995 0.6053314 -0.11405638 -0.08029396 -0.06433288 0.055478536 -0.36514315 0.04716859 0.012610229 -0.19014254 -0.19180074 0.12989388 0.059032526
6239.Y53C12A.1 0.18257305 -0.0059170225 0.19378029 0.24723975 0.085105784 -0.43857867 0.051815193 0.050705567 0.105597354 -0.050869565 0.054579962 -0.05926296 0.02850711 0.06774853 -0.06769686 0.06381145 0.029860158 -0.121736385 0.098632336 0.20919465 0.2395971 0.12147865 -0.11317428 -0.41337964 -0.10773521 -0.12598574 -0.057839688 0.117391914 -0.016820671 -0.24754938 0.292904 -0.017288523 0.22308679 -0.2295257 0.097468115 0.11443818 -0.26322067 -0.023124622 -0.002772249 0.43089005 -0.111533515 -0.10064134 -0.101508714 -0.12975691 0.4387798 -0.21463618 0.072980255 -0.45602047 -0.17167056 -0.051720284 0.088661045 -0.10450064 -0.029793799 -0.21452053 0.18822701 -0.23511833 -0.07341003 -0.19397892 -0.26571113 0.37462884 0.06579343 -0.22113347 -0.24468514 -0.025109926
6239.Y39G10AR.14.1 0.12502815 0.063232064 0.07131819 -0.03083244 -0.023637014 -0.3315684 -0.0615575 -0.18418571 0.13981703 0.14673615 0.051608875 -0.0985607 0.23514895 0.0089756595 -0.0068187793 0.20309924 -0.10173604 -0.07225762 0.057083394 0.17159581 0.3722749 0.28319097 -0.03418063 -0.26324904 -0.23905772 0.03221457 -0.16092137 0.168502 -0.038745783 -0.1726735 0.34883794 -0.08842618 0.34073508 -0.052908998 0.09697946 -0.027971735 -0.014216069 0.0056093903 -0.09849966 0.42327842 -0.16676174 0.31221986 -0.16369861 0.064347856 0.4926144 -0.49902475 0.038550854 -0.30438069 -0.116881005 -0.1652524 0.13504955 -0.12610877 0.047290426 0.07134106 0.118688464 -0.08674025 -0.03498717 0.015415339 -0.27339378 0.22005428 0.08843302 0.008470821 -0.25127554 0.13303183
6239.R06A4.7 0.22326216 -0.03690538 0.07733545 0.0305494 0.18954518 -0.34575686 -0.11945689 -0.20484294 -0.17397109 0.084063716 -0.071001306 -0.10218945 -0.045882024 0.22570178 0.10567591 0.32278812 -0.34967533 0.078342274 0.26951924 0.4489885 0.20244513 0.46024117 0.049405888 -0.050485283 -0.27929097 0.06900932 -0.17066295 0.19705272 -0.189403 0.015613147 -0.06335137 0.06558105 0.16770764 0.09110464 0.15076602 -0.087132625 -0.0049476493 0.12458756 -0.18350306 0.2743888 -0.09006093 0.39921314 -0.15270907 0.03877934 0.09987345 -0.075322114 0.12630297 -0.500861 -0.05653032 -0.122652225 0.09845858 -0.1967189 -0.029246636 -0.024701247 0.1277271 0.16344297 -0.26422068 -0.12682416 -0.15548751 0.27582064 -0.014558601 -0.14643338 -0.36792493 -0.08460276
6239.C12C8.1 0.07190228 -0.24708067 0.2099595 0.2733985 0.03352283 -0.32817483 0.1532244 -0.20298715 -0.06817146 -0.15692054 0.015833756 -0.19560039 0.11632581 -0.18369651 -0.11511379 0.1605837 0.038491394 -0.06368476 -0.15090156 0.035247803 0.18441896 0.41936475 -0.23730698 -0.2818411 -0.39354098 0.098407514 -0.25285724 -0.096939385 0.08362646 0.16056596 -0.016018653 0.014064748 0.15108326 0.000637407 -0.01423203 0.065402664 0.20965208 -0.09417854 -0.07636826 -0.12977856 -0.37800702 0.09768712 0.026449941 0.4105579 -0.027479375 -0.27184233 0.04610452 -0.27062923 -0.04864814 -0.090808004 -0.17039116 -0.049747195 0.3807334 -0.022674311 -0.13360971 0.066126265 -0.027579777 -0.31674197 -0.045632455 0.15900776 -0.017003642 -0.12152973 0.13428976 -0.02302838
6239.M7.2b 0.025133438 0.11574977 -0.17144366 0.23438714 -0.021730082 -0.48275542 -0.17744999 -0.12008016 0.19177684 -0.10317827 0.17397872 -0.1608435 0.061387718 0.06303978 0.035194714 -0.0028662712 -0.0072547854 -0.23154172 -0.25715634 0.3536089 0.3112674 0.29935 -0.076627284 -0.14868507 -0.32249928 -0.097299404 -0.42070788 -0.23959449 0.17284153 -0.010452379 0.4255573 0.1623946 0.24179639 -0.057442844 0.14854671 -0.13416834 -0.117234536 -0.08055197 -0.08516161 -0.1151466 -0.11725734 -0.011941582 -0.25174946 -0.032852475 0.38333526 -0.35846332 -0.2058347 -0.32586294 -0.3678973 -0.016271159 -0.031243253 -0.07643361 -0.29087752 -0.20466064 0.18327251 0.1448344 0.03316804 -0.27691 -0.037288256 0.22248411 -0.059042994 -0.010780123 -0.12068776 -0.3593081
6239.C08B11.2 0.23742372 -0.12601869 0.02722435 0.114841916 0.14040764 -0.21912186 0.028666591 -0.2186963 -0.22672097 0.2962161 0.192374 -0.28931323 -0.18304773 0.023275623 0.042343836 0.10520179 -0.14968444 0.03327549 0.26532927 0.10994689 0.16986075 0.43530065 -0.09303004 -0.066157654 -0.3116238 0.1404704 -0.28630707 0.17059432 -0.11657588 0.044006445 -0.06504276 -0.12041553 0.12679553 0.13557193 0.07079048 -0.001901584 -0.060000498 -0.0077637904 -0.118353866 0.10025394 -0.19220802 0.5320102 -0.19681549 0.15686297 0.2156651 -0.1627721 -0.18554237 -0.46338657 -0.3252745 0.051396318 -0.106131 -0.018446725 -0.018479984 -0.08181766 0.16407719 0.047746934 -0.14926843 -0.049954418 -0.159119 0.14685118 -0.09691732 -0.14393619 -0.10690027 -0.1752309
6239.C06A1.1 0.011492156 0.3293419 -0.08464043 0.43066806 0.12498678 -0.5422043 0.2264015 -0.1452914 -0.2045206 -0.25565514 -0.16137545 -0.01765479 0.3148498 -0.054100603 -0.335296 0.11296882 -0.23761347 -0.3350759 -0.048567254 0.17045207 0.38815144 0.044233564 -0.006579966 -0.17614494 -0.23100337 0.41339332 -0.2005048 0.10632839 -0.20275317 -0.08752885 0.29357204 0.33556828 0.20093289 -0.01019654 0.02929032 0.31112012 -0.001892164 -0.2166879 -0.34669173 0.14127332 -0.34194678 0.33611694 -0.14692016 0.023716446 -0.017743604 -0.34665304 -0.03764454 -0.061581403 0.08463139 -0.005365673 -0.10779885 -0.19805893 0.22786403 0.036714286 0.092694834 -0.24522296 0.12690452 -0.2673402 -0.046374895 -0.15734112 0.06271871 -0.15904808 -0.24099717 -0.03399636
6239.C47D12.1a 0.3014257 -0.08034928 -0.06261061 0.2142563 0.115527324 -0.31320316 0.1332193 -0.2549782 0.013575225 -0.141679 0.16122526 -0.11904161 -0.096869096 0.0017081099 -0.005919769 0.33758152 -0.21648264 0.01267707 -0.26266235 0.1788497 -0.065334424 0.28914073 -0.04935396 -0.327431 -0.25129005 0.20190121 -0.28097492 0.09293761 0.08394317 0.058948696 0.011048576 -0.059356384 0.22135668 -0.118336886 -0.15603828 0.31401604 -0.18350215 -0.13868323 -0.042145774 0.22376317 -0.111406475 0.32221162 0.020543186 -0.19830799 0.15637793 -0.21385057 0.29281196 -0.5666943 -0.15011479 -0.2493984 -0.009075339 -0.05288664 -0.033527866 -0.10980429 -0.12009497 -0.17930047 -0.4870138 0.1510973 -0.22793914 0.1586552 0.08276695 0.09209617 -0.15247902 0.22808577
6239.Y71F9B.7 0.28468022 0.13323097 0.07189996 0.20725462 0.2179813 -0.5309815 -0.038635578 -0.07953762 0.05835381 -0.17789918 0.18422212 -0.075661875 0.1874035 0.00892685 -0.010782726 0.027052661 -0.046655208 -0.028040214 0.023716502 0.2891701 0.14354795 0.15874012 0.0113331005 -0.42458522 -0.28855085 0.028583428 -0.15634944 0.11315582 0.028150925 -0.20177251 0.32631722 -0.05709702 0.34232324 -0.24522552 -0.086839564 -0.10541816 0.020253198 0.15000235 -0.13287842 0.254336 -0.15884984 0.043570515 -0.2142919 0.011846158 0.45749697 -0.30630738 -0.02283171 -0.34322193 -0.20205 -0.07109929 -0.033925213 -0.19060645 -0.1567869 0.19483468 0.3534301 -0.07893444 -0.01260162 0.014932473 -0.023556361 0.38207456 0.09382484 -0.099804975 -0.1405076 -0.1101793
6239.F26B1.3 0.11834011 -0.038373362 0.19185881 0.18291317 0.017986674 -0.3400258 -0.0592733 -0.06569043 0.20921956 0.062498804 0.10839306 -0.15070008 0.23562083 0.09698604 0.0589617 0.072514094 0.012069912 -0.13208126 -0.035680152 0.31586838 0.33472046 0.3673601 -0.28611022 -0.25563517 -0.26733187 -0.01994653 -0.086989745 -0.06604024 -0.13244282 -0.07856052 0.30766526 -0.027995612 0.23631567 -0.05134192 0.07028743 -0.10317394 -0.04298836 -0.0023047058 -0.3782346 0.27858582 0.05422237 0.27760386 -0.31868333 0.019204358 0.53688073 -0.30760667 0.108152255 -0.34678286 -0.0932517 -0.09229506 -0.0048931222 -0.33938697 -0.03903692 -0.20948428 0.19159548 -0.05365599 0.15260892 -0.0441867 0.10021415 0.2176721 -0.1910436 -0.022727102 -0.19707114 0.032971494
6239.Y2H9A.1 0.13595557 -0.103276156 0.16175121 0.039482594 0.22087257 -0.27432308 0.002879668 -0.16998999 0.0862213 0.054070946 -0.021756051 -0.18908331 0.071774304 0.16489616 0.13678485 0.38086173 -0.32102165 -0.008215346 0.24292836 0.24196085 0.23821045 0.34410655 -0.05749576 0.07344461 -0.24568808 0.11672752 -0.12884778 0.24971744 -0.15265253 -0.18564577 0.1255813 0.13552926 0.08108288 0.039383996 0.22118577 -0.11039514 -0.11334423 0.07098149 -0.18556772 0.2565215 -0.024438417 0.46640787 -0.28382283 -0.054695196 0.36872268 -0.23249345 0.11892914 -0.55191714 -0.0044332193 -0.15012318 0.06949028 -0.28041974 -0.014484283 -0.31462157 0.127816 -0.013810837 -0.24518968 0.15622161 -0.26135558 0.27196908 0.01692896 -0.062226143 -0.29755715 -0.07049242
6239.Y105E8B.1a 0.25339982 0.014424496 0.111905225 -0.036042564 0.0056622764 -0.16597718 0.35531542 -0.4304898 0.0006135404 -0.056511857 0.17699485 -0.024968304 0.08116636 0.012689181 -0.072995864 0.2160169 -0.17935534 -0.072583266 -0.16067044 0.10383548 0.28964725 -0.008767263 0.011147361 -0.2721027 -0.43146613 0.13439655 -0.09621086 0.16461715 0.20172732 -0.057254992 -0.2290608 0.18391594 -0.0061501693 -0.43483046 0.013238722 0.33691797 -0.07482419 0.4857521 0.109936975 -0.0044674897 0.06418819 0.006506159 -0.22107859 0.49424475 0.229316 -0.064870656 0.1448511 -0.038827766 -0.21021694 -0.003515753 -0.26466304 0.13352595 0.16920158 0.09575979 -0.09639198 -0.15315905 0.022040663 -0.10931166 0.0812822 0.15372281 0.34087768 0.029951297 -0.13932677 0.00927985
6239.W03C9.3.2 0.20536011 0.06537412 0.059448857 0.025001744 0.07997754 -0.28004616 0.086606234 -0.1950036 -0.12797222 0.03293456 0.030398611 0.1119902 0.12770508 -0.51614696 -0.19090663 0.25307655 -0.15911461 -0.12183052 -0.34182772 0.11511888 0.13028683 -0.027093941 0.030306177 -0.6845973 -0.21464618 0.49687913 -0.035265826 -0.34907436 0.20293817 0.009764684 -0.05996974 0.2758212 -0.15238732 0.07019903 -0.38318494 0.12682298 0.0049168984 -0.19341363 0.24219343 0.3559504 0.17359263 0.031990286 0.06979694 0.03233419 0.11336065 -0.19268253 -0.23503764 -0.26875907 -0.15086916 -0.37139452 -0.054939058 -0.04592616 -0.09116024 -0.21447377 -0.07447713 0.15225881 0.13909496 -0.22660163 -0.34973985 0.17939682 -0.020074723 0.0021650253 -0.08571587 -0.121162735
6239.F42H11.2 0.4236337 0.08344731 0.048972934 0.116024196 0.17336884 -0.21125796 0.02152488 -0.28169268 -0.23877756 0.009657654 -0.014202842 -0.21841274 -0.12531745 0.12589267 -0.02953272 0.18550308 0.17461498 -0.21130258 -0.1832559 0.222728 0.11812679 0.30958444 0.101986505 -0.21676803 -0.34890646 -0.016353117 -0.1417903 0.018406982 -0.15394422 -0.23973933 0.0118939085 -0.118765295 0.0071229483 -0.20899525 0.13296142 -0.037369963 0.17466307 0.11323292 -0.1924522 0.10045626 -0.09363918 0.29717323 -0.29060438 0.13129672 0.3350434 -0.41828072 0.18026848 -0.26406345 -0.11188464 -0.2065349 0.2611024 -0.08578671 -0.068978064 -0.16951425 0.06501899 0.14911364 -0.11538069 -0.3870363 -0.07717668 0.0410162 0.21222861 -0.1516479 -0.11351011 -0.24720454
6239.T25F10.2.1 0.42718035 -0.16569313 0.38175374 -0.011036465 -0.0127041135 -0.074134246 0.17893416 -0.31538498 -0.30542472 -0.0034926548 -0.12652172 0.36768067 0.070282206 -0.47064534 0.07921233 -0.0009861047 -0.33028957 0.01226303 0.23448202 0.36796322 0.08163126 0.25763404 0.12008947 -0.1469013 -0.10995113 0.090546206 -0.31255674 -0.08593005 0.040740427 0.0030603018 -0.26446682 0.10277286 0.08898928 0.1565883 0.07431716 0.22307792 -0.28766212 0.041257586 -0.121886194 -0.108390324 0.34459588 -0.06771038 -0.2348957 -0.051151283 0.33775112 0.17156146 0.04465483 -0.17248124 0.060854692 0.3659992 0.1387901 0.18342608 0.10371115 0.28272772 -0.12691998 -0.19370992 0.04785826 -0.41029736 -0.20416337 0.096621096 -0.043458834 -0.07418398 0.042847797 0.022204602
6239.F44F4.2.1 0.11388617 0.069733195 0.22235672 0.34167287 -0.06944941 -0.27918026 -0.016211076 -0.004831166 0.02880313 -0.17525284 -0.095617376 -0.08218835 0.23578602 -0.0040817624 -0.0026052722 0.26238415 -0.103204176 -0.17258562 0.05259663 0.30141947 0.31887376 0.16431801 -0.28547585 -0.16240507 -0.17145689 -0.07059409 -0.11581691 -0.14969808 -0.07667054 -0.27330157 0.25795987 -0.24743302 0.23608722 -0.09873376 0.10550491 0.22981241 -0.117059365 -0.1237793 -0.11088507 0.17978336 0.0029484343 0.0054412466 -0.08719206 -0.062116284 0.54770905 -0.3299604 0.012893154 -0.37858433 0.02250568 -0.0086018555 -0.16988204 -0.20749068 -0.13563956 -0.2778222 0.1956857 0.13288938 0.0127044935 -0.07916674 -0.2930357 0.25135332 -0.083448865 0.061873734 -0.22195637 -0.22510225
6239.H26D21.2 0.3434537 0.104072675 0.028621359 0.24431221 0.24600165 -0.37109244 -0.27242926 0.008556509 0.20937061 0.15259232 0.012902219 0.015098066 0.0987077 -0.08812402 0.06520722 0.30151993 -0.06331573 -0.08782118 0.07631558 0.33542973 0.14770125 0.2763291 -0.1003102 -0.15464032 -0.41576663 -0.08939666 -0.088446766 0.17801042 0.113126054 -0.122610725 0.42089298 -0.27002898 0.27720082 -0.09372797 0.2726242 0.048167836 -0.0320877 -0.09723855 -0.30802777 0.2736856 -0.28109378 0.25128952 -0.36929464 -0.038834095 0.38645676 -0.19303451 0.21034205 -0.42898357 -0.24563095 0.12187449 0.03974493 -0.16078372 -0.017364478 -0.01648441 0.00037821126 -0.066445746 -0.09747724 -0.10988942 -0.2283712 0.10886957 -0.017833337 0.05082522 -0.25781485 0.050863013
6239.K07A1.12 0.120882526 -0.07623647 -0.12524754 -0.14228211 0.017971797 -0.3858511 -0.059432708 -0.20356165 -0.03695526 -0.036669552 0.066927545 -0.28115028 0.06274794 -0.031625755 0.045812443 0.38575697 -0.2004777 -0.15300386 0.14879218 0.29284436 0.31207857 0.4505559 0.011047597 0.1780414 -0.31653282 0.18521355 -0.16161734 0.33637357 -0.045775786 -0.13257854 -0.053060774 -0.0012170706 0.1826669 0.027468426 0.082919165 -0.18757889 -0.034684177 0.37627423 -0.19936173 0.4517394 -0.1954982 0.39094862 -0.038130805 0.2270323 0.24051687 -0.2891794 0.09519482 -0.38372788 -0.13697702 -0.08967512 0.24456781 -0.29129058 -0.041545704 -0.12571043 -0.04215824 -0.0074178246 -0.05735717 0.01107009 -0.34083623 0.195909 -0.2280383 -0.0015023701 -0.18528277 -0.049048066
6239.F25H5.4a.1 0.18579516 0.015120655 0.023585567 0.38485447 0.060671017 -0.48445106 0.02856939 -0.18194318 -0.07435474 -0.36725172 -0.27554756 -0.20112573 0.3083261 -0.21201096 -0.15699337 -0.13889818 -0.28801423 -0.26704782 -0.041663785 -0.10981578 0.28777754 0.30865583 -0.291374 0.0070224246 -0.3117143 0.28831878 0.06435936 0.07788237 0.067886665 0.11675627 -0.36406177 -0.009302504 0.21554372 -0.0035938178 0.30569053 0.39391226 0.13123892 -0.05373195 -0.008241758 -0.04452483 -0.35560456 0.17308462 -0.18961741 0.10189304 0.1595838 -0.4186905 0.015903102 -0.0658592 0.24926299 -0.019455189 -0.27204606 -0.10660178 0.32399052 -0.13349442 -0.1651885 0.1305998 -0.028299788 -0.18389985 -0.18167579 0.33252153 -0.14240065 0.13011262 0.06586023 0.005418342
6239.M7.5 0.36065438 0.21929713 -0.21337144 0.31570736 0.20008788 -0.20775823 -0.06510482 -0.046064258 -0.05967102 -0.20818526 0.20502803 -0.2672644 -0.093439534 -0.4785703 -0.045660384 0.22765708 -0.22857739 -0.38025218 -0.23750398 -0.25105354 -0.06511972 0.2611476 -0.2393521 -0.35851902 -0.31008303 0.30631655 -0.42430067 0.43588433 -0.043193866 0.1858968 0.26277316 0.2116879 0.076306865 0.046543557 0.13526314 0.3018302 0.06567174 -0.19320846 -0.13944907 0.32425874 -0.20695636 0.050808176 0.08485665 0.062247008 -0.13121535 -0.35871515 0.04381192 -0.2196527 -0.17990088 -0.0029502197 -0.09809769 -0.17176162 0.20901436 -0.11785359 -0.17358221 0.047094226 0.22708051 -0.2320517 -0.17705849 0.12973523 0.13016546 -0.19172874 -0.03087001 -0.17334463
6239.T20G5.1 0.20261046 0.040792827 0.17076902 0.11022325 0.1442734 -0.15111022 0.23291194 -0.4534637 0.03174127 -0.032011017 0.14481296 -0.2696998 0.07502204 -0.47342092 -0.21618865 0.0019088349 -0.12057296 -0.4613755 -0.22745189 0.17742856 0.35754594 -0.028891928 -0.0643968 -0.4758186 -0.20878166 0.37517056 -0.050859563 -0.24048124 0.0407268 0.047722436 0.14583652 0.2027955 -0.071787864 0.08755902 -0.12498274 0.03563258 0.15775314 -0.060555212 0.17748432 0.040763568 0.019105602 0.40092954 -0.17565061 0.11590526 0.08677512 -0.04551926 -0.2404996 -0.20915788 -0.058456298 -0.1858301 0.06154253 0.1663101 0.3000377 -0.043596156 -0.03568943 0.07067176 -0.041836694 0.021951063 -0.13008629 0.17580557 -0.038797352 0.16814128 -0.29892454 0.1725231
6239.C14B1.4 0.16475876 -0.17843503 -0.04687194 -0.03583811 0.14927305 -0.190504 -0.0525699 -0.3726041 -0.09164989 0.23508848 0.15009686 -0.313362 0.010540919 -0.09424901 -0.10816553 0.36961585 -0.045064352 -0.17887978 0.029966606 0.30770928 0.2598376 0.34996295 -0.17999871 0.21427234 -0.28056407 -0.14392072 -0.3389851 0.28703588 -0.13338543 -0.079110265 0.018552879 -0.045568094 0.16077682 0.20204923 0.13654058 0.00083990867 -0.08000426 0.1586406 -0.12689607 0.10786538 -0.10925392 0.48173833 -0.1621247 0.24318667 0.11587127 -0.16927204 -0.14740446 -0.44824365 -0.2270292 -0.10259121 0.0849034 -0.06811008 -0.038567845 -0.21070184 0.07157413 -0.09286383 -0.098547615 -0.08282841 -0.19672585 0.1591446 0.010353313 -0.072559476 -0.12797101 -0.06647165
6239.D2045.6 -0.027435834 -0.1253225 -0.134772 0.31806293 0.20931797 -0.2025994 0.13221157 -0.26841182 -0.0013336221 -0.116256 0.12990536 -0.23286478 0.030410148 -0.1732178 0.032683585 0.16997178 -0.08001451 -0.31813142 -0.09390734 0.030948354 0.11274685 0.050767437 -0.23609097 -0.23476246 0.010786982 0.32741353 -0.25130466 0.35609725 0.03112665 -0.11446369 0.052436307 0.19808209 0.42192894 -0.18797424 -0.06931743 -0.017100856 -0.10553425 -0.11600357 -0.31969425 0.30983573 -0.032955777 0.19722904 -0.069895886 0.1521486 0.037993576 -0.25383663 0.110256426 -0.35317987 -0.19593677 -0.10548044 0.3515213 0.09602996 0.1208873 0.20221244 0.19614318 0.0032274588 0.11383123 -0.2933237 -0.49485546 0.191272 0.121350765 -0.16907036 -0.034834445 0.032378532
6239.ZK1307.6 0.11175061 -0.09387792 -0.04565543 0.02931555 0.13936527 -0.26879826 0.07527362 -0.0053247157 0.017251005 -0.15299162 0.03995239 -0.28686637 -0.024014676 -0.08186436 0.07339513 0.0535767 -0.05664954 -0.11519651 0.07935955 0.26041174 0.2962102 0.4551651 -0.209626 -0.24694854 -0.037411902 0.32849234 0.11847656 0.34969956 -0.116226345 -0.02959593 0.22327217 0.14630978 0.3035902 -0.11666554 0.12470646 -0.14870831 -0.17408971 -0.11709917 -0.10125598 0.31000656 -0.11774677 0.057161365 -0.17430672 -0.03223418 0.314747 -0.30645576 -0.116719104 -0.41288704 -0.10152199 0.06902548 0.11506751 -0.05724 -0.06386584 0.15594165 0.055118866 -0.15595585 -0.2011517 -0.120364234 -0.22120494 0.4134526 0.16068774 -0.22920965 -0.19400217 0.12847121
6239.F07A5.7a.4 0.2476999 -0.15719488 0.30131784 -0.13314466 -0.016203072 -0.2759125 0.2906225 -0.1304615 -0.15591998 -0.0032673304 0.21621999 -0.12057163 -0.00936539 0.11002795 -0.15298617 0.0373105 -0.18371934 -0.04636521 0.023408934 0.20389938 0.32025513 -0.0342874 -0.012673019 -0.28393236 -0.29925364 0.11441195 -0.06114125 0.19290984 0.2720602 -0.016027426 -0.33264038 0.18958692 0.019676369 -0.33461183 0.13425376 0.17831025 -0.1799188 0.32630342 0.3682642 -0.16340594 0.13128133 0.010864705 -0.2560882 0.3871781 0.19164139 0.021938654 0.021489771 -0.32816765 -0.21429707 -0.16723979 -0.4273919 0.19875021 0.05548246 -0.14763759 0.06258421 0.01927823 0.06145342 -0.11515754 -0.03223323 0.15094338 0.27045852 0.035666436 -0.22798264 -0.1785276
6239.R107.8 -0.04545634 -0.26818892 -0.10067968 -0.019652838 0.052903667 -0.38990536 0.004240093 -0.54598993 -0.021159844 -0.05931073 -0.02784908 -0.1689648 -0.06137078 -0.01805779 -0.1573032 0.21132089 -0.4722571 -0.10234308 0.20319226 0.6202306 0.024608599 0.38210946 -0.08959193 -0.39976287 0.17005876 0.10533057 -0.18095422 -0.022644928 -0.24971159 -0.08279012 -0.21929705 0.32781053 0.15194184 -0.15410894 0.1510589 0.15367328 0.03467593 -0.007158368 0.009392042 0.10831995 0.35455376 0.08396325 -0.105639786 -0.14027408 0.21239601 0.22359668 0.0098436745 -0.3244035 -0.09205175 0.08248284 0.011800948 0.27348027 0.059614886 0.25581026 -0.033217758 -0.022381265 0.0915289 -0.14390676 -0.06975006 0.2796639 0.069713235 -0.14581524 -0.09823299 -0.00020241429
6239.Y110A7A.17a 0.11098614 -0.00013161029 0.20752059 0.13607201 0.11712144 -0.3365344 -0.077108525 -0.1849971 0.26760396 -0.025890255 0.22383425 -0.15869747 0.035789914 0.044259142 -0.03727666 0.1918228 0.05075008 -0.11241356 -0.032987602 0.23627076 0.110728174 0.253662 -0.118090965 -0.16324031 -0.32424188 0.14830668 -0.12220557 0.19522455 -0.03795679 -0.10742074 0.18685962 0.110612914 0.35795555 0.06454812 0.10261359 -0.10263702 -0.039001893 -0.055481665 -0.2056723 0.10463155 -0.16641854 0.20706345 -0.23955773 -0.11352492 0.32157573 -0.34071246 -0.13215971 -0.3883181 -0.26562807 -0.08433964 0.10294104 -0.090840735 0.0068031247 -0.25667563 0.16836384 -0.18995717 -0.03734978 -0.14818063 -0.38464037 0.3297092 0.11965152 0.056179777 -0.17311606 0.048165172
6239.Y65B4BR.4a 0.24327435 -0.38251776 0.05360578 0.020977432 0.18803574 -0.011305063 0.32321718 -0.17715636 -0.19705155 -0.0025062629 0.07362436 -0.20344795 -0.05514028 -0.50437367 -0.0035686586 0.09290525 -0.23175324 -0.44538394 0.008603267 -0.034400936 0.23337789 0.11034303 -0.253949 -0.3647526 0.15357448 0.22426914 -0.19400483 0.20606396 -0.14337187 0.023817204 0.2136147 0.25577602 0.18801531 -0.28330404 0.12117585 0.064795844 0.0031271586 -0.1177572 -0.2284402 0.01835847 0.04266099 0.17614947 -0.13120832 -0.01382156 -0.101794206 -0.43317455 0.17471369 -0.28855458 -0.117189094 0.04865354 0.0967336 0.08278385 0.11742983 0.35883644 0.14466251 0.18969806 0.12371514 -0.19625948 -0.26662785 0.08039861 0.1269515 0.04284389 0.05420621 -0.03748019
6239.F33G12.4.1 -0.029267238 0.22058277 0.248151 0.08414143 -0.026815133 -0.28269032 -0.01787034 -0.26422176 -0.038191542 -0.009113623 -0.08725313 -0.016604176 0.1809239 0.012245086 -0.20143443 0.28034618 0.012993205 -0.34777087 0.017013926 0.22669995 0.22787826 0.26661646 -0.17798771 -0.12742643 -0.10853367 0.030315623 -0.22669029 0.044690758 -0.19218312 -0.18027009 0.09899262 -0.17678916 0.16366093 -0.030401155 0.14540663 -0.12990642 -0.05815197 -0.10208866 -0.3454515 0.28681427 -0.17836066 0.20956187 -0.13026795 -0.034038246 0.5262155 -0.40110606 0.1947791 -0.29532862 -0.28914943 -0.093006656 -0.011532011 -0.16820428 -0.14283988 0.0029943609 0.312417 -0.096859865 0.05215126 -0.30576372 -0.36860868 0.10833703 0.1817552 0.20079403 -0.23369376 -0.33315727
6239.K03D3.10 0.1286211 0.09762401 0.028105611 -0.08816359 0.003681473 -0.044215165 0.24718395 -0.37461048 -0.4262718 0.0018662581 0.013779642 0.016936736 0.3634463 -0.08601792 -0.27648887 -0.121627346 -0.03996851 -0.32543427 -0.23864837 0.292295 0.13651766 0.16313341 0.023996085 -0.42515233 -0.17292657 0.03963284 -0.18998925 0.095311195 0.14764449 0.08595759 0.06968427 0.09230391 0.036749937 -0.23874344 -0.13718985 0.120358296 0.037596416 0.029813474 0.1964736 0.013233566 -0.040935706 -0.026772253 -0.31313053 0.12293939 0.14221303 -0.28733602 0.007699764 -0.23921302 -0.11610334 0.1533302 -0.0015803301 0.4222667 0.020130603 -0.14008377 0.07489188 -0.020519957 0.030095449 0.23293237 -0.38893884 0.5454149 -0.13377161 0.0941412 -0.24217674 -0.1127786
6239.K07A1.11 0.08014814 -0.14917158 -0.10447064 0.02944646 0.06433781 -0.29262593 -0.026249127 -0.110433444 -0.050356112 0.051126637 0.17622243 -0.34690404 0.046317592 -0.09465284 -0.0048742476 0.34237576 -0.12424144 -0.06396901 0.1495686 0.34886923 0.08755279 0.46087104 -0.16668966 0.24806489 -0.3104056 0.06912848 -0.34937754 0.2553201 -0.10596502 -0.023294346 -0.042598464 -0.09106531 0.14609155 -0.08800724 0.04631076 -0.20797935 -0.116143756 0.27224353 -0.07515135 0.40154326 -0.13254304 0.26920506 -0.22265232 0.1176314 0.36833534 -0.25807947 0.10576021 -0.45976982 -0.2462151 -0.19916944 0.15841417 -0.2987642 0.019441951 -0.112009354 0.09731391 -0.007892275 0.056057118 -0.002610014 -0.29346803 0.1169394 -0.2039576 -0.02318247 -0.22281086 -0.12643749
6239.C26E6.9c 0.28193772 -0.12308487 0.095211804 -0.059341215 0.4777302 -0.29536143 -0.008025772 -0.20154583 -0.07443565 0.22306654 0.1636023 -0.38590267 0.10118519 0.019727191 0.0040803556 0.34487814 -0.10845257 0.11803153 0.026209569 0.1198863 0.2304332 0.3285667 -0.106696524 -0.13541465 -0.27497005 0.0635899 -0.25209212 0.27041677 -0.23301695 -0.13108373 -0.06868962 -0.00021527975 0.23312297 0.13209094 0.07000917 -0.10973935 -0.248137 0.05107059 -0.31115896 0.25422508 -0.20341896 0.39704788 -0.22891122 -0.035610408 -0.058198888 -0.13566667 0.22292499 -0.55435914 0.09322365 -0.2363311 0.09246273 -0.13652311 0.016991457 -0.2115812 0.039563324 0.12586057 -0.14565013 0.15113643 -0.28063446 0.24370646 0.025265805 0.07592952 -0.17425573 -0.11207979
6239.C37H5.8 -0.06138891 -0.2655961 0.2862707 0.46970475 0.080311894 -0.33168516 0.015231607 -0.21951137 0.07779762 -0.11489543 0.14225915 -0.11918219 0.11168068 -0.2592144 0.022376314 0.21925004 0.012291007 -0.120172046 -0.12578692 0.12439572 0.36582735 0.4349988 -0.32194233 -0.18951586 -0.23795785 0.22315995 -0.2686506 -0.0026073542 0.259526 0.23730843 0.02200991 0.14155835 0.15716991 0.027253812 -0.010996016 0.09254771 0.24825881 -0.018196149 -0.122096345 -0.105921924 -0.36999553 0.21364065 -0.037711784 0.27251962 -0.085445814 -0.066276856 -0.07926194 -0.1936858 0.026608765 -0.1365664 -0.2652475 0.058475982 0.4180517 -0.114257134 -0.14269432 0.11458144 0.105824925 -0.29540065 -0.14109582 0.0011697903 -0.14234148 -0.09182464 0.19320703 -0.10357551
6239.K12D12.1 0.105853856 0.024276104 0.005491681 0.08485869 0.39154422 -0.4149864 -0.06376886 -0.23339109 0.122850716 -0.044026546 -0.0022688773 -0.03762705 0.23683332 0.027231894 -0.154309 0.4634742 -0.017422965 0.18149424 0.078535326 0.0360296 0.4257218 0.37922338 -0.10463572 -0.25162604 -0.43754086 0.163914 -0.027514635 0.30878714 0.09293605 -0.148587 0.22031713 -0.06618431 0.31720898 0.105332375 0.13422582 0.14338794 0.11945892 -0.109508015 -0.18716227 0.25281718 -0.19105487 0.17877966 -0.18918832 0.040564146 0.3089868 -0.3277603 0.10382801 -0.18024835 -0.09886817 -0.31804654 0.2131383 -0.03645059 0.17104168 -0.032567307 0.05226989 -0.19978099 -0.13185167 0.25468984 -0.32217225 0.09437824 -0.1711512 0.03847924 -0.21004027 0.16845992
