2968 32
6239.T27C10.6 0.17579542 -0.25208485 -0.1170232 0.14383066 -0.14458057 -0.110402115 0.06336741 -0.0219702 -0.004460024 0.11385895 0.11323105 0.04799316 -0.15544418 0.01425394 0.18355165 0.13115647 -0.12624633 -0.13751398 -0.030446645 0.377283 0.050100006 0.27789864 0.0010750139 -0.33652017 0.2505951 0.081846274 -0.41396526 0.18919304 -0.25703686 -0.30476895 -0.22548674 0.05967309
6239.T25C8.2.1 0.33339027 -0.26668784 -0.1444831 0.18133673 -0.16286922 -0.17064798 0.19815308 0.103573404 -0.030650761 0.0936988 -0.20485035 -0.12735027 0.07669776 -0.112555556 0.100235574 0.019215127 -0.047480963 0.1209391 0.07785754 0.18701248 0.1113398 0.3320087 0.22147101 -0.26109633 0.24536686 0.08663623 -0.5078541 0.13168982 -0.059907086 -0.3353628 -0.15230131 0.07890362
6239.T07A9.6 -0.020464227 -0.11535833 0.20673902 0.063868225 -0.10494103 -0.11400215 0.046576157 0.040195312 -0.412384 0.059851788 0.018458322 0.12216939 -0.24051458 -0.1316352 0.02019961 0.18283573 -0.15823345 -0.048785035 0.30613777 0.13348942 0.24015634 0.37586877 -0.2777605 -0.5269641 0.07691243 0.117814474 -0.3558562 -0.098436005 0.16855042 -0.47229433 -0.23053408 0.11355214
6239.F43C1.2b 0.14041038 -0.21193635 0.10865239 0.29225066 -0.12883268 -0.16029568 0.15680192 0.006104574 -0.08217911 0.22413753 0.116396636 -0.15741748 -0.13047332 0.10254374 0.098420605 0.12817039 0.08615571 -0.0690441 -0.3262442 0.3469695 0.005931534 0.39751062 -0.10569165 -0.45563075 0.08599588 0.12171893 -0.36373746 0.0526791 0.11514962 -0.38169065 -0.31133148 0.22743246
6239.T05G5.3.2 -0.012369053 0.020196728 0.2961844 0.38834667 -0.14896142 -0.18198305 0.13447511 0.032352053 -0.15047261 -0.13576189 0.045865208 -0.052082352 -0.09204987 0.053521454 -0.058195442 0.36659285 -0.020991253 -0.1600654 0.25326785 0.35576132 0.29196098 0.31366536 -0.22247572 -0.31140682 0.07977636 0.16770132 -0.39836466 0.3538449 -0.065705135 -0.46673635 -0.15556864 0.11376358
6239.Y55D5A.5a 0.096539214 -0.29994035 -0.0038374607 -0.0593535 -0.118853904 -0.16441777 0.21977133 0.0038848987 -0.25445604 0.17721227 -0.0018692929 -0.21337825 -0.008660213 -0.027909338 0.08554209 0.23299512 -0.06811183 -0.042401887 -0.14754896 0.059454408 0.33921722 0.25979674 0.052405983 -0.75057936 0.01905835 -0.08927401 -0.17202936 -0.20211706 -0.16941787 -0.22618394 -0.38044608 0.11732186
6239.C47E8.5.2 0.20512822 -0.23127517 0.029929634 0.14473785 -0.07576355 -0.15959828 -0.029896751 -0.031996854 0.00214575 0.30900475 0.02607835 -0.11135233 -0.032674287 0.08754813 0.16625157 0.34670997 0.09951607 -0.12910578 -0.3204034 0.34693164 0.21185982 0.20762078 0.01382768 -0.31399906 -0.10787531 0.10337543 -0.59929776 0.08960241 -0.2097955 -0.41753852 -0.17067507 -0.21071076
6239.R13H8.1h 0.23170595 -0.15427254 -0.06818812 -0.100405574 -0.1872311 -0.18736887 0.20089296 0.10549073 -0.119376816 0.21169096 0.077312455 -0.21650712 0.030077066 -0.07760579 0.029785693 0.37386414 0.07468552 -0.16440208 -0.22755398 0.04052281 0.3706912 0.37511528 0.056130107 -0.6138477 -0.10096326 -0.24499175 -0.37621737 -0.22595106 -0.14215912 -0.21303214 -0.4013297 0.25835058
6239.ZK792.6 0.0007317812 -0.3397372 0.03225705 0.25759035 -0.0058177738 -0.20261964 0.1703229 0.12347104 -0.22631133 0.24703439 0.18655737 0.08601426 0.08327445 0.05472287 0.09804872 0.019394748 -0.31453747 0.117479846 -0.20886827 0.32867083 0.09731208 0.30821514 -0.10848083 -0.36146218 0.10751997 0.2475624 -0.34077185 0.105233945 -0.15800521 -0.36744866 -0.23695391 0.24306919
6239.F02A9.6 0.07642029 -0.21712117 0.29692614 0.086669356 0.08842214 -0.24616264 0.25596723 -0.07139072 -0.2701454 0.044555135 -0.12900719 -0.10720918 -0.11681926 -0.07810836 -0.086287424 0.17374136 0.159213 0.05409761 0.26122952 0.19818507 0.46051672 0.30627343 -0.4500491 -0.37712005 0.15801364 0.2791845 -0.27418888 -0.20944558 -0.039738055 -0.3283122 -0.119531795 0.23213817
6239.B0218.3 0.23475179 -0.1612903 0.23714578 0.15953583 -0.13206479 -0.120338164 0.08770483 0.050809402 0.13206626 0.43481478 -0.17084941 -0.14172533 -0.18947308 0.20902584 0.23585324 0.20449242 0.19448858 0.034894567 -0.33060917 0.16442452 0.11836089 0.5705203 0.039348938 -0.52647287 -0.118144326 -0.11546089 -0.3697982 0.1859752 0.11834405 -0.18933672 -0.5078576 0.25437415
6239.Y43C5A.6a -0.23526967 -0.10151042 0.42594534 -0.006345318 0.09575758 -0.29236633 0.07567667 -0.09015819 0.018462196 -0.023895843 -0.16604869 -0.1472572 -0.22839817 -0.20972496 0.09960283 0.46596923 -0.2659088 0.06314321 0.33351654 0.47066942 0.018481858 0.098621875 -0.28157982 -0.2419778 0.033646896 0.055641845 -0.5484903 0.10192366 -0.30914307 -0.5292176 -0.18322214 0.014026592
6239.C14B9.4b 0.0073068747 -0.12565684 0.39152354 0.3417382 -0.18644866 -0.18008292 0.056267083 -0.010782504 -0.12119934 -0.49332863 0.07076294 0.07385236 -0.16949639 0.001711268 0.02690149 0.41380844 -0.11100787 0.04817644 0.48631403 0.32860434 0.22009437 0.429392 -0.21480931 -0.32679936 0.08869037 0.1519872 -0.33543697 0.18813945 -0.123652205 -0.5057164 -0.07897061 0.057900555
6239.B0261.2a -0.0907769 -0.074007764 -0.052546047 -0.0067246603 -0.09979772 -0.15590917 0.34995186 -0.17705761 -0.2924763 0.20999621 -0.0926997 0.097871505 -0.19491105 0.12472093 -0.055145234 0.28753754 0.05505608 0.0076945964 0.070457004 0.2411312 0.09691275 0.16202095 0.22432274 -0.58627737 -0.036770184 -0.02871453 -0.4978685 0.080497116 -0.18304798 -0.46317485 -0.3295634 0.20314787
6239.F11C3.3.1 0.3227173 -0.5099084 -0.03865888 0.12356085 -0.17095692 -0.1847679 0.16543552 0.05031997 -0.2667988 0.0030122616 -0.086999 -0.092869066 0.08454784 -0.34653172 0.03210266 -0.05500511 -0.047297444 0.107524514 0.028865177 0.10755738 0.09135962 0.49521658 0.31545532 -0.25538716 0.21002904 0.05899355 -0.45920435 0.14798103 -0.01840916 -0.11759303 -0.06382182 0.062456913
6239.C12D8.10b 0.08268838 -0.04903283 -0.028420132 -0.10320349 -0.116066456 -0.2031128 0.051334742 0.09007498 -0.35342795 0.28673974 0.099572405 -0.1274075 -0.17922947 0.07749759 0.015264466 0.13700606 -0.0945852 -0.21378915 -0.04880585 0.23182794 0.120186634 0.388528 -0.0652272 -0.5828228 0.043280885 0.092782386 -0.3697408 0.1031477 -0.0070993304 -0.30004898 -0.5181078 0.10497094
6239.R07G3.1 0.10982893 -0.31934953 -0.0029038552 0.3948273 -0.26717025 -0.11818416 -0.014409491 0.2252769 -0.31160384 0.19481868 0.13093615 0.17721772 -0.0830864 -0.18445021 0.20705578 -0.2455595 -0.09558367 0.18813089 0.10707289 0.45990112 0.051967174 0.3663798 0.15610696 -0.52262 0.20754999 0.20725158 -0.24685019 0.07794397 -0.054907944 -0.34499344 -0.26746163 0.24242204
6239.Y43E12A.1 -0.14711468 -0.12762137 0.4872058 0.40185136 -0.1389607 -0.15205681 0.17991394 -0.05504542 0.050780185 -0.02581728 0.02800308 0.038453892 -0.17006831 -0.07625215 -0.06638996 0.35504255 -0.104283266 0.04150162 0.4735755 0.2073921 0.31492558 0.33915713 -0.39379296 -0.38419795 0.15974781 0.1300644 -0.35586092 0.11470785 0.13511692 -0.46622476 -0.13161524 0.10724179
6239.D2021.1 0.067231126 -0.36469936 0.35870466 0.18718255 -0.07115205 -0.0573206 0.2436045 0.08252444 0.27416575 -0.0653846 0.18849489 0.1275232 0.00070956425 0.14289401 0.24943127 0.3371644 -0.10947599 -0.21547228 -0.00010102725 0.4570366 0.2862238 0.31605434 0.18242265 -0.027438262 0.0037705686 0.11206214 -0.5540349 -0.025729483 -0.45774388 -0.3211401 -0.067158304 -0.03919396
6239.H31G24.4.2 -0.08981757 -0.05714121 0.38102603 0.44936115 -0.11445392 -0.21627685 0.062271066 -0.1564703 0.076217234 -0.13482103 0.018239977 -0.022073781 -0.13735995 -0.048716515 -0.10489705 0.3293663 -0.19088534 0.09405621 0.45333946 0.19911109 0.31867334 0.42374358 -0.2857825 -0.2943016 0.1689229 0.18888773 -0.4266254 0.08818919 0.08224527 -0.5598072 -0.10019729 0.14756042
6239.ZK1067.1c 0.25128144 -0.26452532 -0.19569941 0.19358917 -0.06566522 -0.008589851 0.16185454 0.07208001 -0.2666107 0.360034 0.24240081 -0.2822423 -0.009317286 -0.05976352 0.046202596 -0.13724768 -0.1851387 -0.20571856 -0.06778494 0.38158768 0.16373646 0.49128664 -0.18244718 -0.27754554 0.07670202 0.22875273 -0.24065807 -0.11117521 -0.03670639 -0.31746152 -0.3186988 0.20245485
6239.F25B5.4a.2 0.10280307 0.19631271 0.06759168 0.34771782 -0.3861035 -0.13112043 -0.064713344 -0.38506764 -0.093419194 0.32395557 0.2608871 -0.14462213 0.02379796 -0.17172714 -0.08098168 0.15549687 -0.108135514 0.015128628 0.23998658 0.44558817 -0.0026290913 0.27900833 -0.12232545 -0.2932959 0.083778426 -0.069220416 -0.62111455 -0.09726891 -0.21044713 -0.5360902 -0.13753632 -0.260558
6239.M03D4.1c -0.061567005 -0.12312789 0.29477474 0.43140078 -0.054866888 -0.20259364 0.059173886 -0.005712114 -0.17844266 -0.42422885 -0.11237662 0.14781572 -0.123364806 -0.069960326 0.07849622 0.22062299 -0.090879 0.13772456 0.52973396 0.26080215 0.22962107 0.4444791 -0.15873793 -0.34521618 0.09212453 0.25356725 -0.31490517 0.18212755 -0.16988562 -0.48294777 -0.07641675 0.103199564
6239.ZK177.6 -0.045634266 0.07242113 0.48619172 0.44127744 -0.10746409 -0.2515215 0.16336049 -0.08465165 0.12845491 -0.30658302 0.19464457 -0.057600312 -0.014614296 -0.001191223 -0.05666077 0.31814998 0.04344357 -0.13708049 0.22765407 0.17799379 0.19156307 0.43379083 -0.29491615 -0.3302359 0.074141644 0.16056149 -0.48862684 0.17471331 -0.049753666 -0.61139524 -0.0945749 0.025145372
6239.K12F2.1 0.1597939 -0.5640739 -0.14699598 0.20079473 -0.08831405 -0.07934592 0.20114303 0.0127154915 -0.14206593 -0.0399837 0.08981303 -0.14784065 0.15813598 -0.48643494 -0.05232684 -0.009546218 -0.061713945 0.049129263 -0.046292458 0.099231735 -0.055974957 0.47482604 0.24225245 -0.2876577 0.1458199 0.07826484 -0.60178685 0.12083115 -0.02580958 -0.116522975 0.058164574 0.109468706
6239.F36A4.7 0.15605648 -0.029361943 0.22404942 0.104930654 0.088078514 -0.08924393 0.24059308 -0.23613709 0.07036508 0.16444412 -0.004752753 0.0047359923 -0.0030048843 0.0636313 0.08340613 0.6021401 -0.074469686 -0.29830822 0.09810237 0.29608798 0.08088231 0.28279996 -0.04456678 -0.22230043 0.14238441 -0.0788005 -0.5418859 -0.14421868 -0.4506468 -0.3568578 0.0934698 0.051375628
6239.C09D1.1b 0.14687091 -0.44730973 -0.074367605 0.068748035 -0.14635235 -0.08132801 0.2546662 0.10489945 -0.23874411 0.19089083 0.018295959 -0.010288768 -0.106903374 -0.19116561 -0.0016899767 -0.07197707 -0.13632563 0.045898255 0.12433049 0.20610647 -0.04697209 0.5119927 0.25234112 -0.2612441 0.15019207 0.29646814 -0.5120059 0.3362334 -0.016342744 -0.21974449 0.020443939 0.1313944
6239.B0334.8 -0.09766912 -0.15837081 -0.018353567 -0.078362234 -0.13841344 -0.12261101 0.24392632 0.01734727 -0.34744498 0.21183738 0.022668583 -0.020433472 -0.16984218 0.028458077 -0.036353275 0.29869452 -0.08918159 0.028787557 0.04675752 0.21167745 -0.0036615275 0.32692206 0.090184525 -0.6033536 0.04446191 -0.14758801 -0.35852134 -0.18635234 -0.1465303 -0.47116393 -0.4015397 0.27984944
6239.T12E12.4b.1 0.1877818 -0.16051555 -0.056491762 -0.0018231932 -0.017070808 0.0685792 0.13195735 -0.41491517 -0.10029304 -0.18420869 -0.16600317 0.35596174 -0.20141152 -0.09774855 0.262935 0.14070506 -0.16790135 -0.11884495 0.13751629 0.46528846 0.13452965 0.30339858 0.07611903 -0.24076675 0.0690768 0.16313915 -0.3141041 -0.002774846 -0.36977997 -0.50036955 -0.25749594 -0.04575848
6239.C09G12.8b 0.06298218 -0.30623078 -0.09099712 0.47434643 -0.12018091 -0.09971927 -0.03376386 0.20636874 -0.44727606 0.103372805 0.17808649 0.17206992 -0.12561853 -0.08705425 0.2462707 -0.3734595 -0.13237463 0.16787952 -0.021202918 0.37422618 -0.063780315 0.4812352 0.06870763 -0.37356293 -0.011314634 0.16382204 -0.42500296 0.08988656 -0.09914505 -0.40489793 -0.31977227 0.2866385
6239.T05C12.6a 0.051147085 -0.29839906 0.35656995 0.14161655 0.14700337 0.0033220458 -0.07271509 -0.119560175 -0.3821862 0.08804792 0.17528863 -0.0126028545 0.021313997 0.15778095 0.32001442 -0.043641128 -0.10008788 0.012959833 0.5536047 0.2920879 0.27957025 0.36419287 -0.48119527 -0.3420537 0.09978676 0.009121968 -0.30294862 0.08310697 0.018138546 -0.23917167 -0.14877515 0.15079486
6239.ZC168.4.2 0.019351186 0.003705024 0.52672184 0.41181293 -0.07665545 -0.2813683 0.1185763 -0.08863151 -0.014654362 -0.25563186 0.08836218 -0.09616528 -0.04994911 0.06932701 -0.014127392 0.39494243 -0.22079901 -0.089526854 0.2964935 0.27357793 0.41453508 0.36078516 -0.27002516 -0.32901898 0.11554784 0.20680812 -0.33394003 0.20694518 0.07973667 -0.5006337 -0.118791066 0.21589585
6239.R11A8.4a 0.02400182 0.09448818 0.15677519 0.063984394 0.097341 0.011517747 0.19771121 0.03603361 0.0012450181 0.132223 0.005925147 -0.11743124 -0.090127215 -0.08560533 0.09924831 0.5001053 -0.20805275 -0.2869758 -0.035180617 0.38208047 0.37634268 0.25083762 0.05098857 -0.31138223 -0.22181477 -0.07798965 -0.5002298 0.108121395 -0.24421991 -0.3447161 -0.32815385 0.2451404
6239.T04C12.5.1 0.2802776 -0.3425336 0.006338212 0.18114804 -0.299603 -0.3311332 0.09640529 0.09742811 -0.12649494 -0.15962772 -0.038724303 0.055372164 -0.049763374 -0.09057247 0.19356222 0.26475513 0.18781614 -0.01744516 0.2769855 0.33058012 -0.023274511 0.13415532 0.09101406 -0.24816075 0.24294871 0.14866108 -0.48959854 0.12667473 -0.026767893 -0.54019 -0.24154031 0.10496452
6239.C07H6.1 -0.121643126 0.1639749 0.111547105 0.1613421 0.089528844 -0.08451445 0.17259088 -0.2312305 0.0001127022 0.053246666 0.071598165 -0.21161564 -0.33104357 -0.3055279 0.07637538 0.39379793 -0.26164892 0.09898038 0.20686585 0.4331993 0.051932584 0.25393027 -0.06885612 -0.33664083 0.049893282 0.11429799 -0.44104245 0.19140613 -0.34781748 -0.4527662 -0.25602987 -0.10996194
6239.F28H6.1a 0.06843959 -0.15392803 0.054281104 -0.07924755 -0.22143583 -0.10094201 0.071206085 0.20104997 -0.36015248 0.32517013 -0.020500546 -0.16745178 -0.19263515 0.071319416 0.022172865 0.1340822 -0.13919052 -0.2723608 -0.078436404 0.23046874 0.14106032 0.32187995 0.084348924 -0.6033341 0.11150702 0.11782086 -0.3196868 -0.0143443225 -0.04930806 -0.33872703 -0.51422614 0.075376384
6239.C02C6.1b 0.38770977 -0.19653419 -0.3760883 0.21729997 -0.034661658 -0.075564384 0.15790455 -0.33333212 -0.129857 -0.088388935 0.002256686 0.26577795 -0.2117423 -0.37483075 0.21191886 -0.25218132 -0.015422256 -0.23508754 0.04690698 0.54066163 -0.00016645316 0.37224668 0.1803302 -0.25725436 0.027084507 0.0828531 -0.3110138 -0.13496484 -0.07770915 -0.5099355 -0.3852113 0.0494406
6239.K05C4.6b 0.1230211 -0.2132461 0.05600524 0.39636356 -0.007859089 -0.03480588 0.044115234 -0.053189903 -0.32044244 0.1938264 0.0447912 -0.30012932 -0.25434068 0.371077 0.24280734 -0.05913314 -0.013143778 -0.09857354 -0.08872117 0.5488774 0.13492507 0.4073994 -0.20166707 -0.3103732 -0.040415604 0.3264605 -0.49423638 -0.11268957 -0.08660067 -0.078567155 -0.23891138 -0.06416102
6239.F29B9.6 0.0355551 -0.09720135 0.121741325 0.3011431 -0.24005783 0.0680074 -0.028369833 -0.23928328 -0.03611384 -0.0710564 0.278089 -0.17620312 -0.04190807 0.009897524 -0.07771513 0.5319052 -0.19547407 -0.070665635 0.30584884 0.24725536 0.22118133 0.22797555 -0.18900722 -0.46539387 0.09176729 0.18764538 -0.45504513 0.078261204 -0.22372241 -0.40570268 -0.042509973 -0.100026354
6239.R08C7.3.2 0.09510356 -0.035792682 0.16757578 0.17542669 0.048222374 0.10028539 0.23762096 0.08511235 -0.091927044 -0.113196604 0.06821831 -0.2337107 0.1249367 0.35886747 0.081059225 0.5072568 -0.16502903 -0.2393 0.40788525 0.24213172 0.3144488 0.27356005 -0.31327996 -0.11746066 -0.03687245 0.15491118 -0.48978576 0.23534788 -0.31202528 -0.46349016 -0.20792428 0.052518517
6239.M117.2a.2 0.06745968 -0.19949669 0.015220263 0.035634343 -0.26747766 -0.42881483 -0.019467715 0.057995398 -0.023489013 0.17652631 0.19672127 0.007726431 0.011781245 0.00989073 0.04082122 0.19624135 -0.0350795 -0.06922695 0.009755933 0.38589603 0.108682565 0.320301 -0.008777245 -0.42736334 0.4333064 0.16905187 -0.40810913 0.025638865 -0.16691506 -0.39811325 -0.15508923 0.13771717
6239.C48B6.6a -0.1365038 -0.12428914 0.11849937 0.09856865 -0.09198313 -0.14722122 0.32361707 -0.07766902 -0.23538515 0.3169738 -0.003239951 0.29657716 -0.18738556 0.07788508 -0.24212146 0.34231076 -0.023832323 -0.08918284 0.14479789 0.31715137 -0.15771805 0.19310893 0.04636371 -0.3874773 -0.009538743 -0.08526353 -0.5522306 0.29043508 -0.31681234 -0.49368906 -0.28037322 0.26694322
6239.T06E6.2a.2 0.09155638 0.027798435 0.4285068 0.39435992 -0.086356156 -0.21656902 0.18906146 -0.10898581 0.040368695 -0.41132584 0.09407039 -0.05599658 -0.08694436 0.039536837 -0.13924102 0.4331204 -0.15468955 -0.09679732 0.3780929 0.28954014 0.33830848 0.43811753 -0.2681919 -0.25843644 0.10684098 0.041792728 -0.38520473 0.26661786 -0.015131981 -0.48191318 -0.0178832 0.100998156
6239.B0207.4 -0.1811404 0.04143464 0.37320334 0.22211008 -0.2112283 -0.13903677 0.20540227 -0.033609644 0.030812047 -0.34253332 -0.04086715 -0.11523912 -0.23728621 -0.08076233 0.081824064 0.43454492 -0.09564677 -0.01714328 0.36628944 0.17147878 0.20285499 0.44598606 -0.18759067 -0.4428871 0.14601922 0.23462385 -0.36792442 0.37280735 -0.07899354 -0.49224013 -0.09864882 0.08209729
6239.F26D10.3.1 0.58891183 -0.23056915 0.024773404 0.15510675 -0.24843384 -0.18879111 0.02245731 -0.361969 0.13174088 0.17726241 -0.2310209 -0.025438884 -0.082149215 -0.035151105 0.083537124 0.11132804 0.025930265 -0.31387424 -0.19959897 0.5335269 -0.043353975 0.18634196 0.06357059 -0.28869653 -0.18099129 0.14605103 -0.38668528 0.109769695 -0.12545706 -0.645441 -0.1405813 -0.36427742
6239.C32F10.2 -0.13834135 0.14861037 0.28040865 0.2234733 0.036512207 0.08697923 0.046831716 -0.018012254 -0.1358972 -0.2967463 0.15770635 -0.093634315 0.051709622 -0.06095499 0.16583541 0.18744716 -0.07799085 -0.10616874 0.19755474 0.13765953 0.36229894 0.5558325 -0.31390387 -0.24811712 -0.061962277 0.16641977 -0.6396502 0.02419688 -0.31194168 -0.45129615 0.02514247 0.3226356
6239.C54D1.6 0.13097136 -0.16348808 0.15698268 0.15107949 0.030128893 -0.11878457 0.037266936 -0.06645752 -0.30912173 0.21221317 -0.08957953 -0.4455178 -0.16379485 0.31710756 0.2932868 -0.26157925 0.057907224 -0.038739223 -0.14838476 0.4885326 0.12682584 0.49406627 -0.09562854 -0.28287834 0.10511404 0.022449184 -0.5846739 0.19735652 -0.03225996 0.021442305 -0.21780132 -0.15777461
6239.Y51H4A.3 0.038910143 -0.34183407 -0.08248503 0.4271313 -0.23084332 -0.20389514 0.026773551 0.14011268 -0.33365256 0.13021505 0.13870531 0.15295431 -0.16964386 -0.08088245 0.17933352 -0.18122698 -0.14105451 0.054477256 -0.03329221 0.56773067 -0.07858984 0.45075387 0.13815694 -0.41190836 0.28268424 0.22501671 -0.21131131 0.0675519 -0.027605796 -0.41354352 -0.30980468 0.13534077
6239.K12H4.8 -0.12820967 -0.11016879 0.24313456 0.22402185 0.46660513 -0.18753509 -0.08703169 0.013578055 -0.13465278 0.115642555 -0.21538192 0.08785917 0.13664494 0.06912551 -0.08909935 0.35031766 -0.18234289 -0.16902204 0.086596854 0.27980796 0.17625354 0.20813796 -0.14418663 -0.32859832 -0.006356897 0.01845408 -0.6596319 -0.052848727 -0.39002112 -0.4987022 0.025692258 0.05027386
6239.C07H6.5 0.13681535 -0.21378276 0.377642 0.32607314 0.2701516 -0.27557448 0.027605794 -0.2655509 0.051895507 0.20195787 -0.36942318 0.1935188 -0.13807131 -0.05158943 -0.23301987 0.27877012 -0.20796849 -0.2602904 0.23756598 0.15050682 0.15474644 0.17979932 -0.36885032 -0.42214096 0.26165682 0.09366093 -0.38122717 -0.02573938 -0.038997497 -0.4990169 0.033796556 0.1837692
6239.F18H3.5b -0.20531848 0.12593204 0.3325944 0.42163044 -0.28390837 -0.093555965 0.18227364 0.1794576 -0.04086536 -0.03032654 0.15653734 -0.060438342 -0.20047893 0.05416836 -0.15037546 0.3205319 -0.06449695 -0.34514052 -0.059177436 0.38611636 0.0768501 0.4806742 -0.106753655 -0.32455552 0.13713403 0.05435525 -0.5414067 0.112116486 -0.13535039 -0.3930454 -0.29943493 0.12032696
6239.M142.1c 0.08399393 -0.27776754 -0.078061484 0.29568252 0.01703308 -0.12218961 0.28850487 0.066775404 -0.1853647 -0.17951241 0.13301995 -0.115930974 0.1798015 -0.41288832 -0.11254299 -0.047335282 0.16167378 0.2665204 -0.07696938 -0.07916197 0.3027282 0.4152362 -0.3620517 -0.45298505 0.02532919 0.21946123 -0.31382433 -0.0989071 -0.35317135 -0.32557344 -0.15878685 0.14384837
6239.ZK909.2c -0.122720845 -0.31379193 -0.29242218 0.18306696 0.0361882 0.029966697 0.2523647 -0.042236466 -0.118176416 0.29844803 0.14198254 -0.052571047 0.051367983 -0.095036626 0.2021577 0.13150974 -0.12575065 -0.1951776 -0.30167428 0.17739503 0.124867074 0.5617138 0.07863943 -0.19870706 0.47550386 -0.124542914 -0.5162604 0.32804093 0.23930188 -0.24885453 -0.24357489 0.13660184
6239.B0350.2f.2 -0.08688026 -0.39077437 -0.17820428 0.11407821 0.012787153 -0.21486978 0.3713272 0.10275109 0.029225927 0.19688131 0.2613449 -0.08310461 0.044785064 -0.10121741 -0.00013528242 -0.1236758 0.18029566 0.008368371 0.1120462 0.33388856 -0.10648011 0.49778572 0.10792335 -0.49414623 0.27600032 0.29799455 -0.30262184 0.20363854 -0.24137224 -0.40493253 0.0036826073 0.067168385
6239.C02F4.2c 0.07073062 -0.3282972 0.009926453 0.05946297 -0.09994148 -0.07727536 0.4827788 -0.053175457 0.02236007 0.057997063 0.31424114 0.046750054 -0.087651 -0.11431398 0.46702728 0.29876903 0.03432047 -0.29313093 -0.27699104 0.062008366 0.08500868 0.3638623 0.22750682 -0.38289186 0.5413367 -0.054194357 -0.40355587 0.21407133 -0.02018513 -0.2636278 -0.08341509 0.2138717
6239.W06B3.2c 0.062125437 -0.36601865 0.08889529 0.23074643 -0.13602798 -0.12836741 0.27150145 0.24988905 -0.15401496 0.35815507 0.051222216 -0.060031235 0.00707634 -0.0690741 -0.033752456 0.20457757 -0.123048216 -0.076583154 -0.28087068 0.24344248 0.20204109 0.4743251 0.2705771 -0.35478297 0.35694447 -0.0010650189 -0.3815282 0.26174223 0.23839031 -0.24139175 -0.12943362 0.28680256
6239.F52D10.3a.1 0.012542024 -0.3705775 0.004500975 0.030862395 -0.24163225 -0.4199389 0.0952609 0.06819705 -0.042462677 0.21171027 0.23472197 0.0054250928 -0.091375075 0.036154244 0.070743576 0.2627662 -0.044115596 -0.100075126 -0.16250202 0.33351114 0.020820754 0.25120112 0.08968901 -0.4187107 0.36590552 0.07140572 -0.36536825 0.039281238 -0.22479875 -0.5288808 -0.18570149 0.059201006
6239.T06E4.3a -0.29055128 -0.08400346 0.15787426 0.17750973 -0.09443051 -0.14270253 0.36639985 -0.20666623 -0.18378682 0.10236293 -0.02153192 0.16628048 -0.15408191 -0.13085112 -0.15638296 0.44538182 -0.051398028 0.094080925 0.21869364 0.38646895 -0.011794348 0.3361338 -0.10317881 -0.18307479 -0.014023085 -0.04534138 -0.411433 0.11030077 -0.34900004 -0.59180415 -0.24322547 0.29221028
6239.K07C11.2.2 -0.0980183 0.06917895 0.4578031 0.322896 -0.29057688 -0.3357294 0.05967672 -0.08651403 -0.03481829 -0.30474442 -0.033916585 -0.06826488 -0.29634166 -0.027488934 0.122809924 0.2895478 0.0044943835 -0.07584124 0.41734043 0.14751576 0.13142449 0.5511549 -0.29390725 -0.3996366 0.2927431 0.17405549 -0.3309174 0.21937823 -0.016905054 -0.57927984 -0.097755134 0.11826053
6239.F32D1.10 0.026682924 -0.03520907 0.3276435 0.4420815 -0.04990597 -0.13289082 0.02000124 -0.00079685234 -0.24269329 -0.32066047 -0.059510056 -0.04540551 -0.046479985 0.18848862 0.20300227 0.52417827 -0.15171544 -0.009172003 0.49916667 0.3805005 0.24233325 0.30451047 -0.32200626 -0.22926863 0.027184973 0.2814412 -0.3781419 0.46227762 -0.15356164 -0.49010023 -0.04422445 0.036993418
6239.F42G8.3a 0.17402342 -0.2645468 0.24593104 0.38401252 -0.07843081 -0.119761735 0.15501636 -0.047897518 -0.031049214 0.3164447 0.048216917 -0.06719361 -0.22808962 0.21326847 0.13531215 0.1780249 0.14278597 -0.076375455 -0.59700435 0.36562535 -0.09905474 0.34643888 0.10184872 -0.46451682 -0.028560026 0.07425555 -0.4679371 0.3368665 0.22470589 -0.37744975 -0.39588603 0.17598939
6239.C44C11.1a -0.09181686 -0.42311752 0.09131029 0.115201786 -0.31398454 -0.045529064 0.3571818 0.25326416 -0.34658977 0.23530622 0.10405145 0.05710671 -0.032721277 -0.013516644 -0.060281247 -0.063432656 -0.26035714 -0.020859968 -0.17865671 0.24063484 0.09691501 0.46636957 0.29889405 -0.4085494 0.2713186 0.14020407 -0.36404318 0.094518445 0.07186119 -0.31844822 -0.24876639 -0.02935269
6239.K01A6.2a -0.070447676 -0.39693418 -0.09022098 0.39741904 -0.11164214 -0.2644893 0.0332938 -0.037700146 -0.17560416 0.22717421 0.17084691 -0.01137154 -0.040629584 -0.12232349 0.48552108 0.013765661 -0.06405969 -0.10923467 0.078563064 0.41357347 -0.11206349 0.30540556 0.03701128 -0.36058462 0.40450168 0.09221636 -0.35150185 -0.03256875 -0.3069374 -0.1269658 -0.107226916 -0.10641305
6239.B0478.1a 0.036071427 -0.06492643 -0.072232135 0.12715097 -0.20375638 -0.26865023 0.33452362 0.1388594 -0.09409533 0.2802161 0.21021427 -0.209818 -0.24538487 -0.08917239 0.04433633 -0.18805629 -0.26908594 -0.2679137 -0.13080072 0.12829995 0.28719065 0.613479 0.08921679 -0.6420404 -0.22630388 0.1453062 -0.28477457 0.12881081 0.03863102 -0.181791 -0.32563487 0.072981074
6239.Y18D10A.5 0.012278748 0.09670324 0.043771364 0.23943031 -0.14876609 -0.18282466 0.028295118 0.046585485 -0.117320664 0.21494003 0.27952635 -0.24685197 -0.15892947 0.1139579 0.20070821 0.09219704 -0.08665652 -0.20623127 0.008769752 0.396037 0.26000702 0.4425584 -0.11229005 -0.53792715 0.19874021 0.1774215 -0.32032952 0.08644972 0.008802816 -0.24231704 -0.39894834 0.08945669
6239.F17E5.1a -0.0896236 -0.33894148 -0.10777761 0.26617882 0.035487354 -0.23375107 0.21628958 -0.047158595 -0.22484654 0.1185482 0.10029188 -0.21273829 -0.022586225 -0.17139235 0.2654435 -0.27712068 -0.3186293 -0.18593423 0.12249759 0.18435325 -0.19820283 0.50707835 -0.028661452 -0.26362 0.286325 0.2262547 -0.56841934 0.015187725 -0.112847574 -0.08308321 -0.036807895 -0.10761398
6239.F37A4.8 -0.033461537 -0.06198146 0.2056698 0.16918807 0.10902299 0.03922731 0.23935163 -0.17830926 -0.043543417 -0.070435755 0.016686428 -0.09021035 0.08514926 0.19304967 0.09931104 0.5886925 -0.0019859376 -0.23536502 0.45917037 0.44912052 0.29151565 0.34911442 -0.16142663 -0.26285192 -0.12646526 0.2042098 -0.4023153 -0.014381027 -0.29445982 -0.52398324 0.13404626 0.16268055
6239.ZK524.2d -0.010748451 -0.45982614 -0.217023 0.12333958 0.11333228 -0.11055566 0.58193964 -0.20313877 -0.12019565 -0.025510656 0.12185174 -0.25049013 0.19764306 -0.4007091 0.15042484 -0.25645542 -0.24322209 -0.13087331 -0.023122966 -0.07638815 -0.12707701 0.6099568 -0.0048799873 -0.46022075 0.2683781 0.10275958 -0.3023665 -0.022244938 0.16013853 -0.19863382 -0.12855986 -0.1874019
6239.K06A5.7.1 0.030226294 -0.024089145 0.49124807 0.14110054 -0.14421622 -0.21481873 -0.09052007 -0.094655134 -0.14334932 -0.12385755 -0.08677376 -0.045839045 -0.15961991 -0.038887974 -0.049712487 0.29921216 -0.12820046 0.17658198 0.373659 0.23947562 0.2928254 0.5725037 -0.43278813 -0.4552988 0.2241981 -0.030984918 -0.3111086 0.02737251 0.21611059 -0.4126646 -0.09606321 0.30386367
6239.F43E2.8.1 0.19660154 -0.24653795 -0.08397671 -0.19806312 -0.19979014 -0.20395117 -0.22276478 -0.10465072 0.122902274 0.40435937 -0.21575613 0.26708925 0.06366722 -0.27915737 0.1629618 0.35078102 -0.069602 -0.29586872 -0.00984987 0.3875188 0.46021956 0.381245 0.1702533 -0.4394793 -0.19030295 0.29567823 -0.3716784 0.17465608 -0.08727371 -0.35041845 -0.18256666 -0.42786312
6239.C37A2.4a -0.034071606 0.04531686 0.40747598 0.37153634 -0.07396924 -0.3413121 0.07024247 0.018368341 -0.16478549 -0.11685877 0.09241844 -0.11979054 -0.12463356 0.024078552 -0.12985002 0.31550187 -0.24979386 0.03981747 0.22860321 0.2931936 0.4283855 0.5188693 -0.31669182 -0.31251222 0.09166833 0.23086959 -0.35543028 0.022563031 -0.10933729 -0.3664806 -0.02047992 0.24640259
6239.K07A9.2 -0.0027391538 -0.3454962 -0.30920818 0.24675685 -0.14478076 -0.31880823 0.49430427 0.087528296 -0.07278303 0.13983724 0.22546807 -0.07593898 0.009251899 -0.21492998 0.16585883 -0.15790589 -0.10435243 -0.28723207 -0.20674746 0.29127294 0.1743195 0.33248213 0.026852136 -0.37282935 0.22329786 0.045724943 -0.35638797 -0.01784653 -0.032538995 -0.29431918 -0.17929086 0.007334529
6239.R07E4.6c 0.02882614 -0.47665247 -0.04241832 0.22043787 0.119062476 -0.08192063 0.27457175 -0.07897042 -0.14265004 0.15088652 0.07775273 0.16346377 0.038619887 -0.3818938 0.23561984 0.27175584 -0.07000516 -0.29371536 -0.23470336 0.019185957 0.11576641 0.21269411 0.15215367 -0.33667746 0.4518137 -0.10048769 -0.35046023 0.28181615 0.0857043 -0.32372782 -0.25651157 0.17157595
6239.K03E5.3 -0.12349409 0.097886875 0.3221276 0.3764501 -0.28838032 -0.11779287 0.25079086 0.06521942 0.099363305 -0.010224785 0.22813915 -0.11926299 -0.16048786 -0.01143011 -0.20090753 0.37957165 -0.15732077 -0.22974288 0.03699502 0.39727595 0.12623374 0.39671233 0.0048105894 -0.3312817 0.18964729 -0.007974128 -0.4369743 0.0666426 -0.14205638 -0.4961077 -0.30609897 0.29477742
6239.T21H3.3 0.078798555 -0.24125578 -0.28263128 0.2849185 -0.32001188 -0.434587 0.45937276 -0.036376268 0.034809414 0.08913565 0.0019076387 -0.12753925 -0.15346605 -0.28495115 0.29401305 0.059432365 0.01887755 -0.16842856 -0.0032598153 0.2925078 -0.011865839 0.20551816 0.035904214 -0.27707395 0.42931914 0.09325087 -0.46924013 0.18446429 0.07488755 -0.25511006 -0.27800417 0.10748252
6239.K12C11.2 0.053411182 0.0916532 0.06638612 0.2374085 -0.21306877 0.026375469 0.11821373 -0.10705368 -0.11789221 -0.034368888 0.17410628 -0.2987082 -0.025194077 -0.10474438 -0.03112061 0.5154946 0.09850017 -0.06409034 0.3935883 0.430913 0.21033695 0.1812101 -0.15470302 -0.30559105 -0.061971255 -0.10733288 -0.47359574 0.24595031 -0.29165593 -0.598252 -0.08282357 0.06539338
6239.F26H9.6 0.36749548 -0.112585664 -0.3248977 0.14940816 -0.034316286 -0.11632747 0.39241937 -0.34913406 -0.13823417 0.06630157 0.13711955 0.43909395 0.034217056 -0.05909578 -0.07918026 -0.37025645 -0.12401054 0.24712217 0.19402897 0.5083157 0.08649283 0.42624724 -0.017446931 -0.22336772 0.2212584 0.061992615 -0.2073925 0.0069675883 -0.060562424 -0.5593458 -0.5999872 -0.09635899
6239.C33B4.3c 0.054462682 -0.5216774 -0.0063641565 0.141736 -0.08271465 -0.044645566 0.14603758 0.004493904 -0.16659382 0.14024511 0.40646547 0.1541078 -0.18553808 -0.14611243 0.1909883 -0.05003315 0.1306037 -0.23922361 -0.011191178 0.22482648 0.07027707 0.43876615 0.16855976 -0.34547523 0.32313058 0.02440038 -0.39213675 0.2754917 -0.24962413 -0.23431405 -0.0015367947 0.03944852
6239.F38A6.1a 0.029781735 -0.35577124 0.05656505 0.004603388 -0.060646445 0.20314988 0.32964766 0.17940184 -0.20895632 0.14191602 0.17909735 -0.24234824 0.13136792 0.13774915 -0.22168334 0.15869172 0.103978455 -0.23748879 -0.0108702695 0.26648462 0.72535044 0.1425088 -0.07722957 -0.5545887 -0.20115688 0.04012162 -0.60111004 -0.06962658 -0.1261329 0.014527932 -0.22613277 0.34325302
6239.T04C12.6.2 0.40378928 -0.36878696 -0.121001974 0.24580243 -0.25680357 -0.26890764 0.07286401 0.15136395 -0.12118273 0.115933016 -0.020058371 0.019857287 -0.045088097 -0.10497704 0.11687393 0.30233288 0.21734717 -0.019646646 0.10844522 0.41608122 0.035192575 0.087237395 0.23655137 -0.18607906 0.19552706 0.17022905 -0.5395453 0.024729952 -0.107275926 -0.5608785 -0.20979404 0.1301018
6239.Y47G6A.8 -0.080794014 0.020120664 0.35592023 0.14250422 0.04360248 -0.18190114 0.13464643 -0.18113194 -0.1743428 -0.17393523 -0.1001024 -0.0680255 -0.26656488 -0.09962006 0.21043167 0.38333455 -0.28601104 -0.18112472 0.42859507 0.42532253 0.030260773 0.15390739 -0.41483584 -0.24448773 -0.14167129 -0.053908747 -0.45744413 0.3470665 -0.36014956 -0.48640758 -0.10498536 -0.080159105
6239.C35C5.4 0.18162842 -0.36973432 0.06905692 0.49279484 -0.1420741 -0.20350346 -0.016216809 0.3043016 -0.4106003 -0.037892967 0.23657615 0.21039806 -0.101683795 -0.07817623 0.09085537 -0.3656695 -0.08700517 0.21706858 -0.02293226 0.52441394 -0.12675908 0.4413402 0.03830592 -0.33544824 0.111826584 0.17261611 -0.36568436 0.09691479 -0.28105572 -0.36534515 -0.20978737 0.28194624
6239.F42G8.4.1 -0.07085739 -0.2488643 0.22281137 0.25533363 -0.14463834 0.009782495 0.13921645 0.20980124 0.22042699 0.27186424 0.22390983 0.023204913 -0.27838543 -0.10244756 0.13796395 0.064299375 -0.013405146 -0.27852577 -0.23913841 0.13405569 0.02841123 0.541953 0.31094012 -0.6135497 0.14796728 0.1017956 -0.35578218 0.26287684 0.057343245 -0.35107177 -0.37832165 0.25805596
6239.Y49E10.14a.2 0.029558728 -0.32959646 0.37347394 0.33994424 0.11705524 -0.3340885 0.06244911 -0.28796446 -0.23678355 -0.32283375 -0.05740864 0.09282352 -0.06637742 0.00646785 -0.10331767 0.31919745 -0.08052238 0.06482481 0.3352897 0.050776836 0.42499447 0.25112903 -0.51619625 -0.45032614 0.107396774 0.2340815 -0.38461587 -0.06537296 0.09292619 -0.44510382 -0.009905196 0.30385172
6239.B0025.1a -0.10399892 0.11809404 -0.29250714 0.13575618 0.018983843 -0.1538671 0.3333709 -0.09527613 -0.306589 0.12421762 0.05129452 0.46142527 -0.37649146 0.07672562 -0.17825562 0.18003452 -0.0027590923 0.102510035 0.11808082 0.45583218 0.16739646 0.17067046 0.0896705 -0.46563715 0.08827905 -0.23851034 -0.57398856 0.06667523 -0.1998486 -0.675715 -0.4392263 0.14385304
6239.ZK1010.1 0.120570876 0.042667292 0.07699108 0.36759204 -0.45563397 -0.08615698 -0.033442438 -0.61875933 -0.011282095 0.57364315 0.27197295 -0.11289001 0.25491256 -0.23685399 -0.07214581 0.029601762 -0.059132032 -0.07123658 0.2570797 0.4920293 -0.014030875 0.20624928 -0.09111973 -0.2426436 -0.015161468 -0.12091217 -0.5911899 -0.13785158 -0.23315252 -0.57303303 -0.010834731 -0.24727209
6239.R06C1.1.1 -0.087580726 -0.06299214 0.1947885 0.039742008 -0.024392264 0.12839805 0.20936361 -0.045303848 -0.009387842 -0.04877111 0.10507449 -0.078693844 -0.08690367 0.2770207 0.053244732 0.4828712 -0.061837077 -0.38464674 0.23355034 0.27466145 0.27977195 0.46120617 0.046357263 -0.3210576 -0.180903 0.069522 -0.67778265 -0.059046324 -0.24148826 -0.42914897 0.09646015 0.15763184
6239.M03A1.1b 0.21429865 -0.3143424 0.13839555 0.21854383 0.014877512 0.060799178 0.102777936 0.007501622 -0.2893475 0.13515109 0.16677906 -0.019244762 -0.03666786 0.134586 0.16069181 -0.050453484 -0.15703662 -0.080304936 0.18617316 0.1226072 -0.06679257 0.46430182 -0.1844805 -0.3070598 0.35448003 0.42720318 -0.25499135 -0.1336922 -0.24816935 -0.3306661 -0.34186453 0.24322
6239.F38H4.9.2 0.10628254 -0.05303377 0.30111378 0.069208786 -0.33704922 -0.19151492 0.2792241 -0.12457897 0.045055144 -0.05115205 0.1969557 0.10650472 0.011228027 0.0054358193 0.056454472 0.17195293 0.14857523 -0.27139583 -0.09687527 0.27081138 0.05550554 0.27303395 -0.009162214 -0.4907267 0.4530692 0.17255491 -0.524252 0.06722383 -0.20077153 -0.28655943 -0.009401137 0.19815548
6239.F58A3.2c 0.08639545 -0.37949175 0.0704839 0.048201777 0.04178942 0.069198765 0.35677865 0.18511371 -0.40981853 0.31437457 0.093233824 -0.41686904 -0.051220328 -0.1748743 -0.091909096 -0.42542458 -0.2902107 -0.1605968 -0.03878676 0.12055231 0.1768511 0.5890249 -0.14037137 -0.35382184 0.20577498 0.23170443 -0.44817597 0.118158385 -0.10022294 -0.057535507 0.2311794 0.038997207
6239.C27A2.6 0.06807345 -0.25176856 0.28305185 0.3684386 -0.03398268 -0.31354043 -0.19464958 -0.078622945 -0.5390144 -0.27427343 0.29698375 -0.17331831 -0.103939414 0.12598266 0.36587888 0.013419268 -0.10511277 -0.18647301 0.4659836 0.41505045 0.30355224 0.29761234 -0.39008138 -0.27999553 0.054152217 0.17565921 -0.2995156 0.14122531 -0.14765437 -0.24833216 -0.2167166 0.0978209
6239.C26D10.2a 0.21181896 -0.045871183 0.38132042 0.23947094 -0.0058278535 -0.17781338 0.01661549 -0.0924943 -0.07751327 -0.0087405015 -0.3941199 0.069130935 0.20774493 0.31600225 -0.049956623 0.33487296 -0.015480107 -0.4676998 0.22771399 0.28264773 0.08911541 0.10562533 -0.3390151 -0.39852434 0.092629746 0.117726736 -0.47929457 0.31997868 -0.3778359 -0.6070875 0.20917957 -0.08565676
6239.F26E4.10a -0.039462984 -0.14618725 0.48767814 0.18018988 0.380288 -0.19514927 -0.032946248 0.11786937 -0.1181525 0.03537449 -0.14572895 0.2645889 0.05252164 0.12347501 -0.027514115 0.36804733 -0.38956785 -0.15818818 0.3141991 0.2874651 0.02273298 0.20536704 -0.29818445 -0.27555317 0.08100894 -0.19872257 -0.6925499 -0.037643485 -0.22225283 -0.42535844 8.053282e-05 0.07175976
6239.Y73B6A.5a.1 -0.06416004 -0.18391 0.114205435 0.22602668 -0.12526107 -0.20549865 -0.008165882 -0.13013479 -0.32445621 0.33365723 0.020438075 0.051295754 -0.12838441 0.039038405 0.1845702 -0.035721943 -0.25187948 -0.18095258 -0.20614098 0.12157525 0.035722014 0.54473424 -0.19130379 -0.5114236 0.14462434 0.28443468 -0.34239864 -0.2560272 -0.053159192 -0.3315145 -0.19763198 0.23935123
6239.C18A3.6a -0.035932343 -0.45326594 -0.1843415 0.17359026 0.06794496 -0.034756854 0.49403417 0.09451857 -0.10809474 -0.021894999 0.1076029 -0.036265854 0.3815061 -0.39687654 0.06360855 -0.6035529 -0.00634466 -0.17265521 0.0135030765 0.26975298 -0.1840213 0.5970676 0.056834515 -0.5225904 0.31389317 -0.19584787 -0.3371301 0.08994316 0.15659833 -0.25307634 -0.10317583 -0.19719769
6239.C53A5.3 -0.085663535 0.009811775 0.23842973 0.07554825 -0.058283634 0.14275396 0.23635037 -0.0032719853 0.019458452 -0.038638636 0.20964551 -0.12541716 -0.021392135 0.33310032 0.07758807 0.47169742 -0.0059540905 -0.3971634 0.16316263 0.34596837 0.3390956 0.3704464 -0.065267496 -0.31857574 -0.06250796 0.12862504 -0.7289342 -0.06683223 -0.25876275 -0.32567975 0.03408083 0.24268688
6239.C15H9.6.1 0.19132584 -0.24750276 -0.1912026 -0.17198333 -0.30290994 -0.07103792 -0.19958301 -0.013187163 0.20917463 0.3592196 -0.23254639 0.3252915 0.15584484 -0.24733655 0.18481576 0.19786642 0.009130767 -0.22114028 -0.12887439 0.4803873 0.31187144 0.34693876 -0.023268294 -0.504137 -0.14949243 0.22169873 -0.33919838 0.23520373 -0.17049336 -0.38703954 -0.27319255 -0.36306185
6239.Y53C12A.1 -0.059425868 -0.21874069 0.5305737 0.2650419 -0.085840635 -0.2677274 0.17892256 -0.14353354 -0.014626371 -0.2037767 0.02053678 -0.10766966 -0.315161 0.05792684 -0.1317311 0.313849 -0.14979996 -0.00433015 0.38435778 0.14890173 0.22360261 0.33862492 -0.2511072 -0.2190076 0.32532045 0.1854119 -0.4248362 0.101587646 0.10922138 -0.4310059 -0.4242893 0.25738224
6239.Y39G10AR.14.1 0.023106147 -0.08034152 0.3575081 0.307625 -0.029770972 -0.17911589 0.034724813 -0.10971339 -0.119400375 -0.4103587 -0.061383937 0.04646541 -0.037282005 0.06940221 0.02509577 0.5151055 -0.02050058 0.0035230787 0.53730386 0.37516704 0.23477302 0.3016118 -0.24623682 -0.27677009 0.13492101 0.13272916 -0.34841937 0.30608422 -0.21156056 -0.58974016 -0.080374196 0.05607388
6239.R06A4.7 -0.17851947 -0.24294649 0.31339815 0.14806 0.3053426 0.08249146 0.14666948 0.052930772 0.054226086 -0.1095784 0.20478274 -0.012870045 0.15524529 0.1336895 0.049379814 0.5347108 -0.025950022 -0.08215373 0.16112678 0.27419764 0.34813204 0.44829795 -0.25517863 -0.099358566 -0.2051861 0.17543039 -0.719365 -0.04188288 -0.179036 -0.51984954 0.09159083 0.27559382
6239.C12C8.1 0.24228568 -0.14875033 0.02829379 0.021777853 -0.22929302 -0.26372343 0.023801811 -0.017653316 0.2819877 0.299852 -0.14635772 0.16366777 -0.013641362 -0.16274065 0.17974421 0.22375113 -0.10890593 -0.21287131 -0.109984435 0.28425637 0.32812244 0.088346675 0.06450749 -0.42059952 -0.11231314 0.08965966 -0.48792037 0.22144438 -0.3491735 -0.52931905 -0.108935356 -0.24640387
6239.M7.2b 0.020725338 -0.3122265 0.28742236 0.39671966 -0.062035248 -0.24591228 0.33302644 -0.057793573 0.1918709 0.032460935 -0.021439003 0.17030449 -0.4121738 -0.23076622 -0.006822885 0.16604996 -0.040219422 0.020401508 0.63337225 0.16723852 0.27897203 0.46063697 -0.35317677 -0.34010607 0.12618202 0.083998874 -0.13191827 -0.069493406 0.067133 -0.503163 -0.072000794 -0.3339608
6239.C08B11.2 0.05602614 -0.13147852 0.18180504 0.04360711 0.060045853 0.17448576 0.2200132 0.0925508 0.03773272 -0.025681652 0.18573171 0.07938849 -0.024175158 0.17317882 0.029370407 0.55222034 -0.0506686 -0.28377128 0.19976698 0.32165417 0.15954699 0.40792993 -0.0078025335 -0.21921964 -0.094512396 -0.10666252 -0.6579362 -0.008400309 -0.19830157 -0.46987748 -0.0004466077 0.20763224
6239.C06A1.1 0.23166998 -0.23838979 -0.08144613 0.24472697 -0.19426116 -0.10233084 -0.086739786 -0.69337744 0.17562176 0.030961653 -0.04302676 -0.04722702 -0.2394623 0.1540486 0.067446426 0.38239974 0.17202534 0.09403079 -0.08924723 0.51404524 0.14732987 0.35558724 -0.20867746 -0.49969053 -0.16314276 0.25507736 -0.491415 0.07672446 0.009506067 -0.41793314 0.13488242 -0.41255748
6239.C47D12.1a -0.20940611 -0.13046014 0.036915522 0.06771032 0.21998793 -0.08657653 0.4395147 -0.18584095 -0.29129562 0.09174205 0.0010210436 0.1788506 -0.15158075 0.3336103 -0.14941624 0.346294 -0.12517674 -0.011324125 0.2600331 0.33241546 0.0691021 0.34970105 0.074562274 -0.22581322 -0.08383715 0.1544324 -0.4909353 0.08538416 -0.40768522 -0.60315156 -0.20206352 0.17681658
6239.Y71F9B.7 -0.12088724 -0.17011611 0.2799401 0.42171827 -0.1241632 -0.29476917 0.14981653 -0.11900884 0.18348958 -0.2987872 -0.006610099 0.0025756988 -0.20370287 -0.08907526 -0.29550135 0.42718065 -0.1707431 0.07115895 0.33698222 0.4044208 0.16776024 0.45674264 -0.23667161 -0.23453553 0.27341533 0.34214538 -0.41403797 0.16779469 0.047494885 -0.40218392 -0.16874906 0.079510026
6239.F26B1.3 -0.022370307 -0.11693621 0.39806 0.30792594 -0.048502967 -0.116514 0.080419496 -0.111863285 0.04175704 -0.21814197 -0.37842968 0.14301595 -0.024980955 -0.07885896 0.12372745 0.50573546 -0.12398839 -0.029252129 0.47090197 0.3326511 0.19871789 0.43408126 -0.4687999 -0.3235621 0.20731597 0.1363119 -0.25071713 0.03575107 0.052433066 -0.5471748 0.06351327 0.03038624
6239.Y2H9A.1 -0.051167578 -0.11594211 0.4197027 0.21770012 0.3509387 -0.055711042 0.14289024 -0.084500134 -0.08589484 -0.28529075 0.018366596 0.055000048 0.15802681 0.1961427 0.19803032 0.5626659 -0.04947888 -0.08309843 0.40886328 0.13639513 0.15715016 0.4989223 -0.21316276 -0.23545343 -0.10250136 0.14972815 -0.61066186 -0.161567 -0.17705302 -0.5701853 0.16261244 0.3050011
6239.Y105E8B.1a 0.47339264 -0.5267283 -0.08266706 0.09620625 -0.18587582 -0.1319068 0.28353474 -0.032829385 -0.28087986 -0.011708516 -0.16692737 -0.18508597 0.18808047 -0.091611885 0.048431884 -0.034157697 -0.07026215 0.12519708 0.023971343 0.33130935 0.15946093 0.3404802 0.5063554 -0.11089271 0.08116377 0.24998455 -0.54215246 0.48384634 0.056104813 -0.16434835 -0.019672949 -0.02161336
6239.W03C9.3.2 0.31185904 0.05066802 -0.3802743 0.052833073 -0.07613425 -0.17690428 0.2941644 -0.07655904 -0.26456386 -0.058379937 -0.08661753 0.56743836 -0.065450914 -0.12685971 -0.15943126 -0.35685155 -0.063886344 0.21531759 -0.014994171 0.38719353 0.21005127 0.30834284 0.03785516 -0.48961294 0.2615382 0.170238 -0.3911012 -0.038701095 -0.12635754 -0.53708875 -0.5927685 -0.08931825
6239.F42H11.2 -0.15518017 -0.37271512 0.051395107 0.14501864 -0.086112164 -0.14227676 0.15066412 -0.15991129 0.010736463 0.08258819 0.19875015 0.13942966 -0.30994147 -0.011950628 0.29088992 0.38873816 0.1734506 0.09483875 0.27039212 0.24750589 0.163224 0.3480243 -0.08916338 -0.23857175 0.11353901 0.037933704 -0.49003258 0.32387578 -0.09013903 -0.5185632 -0.012496828 0.15657128
6239.T25F10.2.1 0.036638565 -0.3646171 -0.1991153 0.08471958 -0.16173568 0.104954034 0.19211917 0.12378003 -0.46641216 0.20035248 -0.047635354 -0.2166923 0.23235835 -0.10565362 -0.016740566 0.08589912 -0.0039120456 -0.16511051 -0.19207545 0.11277205 0.3102095 0.6593547 -0.36823055 -0.59469086 0.09686663 0.0037170805 -0.2615594 0.016401445 -0.05561907 0.39329833 -0.3179129 0.24706486
6239.F44F4.2.1 0.1732301 -0.4343861 0.3104184 0.3923941 -0.089068525 -0.2211383 0.06948386 -0.23600404 -0.019375226 -0.1227987 -0.3099053 0.12457352 -0.30789396 0.03420038 -0.00016938352 0.25897396 -0.26575583 -0.19231479 0.41200605 0.023128044 0.047621094 0.16303004 -0.5053391 -0.37101823 0.2577645 0.15912257 -0.33853507 -0.019639842 0.08426815 -0.54388964 -0.072723076 0.23982319
6239.H26D21.2 -0.31057477 -0.17436895 0.4090097 0.23264335 0.10661654 -0.132546 0.217434 -0.20049204 -0.03644559 -0.36862862 -0.26264033 -0.03162746 -0.41957974 -0.1123003 0.003897482 0.52565247 -0.05148189 -0.014649561 0.47910875 0.4117667 0.1527934 0.33272013 -0.4074338 -0.21867116 -0.14917709 -0.06444713 -0.5179011 0.18446013 -0.13647284 -0.44883406 -0.098936215 0.09694924
6239.K07A1.12 0.027752759 0.06988314 0.4296159 0.38912165 0.028587433 0.08819442 0.09765711 0.07045891 -0.045349367 -0.25258785 0.10290426 0.053481206 0.35354382 0.19237645 0.26486713 0.4123092 0.024947328 -0.08114927 0.31045043 0.26597306 0.28771824 0.3090083 -0.19445218 -0.22812177 -0.11422861 0.05554833 -0.6431566 0.1925074 -0.21560322 -0.6958442 0.16444694 0.116865285
6239.F25H5.4a.1 0.29863113 -0.3367997 0.43135542 0.17784011 -0.15167676 -0.3948016 -0.039251577 -0.2728922 0.022296831 0.4162888 -0.5007661 0.015318467 0.0111003155 0.08289771 0.07963458 0.112861484 0.19348727 -0.2836329 -0.36493504 0.3417758 -0.14794905 0.08699232 -0.16706692 -0.35695866 -0.14763628 0.12461333 -0.6276636 0.13923304 -0.34253475 -0.39797956 0.07277129 -0.23381144
6239.M7.5 0.2349663 0.31893566 -0.022672456 0.27583078 0.07797098 -0.019444928 0.14475074 -0.5389404 -0.06238406 0.14886488 0.12187888 -0.041894317 -0.4624966 0.102235936 -0.019609114 0.10556776 0.21087244 0.142915 -0.07387621 0.28063416 0.23863119 0.031090625 0.07172363 -0.6296635 -0.2226099 -0.02601193 -0.7765444 0.24059916 -0.22439921 -0.44373643 -0.45854992 -0.30652067
6239.T20G5.1 0.46117216 -0.1596688 -0.098178856 0.12113092 -0.013158718 -0.020097712 0.10957514 -0.28506806 -0.11202828 0.049923617 -0.04711872 0.4791858 0.11195299 -0.04320528 0.061265934 -0.1566226 0.0746683 0.014758181 -0.021479394 0.6265971 -0.008984583 0.54973954 0.23264134 -0.23406413 0.11489608 0.3126683 -0.17228478 -0.06379356 -0.2012547 -0.5945748 -0.3970744 -0.1667494
6239.C14B1.4 0.05864488 -0.11986457 0.25760195 0.21362138 0.011384114 0.15372762 0.29787463 0.036400914 -0.019367764 -0.10601951 0.16880614 0.157274 0.18104754 0.37583515 0.31939304 0.36189923 0.15555483 -0.08116669 0.36028644 0.2551641 0.26797563 0.35227662 -0.13712122 -0.22662488 -0.09386295 -0.07208945 -0.566151 0.16712475 -0.2492207 -0.52930945 0.090631954 0.067647345
6239.D2045.6 -0.027794834 0.2787417 0.25978738 0.3031282 -0.045201197 0.0065841265 -0.059403244 -0.46334282 -0.0619308 0.19886298 0.42240688 -0.21978064 -0.06329558 0.0028915263 0.029178858 0.25476912 0.043427885 0.09650748 0.17095001 0.33365178 0.19857161 0.34952426 0.029959645 -0.55995643 0.26551253 0.15209849 -0.5110215 0.16259646 -0.20650169 -0.42749214 -0.12741338 -0.074452154
6239.ZK1307.6 -0.10432358 0.052956335 0.4164074 0.43774572 -0.08731784 -0.13780552 0.14299095 -0.13900794 0.089388885 -0.21020322 0.29896754 -0.12763402 -0.020521201 0.08266739 -0.23119119 0.37545294 -0.15337817 -0.17302664 0.07558181 0.33475283 0.16527681 0.4756423 -0.1285225 -0.35565615 0.26272207 -0.041450176 -0.4075857 0.02476199 -0.20995565 -0.48636717 -0.075868 0.11882831
6239.F07A5.7a.4 0.3537563 -0.54897356 0.05563779 0.008917989 -0.20317172 -0.010079696 0.2828793 0.17324314 -0.24377714 0.08889158 -0.14145634 -0.13126822 0.18812968 -0.19388281 -0.13170108 -0.104157254 -0.10514932 0.021338101 0.04579125 0.047426946 0.010354147 0.46750098 0.45682925 0.03996472 0.31585965 0.31552923 -0.74991286 0.16395773 -0.015675796 -0.30459318 -0.0683248 0.014442355
6239.R107.8 0.14578 -0.24611056 -0.040535342 0.21079406 0.08577785 0.174566 0.18082996 0.09657324 -0.26722345 0.24569052 0.36019778 -0.38726324 0.23033564 0.11712425 -0.029874187 -0.042488035 -0.21540289 -0.041548412 -0.003742288 0.4737095 0.40736383 0.39460668 -0.46296108 -0.22879937 0.28136826 0.5672263 -0.2963465 -0.13321573 -0.25145456 -0.21478248 -0.108772166 0.24886766
6239.Y110A7A.17a -0.025722412 0.002424174 0.46474016 0.22053647 -0.005987323 -0.113411374 0.1974908 -0.22009899 0.0027586955 -0.34267107 0.08042352 0.18968418 -0.17815648 -0.01366098 0.06666928 0.3409019 0.003019752 0.0013962337 0.38697135 0.34451187 0.14783889 0.49613658 -0.22260879 -0.28264198 0.13319756 0.15050541 -0.40734777 0.03344078 -0.29670966 -0.41939378 -0.017538683 0.029243423
6239.Y65B4BR.4a 0.25687325 0.22865878 -0.042270806 0.30174062 -0.18187949 0.0739739 -0.093665645 -0.47876406 -0.1386979 0.33707133 0.33406347 -0.083723836 -0.0031644788 -0.11252037 -0.018260598 0.16880988 -0.10320374 0.067179255 0.07097672 0.32392925 0.046120826 0.33773735 0.0731714 -0.6168968 0.27518833 0.01523915 -0.53051794 -0.061621655 -0.13858117 -0.26906836 -0.0888223 0.00450603
6239.F33G12.4.1 0.13795002 -0.11673627 0.37935683 0.18221875 -0.20128736 -0.07121108 -0.03602386 -0.3392396 -0.12737751 -0.21922761 0.117953666 0.1565935 -0.32271534 -0.008083207 0.15399316 0.28382024 -0.16230251 0.009999214 0.4671572 0.26077518 0.12836528 0.30615073 -0.61097866 -0.40744203 0.17479403 0.08112417 -0.4072872 0.3693989 0.031725578 -0.5208088 0.13727771 0.19867681
6239.K03D3.10 0.12901583 -0.46902463 0.1400336 0.41671807 -0.313335 -0.15626985 0.020538801 0.25660583 -0.3245234 0.059220247 0.124443755 0.15937775 -0.09531004 -0.025500463 0.22794636 -0.24707748 -0.12552215 0.14585926 0.03440437 0.44911233 -0.24907939 0.48599085 0.2267792 -0.38065213 0.17460798 0.20947629 -0.34640214 0.12388087 -0.072957136 -0.2555764 -0.29702276 0.118743345
6239.K07A1.11 -0.113416016 0.09955548 0.37266076 0.2880925 0.047272243 0.07408296 0.23006658 0.1210237 -0.050080966 -0.08151557 0.09879899 0.0403869 0.21938592 0.17886457 0.28299752 0.36287567 -0.0840912 -0.09695282 0.40045932 0.20071462 0.28080043 0.37125003 -0.30762756 -0.20716406 -0.05549479 -0.007568797 -0.6264984 0.17928289 -0.12846065 -0.69021267 0.07732015 0.14157696
6239.C26E6.9c -0.07237708 0.15506327 0.3117457 0.243039 0.3867674 0.12729512 0.34252647 -0.13336366 0.03949191 -0.06497015 0.0040999455 0.07611521 0.079688944 0.2666305 0.21373719 0.5637128 -0.022962097 -0.13911676 0.27643716 0.30508915 -0.03096481 0.48793814 0.0075613647 -0.22325769 -0.03198936 0.13746281 -0.6179048 0.105434075 -0.38430917 -0.51107883 0.06939877 0.3093989
6239.C37H5.8 0.20762134 -0.09617557 0.1316157 -0.1048639 -0.16306853 -0.083184995 -0.06785457 -0.17052354 0.25903606 0.3521661 -0.35982317 0.074423574 0.026473716 -0.25191516 0.20113803 0.098793395 -0.1636451 -0.2971378 -0.10781488 0.37870044 0.39409906 0.06703263 0.13035233 -0.59467494 -0.24582362 0.16499363 -0.3968301 -0.040611576 -0.4206453 -0.5725331 -0.08605887 -0.26244667
6239.K12D12.1 -0.0884251 0.030625919 0.20084345 0.2348249 0.09690634 -0.30604234 0.029330257 -0.21914285 -0.06314868 -0.5545584 -0.23327705 -0.17712641 0.0068643233 0.10511478 0.32055736 0.52006704 -0.18757632 -0.1861845 0.37988347 0.55064255 0.06018417 0.3125676 -0.04400025 -0.19459121 -0.10815399 0.14893533 -0.4252121 0.25383002 -0.5345559 -0.48544368 -0.115993686 -0.07969909
6239.C41C4.8.2 0.33934125 -0.13625385 -0.025699673 0.078954965 -0.3263883 -0.116609804 0.040993575 -0.6018046 0.08316992 0.04675288 -0.041402943 -0.06677529 -0.25576237 0.22149499 0.063063905 0.3984931 0.13254951 0.1448159 -0.1786308 0.53283274 0.11044335 0.3413509 -0.08697553 -0.51844496 -0.15797532 0.31903103 -0.44027525 0.17385098 -0.13677552 -0.35365248 -0.0073151323 -0.5325678
6239.Y43F4B.6 -0.2578213 -0.20035447 0.2552516 0.504085 0.044173125 -0.36015058 0.1448684 -0.043784883 -0.12595282 -0.33568287 -0.1691194 0.22836676 -0.019641463 -0.05043834 0.09280221 0.43483225 -0.1611413 0.11808346 0.568241 0.2821725 0.14226353 0.4483116 -0.083382346 -0.28934222 0.189139 0.20851812 -0.14173113 0.14289695 -0.23760237 -0.5389811 -0.26125014 0.13514614
6239.C10H11.9 0.18058002 -0.33941856 0.1280022 0.42364782 -0.16425847 -0.2578316 0.051506728 -0.15792623 -0.5194414 0.036937084 0.023744972 -0.11517207 -0.21910928 0.11334375 0.14587963 -0.051961195 0.035029348 0.032768577 -0.0039412244 0.53841627 -0.19780569 0.40306732 0.07622793 -0.34255552 -0.053823702 0.44003183 -0.31049007 0.039925214 -0.14499646 -0.18926911 -0.35125074 0.082186885
6239.F26D11.11b 0.25346866 -0.38094512 -0.09628276 0.16323802 -0.2383968 -0.17665492 0.01915087 -0.018216297 -0.29592282 0.09198311 0.123771995 0.047715675 -0.26579267 0.19447799 0.08752951 -0.17397502 0.004678492 -0.15580411 0.12008538 0.2016409 -0.15854785 0.4515042 0.063293174 -0.51967037 0.3563266 0.33624494 -0.4339548 0.046631902 -0.36165792 -0.10980657 -0.09214075 0.18507963
6239.C48A7.1b 0.07925933 -0.60876167 -0.28638676 0.054609857 0.124283224 -0.15411815 0.63661355 -0.14500418 -0.116196334 0.22779863 0.034670033 -0.115912296 0.18422146 -0.4035723 0.12805352 -0.17401408 -0.20118722 -0.2982374 -0.03990476 -0.11130839 -0.1314511 0.7285806 0.21768034 -0.43151775 0.1988233 0.10352662 -0.39781642 0.22615208 0.18130267 0.069437385 0.15149285 -0.06663311
6239.T24H10.7a -0.073548384 -0.18593338 0.044235073 0.092848755 -0.027183233 0.12045891 0.037604604 -0.02245377 0.015315134 0.51708144 0.20140818 -0.15356065 0.02009177 0.039189063 -0.08711814 0.19399357 -0.14042418 -0.45240355 0.15605564 0.17579338 0.40575778 0.3131648 0.0621882 -0.5173747 -0.19780374 0.19228159 -0.49501422 0.034645844 -0.032522902 -0.21582048 -0.46457806 0.3781225
6239.T05E11.4 -0.17436814 -0.074189834 0.4227493 0.09883376 0.097321585 -0.13557692 0.29205185 -0.08620123 0.19949692 -0.062005427 -0.10701657 0.012237591 -0.34852153 -0.28945568 -0.049956337 0.5211385 -0.2534402 0.16469099 0.5626567 0.29197845 0.018207999 0.361386 -0.6758494 -0.17789504 -0.05849237 -0.023300216 -0.5044212 0.1832575 -0.115526505 -0.6370974 0.0062924773 0.3277059
6239.ZC101.2e 0.5083128 -0.2654165 0.028915009 -0.011680719 0.10271135 0.046564166 0.40086344 0.2717254 -0.49045822 0.2222253 -0.06935895 -0.21092482 0.10174554 -0.47436103 -0.122530915 -0.2316284 -0.07710752 0.020259354 -0.07514008 -0.0030029307 -0.032439478 0.5822748 -0.079248555 -0.17139634 0.25740767 0.3610309 -0.49403262 0.26172206 -0.16966583 -0.20009433 0.24937771 0.0020000003
6239.F23B12.8b -0.17395996 -0.16199778 0.20658706 0.3778947 0.008221979 -0.26053062 0.19927023 0.2826136 -0.3241842 -0.5424761 0.040277623 -0.03531911 -0.05513003 -0.07829082 -0.04030434 0.31920883 0.01708674 -0.0014927214 0.41027936 0.35087264 0.18304273 0.597077 -0.0088310735 -0.1553388 0.069401816 0.27481246 -0.31912604 0.27565226 -0.39317545 -0.32487795 -0.21531625 0.027900206
6239.F20G4.3 0.14853866 -0.36339274 0.027184362 0.4341613 -0.17020537 -0.31232175 0.00042184265 -0.1746209 -0.30686948 -0.23645079 -0.12371012 0.22104067 0.044137247 -0.22365633 0.14818239 0.11143167 0.035640005 0.20866624 0.4220709 0.37939346 0.14575708 0.38690084 0.18920407 -0.24499671 0.3348051 0.58947563 -0.35611445 -0.0012215547 -0.05961328 -0.25251678 -0.09535723 0.3620003
6239.T01G9.5b 0.025758857 -0.054388177 0.4603772 0.34883457 -0.22305219 -0.31774 0.16537966 -0.11906207 -0.015700031 -0.20818181 -0.032892194 0.14061503 -0.1056124 -0.05522814 0.20706627 0.29144025 -0.07425687 0.018596794 0.4686465 0.05894029 0.35202634 0.29604506 -0.1836654 -0.37688375 0.27324784 0.390996 -0.4609362 -0.029935164 -0.12475093 -0.34853822 0.012017084 -0.17701653
6239.F49E11.1b 0.17160054 -0.09747354 0.28543594 0.2827416 0.300776 -0.10209059 -0.01464997 -0.29496428 -0.057531018 -0.031317424 0.10768843 0.24425834 -0.16661325 0.16511951 -0.15892288 0.3730652 -0.13411024 -0.17433323 0.049951065 0.12647426 0.11581884 0.34318203 -0.0979052 -0.5866448 0.4337219 0.3253433 -0.40281883 -0.08354425 0.040768277 -0.42951983 -0.16765352 0.2917944
6239.F52E1.1 0.2224882 -0.27266562 0.50957346 0.31621042 0.15546435 -0.2458103 -0.22748114 -0.063800864 -0.108621456 -0.15556838 -0.22975107 0.064702116 0.032479692 -0.11027491 -0.073758624 0.41580656 -0.29784852 0.12416686 0.5377934 0.02104095 0.40627775 0.3163971 -0.5170391 -0.3941124 0.12230563 -0.032149177 -0.3542847 -0.12289594 0.24085918 -0.6105829 -0.06137603 0.27438742
6239.R06C7.8 -0.20574282 0.048387073 0.40722927 0.34494233 -0.09501605 -0.26052073 0.27602443 -0.06601698 -0.17805572 -0.5778081 -0.024073549 -0.090835504 -0.07735199 -0.04620048 0.029679144 0.45376274 0.011361447 -0.0639121 0.4826128 0.45240524 0.22856742 0.56084174 -0.14765914 -0.12516223 -0.023095112 0.10052108 -0.38093638 0.17691149 -0.07090532 -0.5271925 -0.1756278 -0.077088006
6239.Y102A5C.18 0.04340486 0.08663329 0.4097506 0.3154075 0.022417665 0.017081527 -0.035536002 0.0029433311 -0.30552173 -0.40990797 0.16939074 -0.07138597 0.099902876 0.16787015 0.071805805 0.43116254 -0.26230556 -0.20494016 0.35331997 0.107814685 0.37274504 0.5166487 -0.27237487 -0.30726108 -0.14273207 0.19339727 -0.49891979 0.017698962 -0.15417607 -0.5356291 -0.090598255 0.29041615
6239.C33D3.1 0.18531844 -0.4416838 0.099765204 0.099044785 0.022601034 0.25350145 0.27307314 -0.113093965 -0.01682417 0.09988578 0.031189727 -0.25823176 0.18879399 0.03450533 -0.14076588 0.30557695 -0.032986388 -0.08985429 -0.09846642 0.34065187 0.4754899 0.2417947 0.15437698 -0.47816396 -0.16916566 -0.12625058 -0.36686793 -0.015490977 -0.15411133 0.009375976 -0.27927858 0.49967515
6239.F33D4.2a 0.15217105 -0.45910814 -0.4107817 -0.036186267 -0.1947433 -0.13843375 0.5782495 -0.26380873 -0.1583431 0.31382915 -0.17569228 -0.22482559 -0.00460916 -0.0020968718 0.30685908 0.021917723 -0.2831761 0.08493039 -0.106803305 -0.0048691547 0.14924856 0.53028333 0.24500203 -0.25062495 0.3172018 0.02304301 -0.38260904 0.18052992 0.15274012 -0.2184044 -0.085408226 0.032189623
6239.F35G12.8 -0.21642515 -0.06991464 0.41231656 0.21391186 -0.09863249 -0.028613865 0.2519894 -0.20790729 0.0111736385 -0.5262683 -0.22038329 0.0026290552 -0.111391194 0.07008623 0.059502475 0.5628329 -0.14999858 -0.09697995 0.44190407 0.39124957 0.09065909 0.4743305 -0.05295634 -0.1441798 -0.0015826818 0.2360093 -0.3933778 0.26252666 -0.57220304 -0.4624136 -0.07218132 0.036447007
6239.C48D1.2a -0.04004028 -0.029517021 -0.07521123 0.27463984 -0.0697925 -0.27544603 -0.036548726 -0.14552562 -0.19132979 -0.03603078 -0.026340542 -0.014407462 -0.23993663 -0.2701337 0.024970077 -0.070959896 -0.20570639 0.09896455 0.06952739 0.00047287607 0.292786 0.42429835 -0.23506539 -0.3268467 -0.36648026 0.18879564 -0.6362795 0.20484348 0.041270938 -0.49650908 -0.40601578 0.44085073
6239.Y53C10A.12 0.18397994 -0.16507874 0.09711373 -0.14511223 -0.07616078 -0.028464498 0.2504641 -0.013342852 -0.08793393 0.29007447 0.049473036 -0.09460473 -0.015981622 0.06923099 0.22764295 0.56887287 0.059017915 -0.200386 -0.12697764 0.047775604 0.28535792 0.30841142 0.21084742 -0.6744685 -0.08624006 -0.07795122 -0.31636408 -0.17385975 -0.0750107 -0.41904095 -0.23258659 0.2539441
6239.W03G1.6c -0.22149381 -0.2532769 0.44748726 0.24760047 -0.015139428 -0.09597194 -0.13101336 -0.029211883 -0.09356491 -0.31263188 -0.022244914 0.16633193 -0.13536926 0.06541956 0.039869133 0.28397197 0.006757931 -0.20737012 0.107981935 0.22325523 0.16559073 0.5607012 -0.17169549 -0.3209734 -0.008303228 0.068048194 -0.48938587 0.44481918 0.1376234 -0.4096388 -0.32257852 0.25066668
6239.Y67D8C.5h 0.1876048 0.084377885 0.07659944 0.36945274 0.14307363 0.105812624 -0.08862958 -0.6709443 -0.15587315 0.24664398 0.13883384 -0.15718195 -0.36050442 0.13433799 0.13464771 0.42146137 0.19226737 -0.011446926 -0.05540356 0.42087844 -0.080911115 0.4004376 0.049478468 -0.55955905 -0.17154032 0.27212632 -0.4862104 0.106249385 -0.23143476 -0.32102853 -0.12370828 -0.21967207
6239.F58A4.3 -0.08457971 0.015681518 0.55073816 0.16321333 0.051368743 -0.19082083 0.18788779 -0.08526298 -0.058443945 -0.34029782 0.06672922 -0.054127183 0.045302674 0.012570597 0.04052754 0.46135503 -0.06664143 -0.056821916 0.5526221 0.1529231 0.3428262 0.40304416 -0.346648 -0.22781232 0.064345255 0.23895988 -0.56812817 -0.06185439 0.03673705 -0.69277215 -0.0068279533 0.03396086
6239.Y39A1A.5 -0.062272515 -0.10315306 -0.18532619 0.24720903 0.012978706 0.037073467 0.19491923 -0.21003352 0.09836713 0.087898165 0.19175741 0.52547723 -0.11211398 0.1596862 -0.0024909773 -0.023802912 -0.040904727 0.054314848 0.10896417 0.44465593 0.14853202 0.5064863 0.07540754 -0.3666327 0.19753937 0.0031161115 -0.4265112 0.13248135 -0.18836679 -0.4502452 -0.30845135 0.124207504
6239.C42D8.8a 0.26032528 -0.23341016 -0.15630446 -0.15785694 0.11665314 -0.025168741 0.41653 0.106450185 -0.2603799 0.15895562 0.20782788 -0.30992693 -0.09377858 -0.3759697 0.03000721 -0.22770798 -0.029641187 -0.25135678 -0.24856097 0.17484616 0.2555434 0.6418021 -0.15273337 -0.27367067 -0.060099512 0.45669463 -0.37446815 0.2975262 -0.037802346 -0.16227497 -0.12946521 -0.28382355
6239.R09B3.1a.1 0.007781564 -0.18456371 0.38905045 0.14685504 0.00800053 0.051532004 0.10905154 -0.032153286 0.0753458 -0.11397763 -0.2388095 -0.04092077 -0.38441247 -0.27883044 0.23500603 0.5277608 -0.356646 -0.04902778 0.47956365 0.48644027 0.25774136 0.07759542 -0.42918852 -0.17803106 -0.02469928 -0.10498158 -0.3986964 0.2219499 -0.06471161 -0.5545143 -0.07168772 -0.098181546
6239.K07C5.1 0.59435266 -0.38138846 0.024492327 0.5690081 -0.18820246 -0.0470045 0.23555695 -0.13643421 -0.21919914 0.15015852 -0.032243215 -0.0020409252 -0.2230948 -0.022528779 0.10852148 0.057464514 0.33629185 0.09689387 -0.06729908 0.68656164 -0.25794166 0.300785 0.21940693 -0.07007597 0.022767024 0.2872246 -0.41243255 -0.04253717 0.14639056 -0.54767084 -0.24473535 0.028796034
6239.Y106G6H.2a.2 0.023721829 -0.3253202 0.2732465 0.38671547 0.31303576 -0.4750393 -0.06374371 -0.18625492 0.09417476 0.16722488 -0.3253354 0.23989622 0.06323524 0.0059441756 -0.24499875 0.22255856 -0.054020442 -0.41316736 0.18879633 0.0955124 -0.062705785 0.030328764 -0.18817756 -0.5370671 0.29951108 0.012085912 -0.5287247 0.13514824 -0.24607015 -0.5145077 0.021832814 -0.029397862
6239.B0336.2.1 0.05218786 -0.45365366 0.041634336 0.21604532 -0.17790718 -0.18714087 0.18756773 0.21154292 -0.1977414 0.17255187 0.14678368 0.46026602 0.2138726 0.028086046 0.03677096 -0.0018393002 0.06581697 0.24672124 -0.084907584 0.5846589 0.044189937 0.43834126 0.17726785 -0.3463417 0.35036996 0.24858949 -0.048015088 0.122417234 -0.15090863 -0.67395914 -0.34258473 -0.19491681
6239.F58A4.8 -0.13103116 -0.17897585 0.2751511 0.54482555 -0.1726524 -0.2941238 0.26836777 -0.06463914 0.0340097 -0.3734044 -0.15646583 0.17601828 -0.11171636 -0.13282774 0.12670487 0.3398754 0.17624928 0.13092558 0.3812001 0.12762584 0.12004792 0.4799827 -0.2099816 -0.2749093 0.03713218 0.1989935 -0.3085255 0.14537773 -0.19238372 -0.5616321 -0.12429973 0.04685003
6239.K04F10.4d.1 0.26711607 -0.40217704 -0.07688946 -0.20878059 0.15159747 0.07295101 0.15201412 -0.17979574 -0.23992234 -0.00739514 -0.059912898 -0.037790496 -0.102635674 -0.44414547 -0.044760596 0.13616562 0.01753621 0.10542407 -0.26086596 0.35288444 0.1835228 0.2916737 -0.44501117 -0.27965352 0.15978771 0.22535472 -0.27829924 0.22991331 -0.14261402 -0.3595256 -0.048810694 0.13436371
6239.R08E3.4b -0.041455284 -0.3338644 0.012639263 0.19666152 -0.118766055 0.22291303 0.11042842 0.05431668 -0.037198335 0.001060703 0.41607296 -0.110700935 0.040773835 0.15206227 -0.03103761 0.22193602 -0.071542814 -0.20585316 -0.04916582 0.45765564 0.47255576 0.3601153 0.0886492 -0.29346243 0.19748539 0.0004003368 -0.64660704 -0.02478477 -0.09730964 -0.0919981 -0.10826117 0.54874104
6239.C25F6.2a 0.13188377 -0.49146193 -0.07733252 0.22151561 0.14646628 -0.45507705 0.08876826 0.06995287 -0.104981504 0.22534242 0.08921239 -0.1458235 -0.106674455 -0.14287351 0.35067683 -0.33215943 0.0008152564 -0.30362466 0.21886413 0.37786856 -0.08245852 0.3858482 -0.012066226 -0.36448136 0.2151439 0.25151107 -0.30428112 0.017828071 -0.27891782 -0.044485196 -0.15228736 0.038914036
6239.F31E3.3 -0.11319299 -0.050391227 0.48109356 0.32652465 -0.1030989 -0.26457492 0.13029218 -0.075820275 -0.10621639 -0.15491514 -0.10215553 -0.045802698 -0.23046033 -0.01642519 0.21091051 0.50040424 -0.2212666 -0.055505764 0.6365577 0.4331753 0.038644288 0.16872534 -0.42742038 -0.19631013 0.0095950905 -0.22379667 -0.47257715 0.2657168 -0.14162154 -0.6660071 0.00942933 -0.12083466
6239.F35D6.1a 0.023506032 -0.22433165 0.2912396 0.36689872 -0.20775339 0.05100746 -0.07216335 -0.50465 0.11474216 0.16590004 0.2523878 -0.18839116 -0.0057032644 -0.020965945 -0.049337663 0.13614036 0.1117072 0.23501846 -0.07361412 -0.09907906 0.15366909 0.21371494 -0.11708786 -0.3598901 0.28798795 0.10756455 -0.5937245 0.036416806 -0.37485412 -0.54548484 -0.30488348 0.18235828
6239.F53G12.1.1 0.07009895 -0.34434333 -0.12662606 0.24923001 -0.12509356 -0.1805041 0.1933205 0.0970203 -0.25512177 0.08278062 0.008268974 0.39567655 0.008564024 0.03055293 0.03905219 -0.22630265 -0.07990287 0.31301618 0.0438894 0.57266563 0.1383505 0.45247844 0.21542823 -0.32834765 0.32992864 0.14600739 -0.19969763 -0.031157842 -0.1375916 -0.35659578 -0.57044446 -0.0868652
6239.C55B7.1 0.18044838 -0.3782427 0.52686894 0.2885029 0.25161323 -0.36506093 -0.014430704 -0.33563375 0.06599144 -0.071882725 -0.43955448 0.26474723 -0.051242586 0.067369066 -0.29381126 0.37692833 -0.15795092 -0.24444531 0.37620884 0.21010475 0.13794628 0.1430446 -0.54933584 -0.44561592 0.16879661 0.12004185 -0.45899245 0.043891042 0.13525033 -0.4630744 0.17135178 0.17541386
6239.K04D7.1.3 -0.08971889 -0.19142036 0.066898234 0.44444913 -0.23361321 -0.46635804 -0.062876254 -0.049998578 -0.09505508 0.7142056 -0.45852837 0.0912143 0.19420403 -0.1275155 0.27553982 0.07842876 0.033503555 -0.30413184 -0.05063154 0.22779131 0.0018346361 0.2433269 0.015462953 -0.43504468 -0.035857752 0.019647313 -0.44812316 0.01595211 -0.23049863 -0.3381131 -0.14186098 -0.15098034
6239.C36E8.5.1 -0.026324965 0.023068873 0.23225696 0.42670235 -0.0459317 -0.3601324 0.033154808 0.048577577 0.060451936 -0.23127514 -0.14439203 0.0142838955 0.1134599 -0.16501276 0.17392449 0.23490714 0.13688673 0.07088938 0.19140714 0.19641922 0.2452298 0.45728633 0.034958135 -0.40858284 0.25543705 0.23087944 -0.27043918 0.14441413 -0.34069538 -0.5464822 -0.07555987 -0.034766104
6239.T20B12.2.2 0.0782784 -0.029360281 0.2619994 0.28486958 0.0048629628 0.1639472 0.47378278 0.032385103 0.05657695 0.19311033 -0.109638445 0.07269757 -0.08636796 0.11306055 0.08710889 0.4818792 -0.12626195 -0.17626819 0.4675045 0.26576567 0.32520545 0.22029112 -0.2885385 -0.25684074 -0.09381794 -0.09249219 -0.5724741 -0.14883274 0.09850836 -0.38321355 -0.0031380616 0.2290504
6239.T01B7.7 0.41876015 -0.2829819 -0.12650062 0.059640635 0.18388568 -0.26752314 0.2669939 0.07579154 -0.3500859 -1.4274559e-05 0.18784642 -0.023360357 -0.013934737 -0.6964546 -0.08246861 0.15748987 0.086853035 0.08459759 -0.16918328 -0.13313553 0.31975928 0.43198845 -0.18567057 -0.39814618 -0.14742607 -0.07031714 -0.30248988 0.064375564 -0.41726005 -0.015666757 -0.18887697 0.29066098
6239.ZC477.9a 0.41296625 -0.5231734 -0.11680959 0.321966 0.16623326 -0.24819574 0.4718438 -0.08617341 -0.3136125 0.28484136 0.021457683 -0.33261463 -0.22737122 0.030400794 0.17830391 -0.20325126 0.10942454 0.08865422 -0.08186405 0.2351295 -0.26180983 0.2745925 0.2773469 -0.26825047 -0.096232556 0.42361805 -0.7446224 0.4237112 0.1701213 -0.12241862 0.03880809 -0.15107758
6239.C14F5.5 0.19475794 -0.36522532 0.09656605 0.20931335 -0.19747092 0.036696233 0.14707294 0.018770844 -0.49577972 0.36977702 0.13161187 -0.21828946 -0.10548728 -0.12828484 -0.022213701 -0.2820401 -0.2761764 -0.07118652 -0.07645644 0.525626 -0.06053568 0.6080412 -0.07432879 -0.14973207 -0.16880411 0.38019976 -0.06228281 -0.24882016 -0.044923205 -0.678648 -0.40239313 0.26133528
6239.F55B12.3a -0.044830672 0.10851864 0.41184878 0.27913168 0.009114735 0.23481558 -0.08742079 -0.53101397 -0.3794667 0.07944311 0.19010814 -0.065753296 -0.024301067 -0.17311557 0.051974855 0.2601138 0.028857557 0.16785046 0.06540646 0.24415676 0.27320904 0.38026115 -0.11991927 -0.51188856 0.2255315 0.22459161 -0.34152663 0.07224781 -0.20977335 -0.44445294 -0.06823491 0.16686451
6239.Y92H12A.1 0.13838702 -0.25305057 0.104073286 0.24088807 -0.2061581 -0.30593508 0.11372927 -0.028669642 -0.41272065 0.24021527 0.21750526 -0.086337216 -0.26784146 0.22178759 0.23997901 -0.056784578 -0.041088857 0.054854177 -0.139927 0.4654482 -0.2458167 0.3580017 -0.031270493 -0.5631924 -0.13181141 0.37488332 -0.40705663 0.050306823 0.044995315 -0.26300293 -0.3756322 -0.024984317
6239.C47B2.3.1 -0.12935974 -0.020204091 0.14931324 0.5074128 -0.2134489 -0.31702274 0.14410579 0.023623237 -0.03905822 -0.3387697 -0.12160871 0.05590485 0.33846793 -0.17012219 0.19307138 0.37578216 0.16675642 -0.07958081 0.19779639 0.26218683 0.27680746 0.3265827 -0.073512256 -0.4211957 0.24171619 0.25523138 -0.13635352 0.22007757 -0.21953307 -0.6710849 -0.15119632 -0.08842612
6239.Y108G3AL.1.2 -0.1143646 0.25764063 0.09996168 0.2589638 -0.16710271 0.03210739 -0.07337664 -0.62578094 0.0044056177 0.24633035 0.4059443 -0.07677708 -0.17804557 -0.16137965 -0.04621698 0.262013 0.07231328 0.08129105 0.28969112 0.37295252 0.24499822 0.44801185 -0.073508486 -0.4179698 0.24020188 0.09324239 -0.47745404 0.12275607 -0.27506965 -0.48893583 -0.1430247 -0.115336254
6239.T10A3.1a -0.06507983 -0.5598355 -0.3752042 0.28867936 0.11735408 0.18899429 0.19867241 -0.09863074 -0.23242387 -0.080575906 0.33976758 0.13931634 -0.0208831 -0.34418473 0.4321586 -0.21831873 -0.12824349 -0.14207318 0.094236754 0.0852639 -0.24048729 0.5240303 0.08248554 -0.4097544 0.32694858 -0.010915418 -0.44209403 0.12918869 -0.10540342 -0.17093936 -0.14552867 -0.14988463
6239.W09C5.2 0.010263766 -0.28230947 0.2246784 0.38257176 -0.17380145 -0.16142584 0.21067847 -0.025750918 -0.13286962 -0.41038212 0.07803004 0.29028 -0.04933696 -0.07433023 0.11444803 0.15598504 -0.17279257 0.11980959 0.59820163 0.30410013 0.005037973 0.266816 -0.014205329 -0.39446422 0.19737056 0.07646252 -0.3766787 0.14782408 -0.07820135 -0.4415073 -0.070449606 0.015054428
6239.F53G12.5b 0.12432417 -0.13595614 0.5139007 0.50970334 0.25833496 -0.17223921 -0.16768153 -0.6438812 -0.073270984 0.15677291 0.039537936 0.011208462 -0.04470748 -0.10808042 -0.2488024 0.15317 -0.21185698 0.24141535 0.45915982 0.01618424 0.2777623 0.2728523 -0.38728002 -0.61877835 0.30568936 0.28526187 -0.35787463 -0.055419717 0.08476846 -0.29183435 -0.022066616 0.07390874
6239.F42A6.7d.1 0.2889595 -0.1213139 0.29479617 0.39792532 0.013908641 -0.09531323 0.03756198 -0.028315708 -0.03919191 -0.0313251 -0.34817544 0.08767335 0.078004636 0.24886781 0.050320886 0.20437583 -0.24593207 -0.3678272 0.026453083 0.27694437 -0.09726199 0.13216683 -0.24095067 -0.45374817 0.10562073 -0.037423026 -0.31420836 0.33881754 -0.39830866 -0.65311104 0.1460079 0.14304912
6239.F35G12.4c 0.08555367 0.069125585 0.26596153 0.13000183 0.0640225 0.00062548043 0.31589225 -0.34573287 -0.31852284 -0.09933613 0.027111618 0.2179885 -0.1826678 0.15377113 0.11819577 0.28179836 -0.26744798 0.1727429 0.653225 0.3215612 0.1911713 0.33685496 -0.46752483 -0.40956014 0.048778884 -0.089629635 -0.3757987 0.08422312 -0.14024138 -0.46340346 0.22941574 0.046874646
6239.C38C3.5b.2 0.40257135 -0.59517723 -0.15711167 0.3458358 -0.44458306 0.048754174 0.07986284 0.082592055 -0.12579967 0.14530124 0.052529212 0.08280521 -0.19658735 -0.25730133 0.15399536 -0.016341131 0.006311678 0.09764754 0.0025606926 0.30248377 -0.12600505 0.12195663 0.22386596 -0.31876323 0.25187072 0.3040334 -0.4800429 0.07196669 -0.1961253 -0.5145035 0.0202266 0.053376086
6239.Y54G2A.31 -0.124203905 0.08466911 0.1659852 0.2627971 -0.34787136 0.12633951 -0.03716127 -0.5554041 -0.11772992 0.20371082 0.38329655 -0.05375719 -0.32175562 -0.1203671 0.015137151 0.29078335 -0.21312723 0.21480335 0.279293 0.3987873 -0.048209608 0.30359986 -0.015710972 -0.39779475 0.1497213 0.08258144 -0.63519293 0.10784424 -0.374108 -0.3372884 -0.13284542 -0.12372678
6239.Y37D8A.9b 0.13642797 -0.084000096 0.4389162 0.16754894 0.0068463716 0.0011969819 0.17663996 -0.049831025 -0.08164144 -0.35736278 -0.024324238 0.17476873 0.22591908 0.18147217 0.12519868 0.4133504 -0.038831342 -0.07438634 0.56122595 0.16820912 0.21822199 0.31871158 -0.41060272 -0.27353707 -0.14641283 0.102454655 -0.5316928 0.011901176 -0.080146074 -0.8428931 0.17089777 0.2688657
6239.C08A9.1 0.13000973 -0.18432137 0.2948367 -0.47591624 -0.123374835 -0.15295273 0.099707134 0.07788739 0.099916145 0.2068881 -0.4485075 -0.30676186 -0.13787289 -0.26347294 0.18702766 0.2631348 -0.20881365 -0.14274757 -0.3016606 0.31473362 0.469928 0.13123208 0.087355636 -0.47457924 0.050142407 -0.3019841 -0.39419648 -0.17001112 -0.37750143 -0.3663954 -0.30979478 -0.109709755
6239.C44B11.3 -0.28800592 -0.20793377 -6.5662534e-05 0.42376876 -0.04219528 -0.09889994 0.24102323 0.08752141 -0.033176236 -0.096187755 -0.20730932 -0.1308093 0.32107618 -0.479787 0.03788601 -0.04734416 -0.032186948 -0.24354012 0.018865906 0.08826217 0.001066754 0.76073664 0.32814276 -0.44229546 0.08714583 0.033304885 -0.3805222 0.2671734 0.06453513 -0.30157694 0.07128588 -0.30028695
6239.C47E12.5a.1 0.056454152 0.20709947 0.13156703 0.252168 0.0719983 0.12867509 -0.11779191 -0.5734621 -0.025083423 0.1699005 -0.03874731 0.044586897 -0.23705629 -0.4306495 0.002545943 0.32639328 0.0067074685 0.12584901 0.32849967 0.4007222 0.135911 0.06736053 -0.036471777 -0.5705514 0.30387372 0.14909896 -0.57669 0.11260768 -0.19105776 -0.43014732 -0.026889535 -0.20856506
6239.F38E1.7 0.061951812 -0.3686925 0.2094716 0.24375606 0.18859142 -0.10822802 -0.10449706 0.058636144 -0.2929752 -0.13105635 0.12034324 -0.09736364 -0.13511512 0.05834631 0.13228291 0.085874654 -0.094459385 -0.019499382 0.5208731 0.43620932 0.65758955 0.4244456 -0.8472523 -0.32901973 0.080442615 0.21406367 -0.2224989 -0.13039908 0.21531214 -0.22974154 -0.05750764 0.30800548
6239.T11F8.3.1 0.24674295 -0.3320167 0.2919484 0.10671944 0.0704737 -0.29834256 0.20672515 -0.17177916 -0.25430968 -0.0651074 -0.1783255 0.026901785 -0.15780699 -0.20550422 -0.10057679 0.03635185 -0.18936676 -0.037834544 0.4167123 0.2852551 0.28562662 0.40055186 -0.71901435 -0.01308986 0.27130416 0.29903743 -0.177411 -0.05028511 0.31363603 -0.45781028 -0.42046213 0.13080293
6239.Y69A2AR.30a -0.05278131 0.14544581 0.54719806 0.3382142 -0.21433412 -0.31614918 0.18628116 0.035992168 -0.14950143 -0.6585528 -0.027577328 -0.23337351 0.0015148025 -0.022055121 -0.0022609734 0.336321 -0.116283186 -0.115857154 0.24489984 0.21480618 0.13701455 0.44786516 -0.275915 -0.31070805 0.09918632 0.1283294 -0.36137584 0.31237915 -0.2580819 -0.5631957 -0.1892532 -0.08153729
6239.T05G11.1a -0.020368822 -0.34166858 0.5186604 0.2598359 -0.0104370145 -0.031587016 0.0661149 -0.14877512 0.001376592 -0.013693404 0.17641273 0.21889234 -0.22239028 0.14095852 -0.00091022474 0.25122207 -0.103939526 0.09260402 0.6703433 0.3103433 0.4665515 0.35742065 -0.51173925 -0.2677937 0.031936266 -0.054910105 -0.44910148 0.17715402 0.32791033 -0.45307404 -0.07968177 0.315261
6239.C05D10.2a -0.049025755 -0.31208935 0.16592959 0.32505736 -0.2418326 -0.08403053 0.13642634 0.16618963 0.07677544 0.3002487 0.11367415 0.03589427 -0.12403104 -0.01964005 0.002370255 0.2157256 -0.16508146 -0.093408205 -0.29934326 0.237942 0.13297431 0.4567234 0.1669908 -0.3968366 0.24542914 0.04754368 -0.30484715 0.16322339 0.013453314 -0.45452124 -0.28222403 0.34111562
6239.T01C8.1b 0.01023034 0.01165935 0.12559548 -0.11347693 -0.10243178 -0.2733539 0.22993794 0.059203938 -0.13170224 0.052376628 0.20304272 0.25164375 -0.1915676 -0.09371342 -0.01592285 0.28111875 -0.05240191 -0.25095746 -0.26535776 0.18091176 0.27327824 0.18596196 0.241104 -0.7753723 0.101261996 -0.09071563 -0.5258734 0.05101514 -0.07704679 -0.28949764 -0.43339148 0.22252521
6239.Y47G6A.12 -0.28438565 -0.04318409 0.4576976 0.24096298 -0.1101823 -0.1993408 0.16086894 -0.076191865 0.01506739 -0.5778258 -0.11364476 0.04754068 -0.30788425 -0.13685441 -0.22458437 0.40850955 -0.06677602 0.08011468 0.38888282 0.3066059 0.24630369 0.5816651 -0.21002099 -0.28525323 0.18798612 0.08133324 -0.42241377 0.1414939 -0.17781071 -0.48939058 -0.12783928 0.16545431
6239.T26A5.7a -0.016287912 -0.14384986 0.22559507 0.28401175 0.11391424 0.34247074 0.22046658 -0.015998395 0.015845591 -0.0896606 0.18445441 0.030185377 -0.01972364 0.1435558 0.48285148 0.5637394 0.18329225 -0.13221082 0.20686132 0.03138765 0.37276387 0.25770786 -0.22963797 -0.14364871 0.22928554 -0.11002778 -0.60030806 0.24208483 -0.18776445 -0.6073647 0.015419856 0.1203872
6239.C10C5.6c -0.061918456 -0.14600895 0.06279468 -0.036569055 0.120708674 -0.049603622 0.26116386 0.023573415 -0.43601707 0.28363428 -0.03643479 0.3009517 -0.08222846 0.15843564 0.020963563 0.19865093 0.06709928 -0.08842307 -0.18514596 0.011795464 0.14132847 0.08989055 0.16537212 -0.6703233 0.15066685 0.08475818 -0.5271306 -0.07755266 -0.36997882 -0.4170046 -0.4604761 0.20073314
6239.Y60A3A.12 -0.38189358 -0.12725477 0.19906932 0.13980487 0.044280242 -0.30011457 0.37930986 -0.026154904 0.274599 -0.026986228 0.2108974 0.0013465317 -0.46386114 -0.08115153 -0.051096175 0.5999105 -0.046177413 -0.16442513 0.13693929 0.29494667 0.008211305 0.42007425 -0.22336712 -0.14028682 0.2559121 0.0036929415 -0.5069586 0.23766027 -0.15834145 -0.5536157 -0.36283538 0.39766973
6239.F59A2.1b.1 -0.22693709 0.014143625 0.20182316 0.34677616 0.038733505 0.009754703 0.21784386 -0.23945005 -0.18618934 -0.20629139 -0.6067229 0.23439553 0.053212967 0.07785278 -0.11851698 0.31195486 0.20557566 -0.080627985 0.42430177 0.3556011 0.08670539 0.37391472 -0.26607302 -0.45553055 0.24526332 0.39738503 -0.37001598 0.058713794 -0.109414235 -0.49852815 -0.12129113 -0.09129091
6239.F11A10.3a 0.2681508 -0.069070816 0.30773067 0.2417346 -0.010911242 0.26684144 0.17238027 -0.24540012 0.18735233 -0.14354686 0.19597092 0.039350476 -0.13908322 0.11595901 -0.047252532 0.49522138 -0.175465 -0.009784627 0.4008583 0.29855984 0.23376454 0.3138132 -0.32281953 -0.3351968 0.16277336 0.17614688 -0.52164143 -0.029631708 -0.043064345 -0.36343968 0.05923168 0.15894523
6239.C27A2.1 -0.22993135 -0.039870575 0.35329622 0.12879252 0.038542133 -0.020707682 0.31634536 -0.30895555 -0.07961873 -0.39505976 -0.09383482 -0.004674762 -0.32583892 -0.058110535 -0.103454165 0.62177455 -0.07343775 -0.011709643 0.62274176 0.38683137 -0.032884303 0.5195162 -0.18035999 -0.14614819 0.044520274 0.068387024 -0.54506814 0.31200245 -0.24380527 -0.5412323 0.10636592 0.13220996
6239.F35H12.4 -0.25475147 -0.27123603 -0.041297134 0.042750135 0.089306235 -0.17288318 0.43096772 -0.13860665 -0.28317147 0.21089296 0.07030717 0.3496026 -0.05959632 0.13591304 -0.04283464 0.26948348 0.033589803 0.024132406 0.17557463 0.46801305 -0.09096371 0.21585499 0.09531899 -0.22717908 0.13358183 -0.14341058 -0.46292362 0.026256109 -0.28985488 -0.61135083 -0.35638112 0.3154062
6239.Y41D4B.13a 0.19092292 -0.3058874 0.10499597 0.35667998 -0.12533583 -0.052247442 -0.08679085 0.083278134 -0.50867623 -0.02287607 0.023794707 0.20773984 -0.23067285 0.019533211 0.34060928 -0.18623765 -0.57205236 -0.0093852645 0.28480512 0.1415107 0.051821508 0.46227226 -0.23344848 -0.31657755 -0.36564183 0.35837162 -0.524649 -0.1268325 0.14836249 -0.3472763 -0.25069243 0.3486846
6239.F01G4.1 0.0821079 -0.20531207 0.09128868 0.24036568 0.15451543 0.15434335 0.25953802 -0.18821315 -0.05930047 -0.12533398 0.17007874 -0.14724278 0.15218337 0.29578674 -0.0927144 0.60151935 -0.15507677 -0.32234728 0.37770957 0.45773926 0.11786183 0.32189995 -0.08326054 -0.19667584 -0.07014976 0.22914039 -0.5051226 0.10543844 -0.19010128 -0.3581716 0.011175795 0.35494092
6239.F26F12.7 -0.103573576 -0.134182 0.08359937 0.31016096 0.2597048 0.15543948 0.3137634 -0.1499578 -0.076558694 -0.031155918 0.034748852 0.0042126914 0.32481748 0.22936176 -0.0335358 0.56837606 -0.04405758 -0.07668862 0.20730545 0.30347654 0.21287535 0.42469397 -0.1795736 -0.21369506 -0.28651673 0.26659468 -0.57795435 -0.032894496 -0.46479338 -0.47242206 0.21823616 0.3840934
6239.W10D5.1 0.045013078 -0.4312234 -0.08298468 0.14756106 -0.0046898616 0.18025354 0.36340392 0.32862672 -0.047007777 0.10649615 0.21398762 -0.198323 0.16763005 0.017273588 -0.07926523 0.26248625 0.003766171 -0.31983808 0.106902294 0.424656 0.16342817 0.42882073 0.1754941 -0.409982 -0.067647725 0.09432379 -0.48499063 0.044371873 0.068560444 -0.06381028 -0.13085185 0.41364768
6239.C32D5.2 0.14264418 -0.08180839 0.10828745 0.15579851 -0.3157372 0.05368937 0.15077946 0.12804276 -0.58226687 0.25357267 0.014277049 -0.20587154 -0.04126831 -0.0012775231 -0.05009107 0.03370819 -0.15431602 0.0695485 -0.1683288 0.33133942 0.2343019 0.6681354 -0.26256403 -0.47073215 0.22104718 0.14929791 -0.1693587 -0.16704684 -0.1087778 0.03720315 -0.2805277 0.20149688
6239.M79.1a 0.12971506 -0.016205458 -0.048698414 0.37333605 -0.14968818 -0.22503318 0.13930011 0.14370209 -0.34513846 0.2650925 0.0581027 -0.14123791 -0.34879625 0.03725663 0.27912235 -0.100124784 -0.20820928 0.16794257 0.08273273 0.35808095 -0.105588 0.48614794 -0.05666168 -0.44200528 -0.10479635 0.2592178 -0.3642124 0.053386282 -0.15550035 -0.28521872 -0.28955862 0.49402723
6239.F58E10.3a.1 0.23183581 -0.09758535 0.24369259 0.34423095 0.058540784 -0.32762438 0.043821443 -0.10172307 0.041041203 0.09319435 -0.37590197 0.19136272 0.08841797 0.31287843 -0.16308056 0.2637257 -0.29430783 -0.47558826 0.03295038 0.22178137 0.022094049 0.14712071 -0.19444074 -0.54937255 0.12077911 -0.05644397 -0.4351593 0.20149711 -0.5287268 -0.444638 0.2634951 -0.004331345
6239.VC5.4.1 -0.11365272 -0.050253242 0.24896497 -0.020027446 0.14082941 0.0724359 0.19988436 0.10976673 -0.2022131 0.04594131 0.2708854 0.016087567 0.02298468 0.25143543 0.14805038 0.42212597 -0.32164878 -0.0013221038 0.46729323 0.3062139 0.22875313 0.3763001 -0.34133306 -0.23245342 -0.1627849 -0.09277832 -0.59529114 0.062427048 -0.27711758 -0.52786094 0.073975906 0.22561881
6239.F15C11.2a 0.19071604 0.014078414 -0.16964552 0.3427803 -0.34522194 -0.03857604 -0.11142753 -0.48485678 0.16055945 0.429071 0.3107516 -0.09342778 0.2572547 -0.1931125 0.0084422035 0.2055613 -0.13220109 -0.20061354 0.12266001 0.3873099 0.06080037 0.45470765 0.062196158 -0.2578548 -0.054191016 0.029242245 -0.54824495 -0.013408696 -0.17983373 -0.525184 0.04242909 -0.24844624
6239.T23G7.1 0.0069614896 8.780405e-05 0.3896635 0.21235938 0.08642734 -0.09512717 0.039953146 -0.0033798774 -0.27565506 -0.48937246 0.08689759 -0.07651537 0.13322353 0.18828186 0.16985488 0.4489697 -0.25852734 -0.14557998 0.45713532 0.1505697 0.33136806 0.44465056 -0.50967103 -0.26029825 -0.13485579 0.33826476 -0.5398018 -0.05129091 -0.058889475 -0.54419434 -0.06804231 0.22170086
6239.ZC513.6 0.1367505 -0.25711223 0.49657133 0.44901717 0.30716228 -0.22085159 -0.010808115 -0.37847915 -0.04888142 -0.061348196 -0.1915198 0.17074649 -0.27627355 -0.052171327 -0.19933194 0.2567975 -0.36605802 0.014652274 0.3916182 0.028801437 0.36046836 0.21984859 -0.5458476 -0.47024694 0.20569311 0.23688863 -0.36194596 0.015234546 0.2933668 -0.46407396 -0.110531874 0.21331847
6239.T07F8.3a 0.059653208 -0.4009653 0.55923474 0.26994756 0.18155533 -0.2320633 0.0706213 -0.35123798 -0.13192715 -0.24743219 -0.22257927 0.14813946 -0.13379271 0.010882858 -0.1774163 0.27613807 -0.36329302 0.07515372 0.45841008 0.0014583941 0.25672594 0.2117841 -0.6371704 -0.3021953 0.21542016 0.27176067 -0.47655597 0.0011594018 0.20144378 -0.6209072 0.031214029 0.16210184
6239.C30C11.4.1 0.21021567 -0.17437398 -0.06971364 0.032893505 -0.29055628 -0.27340862 -0.045162342 -0.100518875 0.21862106 0.29992408 -0.22391672 0.2663091 -0.11268557 -0.17407808 0.23169614 0.2547593 -0.14674553 -0.39472932 -0.10792451 0.42047337 0.3987847 0.19188663 0.087747894 -0.44606647 -0.19070423 0.1863225 -0.454361 0.19404045 -0.16235378 -0.48340416 -0.001566259 -0.33448774
6239.T23G11.3.2 0.04731149 -0.2888048 0.51596266 0.47445464 0.18535782 -0.23105085 0.11314652 -0.22971608 -0.106635116 0.070348084 -0.37915397 -0.13237514 -0.15724403 -0.0832428 -0.3063134 0.3125759 -0.21778756 0.0039645187 0.076763906 -0.03637432 0.13345505 0.4038898 -0.69545233 -0.3410266 0.22107284 0.26892227 -0.25870726 -0.18704526 0.115782306 -0.5193425 -0.09051885 0.30176303
6239.W10C8.2 0.03756245 -0.2904233 -0.115806 0.27582833 0.008326258 0.12088044 0.0894668 -0.008192248 -0.30366424 0.22951706 0.23953728 -0.37468266 0.13124546 0.23804243 -0.006772033 0.06675168 -0.1583112 -0.28954947 0.12954293 0.402842 0.60781556 0.39233324 -0.4169094 -0.3702183 0.18775722 0.19711736 -0.35308334 -0.10893105 -0.25126347 0.16147548 -0.11924761 0.47957805
6239.F29G9.4b -0.034104116 -0.09828931 0.13845031 -0.049159735 0.04694314 0.091561094 0.11595832 0.24790847 -0.107967936 0.3740851 0.24028885 -0.25595105 0.11622639 0.02488018 -0.1525584 0.2025631 -0.21271202 -0.34038985 -0.049716353 0.17677267 0.30361667 0.6727439 0.10820512 -0.39489463 -0.033084884 0.100897074 -0.5758723 0.16448267 0.042500973 -0.08426997 -0.23489107 0.4576455
6239.C35B1.1 -0.007979429 0.18766725 0.21707475 0.10052279 -0.27029026 0.17122772 0.015631167 -0.45588368 0.05269893 0.18854621 0.39650396 -0.16517879 -0.20575763 -0.13172285 -0.0067487205 0.43098894 -0.19617157 0.12443788 0.3259807 0.53728235 -0.04852717 0.26394558 0.02856192 -0.4562125 0.1650766 0.07944909 -0.5482447 0.0355597 -0.36842832 -0.512652 -0.027947184 -0.22798182
6239.T10H9.4 0.32332733 -0.22836152 -0.1510592 0.10690266 0.057265013 0.2595878 0.28365338 -0.11543639 -0.10836589 -0.012500884 0.119619295 0.22024582 0.22352393 -0.36044404 0.026942644 -0.52928936 0.050843146 -0.076714076 0.058776807 0.59453213 -0.28731343 0.5646527 0.015666837 -0.55118483 0.04030932 -0.17033273 -0.06829375 -0.08877606 0.056444548 -0.4824745 -0.55056745 -0.16692424
6239.C09G9.6 0.104287274 -0.25707564 0.7114078 0.3266953 0.20963816 -0.35246497 -0.013236857 -0.47094914 0.024957778 -0.25274298 -0.030885667 0.05793944 -0.19222744 -0.21094115 -0.08456404 0.3382836 -0.17716283 -0.14056997 0.43273544 0.0039801383 0.3772287 0.23462035 -0.49107 -0.38277107 0.21917482 0.2601688 -0.2907506 0.058033064 0.2242915 -0.6100103 -0.1885657 0.11934733
6239.ZK520.4a 0.117310815 0.23658872 0.21919371 0.51369995 0.009448586 0.016357902 0.045469865 -0.67444813 -0.017078703 0.14756016 0.34130737 -0.28332934 -0.06616342 -0.06777001 0.15427552 0.4165873 -0.062163923 0.2110256 0.10331235 0.23844819 0.22582929 0.2554419 0.01262061 -0.51153326 0.29770696 0.17721124 -0.48851073 0.035632793 -0.20374587 -0.21716739 -0.060721744 0.12417116
6239.C05D2.1a 0.05504688 -0.33242273 0.024962733 0.088750534 -0.35600308 -0.004092616 0.12243225 0.38478065 -0.59082645 0.25696504 0.23605873 0.062453482 0.021853471 -0.16434047 -0.07956768 0.34364173 -0.009330989 -0.039265107 -0.23473479 0.29838133 0.13169762 0.46600413 -0.32500154 -0.4749648 0.184437 0.031362172 -0.2549358 -0.27447546 -0.08696827 -0.029652642 -0.43695086 0.07371473
6239.M7.1 0.091076374 0.07570729 0.20838974 0.14166702 -0.41177505 0.110574454 -0.113559775 -0.4760785 -0.121473595 0.17509726 0.2478594 0.038016476 -0.23761174 -0.12472843 0.02162699 0.49115697 -0.2957827 0.22435655 0.1792182 0.39271873 0.2491199 0.30423924 0.1416047 -0.59521735 0.07005473 0.20755275 -0.45973086 0.013710389 -0.27752435 -0.30522445 0.05546662 -0.17730871
6239.F26E4.8b 0.148762 -0.0057230406 0.0953279 0.47926095 -0.06290705 -0.20577843 -0.06577081 0.22579789 -0.029418824 -0.38044044 -0.27874264 -0.010769741 0.284595 0.0042663324 0.32986853 0.23533341 -0.028708661 -0.041118726 0.1815374 0.14303805 0.17048602 0.5419186 0.064866945 -0.41207826 0.057552077 0.0541823 -0.22840886 0.22539678 -0.21115385 -0.6062361 -0.14594363 -0.15642995
6239.F57H12.1 0.13126463 -0.44130835 0.021024944 0.11179229 -0.24320196 -0.23390056 0.089691214 0.1680103 -0.1987118 0.18399955 0.028860021 0.47886243 0.2759338 0.08013197 0.16464256 -0.07249228 0.048929088 0.2023012 -0.04752154 0.635378 0.1858544 0.33514643 0.25155166 -0.26068485 0.29183155 0.23758842 -0.09585309 0.177815 -0.3834095 -0.56132 -0.38292414 -0.15792371
6239.K10B2.1 -0.020605111 0.2827521 0.30329132 0.35499573 -0.035635866 0.058523692 -0.098987035 -0.36891264 -0.26187307 0.34879318 0.5735358 -0.29157153 -0.069237724 -0.06130279 0.08239337 0.04907307 0.11500611 0.025734901 0.046102293 0.20816734 0.19159375 0.44503653 -0.18258277 -0.53555304 0.32524768 0.23820816 -0.52806497 0.045329444 -0.20044336 -0.31712317 -0.14640832 0.05616189
6239.C38D4.6a 0.043195892 -0.48219788 0.26072657 0.43079725 0.0006575659 0.22347967 -0.042262007 -0.121215306 0.10932113 0.079974465 -0.04037772 -0.20802136 0.022963183 0.030999033 -0.121110715 0.029984822 -0.14389218 0.058152474 0.42727554 0.2925149 0.5545489 0.25675473 -0.73801047 -0.34324202 -0.19236593 0.2666778 -0.42848352 0.122224115 0.16853228 -0.09468037 -0.20902692 0.4677486
6239.F58E6.10b -0.0011341794 -0.5490833 0.048424304 0.3309249 -0.0071944864 0.10062981 0.63493556 0.1371062 0.17085059 -0.08812908 0.3278963 -0.3001004 0.047861792 -0.15965927 -0.2811288 -0.20958462 0.15792543 -0.08244707 0.121437036 0.30255678 0.4502408 0.30813792 -0.39015225 -0.5127587 -0.18322587 -0.0671755 -0.35753825 -0.009474728 -0.31075913 -0.013470374 0.23388302 0.0016788883
6239.T19E7.2a 0.22009782 -0.074212216 0.13116896 -0.23087533 -0.074074306 -0.004057172 0.10008488 -0.1883648 0.11003379 0.23559864 -0.13496901 -0.48557052 0.08832468 0.07208047 -0.010694322 0.31876913 0.07334265 0.0022886714 -0.16608596 0.048420228 0.46663347 0.34948984 0.12629777 -0.81836504 -0.27317476 0.016869858 -0.40582427 -0.13714732 -0.10911889 -0.09139738 -0.5144348 0.31966877
6239.C03C10.3 0.049292322 -0.022183064 0.528581 0.3111855 0.057513554 -0.064926565 0.16658127 0.013699463 -0.12407317 -0.31046525 -0.17458715 -0.07174073 -0.033219058 0.18619184 0.23055139 0.39140964 -0.08419304 -0.08926167 0.6597554 0.2652182 0.26630607 0.22712111 -0.43432692 -0.30886656 0.06303235 0.030765526 -0.37726396 0.31545404 -0.028466806 -0.5611136 -0.06477286 -0.067710936
6239.ZK154.3 -0.11484665 -0.25197545 -0.025944715 0.5044624 -0.008249534 0.13470194 0.15474859 0.34767032 0.16485424 -0.26701313 0.032601394 -0.046040606 0.22716299 -0.61646295 0.109629735 -0.15591511 0.021597762 -0.032945823 0.026004061 0.18462346 0.10381229 0.48469344 0.16080047 -0.43832588 -0.06719493 0.20195694 -0.5631027 0.2436829 -0.2562283 -0.18432714 -0.04379214 -0.10805474
6239.F48E8.5.2 0.3746396 -0.120042935 0.37559444 0.06046504 0.14338706 -0.6885214 -0.13110982 -0.40975454 -0.1463856 -0.12971026 0.08350602 0.17746975 0.16042444 0.03589695 -0.07842263 0.22907136 0.20611426 -0.14924747 0.042983744 0.3549443 0.1340631 0.15549617 0.060361546 -0.6046263 0.4205733 0.233895 -0.37101558 -0.16853054 -0.03791041 -0.42878667 -0.21551722 0.05723931
6239.ZK507.6 -0.020213408 0.080336094 0.3418398 0.39127034 -0.1830764 -0.09701583 0.09491087 -0.16396746 -0.06783571 -0.40232444 0.0990506 -0.12380736 -0.19852698 0.19063774 -0.008906882 0.49330178 -0.12872835 -0.11845833 0.266936 0.3353363 0.23207876 0.4520568 -0.1082264 -0.41048613 -0.015036872 0.17025708 -0.40524036 0.13178082 -0.24213372 -0.44652736 -0.09318921 0.053244065
6239.F11A1.3a 0.13311699 -0.32770082 0.1935594 -0.040595673 0.05602589 -0.010656333 0.4928384 0.15698822 -0.56286246 0.34157902 0.1502918 -0.398503 0.11112242 -0.2066146 -0.29880345 0.25990582 -0.12873313 -0.3470354 -0.112393424 -0.01360432 0.43743834 0.25877437 0.33338732 -0.5609017 0.17713273 -0.27735865 -0.28701055 -0.20700276 -0.022324389 -0.19169495 -0.19903463 -0.04901603
6239.M01E11.6 -0.09651547 -0.35786477 0.4298312 0.42128262 -0.1109365 -0.21059057 0.052637376 0.08687141 0.011320999 -0.23044011 -0.18015327 0.17385241 -0.13018441 -0.2239428 -0.074698485 0.27887878 -0.10303757 0.16678196 0.6576764 0.2058144 0.22685108 0.5176475 -0.18366933 -0.19284074 0.24070017 0.2421027 -0.22895578 0.1541727 0.041920196 -0.47893524 -0.22294438 0.09528902
6239.B0412.2 0.051981747 -0.56886214 -0.13171987 0.14055848 -0.052569304 0.14492492 0.28480652 0.11986626 -0.7300949 0.11391923 0.119969375 -0.32308596 -0.034905206 -0.2997423 -0.055766027 0.36505285 -0.02836178 -0.25897983 -0.32028407 0.06864049 0.25251886 0.22845829 -0.24023826 -0.6746497 0.19279197 -0.3810508 -0.0535318 -0.17689347 -0.124909684 -0.034433894 -0.41474617 0.0102808615
6239.W02A2.7 0.1462572 -0.24875113 0.6615836 0.3706206 0.19028309 -0.30393395 -0.095492445 -0.2722675 -0.08865343 -0.1718381 -0.17294566 0.12369813 -0.2058877 -0.041436058 -0.1615949 0.3022294 -0.20043167 -0.07378501 0.45608097 0.09587977 0.3189903 0.30128756 -0.5912251 -0.3859907 0.24266721 0.21410413 -0.38949978 -0.10297318 0.2422696 -0.39335266 -0.17285761 0.17066905
6239.F15A2.6a 0.03107847 -0.3550153 0.11862776 0.17964871 0.03490294 -0.24439026 0.6190734 0.19634941 0.06993828 0.022565797 0.41972524 -0.05686652 -0.062214278 -0.24513899 0.109363474 -0.2571639 -0.23089078 -0.37053597 0.023255842 0.01954575 -0.037396904 0.5772686 0.28433347 -0.38822967 0.18966056 -0.06194721 -0.37048182 0.2724807 -0.014187386 -0.239548 -0.061107624 -0.02397462
6239.R05D3.7 -0.027980957 -0.10320431 0.07807344 0.29102048 -0.08897353 -0.30066627 0.4133707 0.07797027 -0.017557539 -0.116952114 0.024567945 0.087151036 0.009318942 -0.19257297 0.024408005 -0.040065512 0.17342551 -0.068375856 0.24644731 0.32546058 -0.06574279 0.66026264 0.12013497 -0.35684758 0.24262413 0.40428138 -0.003495243 0.06888167 -0.3868312 -0.5065832 -0.3882644 -0.09351636
6239.B0336.6.1 0.41268975 -0.30160716 0.22290327 0.3508694 -0.09487208 0.03879723 0.10923372 -0.034649298 -0.39576235 -0.12839875 0.022917211 0.29954764 -0.23733318 -0.17164052 0.14277941 -0.13782188 -0.2935461 0.14752543 0.6492226 0.28499004 -0.035395026 0.35873362 -0.32293558 -0.2725333 -0.12975696 0.22948836 -0.42011094 -0.104464844 0.24079023 -0.42177728 -0.07741128 0.2629017
6239.C32D5.9 0.21595111 0.24159704 -0.41422367 -0.1204278 0.026731981 -0.08948117 0.09949939 -0.29700774 -0.14799565 -0.030327192 0.08386409 0.19144183 -0.24789326 -0.07352044 -0.16666386 -0.047618087 0.05416947 0.10335409 0.023273533 0.07595403 0.60031736 0.06667116 0.08711783 -0.7630238 0.03561076 -0.14776112 -0.7772305 0.08616206 -0.118957475 -0.48646855 -0.40474096 -0.074791305
6239.C03D6.5 -0.17273416 -0.13358127 0.41087514 0.23318893 -0.10446269 -0.18627258 0.18599854 -0.108496055 -0.114829674 -0.19744407 -0.029718885 0.1078098 -0.15983489 -0.05148377 0.13447015 0.59300977 -0.143706 -0.0752406 0.74714714 0.29006037 0.23394555 0.28089106 -0.45264304 -0.13753122 0.1246018 -0.01595242 -0.5263691 0.17460859 0.10178514 -0.53196156 -0.09141956 -0.018281713
6239.AH6.5 0.017875185 -0.32499462 0.67850673 0.2985374 0.22737804 -0.24828891 -0.0069881193 -0.33807036 -0.14606012 -0.2519902 -0.21968576 0.16805477 -0.11787685 -0.17486875 -0.10145297 0.26889038 -0.092957415 0.021036163 0.50703484 0.062158957 0.3164688 0.27751538 -0.6876502 -0.3741815 0.28744504 0.18240425 -0.36447486 0.03640801 0.17123882 -0.37312907 -0.08500423 0.1006445
6239.F14F3.1a 0.015088621 -0.5973203 0.008008778 0.25990218 -0.0032153686 0.114209674 0.3710378 0.33651122 -0.058340363 0.0070092217 0.2621031 -0.25490713 0.053753894 -0.040402282 -0.12030428 -0.2851232 0.02818702 -0.21235727 0.069725804 0.41872942 0.5074479 0.2466123 -0.36079755 -0.5252816 -0.13872841 0.18850754 -0.41287127 0.05818582 -0.25099054 0.19550401 -0.030423116 0.34057957
6239.Y71F9AL.16 0.57554966 -0.56089467 -0.17759238 0.45568934 -0.21345067 -0.18253651 0.25310737 0.013771394 -0.12117895 0.12242534 0.09682113 0.004722629 -0.115255125 -0.15088485 0.19164445 0.0024615468 0.19359572 0.064984635 0.2964399 0.4880918 -0.2655459 0.22958209 0.3879061 -0.08699405 0.12345543 0.26171735 -0.36171567 -0.18217176 -0.069409795 -0.6240942 -0.24534525 0.26759803
6239.Y54E10BL.6 -0.33119866 -0.14050879 0.11063463 0.32592785 -0.2166568 -0.1984826 0.033264417 0.21296 -0.2333485 0.36913905 0.016894905 0.11117104 -0.20911951 -0.027312275 0.08583424 0.021426495 -0.32780698 -0.17730314 -0.333472 0.34974298 0.1470532 0.5418904 -0.050166618 -0.4440725 0.23110893 0.2598013 -0.28453326 0.123148695 -0.04230848 -0.34959736 -0.39321762 0.26443672
6239.R07E5.8.2 -0.021319333 -0.16594486 0.45944387 0.14003916 0.072700396 -0.14496188 0.45421872 -0.34325308 -0.2757793 -0.082991466 -0.06732561 -0.25976703 -0.35132802 0.24236767 0.025390023 0.5418303 0.00565369 0.21887812 0.2751384 0.5019221 -0.09870851 0.27170974 -0.46852636 -0.10546039 -0.46682242 -0.076867856 -0.5307157 0.29804975 -0.07926961 -0.5445335 -0.07806826 -0.03267728
6239.Y57G11C.13 0.08892867 -0.26595905 0.10979648 0.2192459 -0.08926249 0.08936102 0.24827144 0.14858973 -0.14633408 0.20167334 0.13897339 0.4890329 -0.07483767 0.025977835 0.20079006 -0.26924846 -0.26299217 0.30758762 0.111566454 0.36392003 0.079855435 0.4225699 0.057657275 -0.3958439 0.36133832 -0.008180063 -0.051630642 0.22022703 -0.19920915 -0.6223672 -0.39797822 -0.13069169
6239.K08E3.6.1 -0.08007538 -0.29126027 0.4677483 0.5146921 -0.13785191 -0.20711228 0.054103002 -0.0060243118 -0.2957056 -0.58959424 -0.12741424 0.005699554 -0.16742876 0.17238174 0.13432367 0.19124894 -0.063981585 0.058058605 0.50385207 0.13544555 0.07446424 0.41449338 -0.19010745 -0.27874303 0.1324861 0.505629 -0.3146318 0.18230967 -0.25011465 -0.43100572 -0.39244682 0.033816915
6239.R10E11.1b 0.17537074 0.072793365 0.15626176 0.09257099 0.029278101 0.21327572 0.48727658 -0.04500426 -0.13092706 0.3331585 0.19274639 -0.35580707 -0.04399977 0.30158135 -0.036960933 0.502457 -0.13955368 -0.36112255 0.17562072 0.31435165 0.24006878 0.35843337 -0.03524946 -0.33350575 -0.20050961 0.09392327 -0.4651204 -0.31749183 -0.20185605 -0.41983166 -0.095529415 0.3493389
6239.K01G5.4 0.08084796 -0.056813315 0.5398284 0.40951663 -0.4147687 -0.06587757 0.09535747 -0.18720435 -0.098344326 -0.070942596 -0.49779406 0.016438825 0.1893122 0.10489499 0.039707284 0.25759432 0.19207889 -0.4609745 0.3512766 0.07247997 0.020445986 0.10246338 -0.32390946 -0.37637627 0.14990678 0.23081432 -0.43575972 0.042085193 -0.17198206 -0.5869882 -0.2889752 -0.22710662
6239.B0205.7 0.07541044 -0.20423089 0.20021658 0.212933 0.056684047 -0.16715302 0.23877607 -0.1599111 0.18468118 0.17703722 0.2943971 -0.003726996 -0.016343283 0.403658 0.19976193 0.31964287 0.030279998 -0.37425745 0.010521874 0.3033397 0.049097646 0.34436938 -0.03577139 -0.3944929 0.27994934 0.15329781 -0.40132624 0.23572645 -0.27675775 -0.32565704 -0.009077252 0.11243342
6239.Y37D8A.23a 0.0012155491 -0.4183869 -0.15622973 0.21516766 0.14550743 0.0433342 0.18734984 -0.003937322 0.045977887 -0.09555785 0.004326799 -0.49916065 0.31130928 -0.56793743 0.22277898 -0.31068885 -0.25702807 -0.18650466 -0.075005 0.23098704 -0.32653007 0.543459 0.015465337 -0.5472675 0.2693669 -0.24402368 -0.47908434 -0.07049429 0.15328985 0.062274113 -0.25534979 -0.082072765
6239.C36E6.3 0.20361516 -0.5329381 -0.17775616 -0.007541315 -0.2509818 -0.17703322 0.3554887 0.08553777 -0.19694628 0.054723196 -0.27176946 -0.18655401 0.105697595 -0.15183213 -0.010842935 -0.016423186 -0.14264375 -0.052683093 0.08445492 0.3035592 0.027801372 0.54046303 0.5673127 -0.07829553 0.5371129 0.04885449 -0.74921244 0.22016767 0.14547025 0.028324561 0.14079104 0.043633807
6239.F49E7.1a 0.19037266 -0.19637133 0.009302621 0.47682557 -0.15829392 0.15001078 0.16982143 -0.26902568 0.010450849 0.064405784 0.08512115 0.41383964 -0.04794189 -0.09620396 0.011899943 -0.20474227 0.15818468 -0.03447034 0.10375898 0.56027544 -0.01405469 0.55152166 0.23973104 -0.16464819 0.069373794 -0.07083152 -0.2602181 -0.028862877 -0.082681686 -0.70976603 -0.4239778 0.040267993
6239.Y22D7AL.5a.2 0.18720257 -0.0942082 0.27352837 -0.116383515 -0.26315165 -0.20767744 0.015560262 -0.07942056 0.35300094 0.085188404 -0.41934496 0.028734747 0.116121344 -0.27170184 0.35457522 0.002849207 -0.056883305 -0.2197314 -0.19678158 0.5669716 0.32740036 0.10616821 0.11417127 -0.34523082 -0.010642247 0.063555256 -0.48964506 0.015256473 -0.37633875 -0.49440047 -0.14864291 -0.23340748
6239.F43G6.1a -0.23954119 -0.1276219 0.3303815 0.07528825 0.23867601 -0.1704256 0.14256775 -0.28384224 -0.09844191 -0.28741273 -0.3059517 0.09649578 -0.27668807 0.07314782 -0.019321138 0.43087515 -0.30477643 -0.16072619 0.6194586 0.48362237 -0.03936597 0.31826928 -0.4195187 -0.18523617 -0.10999798 0.016431713 -0.56841654 0.25028443 -0.23388709 -0.52309996 0.01062048 0.058513053
6239.ZC328.4 -0.17468947 0.03964562 0.52933115 0.19652215 -0.06076234 -0.12728879 0.23081079 -0.046567902 -0.103102095 -0.6119443 0.07536658 -0.09020731 -0.18380116 -0.14749177 0.13022617 0.4161151 -0.05305199 0.05532377 0.5763498 0.21192484 0.2084036 0.47373053 -0.21251452 -0.292857 -0.02543953 0.0649229 -0.37629098 0.14357594 -0.22129081 -0.5843619 -0.23777133 -0.0956061
6239.F11A10.1a -0.067390524 -0.10478228 0.26697037 0.18267964 0.1605682 -0.15738556 0.18829526 -0.2237746 -0.19577669 -0.25876576 -0.06384767 0.2243644 -0.12076674 0.16181955 0.21183248 0.45236513 -0.07531661 -0.15356842 0.37461808 0.40134224 0.20490593 0.3991271 0.009115337 -0.32542184 -0.07321791 0.25443843 -0.4595567 0.10806602 -0.2024095 -0.3838847 0.12605627 0.047451343
