2968 32
6239.T27C10.6 0.09827126 -0.07074859 0.09685965 0.3283981 -0.074855715 -0.19563136 -0.0054454496 0.14658207 -0.34910262 0.15663232 0.051977247 0.03256609 0.100867316 -0.1464196 -0.076706804 0.067695156 -0.38812736 -0.115788996 -0.14669211 0.30028552 -0.021770842 0.24504697 0.16760671 -0.1826469 -0.031142944 0.065793894 -0.4015864 -0.22150321 -0.098012574 -0.2978611 0.2527794 0.16930033
6239.T25C8.2.1 0.30489618 -0.17403434 -0.08998657 0.19403619 -0.054112196 -0.24543151 -0.09239018 -0.00813488 -0.4647417 0.1124373 0.11975782 -0.10229188 -0.1324843 -0.29072225 0.031338017 0.11369531 -0.10353177 0.050113425 -0.18987839 0.113662444 0.08471995 0.27116314 0.060171805 -0.35484964 -0.013865342 -0.033769988 -0.2418428 -0.08695828 -0.07052478 -0.37111324 -0.08154467 -0.059220605
6239.T07A9.6 0.08551912 -0.15466942 -0.25587082 0.2862846 -0.088954814 -0.20890304 -0.044939514 0.046408053 -0.33762577 0.09778812 -0.032111507 -0.15856324 -0.09849136 -0.28556487 -0.038708773 0.27352166 -0.22542879 0.07762623 -0.20801756 0.62707126 -0.059696697 0.0300943 0.13145125 -0.12716036 0.012494605 0.11318048 -0.1477591 0.00719955 -0.17654403 -0.030216977 0.24349298 0.43912196
6239.Y55D5A.5a 0.013843177 -0.24311653 0.019615995 0.16876578 -0.10540143 -0.22806615 0.035890408 0.23689929 -0.26524436 0.25646076 -0.040706135 0.15995297 -0.011354293 -0.413021 -0.011992666 0.24103877 -0.18078801 0.21667328 -0.0272284 0.4311976 0.11667919 0.21929511 0.03908238 -0.21723993 -0.041477624 -0.0047860593 -0.31923822 0.04435274 0.15495911 -0.17987716 -0.065639906 0.2675202
6239.F43C1.2b 0.07907597 -0.08471989 -0.09518441 0.3181869 -0.05364926 -0.21570154 -0.077045426 0.12048058 -0.2956736 0.31966338 0.16890045 -0.11353814 0.015768373 -0.12486671 -0.18913873 0.17982447 -0.26517174 0.111580044 0.0045049754 0.35721403 0.11550882 0.22870737 0.18382232 -0.23440543 -0.018697817 -0.13102658 -0.47023815 0.04515541 0.15101871 -0.20961244 0.17608742 0.27922758
6239.T05G5.3.2 0.20319076 -0.036220744 -0.23072651 0.28781348 0.033719216 -0.031064954 -0.04127242 -0.11189661 -0.40322903 0.38206497 -0.02488882 -0.34158388 0.1333257 -0.36448556 0.101625025 0.20503184 -0.15407662 -0.020842945 0.010390206 0.43864098 0.03420513 -0.18958564 0.22132671 -0.27011442 -0.14351018 -0.005326472 -0.32223025 -0.116110295 0.046791915 -0.060873684 0.25680646 0.42720318
6239.F02A9.6 0.3577417 -0.3957323 -0.058692798 0.17356712 -0.09184027 -0.36016944 0.006283395 -0.10016053 -0.3928642 0.17625868 -0.26872563 -0.21484463 -0.009159779 -0.24222834 -0.039392542 0.24898624 -0.12623273 -0.0117177265 -0.07026871 0.48482165 0.037240677 0.019691804 0.24103506 -0.19444627 -0.022167396 -0.10387093 -0.13921292 0.15347993 0.032710776 0.0016997954 0.23780257 0.23759896
6239.ZK792.6 -0.009263735 -0.19314434 -0.1632663 0.43748888 -0.15984243 -0.12573092 -0.13838366 0.017746989 -0.35195014 0.18563202 -0.0020776447 -0.095407106 0.17097162 -0.24544664 -0.07454784 0.22973147 0.029850956 0.11887827 0.097692765 0.3685355 0.114350036 0.08356064 0.10033335 -0.24649225 -0.049119197 -0.15982983 -0.34282538 0.026252924 -0.016091876 -0.4467999 0.10818854 0.18104626
6239.C47E8.5.2 0.022401204 -0.087683044 -0.06053462 0.32271814 0.04856975 -0.2656744 0.004521133 -0.024650047 -0.18835701 0.3164112 0.13654405 -0.06805036 0.12361616 -0.093557194 0.06673969 0.116578266 -0.25326073 0.17726253 -0.29200864 0.39130667 -0.019575737 0.16423681 0.0011589311 -0.16961522 -0.075413056 -0.17481671 -0.5780335 -0.3419778 -0.041928016 -0.2552309 0.087336816 0.19416131
6239.B0218.3 0.0081579685 0.14493974 -0.059135918 0.187753 0.1874865 -0.25914073 0.01719886 0.21507514 -0.13223907 0.26540774 0.21648428 0.13725656 -0.09163102 -0.3698094 -0.11258425 0.19306421 -0.22085896 0.014573397 -0.0865403 0.4468512 0.2053245 0.32223463 0.26477936 -0.33033133 0.070602655 -0.05930552 -0.61083174 -0.07720126 0.22707231 -0.28606606 0.10949489 0.08306353
6239.B0261.2a 0.15345545 -0.17038834 -0.024186483 0.30091125 -0.17507938 -0.113559835 -0.14194955 0.12292846 -0.14791782 0.109143674 0.26863286 -0.17705818 0.13429245 -0.35690093 0.13389547 0.31775016 -0.0700595 0.10571485 -0.20091735 0.6030163 0.064946584 0.13862102 0.25645253 -0.14015777 -0.15330426 0.17766213 -0.21555303 -0.14275132 0.11828857 -0.30218405 0.14271754 0.21987131
6239.R13H8.1h -0.02540301 -0.33935845 -0.015054704 0.07638584 0.017609926 -0.36235777 0.044082634 0.1704488 -0.11508185 0.23365274 0.05227606 0.17378704 -0.044391535 -0.4742973 0.017164243 0.30486596 -0.05469684 0.21871202 -0.035523668 0.57904845 -0.011386921 0.3594074 0.12335452 -0.26093245 0.036477204 -0.0006697767 -0.33481184 -0.060712628 0.35608461 -0.094420016 0.036244307 0.10333848
6239.C12D8.10b -0.012820024 0.03141912 -0.2238128 0.30594906 -0.089547135 -0.10601321 0.07968115 0.2642619 -0.32303306 0.14266051 -0.23376565 0.0051281103 -0.05250538 -0.38903713 -0.118171215 0.28359696 -0.13809966 0.03240612 -0.28745654 0.5388228 0.1159564 0.14338732 0.12608077 -0.092879966 0.019969197 -0.014620797 -0.3348807 -0.10608279 0.042788964 -0.2878024 -0.019323302 0.2795437
6239.Y43C5A.6a 0.4303289 0.19340405 0.0736515 0.20366757 0.12867357 -0.18712395 0.1035015 -0.32007948 -0.23599644 0.34922716 0.059601434 -0.28005123 0.19718422 -0.14576419 0.19801074 0.37296736 -0.23904635 0.17845461 -0.42792687 0.50883603 -0.030462377 -0.13276616 0.08614042 -0.17266215 -0.14598249 -0.0071379817 -0.26672807 0.061594002 -0.27521157 -0.17126742 0.11584912 0.24749763
6239.F11C3.3.1 0.20389603 -0.172053 -0.21791257 0.08420227 0.08984478 -0.32558668 -0.11232401 0.10094367 -0.63157684 0.043786507 -0.048161365 0.056746725 0.011412406 -0.37949166 0.0981385 0.054118045 -0.26341453 0.13964091 -0.02628964 0.07770839 0.17332472 0.31630987 -0.06274869 -0.3183417 -0.090761125 0.044115093 -0.24169858 0.04341864 -0.18026797 -0.33430448 -0.14804544 -0.120343566
6239.B0334.8 -0.050706096 -0.030576147 -0.10951032 0.15471277 -0.08820688 -0.3336359 -0.04751595 0.16110367 -0.19579725 0.18259887 0.1804307 -0.030801335 -0.023812467 -0.32489622 0.0063139414 0.43234318 -0.066548534 0.19367991 -0.17278582 0.77069294 0.1294457 0.25668862 0.09764298 -0.16474897 -0.2651487 0.1870368 -0.11027405 -0.028428283 0.04871958 -0.21236572 0.06428392 0.21312872
6239.C09D1.1b 0.12981139 -0.10484762 -0.20478044 0.28855035 -0.077458404 -0.11981656 -0.026535947 0.071203925 -0.6509124 0.13320005 0.08489963 -0.1961725 -0.09846997 -0.2499106 0.08392393 0.22131656 -0.17245407 -0.07221318 -0.032665227 0.1534504 0.2644201 0.06521527 0.027633645 -0.20563075 -0.010963912 0.037250783 -0.3739216 0.019147258 -0.19510303 -0.40460333 0.088580444 -0.09244963
6239.M03D4.1c 0.24940819 0.05722587 -0.06024501 0.18056881 0.08008696 -0.15544109 -0.16943061 -0.43323034 -0.46366763 0.17522793 0.11922908 -0.29513857 0.090877645 -0.2878858 0.04412966 0.14087327 -0.21910904 -0.14305173 0.11612486 0.42422897 0.08059849 -0.12844598 0.21944906 -0.47647086 -0.14864603 0.0778254 -0.077647924 0.12078039 -0.33178478 -0.0985614 0.02417683 0.5651387
6239.T05C12.6a 0.33610722 -0.30482686 -0.26324433 0.17760658 -0.051232204 -0.22172174 0.08208792 -0.4046344 -0.27227238 0.06508747 -0.02368025 -0.28162542 0.01628871 -0.37841585 -0.17625389 0.2463423 -0.2751594 -0.15408124 0.049207475 0.3789109 0.024002407 0.06560286 0.29552943 -0.18503235 0.24923839 0.16380075 -0.12436482 0.040211253 -0.26669526 0.03603292 0.28582746 0.36269638
6239.D2021.1 0.03831754 -0.12174052 0.16549745 0.2642601 -0.09369535 -0.15290746 0.074750684 -0.18078418 -0.40369394 0.16112539 0.16822779 0.018301368 0.30424434 -0.16280174 0.2981442 0.22704105 -0.014156089 0.26120573 -0.18163522 0.32547712 -0.13019812 -0.09915821 0.15799958 -0.3696948 0.020595232 0.21570423 -0.37846878 -0.43850952 -0.10046475 -0.31831202 0.12820293 0.2713381
6239.C14B9.4b 0.3824538 0.01872491 -0.2863777 0.20439082 0.10222967 -0.042669885 -0.2630141 -0.25272268 -0.57338464 0.14304923 3.643762e-05 -0.2789122 0.24729595 -0.29905036 0.17667387 0.2197222 -0.100017756 -0.076141596 -0.16736484 0.42780292 -0.1349923 -0.1972887 0.09568864 -0.2717055 0.08537261 -0.04207534 -0.21545652 0.05762933 -0.20454343 -0.014467437 0.15949154 0.5641064
6239.K12F2.1 0.13588397 -0.28972834 -0.18432616 0.14384376 -0.13432801 -0.27341542 -0.19251733 0.12637861 -0.6513531 0.06804343 -0.098876394 0.0129027115 0.053672403 -0.5439771 0.122732386 0.13485953 -0.29881895 0.01817325 0.05350862 0.05428736 0.09253919 0.115773275 -0.10201934 -0.27633992 -0.08287312 0.14266498 -0.23947826 -0.071373194 -0.098038666 -0.26710552 -0.15083496 -0.2774066
6239.T12E12.4b.1 0.43945137 -0.24217659 0.1609885 0.26092327 0.07462002 0.025536584 -0.1784991 -0.3163031 -0.45571607 0.0766072 0.29684985 -0.034370128 -0.039965667 -0.17982577 -0.07946274 0.20663337 -0.23127425 0.009936734 -0.2998669 0.37209883 0.10799081 0.1454984 0.14382924 0.021978429 -0.08829558 -0.043554045 -0.18903717 -0.1931315 -0.2192888 -0.22910807 0.15754232 0.21568857
6239.R07G3.1 0.09416272 -0.02855786 -0.25207865 0.4080812 -0.2486147 -0.12104687 -0.23495619 0.0819845 -0.5838512 0.09167812 0.044663846 0.07307893 -0.108039916 -0.21894665 -0.19689105 0.10569215 -0.042580668 0.15346014 0.065448456 0.27642494 0.26523337 0.14221591 0.21677905 -0.25766262 -0.043189142 -0.058340453 -0.34963053 0.021183794 -0.17409341 -0.46943927 0.08633597 0.2681967
6239.T04C12.5.1 0.46801353 0.07699235 -0.06303345 0.16576064 0.030040095 -0.22225851 -0.2817406 0.003417315 -0.40520242 0.16665983 0.020449039 -0.17337087 -0.13455498 -0.19608593 -0.014379265 0.106994994 -0.3018214 0.06815752 -0.08142218 0.28964156 0.13863172 0.10656772 0.11383884 -0.46353194 -0.10206963 0.024232997 -0.076340176 -0.30223054 -0.14575404 -0.3616804 0.15098722 0.33214778
6239.ZK177.6 0.26056576 0.050914265 -0.09469324 0.045167804 0.10826861 -0.100247204 -0.066828646 -0.33813366 -0.51108396 0.4095903 -0.04250789 -0.32480437 0.25687623 -0.40850174 0.20845751 0.14924663 -0.1793728 -0.032993324 -0.06469394 0.43398568 -0.07275697 -0.16483495 0.042570584 -0.39132735 -0.0031326148 0.09723396 -0.13874874 -0.027306033 -0.032745633 0.050845757 0.1530533 0.51996326
6239.M117.2a.2 0.009660509 -0.039444387 -0.2523572 0.26596 0.15388219 -0.3347748 0.145375 0.060509525 -0.37613177 0.29391906 0.06523489 0.0074842107 0.16939934 -0.19899029 -0.07572314 0.18906218 -0.26973084 0.0775062 -0.029468875 0.32323423 0.2644999 0.08539208 0.034239154 -0.36235738 -0.26431015 -0.08009147 -0.17933337 -0.24516726 -0.17321028 -0.27437297 0.36959752 0.2646877
6239.ZK1067.1c -0.114386074 -0.29087538 -0.20988537 0.414973 -0.1024598 -0.21600229 0.17878675 0.06563704 -0.44959483 0.09238693 -0.06619748 -0.14583486 -0.039379615 -0.16775852 -0.29618606 0.22505237 -0.26793078 0.037108272 0.07610349 0.40119338 0.12364554 0.11550632 0.07560666 -0.032431114 0.09349454 0.031824704 -0.35893878 -0.08219548 -0.019800786 -0.40227404 -0.08827877 0.17123781
6239.H31G24.4.2 0.35488337 0.0070509617 -0.320625 0.22765522 0.113307156 -0.209463 -0.052345037 -0.16841333 -0.3978632 0.23403347 0.011556986 -0.32013693 0.25951716 -0.21293461 0.053851124 0.16157442 -0.22515512 0.05702785 -0.08786221 0.4400328 -0.065544374 -0.07202301 0.14017129 -0.3850406 -0.010977639 0.08367934 -0.15910715 0.021464853 0.016428804 -0.00872263 0.21848145 0.5393299
6239.C02C6.1b 0.18305528 -0.156347 0.21153438 0.28893557 -0.119770356 0.12761064 -0.29206413 -0.047165338 -0.65322804 0.13233483 -0.010750992 0.049334966 -0.09060457 -0.10994891 -0.18420988 0.18377472 -0.43023705 -0.1427793 -0.2997198 0.43027893 0.10202429 0.29989874 0.25639713 0.04870087 -0.047135174 -0.015634613 -0.08008012 -0.3356676 -0.25094607 -0.40846226 0.037224203 0.03436145
6239.F36A4.7 0.14684765 -0.021712925 0.27649078 0.2378635 0.08509194 -0.21299009 -0.075896695 -0.21998557 -0.23943019 0.20558302 0.058621332 -0.06765194 0.28457436 -0.45661008 0.23208722 0.20723054 0.0014225779 -0.00021423698 -0.22556259 0.5429662 -0.22303353 0.03660827 -0.13211726 -0.16281623 -0.17391095 0.059751265 -0.27750435 -0.10086946 0.16305749 -0.22662231 0.4001396 0.18612936
6239.F28H6.1a -0.1205638 -0.009595669 -0.12233425 0.27045417 -0.10858833 -0.11402906 0.10907314 0.30791104 -0.29412335 0.17447074 -0.2088666 -0.010862147 -0.22314419 -0.47766808 -0.19284002 0.16461217 -0.18458429 0.062720336 -0.21076725 0.5869694 0.1643157 0.09660891 0.17833754 -0.14986944 -0.09718916 -0.074387096 -0.42175248 -0.19205244 0.039345697 -0.27885514 0.031242995 0.33105847
6239.Y43E12A.1 0.3894552 0.022107994 -0.32382804 0.26316082 0.18124308 -0.19748531 -0.041993447 -0.14248796 -0.31067947 0.21925037 -0.10179668 -0.4205276 0.1952272 -0.1940204 -0.04699582 0.19061248 -0.18820977 -0.00080297876 -0.061012764 0.5121866 -0.08330476 -0.0030820365 0.13463786 -0.37967858 -0.031439986 0.10175654 -0.18424217 0.021537954 -0.08601882 0.059633497 0.23338959 0.53805506
6239.M142.1c 0.13334222 -0.6011988 -0.03371314 -0.078203484 -0.27383187 -0.2554066 -0.17225061 -0.047535088 -0.40465596 0.30110326 -0.24809937 -0.06808419 0.09115412 -0.45983958 0.014839582 0.014845151 -0.047175895 0.177735 0.15445021 0.38260958 0.061967645 0.08160596 0.05104703 -0.18003382 -0.18195459 -0.06812316 -0.22959729 0.3556811 -0.11739319 -0.3067619 -0.21314196 0.18529062
6239.B0350.2f.2 0.23570512 -0.19614497 -0.0628339 0.12893426 -0.22281975 0.033060808 -0.067239344 0.1963492 -0.66083425 0.22513011 0.15682656 0.034366686 0.18019497 -0.13684027 -0.041313987 0.16371849 -0.12055051 -0.095728554 0.025117625 0.2166752 0.09860109 -0.02106873 0.11356044 -0.35994923 -0.26026586 0.15217884 -0.47696736 -0.09388145 -0.07778884 -0.37871364 0.102809735 -0.07236945
6239.W06B3.2c -0.18328513 -0.09243217 -0.28128934 0.35621423 -0.06745271 -0.18046129 -0.06325513 0.2823487 -0.5043494 0.18815733 0.17708449 -0.21711983 -0.014351424 -0.26739404 0.17272733 0.35652074 -0.24932778 0.060647417 -0.044314727 0.16764353 0.35681134 0.297359 -0.015749214 -0.37664005 0.011433235 0.0028297936 -0.3467631 -0.11542011 0.12622708 -0.20852336 0.21294743 -0.01945156
6239.R11A8.4a 0.050717354 -0.17009848 0.04939501 0.23391177 -0.07725806 -0.024237433 0.12410449 -0.14241555 -0.22302395 0.20733671 0.15642728 -0.23671003 -0.009263217 -0.31379148 0.23632632 0.35611373 -0.051574517 0.25664917 -0.17670527 0.69279057 -0.11347919 0.11355876 0.17275903 -0.18767343 -0.17524344 0.046883963 -0.39361736 -0.19120789 0.1273638 -0.014572288 0.014777435 0.15954177
6239.C54D1.6 0.16934283 -0.0868845 -0.07461621 0.3804008 -0.0771258 -0.26671252 0.23689115 -0.20516427 -0.44023252 0.18133979 0.18191028 -0.013287067 -0.08195146 -0.272205 -0.12199459 0.260492 -0.12227784 0.02613243 0.03896199 0.21265215 0.20873863 0.079625554 -0.036585383 -0.08262664 0.16167024 -0.0048948736 -0.5280972 0.074537754 0.25821018 -0.19469833 -0.17225273 0.14293742
6239.F29B9.6 0.15984736 -0.0073375045 -0.14025028 0.4432518 0.0020977731 0.014266574 0.08176564 -0.13940288 -0.24399364 0.32264102 0.04237967 -0.32251924 0.24322896 -0.4323163 0.30868253 -0.0054484047 -0.34221345 0.025682468 0.09394108 0.45495462 -0.30406255 0.072631136 -0.030449476 -0.17006265 -0.042118628 -0.058987025 -0.27310932 -0.14582348 -0.015992843 -0.07092949 0.15242271 0.5111289
6239.C09G12.8b 0.04757194 -0.01928403 -0.27212554 0.43837628 -0.2725224 -0.032824036 -0.17056867 -0.054663453 -0.66094536 0.13833281 0.0945721 0.017349377 0.004505822 -0.16884747 -0.15227191 0.16301674 0.07211909 0.065743424 0.14965022 0.2588265 0.28655484 0.17470104 0.14571367 -0.16884115 0.058090277 -0.12785433 -0.38961118 -0.11217088 -0.1978732 -0.62482905 -0.13565505 0.1324745
6239.ZC168.4.2 0.32897118 0.0014447159 -0.16195856 0.23247154 0.12088247 -0.13034162 -0.09741622 -0.26304176 -0.41056556 0.3827547 -0.052746885 -0.30306533 0.12270639 -0.21492767 0.15264703 0.1888962 -0.2131326 -0.03855414 0.022036253 0.5590453 0.11001075 -0.12272691 0.19093405 -0.38198525 0.021334969 0.0475578 -0.1178731 -0.055237517 0.1313339 0.010101041 0.28342763 0.5907806
6239.K12H4.8 0.09230056 -0.15512358 0.10261635 0.08966556 -0.04182096 -0.3728874 -0.13074516 -0.43655625 -0.26597583 0.07814852 0.06142886 -0.39970282 0.21866225 -0.17070071 0.12196967 0.27477786 -0.015592533 0.05531591 -0.26730418 0.48771992 -0.1692136 0.030100811 0.16649945 -0.18791617 -0.22146687 0.16253485 -0.49770135 -0.07355683 0.06710041 -0.23527093 0.16188526 0.11504448
6239.C48B6.6a 0.104619436 -0.034174446 -0.025385205 0.3031879 -0.013824879 -0.056100402 -0.122735225 -0.0149844745 -0.27533206 0.05905843 0.2382024 -0.42342177 0.31239387 -0.37777522 0.15857397 0.18270059 -0.07840751 0.09302651 -0.2250162 0.5325334 0.04065221 0.21543603 0.33612126 -0.018647071 -0.21729401 0.10083998 -0.32727772 -0.20206292 0.105090015 -0.40475154 0.17159565 0.2319765
6239.ZK909.2c -0.16948713 -0.23447876 -0.18995182 0.031020341 -0.07133896 -0.011558121 -0.072703846 0.22830372 -0.54214543 0.090395145 0.13598178 -0.09883705 0.13650423 -0.36798713 0.057490136 0.42904335 -0.4499642 0.004101432 -0.23855025 -0.005687759 0.1823744 0.40264577 0.02509793 -0.3361696 0.18896995 -0.05426739 -0.3751725 -0.024467278 0.021362731 -0.2097361 0.103427656 -0.06709149
6239.C32F10.2 0.059502643 -0.1932121 0.016902367 0.13731332 -0.22621022 -0.18791997 0.21933943 -0.4732403 -0.33882755 0.3360547 0.048086192 -0.37968242 0.26316133 -0.47947472 0.054412834 0.2936245 -0.1509637 0.08544242 0.11649233 0.5566726 -0.100613795 -0.079713926 0.24761076 -0.18625145 0.09165224 -0.052503712 -0.0908197 0.042496424 0.024831004 -0.07431497 0.18908744 0.28233775
6239.C02F4.2c -0.0684869 -0.1477302 0.0687675 0.0061570774 0.027251165 0.028517703 -0.105211996 0.31517613 -0.69195765 0.107391186 0.12854645 0.014818484 0.019930309 -0.35925072 0.07576651 0.42045167 -0.24133538 0.0040473677 -0.029222805 0.18417495 -0.004685552 0.21213815 -0.13888483 -0.2971584 0.042141795 -0.033193942 -0.4013733 -0.1317019 -0.026668072 -0.20163795 0.3945717 0.07280449
6239.B0207.4 0.33318314 0.063834295 -0.03214918 0.192571 0.0032210425 0.1439366 -0.034183342 -0.13282317 -0.5326234 0.24838051 -0.06270911 -0.36950144 0.14197113 -0.41583192 0.12566766 0.1286989 -0.4004688 -0.094694965 -0.07814066 0.33381292 -0.1391346 -0.2321605 0.2516431 -0.3967904 -0.09200236 -0.1716782 -0.28942946 0.04339678 -0.1348501 0.044079423 0.122476116 0.51823074
6239.T06E6.2a.2 0.19273578 -0.07942435 -0.15128359 0.235972 0.06718897 -0.04784146 -0.06279519 -0.30072945 -0.42507493 0.45827958 -0.015929695 -0.26653898 0.26752287 -0.3130237 0.278431 0.14939587 -0.26549327 -0.13089763 -0.016940538 0.34811115 0.06456068 -0.13338381 0.16584094 -0.44863355 0.017149275 -0.05891677 -0.12971511 -0.014149197 0.12984909 -0.001315855 0.11676102 0.5333402
6239.K05C4.6b 0.10290536 -0.15466051 0.009785553 0.40223846 -0.14403604 -0.3028778 0.101363234 -0.2518787 -0.4459256 0.29096046 0.11535026 -0.2239187 -0.13956912 -0.065319814 -0.030864708 0.08881041 -0.18070069 0.11424672 -0.097431205 0.315803 -0.012324648 0.10280369 0.11200577 0.039983418 0.06893546 -0.05768887 -0.5258607 -0.02094911 0.17928284 -0.20815748 -0.13745901 0.49353865
6239.F18H3.5b 0.118998766 0.08087485 -0.07747792 0.27594697 -0.07255462 -0.0029844078 0.23460236 0.06070043 -0.32268578 0.313194 0.05259072 -0.38430837 0.36048242 -0.33411542 0.13133626 0.2795142 -0.16157383 0.13378431 -0.010270523 0.46247664 0.105179295 -0.09420619 0.15801725 -0.17514504 -0.13726978 -0.010920666 -0.467151 -0.18498987 0.18025163 -0.22963151 0.21470332 0.4560671
6239.C07H6.1 0.3737798 0.12280948 -0.1086102 0.21083345 -0.21860692 -0.070185184 0.13207439 -0.09696164 -0.36188823 0.10967288 0.040380985 -0.010833288 0.18979603 -0.19858661 0.053078387 0.307192 -0.24263912 -0.06939216 -0.20910141 0.5927938 -0.2788566 0.08230393 0.19176473 -0.06331906 -0.371511 -0.040864173 -0.4918198 -0.05337667 -0.09935329 -0.024458714 0.010971769 0.17880304
6239.K01A6.2a 0.082685776 0.09912281 0.014449179 0.20503801 -0.1665873 -0.26526007 -0.17298141 0.013620616 -0.64380795 0.076827765 0.047613963 0.13640825 0.1648597 -0.026609274 -0.25832987 0.29301086 -0.38391718 0.0057759457 -0.13119885 0.17561787 -0.045478143 0.248476 0.1412687 -0.09326811 -0.1381773 0.052308146 -0.43255866 -0.24892265 -0.20196456 -0.31664228 0.12767296 0.23381421
6239.C07H6.5 0.2767325 -0.12061456 -0.033217262 0.1555213 0.1071651 -0.4536877 -0.25602555 -0.2627359 -0.19824901 0.21799518 -0.19813396 -0.32935822 0.37111327 -0.17192094 -0.03885265 0.18654683 -0.010055453 -0.051226884 -0.56113297 0.44198608 0.043840103 -0.086896606 -0.12979884 -0.2440091 -0.071955554 0.1842899 -0.28850994 0.14401728 0.0340346 -0.1923471 0.3353392 0.34348202
6239.F42G8.4.1 -0.14344467 -0.0076890555 -0.22119687 0.24406473 -0.008812628 -0.07957714 -0.24427107 0.2794486 -0.4839746 0.34321907 0.35910732 -0.05710916 -0.028296122 -0.28377783 -0.023152117 0.2944005 -0.2504303 0.1441011 0.03158058 0.3511658 0.2020306 0.073902786 0.3553271 -0.2762424 0.0880462 -0.03649619 -0.5528849 0.02105216 0.10491361 -0.289512 0.216646 0.06341692
6239.F17E5.1a 0.06649876 0.16521867 0.007342929 0.39378515 -0.24655396 -0.16569534 0.090516984 -0.010055237 -0.70087945 0.067142524 -0.11685897 -0.050077062 0.21711048 -0.20826115 -0.1655407 0.28914362 -0.34668645 -0.013940017 0.09569918 -0.022486147 0.083458036 0.30595785 0.14345641 -0.20528096 -0.1090517 0.21608691 -0.3616563 0.14063323 -0.20868948 -0.28175288 0.038913563 -0.0068810354
6239.C37A2.4a 0.27155074 -0.1284227 -0.29165158 0.14303756 -0.09820315 -0.1550396 0.04974772 -0.3111584 -0.4591845 0.23065574 -0.08511518 -0.25132185 0.25399902 -0.17830239 0.13635863 0.2934515 -0.17742616 0.07478589 -0.039714333 0.5690807 0.04878048 -0.16621499 0.092567034 -0.27939788 0.018489983 -0.00927585 -0.117531374 0.16707616 0.019328833 -0.0944688 0.21970634 0.4639492
6239.T06E4.3a 0.34103665 0.09380044 0.0059598447 0.26276597 -0.053063042 0.007909341 -0.09000502 -0.09570103 -0.45421162 0.106313296 0.1885816 -0.28063446 0.4190831 -0.35041225 0.23817153 0.3902971 -0.17309251 0.15389019 -0.11201576 0.5123908 0.04963414 0.021531466 0.3559624 -0.09682391 -0.19878523 -0.026203513 -0.18009636 0.05874806 0.25857672 -0.26124135 0.13782659 0.3054329
6239.K07A9.2 -0.06438121 -0.1459937 -0.013501428 0.22172417 -0.07533846 0.016605357 -0.06367258 0.26259676 -0.6129989 0.3067354 0.09407491 0.007907766 0.10905303 -0.31267092 -0.24353957 0.24967407 -0.33537802 0.21093982 0.06332159 0.20634322 0.11351723 0.21582821 -0.024732316 -0.1964889 -0.07463686 0.22405417 -0.4240785 -0.11423699 -0.086193494 -0.08439849 -0.06383937 0.09603039
6239.Y51H4A.3 0.06620778 0.04273367 -0.16209026 0.41493988 -0.15577029 0.0036722177 -0.2275452 0.091795504 -0.6675581 0.0032248402 0.006670764 0.0066365004 0.09722596 -0.24662316 -0.2546338 0.11382252 -0.043086644 0.06677615 0.13400291 0.34563515 0.081070065 0.12397742 0.17718421 -0.19576798 -0.09440752 -0.18557423 -0.39198166 -0.08554122 -0.06889392 -0.49016973 -0.02311185 0.29956478
6239.ZK524.2d 0.005355412 -0.37068573 -0.029132117 -0.0717296 -0.27423558 -0.029715411 -0.2907235 -0.022311337 -0.7462655 0.14588921 -0.1066785 0.08027499 0.17374037 -0.4307342 -0.14263128 0.17441459 -0.4179434 0.02531861 -0.047044344 -0.016537685 0.14839774 0.21983126 -0.19033647 -0.28589132 0.0061443946 0.227048 -0.28024697 0.25457996 -0.16447407 -0.1561351 -0.2754306 -0.039406426
6239.F26D10.3.1 0.27167496 0.047931645 0.089797065 0.46729383 0.37551734 0.03143764 0.034570158 -0.1658422 -0.27863485 0.27699238 0.051124576 -0.12501988 0.0390099 -0.09569757 -0.11370819 -0.11109236 -0.26128805 0.047859408 -0.48981544 0.37817135 0.04496279 0.22415821 -0.25708646 -0.1167214 -0.17084384 -0.076487295 -0.4736578 -0.2908027 -0.1513825 -0.37718478 0.10251345 0.05081131
6239.F42G8.3a -0.042345155 -0.011248084 -0.14546297 0.40029338 0.090263754 -0.23262027 -0.22802661 0.26075915 -0.1604036 0.36457378 0.30919403 -0.13496707 -0.08967836 -0.09484515 -0.08403427 0.12965062 -0.40440676 0.041355006 0.0383917 0.41373593 0.21969327 0.25040683 0.13126838 -0.21182439 0.13306123 -0.055915006 -0.62302965 -0.15582255 0.20187995 -0.3268838 0.1728355 0.19142249
6239.R08C7.3.2 -0.04888429 -0.14832899 0.14075424 0.34692976 -0.16839488 -0.074082464 0.19722852 -0.49596393 -0.34101892 0.42755178 -0.14719662 -0.34522986 0.108020134 -0.45843145 0.05718089 0.021702265 -0.19188564 -0.083678804 0.0034741333 0.45453092 -0.27014342 -0.014177366 0.10541589 -0.36953866 0.07666097 -0.098675735 -0.06700722 -0.23260707 0.18640073 -0.13346507 0.19269067 0.30619228
6239.R07E4.6c -0.14473729 -0.27717474 0.122657984 0.23180513 0.046246134 -0.043786954 -0.46579906 0.19817518 -0.5152647 0.1262055 0.12462292 -0.15343505 0.07594641 -0.1225257 0.047459394 0.36268723 -0.5179392 0.043791365 0.03957709 0.117695704 0.15804702 0.3860853 0.019051226 -0.32238927 -0.050455805 -0.036573213 -0.33222786 -0.11399715 -0.07773347 -0.31282267 0.2535861 -0.08233799
6239.F43E2.8.1 0.2098044 -0.19175176 0.082731284 0.41569275 0.2760662 0.15065348 0.11456766 -0.3117001 -0.1865961 0.20390521 0.3127649 0.031608395 0.010472176 -0.24487647 -0.0787289 -0.04211694 -0.21517429 0.31508163 -0.57509935 0.4566162 0.2711867 0.15666677 -0.12314084 -0.21165286 -0.066088945 -0.3254116 -0.44837242 -0.09366736 -0.21163003 -0.20356013 0.122194774 -0.013903186
6239.M03A1.1b -0.00909106 -0.23462687 -0.07952323 0.27082798 -0.19483368 -0.16440725 -0.055873867 0.04814417 -0.55501664 0.056868147 -0.10524277 -0.023192683 -0.0042143404 -0.12699461 -0.15207371 0.12283932 -0.11361223 0.015006524 -0.038384523 0.24938385 0.10917199 0.1277539 0.29858577 -0.16253826 0.17302004 0.013478385 -0.37882945 0.07065499 -0.0764413 -0.46396223 0.17685597 0.5086144
6239.K07C11.2.2 0.34308052 0.040301137 -0.13685991 0.119413696 -0.031200688 -0.02414332 -0.095615 -0.09709254 -0.5056428 0.07149218 -0.02619357 -0.23182619 0.26728275 -0.28657618 0.124740705 0.21121511 -0.29028487 -0.07480953 -0.21631518 0.49899894 -0.020908907 -0.36011943 0.15015393 -0.3567468 0.07656198 0.02307827 -0.2875075 -0.052778196 -0.18239124 -0.037450194 0.15904102 0.5733034
6239.C33B4.3c 0.032835994 -0.013154241 -0.2590448 0.2623589 -0.08974514 -0.143687 -0.010738553 0.418032 -0.58828175 -0.06427221 0.2696675 -0.07094309 0.22575884 -0.2021153 -0.08721244 -0.06873126 -0.43946707 -0.2381629 0.03828319 0.41192377 0.09787787 0.37385952 -0.07702534 -0.24271317 0.09466424 -0.008670969 -0.34962454 -0.30110592 -0.16615202 -0.31532767 0.15324779 0.0035156682
6239.C44C11.1a -0.026189681 -0.114261925 -0.32547453 0.4925743 0.058929052 -0.111275606 -0.039948724 0.32107645 -0.6076443 -0.076166116 0.13137959 -0.18914495 0.12724859 -0.22348703 -0.0017077302 0.34164324 -0.11464253 0.34264895 0.0025947634 0.27022868 0.13703945 0.2785967 -0.029460248 -0.32184368 0.06014117 -0.08731374 -0.16148688 -0.010092376 -0.046654593 -0.33126697 0.020928623 0.04287882
6239.F52D10.3a.1 -0.03207879 0.053488065 -0.17643249 0.22165745 0.044476777 -0.3264743 0.06845871 0.17657883 -0.32438505 0.3817695 0.040897492 0.07296524 0.16157866 -0.1747616 0.07511008 0.27992925 -0.26682055 0.077147625 -0.05337846 0.3870461 0.3041231 0.18186682 -0.056401275 -0.33325183 -0.17032385 -0.046963893 -0.1671497 -0.20719044 -0.038060796 -0.3947734 0.246376 0.21366028
6239.K03E5.3 0.15165274 0.042037297 -0.091367096 0.22612591 0.049825173 -0.08542076 0.116187006 0.005438513 -0.40623018 0.35768366 0.1304116 -0.20362005 0.38893446 -0.27162036 0.25167975 0.20382291 -0.2476656 0.09210443 -0.08266023 0.40920767 0.13060728 -0.11325054 0.13956235 -0.13461551 -0.13744491 0.030806737 -0.52047074 -0.062114716 0.20452164 -0.1346504 0.09986293 0.4136001
6239.Y18D10A.5 -0.045625437 -0.1692449 -0.21167725 0.39267316 -0.174483 -0.04663473 0.11041919 0.09780762 -0.39342403 0.15022914 -0.11145863 0.08009403 -0.07909274 -0.20771253 -0.03454278 0.1201527 -0.26468915 0.0731522 -0.14954121 0.29789177 0.21852574 0.040415905 0.14876702 -0.21308196 -0.021778151 -0.0852875 -0.6022895 -0.104235806 0.09045884 -0.14649794 0.02338019 0.55876863
6239.K06A5.7.1 0.3994327 0.03153327 -0.4091749 0.048659716 0.17513177 -0.25107184 -0.05732189 -0.28051162 -0.27796218 0.24938059 0.001976054 -0.21801084 0.13240278 -0.34072518 0.049611513 0.35799375 -0.08434201 -0.06995483 -0.11463771 0.49853364 0.14172903 -0.18027075 0.21346585 -0.39157936 0.1357691 -0.06436749 -0.26845473 0.40197206 0.028738724 0.041266076 0.10633418 0.6021471
6239.F25B5.4a.2 0.37605074 -0.047293514 -0.25434548 0.34083864 -0.21060543 -0.021235462 0.024471112 -0.17348766 -0.27253902 0.06951292 -0.12171282 0.10699352 0.24846722 -0.2560775 -0.12939216 -0.14867882 -0.27455917 0.15815166 -0.2814441 0.4452651 -0.12634769 0.3148872 -0.16352922 -0.1277422 -0.27651036 0.16885448 -0.35798526 -0.27917874 -0.09985868 -0.11539599 0.20983547 0.30795547
6239.Y73B6A.5a.1 -0.09905248 -0.030149076 -0.24223757 0.3970031 -0.1343757 -0.34005857 -0.04026704 -0.14496997 -0.30724296 0.10260386 -0.017082049 0.0052357726 0.086201295 -0.2528862 -0.21262558 0.29537752 -0.29733402 0.1880211 -0.05822299 0.38088796 0.29677132 0.23422627 0.18173717 -0.057686724 0.12928909 -0.100096695 -0.2961878 0.16014403 -0.092753924 -0.24177028 0.21076486 0.34469843
6239.F42H11.2 0.29488754 0.022620592 -0.2709963 0.026889203 -0.04300495 -0.21178016 -0.05789944 0.03475746 -0.40581 0.22009274 0.41200107 -0.22031036 0.19793336 -0.14434466 0.061475437 0.15703613 -0.40117496 -0.03974522 -0.009954599 0.6879731 -0.14003408 0.03972045 0.21290289 -0.16409563 -0.1464858 0.006914515 -0.32473987 -0.24535678 -0.21438414 -0.10261832 0.30029428 0.22668055
6239.R06A4.7 0.14220108 -0.18736815 -0.07386274 0.0646343 0.050958205 -0.18695179 0.06427663 -0.44737878 -0.3476042 0.24797592 -0.092338786 -0.41016456 0.18235892 -0.26289362 0.33717754 0.31320405 -0.09018382 -0.053328007 0.11227905 0.68410355 -0.30565962 -0.12819755 0.18106183 -0.30040106 -0.03215705 0.07044452 -0.18514255 -0.1654482 0.068690374 -0.21288161 0.24657452 0.2673581
6239.T04C12.6.2 0.355696 0.035860676 -0.037701536 0.22995675 0.04788368 -0.27457505 -0.2343803 0.12596872 -0.5138532 0.11159129 0.054900847 -0.110908724 -0.061973028 -0.12275455 0.0032815149 -0.019718708 -0.1362689 0.10858496 -0.21071018 0.3419619 -0.014719341 0.22654977 0.21382396 -0.40023604 -0.22428821 -0.041427173 -0.24563232 -0.3923558 -0.10153221 -0.43125895 0.085399486 0.051945098
6239.C12C8.1 0.2124335 -0.07598646 0.08860219 0.37171412 0.28046978 -0.014344622 0.015746798 -0.13328552 -0.20454684 0.2572893 0.12595516 0.037024297 -0.01175402 -0.2212762 -0.1840013 -0.0025241235 -0.17275585 0.2742192 -0.56881285 0.46349788 0.058324896 0.16658604 -0.22654791 -0.22710496 -0.15866727 -0.19310772 -0.50583875 -0.3157801 -0.25667736 -0.16114955 0.3197362 -0.079113655
6239.T21H3.3 0.13432832 -0.06696875 0.14784758 0.1483215 -0.018466404 -0.048689473 -0.09919561 0.27083576 -0.55750954 0.07373255 0.07811314 -0.08949002 -0.030748932 -0.25126323 -0.1987902 0.0020115804 -0.414923 0.14709373 -0.22888331 0.1860972 0.065580845 0.29440063 0.27626142 -0.46105784 -0.24102859 0.011326225 -0.34419322 -0.18660131 0.013964226 -0.29563442 0.085806765 0.072843194
6239.Y2H9A.1 0.09632612 -0.040538445 -0.12306903 0.18013522 -0.07757568 -0.4497323 0.07528363 -0.5212799 -0.27482754 0.26494431 0.23186794 -0.29155877 0.22393242 -0.25025672 0.3341492 0.2538616 -0.13502793 0.0020614695 -0.06327573 0.68470883 -0.36287138 -0.2163197 0.21507812 -0.4274347 -0.010291225 0.22055185 -0.066123314 0.07176391 -0.0069672377 -0.13601647 0.3316911 0.29979622
6239.F38A6.1a -0.0046375445 -0.619629 0.08326563 0.2720595 -0.14931141 -0.3623984 0.14234385 0.0015391873 -0.21606462 0.3515643 -0.06316151 -0.05861086 -0.026601173 -0.37806097 0.15237656 0.067640744 -0.07659122 0.25581557 0.18730249 0.505878 0.06143022 0.0393765 0.118621 -0.17410527 0.097794786 0.08619161 -0.42822608 -0.2674367 0.34236693 -0.13665749 -0.04432017 0.15417655
6239.B0478.1a -0.27806368 -0.12422261 -0.19155015 0.44178268 -0.09982205 0.039094888 0.07210633 0.2378054 -0.53362983 0.40574124 0.06504593 -0.07523424 -0.010704899 -0.3787126 -0.23999439 0.08589608 -0.19061789 0.03736674 -0.084909305 0.42334047 0.18556538 0.089891165 0.064630955 -0.11112878 0.053036205 0.13967958 -0.55114895 -0.1636338 -0.10178568 0.094399266 -0.19464886 0.24395189
6239.F32D1.10 0.3426109 0.17226566 -0.087170586 0.17201744 0.029204277 -0.04472822 -0.02125921 -0.4997948 -0.37733722 0.36341417 0.11552699 -0.43614307 0.10638096 -0.24729638 0.01686723 0.21314879 -0.34174457 -0.15240379 -0.2167471 0.46521002 -0.15566246 -0.11962569 0.020824146 -0.47483 -0.06399064 -0.059255965 -0.027559912 -0.05350357 -0.06398671 -0.0099222 0.1910528 0.66088414
6239.F26E4.10a 0.1323736 0.040592298 0.13508564 0.24598882 -0.013154898 -0.42155164 0.0031233972 -0.41041842 -0.18065557 0.053950623 -0.17140926 -0.39528894 0.22238909 -0.32511166 -0.044318102 0.5545704 0.094029434 -0.05836149 -0.26456904 0.42617747 -0.28182945 0.13942581 0.15062098 -0.27529508 -0.17027941 0.13288066 -0.23435971 -0.090339534 -0.12399783 0.022977494 0.25537026 0.28296217
6239.C35C5.4 0.10347959 0.05659116 -0.20321691 0.42259458 -0.25119278 -0.09437359 -0.2641347 0.029678203 -0.5513404 0.09630068 -0.02731468 0.015642734 0.09791137 -0.21193117 -0.2390369 0.26723203 0.10032764 0.061672285 0.20549317 0.17424187 0.10629349 0.1218075 0.2919164 -0.29227978 -0.04362196 -0.10919571 -0.43159765 0.08712282 -0.15040255 -0.6521061 -0.14120324 0.193594
6239.F37A4.8 0.2902489 -0.1710393 0.1114886 0.2235022 0.10006421 -0.15329088 -0.0072787567 -0.5076473 -0.29297832 0.18543695 0.38407132 -0.26907277 0.17167017 -0.3673166 0.19217259 0.100148484 -0.200744 -0.15015957 -0.0006200768 0.73822075 -0.22765292 -0.21180893 0.16139327 -0.2514083 0.021921705 0.17736112 -0.049580995 -0.057841722 0.18662414 -0.18667242 0.39754096 0.36218223
6239.F44F4.2.1 0.30057767 0.014650383 -0.17256469 0.22383174 0.20787881 -0.4332267 -0.26287064 -0.04794285 -0.41073084 0.35046244 -0.32337207 -0.5873568 0.1568112 -0.20510781 -0.20208423 0.17932288 -0.122307844 -0.14842968 -0.2838315 0.36745635 -0.107315555 -0.0768185 0.015836831 -0.14767064 0.10083359 0.1269244 -0.20513856 0.14998838 -0.11300594 -0.12865841 0.2988665 0.56109524
6239.C08B11.2 0.09604949 -0.025327204 -0.14144342 0.087915175 0.03194692 -0.0760419 0.18391497 -0.15501852 -0.34195268 0.2080021 0.1448996 -0.39116967 0.097108744 -0.2809073 0.13029328 0.3815518 -0.13199773 -0.03686672 -0.10902446 0.640592 -0.28198808 -0.0054891924 0.03626106 -0.10222699 -0.046219904 0.20546928 -0.31786364 -0.3762533 0.08840401 -0.22681847 0.25970247 0.26948845
6239.C27A2.6 0.21107247 -0.059733182 -0.11616723 0.16443104 -0.06063509 -0.19013038 -0.07913126 -0.4374864 -0.4428943 0.025422264 -0.14261627 -0.40114912 -0.17288841 -0.2789252 -0.22114265 0.055992223 -0.36969933 -0.20374629 0.22189362 0.39848733 0.11150421 -0.023461677 0.15736502 -0.4096789 0.093845725 0.06412623 -0.17305915 -0.066990934 -0.14495294 -0.09837287 0.052349042 0.74841
6239.C26D10.2a 0.26986215 0.027532704 0.25862756 0.29322523 -0.04768401 -0.3026545 -0.15471329 -0.39643207 -0.081936814 0.24733208 0.15327713 -0.45253068 0.36346135 -0.4079255 -0.0670365 -0.019425957 -0.2091173 -0.19937482 -0.11681133 0.3182165 0.055453345 -0.09945544 -0.33778232 -0.59109336 -0.087733276 -0.05601708 -0.14648578 -0.11550792 0.08785882 -0.3104499 0.36307397 0.24376734
6239.M7.2b 0.5729427 -0.037816174 -0.13509798 0.008945876 0.16478996 -0.33813977 -0.17572075 0.0013496573 -0.64349884 0.05920541 0.062134545 0.061518855 0.35068247 -0.078862414 -0.09756994 0.08079068 -0.07030772 -0.12297262 -0.28495026 0.5635778 -0.15176405 -0.14442097 0.10022313 -0.38899034 0.033290185 0.36313695 -0.11024521 0.12565212 -0.4849572 0.12817147 0.10246335 0.46564922
6239.C18A3.6a -0.113926835 -0.3780343 -0.137283 0.22641507 -0.09752344 -0.0010791084 -0.13212772 0.13616249 -0.6315661 0.1221993 0.012099177 0.15677014 0.22503018 -0.4679432 -0.25934818 0.51231456 -0.32949552 -0.042713255 0.15733887 -0.052517164 0.08113349 0.090642065 -0.09931693 -0.21679422 -0.07983475 0.37201017 -0.29113358 0.04084742 -0.13503423 -0.34614366 -0.276732 -0.1699131
6239.B0025.1a 0.15179822 -0.0824908 -0.1036373 0.3696743 -0.18310477 0.12020665 -0.21356912 0.056595914 -0.27058962 0.18395245 0.21874827 -0.26847494 0.14223832 -0.26478365 -0.025304317 0.43865722 0.03890246 0.15057206 -0.27992308 0.5686369 0.13075285 0.45714998 0.25903803 0.026702126 -0.2252225 0.16040935 -0.10611213 -0.15536548 -0.039743744 -0.33770147 -0.04633828 0.25267515
6239.C15H9.6.1 0.2373444 -0.30802596 0.03248022 0.41304767 0.35285804 0.23225205 0.12376871 -0.12149525 -0.15139754 0.24448985 0.29192933 0.033455603 0.18715394 -0.15070426 -0.1631332 -0.058797266 -0.1925927 0.291072 -0.50896513 0.39821345 0.30014247 0.20904492 -0.097725846 -0.24618854 -0.067641996 -0.31757718 -0.5619642 -0.17806108 -0.29764873 -0.27779013 0.12574482 -0.15263496
6239.F58A3.2c -0.1282881 -0.26587957 -0.29331592 0.35973108 -0.40029106 -0.2738057 0.25935152 0.04236554 -0.63219154 0.13598311 -0.10017227 -0.16206434 -0.041482452 -0.38903522 -0.16616364 0.23988469 -0.14718275 -0.03829542 -0.016328294 0.16820404 0.16806081 1.827671e-05 -0.31068498 -0.18724592 0.25322825 0.014762527 -0.37523893 0.13625008 -0.13331951 -0.14372097 -0.101792894 -0.0538588
6239.F26D11.11b 0.121868886 -0.026260192 -0.13174364 0.2067666 -0.25395516 -0.41364095 -0.12082912 0.12789257 -0.5335568 -0.13987473 0.011433495 0.11409561 0.035440277 -0.35943878 -0.20077963 -0.12754363 -0.19885038 -0.4363897 -0.14213799 0.20390815 0.10900117 0.024670828 0.21285687 0.011508978 0.05320864 0.10057349 -0.53366244 -0.18353397 -0.16656369 -0.67933154 0.14915317 0.3819505
6239.H26D21.2 0.6404409 -0.023870265 -0.12782064 0.21462993 0.0745097 -0.19718046 -0.08111366 -0.36268944 -0.1819441 0.21011549 0.06482733 -0.43684313 0.38841897 -0.11045193 0.117888816 0.4945653 -0.30897105 -0.123018935 -0.23361436 0.63170236 -0.25710687 -0.23984669 0.24046867 -0.1285054 0.0061806515 0.15416583 -0.20263994 0.20511541 -0.034604307 -0.039616693 0.01115488 0.34432617
6239.R08E3.4b -0.07397489 -0.4029363 -0.16735324 0.2873506 -0.05674408 -0.21607235 0.11442636 -0.081132196 -0.49490896 0.1855401 0.059452303 -0.17727913 0.12194322 -0.29453492 0.2498829 0.1836244 -0.034793176 0.14524134 0.13075237 0.29332018 0.0030702646 0.17932087 0.19135281 -0.11261455 0.2245228 0.09391415 -0.34584996 -0.44711488 0.34109166 -0.3071301 0.17559808 0.38215384
6239.K12C11.2 0.42001358 -0.03747604 -0.1177585 0.17811155 -0.06278142 -0.048413683 0.12619291 -0.29539138 -0.21485922 0.30561304 -0.005994558 -0.29971263 0.25194272 -0.44292167 0.15230688 -0.06591377 -0.35597917 0.14882301 0.009047352 0.55379605 -0.24392903 0.030074108 0.022359615 -0.35148367 -0.118313104 -0.13204835 -0.18207648 -0.25663444 0.2520623 -0.10184514 0.13402022 0.29442546
6239.T24H10.7a -0.13391124 -0.36378804 -0.15485246 0.29927418 -0.024673609 -0.11555228 0.15783107 -0.07930336 -0.26749554 0.3190597 0.10880806 -0.046227228 0.09696369 -0.37424165 0.064549565 0.039573517 -0.27784625 0.17583878 -0.07982135 0.518249 0.0033795359 0.10213874 0.23554423 -0.013464781 0.20686342 0.07844976 -0.51291394 -0.15540592 0.37540784 -0.20433071 0.2482032 0.15559644
6239.F20G4.3 0.4686688 -0.11276405 -0.11429369 0.12646452 0.08008349 -0.3930951 -0.24718234 -0.36258316 -0.757029 -0.032473423 0.093760826 -0.038221046 -0.0653733 -0.27336845 0.15309556 0.14702903 -0.17666204 0.08463288 0.06572191 0.06391575 0.22274987 -0.028781887 0.20263171 -0.14709334 -0.21780361 0.037225835 -0.2133085 0.18338194 -0.16741647 -0.2628126 0.17005064 0.43557075
6239.C14B1.4 0.17660205 -0.12624899 -0.16303387 0.074431464 0.06859294 -0.0818184 0.13213949 -0.46871814 -0.2408039 0.3133552 0.28160572 -0.30608985 0.24230827 -0.40535662 0.02318218 0.22131363 -0.028796567 0.09097243 -0.014155829 0.49801004 -0.36878783 0.15444209 0.01331958 -0.37473056 0.05726735 0.24177223 -0.074323185 -0.29408118 -0.11748915 -0.052076302 0.24954483 0.40607578
6239.F07A5.7a.4 0.26798722 -0.03310786 -0.30856693 0.18682064 -0.17156696 -0.26080152 -0.14145985 -0.024851423 -0.7364201 0.05756159 0.0016583953 -0.12860918 -0.1322893 -0.40040275 0.2496556 0.038129855 -0.111238934 0.08602946 -0.22211902 -0.09687468 0.2124849 0.20057122 -0.17026493 -0.33052337 0.027635427 0.09484777 -0.26928166 0.051351964 -0.08747761 -0.5187813 0.04863699 -0.16863804
6239.R107.8 0.08330966 -0.6378973 -0.05466285 0.22670752 -0.24021327 -0.22054139 0.2641979 -0.102686495 -0.4413824 0.14280626 -0.1091464 -0.116074756 0.03667824 -0.09345804 -0.21622285 0.13721703 -0.15599102 -0.059097048 0.27872425 0.23383856 0.0017904361 0.1509265 0.28440392 -0.17123485 0.024992637 -0.11699776 -0.37544104 0.09311023 0.003294044 -0.41798228 0.10196432 0.26197293
6239.C33D3.1 0.1229189 -0.6692783 0.054466095 0.21118698 0.16495575 -0.26284662 -0.23166756 -0.13134858 -0.3344203 0.30857474 0.11766207 0.07730254 -0.25231132 -0.35991818 0.15014756 0.16600935 -0.072876334 0.15382041 0.22580223 0.3640179 -0.13134716 0.21576017 0.13659024 -0.20439579 0.29229808 -0.15148085 -0.3259661 -0.10826252 0.41146603 -0.20314309 0.064336106 0.049235266
6239.T25F10.2.1 -0.11780508 -0.5165937 -0.049764305 0.10459259 -0.09329105 -0.14385694 0.35534158 0.26637146 -0.43402287 0.0991206 -0.14631379 -0.05471456 -0.04125094 -0.3964097 -0.2709949 0.39616758 -0.11229617 0.00612843 0.37672544 0.32560292 0.027950741 0.38540894 0.009000051 -0.27213088 0.08697969 -0.08963825 -0.44425738 0.13510723 0.25348973 -0.15294604 -0.04818289 0.06982142
6239.C47D12.1a 0.0763495 -0.0046304893 0.023633063 0.37923864 -0.12798887 0.0573435 -0.09427718 -0.24371609 -0.38451025 -0.066071935 0.39773914 -0.39990246 0.29199073 -0.29138732 0.25617468 0.2644466 -0.046679296 -0.12385014 -0.19536625 0.5248167 0.08579166 0.095081516 0.3502495 -0.1958265 -0.15225339 0.18316583 -0.21832372 -0.013317302 0.2291271 -0.48129538 0.19606228 0.2072836
6239.Y53C12A.1 0.33142427 0.06524234 -0.15803729 0.10209937 0.069366366 -0.18330275 -0.11522573 -0.23613945 -0.504494 0.48446462 -0.1935671 -0.22911437 0.10120962 -0.32525292 0.32056123 0.15643217 -0.364999 0.09897078 -0.19292423 0.3640225 0.06160348 -0.1511063 0.20369035 -0.1556729 0.10141692 0.06971129 -0.13577779 0.24431564 -0.051204726 -0.10022162 0.27427137 0.62705815
6239.R06C1.1.1 0.06506778 -0.018302262 -0.0069030966 0.16131248 0.10976804 -0.09224315 0.1449513 -0.22752254 -0.29331902 0.22947307 0.2353494 -0.41733932 0.1300632 -0.28224546 0.149074 0.12609236 0.01598724 0.07493407 -0.09274519 0.76107585 -0.17303145 -0.04187919 0.02064418 -0.22606784 -0.011067999 0.2621244 -0.45652905 -0.35467535 0.15604386 -0.15912172 0.13545345 0.26384878
6239.ZK1307.6 0.1593623 -0.033277526 -0.09572982 0.09951397 0.078060366 -0.10144794 -0.015149887 -0.20996867 -0.50838256 0.40504158 0.17145973 -0.16657947 0.40697533 -0.13317275 0.22714576 0.1729611 -0.20380552 -0.14779934 -0.17181073 0.42640638 0.11605892 -0.076874554 0.008998597 -0.2682347 -0.06256635 0.13719192 -0.23264338 -0.10891862 0.2357105 -0.1997315 0.20845628 0.49360412
6239.C53A5.3 -0.013420774 -0.13955401 0.07592251 0.16060854 -0.029007552 0.002434134 0.18086335 -0.19421464 -0.4248738 0.2744935 0.14927043 -0.32647148 0.153837 -0.30912033 0.22119924 0.18251497 -0.041588407 0.14193965 -0.07361206 0.6263632 -0.22746293 -0.024369963 0.0075916727 -0.19192863 0.17073143 0.21290351 -0.2883241 -0.3224891 0.2973324 -0.23273048 0.21539377 0.41106018
6239.W03G1.6c 0.12599145 -0.054918285 -0.17719944 0.17887047 0.11239167 -0.14369558 -0.0930856 -0.22925457 -0.21623865 0.4303222 0.29262203 -0.39545056 0.16184439 -0.36341396 0.18964274 0.19707108 -0.21522152 -0.003690148 -0.041943613 0.3256406 0.27583292 -0.07582759 0.30279052 -0.35059917 0.09773248 -0.15805481 -0.3533733 -0.09466569 -0.05456817 -0.108664736 0.08426295 0.5507667
6239.F35D6.1a 0.1813628 -0.161419 -0.17340249 0.03246337 -0.14149897 -0.2803349 -0.043872826 0.038502388 -0.30901897 0.36012104 0.1372271 0.07592486 0.2797688 -0.2812309 0.32765454 -0.091770165 -0.35003936 0.18758518 0.015495922 0.39483684 0.110404305 0.3129082 0.17959458 -0.18342069 -0.20542519 -0.071135744 -0.2617168 0.010801275 -0.16317108 -0.30870476 0.36386675 0.3492869
6239.Y47G6A.8 0.4778952 0.3137536 0.1419115 0.23169483 -0.09057592 -0.116561614 0.029320514 -0.5046708 -0.23399667 0.22069992 0.06546085 -0.35141388 0.17228238 -0.21323048 0.012142471 0.49404606 -0.24918553 -0.15948835 -0.21354555 0.5299235 -0.22049555 0.018082656 0.11559148 -0.13111797 -0.04659568 0.10947165 -0.3715032 -0.060152594 -0.12791686 0.051876776 0.11987093 0.27504674
6239.F26B1.3 0.49121583 -0.088384524 -0.23014289 0.15583774 0.13505797 -0.3596048 -0.19815071 -0.32989106 -0.29435885 0.19606479 0.13009591 -0.37203175 0.09073414 -0.22353266 -0.10214359 0.23407114 -0.17198323 -0.016432786 -0.15240479 0.58296484 -0.121048845 -0.24365889 -0.12845765 -0.34845048 -0.109203115 0.08338876 0.012813767 0.13210551 -0.29166955 -0.051298898 0.28062403 0.57926714
6239.C47B2.3.1 0.2884911 0.002450272 -0.0056350403 0.057714224 0.12970902 0.05098821 -0.17899346 -0.39458328 -0.33002642 0.23729387 0.26628292 -0.3041894 0.037091546 -0.23655942 -0.1543587 0.023275802 -0.4569153 0.3022334 0.011386502 0.3098374 0.08870175 -0.16518208 -0.007415478 -0.7397343 -0.4249792 -0.031636667 -0.21205343 0.0035119075 -0.26468748 -0.18465756 0.12594973 0.45826718
6239.K04F10.4d.1 0.52117306 -0.5956353 -0.07396985 0.09203621 -0.010387083 0.11499885 -0.172039 -0.052747123 -0.33913407 0.107722394 -0.11680382 -0.071553715 -0.00673696 -0.11558489 0.04692805 0.43987086 -0.24766803 -0.15154836 -0.16772051 0.28749368 0.0632467 0.12809478 -0.063595064 0.09996768 -0.08676558 -0.31743893 -0.38070086 0.19292808 -0.13735855 -0.42386147 0.08641795 0.021904042
6239.F58A4.8 0.53129953 0.06986574 -0.12235554 0.12104028 0.13597193 -0.17244679 -0.14739959 -0.16660345 -0.4008619 0.36793396 0.17586133 -0.5036096 0.19266278 -0.18957976 -0.041180328 0.03433736 -0.10268273 0.18633255 -0.043755215 0.38686004 0.02774296 -0.13792536 0.12526882 -0.5519904 -0.3292044 0.019773899 -0.24921386 0.117994346 -0.22187833 -0.096986875 0.08394819 0.411805
6239.C10H11.9 0.114412025 0.06824235 -0.11692543 0.48352596 -0.07671553 -0.24204978 -0.06356005 -0.06735379 -0.5747054 -0.013986565 -0.13293886 -0.11716574 -0.089523226 -0.32073894 -0.138262 -0.039146263 -0.19281644 -0.05319563 0.12273145 0.29555157 0.18547376 0.17515169 0.0329137 -0.04025135 -0.09316055 -0.24045317 -0.33764574 0.11142733 -0.10883674 -0.44625753 -0.08038775 0.4273441
6239.T01G9.5b 0.6053676 -0.052311167 -0.15070106 -0.0037636203 -0.012222163 -0.17959732 -0.09673628 -0.3509636 -0.4391233 0.334835 0.1422753 -0.14726034 0.10430013 -0.23539059 -0.03516943 0.12340923 -0.19138075 0.21777165 -0.16493624 0.31480443 -0.015813291 -0.16631716 0.014392291 -0.41192442 -0.12726842 0.20221409 -0.19090755 0.040698078 -0.17642862 0.083685234 0.16803284 0.608838
6239.R09B3.1a.1 0.71028394 0.07903099 0.06159698 0.26567537 0.10884638 -0.1547353 -0.18979393 -0.19207172 -0.15993708 0.3792606 0.017923508 -0.32865646 0.17609484 -0.08027367 0.037243053 0.37862584 -0.25118458 0.073105104 -0.17811878 0.5700581 -0.4830304 0.026106251 0.036732644 -0.3186731 0.07819243 -0.02266795 -0.26068655 -0.04854088 -0.18109262 0.18296449 0.122531734 0.26064733
6239.C48A7.1b -0.21643507 -0.31071347 -0.044876512 0.14549516 -0.012963942 -0.19719462 -0.08523529 0.14655425 -0.88540936 0.15535781 0.09226129 0.22194691 0.11612954 -0.39838228 -0.10914218 0.2562575 -0.42525175 -0.0911958 -0.14784302 -0.06385057 0.110823095 0.24163848 -0.14475857 -0.2514746 0.067736715 0.2735343 -0.3022115 0.11623458 -0.18297207 -0.12279789 -0.09694339 -0.33018833
6239.Y105E8B.1a 0.3689812 -0.05424031 -0.20521118 0.46577725 0.011200178 -0.2467777 -0.14626494 -0.060308028 -0.5206607 0.09593125 0.17427577 -0.12680969 -0.2686181 -0.39941952 0.09368621 0.08366664 -0.1393629 0.1202585 -0.010691734 -0.0945093 0.22185098 0.2339216 -0.2187305 -0.44294742 -0.04017174 0.07867404 -0.29670238 -0.054956496 0.004865876 -0.36233577 -0.19498259 -0.26315692
6239.Y53C10A.12 -0.25517052 -0.33932963 -0.030800238 0.03651782 0.124029905 -0.18771036 -0.17707478 -0.024838151 -0.27947748 0.33818308 0.08897166 0.053360052 -0.06643925 -0.59386504 0.12801875 0.19395618 0.047765866 0.17519543 -0.29966968 0.7022301 -0.026887354 0.1562374 0.10010211 0.006884405 -0.024104984 -0.11142163 -0.42651585 -0.18476658 0.0393752 -0.053387478 0.28812525 0.16033527
6239.B0336.2.1 0.1096912 0.021775039 -0.18636179 0.42854473 0.054969426 0.12422344 -0.17874804 0.07916379 -0.5583384 0.008519591 0.17465053 0.11353589 0.35661176 -0.18670905 -0.31410116 0.12542519 -0.051823106 0.24985069 -0.09607109 0.2900025 0.21138202 0.15258604 0.18276003 -0.4428348 -0.07442888 -0.08758109 -0.026844509 0.007444927 -0.11592898 -0.7568882 -0.021193126 0.29399484
6239.F38H4.9.2 0.18066102 -0.08672928 -0.036478486 0.2592021 0.06257599 -0.008787492 -0.07358581 0.24056022 -0.48045722 0.16836004 0.0147176245 -0.12051068 0.14818609 -0.47337446 0.10322549 0.074154206 -0.16364165 -0.0031327023 -0.011794139 0.12641656 0.13755004 -0.13562748 0.04443081 -0.21118371 -0.07790214 0.054942977 -0.4874543 -0.2543884 -0.15458305 -0.33982065 0.31867594 0.44329202
6239.Y49E10.14a.2 0.4438852 -0.28505424 -0.103368565 0.12959027 0.03891226 -0.3373724 -0.33857092 -0.38586754 -0.36020315 0.30536774 -0.18002944 -0.38094142 0.15352985 -0.430824 0.03733797 0.1692906 -0.081389695 -0.09711139 0.0017664657 0.43220168 -0.006825694 -0.06574911 0.28162953 -0.2583878 -0.027520528 -0.019918248 -0.048916355 0.20154873 0.07417034 0.065688364 0.26479977 0.5268204
6239.C32D5.2 0.003457317 -0.028378068 -0.13736397 0.43114537 -0.20663965 -0.24404573 0.42646116 0.21918792 -0.35300118 0.1560541 -0.07979231 0.025134971 -0.026596438 -0.4437878 -0.16358432 0.3086773 -0.10082698 0.050428987 0.28907585 0.31214586 0.24296084 0.21953875 0.16689222 -0.14392436 -0.05424723 -0.2781318 -0.35911357 0.25530276 0.20538019 -0.32657245 0.0974967 0.42981666
6239.F33G12.4.1 0.4432069 0.081299014 -0.25683546 0.15260531 0.077414766 -0.07105984 -0.37609062 -0.33993715 -0.20090964 0.36846313 -0.15654583 -0.3030081 0.105817154 -0.48277688 0.1868562 0.15749796 -0.3124712 -0.3906172 -0.094605744 0.46688542 -0.02808392 -0.13225552 -0.023107868 -0.2104642 0.13795859 -0.06900603 -0.21144262 0.1214436 -0.37669507 -0.019684773 0.283311 0.605195
6239.Y110A7A.17a 0.43661296 -0.059962694 -0.020063851 0.107513115 0.15507792 -0.042645745 -0.062492155 -0.4088887 -0.53166956 0.08872828 0.05534132 -0.20443535 0.14385846 -0.26879326 0.13662711 0.08419883 -0.00771787 -0.031354237 -0.14275116 0.4379181 -0.16717753 0.0009083652 0.19009437 -0.3200185 -0.14281283 0.22904642 -0.16758594 -0.06361512 -0.3159981 -0.08781896 0.2779656 0.4801032
6239.F58A4.3 0.3817423 0.028153565 -0.10294407 0.009700012 0.052268177 0.026349373 -0.011722842 -0.47813305 -0.36576322 0.30838838 -0.09242715 -0.46346322 0.15603687 -0.29011297 0.23753826 0.15365033 -0.20284815 0.14304681 -0.18885899 0.6826775 -0.25950515 -0.27722758 0.026526367 -0.59751636 0.12651902 0.17169206 -0.034816075 0.04536578 -0.15921353 -0.020758929 0.11633776 0.45248774
6239.T10A3.1a -0.08066639 -0.22363979 0.06605267 0.1463749 -0.38878778 0.04568923 -0.20290178 0.12961933 -0.7307122 0.07548964 0.1330124 0.017833423 0.22192338 -0.3922613 -0.18278493 0.26237303 -0.48633298 -0.11194522 -0.016158145 0.034049574 -0.1390707 0.29689822 0.07482533 -0.0656043 -0.07412466 0.16639674 -0.3164305 0.035324916 -0.33676243 -0.32466185 0.007727135 -0.06643859
6239.F26E4.8b 0.1637122 0.121817276 -0.0017121459 0.15160792 0.15219884 0.063823566 -0.18566172 -0.36165294 -0.18270159 0.1445296 0.21935114 -0.15618446 0.013245797 -0.3843289 -0.042836525 0.056911126 -0.3199377 0.15558878 0.09723149 0.38590372 0.027927065 -0.15269682 -0.027594768 -0.780837 -0.46909642 0.16993761 -0.333128 -0.10347557 -0.08017993 -0.2899567 0.006731156 0.3136437
6239.C48D1.2a 0.16110465 -0.2130073 -0.3991519 0.059082888 -0.23696037 -0.116821915 -0.06232048 -0.33679852 -0.2309383 0.5829443 -0.17370152 -0.19261569 0.23013254 -0.15082859 0.037402462 0.22174272 -0.36840352 0.010513815 -0.22356847 0.56957006 0.39094156 -0.059771437 0.33595577 -0.026121262 0.18535875 -0.133077 -0.40284702 0.1870089 -0.1280207 -0.1516071 -0.17694332 0.14644304
6239.C06A1.1 0.28692266 -0.1397566 -0.12849765 0.48008454 0.17530487 -0.04025414 -0.21622066 -0.2763614 -0.38828954 0.35674962 0.26842046 -0.022014143 0.08798679 -0.2843827 0.16191773 -0.13032253 -0.3682506 0.053767096 -0.66883075 0.3533647 -0.08567239 -0.011209087 -0.17183423 0.03310713 -0.19596921 -0.25205237 -0.24745934 0.027064363 0.077489644 -0.14559892 0.12401576 0.41225618
6239.W03C9.3.2 0.22957124 -0.41844246 -0.029076772 0.57761437 -0.16600509 0.3314348 -0.3095399 -0.13445918 -0.29242244 0.034185342 -0.018587232 -0.14164159 0.0018042647 -0.33467665 -0.2454918 0.17032833 0.07849113 0.06405761 -0.36476249 0.29346213 0.33160546 0.41078538 0.28813422 -0.20511338 -0.20111321 -0.09108749 0.09145252 0.032476913 -0.2915113 -0.5656551 -0.206206 0.19416933
6239.K07A1.12 0.26726195 0.07326906 0.0075208363 0.15862064 -0.015118358 -0.032580554 -0.025600726 -0.57476544 -0.2852136 0.3059299 0.17180303 -0.4614598 0.18552321 -0.47129947 0.047947805 0.07960684 -0.1332313 0.10920448 0.020341717 0.47291934 -0.167241 -0.106767185 0.08783636 -0.4967525 0.04195045 0.011021607 -0.12233958 -0.2504203 0.033925425 -0.24108168 0.23880982 0.28613135
6239.K07A1.11 0.31874654 0.18156844 -0.13270292 0.29627436 -0.0055352305 0.015644535 -0.09366325 -0.59282887 -0.2731061 0.3552546 0.1528163 -0.45552048 0.24688773 -0.42102057 0.17682448 0.3288982 -0.14265195 0.021641852 0.14601798 0.54496944 -0.13453901 0.023859229 0.12344681 -0.44908062 0.114153445 0.08102629 0.027449422 -0.12308034 -0.013649782 -0.08654424 0.39143884 0.28470322
6239.F53G12.1.1 0.107783556 -0.1081939 -0.13367021 0.5549645 0.0500289 0.13278648 -0.29394838 0.07191952 -0.57165724 0.036853597 -0.008004852 0.09595426 0.22912674 -0.09901686 -0.14017606 0.13111874 0.025657289 0.14594404 -0.19430791 0.21855101 0.22644846 0.28686297 0.28737584 -0.37810615 -0.102708094 -0.05028187 -0.035469234 0.04432641 -0.2932015 -0.6100383 -0.0050056376 0.3625232
6239.F33D4.2a -0.10023349 -0.35528892 -0.14055657 0.23724173 -0.22836563 -0.24390757 -0.2797123 0.15981668 -0.5860112 -0.043676417 0.35373533 0.032031897 -0.03853174 -0.37651697 -0.087161385 0.13673547 -0.37410107 -0.045460407 -0.5233751 0.011154233 0.09708378 0.2726438 0.02236639 -0.4035609 0.22477612 -0.030230433 -0.29456696 0.07029974 -0.031564727 -0.12074459 -0.11357202 -0.16731316
6239.ZC101.2e 0.20483318 -0.29539362 -0.14581709 0.26517114 -0.41121295 -0.24152331 0.06300593 0.1075599 -0.5914588 0.15001662 -0.26535937 -0.25312722 -0.14069009 -0.45529637 0.019043123 0.10931435 0.05689218 -0.21266828 0.10546779 0.0321689 0.15844612 0.16907443 -0.26919574 -0.32839912 0.050294895 -0.062205806 -0.4272379 0.20010832 -0.21490714 -0.399716 0.09695745 -0.43046898
6239.F26H9.6 0.3397989 -0.38256642 -0.14599021 0.49497002 -0.085914426 0.27316093 -0.13966681 0.035663635 -0.53208184 0.06498431 0.044439282 0.024847748 0.102368556 -0.16106413 -0.47787914 0.07515163 0.01448515 -0.12338626 -0.28790808 0.31343883 0.2208326 0.34675387 0.19034226 -0.15674761 -0.17252696 0.059880365 0.11797075 -0.1398368 -0.29379526 -0.56517017 0.004738968 0.28138494
6239.Y71F9B.7 0.3319545 -0.11841372 -0.32049176 0.2554112 0.12117099 -0.13094833 -0.17328894 0.008184889 -0.41277307 0.2720147 0.090113625 -0.30436677 0.27120578 -0.19412908 0.3773178 0.14497486 -0.21823332 -0.007104098 -0.07458514 0.3783346 0.013880023 -0.3681836 0.14952749 -0.39208087 -0.06345022 0.005134517 -0.2177814 0.07737089 -0.1865299 -0.30165294 0.178222 0.5073943
6239.F49E11.1b -0.12008034 -0.14632371 -0.14094965 0.19804943 -0.012032315 -0.118287325 -0.18802571 -0.31046164 -0.43513748 0.22986431 0.07964427 -0.18942572 0.13024974 -0.18733576 0.25286406 0.259161 -0.061604615 -0.025902696 -0.21951878 0.26010543 0.1314239 0.14078166 0.069947794 -0.18426685 -0.16478397 0.00083749864 -0.3711927 0.18969572 0.05634528 -0.2501963 0.39537048 0.69428635
6239.D2045.6 0.045960773 -0.1712508 -0.2618415 0.23257427 -0.32018048 0.20597658 0.0027947312 -0.3825024 -0.45784366 0.23915794 0.13106146 -0.010335155 0.19635008 -0.35617435 0.22497456 0.011803148 -0.23695143 -0.15555197 -0.22337991 0.50362855 0.08962615 0.012624076 -0.06737895 -0.15448421 -0.20381668 -0.12340706 -0.35027942 -0.2812604 0.22369598 -0.15484488 0.28366476 0.42601457
6239.T20B12.2.2 0.37868106 -0.24778043 -0.16028176 0.16735806 -0.18165492 -0.1755723 -0.13857996 -0.17843257 -0.114784285 0.44827843 0.051519297 -0.33010164 0.050161574 -0.2159232 0.11048951 0.3101355 -0.111460485 0.22004697 -0.05095404 0.66822004 -0.2332461 0.06299613 -0.037309423 -0.21570992 0.20227194 0.3978093 -0.10986019 -0.14959972 0.2542742 -0.05204162 0.39958236 0.31416374
6239.ZK154.3 0.14376916 -0.25955823 -0.2145777 0.22016001 -0.15746231 -0.091451794 -0.061620012 0.008847256 -0.33019048 0.47003737 0.28823245 0.036348574 0.20198168 -0.20433243 -0.05747406 0.24531624 -0.1588501 0.27744043 0.2589102 0.1680367 0.17225444 -0.20967013 -0.15367182 -0.3964149 -0.26719457 0.25884917 -0.48329058 -0.15196395 -0.24625227 -0.46455857 -0.16678442 -0.08665958
6239.F15A2.6a -0.10357661 -0.051352505 -0.15620236 0.31134024 -0.08935283 0.027204474 -0.17547974 0.16951726 -0.9960022 0.2958958 0.19079179 -0.017823488 0.3032838 -0.2850238 -0.0324928 0.20116273 -0.15257515 -0.1287078 0.008696796 -0.014127991 0.064378485 0.10120463 -0.020866236 -0.34311482 0.102048084 0.39854178 -0.37364832 0.010656918 -0.06410517 0.06927207 0.034005456 0.064908005
6239.VC5.4.1 0.21222472 -0.10354194 -0.17210385 0.19869757 -0.12271227 -0.056713127 0.094763435 -0.39118427 -0.2610058 0.13856882 0.03488265 -0.3739425 0.15170525 -0.578728 0.1586824 0.29510465 -0.032495275 0.00050976407 0.14840446 0.5103434 -0.44098917 0.08285763 0.23700897 -0.15115437 0.30374187 0.24950469 -0.08826228 -0.09780778 -0.04287541 -0.27265114 0.39407867 0.29408878
6239.F11A10.3a 0.29628447 -0.15160419 -0.20893852 0.18567054 0.047795553 -0.16468926 -0.0030758798 -0.3099392 -0.3217535 0.44202366 -0.11923082 -0.21134214 0.060969092 -0.27194062 0.23862725 0.24030179 -0.22221553 0.04285138 0.040315554 0.43410072 -0.43333247 0.09321582 -0.10724109 -0.08483942 0.02803234 0.34997216 -0.19595015 0.06726432 -0.05543254 0.0047985893 0.5253686 0.478622
6239.Y43F4B.6 0.361554 0.038234062 -0.13195056 0.11595761 0.15163775 -0.20839292 -0.10759673 -0.408792 -0.53834796 0.05619923 0.33428374 -0.37860474 0.3393943 -0.12625653 0.052363895 0.22773907 -0.16952129 -0.03963276 -0.057336673 0.4208355 0.09923364 -0.28432405 0.23464428 -0.5290117 -0.15887922 0.036035042 -0.1514582 0.23967214 -0.30413768 -0.11119751 -0.010954486 0.5826663
6239.C37H5.8 0.35424867 -0.29449466 0.1481608 0.52758586 0.3102754 0.07556815 -0.011905467 -0.20415148 -0.11544996 0.30338156 0.17256029 0.21300778 0.06703667 -0.24086887 -0.051159505 0.07403218 -0.12523712 0.2986597 -0.4969843 0.44784886 0.07316389 0.05141365 -0.15006015 -0.134282 -0.20342565 -0.13307394 -0.41942802 -0.37431273 -0.24756509 -0.15793508 0.2118587 -0.034597356
6239.C26E6.9c 0.02123381 0.029564047 0.05809318 0.0457151 -0.10938208 -0.21655872 0.07802202 -0.5245082 -0.41137564 0.09734501 0.20302019 -0.37535483 0.024428729 -0.33999783 0.36840975 0.24368541 -0.10050236 -0.12127737 -0.068486765 0.575373 -0.34342328 0.023344625 0.1548948 -0.3018106 -0.1561434 0.16393243 -0.19845147 -0.12674913 0.040372573 -0.30416536 0.35340565 0.3212708
6239.C44B11.3 0.052427497 -0.12204204 -0.34409595 0.0809103 -0.04038687 -0.027663391 -0.08173527 -0.008394223 -0.5157742 0.29180476 0.2605108 -0.15962473 0.20521297 -0.34109926 -0.1510236 0.31767246 -0.25401434 0.44306815 -0.068372026 0.112406716 0.25824752 -0.055409595 -0.29657635 -0.52624667 -0.18116978 0.1962694 -0.37847996 -0.022605812 -0.1163482 -0.1958406 -0.25446677 -0.2332792
6239.C36E8.5.1 0.39417008 0.04202051 -0.06251801 0.21807924 -0.011780792 -0.14358105 -0.069190614 -0.38554513 -0.37645748 0.28948525 0.110428706 -0.17654353 0.27486774 -0.30461043 0.09194519 0.021499695 -0.14686039 0.14904186 0.007527457 0.3107841 0.20768854 -0.16712582 0.15352301 -0.67743576 -0.40871328 -0.012708374 -0.13527143 -0.07962885 -0.18652676 -0.18322028 0.17110202 0.23134206
6239.Y102A5C.18 -0.022202384 0.032303356 -0.03799609 0.23217611 -0.14656025 -0.29085574 0.020215249 -0.4142789 -0.39915854 0.17442107 -0.21929626 -0.34902558 0.05910895 -0.5137441 0.10627876 0.15513974 -0.18206805 -0.09917675 0.007575928 0.60098 -0.26609707 -0.19053712 0.18109612 -0.37008575 0.20032477 -0.09395101 -0.025262684 -0.026560353 0.082465604 -0.202963 0.22247478 0.41364184
6239.T20G5.1 0.23418058 -0.21493602 -0.2566668 0.47279665 0.3452634 0.26883176 -0.3294716 -0.07785263 -0.525829 0.052671917 0.11687315 0.1287485 0.013219778 -0.16601531 -0.21350297 0.01842726 0.048953142 -0.020800516 -0.33691335 0.4137986 0.23988144 0.22300287 -0.04252034 -0.15448748 -0.24391986 -0.065698095 -0.08630052 0.05431277 -0.08712615 -0.697914 0.028322019 0.27869952
6239.F25H5.4a.1 0.26849243 0.10051626 0.27834094 0.43692976 0.16042775 -0.4106206 -0.13794374 -0.29987183 -0.057116337 0.3551577 0.0019861273 -0.19610928 0.12367178 -0.28029665 -0.15534763 0.0020766612 -0.08831225 0.04614803 -0.5265115 0.25421053 0.16360892 0.21976602 -0.3162874 -0.17120777 -0.08287771 -0.19204637 -0.5028419 -0.14958562 0.10368338 -0.327565 0.26033187 -0.03250562
6239.Y37D8A.9b 0.19481902 -0.057420198 -0.031220477 0.12852837 0.014594737 -0.17133977 -0.31180292 -0.7290847 -0.18286017 0.33075708 -0.0354348 -0.4749262 0.09514282 -0.5686513 0.14346604 0.18017972 -0.17206587 0.06181631 0.08883216 0.5597285 -0.25375056 -0.14655554 0.02881708 -0.32161275 0.2172721 0.21755876 -0.028090933 0.010264365 -0.037745774 -0.16066784 0.30501375 0.46075818
6239.Y39A1A.5 0.17363277 -0.15901504 -0.307204 0.33447632 -0.058747217 0.16429868 -0.080598935 0.026078193 -0.43385628 0.15819108 0.39662895 -0.0034722337 0.31368917 -0.23726536 -0.05225124 0.25777417 -0.091971986 -0.08588207 -0.16264074 0.3395213 0.1712839 0.34590375 0.11663498 -0.14957623 -0.29431027 0.042554997 -0.067054175 -0.2680785 -0.24235253 -0.38571987 0.2693374 0.25664794
6239.B0336.6.1 0.41619655 -0.008487431 -0.41570726 0.4168823 -0.09877158 -0.19833376 -0.3355165 -0.29474223 -0.5136488 0.23150095 -0.04689267 -0.14829895 -0.17824464 -0.14532548 -0.1997711 0.25376642 -0.09213789 -0.2264189 -0.02909702 0.52619416 -0.030845257 -0.032864545 0.12859073 0.032426268 0.3347715 0.14311443 -0.036385123 0.26793548 -0.47841433 -0.24672551 0.08511359 0.43056485
6239.K04D7.1.3 0.12638356 0.25024992 0.15522261 0.31350067 -0.037936293 -0.3363032 -0.121986814 -0.091599084 -0.22829786 0.06332348 0.15662347 -0.029928198 0.24177155 -0.39604965 -0.5141746 0.06755277 -0.0997541 0.4278044 -0.33173785 0.29784447 0.25479135 0.29309615 -0.1638383 -0.2523438 -0.018753543 -0.0152663505 -0.5210355 -0.11512409 0.094528444 -0.31811717 0.22970064 -0.0019079265
6239.F58E6.10b 0.24708353 -0.7851344 0.02895084 0.16254093 -0.11265247 -0.23001847 0.03745685 0.019001639 -0.4752505 0.37706727 0.11088809 -0.10566871 0.32861185 -0.4029635 0.039191525 0.047673784 0.02113428 -0.012379989 0.4830028 0.18475144 -0.32135972 0.019337421 -0.019363968 -0.24749827 0.22585343 0.20930426 -0.3762757 -0.011650088 -0.07872521 0.046645377 -0.21360454 0.07438056
6239.C05D2.1a -0.18900785 -0.3030361 -0.18461713 0.28511629 -0.32236287 -0.322098 0.11596793 0.36492786 -0.2618074 0.23551174 -0.018000938 -0.032897573 0.0040246346 -0.20542322 -0.09767871 0.40465897 -0.13742405 0.10442289 0.20711671 0.4528447 0.1190062 0.27266473 -0.08678214 -0.14207801 -0.08003823 -0.23115584 -0.2684852 0.07223475 0.14630646 -0.47032338 0.022838555 0.45021358
6239.Y39G10AR.14.1 0.47988993 0.11139285 -0.020850262 0.2543119 0.16584349 -0.22720172 0.007186304 -0.5627979 -0.35277244 0.23375614 0.2006725 -0.4178294 0.17213893 -0.20282346 0.17172693 0.16695246 -0.29465288 -0.13029736 0.047583062 0.45189187 -0.052330222 -0.14430578 0.035559002 -0.46081537 0.09725677 -0.11804268 -0.083088644 -0.05433216 -0.07084232 -0.12856244 0.28141013 0.38038674
6239.T23G7.1 0.14454067 -0.111444205 -0.12853898 0.09013521 -0.029789547 -0.2255573 -0.054692537 -0.6334965 -0.40292162 0.31352967 -0.09029326 -0.4346507 0.23964481 -0.4741685 0.07603743 0.084558696 -0.11738571 0.0002810142 -0.02297695 0.62077093 -0.22899397 -0.29159665 0.106264964 -0.40644148 0.32784566 -0.12427773 0.026548637 0.11587381 -0.14991951 -0.116166525 0.25578305 0.46726984
6239.Y65B4BR.4a 0.022960585 -0.13433854 -0.28498766 0.38947657 -0.27685934 -0.13553955 0.07287529 0.0124845505 -0.3776361 -0.022992522 0.06730877 0.20996979 0.09658415 -0.36105895 -0.02133645 0.13409668 -0.19143979 0.067253105 -0.29436666 0.5866586 -0.0641704 0.27391705 0.036092035 0.043232046 -0.35452774 -0.18768688 -0.29366827 -0.09033388 0.09407102 -0.118969426 0.3508848 0.44909388
6239.R05D3.7 0.05172957 -0.10377639 0.08228882 0.19335218 0.031851675 0.11614937 -0.1651799 0.052472264 -0.8382558 0.10202371 0.13699912 0.060698245 0.18785462 -0.29830217 -0.17830071 0.085211046 -0.0331446 -0.05781453 -0.0216163 0.38936067 0.21803607 -0.16712767 0.16196688 -0.35876736 -0.43487087 0.035499353 -0.16154274 0.044797506 -0.26584193 -0.40568727 -0.09040623 0.31451324
6239.C05D10.2a -0.13101341 -0.019797923 -0.20050082 0.39083987 0.07921185 -0.1727676 -0.22858536 0.38563585 -0.45684746 0.3465608 0.39396954 -0.08841907 0.17053899 -0.22872739 0.061912835 0.16604054 -0.22722325 0.14557377 -0.055209406 0.31145474 0.22608677 0.25261143 0.21659638 -0.2900019 0.15304716 -0.0044628964 -0.37733302 -0.15655348 0.16382746 -0.22879319 0.2230745 0.2037149
6239.C25F6.2a 0.124015614 -0.070135675 0.17497283 0.35924402 -0.07972615 -0.3485545 0.06654637 0.029426599 -0.7475021 -0.13566919 -0.21780777 -0.03555429 -0.04044418 -0.045882843 -0.31959164 -0.0150769735 -0.21669504 -0.031830415 0.07910018 0.2304598 0.15347363 0.036793847 0.12969026 -0.23838092 -0.058192547 0.22977293 -0.514961 -0.07308101 -0.28386807 -0.41653082 -0.008866139 -0.004951948
6239.K12D12.1 0.26673082 0.2543521 0.30080795 0.28123623 0.1657694 0.010043349 0.116286695 -0.6434898 -0.30409524 0.2600032 0.3890947 -0.3092298 0.17671542 -0.23889871 0.07256611 0.20615691 -0.41286284 0.049009435 -0.33274937 0.4224791 -0.10282063 -0.1416512 0.08137769 -0.37350065 -0.19561028 -0.023773875 -0.21840921 -0.15610838 -0.1389426 -0.1284183 0.009612386 0.3895456
6239.C10C5.6c -0.122062355 -0.25303432 -0.01090272 0.25464663 -0.14684498 -0.21479417 -0.11811247 0.17238088 -0.21481426 0.07756192 0.27305403 -0.16032477 -0.016425774 -0.29347 0.23903109 0.30576253 0.028479166 0.094838455 -0.1554233 0.63649935 0.21156237 0.3547185 0.05024929 -0.1960408 -0.10870645 0.012436899 -0.09623508 -0.18074918 -0.109475195 -0.41472158 0.25575584 0.25268263
6239.Y57G11C.13 0.04760239 -0.06174528 -0.19962063 0.53446376 0.00937449 0.20944701 -0.34919524 0.010614345 -0.42886114 0.13063008 0.039484724 0.16241227 0.30216128 -0.12822983 -0.13832085 0.36439356 0.037368454 0.013370865 0.081842415 0.26424292 0.15727234 0.34614766 0.24856912 -0.4215858 -0.041050937 0.048553225 -0.023313513 0.08663157 -0.26846164 -0.4580706 0.0054231333 0.43969724
6239.T05E11.4 0.6635178 0.009147227 -0.1447298 0.20599948 0.12125822 -0.1673243 -0.13741352 -0.14205562 -0.37583125 0.14212842 -0.18914329 -0.5127302 0.30630493 -0.19298725 0.203438 0.45668834 -0.10853378 -0.056669295 -0.25935513 0.606624 -0.39250302 -0.22241105 0.21180473 -0.1294112 0.10221468 0.2078438 -0.2563535 0.15212485 -0.14148113 0.06224575 0.13618687 0.3452595
6239.F35G12.4c 0.37377813 -0.12327789 -0.15260097 0.20622012 -0.16377172 -0.041069455 -0.27467975 -0.511484 -0.1437524 0.13285658 0.17376922 -0.27467066 0.114304446 -0.52360183 0.09920735 0.46890694 -0.13478337 -0.32861805 -0.20730706 0.49671638 -0.25798723 0.019505922 0.13609318 -0.09938623 0.08196992 0.2756967 -0.021135764 -0.0040405067 -0.19374356 0.015623172 0.25855526 0.5497047
6239.F26F12.7 0.07309415 -0.20636109 0.1918243 0.2609868 -0.10454781 -0.23160481 -0.0001433637 -0.63181764 -0.37448263 0.1751837 0.2814285 -0.36555088 0.22402914 -0.34003204 0.27958444 -0.050430696 -0.31399113 -0.10519598 0.009599678 0.58328974 -0.29481527 0.0038767715 0.14429918 -0.22135459 0.12242144 0.103148885 -0.029696977 -0.07373016 0.3339092 -0.37938657 0.28030735 0.1703803
6239.T01B7.7 0.29206574 -0.34855783 0.14220752 -0.0749259 -0.17310081 -0.38641122 -0.019808259 -0.07559402 -0.38159066 0.14388701 -0.16022082 0.13190868 0.07084928 -0.5093829 0.21422668 -0.005350131 0.04848636 0.13994555 0.3276351 0.5085977 0.3339013 0.5261924 -0.09893261 -0.15643245 -0.0044382624 -0.075288475 -0.35273087 0.19073164 -0.15475509 -0.13715494 -0.22903568 -0.21238698
6239.F14F3.1a 0.15071574 -0.784873 0.06830676 0.35725933 -0.17443259 -0.3140733 0.3068291 0.0039865123 -0.35414472 0.36447728 -0.036652137 -0.09709317 0.007829342 -0.1028891 -0.22960559 0.14788905 -0.20724395 -0.07698887 0.48647577 0.2186652 -0.21154538 -0.04743332 0.15132794 -0.32554412 0.12555906 0.10007641 -0.38060594 -0.054382857 0.15795192 -0.16665612 -0.070848994 0.13723505
6239.R06C7.8 0.25461426 0.107595354 -0.039670605 0.06782184 0.044705722 -0.0124925915 -0.08828141 -0.39937815 -0.59073263 0.1112296 0.22693068 -0.320132 0.10075305 -0.39220467 0.2766025 0.2546703 -0.29986575 0.0041252514 -0.15210572 0.57559174 -0.043463692 -0.26918036 0.17920583 -0.4086352 -0.12299619 -0.0805971 -0.09856973 -0.040748402 -0.13593797 0.101397336 -0.055249196 0.668781
6239.C38D4.6a 0.4546295 -0.5967826 -0.22032163 0.2718915 0.015296878 -0.35972884 -0.019335683 -0.30670512 -0.13613084 0.51710856 -0.35186043 -0.2987482 0.018033624 -0.08456143 0.013041863 0.07570866 -0.23923188 -0.010793459 0.12893207 0.3311974 -0.11608655 0.054862738 0.13200147 -0.09682596 0.36944073 0.28790268 -0.37485036 0.063094094 0.21245807 -0.020264808 -0.06449847 0.36133352
6239.K03D3.10 0.090602465 0.11204212 -0.17901461 0.49849632 -0.12628654 -0.109401286 -0.15344796 0.28957435 -0.62329835 -0.004808082 0.102770895 -0.041444 0.06393055 -0.1848104 -0.19979523 0.11567259 -0.03658094 0.15664558 0.21669213 0.1754449 0.07083828 0.12743941 0.27240527 -0.4129089 -0.11369487 -0.08808723 -0.30742636 -0.10226996 -0.22622956 -0.69118714 -0.10464812 0.34955508
6239.Y47G6A.12 0.469163 -0.15988433 -0.11731916 -0.095403165 0.13716082 -0.03710429 -0.16229934 -0.19779724 -0.5682369 0.3116543 0.06753251 -0.28596655 0.28707114 -0.21365777 0.13594401 0.32542756 -0.23691925 -0.014054707 -0.16360834 0.54137343 -0.098183475 -0.4106546 0.18706465 -0.36667445 -0.056612276 0.011648475 -0.0843385 0.1350976 -0.038459025 -0.1313221 0.18999538 0.48874116
6239.T05G11.1a 0.24098592 -0.15826134 -0.42059305 0.123494096 0.10657138 -0.07677784 -0.13126978 -0.39429212 -0.42625687 0.46033004 -0.24725005 -0.39066866 0.21550843 -0.050984796 0.1384058 0.43088758 -0.091390535 -0.0135524 -0.11826806 0.3949439 -0.13776672 0.014604994 0.23245457 -0.40153202 0.3429707 0.30600792 -0.1491038 -0.0026630445 -0.14803626 0.13493706 0.2873174 0.5291787
6239.F58H12.1 -0.078520924 -0.24924675 -0.18535125 0.29805884 -0.04390868 -0.117634095 -0.09312271 0.37419212 -0.6728567 0.15006067 0.10157404 -0.27263546 0.18938443 -0.4344519 0.08605924 0.4342226 -0.2808701 0.0729952 -0.15744686 0.057819292 0.34873575 0.013833805 0.06298169 -0.09944213 0.011280435 -0.07541735 -0.4914516 -0.1841526 0.1307173 -0.04124445 0.16845065 0.011236287
6239.F29G9.4b -0.12573889 -0.2613863 -0.15159562 0.19209431 -0.03443819 -0.1351719 0.23056158 0.003147537 -0.56629217 0.29652634 -0.03761635 -0.26425478 -0.07952338 -0.34558108 -0.03618368 0.20138006 -0.028069688 0.19011733 0.15966073 0.4098106 0.09111444 0.07383444 0.19504908 -0.29237115 0.11629934 0.086474955 -0.5163349 0.054216612 0.3631138 -0.23724382 0.31801468 -0.1700488
6239.T01C8.1b -0.06603241 -0.24899174 0.028911313 0.104221396 -0.07576453 -0.0053844815 -0.2862637 0.3090953 -0.34769177 0.32576972 0.0034233187 0.087271854 0.013504598 -0.44158715 0.20562607 0.4452654 -0.052983593 0.2335976 -0.21909109 0.5000937 0.35171732 0.0037228132 0.19471315 -0.15230006 -0.036896266 -0.021527702 -0.45930678 -0.22495496 0.025609506 -0.082595326 0.21047297 0.28540355
6239.F29C4.1a -0.15563059 -0.351785 -0.11913279 0.3503768 -0.22017914 -0.22192898 0.03430096 0.39721984 -0.2566701 0.21219653 -0.01683987 0.1439395 -0.013365917 -0.27744126 -0.1852623 0.3452489 -0.08164772 0.14662746 0.23346704 0.55029505 0.045077223 0.21149376 0.026064437 -0.08981021 0.08110084 -0.10579879 -0.23459163 0.08954953 0.027464258 -0.42226484 -0.07835144 0.57363266
6239.F59A2.1b.1 0.44018492 -0.19934452 -0.10399875 0.2578301 0.02479361 -0.17247088 -0.11036083 -0.31088936 -0.30208448 -0.0060899216 0.2752051 -0.3332526 0.27890804 -0.20953126 -0.22378594 0.23085167 -0.20135726 0.041584305 -0.27283815 0.49961308 0.080693774 -0.29262218 -0.1347178 -0.46021602 -0.1821942 0.109232366 0.07006341 0.1477569 0.02899747 -0.16835797 0.20311873 0.53364426
6239.C42D8.8a 0.04156374 -0.28327742 0.070888035 0.4048411 -0.08560336 0.14857864 0.12980294 0.31006354 -0.52414334 0.041875195 -0.31319058 -0.1583143 -0.07621796 -0.20798172 -0.08982104 -0.0173479 -0.36587876 -0.09210347 0.00072257913 0.50228304 0.09395916 0.1790256 -0.26618826 -0.19124454 -0.0061785327 -0.064124055 -0.5085691 0.051956274 -0.19717585 -0.32080752 -0.17490745 -0.30491224
6239.C47E12.5a.1 0.51715255 -0.2722632 -0.28203127 0.38153267 -0.234026 -0.14203636 -0.25661868 -0.28996077 -0.17412904 0.0065467036 0.09986994 0.05174508 0.28723875 -0.13223347 0.16747265 0.11960967 -0.11372006 0.13408911 -0.44305572 0.37150973 -0.16799508 0.17207094 -0.10733525 -0.09161547 -0.2694756 0.038170617 -0.3914366 0.07354189 -0.030418457 -0.03592602 0.44011313 0.52656996
6239.F58D5.4a -0.31113344 0.021204283 -0.2883072 0.41739607 -0.119533345 -0.3406177 0.14860536 -0.13492721 -0.32819661 0.004937928 -0.12176312 -0.17684273 0.1411685 -0.15074895 -0.17182323 0.29472503 -0.3849125 0.05636982 -0.04458944 0.28731805 0.31476232 0.11414254 0.31333825 -0.19972883 0.18664466 -0.0077433707 -0.35591158 0.05691904 -0.19561373 -0.32192105 0.25812 0.6160318
6239.F26C11.2 0.12705098 -0.6555728 0.060405765 0.0071861106 -0.106871136 -0.18624762 0.13281184 -0.35014725 -0.35582572 0.33772323 -0.21370634 -0.13251194 0.3855382 -0.42077374 -0.0042767553 0.40641564 -0.26692066 0.1958402 0.5403247 0.056013852 -0.25261077 -0.03489216 0.08118113 -0.10978423 0.01690077 0.058093302 -0.33323455 0.012653933 -0.037510257 -0.29285783 -0.08738641 0.15830043
6239.C41C4.8.2 0.339985 -0.026003797 -0.18856347 0.5442355 0.09458808 -0.1004111 -0.09496686 -0.32479423 -0.30374223 0.22712906 0.4512689 0.0667342 0.15062061 -0.2924784 0.09198496 -0.15528801 -0.51886916 0.06634181 -0.56412566 0.37758356 -0.024321336 0.021137362 -0.20278293 -0.052653667 -0.18269731 -0.30827954 -0.21747924 -0.006501287 0.07757288 -0.17528723 0.21012202 0.2577102
6239.F11A1.3a -0.37918904 -0.32919952 -0.10212589 0.22731264 0.0039603473 -0.4066923 0.028442219 0.313509 -0.511951 0.33803433 -0.043460466 -0.046755638 -0.1074857 -0.4440182 0.26917857 0.34163785 -0.11125067 0.18332653 -0.03648294 0.40182936 0.18049037 0.31402922 -0.4594345 -0.36215934 -0.12989827 0.041872956 -0.1655759 0.002391171 0.24851565 0.053550817 -0.15174562 -0.018360935
6239.C30C11.4.1 0.2804807 -0.11267771 0.059667047 0.5107238 0.26358905 -0.020162513 -0.056583557 -0.104654476 -0.07738537 0.11568231 0.17330228 -0.10718102 0.2505554 -0.22868481 -0.22834875 -0.07384055 -0.26010528 0.30642012 -0.48625118 0.3962978 0.06451392 0.10158125 -0.12812252 -0.32079625 -0.14088964 -0.2425027 -0.565917 -0.33796555 -0.284861 -0.094071984 0.26345888 0.009788942
6239.M7.5 0.29827133 0.06526554 -0.14598183 0.51256794 -0.5013425 0.008620183 -0.11303791 -0.116547786 -0.11644153 0.4438469 0.18065421 -0.1291631 -0.032657735 -0.18039909 0.18797271 0.02511507 -0.2651513 -0.02076915 -0.67633617 0.54069656 -0.0075107543 0.34460726 0.067414045 -0.024327504 -0.26652765 0.052239828 -0.36013746 -0.28397956 0.24530461 -0.049466394 -0.045762528 0.41319886
6239.C38C3.5b.2 0.31197855 0.09002107 -0.2398043 0.46099973 -0.114876665 -0.21453783 -0.31220725 0.02733198 -0.5266992 0.2829691 -0.002686037 -0.11718248 -0.13439158 -0.26339424 -0.12861413 -0.0031507546 -0.25807345 0.11774982 0.028394029 0.011607716 0.16125296 0.33904606 0.07731199 -0.24952097 -0.16627528 -0.209902 -0.23392168 -0.18160492 -0.3477957 -0.5339033 0.17117846 -0.031274997
6239.B0205.7 -0.006227502 0.013078003 -0.039079126 0.12209777 0.07560924 -0.13076378 0.16138135 -0.14049129 -0.4738122 0.3737281 0.26898476 -0.10714111 0.18188374 -0.2142774 -0.17052922 0.08583485 -0.106895186 -0.14266852 -0.15420957 0.39965966 -0.12833354 0.1250462 -0.14614014 -0.20987 0.012099666 0.011226093 -0.32272413 -0.2929983 0.13757215 -0.34640262 0.38521966 0.3860067
6239.Y54E10BL.6 -0.11742526 0.0075847316 -0.14288804 0.5036192 -0.06444858 -0.11272292 -0.07094564 0.3597413 -0.30323842 0.16506192 0.09210902 -0.19343005 0.1865016 -0.3403864 -0.14546096 0.3114982 -0.22483085 0.26078385 -0.08531979 0.35817656 0.16962814 0.15543984 0.23556203 -0.06379151 0.13052195 -0.3752565 -0.53979063 0.18489093 0.035312504 -0.3337039 0.1117516 0.2730596
6239.F38E1.7 0.26017153 -0.44891882 -0.4527205 0.17891988 0.09999608 -0.35885316 -0.032105207 -0.48469967 -0.34485713 0.11780101 -0.34057522 -0.37203678 -0.072925255 0.0005138142 -0.26732138 0.27614048 -0.353074 -0.040715378 0.29700932 0.56997764 -0.019387074 -0.11551382 0.11852216 -0.24033609 0.20399077 0.06395743 -0.19338366 -0.011127886 -0.30632395 0.050300658 -0.0017037684 0.5648088
6239.W10D5.1 -0.2063446 -0.47960895 -0.22546403 0.16060312 -0.037168346 -0.14323497 0.16088358 0.09588451 -0.54044765 0.43326446 0.09098709 -0.12376638 -0.009370372 -0.3176546 0.0669407 0.15592968 -0.21830703 0.16711003 0.28988707 0.26595426 -0.005184395 0.10639916 0.043262374 -0.26165354 0.07648267 0.3669078 -0.3816483 -0.1013622 0.4361083 -0.23397253 0.13256225 0.19663653
6239.W09C5.2 0.35347354 0.11838149 -0.2740195 0.36338252 0.1222269 -0.091229156 -0.18244122 -0.21859977 -0.5180356 0.13108732 0.16028808 -0.37197593 0.13850902 -0.22256953 -0.13344626 0.16455016 -0.1333793 0.04299325 0.07992799 0.3705407 -0.16860028 0.0923879 0.19127272 -0.39091069 0.02879341 0.12777221 -0.04525459 0.07070886 -0.28406703 -0.08000159 0.051983308 0.5598482
6239.R10E11.1b -0.11574528 -0.2985871 0.124578804 0.24473035 -0.0024536694 -0.21676373 0.14535213 -0.14259213 -0.4183761 0.29856473 0.080166854 -0.1613247 -0.13828598 -0.39226583 0.2640211 0.10624975 0.05077176 0.049540658 -0.048908573 0.7687378 -0.3201336 0.04689685 0.12893733 -0.039111458 0.15417059 0.1402036 -0.33596024 -0.24066213 0.48787484 -0.15071073 0.13470615 0.32185924
6239.Y92H12A.1 -0.19002491 0.12591498 -0.11380481 0.5842037 -0.20520495 -0.2571637 -0.07993128 0.062002134 -0.618817 0.06046038 -0.062414348 -0.047003422 -0.08381068 -0.16189848 -0.2733821 0.023980543 -0.24438632 0.11663426 -0.061913166 0.3690046 0.052192662 0.12592883 0.0628212 0.03241842 0.027810981 0.052156255 -0.41883323 0.08219308 0.0053448156 -0.503136 -0.03806277 0.50702506
6239.F35G12.8 0.33540836 0.0864567 0.21794513 0.081754215 0.0396292 -0.26412985 0.11666676 -0.4794716 -0.42667538 0.25329235 0.3087074 -0.28717682 0.104898386 -0.48685157 0.39748353 0.17895693 -0.38902277 -0.13164003 -0.08672409 0.50047016 -0.13556209 -0.20585112 0.16111913 -0.30488342 -0.27116197 -0.033123784 0.07415826 0.004117945 -0.22555213 -0.14021498 0.14693508 0.37731692
6239.C03D6.5 0.39862117 0.2036794 -0.20856774 0.14885017 0.056749593 -0.10423511 -0.13599356 -0.3699006 -0.324725 0.36851346 -0.08454337 -0.3385789 0.27275792 -0.20424692 0.14132853 0.3406257 -0.3030128 0.05174989 -0.18825619 0.70055115 -0.33328068 -0.039647322 0.21524651 -0.39945123 0.12286786 0.19072281 0.035612296 -0.03904555 -0.10056299 0.024914587 0.2689855 0.3997348
6239.M79.1a -0.083296746 0.18543085 -0.2188103 0.41991776 -0.3131809 -0.19056742 0.059964694 -0.038223974 -0.5040845 0.30342507 0.03242142 0.089705616 -0.093770385 -0.28756222 -0.16434982 0.13729838 -0.19792366 -0.06741704 -0.054182008 0.4512246 0.09348096 0.02408345 0.26829386 -0.03808624 0.10480008 -0.095461234 -0.37812915 -0.09797728 -0.07585447 -0.48574764 -0.060576715 0.2474237
6239.W10C8.2 -0.05240034 -0.6247665 -0.028724683 0.20666939 -0.13036717 -0.425794 0.40055296 -0.28419992 -0.51648736 0.18330821 -0.17727916 -0.16930923 -0.08384618 -0.2746404 -0.059653256 0.13847347 -0.089882374 -0.019387592 0.36203557 0.36070156 0.023926962 0.14615275 0.15658344 0.04272361 0.26116863 -0.0036063753 -0.3689296 -0.22296064 0.18482487 -0.18758085 0.166343 0.4024374
6239.Y41D4B.13a 0.21304706 0.032375816 -0.3692918 0.29647058 -0.12353626 -0.14009659 -0.21273477 -0.3346797 -0.40473098 0.43202394 -0.12293274 -0.2752749 -0.14176275 -0.20911887 -0.31101874 0.22158603 -0.15794355 -0.064845346 -0.06215061 0.5145532 0.13605475 0.12531242 0.18745728 -0.041435968 0.44296303 0.083419524 -0.16043651 0.21016048 -0.3013717 -0.15603118 -0.1079335 0.20246242
6239.ZC247.3 0.17615272 -0.6750415 -0.17339867 0.2592763 -0.16710444 -0.43257454 0.22001784 -0.03211663 -0.62245476 0.49903825 0.010681706 -0.22576955 0.3489463 -0.10962096 0.05426625 0.062073577 -0.23866028 -0.0098705115 0.39319107 0.08645763 -0.17196767 0.09083181 -0.0065689567 -0.2457917 0.30857262 0.050958905 -0.21744631 -0.022078618 0.14450267 -0.115948066 0.019587819 -0.057416353
6239.F45E4.1 0.011387314 0.031064441 -0.1943013 0.4799361 0.24907792 0.08925445 -0.20480867 0.10274067 -0.36289245 -0.07278181 0.3368167 0.26143143 0.5053225 -0.14389512 -0.1492689 0.1645813 0.08352051 0.12813063 -0.15666372 0.20179002 0.13934779 0.43088257 0.05679648 -0.6358576 0.11699488 -0.29276803 -0.16007532 -0.014330467 -0.2770848 -0.62000126 -0.073200285 0.33288944
6239.F13D11.2a -0.20829956 -0.45740274 -0.07244244 0.33463618 -0.17879769 -0.27855533 0.16067739 -0.17513017 -0.6448428 0.4039678 -0.07854847 -0.05269112 0.27175802 -0.02375389 0.13840966 0.066556945 0.26695693 -0.12027631 0.23578067 0.43680167 -0.19420283 0.13728905 -0.17283918 -0.42330235 -0.08253187 0.16741508 -0.34855768 -0.05603282 0.32286817 -0.18292731 0.081206076 0.032045607
6239.C51E3.7a -0.059027754 -0.5899877 -0.026374832 -0.049716223 0.09178031 -0.027387215 -0.35335833 0.24688473 -0.39379862 0.085429296 0.06916015 0.0765364 0.18499795 -0.33423126 -0.103720024 0.66685593 -0.6860799 -0.21218947 -0.1409749 0.15100631 0.0982703 0.07168455 -0.17902946 -0.20145355 0.03563901 0.049298767 -0.28929764 -0.051774357 0.021524418 -0.39232385 -0.26686737 -0.3310104
6239.T19E7.2a 0.15721121 -0.46876404 -0.16655974 0.08142437 0.16522025 -0.48668805 0.06879025 0.021428486 0.03764239 0.38772422 -0.12887391 0.39212364 -0.33699706 -0.74655885 0.18352121 0.063233025 -0.11900604 0.12839149 -0.04332849 0.6771257 -0.041894365 0.08079473 0.14970194 -0.06884436 0.056022704 -0.121440046 -0.47139174 -0.14582238 0.33451653 -0.04660152 -0.039750826 0.08817746
6239.Y54G2A.31 0.27931836 0.18545486 -0.41182408 0.50984323 -0.13219468 0.19007261 0.04227827 -0.2211733 -0.22000793 0.18501434 0.07090216 -0.03242146 0.4416084 -0.3656091 0.24756914 -0.080608435 -0.40928906 -0.01306661 -0.21414794 0.37252414 -0.3143549 0.14389502 0.033506114 -0.056150187 -0.11574675 -0.22096752 -0.5121883 -0.11456342 -0.051184937 -0.2774503 0.25297678 0.40170574
6239.F49E7.1a 0.30016896 -0.16551274 -0.40505788 0.39231282 -0.047396306 0.26565567 -0.11465427 0.030952197 -0.49747276 0.23408094 0.30926615 -0.025562808 0.15786777 -0.12748818 0.05069785 0.039412346 -0.22061689 -0.17614831 -0.052172944 0.4970554 0.26799947 0.31591094 0.07825365 -0.062171534 -0.08962415 0.22340493 -0.010345142 -0.23075968 0.008593086 -0.5331357 0.2256607 0.28579706
6239.C55B7.1 0.5841658 -0.112681545 -0.10378071 0.10481581 0.33347934 -0.45529696 -0.2632879 -0.3434638 -0.15323944 0.12989421 -0.051921 -0.51303965 0.3813525 -0.14647645 -0.22137436 0.27318075 -0.12874256 -0.10600652 -0.2815024 0.41456664 -0.032706626 -0.20906098 0.04546082 -0.45692465 0.09960737 0.06373832 -0.11679441 0.07562926 -0.03255787 -0.24174607 0.3912011 0.43222564
6239.F35H12.4 0.1401301 -0.0859263 -0.08471073 0.1838659 -0.08852737 0.06497703 -0.20461413 0.09435067 -0.30311322 -0.008410212 0.22882451 -0.22519507 0.29736966 -0.16636208 -0.0047891582 0.46734267 -0.11272671 0.11250521 -0.18002827 0.5612474 0.12657139 0.2698061 0.30655253 -0.19059509 -0.12225411 0.07057887 -0.16805895 -0.20870641 0.1643823 -0.54398954 0.16951762 0.19729887
6239.Y51A2D.19d -0.21234977 -0.33487567 0.08215281 0.2728194 -0.18680213 0.023889462 -0.09755301 0.17156067 -0.8815559 0.20331846 -0.04321978 0.080068454 0.14922151 -0.30557033 -0.21799879 0.18340597 -0.3977891 -0.14838864 -0.0039638947 0.13549286 0.06218928 0.29250643 -0.3850104 -0.41232285 0.0026652457 0.5053833 -0.28550023 0.12494314 -0.23067474 0.07416657 -0.2271078 -0.50039303
6239.F57H12.1 0.064592175 -0.08594693 -0.20588592 0.65070283 0.18915634 0.02203149 -0.102336794 0.017321799 -0.50303614 -0.16852649 0.2544657 0.10588793 0.2207758 -0.12808757 -0.2186717 0.09114707 0.048637636 0.23777789 -0.14457129 0.20433721 0.17241718 0.23888214 0.33824506 -0.53661674 0.06992774 -0.21708035 -0.0748244 -0.09195241 -0.17213011 -0.68754894 0.043167986 0.27171093
6239.C14F5.5 0.10127303 -0.15767346 -0.28870028 0.45524433 -0.21638563 -0.2679611 0.08110952 0.028778559 -0.6538504 0.12964757 -0.09417887 -0.18534629 -0.01943489 -0.25469735 -0.22035752 0.23429616 -0.20187317 0.12200006 0.12808225 0.33283237 0.33920535 0.11640421 0.17599027 0.11292879 -0.1388774 -0.23734474 -0.20566168 0.1942109 -0.08819453 -0.44913688 0.041738994 0.13387837
6239.ZK520.4a 0.16076833 -0.12717071 -0.29738608 0.039106894 -0.3686615 -0.08625903 -0.13654685 -0.45520884 -0.47994122 0.17712975 0.005481914 -0.04640442 0.16948189 -0.32623035 0.3241246 -0.048514277 -0.18865296 0.0085320035 -0.26167336 0.40728176 -0.017717827 0.21789293 0.031057041 -0.11400538 -0.1647938 -0.16083059 -0.3779002 0.09988963 0.2594666 -0.11440859 0.29216814 0.66386205
6239.F39B1.1 0.18534414 0.041212015 -0.13489546 0.19268253 -0.27503967 0.10470418 -0.03425594 0.051886767 -0.44167832 0.21926805 0.26203915 -0.3422992 0.16298077 -0.1740161 -0.044336807 0.3955972 0.12646978 0.0722961 -0.16381577 0.5121437 0.16945706 0.3457036 0.3030553 0.0033653062 -0.2749229 0.4055384 -0.14441137 -0.1633802 0.054284833 -0.6140663 0.00949452 0.40314552
6239.F55B12.3a 0.21291435 -0.013117935 -0.14173149 0.3467029 -0.2472925 -0.16812189 -0.06689988 -0.3445571 -0.36093706 0.09917643 0.0002520306 0.092062525 0.17233078 -0.3803767 0.17454408 0.14866678 -0.2636862 -0.079699114 0.096303254 0.48063597 0.018079633 0.1795196 -0.045145933 -0.13351823 -0.053421598 -0.06520273 -0.18483089 0.25712645 0.11397893 0.009622744 0.39474386 0.50578
6239.F31E3.3 0.66287297 0.22451666 -0.09736442 0.30572498 -0.005212985 -0.046274874 -0.025848368 -0.43207523 -0.24115303 0.18008739 -0.058991794 -0.37233117 0.37744218 -0.34427074 -0.015159199 0.38239253 -0.32391083 0.023650173 -0.16983388 0.51064956 -0.37670976 -0.11638267 -0.096115574 -0.25457963 0.12809412 0.035284452 0.018115621 -0.18027523 -0.09070242 -0.1003457 0.11917666 0.31323746
6239.C04F12.3 0.1077545 0.03771083 -0.2804525 0.24045591 -0.12435939 -0.18281709 0.13613302 0.32275754 -0.48019233 0.23220141 0.41574177 -0.0687176 0.21733607 -0.22952507 0.08945536 0.020523567 -0.54228187 -0.020234866 0.13083878 0.3167095 0.10871459 0.3660322 0.1312027 -0.31632847 -0.07478917 0.023120346 -0.3558847 -0.16659181 -0.29706848 -0.18558028 0.36383584 -0.19118656
6239.C52E12.2b 0.033162236 -0.18021771 -0.013577453 0.105380714 -0.2704036 0.14999102 -0.1439263 0.15152927 -0.56439704 0.245715 0.14672677 0.23753265 0.2976897 -0.4699911 -0.0833117 0.31588957 -0.1633262 0.0904411 0.0963732 0.23428747 0.17513835 -0.2443516 0.13368805 -0.2528211 -0.29010287 0.42160398 -0.2571835 0.11308796 -0.3463636 -0.54794955 -0.20541221 0.19519101
6239.F01G4.1 0.05956048 -0.25341034 0.13069198 0.29178855 0.096173584 -0.12205438 0.072555035 -0.39993995 -0.33980957 0.05185114 0.3213048 -0.36999592 0.2378183 -0.3210067 0.24829718 0.12040729 -0.17855744 -0.1988942 0.0157621 0.52812296 -0.09583955 0.034246832 0.16401532 -0.26040375 -0.08786945 0.16932596 -0.15323763 -0.26167864 0.22348766 -0.22333485 0.24633567 0.31104994
6239.F52E1.1 0.3111887 0.012334781 -0.35630932 0.13419792 0.21041597 -0.5188516 -0.29103687 -0.42699265 -0.1317595 0.28645232 -0.34999177 -0.47758526 0.19861965 -0.3712316 0.04070772 0.2545561 -0.06310626 -0.08656028 -0.1697452 0.43696976 -0.001693104 0.08592636 0.13694076 -0.41618648 0.081155576 0.035224788 -0.16376457 0.28559086 -0.06643534 0.117782496 0.29052874 0.5134335
6239.T19C3.8 0.29146463 -0.010944522 -0.13283609 0.13807021 -0.045830645 -0.23601323 -0.3209144 -0.05846289 -0.5059665 0.28704986 -0.07859281 -0.26691145 0.037022103 -0.37657827 0.16394217 0.27222565 -0.10947631 0.18001305 -0.26079306 0.13609536 0.12911594 0.034231473 0.23790772 0.0010441815 0.012601288 -0.26265007 -0.4016799 0.06143133 -0.2180659 -0.21475166 0.3619244 0.55051583
6239.K08H10.7 -0.020210834 -0.2593206 -0.24464902 0.33726728 0.044870008 -0.6696339 -0.21935926 -0.30384716 -0.20516184 0.008407708 -0.112468116 -0.31278056 0.24448828 -0.62451404 0.08600364 0.16497986 0.19811577 0.049993124 -0.20408973 0.5480622 -0.13962463 0.18234256 0.5161313 -0.062116835 -0.37705427 -0.19965324 -0.1643873 0.20163545 -0.09845545 -0.28371862 0.32623646 -0.124226056
6239.C18F3.2c 0.05134517 -0.2085278 -0.06986403 0.19040845 -0.12334796 -0.42596436 -0.117350325 -0.015295736 -0.49398965 0.14578399 -0.0013755404 -0.049097378 -0.099932 -0.35917696 -0.15727414 0.10278496 -0.051210973 -0.64230746 -0.050875198 0.06213657 0.1857606 -0.10749779 0.036182772 -0.005288808 0.13770224 -0.03774199 -0.43217772 -0.08654058 -0.39329457 -0.7689634 0.08563629 0.2792141
6239.C27A2.1 0.5233724 0.17173067 0.020813575 0.12340843 0.08888762 -0.07139472 0.027631147 -0.45312986 -0.4242749 0.16652337 0.23800986 -0.4849208 0.32822543 -0.30496246 0.381479 0.41596717 -0.18124245 -0.19588563 -0.26293346 0.66286457 -0.32293868 -0.26333937 0.13700902 -0.122448094 -0.118124664 0.017339515 -0.18711573 0.11552772 -0.058676932 -0.13248807 0.16725755 0.43018734
6239.C08A9.1 0.34627825 0.023434456 0.16579282 0.32963192 0.2955224 -0.40686873 0.08038243 0.12104561 0.08053258 0.16193753 -0.034943774 0.3671729 -0.18962492 -0.220638 0.065402806 0.5768748 -0.16860932 0.3255313 -0.44232813 0.562401 0.0041527017 0.32295063 0.08586756 -0.3341632 -0.16963807 -0.15766926 -0.46888116 -0.31793422 -0.060955178 0.06533144 -0.015853267 -0.075972095
6239.F23B12.8b 0.16032134 0.044800393 -0.051560678 0.0653967 -0.07884891 -0.14369816 0.07708072 -0.1480194 -0.5262243 0.13176659 0.17734459 -0.31845534 0.20989268 -0.3903415 0.17565854 0.17212193 -0.23042206 -0.022861052 0.16689645 0.4452004 0.21024716 -0.28623047 0.2063816 -0.5021744 -0.24573484 -0.019333506 -0.10413433 -0.04946656 -0.19866635 -0.33271784 -0.11615318 0.39464244
6239.T26A5.7a 0.18356648 -0.0065151537 0.07456437 0.041279156 -0.13139564 -0.04844987 0.07142915 -0.28069538 -0.21835284 0.33992165 0.16915023 -0.5387904 0.23268571 -0.11267123 0.11787529 0.32916892 -0.45647225 -0.34463146 0.11112976 0.44961673 -0.2850214 0.3404564 -0.011708828 -0.6456094 0.17272247 -0.13631271 -0.026319886 -0.32193953 0.05044048 -0.07806507 0.5253854 0.27552083
6239.F53A3.2 0.67166233 0.06483868 -0.117155746 0.28965878 0.07063419 -0.17797907 -0.16540155 -0.37302357 -0.24875323 0.21857859 0.008904888 -0.43169445 0.33145258 -0.1741302 0.12725155 0.42239437 -0.36523816 -0.02273273 -0.25391006 0.5805113 -0.33244938 -0.09804388 0.06792438 -0.07071323 -0.038782213 0.11804384 -0.14710906 0.11471921 -0.0729911 0.10019302 0.09816695 0.43089688
6239.W10G6.2b -0.21168469 -0.07628952 -0.20603396 0.07954153 -0.1312147 -0.19623287 0.04050947 0.4580176 -0.21501964 0.28122988 0.14268278 -0.1036717 -0.08387568 -0.44231823 -0.12799935 0.3357123 -0.04459351 0.37538955 -0.19009608 0.5904465 0.08298278 0.31840086 0.05623532 -0.20049727 -0.17022234 -0.14196435 -0.4167342 -0.24044238 -0.050689083 -0.266025 0.04313054 0.2930066
6239.K07C5.1 0.33165604 0.2041918 -0.17997837 0.39880982 -0.040900495 -0.3177465 -0.45657086 -0.060764875 -0.6510269 0.2243317 0.20065601 0.01416791 -0.23137856 -0.15965086 -0.10596502 -0.081085674 -0.20159195 -0.06240157 0.017342795 0.33420324 -0.009391131 0.25430593 0.047970902 -0.073508054 -0.17563799 -0.04876143 -0.07385644 -0.12539604 -0.10048843 -0.6581785 0.092296556 0.30676097
6239.F42A6.7d.1 0.1599924 -0.001099132 0.19115798 0.425181 0.16559096 -0.27063757 -0.19906335 -0.3363064 -0.15782967 0.28868043 0.11260973 -0.38265842 0.32197982 -0.3882818 -0.1287622 0.101614475 -0.099242754 -0.212188 -0.22366573 0.30288664 -0.02854412 -0.08647551 -0.12604219 -0.2834038 0.024566494 -0.07721849 -0.23743099 -0.23276511 0.054423068 -0.37372237 0.29045507 0.20234177
6239.F40F8.7.2 0.12153249 -0.5167295 -0.37125677 0.0835321 0.15651919 -0.2224495 0.13723753 0.029906986 -0.3748378 0.22373821 0.17893428 -0.02389186 -0.14736882 -0.44045267 0.28665707 0.44103935 0.06912372 0.105800256 -0.14265625 0.07380741 -0.032065142 0.16930275 -0.111856416 -0.4486833 0.10084192 0.0933123 -0.37296242 -0.16317737 0.57367337 -0.15830894 -0.005581703 0.014843803
6239.Y106G6H.2a.2 0.20339271 -0.06040147 0.18607815 0.15379232 -0.007047216 -0.4424995 -0.31405342 -0.3588377 -0.29401714 0.312999 -0.14845918 -0.36921927 0.4284978 -0.13065168 -0.18573004 0.06187498 -0.012570438 -0.053494975 -0.41467962 0.2883223 0.054657087 0.0391008 -0.120658286 -0.27627626 -0.26928377 -0.021153284 -0.43000695 -0.002802761 0.21109965 -0.32859558 0.43295473 0.14990638
6239.M7.1 0.2820691 0.10786857 -0.29394385 0.5303401 -0.064959496 0.012380685 -0.0114524355 -0.0666464 -0.25327617 0.037748482 0.055401646 0.037571035 0.31924567 -0.3918551 0.29884237 -0.065494284 -0.13364743 0.19673145 -0.19519736 0.4882812 -0.37412098 0.33897838 -0.090671346 -0.114387915 -0.13190906 -0.19352254 -0.38239306 -0.066815466 -0.09554181 -0.08849915 0.28006798 0.47066244
6239.C29F9.7 0.30945396 0.017621366 -0.45914575 0.32883543 -0.31069 -0.3529749 0.06895344 0.035021916 -0.47539213 0.38636282 0.106132634 0.0030124192 -0.029539583 -0.28554916 0.023878705 0.17322885 -0.1006416 0.083199315 0.15072516 0.20168412 0.25993958 0.007949137 0.09978657 -0.14281356 -0.27795282 -0.07216361 -0.37511972 -0.23453915 -0.1357515 -0.49243298 0.16561289 -0.0117407255
6239.K08E3.6.1 0.41343576 0.14119723 0.07124344 0.24011725 0.025926448 -0.16478126 0.026121845 -0.31481037 -0.63881826 0.024620194 0.19815975 -0.39863706 0.047191624 -0.2819374 0.010065926 -0.16783133 -0.31173205 -0.026615437 0.1009917 0.4172259 0.049396403 -0.08986795 0.2876332 -0.503408 0.07350273 0.031364776 0.055947706 0.24152058 -0.16676453 -0.30600485 0.0031687294 0.6605356
6239.F09E5.1 0.008582733 0.05855305 -0.2761611 0.25358197 -0.04988051 -0.3144091 -0.12716588 0.07171843 -0.5992705 -0.21450254 -0.053848226 0.04930974 -0.05482318 -0.26892507 -0.24474262 -0.071359985 -0.25306705 0.21642306 0.006138488 0.571287 0.17846513 0.028796356 0.23133446 -0.10572008 -0.039139792 0.0066432394 -0.4787088 0.034548756 -0.20770134 -0.29845044 0.16271546 0.4700684
6239.F53G12.5b 0.26882678 -0.28950313 -0.34804493 0.20714834 -0.10655279 -0.48334327 -0.24366656 -0.54763937 -0.33630478 0.06262491 -0.37220216 -0.1742332 0.24967548 -0.31544542 -0.0988104 0.10571959 -0.14262635 0.14461102 -0.116500616 0.41624272 -0.016283002 -0.07242932 0.13699207 -0.3022837 -0.09324136 0.14967753 -0.2530491 0.4650473 0.104700476 0.16218403 0.3413586 0.5354451
6239.T07F8.3a 0.5774358 -0.101729065 -0.014908828 0.012078175 0.13775325 -0.41935578 -0.3025115 -0.36140075 -0.2928783 0.26675677 -0.26698962 -0.51680833 0.25222152 -0.2609844 0.11256616 0.31339693 -0.26485136 -0.14886019 -0.05814804 0.47570315 -0.087333135 -0.110446036 0.16940321 -0.33630145 0.1526586 0.03306217 -0.12478256 0.33656567 -0.20286602 0.050814167 0.49886546 0.4644818
6239.K10B2.1 -0.06022091 -0.30310094 -0.3927594 0.1735815 -0.37911952 -0.05926755 0.2644337 -0.33659413 -0.53177917 -0.03818711 -0.11003158 0.09423597 0.22952819 -0.4557198 -0.06425002 0.051902447 -0.18977402 0.019299805 -0.08750199 0.4557877 -0.08027148 0.07819571 0.010276657 -0.026188275 -0.12246836 -0.3341612 -0.41499284 0.008825105 0.20993963 -0.13023216 0.3382113 0.45884505
6239.Y59A8B.14a 0.062634245 -0.12564285 -0.23653959 0.070791475 -0.17697689 -0.04240697 -0.010880228 0.02686695 -0.36119497 0.012983591 0.1369793 -0.24298249 0.01995388 -0.3130699 0.14175282 0.44243956 -0.010967727 0.22084479 -0.1573787 0.33241943 0.34457916 0.030961862 0.32408467 -0.24172267 -0.08612917 0.05306931 -0.5758431 -0.046339218 0.044045832 -0.18126813 0.4558585 0.5893041
6239.B0412.2 -0.26077756 -0.551966 0.055497587 -0.01857367 -0.12974808 -0.30557552 -0.022531094 0.3500602 -0.38592425 0.11275991 -0.14997987 0.034125417 0.020053387 -0.34108165 0.0006551936 0.4571064 -0.3526141 0.11981037 0.19122812 0.6362832 0.09598944 0.24660556 -0.34182188 -0.12895146 0.00019075998 -0.27360848 -0.23195182 0.004061594 0.04031176 -0.10970645 -0.31812742 0.23333848
6239.F38A6.3b -0.10666045 -0.3896069 0.03421262 0.30407614 -0.30342212 -0.17071348 0.014996981 -0.018014226 -0.30369702 0.4626005 0.023191184 0.1452778 -0.16057342 -0.24051969 -0.013971323 0.0019018484 -0.2540015 0.39094028 0.014002608 0.76659054 -0.0152356895 0.058297604 -0.06990895 -0.13698928 0.28347027 -0.2876791 -0.4470569 -0.31443506 0.16930434 -0.07036818 0.11710782 0.019305712
6239.F17C8.1 -0.3486749 -0.13999824 -0.08411556 0.3272075 -0.24770412 0.06049752 -0.333524 0.23405838 -0.89417607 0.18573536 0.1670726 -0.06882254 0.207523 -0.23339713 -0.17688163 0.32212204 -0.41682974 0.10807087 -0.009265503 0.08261019 0.07248603 0.302846 -0.13166301 -0.6179132 0.13972035 0.07334756 -0.3088065 0.08540481 0.14972222 0.014168349 -0.18201303 -0.304032
6239.ZC64.3a 0.090640865 -0.46242923 -0.19786416 0.010461805 -0.08529481 -0.435389 0.15659879 -0.038851764 -0.43685463 0.0574545 -0.15521865 -0.20166235 0.05296747 -0.6628001 0.009295856 0.21345688 -0.62481767 0.082227446 -0.12434773 -0.1446047 0.11170946 0.24635111 -0.04264288 -0.13040496 0.36073557 0.35980225 -0.20086546 -0.01804575 0.38855115 -0.17380376 -0.18550605 -0.025367005
6239.C32D5.9 0.33519223 -0.35631245 -0.07055667 0.22401454 -0.44886127 0.2529512 -0.2513649 -0.060969975 0.015242682 0.40077233 0.07379803 -0.0093577765 0.024109272 -0.2964805 0.10522193 0.10811683 -0.1701039 0.25011247 -0.3819287 0.57992256 0.25928777 0.35619554 0.19372693 -0.21763402 -0.17303415 -0.053033635 -0.28373635 -0.16357067 -0.009264982 -0.2133907 0.020247988 0.12923126
6239.T07A9.5b 0.10165821 -0.17457467 -0.27856746 0.030405708 0.15816286 -0.34756464 -0.39645207 -0.5320198 -0.02855229 0.17357196 -0.18987587 -0.28538144 0.2531725 -0.47360396 0.09783453 0.2715407 0.023254728 -0.05157765 0.10992227 0.6048853 -0.29815933 0.3255112 0.24462888 -0.17770267 -0.04911827 0.19506119 -0.24355344 0.3256642 -0.24769267 -0.13995983 0.022414371 0.15888987
6239.T11F8.3.1 0.4107654 -0.3983132 -0.095033556 0.13249661 0.23558035 0.02753717 -0.0828354 -0.088124596 -0.4956097 0.069643036 -0.48188126 -0.34799334 -0.070992775 0.0782117 -0.18927513 0.2297391 -0.22787307 -0.07451233 -0.34296474 0.53162587 0.1462423 -0.04381678 0.0027163676 -0.25349233 0.31288147 0.058710124 -0.05426523 0.38381407 -0.13615203 -0.30494967 0.05005166 0.42797965
6239.F11A10.1a 0.35588485 -0.102884926 -0.05731288 0.1828849 -0.105625436 -0.15285712 -0.05855388 -0.5811275 -0.2592332 0.033029076 0.510769 -0.19964632 0.13766417 -0.23625442 0.12759799 0.305054 -0.23880285 -0.15256867 -0.1549818 0.41566926 -0.08338433 -0.17485033 0.13133311 -0.36133608 -0.021695942 0.17520903 -0.13900995 -0.022844888 -0.07715657 -0.2591355 0.39386383 0.41388285
6239.F15C11.2a 0.28795534 -0.032984003 -0.22964524 0.33173347 -0.15581371 -0.0007154832 0.16917573 -0.22906895 -0.2547804 0.22964409 0.034686953 0.1832153 0.5110933 -0.33013126 0.010131266 -0.2348973 -0.3745263 0.05912143 -0.27068081 0.43378407 -0.027993536 0.3411846 -0.22055383 -0.11534077 -0.093212485 0.076060414 -0.306785 -0.27356583 0.07962353 -0.12228768 0.27655643 0.21562696
