2968 64
6239.T27C10.6 -0.024130344 -0.24009071 -0.0075860885 -0.0111870915 -0.0627714 -0.10087832 0.11742908 -0.21608992 -0.20146605 0.10808383 0.06547194 -0.24373972 -0.16168995 -0.19012545 0.1498294 0.039069936 -0.0028069757 0.009480092 -0.08083314 0.061536774 0.28303134 0.43741995 -0.082318366 -0.28605202 -0.13508926 0.2993795 -0.32095426 0.13065559 0.045759916 0.13881724 0.10990706 0.03480717 0.14812747 -0.044679433 -0.016392369 0.087671705 -0.07418179 -0.19777457 -0.14271125 0.14823191 0.04263516 0.122156 -0.20795201 0.0008857185 0.04284474 -0.0925395 -0.30577496 -0.13859713 -0.0010752374 0.1302509 -0.11437441 -0.09764542 -0.015637461 0.059212483 -0.03376086 -0.10381801 -0.0018510183 -0.30681446 -0.018851098 -0.079089984 -0.093825154 -0.18293026 -0.15159659 -0.123821646
6239.T25C8.2.1 -0.059214022 -0.047706254 -0.0034071638 0.11888686 -0.0038434693 0.036161356 0.10308911 0.1596949 -0.19393183 0.05517334 0.2490627 -0.12908879 -0.10984165 -0.13571079 -0.042659186 0.13040854 -0.0849264 0.09675457 0.15119281 0.2652522 0.28910634 0.20914608 -0.08362122 -0.38864142 -0.14566188 0.19426692 -0.38949677 0.031250816 0.18212442 0.07778027 0.10970345 0.037693128 -0.13046591 0.06278813 0.16954084 -0.013992471 0.03459638 -0.016661268 0.10426209 0.17584558 0.04413507 0.17591467 -0.29610363 -0.15426247 0.22216326 -0.33631283 0.011593699 -0.112683356 -0.02531438 0.11149126 0.05514628 -0.11860223 0.026921779 0.06937371 -0.10186694 -0.18715452 0.14637507 -0.16137148 0.0038816961 0.172839 -0.24951467 0.0433515 0.084621094 -0.014706828
6239.T07A9.6 0.18970044 -0.062247112 0.14701478 0.04237996 0.12656987 -0.20815942 -0.077941455 -0.26748258 -0.17021993 0.01410603 0.18637615 -0.22367282 -0.12246745 -0.22022732 -0.119213045 0.11221855 -0.14113571 0.14690803 0.07291332 0.18249431 0.07213686 0.37689522 -0.013098737 -0.048958756 -0.21401034 0.4164502 -0.22510341 0.13713428 -0.0877324 -0.054801248 -0.2407193 0.15617697 0.07298417 -0.12069804 -0.24681759 0.1895158 0.059319347 -0.03325161 -0.15949264 0.10590601 0.024963988 0.11349125 -0.23698175 0.0282596 0.16666967 0.06599767 -0.17071556 -0.032653354 -0.064535566 -0.15025422 0.0021372451 0.08317708 0.106005415 0.06959978 -0.17413394 -0.0077298856 0.017260775 -0.051778253 -0.108764775 0.19053465 -0.3427449 -0.19165182 0.17095953 -0.047898944
6239.Y55D5A.5a 0.3074554 -0.118893065 0.055730794 -0.023783417 0.105152 -0.29672328 0.0032263063 -0.16607374 -0.12894677 0.15321821 0.2640595 -0.010491499 0.08791848 -0.0789489 -0.12894908 0.20310906 -0.061842907 0.111274615 -0.12744616 0.109359026 0.252933 0.30249143 -0.010546676 -0.27831668 -0.0063208328 0.34209716 -0.50825024 -0.07603734 0.012255817 0.046710256 -0.084510595 0.1438473 0.038841728 -0.013566852 0.09281493 -0.11015425 0.049262945 -0.09960789 0.04954413 -0.026521686 -0.00038194185 0.06390304 -0.3346752 0.11175766 -0.03739343 0.0027682707 -0.07870556 -0.08631927 -0.13671455 0.038920548 0.04881204 0.11681641 0.2788676 0.061974894 -0.003944905 -0.1004282 0.15639226 -0.2024538 0.027136475 0.18971057 -0.15598501 -0.20025107 -0.08881768 -0.096104644
6239.F43C1.2b 0.1206766 -0.1378295 0.02780846 0.06854281 -0.072605 -0.19090384 0.16464454 -0.17910697 -0.25711936 0.009817556 0.15236281 -0.0024630004 -0.0451965 -0.27365893 0.14051008 0.36008474 -0.21782205 0.0987308 0.08053073 0.2064965 0.26229018 0.32842773 0.21107619 -0.30249026 -0.03099091 0.23527846 -0.26798725 0.0932535 0.012825632 -0.18421325 -0.028313939 -0.037140038 0.08833525 -0.08797223 -0.030045846 0.23987584 -0.00907837 0.023484053 0.08946509 0.082304135 0.07761499 0.014094042 -0.22983535 -0.28184274 -0.0022776048 -0.12821215 -0.15568328 -0.18514855 -0.16740757 0.1780196 -0.0982899 -0.17073181 0.22777095 0.058217667 -0.18817388 -0.1786063 -0.15479365 -0.34518644 -0.2060181 0.18693154 -0.14198533 -0.26557174 -0.07330197 0.017014774
6239.T05G5.3.2 0.19491792 -0.060524322 0.08483551 0.0920217 0.19628255 -0.17530017 0.10713886 -0.24078527 -0.2693087 0.20568436 0.114368774 -0.1187445 -0.13235402 -0.20367707 -0.06068553 0.504629 -0.16170979 -0.23742895 -0.04758274 0.29624408 0.043191392 0.358056 0.093423836 -0.23354176 -0.2771685 0.25293303 -0.038667694 0.23804447 -0.019600902 -0.1360952 -0.031055378 -0.0051735695 0.023265736 -0.0030066003 -0.056024294 0.19601603 -0.0055628684 -0.10191133 -0.1387225 0.17706989 -0.0011500093 0.18785024 -0.16883577 0.048248753 0.00022134889 -0.0055842213 -0.116120204 -0.056941777 -0.069911644 0.0006383813 -0.08688383 -0.09854145 0.111762434 0.12806039 0.06959452 0.023573412 -0.17153543 -0.24645002 -0.2791248 -0.15146017 -0.35105377 -0.24029545 0.3385705 0.07838429
6239.F02A9.6 0.35483417 -0.1628946 0.19936748 0.08272944 0.0654752 -0.21129575 0.27002913 -0.022325909 -0.12031807 0.03571625 0.3265624 -0.19644079 0.07781514 -0.3228224 0.04868427 0.1310491 -0.23834473 -0.081148826 0.025416542 0.2274037 -0.007153447 0.2451433 0.05941385 -0.17696923 -0.14084525 0.3437475 -0.20444968 0.1178465 -0.047825664 -0.08052583 -0.19270425 0.07675234 0.053019073 -0.11638757 -0.21591395 0.12893212 0.013456741 -0.17711417 -0.24225399 0.0533408 -0.068093665 0.11597892 -0.14491074 0.10497848 0.114564896 0.054181177 -0.07739173 0.047912955 0.06614863 -0.061217234 -0.19183601 -0.12445759 -0.03022913 0.18453348 0.0044124494 -0.063032635 0.11298785 -0.1552615 -0.12107681 0.3738984 -0.15377693 -0.0058392123 0.16854826 0.07250009
6239.ZK792.6 0.22862664 -0.19923045 -0.03953489 0.06308964 0.11345243 -0.1181829 0.32052112 0.06421531 -0.12586582 -0.045783747 0.18318844 0.0044233287 -0.013693585 -0.114226185 -0.023681149 0.26811075 -0.10697994 0.034165785 0.12529017 0.21164237 0.25673613 0.42175704 0.023463352 -0.2291074 -0.10621945 0.16988625 -0.3188699 0.19714957 -0.053557232 -0.17095554 0.079035744 0.015672533 0.13863108 0.04740282 0.12802441 -0.0057039093 0.008457888 0.103867605 0.024934722 0.119141504 -0.17347473 0.065500535 -0.16501987 -0.13871524 -0.05370677 0.0051862393 -0.1727508 -0.017013706 -0.13580386 0.12734467 0.03574339 -0.06688227 0.100931294 0.14953083 -0.044475533 -0.26999888 -0.06831595 -0.35339084 -0.23570673 0.21079928 -0.31441084 -0.14019336 0.047077835 -0.16145806
6239.C47E8.5.2 -0.08319345 -0.18285365 0.1227459 -0.0468764 0.08731277 -0.10812009 0.05604333 -0.1349008 -0.26694223 0.18123737 -0.034972884 -0.12364561 -0.053107683 -0.3451555 0.08558156 0.05531009 0.18791749 0.054161057 -0.06231496 0.0734761 0.35089427 0.1693073 0.011038981 -0.27710924 -0.16805787 0.22441863 -0.3841124 -0.08692248 0.43132415 -0.15161926 -0.18104969 0.053451 -0.028660826 -0.07568768 -0.017024923 0.067664616 -0.1768498 -0.0873808 -0.10502108 0.09127279 -0.09954116 0.10146607 -0.075617224 0.05182032 0.042422634 0.0666702 -0.23117816 -0.23477393 -0.03796392 0.23690243 -0.09444282 -0.1738161 0.1340065 0.07297008 -0.12486867 -0.23166746 -0.101557955 -0.4287821 -0.13248666 0.107672684 -0.3468158 -0.07548581 -0.1278254 -0.16027038
6239.B0218.3 0.08891544 -0.1457757 0.035162304 0.0038292683 0.024146855 -0.08718707 0.25938144 -0.3265954 -0.23152535 -0.04555445 0.26344246 -0.034036692 -0.117568456 -0.35867748 0.17988572 0.5041506 0.059741806 0.20830704 -0.015928742 0.28496203 0.13616684 0.10136847 0.16457002 -0.39006191 0.055104494 0.16456346 -0.27455398 -0.1672697 0.20008004 -0.0038139052 0.028626582 0.20545563 0.027726136 0.04264481 -0.011469207 0.058599513 -0.053452246 -0.14872594 0.09666346 -0.26366493 0.3144568 0.27253574 -0.163593 -0.3724707 -0.069289155 -0.14295216 -0.16717137 -0.21512955 0.029358754 0.14278364 -0.24163346 -0.07137547 0.32299206 -0.049909607 -0.080566905 -0.13522571 -0.18080997 -0.32670146 -0.054873887 0.16205849 -0.28281018 -0.18118288 -0.15291002 -0.10073338
6239.B0261.2a 0.11655581 -0.16288112 0.04960743 -0.06424177 0.058678523 -0.13799106 -0.036965895 -0.08307077 -0.089182645 0.0033161805 0.30890608 -0.27433765 0.033862777 -0.08477154 -0.19128247 -0.11727019 0.05056628 0.06364807 -0.11216858 0.25879338 0.2527091 0.3640775 0.1740488 -0.4510312 -0.19791296 0.38966408 -0.13239816 0.27280858 0.19056799 -0.11815396 -0.14982241 0.063134536 -0.116717294 0.18893129 0.106292434 -0.021975461 0.09362674 -0.11246179 -0.10696752 0.15931775 -0.18169083 0.26187715 -0.22922158 -0.02035096 -0.0531502 0.005264743 -0.33421436 -0.19140868 -0.10550923 -0.10409449 -0.06403037 0.051127583 0.22806635 0.12298882 -0.10916895 -0.08343269 -0.13368672 -0.13575527 -0.12117129 -0.053382087 -0.28533703 0.04411578 0.01805932 -0.14175938
6239.R13H8.1h 0.29436868 -0.22485062 -0.059051987 -0.10193995 0.03694391 -0.30701926 0.0038777213 -0.20727248 -0.13066515 0.011128471 0.27231315 0.10186329 0.0075478195 -0.23585418 -0.15262917 0.23718497 0.0078274105 0.07757488 -0.26978892 0.17580676 0.0292165 0.22239777 -0.13019244 -0.28936663 -0.12931722 0.28736725 -0.2477013 -0.17796311 0.07613843 0.1811531 -0.20693478 0.25892568 -0.032528244 -0.052126337 0.13900176 -0.18424161 0.092957236 -0.14852552 0.025083208 -0.0640467 -0.066093184 0.14641695 -0.32620233 -0.021660358 -0.028461443 0.0926935 -0.25168836 -0.27577764 -0.18190445 -0.009303454 -0.18914232 0.09906074 0.3100104 0.21748208 0.06532354 -0.097588465 0.12723911 -0.077914715 0.116056256 0.27673554 -0.15412025 0.07848918 -0.018612735 0.0071975696
6239.C12D8.10b 0.27822554 -0.13273944 0.015321023 -0.092346616 0.1533799 -0.32876977 0.15633336 -0.15319449 -0.16784115 0.083250515 0.19149698 -0.012867998 -0.123602316 -0.043158922 -0.14542484 0.36188462 0.030518692 0.079307646 -0.089770876 0.13481703 0.28489277 0.43911332 0.026695741 -0.27764788 -0.12280233 0.42055506 -0.22194585 -0.110196166 -0.15846585 -0.05546797 0.11064332 0.034769997 -0.067316055 0.06543629 -0.05034137 0.030985994 0.011333413 0.050449498 0.0651962 0.062339038 0.13056469 0.009288795 -0.16407834 -0.0007616079 0.16160287 -0.075614 -0.18051612 -0.2607306 -0.18770957 -0.05601445 0.04259208 0.23568183 -0.016919782 0.112728514 -0.17973512 -0.03998204 0.11666367 -0.092762664 -0.10090656 0.22554938 -0.29850295 -0.17171487 -0.05456505 -0.25651592
6239.Y43C5A.6a -0.04382187 -0.2482051 0.122245766 0.08623387 0.07631475 0.14166258 0.17526971 -0.10118645 -0.2200135 0.13534705 0.0900803 -0.08136361 -0.037513696 -0.09725956 -0.021348497 0.10159997 -0.2142347 -0.07813701 -0.013106509 0.20886616 0.22516197 0.17329039 0.10409766 -0.32029754 -0.16584508 0.2928823 -0.064636745 0.13944836 0.15170988 -0.21489549 -0.23180522 0.13288319 -0.12843865 0.14724311 -0.058547888 0.16185218 -0.15348122 -0.18015069 -0.20553413 0.24161443 0.32462955 0.0038004324 -0.3172104 0.29848027 -0.055996455 -0.031245066 -0.2997952 0.06030529 -0.08771447 0.029613294 -0.0922098 0.06519095 -0.11877715 0.21046352 -0.23426895 0.023422413 0.11368635 -0.18737012 -0.1865439 -0.018386679 -0.5517964 0.08544978 0.13520363 -0.009018506
6239.F11C3.3.1 0.2359665 -0.058455292 0.0725589 0.02119496 0.03532477 0.0187639 0.058721315 0.19873284 -0.30543268 0.13218443 -0.06784797 -0.2816888 -0.12598673 -0.3030378 -0.01418389 0.12362458 -0.106401704 0.034519825 0.043422766 0.26170972 0.12958343 0.05600732 -0.30669674 -0.32203302 0.09563812 0.06512354 -0.4655888 -0.16949938 0.0065512573 0.2719023 0.1619936 0.36431977 0.057076674 -0.04810501 -0.020262284 -0.16486101 0.12557353 0.08886264 -0.2573288 0.024642555 0.028260462 0.269969 -0.2636235 -0.1414629 0.115847856 -0.13690625 -0.012014895 -0.057843514 -0.025957191 -0.023614367 0.017511586 -0.09436871 -0.027033353 0.0112246685 0.114390366 -0.02379574 0.24447483 -0.124754444 -0.044923395 0.24754092 -0.23717465 -0.09619241 0.007773767 -0.07876418
6239.B0334.8 0.2841509 -0.15471698 0.3301758 0.12955062 0.09266136 -0.24199672 -0.20313174 -0.12440111 -0.037594404 0.06959434 0.2209349 -0.12420571 -0.022618951 -0.13035938 -0.07963426 -0.030946355 -0.061016105 0.13309912 -0.034131784 0.049444947 0.08655275 0.3656861 0.03648553 -0.45755476 -0.1831722 0.32557485 -0.2923067 -0.11618157 0.09265319 -0.08906046 -0.28077525 0.08161178 -0.07063419 -0.046924982 0.050349873 -0.12081677 0.031128267 0.019599898 0.16679882 0.057672918 -0.02001685 0.21355729 -0.11958666 -0.17620654 -0.0118685225 0.019221537 -0.5480417 -0.22466496 -0.19696328 -0.14627086 0.056103125 0.13065228 0.26223454 0.099530704 -0.10491977 -0.01713463 -0.11207481 -0.04585928 -0.3008131 0.028991867 -0.28354058 0.02061928 0.0039713737 -0.20435998
6239.C09D1.1b -0.19311318 -0.21461296 0.051846806 0.0063894223 0.14125843 -0.18846957 0.03507928 0.11557273 -0.19570798 0.045481667 0.059423193 -0.100051366 -0.2640724 -0.22355752 0.039399642 0.2128966 -0.08902241 -0.23306572 0.14903964 0.0943661 0.12855959 0.1283065 -0.16870233 -0.5054274 -0.20407191 0.15632772 -0.40111822 0.15421875 -0.008444317 0.07889279 0.21156369 0.13847025 -0.08804139 0.017412137 0.0814681 -0.007263536 0.07441205 0.09781196 -0.087684326 0.05462506 -0.09113941 0.10828541 -0.30770048 -0.100498304 0.2900974 -0.070659116 -0.090884365 -0.0081881145 -0.18294445 -0.024545895 -0.17082779 0.060157385 -0.050841186 0.05293709 0.086829305 -0.021396574 0.07798197 -0.22641706 -0.06766658 0.26994848 -0.30660075 -0.09080745 -0.082116656 -0.17854215
6239.M03D4.1c 0.12897573 -0.106038995 0.30100784 0.28934583 0.09000165 0.14240548 0.08148911 -0.0902868 -0.1747858 0.15138672 0.05353667 -0.3109584 0.0625889 -0.11433304 -0.052948005 0.16912122 -0.29021725 -0.28333867 0.15994143 0.31285468 0.19373596 0.2115917 0.07820496 -0.20133045 -0.428294 0.13311017 -0.05836009 0.26713565 0.0028318397 -0.24668996 0.024149375 0.03502104 0.079672135 -0.024325298 -0.08856518 -0.20056051 -0.18187085 -0.23555711 -0.3152394 -0.0022894791 0.15159167 -0.03804996 -0.47689587 0.06710153 0.09477148 0.09117269 -0.076228656 0.02911196 0.0012105562 -0.20086724 -0.21043527 0.034566976 0.20224087 0.15002622 -0.056288306 0.06062025 -0.08273297 -0.13615069 -0.15885514 -0.124814786 -0.41257575 -0.046692476 0.29327703 -0.16447341
6239.T05C12.6a 0.08564823 -0.07179602 0.15442932 0.01964538 -0.0019891753 -0.08751831 0.018460631 -0.29923695 -0.34484693 0.21075737 0.14342684 -0.2033258 -0.12511954 -0.29128635 0.00522583 0.1905942 -0.3444069 -0.0023955237 -0.11317431 0.37641862 -0.040502485 0.43190938 0.13179219 -0.10633151 -0.42085594 0.30346522 -0.18794996 0.22414714 -0.097219296 0.20375755 -0.106075525 0.12157831 0.0611842 -0.11181589 -0.10460175 0.11532721 -0.052954853 -0.15169491 -0.20659927 -0.06266924 0.06998981 -0.037978236 -0.1752902 0.02335805 0.39738765 0.20110315 0.045595538 0.44234774 -0.059807085 -0.1973261 -0.043164212 -0.15933225 0.091105536 0.13748837 -0.10567253 -0.035125565 0.01687159 -0.025042063 -0.03078578 0.073365 -0.12787408 -0.0043179546 0.15037863 -0.19693898
6239.D2021.1 -0.19998655 -0.31626454 -0.08311594 -0.058721047 0.17526817 -0.2642173 0.13456044 -0.1657304 -0.028596168 0.1298612 0.01361501 -0.19415458 -0.18305522 -0.29152817 -0.025081057 0.14755127 -0.09371503 -0.077245854 -0.120781146 0.34567204 0.28179473 0.21337628 0.019381333 -0.1351343 -0.021989904 0.23368122 -0.2997639 0.107441925 0.13831304 -0.08848455 -0.053384766 -0.0062629185 -0.14657827 -0.17667143 0.0134211695 -0.29379612 -0.0026956727 0.15218268 -0.28826535 0.11661466 -0.025744004 0.08574283 -0.42376345 0.27580225 -0.09421803 0.08289029 -0.30711854 -0.12268098 -0.060447298 0.020327827 0.06315367 0.007815564 -0.016853657 -0.0067009223 -0.24003305 0.047984317 -0.21502665 -0.2867841 0.045957435 0.07826905 -0.35601026 0.12883843 0.17896973 0.0070405854
6239.C14B9.4b 0.19519536 -0.13613436 0.116730586 0.22136188 0.07749296 0.03048681 0.13225071 -0.19671501 -0.17633018 0.25399494 0.0468281 -0.19704182 -0.104367666 -0.23345162 -0.15314016 0.20713232 -0.21361539 -0.08814625 0.22999702 0.30755007 0.120366015 0.3633868 -0.036627367 -0.11358299 -0.2733028 0.23418011 -0.109093495 0.11891192 0.023404606 -0.2565982 -0.08074223 0.016367262 -0.06130128 -0.041621555 -0.059012208 0.17498821 -0.08498911 -0.040881176 -0.39687333 0.06353196 0.13533035 0.23467317 -0.16855624 0.1661464 0.1747371 0.13139978 -0.03961747 0.086591505 -0.057195142 -0.072532795 -0.082062416 -0.05848107 0.14392044 0.00036020044 -0.040995114 0.11977388 -0.04989684 -0.009354416 -0.3423421 -0.06869909 -0.46330625 -0.16754435 0.44672376 -0.19608179
6239.K12F2.1 0.3535901 -0.08326022 0.075409904 -0.06688555 0.085587874 -0.061262984 0.09627337 0.28087702 -0.3812933 0.21620741 0.16129741 -0.064124286 -0.4362171 -0.34966907 0.09721396 0.21477695 -0.09131378 0.005389729 0.01936914 0.17549405 0.07310133 0.25399512 -0.37142318 -0.28445366 0.07058575 0.07071623 -0.37515333 -0.0010899466 -0.18085466 0.1793366 0.17350253 0.21009319 0.040875014 0.017419152 0.12314891 -0.2123172 0.08329087 0.051293932 -0.2733198 -0.08728124 -0.21319708 0.2156155 -0.23979549 0.036792856 0.15616444 -0.24582145 -0.0004905971 -0.14477973 0.11860119 -0.18917374 0.13440603 -0.0062033865 -0.0012103153 0.020268135 0.2730457 0.016476518 0.06140759 -0.033051554 -0.17279445 0.1818807 -0.15120523 -0.11504236 0.0558241 -0.0432395
6239.T12E12.4b.1 -0.27432963 -0.15685971 0.17263258 0.048437893 -0.17791952 -0.12448293 -0.032480072 0.054031875 -0.1056324 -0.099870116 -0.07197429 -0.19158131 -0.20735419 -0.3778909 0.0041766367 0.024608212 -0.17683479 -0.19772027 -0.00915073 0.09986035 0.1559035 0.35527825 0.10676563 -0.34669855 -0.16964413 0.2332803 -0.17739055 0.22746113 -0.002872639 0.008194007 -0.029827993 0.3085554 0.046946913 -0.13453507 -0.032887824 0.10201002 -0.025211139 -0.0456916 -0.3731867 -0.07875209 0.26950252 0.17702322 -0.14944515 0.07887236 0.13970707 0.12862593 -0.32756394 -0.14610487 0.22390606 0.2718082 -0.096319176 0.09526828 -0.037633486 0.084075026 0.019941913 -0.48958752 -0.01484037 0.028686477 -0.23807241 0.25414243 -0.17227712 0.029242368 0.14008577 -0.15102632
6239.R07G3.1 0.1094803 0.017084736 0.08066996 0.08888341 0.1960722 -0.1810645 0.10729407 -0.11968436 -0.21482854 -0.1211847 0.18833335 -0.3159616 -0.08426313 0.01598077 -0.087685786 0.042084202 -0.04058262 -0.05431871 0.19081454 0.31975567 0.39732313 0.44020933 -0.32774693 -0.3126952 -0.11392185 0.29730684 -0.37850264 0.264426 -0.090697914 0.0046360325 0.12599495 0.034305405 0.0885318 -0.030137623 0.023841841 -0.033965465 -0.047268104 0.071637265 0.06733469 -0.07897175 -0.094556086 -0.07998321 -0.17355905 -0.14386635 0.028453182 -0.03840499 0.08275704 -0.24254261 -0.09436408 -0.04078337 -0.007993416 0.043516684 0.06440889 0.14035884 -0.017956425 -0.13040549 -0.20282818 -0.19139928 -0.21737148 0.34267002 -0.3680129 -0.26041296 0.019404715 -0.14160804
6239.T04C12.5.1 -0.08224468 0.108084574 0.12933846 0.27683175 -0.2205509 0.020319477 0.0019779096 -0.0070467633 -0.30271637 0.044730633 0.04707316 -0.42920893 -0.1351959 -0.3179951 -0.0011179703 0.19831215 -0.04211004 0.008392613 0.16300161 0.112013355 0.29348937 0.1843812 -0.03240425 -0.30472302 -0.08798469 0.4631451 -0.38153315 0.10123495 0.28709593 0.04407701 0.018863764 0.07717068 -0.114262305 0.014074626 0.10578759 0.042171385 -0.0122829545 0.0070509627 -0.09649847 0.21260104 0.1282581 0.0029571329 -0.29514816 -0.094767585 0.072163336 -0.11317985 -0.056015953 -0.14945827 0.083636455 0.016491497 -0.0325663 0.024662694 0.12707548 0.3091789 -0.048735797 -0.005873459 0.12259738 -0.24224952 -0.16165446 0.022381114 -0.16604781 0.073330455 0.27383962 -0.2559236
6239.ZK177.6 0.22533739 -0.076477654 -0.05525509 0.34947836 0.17370899 -0.045208514 0.11020099 -0.09235479 -0.24163085 0.16723858 -0.11657945 -0.12049163 -0.11724783 -0.13031696 0.032562766 0.29599127 -0.29575223 0.03628301 -0.15117186 0.27765545 -0.046732496 0.06773953 0.10183548 -0.30356055 -0.3278781 0.35753408 -0.06749801 0.0044700047 0.06252327 -0.171408 0.05151683 -0.019621119 0.026606763 -0.082912534 0.036882646 -0.001383966 -0.08538041 -0.11035996 -0.35833007 0.22614503 0.20243378 0.15334162 -0.4165688 0.21105109 0.06194877 0.17892149 -0.2771837 0.12260587 -0.027555214 -0.031829342 -0.15049036 -0.20331335 0.09332596 0.10714809 0.010244343 0.01750464 0.0039569214 -0.24294771 -0.0581701 -0.014006768 -0.24130926 -0.20276593 0.5275784 -0.11496179
6239.M117.2a.2 0.19077158 -0.1666952 0.05484273 0.14381872 0.14546694 -0.05578623 0.03287646 -0.15654306 -0.23926134 0.047881775 -0.031003596 -0.30879807 0.08932724 -0.21210904 0.05552849 0.26023227 -0.10013883 -0.121691346 0.029459368 0.17378025 0.192231 0.21554282 -0.07591312 -0.4170521 -0.19565956 0.27255386 -0.39103943 0.12697423 0.47809651 -0.04461094 0.08829985 -0.056871463 0.101080716 -0.13240188 0.071657754 0.009297088 -0.0031561528 -0.01574627 0.059575144 0.028892264 0.14082266 0.010879839 0.07289948 -0.1255706 0.14360471 -0.008843572 -0.38597417 -0.183366 -0.14141023 -0.055967547 0.06664194 -0.24515408 0.0899203 0.19465026 0.08979903 -0.050880685 -0.0034447245 -0.12574133 -0.19993368 -0.13882174 -0.31522492 -0.074257106 -0.036873925 -0.16182415
6239.ZK1067.1c 0.19109559 -0.2162158 0.10500229 -0.10573739 0.13141508 -0.23449646 0.15020102 -0.062144574 -0.2412012 0.04773206 -0.038523693 -0.0028409867 -0.022191802 -0.11392436 0.066128775 0.3764019 -0.32906172 0.07298898 -0.05227147 0.21598004 0.22280411 0.26846188 -0.12657486 -0.08057419 0.025483543 0.44530255 -0.21895935 0.121382646 -0.20151387 0.03335461 0.02698999 0.10477844 0.16476555 -0.14918655 -0.11945233 0.11286707 0.14284556 -0.057114907 0.16393845 0.12912802 -0.17288233 0.23033468 -0.13473332 -0.26593867 0.24714015 -0.029979933 -0.06268781 -0.17487803 -0.13718304 0.03351844 0.18481667 0.086789645 -0.088650525 0.020338805 -0.15004821 -0.16170423 0.004514667 -0.19044994 -0.09841435 0.18771219 -0.30347276 -0.07787572 -0.05314987 -0.17219473
6239.H31G24.4.2 0.21113731 -0.15399192 0.090830594 0.19624573 0.04961246 -0.09534611 0.08641406 -0.11198206 -0.1826974 0.13164815 0.14817806 -0.21359454 -0.062457107 -0.22793227 -0.07603131 0.35640848 -0.18168394 -0.04473185 0.022646109 0.3219686 0.08263113 0.21827264 0.19730312 -0.17227763 -0.453592 0.33992934 -0.147994 0.06821432 0.05369404 -0.17620641 -0.016515354 -0.03639699 0.014576194 -0.18328956 -0.046142407 0.2087931 -0.21242295 0.11037974 -0.25322142 0.12904885 0.057930954 0.112059124 -0.30660713 0.04617468 -0.049132578 0.05858031 -0.110699125 -0.03385521 -0.044882637 -0.18099985 -0.15666635 -0.15583804 0.14884764 0.06700424 -0.18462369 0.0642806 -0.055107936 -0.032434843 -0.2321011 -0.0880699 -0.34505337 -0.122874245 0.34508464 -0.021163467
6239.C02C6.1b -0.17406055 -0.15189403 0.120111704 -0.008824695 -0.16337113 0.04511915 0.18914516 -0.013649838 -0.18801597 -0.099762745 0.12289048 -0.22190934 -0.29397678 -0.21130249 -0.05962773 -0.027615998 -0.08792761 -0.2617841 0.053470954 0.023509203 0.22067307 0.4536501 -0.30264413 -0.45561662 0.021914607 0.31103572 -0.25192016 0.23787367 -0.2038933 -0.081358284 -0.028380081 -0.0989151 -0.013698927 -0.041392528 0.13680828 -0.05647723 0.051357843 -0.15377343 -0.19758542 0.18941976 0.24751298 0.16605717 -0.20260327 -0.13040476 0.19063114 0.08087897 -0.21673445 -0.270855 0.12784706 0.31046313 0.10867642 0.12792496 -0.071364276 0.06757478 -0.09832665 -0.2802915 -0.031338498 -0.081510425 -0.19314092 0.14037473 -0.057239734 0.007148892 -0.08618869 -0.29357234
6239.F36A4.7 0.18400334 -0.1167205 -0.0013896707 0.09224274 0.1902392 -0.20807835 0.07451844 -0.11818056 -0.007410151 0.20245773 0.07798608 0.12074619 -0.14548035 -0.20346992 -0.15292881 0.08329579 -0.08311134 0.023137344 -0.07800594 0.20288958 0.037626676 0.28741193 -0.0023249292 -0.22490911 0.01269634 0.14610796 -0.044357702 0.20766357 0.029923672 0.14066301 -0.19469796 0.02389652 -0.00672213 -0.15692267 -0.026453778 0.062178448 -0.019637527 -0.19439463 -0.32530397 0.0615114 0.052850906 0.27018264 -0.21853128 0.46725053 -0.1722407 0.048132643 -0.37584668 -0.22769901 -0.06756334 0.04606971 -0.12926672 -0.20140247 0.14225088 0.053047337 -0.1239181 0.023049254 -0.08237884 -0.40879548 -0.23007995 -0.08204055 -0.34202713 0.18780378 0.20411204 -0.12933694
6239.F28H6.1a 0.1688462 0.0006053897 0.027913624 -0.05132294 0.12888804 -0.45221156 0.13754842 -0.25113553 -0.1634291 0.09695342 0.30916315 -0.0307603 -0.12646267 -0.11178439 0.063767485 0.35441998 0.06305978 0.123558335 -0.110474855 0.15909731 0.29500428 0.41761306 -0.0454755 -0.23259233 -0.12360311 0.43019956 -0.20459974 -0.05920485 -0.10216024 0.067790665 0.10302961 0.062329855 0.0052463003 0.027952626 -0.087924264 -0.04987697 0.04579115 -0.10782669 0.10736907 0.16794504 0.06988553 -0.024776274 -0.17165755 0.01992151 0.07322845 -0.07109908 -0.16055776 -0.34452873 -0.10757305 -0.1283336 0.09447897 0.3515432 0.010219358 0.13434212 -0.07501224 -0.097135976 0.07552707 -0.15685394 -0.047695797 0.32362935 -0.2994559 -0.26381895 -0.00617517 -0.26403895
6239.Y43E12A.1 0.17572258 -0.108280115 0.05627756 0.1865836 -0.0700807 -0.078027986 0.078078285 -0.03566878 -0.126634 0.10734721 0.13388003 -0.30958402 0.008827584 -0.1963129 -0.039070837 0.2899147 -0.23661712 -0.019591995 0.025888013 0.2850636 0.10474336 0.21992616 0.103993945 -0.13223687 -0.43848467 0.4476868 -0.18386649 0.08724987 0.13660766 -0.17455016 -0.057857234 -0.029239539 0.004385279 -0.14919396 -0.15215059 0.20627299 -0.19045335 0.06779632 -0.2722298 0.15261324 0.13289414 0.20452848 -0.12617223 0.08681834 0.15179932 0.08490475 -0.12756467 0.12718086 -0.041246112 -0.1568231 -0.19836433 -0.022351922 0.2465283 0.09012443 -0.20961213 0.0064732535 0.038919106 -0.16643238 -0.24617347 -0.095295325 -0.27425402 -0.09438332 0.28925797 -0.048492167
6239.M142.1c 0.25633225 0.011668521 0.1975816 -0.08239224 0.28350148 -0.019806365 0.09370674 0.01917271 0.013370182 0.4016072 0.32974547 -0.0932332 0.2773872 -0.15986212 0.08511612 0.044280164 -0.14659794 -0.12966187 0.05540193 0.12998135 0.31593764 0.060525313 -0.04670262 -0.3071892 -0.21677294 0.06892658 -0.35277927 0.15499651 -0.34845674 0.08313242 -0.28757563 0.08577763 0.13178648 -0.11740448 0.15748702 -0.13609985 0.05062995 0.030210959 -0.14010367 0.33179775 -0.14448343 0.42852446 -0.30766553 -0.21052293 0.018871712 0.06662267 -0.05259107 -0.059294116 0.016081514 0.16638155 0.06557333 -0.18585816 0.24719045 0.3116878 0.11677074 -0.03489921 0.044054314 0.021869149 0.0018770457 0.37464148 -0.31393638 -0.1127412 0.13662969 0.05143579
6239.B0350.2f.2 -0.08627881 -0.08553266 -0.06998269 0.12155433 0.20127958 -0.12785436 0.12880349 -0.16511454 -0.16383623 0.1639213 -0.08691238 -0.26014587 -0.1957536 -0.37978765 -0.023651037 0.24726284 -0.15960267 -0.13673136 -0.070070766 0.25212526 0.2641926 -0.063882604 -0.21084096 -0.67593116 -0.11146866 0.26281193 -0.2901707 0.16052349 -0.13975638 -0.038932517 0.25489983 0.031008158 -0.010855806 0.18920857 0.1869682 0.031493742 0.09413895 -0.057586286 0.020114914 0.106590755 -0.14777157 0.04175003 -0.3083712 -0.0057135825 0.09667924 -0.18346176 -0.157069 -0.0581358 -0.19668327 -0.10105196 0.032910347 -0.13059887 0.006277654 -0.028983612 0.07642456 -0.1174402 -0.0710143 -0.17701356 0.024530828 0.02249455 -0.19733772 -0.0009757398 -0.044527944 0.12817459
6239.W06B3.2c 0.16078041 -0.22187237 -0.11012687 0.03362669 0.10820864 -0.24946319 0.16020821 -0.07504391 -0.2593546 -0.08584833 0.18271087 -0.08607245 -0.2558601 -0.3069598 0.1644295 0.2591546 -0.2756895 0.16372614 0.103581674 0.055128302 -0.008076994 0.033621386 0.033305764 -0.45448276 -0.11096959 0.11152545 -0.53420514 0.072593085 0.3470171 0.06797627 -0.003221571 0.1056672 0.05137992 0.074432045 -0.08858857 0.02164505 0.12972166 0.07315551 0.04214747 0.05358438 -0.07017801 0.1476494 -0.27441368 -0.44382688 0.1071646 -0.18687984 -0.2819182 -0.17362408 0.006916704 -0.008228454 -0.052105613 -0.024240695 0.1619831 -0.25802046 0.061592728 -0.17149895 -0.0065692053 -0.33886427 -0.19429971 -0.022929717 -0.1417599 -0.30943164 0.06883588 -0.1475585
6239.R11A8.4a 0.024653064 -0.17964125 0.01109431 -0.029343007 -0.08521704 -0.43014288 -0.038892593 0.045668166 -0.23218389 0.07709362 0.18570143 0.22086982 -0.08753635 -0.35269514 -0.054571614 0.04416287 -0.16148955 0.037251208 -0.20547158 0.18919472 0.06522074 0.36963394 0.08221681 -0.22709845 -0.08605541 0.30498666 -0.19079006 -0.007271244 -0.019910198 -0.15373398 -0.2754378 -0.00245861 -0.2152555 -0.005823425 -0.043963797 -0.037576526 -0.019361433 -0.11804963 -0.03015431 -0.128176 0.16053332 0.118762895 -0.21056303 0.048172608 0.10334534 0.05533531 -0.3949398 -0.12242078 0.06240844 -0.034215312 -0.08805837 0.05341773 0.027268674 -0.013904889 -0.058258656 -0.23540218 -0.12444806 -0.4173181 -0.07780351 0.13432969 -0.3937538 -0.054409795 0.21933262 -0.05862689
6239.C54D1.6 0.19248629 0.022213496 0.13674095 -0.23866345 0.092699684 -0.17873798 0.20272249 -0.14284895 -0.19990766 -0.21867658 -0.060323667 0.04787262 -0.04272736 -0.1585615 0.06216864 0.20029883 -0.38237906 0.0062161065 -0.2925877 0.30633086 0.10317521 0.423094 -0.0065185414 -0.3707085 -0.11078862 0.079323925 -0.11540761 0.053946648 0.15622082 -0.11024391 0.028077979 0.18586273 -0.017540425 -0.16162807 0.06326163 -0.15508881 -0.1738546 0.0006695578 -0.12078928 0.10979321 -0.123039715 -0.08258317 -0.21257417 -0.035663627 0.11753674 -0.12229477 0.1871132 0.0117406575 -0.25633794 0.23188189 -0.14583367 -0.029834498 0.030986393 0.08141392 0.26370326 0.054157056 -0.26722592 -0.27219984 -0.17727827 0.26854613 -0.43340343 -0.030038798 -0.2819186 -0.13832386
6239.F29B9.6 0.23730072 -0.33977675 0.041796554 -0.054192793 -0.12234129 -0.34454027 0.14796409 -0.191417 -0.17548363 0.27006313 0.007919452 0.045881867 0.047024626 -0.29624325 -0.03367035 0.1536438 -0.022548845 -0.3611068 0.0063546128 0.08160942 0.109539375 0.047497354 0.23894873 -0.045650985 -0.29878 0.28517038 -0.027145969 0.2079172 0.20439024 -0.06730983 0.046643972 0.14341052 0.01440981 0.035932593 -0.014239435 -0.0358701 -0.21742001 -0.025372466 -0.41192523 0.42441314 0.035831805 0.17888705 -0.35004196 0.14264345 0.1347831 0.05530698 -0.31683993 -0.015546269 0.01619823 0.07924191 -0.0045734043 -0.09315528 0.28350917 0.0742089 -0.050574005 -0.09562948 0.12872009 -0.27200094 -0.07859505 -0.1559225 -0.44647133 -0.17022145 0.110855795 -0.13752659
6239.C09G12.8b 0.11098164 -0.11291014 -0.0036301194 0.085898764 0.13654515 -0.09749692 0.27660245 -0.010478401 -0.18270865 -0.05732523 -0.0021166932 -0.11182573 0.031880967 -0.12137049 -0.18591355 0.029747922 -0.10148493 -0.1260779 0.16014223 0.26988423 0.5338288 0.38650098 -0.30166942 -0.40110484 -0.09393912 0.20325795 -0.36129484 0.22766551 -0.022197168 0.021704637 0.14770044 0.09863212 -0.0708692 0.026934301 0.2189829 -0.1588621 -0.058399245 0.15974231 0.17343935 0.110050574 -0.01917148 -0.06447367 -0.16860358 -0.24251875 0.23496012 1.9144481e-06 0.043656733 -0.069009624 -0.09896082 0.085513666 0.057903774 0.023028763 0.0063214763 0.018402368 -0.0073843636 -0.1871068 -0.29478273 -0.24203846 -0.2061412 0.25340226 -0.36591914 -0.18675599 -0.07511267 -0.435704
6239.ZC168.4.2 0.17001303 -0.041486565 0.029890724 0.33314922 0.013863036 -0.058028188 0.047039486 -0.057775963 -0.18479635 -0.0005512101 0.09469008 -0.28177035 -0.10396533 -0.15463972 -0.19888392 0.5107345 -0.22675546 -0.21989518 -0.030420009 0.3096407 0.06790847 0.24667561 0.18471766 -0.23132387 -0.2987513 0.3725342 -0.070450835 0.106204055 0.10420633 -0.13872872 -0.24389176 -0.09263106 0.044077523 -0.22808611 -0.030477934 0.19948761 -0.11926915 0.071716584 -0.29078895 0.087184414 0.10936502 0.14627632 -0.23122728 0.13678938 0.13971841 0.22505018 -0.040417764 -0.093098044 -0.034905035 -0.011520938 -0.2554449 -0.072580405 0.12588668 0.20644988 -0.053079676 0.005869338 -0.045963485 -0.37452382 -0.1412745 -0.157786 -0.26893884 -0.1662935 0.42183343 -0.05793886
6239.K12H4.8 -0.013706907 -0.050375633 -0.14452721 0.09306716 0.21321699 0.11366629 0.257531 -0.077569515 -0.29634613 0.04243768 0.08118465 -0.15098856 -0.1392432 -0.4344827 0.10151274 0.044108782 -0.14086993 -0.1669401 -0.284256 0.2605294 0.15497926 0.12917346 -0.009188477 -0.26370618 -0.13726874 0.25917837 0.05630994 0.0946161 -0.13087328 0.07175704 -0.2633395 0.07700951 -0.17893022 -0.11193845 -0.18042351 -0.06894059 0.042512443 -0.11827599 -0.11490474 -0.04173794 -0.046420343 0.14060126 -0.1689513 0.17459951 0.05231209 -0.096937165 -0.39763606 -0.060344268 -0.14882821 0.14929964 -0.23912685 -0.11916551 0.12957254 0.07133347 -0.20631298 -0.13761993 0.011848268 -0.2045784 -0.042814653 0.08632804 -0.4632228 0.17647025 0.3219619 -0.08452726
6239.C48B6.6a 0.059051745 -0.21197714 0.25427195 0.0003727087 0.16928795 -0.031813566 -0.05253658 -0.09388318 -0.18931319 0.023379121 0.28723526 -0.15766095 0.071960725 -0.1450317 -0.17094359 -0.06929818 0.18168488 -0.10412767 -0.16238941 0.24303979 0.09985231 0.3853852 0.21192159 -0.47060022 -0.2550369 0.3265401 -0.20642646 0.092262685 0.21188506 -0.092086755 0.04475182 0.024693495 -0.08503897 0.13746582 -0.02464964 0.0041345325 0.18539064 -0.030601215 -0.20010929 0.1370543 -0.18664144 0.424197 0.029891634 -0.011751074 -0.072978504 0.03607193 -0.19832009 -0.14404996 -0.019306853 0.01431979 -0.01777939 -0.09978768 0.24314608 -0.034143634 -0.21388903 -0.25883955 -0.26047274 -0.19378129 -0.381337 -0.07414635 -0.45573586 0.047951754 0.14476179 -0.23567694
6239.ZK909.2c -0.14140555 -0.24397288 -0.13322024 -0.24158917 0.18884711 -0.15018688 0.16976632 0.0031067715 -0.38735837 0.1850664 0.3887109 -0.041446876 -0.2375009 -0.22000454 -0.05639676 0.1464285 -0.3108489 0.04591626 0.19268885 0.043477695 0.105190784 0.29988477 -0.31254724 -0.43557918 -0.069903634 0.12140654 -0.26160485 -0.10145032 0.24302447 0.06192371 0.22795956 -0.14875098 0.095340855 0.10024366 0.024261663 0.05897066 0.16152759 0.1061259 -0.042105287 0.09051012 0.054343905 0.1785642 -0.37671825 -0.14668533 0.28039953 -0.030056886 -0.1428172 -0.28759632 -0.121280015 -0.025206277 -0.20141289 -0.0256635 0.09853755 -0.108114995 0.12895371 -0.12829636 0.17939879 -0.1800545 0.07834644 0.09862514 -0.05339499 -0.03460655 -0.09374337 -0.094325
6239.C32F10.2 -0.008763363 -0.16832384 0.22146705 0.13252376 0.17551026 -0.17919873 0.21963365 -0.031676076 -0.20974343 0.074071206 0.2005807 0.047001924 0.07796222 -0.2152751 -0.02977618 0.28924087 -0.41771612 -0.2746144 -0.111931816 0.1764746 -0.08138388 0.25209928 0.06819792 -0.09702411 -0.07555894 0.39017928 0.035696544 0.08412322 0.0468231 0.026280897 -0.21165834 0.05991466 0.030204045 -0.03706016 -0.16652255 -0.015274864 -0.030749327 -0.020001655 -0.22053878 0.18722819 -0.06931496 0.12184275 -0.36404732 0.030892462 0.12541863 0.14311092 -0.31641924 0.12170631 -0.14328088 0.15206265 -0.0056001013 -0.26207837 0.18227008 0.22980039 0.010549875 -0.046145648 -0.21113504 -0.2923985 0.096839175 0.13704203 -0.32942137 0.06720922 0.38362408 -0.13458079
6239.C02F4.2c 0.009819771 -0.15144132 -0.250948 -0.0738939 0.027151948 -0.11943557 0.021961533 -0.21176241 -0.30486 -0.08624386 0.08370294 -0.06719212 -0.2050748 -0.55018795 -0.13715856 0.167674 -0.3033618 0.044452477 0.16343167 -0.11077119 -0.04649101 0.15340869 -0.17678167 -0.47930732 -0.08161014 0.06652726 -0.45671457 0.119963 0.058268737 0.10996367 0.121728316 -0.13234209 0.10161482 0.148707 0.16423427 0.06715747 0.17979382 -0.15908943 -0.064150065 -0.06020983 0.15593678 0.20301956 -0.23714215 0.11135806 -0.009515455 -0.045828003 -0.15957478 -0.23647113 -0.1560103 -0.001989884 -0.07846615 -0.061383225 0.11879802 0.15534249 0.08847813 -0.06959041 -0.056021366 -0.2816223 0.12510613 0.08032583 -0.20284432 -0.08045262 0.017328182 -0.25269425
6239.B0207.4 -0.18804558 0.092825234 0.0878823 0.13178508 0.052792143 -0.05900018 0.12777707 -0.09220213 -0.268656 0.09461499 0.22337344 -0.15345578 0.047681358 -0.026506266 0.039723072 0.279494 -0.32096204 -0.16622822 0.11392114 0.124124676 0.01205767 0.16178259 -0.009314417 -0.2135406 -0.4089019 0.41369694 -0.12282307 0.14960082 -0.0021992626 -0.21398908 0.13590695 -0.052409247 0.01520864 -0.031018358 0.041717377 0.15954936 -0.03817774 -0.24021344 -0.45402807 0.29580238 0.15828721 0.20201227 -0.24107412 0.15634155 0.06111942 0.08277388 -0.100015596 -0.13861762 0.01696409 0.018300954 -0.03644265 0.0018090804 0.1418761 0.020309191 0.07386749 0.00023537946 -0.046955533 -0.2168051 -0.12398883 0.0042405655 -0.5059489 -0.28093618 0.47065648 0.07593553
6239.T06E6.2a.2 0.18853426 -0.109149575 -0.005045665 0.2054765 0.06784792 -0.058985572 0.14888673 -0.1539552 -0.21083994 0.20429432 0.1539763 -0.19954114 0.0063018687 -0.12763698 -0.039292727 0.41176146 -0.21484089 -0.2509199 0.018109407 0.32656556 -0.0059824223 0.143933 0.1448659 -0.24963051 -0.20839284 0.35442036 0.078425124 0.084480405 0.19932383 -0.21939164 -0.057617217 -0.008924493 0.06244002 -0.23074476 0.09301837 0.048412483 -0.05716891 0.007823899 -0.3706051 0.04991077 0.05463564 0.18721236 -0.33785295 0.038277075 0.115946166 0.11201603 -0.10744475 -0.019130373 -0.0029400587 -0.03524651 -0.12662698 -0.09170641 0.17710018 -0.078710765 0.08536063 -0.0040735686 0.008157019 -0.26209372 -0.13222753 -0.035729434 -0.29729488 -0.2136947 0.45397317 -0.09191441
6239.K05C4.6b 0.07500729 -0.039181154 0.042005353 -0.07362303 0.07241777 -0.18543833 0.14644161 -0.21912062 -0.18498977 -0.10369337 0.008941724 0.0161967 -0.07027786 -0.31726816 0.052881744 0.02299246 -0.21909973 -0.10235678 -0.25689948 0.43187916 0.2303185 0.27986452 0.11188758 -0.10332667 -0.17799 0.27265087 -0.2400051 0.13799722 0.014989319 -0.12876564 -0.2048939 0.038838428 -0.016176254 -0.18107516 -0.0014558667 -0.046676315 -0.11884797 -0.1961073 -0.13995975 0.13812417 -0.11906542 -0.14250152 -0.2922962 0.085769884 0.1688344 0.013688364 0.21569675 -0.18292539 -0.18741061 0.299037 -0.12935616 -0.04506392 0.03641899 0.019425564 -0.08586067 0.043719087 -0.2354653 -0.21595363 -0.11942081 0.25033417 -0.42864594 -0.14427269 -0.041150745 -0.32224655
6239.F18H3.5b 0.086032204 -0.1925873 0.034516085 -0.069826 0.1599278 -0.14567035 0.1376909 -0.20293213 -0.12585767 0.007494703 0.123174965 0.020503892 -0.027211744 -0.36541626 0.045605045 0.39326748 -0.056092024 -0.23660454 -0.22488259 0.20395076 0.017558195 0.2354106 0.05447036 -0.2779123 -0.107753456 0.4092911 -0.10836897 0.03271677 0.14864969 -0.06630101 0.010876931 0.007832993 0.10955025 0.054890845 -0.06852906 0.20724007 0.042320646 0.13387233 -0.19743581 0.014130973 -0.042273905 0.1754983 -0.27706727 -0.06561323 -0.1161843 0.10323883 -0.124639496 -0.09162744 -0.22188756 0.12545483 -0.06221152 0.04379688 0.06314412 0.15263273 -0.012702179 0.029949743 -0.25197712 -0.35925996 -0.1732871 -0.14209147 -0.6049678 -0.18245605 0.35495794 -0.026172621
6239.C07H6.1 0.016192907 -0.03549899 0.16881499 -0.06668316 -0.0376136 -0.34074685 0.13292398 -0.012220304 -0.1650853 0.0044361916 0.18863818 -0.101507366 -0.096052244 -0.41376546 -0.108823806 0.03449847 -0.004322272 -0.1852518 -0.03179939 0.175155 0.34557378 0.22757554 0.034246113 -0.4421778 -0.1719409 0.4246877 -0.12301204 -0.20397122 -0.21717656 -0.0475495 -0.095143415 0.14534159 -0.004708046 -0.05207905 0.014373245 0.13005954 -0.29154032 0.027873108 -0.19056612 0.16766024 0.25043148 0.07223906 0.062103525 0.14982489 0.09118718 -0.059807274 -0.22148788 -0.0050600125 -0.011305146 -0.031655252 -0.03889191 -0.23610233 0.06290392 -0.17343065 -0.0033102375 -0.023941038 -0.105213456 -0.11792355 -0.08010081 -0.1167151 -0.5587951 0.073898874 0.14534171 0.034697782
6239.K01A6.2a -0.06915005 -0.047594078 -0.014579526 -0.02655328 0.04454575 0.020046737 0.2915638 -0.1639627 -0.27842194 -0.052820407 -0.1859434 -0.3422884 -0.13307743 -0.2695235 0.04683106 -0.038352307 -0.25614664 0.07254617 -0.021711037 0.23078239 0.43948504 0.29763964 -0.26873025 -0.2409768 0.0643089 0.3740039 -0.4174749 -0.114803195 -0.08402525 0.024881078 0.09772338 0.12745756 0.19231275 0.0023833164 0.0550054 0.016380781 0.100201055 -0.17714515 -0.13682052 0.16408594 -0.018785257 -0.10712358 -0.30665898 0.1848001 0.045419578 -0.07421814 -0.27243632 -0.1357317 0.028853988 0.021626564 -0.124821894 -0.033763103 0.0650754 -0.08070807 -0.17847279 0.0269137 -0.05619404 -0.1971477 -0.14615515 0.0006800808 -0.09532453 -0.17005017 -0.046498615 -0.4002722
6239.C07H6.5 0.14661138 -0.15950714 -0.024239076 0.15552759 0.25803015 0.38293758 0.28735346 -0.0348258 -0.11425627 0.14169966 -0.06939826 -0.084965274 -0.22693345 -0.23028049 -0.021350615 -0.020746268 -0.10716192 0.005027801 -0.14904901 0.049890578 0.0026844116 0.19367905 0.07973114 -0.2889233 -0.29435235 0.3966137 -0.06590571 0.12619594 0.08658084 -0.13757497 -0.23427492 0.14496113 -0.04454113 -0.15057757 -0.19270433 0.13720115 -0.158849 0.0073014237 -0.33660236 -0.027816659 0.03687618 0.18665643 -0.114440694 0.28698263 -0.067391455 0.011710499 -0.16386943 -0.12832129 -0.21112618 0.02266806 -0.22152859 -0.0801289 0.19804117 0.27403527 -0.13220884 -0.14953713 0.19384229 -0.23404619 -0.45846483 0.2812327 -0.22549295 0.1892075 0.23356621 -0.21210924
6239.F42G8.4.1 0.045977898 -0.28716752 -0.28803644 0.14736101 0.13781635 -0.26661867 0.14242461 -0.12564877 -0.28096026 -0.0781316 0.2179303 -0.17977451 -0.058909424 -0.36982197 0.07543477 0.37471232 -0.17628866 0.0051704487 0.20941354 0.30023095 0.098753326 0.18090774 0.038634293 -0.48426697 -0.0006873042 0.1518218 -0.3950607 0.015362588 0.06936409 -0.10839589 0.00094431115 0.30752975 0.052870724 0.08636486 -0.2257022 0.0913082 0.024500089 -0.017542139 0.06063729 0.1053124 0.20554711 0.13532624 -0.13746585 -0.41113824 -0.055227213 -0.13453807 -0.24306273 -0.13325046 -0.052768126 0.10540809 -0.06275582 -0.041317202 0.23594615 -0.13815677 0.068237916 -0.21820994 -0.2353047 -0.33965835 -0.0025907445 -0.026410088 -0.19540706 -0.42041498 -0.0610346 -0.12877443
6239.F17E5.1a 0.14529034 -0.22214343 0.2910029 -0.1046065 0.08508639 -0.0015977861 0.31655818 -0.021270229 -0.33647114 -0.094743714 -0.0030698462 -0.07255513 0.01593875 -0.016412731 0.03615582 0.0017201789 -0.28704536 -0.22549182 0.045667578 -0.0027102483 0.24974033 0.27123967 -0.365453 -0.3427548 -0.095630325 0.3716723 -0.34606847 0.11379526 -0.07430535 0.1619582 0.17985396 0.08487746 0.27718455 0.07677155 -0.120721325 -0.15220346 0.07921453 0.08482965 0.012295426 -0.008237368 0.043425117 0.046937898 -0.48151943 0.036757987 0.18870717 -0.26495928 -0.10452531 0.01498567 -0.104184784 -0.048288662 0.0013389023 -0.113806136 -0.0040305853 -0.07118341 -0.18764372 0.07954835 0.055550534 -0.30675745 -0.18214156 -0.04014562 -0.16753456 -0.18704613 -0.12128446 0.025119105
6239.C37A2.4a 0.2662128 -0.25658897 0.07967222 -0.021796802 0.062487606 -0.011867446 0.24158576 -0.14255308 -0.111785255 0.016615214 0.06760474 -0.22294234 -0.020480407 -0.19905795 0.07268678 0.33492395 -0.3856313 -0.2000855 -0.0003871151 0.29157048 -0.011006689 0.2593185 0.13192387 -0.17206255 -0.15136626 0.26913393 0.040487204 0.08032423 -0.041846063 -0.19544351 -0.21675378 -0.0046333415 0.011570075 -0.07946036 0.037801147 0.12608208 -0.021950139 0.11850063 -0.29686317 0.18859325 0.013587857 0.17151454 -0.37112892 -0.076846346 -0.02317614 0.1706109 -0.18496339 0.17017335 -0.13517894 -0.10920081 -0.051281262 -0.09808872 0.09335367 0.17120668 0.060917396 0.09139042 0.00835764 -0.10725768 -0.33005476 0.1892708 -0.4444355 -0.08952783 0.36718267 -0.0600232
6239.T06E4.3a 0.10769868 -0.3752354 0.21980026 0.1923302 0.09139619 -0.12832296 -0.033877965 0.019038055 -0.14530368 -0.022037746 0.13829158 -0.19721232 0.30570775 -0.13921796 -0.22311601 -0.09556438 -0.16051432 -0.016428236 -0.077048 0.3014334 0.027542219 0.40186697 0.21358326 -0.52137166 -0.050625447 0.4147695 -0.15464796 0.08937831 0.07059474 -0.10600703 0.012084037 0.058452435 -0.13686123 0.2219941 0.094444916 0.07589753 0.072748676 -0.13834491 -0.24228656 0.21568623 -0.022215053 0.20518827 -0.21110022 0.16220482 -0.04752127 0.22316797 -0.2385265 -0.07731537 -0.11368171 -0.11697869 0.029716589 -0.010664772 0.21697052 -0.0026962215 -0.14690079 0.03427106 0.007814163 -0.24021055 -0.3767174 -0.22466043 -0.3560022 -0.032825295 0.16789705 -0.07442645
6239.K07A9.2 0.12757088 -0.11584227 0.10782449 -0.07915176 -0.08426225 -0.32081798 0.17122327 -0.11676573 -0.3843773 0.065422855 0.11987504 0.09353495 -0.16455317 -0.31881836 -0.046669666 0.2832066 -0.27936336 -0.0982725 0.012743607 0.21752396 0.19451739 0.1374124 -0.42577803 -0.4112255 -0.0386374 0.13017586 -0.21878105 0.044305924 0.009017571 -0.09929098 0.11647232 0.01714049 0.3304775 0.08784544 -0.05542252 0.08476248 0.24582885 0.028797409 0.026622083 0.11296349 -0.12477774 0.14372456 -0.29181564 0.14656897 0.063146554 -0.1286227 -0.09961329 -0.2482577 -0.1138647 -0.03101363 0.11280232 0.18006225 0.037323326 0.16584569 -0.21007071 -0.11157661 0.046871755 -0.1042392 0.17376912 0.1329034 -0.10193995 -0.25563526 0.013631349 -0.14241941
6239.Y51H4A.3 0.11530262 -0.16179448 0.15121731 0.11793831 0.10469078 -0.15318695 0.2631739 -0.15547463 -0.27934554 -0.0724213 0.04784188 0.02977869 -0.042409524 -0.068559065 -0.0031921563 0.048963528 0.036138866 -0.060336553 0.20690045 0.273116 0.5274403 0.3767499 -0.30462298 -0.38789055 -0.103706755 0.42618096 -0.31360945 0.31211478 -0.16833115 0.0029851678 0.21837656 -0.13442406 -0.063158594 -0.00058497256 0.13074306 0.0018751955 0.0050266664 0.18075901 0.093577474 0.047043733 -0.025375396 -0.01572833 -0.15292366 -0.10277527 0.16486917 0.06643333 0.026639296 -0.36522016 -0.044731203 -0.04526566 0.007205001 0.05176545 0.15856047 0.09768343 0.010402033 -0.16386017 -0.1323682 -0.17688397 -0.14042011 0.18006581 -0.41279897 -0.19293833 0.029103609 -0.13424096
6239.ZK524.2d 0.053274874 0.08976886 0.17957608 -0.15888631 0.116361156 0.03128959 0.17291634 0.10560715 -0.2562616 0.08996816 0.23663156 -0.13024993 -0.051916957 -0.15276979 0.10828653 0.030994974 -0.31450224 0.07411126 0.1644128 0.092246875 0.09453339 0.3157028 -0.33372578 -0.6190852 -0.04007461 -0.024006996 -0.49795556 -0.082072206 -0.16807504 0.009775677 -0.014622366 0.028024156 0.28630796 -0.1492812 0.058519762 -0.15191016 0.017037772 0.16149542 -0.39581093 0.24342105 -0.061386734 0.32675794 -0.3470954 0.038877245 0.08103701 -0.060429942 0.20754303 -0.009310827 0.067103416 -0.13362394 0.17115782 -0.098135635 0.17141278 -0.14273483 0.13858455 -0.15028302 0.020483365 -0.00749847 0.13202354 0.27475396 -0.0097706355 -0.12171659 -0.034013446 -0.1777057
6239.F26D10.3.1 -0.18010475 -0.03793724 0.12714039 -0.03360109 0.017520264 0.05337825 -0.04023475 -0.01786356 0.015033447 0.11305047 -0.24515224 0.06783952 -0.0411323 -0.3576603 -0.006112538 0.19553012 0.17253433 0.10522633 -0.16459353 0.242576 0.216359 0.1551483 -0.18792878 -0.35114962 -0.1217002 0.09614214 -0.24101046 0.115316086 0.27609894 -0.06421292 0.01642531 0.16497985 0.097916536 -0.16429478 -0.088636376 0.3140353 -0.09495508 -0.24100327 -0.27741972 0.24406792 0.268793 0.04122839 -0.26001063 0.009356574 0.09986312 -0.12879388 -0.16934861 -0.20961043 0.12921862 0.046144333 -0.05919503 0.039753925 -0.13896197 -0.035185322 -0.36247423 -0.18382387 0.20091118 -0.43224925 -0.17016941 0.09604588 -0.40367046 0.06849227 -0.07808668 -0.16998835
6239.F42G8.3a 0.02132429 -0.08763913 -0.22345181 0.10491599 -0.15229236 -0.32760164 0.1620951 -0.2071801 -0.23856299 -0.14833935 0.28250235 -0.050099745 -0.08087257 -0.3775433 0.21147656 0.4227845 -0.00095890614 0.1963987 0.037433863 0.23707555 0.17622325 0.103843994 0.17204884 -0.32251775 0.11200288 0.25445762 -0.47394454 0.029686445 0.26161787 -0.10653395 -0.06525969 0.12809256 0.19892298 -0.07392878 -0.13726483 0.20770802 -0.09398552 -0.07698068 -0.0126954485 0.005913579 0.01148946 0.1526859 -0.32656482 -0.46458018 -0.06171192 -0.14908646 -0.0699761 -0.13147174 0.008971336 0.11966627 -0.22845507 0.05057532 0.28939083 -0.10717982 -0.23432836 -0.21255752 -0.28155518 -0.23510249 -0.19698055 0.18187489 -0.24149022 -0.2696389 -0.15003324 -0.17372055
6239.R08C7.3.2 -0.059798107 -0.18814069 0.075273536 0.18660228 0.16252752 -0.0976429 -0.06791225 -0.12712125 -0.2626399 0.107615255 0.14917883 0.062578626 -0.021936737 -0.22140127 -0.009132609 0.36278072 -0.2241534 -0.20837182 -0.1495994 0.19758555 -0.006582468 0.37363493 0.02751342 0.018458713 0.0008690374 0.38445756 0.1876696 0.22896656 0.098218136 0.052921943 -0.08438126 -0.10047257 0.02460869 -0.1528839 0.1702457 -0.09436527 -0.14074941 -0.24270153 -0.30969247 0.18736722 -0.10689104 0.103321016 -0.22237685 0.06768432 0.2591919 0.07094982 -0.15867192 0.0020170133 -0.039251134 0.186509 0.22349583 -0.20636323 0.29021686 0.15007485 -0.24566571 0.11056179 0.14490764 -0.44207656 0.03214225 0.032660916 -0.3026091 0.025323804 0.326815 -0.24980755
6239.R07E4.6c 0.057241533 -0.09847544 -0.26335457 -0.036254887 0.053500492 -0.08297861 -0.067585275 -0.0013729128 -0.59156305 0.08086543 0.11166081 -0.18088655 -0.13075283 -0.33920488 0.038932487 0.18145728 -0.0446872 -0.11547905 0.2060971 0.192428 0.16754031 0.2235698 -0.19338731 -0.45293307 -0.009289331 -0.045302287 -0.5763282 0.19500308 -0.052890483 0.17016022 -0.027286254 -0.1317373 0.18814588 -0.09458089 -0.024720054 0.16186102 0.29756752 -0.08553782 -0.15092164 0.04607641 0.04562811 0.14636035 -0.3057556 -0.094121926 -0.04889921 0.018275054 -0.10191479 -0.1928587 -0.17376912 0.101934046 -0.012803914 -0.058138296 0.11195318 -0.22848755 -0.0927668 -0.1520323 0.03960671 -0.40847644 0.10720419 0.0014786889 0.016717255 -0.0059633856 -0.020792855 -0.14558421
6239.F43E2.8.1 -0.20311658 -0.08360867 0.3803432 -0.12121717 0.09056476 0.02482818 -0.11944361 -0.007735888 -0.047629442 0.16565575 0.06890757 0.07881115 -0.014006672 -0.33893755 -0.2540427 0.048525207 0.16702355 0.11610019 -0.10635232 0.20877916 0.36196855 0.22503635 -0.28586352 -0.1906388 -0.2632814 -0.06080883 -0.11991018 0.19925405 0.33277678 -0.053078976 0.005127402 0.3257142 -0.22812521 -0.18621373 -0.08109177 0.22090018 -0.09663641 -0.30424777 -0.29976484 0.047786266 0.25059047 -0.09248964 -0.35616556 -0.042625114 0.048777107 0.15222943 -0.42953402 -0.31313184 -0.15883324 -0.081780985 -0.011731099 -0.09674467 -0.16895872 0.07498584 -0.07292648 -0.24729478 0.12369809 -0.3986215 -0.08805958 0.17753002 -0.30692035 0.03072929 -0.16710903 -0.10270587
6239.M03A1.1b 0.10572402 -0.17135853 -0.07567309 0.14239974 0.2842197 -0.23631883 0.11620243 -0.20081565 -0.022622956 -0.05266773 0.19041172 -0.28262353 0.045316227 -0.1160252 0.06551533 0.014804739 -0.05393309 -0.09984745 0.11383347 0.26659775 0.35731697 0.43533713 0.099629834 -0.12840703 -0.24144134 0.35126066 -0.43090886 -0.0838967 -0.16062647 -0.028675055 0.3240872 0.1181367 0.061588034 -0.21615489 -0.21118197 -0.002677426 0.0035487963 0.10075199 -0.098973535 0.13837416 0.024245994 0.20481932 -0.28730032 -0.036952272 0.24102756 0.17690012 -0.0059052007 -0.16514459 -0.025321914 -0.065721504 0.05402645 0.033367764 -0.058502093 0.025002824 -0.038874976 -0.06868428 -0.024438644 -0.2809293 -0.058180872 0.28624478 -0.17981637 -0.06235086 -0.117670834 -0.18787101
6239.K07C11.2.2 0.03270213 -0.15355535 0.11425185 0.07206497 0.199066 0.22354679 0.16922249 -0.15003714 -0.19050291 0.110278055 0.06330917 -0.2517607 -0.08489532 -0.15811412 -0.15193133 0.22255561 -0.21316639 -0.18059301 0.08497785 0.22096302 0.091036215 0.305224 -0.08559371 -0.08625101 -0.2518444 0.48358384 -0.09973865 0.032169048 -0.03905358 -0.23802465 0.050729226 -0.012890431 -0.07076832 -0.076562986 -0.09265319 0.15663773 -0.12356979 -0.16873641 -0.38296255 0.16265316 0.20074487 0.32407707 -0.15965906 0.12506652 -0.018110238 0.060497817 -0.17109299 0.05983289 -0.17726538 -0.054266833 -0.019115843 0.08778155 0.028742034 0.07171121 0.19373043 -0.007739993 -0.00518771 -0.16356139 -0.16100205 -0.04998229 -0.479798 -0.2758319 0.45906454 -0.06034003
6239.C33B4.3c 0.12259452 -0.2919809 -0.050854277 0.03275176 -0.10588117 0.0039724554 0.05741174 -0.22867931 -0.30090046 0.08822839 -0.069211334 -0.30531433 -0.2934969 -0.27223036 -0.115686044 0.10390631 -0.04898121 0.119352214 -0.09491226 -0.028714191 0.31069228 0.18237999 -0.3958988 -0.38952073 -0.027898295 0.2837535 -0.29898897 0.11722764 0.13236171 0.29880738 0.35196182 -0.1313983 0.15647767 0.08022772 -0.030349864 0.024696667 -0.15878582 -0.16116217 -0.09546852 0.08422636 -0.15098615 0.28385454 -0.16928095 -0.23657687 0.17879108 -0.0042252336 -0.19724275 -0.12439301 -0.15972401 -0.028119981 -0.12788238 -0.074366175 0.05523756 -0.08444628 0.107314385 -0.18750668 -0.04929043 -0.013680993 -0.0627649 -0.07107261 -0.29663432 -0.22572674 -0.14118475 -0.24471642
6239.C44C11.1a 0.27350762 -0.26951995 -0.016350921 0.05046862 -0.053021368 -0.34567827 0.048712675 0.21174453 -0.39625606 -0.11589602 0.24134742 -0.18557633 -0.137806 -0.30532625 -0.122517645 -0.08101399 -0.32603675 0.26304922 0.118760206 -0.034682687 0.35828212 0.23893291 -0.291796 -0.20715171 -0.18057984 0.15350947 -0.28348777 0.33789825 0.2517478 -0.13187249 0.1177401 -0.013075073 0.041629527 -0.069735125 -0.024085004 -0.01870516 -0.010635568 0.3711967 -0.056330096 0.024224542 -0.15136658 -0.023483263 -0.09723413 -0.25624397 -0.11734138 -0.051500566 -0.14511156 -0.17836767 0.016621888 0.025401296 -0.1163493 0.12623942 0.044166632 0.1467377 -0.104038216 -0.102404915 0.10378458 -0.20674193 -0.1493288 0.13828501 -0.4989466 -0.24852489 -0.251908 -0.16764972
6239.F52D10.3a.1 0.3324892 -0.16894664 -0.039294604 0.18526126 0.048296966 -0.07377352 0.050912876 -0.24270216 -0.26641127 0.07912017 -0.06832739 -0.19491771 -0.032358594 -0.16055518 0.07707729 0.28693697 -0.029247822 -0.16463943 0.0359478 0.14108345 0.14874199 0.18331495 -0.10421661 -0.4898677 -0.050164964 0.23106046 -0.30310312 -0.022525446 0.41797295 0.060083102 -0.04237258 0.040830534 0.1103511 0.012425586 0.12837131 0.013191222 0.04738978 0.12024881 0.09755503 0.099953435 0.057374153 0.024612736 -0.09611019 -0.13716482 0.12634166 0.004949506 -0.41554627 -0.30998853 -0.21538536 0.02373267 0.06711728 -0.03344476 0.004209247 0.20992254 0.12229661 0.019784452 0.019068643 -0.18229875 -0.17236716 -0.10822198 -0.34304488 -0.008851859 -0.08084944 -0.21120189
6239.K03E5.3 0.093956344 -0.17448416 0.0022859422 -0.06687531 0.10331843 -0.072760135 0.14790946 -0.14457192 -0.12986395 0.06344227 0.09131199 -0.042751648 -0.053578187 -0.25951096 0.0071918652 0.382356 -0.12170276 -0.29482386 -0.29285887 0.2471189 0.06343509 0.25012264 0.046348214 -0.25670218 -0.07870333 0.349522 -0.10486641 -0.012498049 0.08647514 -0.14636469 0.018708311 0.049375642 0.105855346 -0.001320057 0.014304043 0.11833274 0.008680942 -0.006684072 -0.19714053 0.05388118 0.016523166 0.32523435 -0.29236087 -0.01177973 -0.19714706 -0.015062309 -0.24172053 -0.08783595 -0.2907426 0.10869098 -0.11747893 -0.036675356 0.100028075 0.037406284 0.09769947 0.0860729 -0.1139046 -0.19096608 -0.2295338 -0.114015214 -0.5346759 -0.3261461 0.2684982 0.017449774
6239.Y18D10A.5 0.032001894 -0.09314059 0.09327542 -0.14278638 0.06362313 -0.27778032 0.14537098 -0.4241389 -0.14116417 0.044177223 0.25753176 -0.13378936 -0.0019860526 -0.20403352 0.0052525066 0.35492924 -0.042434018 -0.07296261 -0.04348348 0.2970895 0.12712114 0.48076323 0.031607535 -0.10439258 -0.20457485 0.24065763 -0.34440988 -0.06148636 -0.040678274 -0.07386588 0.13002238 0.035914578 0.0392608 0.01952947 0.04766382 0.09725275 -0.12223076 -0.06625702 0.07291474 0.07049287 -0.023252517 0.17406593 -0.15419795 0.009878319 0.14330025 -0.0634846 0.04620402 -0.28227854 -0.3483709 0.052436586 0.19026001 0.02364954 -0.027877115 -0.0037017597 0.12576991 -0.20505044 -0.0018511314 -0.14760253 -0.17076379 0.120106064 -0.26741242 -0.31384873 0.11446587 -0.26889774
6239.K06A5.7.1 0.2477943 0.0067082183 0.16735898 0.28301996 0.089898236 -0.08521425 0.124959506 -0.00755765 -0.118664846 0.026407015 0.1653883 -0.19847138 -0.087332994 -0.100341275 0.007755255 0.28676206 -0.35820037 -0.00037158123 0.056442767 0.22945361 0.023067305 0.42599097 0.006802669 -0.13196346 -0.52634686 0.49105877 -0.012515955 0.001760927 0.12581836 -0.059307814 -0.15067208 0.2543033 0.020986471 -0.031580284 -0.09361131 0.10023522 -0.16926889 -0.055754192 -0.25874496 -0.0008283461 0.2562739 0.25439078 -0.05718497 0.0867116 -0.0659916 0.33072007 0.061881676 -0.0038136255 -0.32338268 -0.15337187 -0.28378397 -0.08259685 0.24279739 0.060248498 0.034716025 0.03871935 0.015964039 0.031614553 -0.2104544 0.1865862 -0.2756774 -0.12539665 0.5215075 -0.106106356
6239.F25B5.4a.2 0.18062776 -0.03660331 0.20671406 -0.108967125 -0.02283335 -0.21132907 0.1075163 0.0024988863 -0.07473197 0.004135257 -0.1630254 -0.3718337 -0.3320713 -0.19977605 0.031063292 0.1368872 0.20556654 -0.10454484 -0.32602298 0.2465815 0.20038518 0.14512539 -0.11003878 -0.14775321 -0.09361633 0.33613205 -0.16467729 0.045188192 0.037586674 -0.0028427185 0.1239593 -0.082154036 0.12183708 0.005885662 0.005238837 0.24250717 -0.3145551 0.14775196 -0.3188296 0.04535899 0.06193411 0.04092556 -0.2953915 0.22146918 0.13026728 0.0062196106 -0.3055789 -0.21652366 -0.1384023 -0.07069834 0.1820374 -0.266882 0.19063994 0.10964302 -0.31941465 -0.27439758 0.1271475 -0.20391823 -0.043774586 0.1899711 -0.2576767 -0.056651555 0.13225618 -0.018191788
6239.Y73B6A.5a.1 0.023083346 -0.40651 0.06741939 0.11706088 0.17108807 -0.27551028 0.14339384 0.10236793 -0.24255838 -0.17106795 0.21453226 -0.16542915 0.053280685 0.053496797 0.08312872 0.21510263 -0.13401027 0.16384812 0.09430602 0.07968779 0.26845065 0.4591373 0.16930035 -0.042061593 -0.18180266 0.27487376 -0.33123863 -0.034887962 -0.05329909 0.1236005 -0.019702105 0.16773613 0.33277583 -0.049808305 -0.07474636 0.09519329 -0.24104376 0.045697674 -0.1028077 0.055331755 0.02789646 0.036286425 -0.32515585 -0.23018238 0.058047768 0.19398665 -0.28132007 -0.28271934 -0.19596827 -0.14588529 0.0972012 -0.003676288 0.06919455 0.12669723 -0.18810606 -0.09123797 0.020834256 -0.05830571 -0.30504453 0.23824711 -0.19041736 -0.11518948 -0.0056055286 -0.27820408
6239.F42H11.2 -0.07341811 -0.23387007 0.011924666 0.12017715 -0.025679417 -0.15014789 0.00025646918 -0.28937945 -0.47879505 0.18576202 -0.10627053 -0.25649118 -0.2445879 -0.2611132 -0.24227537 0.30692515 -0.08523418 -0.024707044 -0.031323887 0.06579508 0.2744639 0.24599542 0.09814654 -0.4085126 -0.10081804 0.3581225 -0.15828902 -0.010809609 -0.01502214 -0.023812573 0.029446933 -0.014791853 0.069437586 0.019994203 0.017009083 0.13362326 -0.1487091 -0.2856958 -0.11051672 0.23654935 -0.046700355 0.17013593 -0.16180086 -0.0005500869 -0.024571484 0.16417174 -0.32519153 0.0025242078 -0.01705088 -0.17865998 -0.2359754 -0.21901783 0.08866537 0.060430627 0.010529509 -0.060171586 -0.19148454 0.0988003 -0.16513088 -0.019699508 -0.49509135 0.0131811565 0.19985124 -0.02714468
6239.R06A4.7 0.32274696 -0.2248314 0.04040728 0.3935298 0.28447276 -0.08553488 0.1607347 -0.08776341 -0.2361629 -0.021063453 0.17975229 -0.053033914 -0.0732183 -0.30364215 0.111821465 0.37126034 -0.09436709 -0.2237374 -0.08445556 0.1878706 -0.09832877 0.32885784 -0.023715468 0.008064608 -0.21698613 0.37193856 0.049413923 0.09499151 0.05014392 -0.17929423 -0.13798067 -0.066857666 -0.22063316 -0.018394664 -0.03317579 -0.033326592 0.014546421 -0.044583604 -0.35101122 0.2065853 -0.12547971 0.2704408 -0.37542042 0.2366087 0.0063553103 0.09325033 -0.20742238 0.12024359 -0.027302222 -0.0039810403 -0.19313727 -0.17519929 0.08695018 0.047768377 -0.121420175 -0.20579241 -0.22927429 -0.19306844 0.06049626 0.10029509 -0.5010146 0.12466117 0.25802216 0.09323744
6239.T04C12.6.2 -0.1520496 0.031534072 0.15717149 0.17240165 -0.15491955 0.12790556 -0.11587699 -0.010729194 -0.09558915 0.056438502 0.107981384 -0.24644493 -0.09855709 -0.36966553 -0.053240474 0.2718831 0.08618472 0.091289386 0.06931788 0.27680847 0.23279196 0.32796317 -0.2523253 -0.29632872 -0.08373369 0.47784585 -0.5536187 -0.0009621813 0.118673 -0.0004935919 0.07811245 0.06970826 -0.12956041 0.057474464 0.15618472 -0.013714528 0.10891416 -0.060261156 -0.036830142 0.18141647 -0.08909366 0.0022757966 -0.09505488 -0.113894284 -0.03486153 -0.36316407 -0.16549864 -0.23188888 0.22074679 0.02783052 -0.09158772 -0.03653828 0.06870021 0.017833153 -0.19543578 -0.048915792 0.036647186 -0.19661699 -0.27445185 0.10000942 -0.26218593 0.0073294938 0.25545087 -0.18790902
6239.C12C8.1 -0.1446849 -0.0659166 0.17993435 -0.20653045 0.10828628 0.102554366 -0.03550586 -0.093634345 -0.014845715 0.012212378 -0.017465077 0.051632304 -0.08244217 -0.4249039 -0.09606846 0.095630005 0.2490077 0.09047927 -0.067380354 0.24808523 0.3360067 0.19714986 -0.23362163 -0.38640615 -0.18214905 0.018865818 -0.3090304 0.017354252 0.37322745 -0.064368114 -0.10993183 0.22590661 -0.04772294 -0.24190687 0.03599482 0.21844032 -0.15669118 -0.28448024 -0.35634354 0.13761847 0.20782176 -0.08350939 -0.10253432 -0.036602613 -0.056253053 -0.11024154 -0.4771198 -0.13098659 0.09442502 -0.14634572 -0.028845448 -0.0067632315 -0.064782724 0.07719037 -0.1727543 -0.11483846 0.16978225 -0.38736308 -0.1317669 0.18141647 -0.2626519 -0.017108412 -0.06900441 -0.17472218
6239.T21H3.3 -0.02401434 0.2222497 0.3054275 0.12053497 -0.031255353 0.02471933 -0.03425977 -0.28305092 -0.35278472 -0.022836808 0.15680788 -0.13603534 -0.20181635 -0.3484848 0.107545465 0.1561251 -0.057256915 -0.037678532 -0.0019413793 0.43149656 0.01914331 0.14913788 -0.3359077 -0.48276013 -0.08231961 0.4215865 -0.31041497 -0.113854356 0.14150196 0.03073463 0.19098884 -0.18390697 0.01263187 0.034634188 0.12983377 0.110224724 0.22949114 -0.021372361 -0.09274133 -0.113426626 -0.21468237 0.058612507 -0.22766858 0.005729183 -0.07531364 -0.13141331 -0.08790256 -0.42649683 -0.06355202 0.026661867 0.021107038 0.019223765 -0.064605005 -0.018878989 -0.19972505 -0.051871266 -0.09686821 -0.17747596 -0.105418354 0.26087663 -0.11608956 -0.111243635 -0.015759202 -0.13697742
6239.Y2H9A.1 0.1887646 -0.41658053 -0.049539786 0.31679776 0.19226165 -0.025064226 0.11754892 -0.09268427 -0.2166126 0.07554528 0.08850358 -0.23850086 -0.19569887 -0.14912303 0.035765886 0.2900343 -0.12569146 0.07961322 0.06554129 0.31616503 -0.06894568 0.13102432 0.025093531 -0.07409603 -0.20981318 0.3945393 0.13340585 0.1336655 0.08539753 -0.28044516 -0.33808208 0.02711194 -0.107722715 -0.061442845 -0.20729236 -0.1150657 -0.0898189 -0.14040427 -0.26280728 0.06588195 -0.12105949 0.160088 -0.44633636 0.3076258 0.056030005 0.12757364 -0.27237597 0.14692135 -0.045279156 -0.0662636 -0.15778802 -0.40467647 0.093965665 0.23707387 -0.0923668 -0.12562318 -0.09818615 -0.2290585 0.041815154 -0.07757359 -0.61819106 0.18922946 0.2987789 -0.046448223
6239.F38A6.1a 0.22990964 -0.24819311 -0.17489627 -0.09673924 0.030178277 -0.17604621 -0.03618293 0.04128132 -0.15736616 0.058052585 0.23449409 -0.0017615174 0.092900395 -0.25501812 -0.16516104 0.26753393 -0.12569629 -0.025048174 -0.45383492 0.15409282 0.11562095 0.24296501 0.01821015 -0.031145066 0.037570752 0.3382377 -0.22842883 0.11938229 -0.00672793 -0.0024721108 -0.23179464 0.25639597 -0.03692543 -0.32065776 0.18199101 -0.22175017 0.10298855 -0.18579997 -0.07519487 0.15033735 -0.23874395 0.26658124 -0.2696264 0.022384953 0.19822758 -0.019783882 -0.096142076 -0.14821549 -0.13813435 -0.0025269084 -0.042912897 0.05620626 0.048395857 0.31649253 0.09432696 -0.30642724 -0.021859124 -0.4724958 0.11350254 0.17278866 -0.19957453 -0.1888141 0.015903104 0.137061
6239.B0478.1a 0.0890709 -0.17379782 0.048684545 -0.16261807 0.007215079 -0.27945974 0.10391559 -0.17748441 -0.15368621 0.046675406 0.28257987 0.07706136 -0.23390399 -0.28223625 -0.10378042 0.37579185 -0.1900417 0.06528192 -0.20636266 0.22507775 0.2956319 0.12528498 -0.33972716 -0.26947713 -0.16575314 0.22008651 -0.13850877 0.08696459 0.0059523797 -0.29581153 0.012689036 0.21710953 0.29585585 0.042433962 -0.29539925 -0.06069379 0.087785885 -0.086215876 -0.06469576 0.026812878 -0.027165301 0.10156629 -0.19704734 -0.070324294 0.28549248 -0.056276105 0.07291061 -0.29046562 -0.124367274 -0.11639903 0.14034007 0.1518066 0.12208669 -0.026103165 -0.15638445 -0.14570971 -0.08431939 -0.18522187 0.08076747 0.08521969 -0.2078228 -0.43483928 0.08639485 -0.18362956
6239.F32D1.10 0.14678045 0.0055857482 0.11819402 0.23527335 -0.14307071 0.06792175 0.024018472 0.034289226 -0.1889761 -0.10609988 0.036812317 -0.23673908 -0.037846867 -0.22080852 -0.045082837 0.2452661 -0.29030907 -0.19645372 0.039669573 0.2504945 -0.14900585 0.19554752 0.078842625 -0.17302959 -0.4282277 0.46498516 0.12193717 0.03489797 0.20683679 -0.26427895 0.029065695 -0.034008287 0.09567409 -0.21104088 -0.08662769 0.11005731 -0.17790939 -0.30260506 -0.38090754 0.3124006 0.3029123 -0.09875907 -0.3845951 0.16021875 0.062232442 0.04806232 -0.22250557 0.077804185 -0.035020154 -0.034570355 0.023240406 -0.024230547 0.19092822 0.073878646 0.02049234 0.044720836 -0.0060556834 -0.3059052 -0.17875604 -0.080641374 -0.4547879 0.055235054 0.432103 -0.21253368
6239.F26E4.10a 0.15010534 -0.10169709 0.013540351 0.15778856 0.22615154 0.011810911 0.29973233 -0.2557488 -0.3821642 0.06878228 0.032527618 -0.13047116 -0.042767324 -0.29104692 0.103348725 0.06350224 -0.11941376 0.08546508 -0.17853305 0.10397177 0.054790404 0.29463214 0.12737718 -0.17165585 -0.37996888 0.3114177 -0.072779864 0.12975839 -0.10857963 0.19823125 -0.25819498 0.009573974 -0.08857277 -0.1046948 -0.25916576 -0.020571783 -0.079305165 -0.013743838 -0.15414943 -0.07741328 0.18513459 -0.02477143 -0.1661651 0.3315189 0.2004677 -0.17375106 -0.527518 0.08582672 -0.074559145 0.10703375 -0.0962001 0.010118058 0.11902607 0.0978672 -0.14730717 0.02793981 -0.12632725 -0.18002687 -0.022218373 -0.015017349 -0.3694157 0.26658952 0.26731923 -0.024230111
6239.C35C5.4 0.18171395 -0.14890482 -0.0011993233 0.0858286 0.11054501 -0.074737564 0.3188456 -0.0040592426 -0.21239746 -0.031221265 0.11485563 -0.2564594 0.11786593 -0.040790904 -0.025977056 0.05334978 -0.0074911695 -0.055119336 0.24990232 0.24765514 0.39018318 0.48930612 -0.34813252 -0.41192162 -0.11355697 0.25161412 -0.2884349 0.21886253 -0.23915972 -0.07987888 0.2522595 0.12906387 -0.043115854 0.0081138825 0.23349117 -0.1617123 -0.017912772 0.16846856 0.06809665 -0.07074432 -0.108474456 -0.14013469 -0.19908683 -0.118962884 0.036504406 0.059408765 0.108813025 -0.10963696 -0.2543318 0.029044375 0.013025899 0.13141797 0.10047219 0.12433223 -0.09639778 -0.045857698 -0.26832744 -0.29472107 -0.18352002 0.21031417 -0.41537467 -0.08628956 -0.070989534 -0.23331144
6239.F37A4.8 0.071367346 -0.27612355 0.14856912 0.4772929 0.018717121 -0.16114739 -0.026448138 -0.097671516 -0.17833151 -0.023844894 0.08520134 0.0045287088 -0.19845125 -0.15935986 -0.03211266 0.17385393 -0.061047416 -0.22839227 -0.06930666 0.32651114 -0.046328425 0.33739766 0.17496422 -0.22463681 -0.22305891 0.32171118 0.2113933 0.16745406 0.06610949 -0.028013352 -0.17078291 0.06435894 -0.16025445 -0.345864 -0.031578455 0.14010681 -0.038960714 -0.14446 -0.41600853 0.10889614 -0.056967676 0.2456351 -0.42340845 0.11535463 0.04047118 0.10892466 -0.3823341 0.03101457 -0.0016994228 -0.15061277 -0.16828819 -0.23921637 0.12681168 0.25011423 0.13313629 -0.12017845 -0.15458865 -0.25247297 -0.011132685 -0.14559606 -0.44427255 0.15207839 0.18943948 -0.011013335
6239.F44F4.2.1 0.36009097 -0.2704988 -0.0040273587 0.23507987 0.20128568 0.023478126 0.19654272 -0.07362909 -0.2269137 0.2722436 -0.040312465 -0.14118862 -0.12786554 -0.1558929 0.11778277 0.011806098 -0.19348533 -0.15097079 0.0050522126 0.09935372 -0.01387002 0.3058274 0.08991262 -0.16613592 -0.38105375 0.49991456 -0.22673455 0.19831716 0.04909299 -0.21744305 0.042793393 -0.022781903 0.0006958268 -0.11128237 -0.40392068 0.08123533 -0.20276533 -0.08951711 -0.2992533 0.3195855 0.19299361 0.16345687 -0.03289184 0.11094095 0.21716534 -0.10612077 -0.09943053 0.038080703 -0.25233385 0.014114979 -0.16018215 0.099297926 0.22096272 0.34854025 -0.15952823 0.1097884 0.0431662 0.0057707964 -0.51062185 0.14606857 -0.16798389 0.045287054 0.07768242 -0.14909592
6239.C08B11.2 0.0912279 -0.20721613 -0.07792224 -0.11625054 0.093467176 -0.3148913 0.06316453 0.0037826067 -0.17909782 0.056529917 -0.04166595 0.056019064 -0.24491054 -0.46883282 -0.24068801 0.37068322 -0.19278488 -0.10485976 -0.1334185 0.122073814 -0.08486581 0.15279633 0.12769315 -0.045111742 -0.18084748 0.3954831 -0.19450988 0.10099034 -0.091043554 0.072784886 -0.16403861 -0.12869158 -0.1452034 -0.086443536 -0.1670957 0.025385287 0.054158002 -0.21693699 -0.19382752 0.1218175 0.1294039 0.25836787 -0.1316223 0.13487609 -0.00011795152 0.032697115 -0.3057193 -0.027010262 0.10616804 0.06349868 -0.027757639 -0.05271177 0.20747231 0.058231514 -0.16648664 0.016892422 -0.36611092 -0.18691999 -0.16562963 -0.014791701 -0.59192884 0.12449484 0.15703167 -0.16296259
6239.C27A2.6 0.28235897 -0.05607212 0.27880982 0.059452064 -0.107613645 -0.01309311 0.20383401 -0.37803623 -0.3799826 -0.020473383 0.008843005 -0.41608745 -0.0113050435 -0.24850291 0.20705639 0.36672848 -0.32304704 -0.048187006 -0.030743714 0.24882026 0.14725463 0.3034843 0.057818294 -0.012764118 -0.3166085 0.23567818 0.015178453 0.32786041 -0.20025237 0.067201994 0.01831375 -0.045680407 -0.00080907944 -0.1486483 -0.25390235 -0.18375814 -0.067993425 -0.2763957 -0.44443318 0.17483082 0.041857753 -0.12209133 -0.367569 -0.09481886 0.12998465 0.077220805 0.24180494 0.06223389 -0.023949988 -0.07172055 -0.046806097 0.0354257 0.23311996 0.28683963 -0.0004630454 0.0059775184 -0.056109726 -0.13210766 -0.118877836 0.09112302 -0.2831283 -0.057556104 0.32277957 -0.2594714
6239.C26D10.2a 0.024896983 -0.09635021 -0.10101807 0.25613624 0.10799661 0.15090838 0.013504272 -0.11813279 -0.2729019 0.2751428 0.12048915 -0.084410325 -0.07749088 -0.2773198 0.13953735 0.26136082 0.07659498 -0.03860347 -0.008044457 0.23779221 0.12024884 0.005829346 -0.01850234 -0.4109986 -0.1287949 0.17266566 0.15351301 0.35278395 0.22745222 0.30652627 0.051773977 -0.1761521 0.01736594 -0.41636992 0.00944402 0.036294255 -0.18525548 -0.25289255 -0.4264282 0.058278646 -0.062122636 0.0034180367 -0.22260952 0.24084981 -0.02224661 -0.09737432 -0.16064948 0.20205341 -0.22841816 0.084648006 0.12532124 0.021079104 0.33443522 0.22697608 -0.04813279 -0.14191748 0.08454554 -0.3047062 -0.28385314 -0.016254995 -0.36763775 0.23807739 0.2691898 -0.14375246
6239.M7.2b -0.0138795255 -0.2959329 0.1457582 0.16768633 -0.16157888 0.13106596 0.10636243 -0.23025233 0.11077366 0.37941772 -0.06963328 -0.31802478 -0.101861425 -0.3132509 -0.2174043 0.14912298 -0.3390483 0.034183897 0.12873438 0.42239588 0.19001321 0.27727324 -0.2159477 -0.28649858 -0.2615862 0.3387319 -0.3087339 -0.00037086464 -0.20830286 -0.27256805 -0.028491542 -0.016071975 -0.019798974 -0.07677918 -0.27110922 0.13228688 -0.1895311 0.06923399 -0.33375463 -0.034020614 0.3261279 0.26254863 -0.2494424 0.208922 0.0024500627 -0.10578577 -0.06871645 0.11277482 -0.1192697 -0.21419856 -0.1262966 -0.10173606 0.07318574 0.094478264 -0.07859468 0.2417679 -0.09913566 0.27834 -0.18764424 0.18855597 -0.22343232 0.09765642 0.36172733 -0.038449332
6239.C18A3.6a 0.03156986 0.037588518 0.17149827 -0.09012337 0.3692569 -0.06687932 0.17254187 0.063140504 -0.41886625 0.25333118 0.03186116 -0.11674453 -0.16572733 -0.3647425 -0.055398256 0.083610885 -0.4596087 0.09494619 0.04776878 -0.09538734 0.19084716 0.31655058 -0.34637153 -0.48769864 -0.046245858 0.1228796 -0.34702545 0.198585 -0.2091594 -0.012328844 0.048388988 0.15347154 0.23366006 -0.13449174 0.14897183 -0.11011232 -0.047508195 0.23227637 0.015329521 -0.19785936 -0.13108484 0.21759409 -0.29764012 -0.029489648 0.09299505 -0.14359625 0.08658803 -0.084501475 0.09149723 -0.03844459 0.23067568 0.12499247 0.2701975 -0.11407094 0.047314875 -0.058780473 -0.09812972 -0.116691776 0.090150975 -0.020937404 -0.079038054 -0.05962088 -0.3644085 -0.021975864
6239.B0025.1a 0.20048393 -0.1425254 0.30662197 0.06969077 -0.04408747 -0.22133608 -0.018748993 -0.100747615 -0.22913478 0.06689541 0.23602529 -0.33521575 -0.016182175 -0.13911124 -0.36470562 -0.22726648 0.12921883 0.042439736 -0.18875095 0.09503894 0.27891594 0.3565682 0.03321711 -0.47494248 -0.32207957 0.29330462 -0.13011207 0.104404576 0.003029693 -0.101095654 -0.072168365 0.099369586 -0.072537646 0.16877893 0.13562274 0.0751782 0.3041253 -0.08023033 0.04106678 0.14638594 -0.04206044 0.18603764 -0.16286224 -0.09923345 0.04036937 -0.0041302918 -0.32005173 -0.14205053 -0.054193974 -0.19376518 0.20307232 0.1924519 0.28146097 -0.08600032 -0.3069801 -0.16635887 -0.15351342 -0.20245855 -0.29038414 -0.011370212 -0.1845663 0.13729048 0.07229685 -0.25707692
6239.C15H9.6.1 -0.27215207 -0.10969233 0.15043592 -0.15921727 -0.10186773 0.10517434 0.007941278 -0.010234598 0.0029315792 0.24957676 0.11653951 -0.044366166 0.10957875 -0.30755934 -0.15184541 0.026281077 0.05935233 0.09850414 -0.13355282 0.18515435 0.43301573 0.14170651 -0.33572474 -0.3648974 -0.29579464 -0.12550811 -0.12615754 0.2221854 0.3816292 -0.059799768 0.092020206 0.3289008 -0.1624303 -0.1547634 0.000514585 0.38391057 -0.09143556 -0.2434496 -0.20582984 0.12148828 0.19080734 0.025079777 -0.20875186 -0.18898548 0.053992182 0.12279545 -0.52115035 -0.4246566 -0.064968035 -0.12732801 0.06196564 -0.026615644 -0.23392536 0.1129196 -0.05442054 -0.23968178 0.09640378 -0.5000389 -0.042212106 0.08905662 -0.2752553 0.06544497 -0.28642976 -0.0037379926
6239.F58A3.2c 0.25100768 -0.30813465 0.07973586 -0.11098365 0.35981703 -0.09630218 0.09640518 0.11278904 -0.08691053 -0.1426027 0.15788342 -0.03445343 -0.100038834 -0.2529993 0.014007278 0.14932472 -0.4407081 0.20478936 0.055257473 -0.18104371 0.1506787 0.10298281 -0.28828558 -0.29583457 -0.20132446 0.2264155 -0.13747704 0.13713703 0.07844042 0.109283306 0.011539839 0.13519126 0.2682524 -0.13660653 -0.02877948 -0.12915546 -0.26951393 0.024832403 0.012629437 0.24011564 -0.21721333 0.2099191 -0.2790642 -0.13702896 0.4196651 -0.052191216 0.027363436 0.16054071 -0.27085936 0.053792387 0.25427598 0.035376124 -0.041845318 0.07665355 0.022194516 -0.0537678 0.07751519 -0.101161525 -0.12396777 0.27713642 -0.28831235 -0.25997734 -0.1808253 -0.0005154859
6239.F26D11.11b 0.022272129 -0.22932617 0.09914503 0.047357745 0.20141624 0.029055469 0.50433177 -0.21329518 0.14204812 0.024151836 0.060011853 -0.29246905 -0.38873065 -0.18639529 0.10320479 0.13066089 0.027315576 0.0810987 0.111942954 0.28665686 0.23383625 0.19588271 0.0021620134 -0.29657894 0.10796946 0.4908889 -0.367641 0.16029677 -0.23822092 0.18107519 0.2952124 0.057123274 0.27273637 -0.00033708516 -0.04524936 -0.028844494 -0.047563136 -0.2638352 -0.097658426 0.13651526 -0.058651153 0.07437484 -0.15965928 -0.11816482 0.24931921 -0.18850973 0.12069157 -0.28398573 -0.018160766 -0.09605547 -0.113145016 -0.09167771 0.013123278 0.19997764 0.05212842 -0.10434875 -0.05916106 -0.044697765 -0.124555945 -0.03776096 -0.46317363 -0.085240096 -0.03723488 -0.2741149
6239.H26D21.2 0.25355944 -0.118800074 0.1368241 0.18673414 -0.08610427 0.14817803 0.26566914 0.09779342 -0.29713902 0.11935457 0.023707736 -0.18312308 -0.13468765 -0.20132805 0.004635105 0.11646266 -0.20359124 -0.19255361 -0.101947576 0.25330946 -0.0054241186 0.2375907 0.18465887 -0.13979244 -0.3936531 0.5064258 -0.03188073 0.026818253 -0.16353704 -0.2794721 -0.2918385 0.24786963 -0.24936093 -0.03171844 -0.09771695 0.37516066 -0.06312649 -0.17893545 -0.43699843 0.12460438 0.093395725 0.27009416 -0.19378896 0.23792686 -0.06156793 0.06955234 -0.27569774 0.26708263 -0.20446049 -0.012803586 -0.09535432 -0.019922588 0.0900733 0.0940549 -0.098266646 0.021230852 -0.1248043 -0.10436304 -0.12103093 -0.12219771 -0.46084812 0.08375265 0.22137998 -0.020563733
6239.R08E3.4b 0.15764071 -0.28327343 -0.34014243 -0.06290285 0.17374149 -0.23975004 0.12706292 -0.21111898 -0.12403897 -0.04890121 0.08823624 -0.11964174 0.13864902 -0.34467116 -0.24745113 0.15982038 -0.282284 -0.14266649 -0.25499615 0.35923117 0.08065399 0.3435491 0.21672687 -0.104862146 -0.122155815 0.3004744 -0.2214805 0.056230944 0.1792163 0.11832563 -0.062962376 -0.050905176 0.00071631523 -0.13409138 0.2234253 -0.18651293 -0.02678939 -0.041203827 -0.097301625 0.16782098 -0.31472477 0.24650928 -0.18535838 -0.19222724 0.11225286 0.019289961 -0.061531715 -0.34509715 0.056826852 -0.051118296 0.040274672 -0.031523217 0.020338345 0.060961016 -0.13628717 0.07380426 -0.16696164 -0.20998177 -0.065741755 -0.009151307 -0.35156116 -0.048429333 0.14443646 -0.24326737
6239.K12C11.2 0.2228247 -0.032139078 0.12952678 0.12892486 -0.02281827 -0.30415663 0.09820061 -0.045955077 -0.21508321 0.2186781 0.072271384 0.006490722 -0.00972188 0.013515955 -0.07913091 0.32213143 -0.0705462 -0.20798206 -0.19878216 0.16843224 0.05004172 0.11547396 -0.008034647 -0.15132071 -0.075023375 0.44151878 -0.1012712 -0.06694691 0.2172713 0.10655929 0.06505243 0.09510904 -0.21598552 -0.17268279 -0.06571346 0.09694311 -0.15871504 -0.14860894 -0.30292627 0.42184448 -0.11033125 0.08932408 -0.40166503 0.2020946 0.006733816 0.13940662 -0.24562852 -0.022714319 0.093221605 -0.042330924 0.024181386 -0.10149035 0.26529866 0.12909523 -0.055053603 -0.24980024 0.097690456 -0.3468328 -0.115031965 -0.10562984 -0.44653523 -0.024551162 0.29957002 0.19588642
6239.T24H10.7a -0.07671653 -0.42467552 -0.1417774 -0.1442206 0.11891852 -0.41063532 0.051663417 -0.13536353 -0.2004051 0.025655191 0.113724336 -0.029957404 -0.063791096 -0.26910454 -0.08794364 0.23913226 -0.09929411 -0.19089448 -0.38738492 0.41223225 0.06526091 0.2051552 0.11972659 -0.19171426 0.028060408 0.34394282 -0.112687536 0.032226223 0.05919348 0.14509194 -0.19232766 0.14397645 -0.07382923 -0.10173197 -0.06451756 0.058460854 -0.017586458 -0.12560813 -0.20177683 0.3176779 -0.07078682 0.16669376 -0.1696929 -0.19400406 0.13754182 0.051019594 -0.17736934 -0.1879311 -0.2037247 -0.06736063 0.081490524 -0.2007326 0.2996166 0.10692431 0.025602283 -0.0019447103 0.07245508 -0.4414702 0.07312059 0.067380674 -0.15117235 -0.08355334 -0.22869596 -0.073915385
6239.F20G4.3 0.0029195996 -0.04503256 0.24086146 0.23382215 0.09989505 -0.16287489 0.22843681 0.085940726 -0.24512778 0.008689021 0.043900866 -0.44377205 -0.06598992 -0.18656029 -0.03357792 -0.0627631 -0.27642685 -0.1762144 0.21189386 0.47575822 0.28438354 0.1071435 -0.07373846 -0.219393 -0.13838178 0.080163814 -0.18239164 0.040002592 -0.09601514 0.027898073 -0.024615757 0.06933392 0.027377531 -0.23795007 0.23374055 0.017869286 0.2721386 -0.19339544 -0.36194164 -0.04423953 -0.04269069 0.1595878 -0.19821666 0.13274604 0.016807161 -0.16313338 0.04903944 -0.09349627 0.024827756 -0.30246654 -0.2768049 -0.16299142 -0.007487572 0.30379063 0.09031422 0.066331856 0.10148565 -0.007905063 -0.36524552 0.2225271 -0.35073957 -0.18754226 0.3460782 -0.273175
6239.C14B1.4 0.10773653 -0.21269928 -0.01675774 0.21007335 0.1734382 0.041608267 -0.10523825 -0.19233726 -0.18597446 0.11604728 -0.04975268 -0.0012995196 -0.13092901 -0.19169168 -0.33056226 0.34768862 -0.16357699 0.14362036 -0.06588502 0.19751883 0.054470263 0.26518697 0.004093874 -0.026751842 -0.42210597 0.31686723 -0.07975892 -0.023101727 -0.0043691634 0.05758013 -0.12058002 -0.05006898 -0.09508901 -0.2626929 -0.030316323 0.091916226 -0.033247124 -0.0353981 -0.22395565 0.09732425 0.15711771 0.16949163 -0.3829837 0.027924458 0.13101241 -0.016296087 -0.23050639 0.011590133 0.16502267 -0.13125822 0.15260941 -0.2461433 0.28017217 0.15869616 -0.25737578 -0.22051655 -0.34088358 -0.15286954 0.07365998 -0.15943043 -0.47413337 0.22413927 0.43033358 0.13834794
6239.F07A5.7a.4 0.08011398 -0.09947746 -0.030296834 -0.112157024 0.21780303 -0.09036592 0.13447024 0.20253229 -0.21715565 0.19079418 0.0867159 -0.24927938 -0.3399785 -0.17271776 -0.21812113 0.14897007 -0.0786182 -0.015191657 0.25287944 0.18496303 0.06449205 0.040507186 -0.4078149 -0.43039358 -0.018962823 -0.023640012 -0.21480472 0.006182232 -0.03654753 0.28249273 0.14933671 0.14706062 -0.058084648 -0.12142656 0.15506399 -0.116610035 0.13783157 0.01630168 -0.19735408 0.08655706 -0.14676523 0.13389803 -0.27155703 -0.077530816 0.14425929 -0.31303838 0.10428726 -0.14065613 -0.020302873 -0.06383945 -0.07895909 -0.08806834 -0.1876539 0.10452839 -0.026923668 0.08311609 0.25845158 -0.19612813 -0.29314137 0.27324122 -0.4402873 -0.08916517 0.2102785 -0.22277091
6239.R107.8 0.088195205 -0.17226487 0.0070785135 -0.09242087 0.0051394864 -0.21810915 0.24432921 -0.017299758 0.06310826 0.12976493 0.1585087 -0.10096448 0.21153115 -0.28178275 0.10586247 0.21503896 -0.45338696 -0.17607279 -0.0064633028 0.24391057 0.16438526 0.2549375 -0.08311874 0.0076511004 -0.11143571 0.39981443 -0.33136564 0.016575247 -0.18214288 0.043632045 0.046151266 0.13560764 0.18789816 -0.15868908 0.03238256 0.04500542 0.26151392 -0.1832494 -0.010388246 0.07563023 -0.2894741 0.19908448 -0.22007604 -0.12786478 0.24512094 0.052787367 0.05178447 0.009239906 0.058475252 0.09588184 -0.012171537 -0.204607 -0.059986196 0.15109472 0.077169694 -0.26796484 -0.04028736 -0.30998543 -0.1168105 0.28161576 -0.19308366 0.03489043 -0.012865397 -0.14611273
6239.C33D3.1 0.34173822 -0.15305154 -0.17141542 0.11948189 0.05316984 -0.19631636 0.10274643 -0.07994112 -0.14632015 -0.1964342 0.2536807 0.036051624 0.16152991 -0.42556322 -0.103475705 0.16081305 -0.12195774 -0.03456859 -0.024601867 0.31160617 0.097381726 0.3237623 0.10380736 0.015517881 -0.08002984 0.09124246 -0.32490996 0.1111985 0.092951134 0.10379297 -0.23095302 0.2445574 -0.21101168 -0.17919213 0.24264616 -0.0806234 -0.077317506 -0.34260318 -0.20248125 0.16386294 -0.210732 0.38268018 -0.40111688 -0.28620484 -0.07315652 -0.11132165 -0.11844606 -0.24540095 0.058562856 0.12800819 -0.043658677 -0.10935521 0.2903795 0.1259481 0.100208975 0.024540586 -0.10887611 -0.11760387 0.16591673 0.33605617 -0.05220508 0.041138567 -0.11981683 0.03071037
6239.T25F10.2.1 0.3682879 -0.2725996 0.05019482 -0.19681749 0.07354341 -0.28182283 0.23879729 -0.036516286 -0.08038097 -0.07906889 0.2778462 -0.0014332342 0.005196649 -0.3748177 0.139099 0.25155446 -0.6091137 0.03957467 -0.10320303 -0.0577301 0.19796206 0.000431687 -0.117367454 -0.105407454 -0.21419635 0.19626847 -0.25797978 -0.09732992 -0.14359047 0.09450737 0.074330464 0.06873278 -0.04828828 0.03993582 0.22172858 -0.11384336 0.116641626 -0.15709735 -0.19210881 -0.058550633 -0.35048532 0.25470832 -0.010110483 -0.2776392 0.0022757929 0.04376331 -0.04851502 -0.32869086 -0.110308 0.0170885 0.07465742 0.040343195 0.31494114 0.19723682 0.11052275 0.0001863509 -0.022572957 -0.27717817 0.081523724 0.22952154 -0.16447629 0.037329067 -0.26276404 -0.19154257
6239.C47D12.1a -0.15735877 -0.2598357 0.23053655 0.2787761 0.11053114 -0.09513743 -0.047766272 0.06918458 -0.17257132 0.0052319653 0.1355681 -0.13869582 0.01730608 -0.12194065 -0.2131823 -0.0974648 -0.034613725 0.0020693988 -0.12022776 0.20952658 0.018194428 0.47988153 0.25950527 -0.35443988 -0.20782277 0.35867876 0.033605102 0.17436132 0.07708896 -0.0142744295 0.07572467 -0.032344814 -0.1362362 0.13125281 0.09178997 -0.031501222 0.24178 -0.14917834 -0.13579324 0.1621255 -0.20402022 0.31368744 -0.37382862 -0.012020501 0.008492444 0.039911747 -0.3178415 0.017191691 -0.2015232 -0.23035726 0.054846305 -0.040062904 0.18050256 -0.17701392 -0.13789633 -0.13158248 -0.113199465 -0.39836 -0.45683628 -0.06499172 -0.42142847 0.09780158 0.0003026929 -0.19755594
6239.Y53C12A.1 0.09214939 -0.08378105 0.045021787 0.3770544 0.21875471 -0.035996206 0.0050727413 -0.29588646 -0.3336123 0.09059891 0.17471161 -0.25752613 -0.050925937 -0.10638122 -0.102560736 0.1567278 -0.2559014 -0.2135468 -0.052379537 0.1669323 -0.09673864 0.15168013 0.087770656 -0.2044974 -0.24678463 0.42679635 -0.055969384 0.026756754 -0.021822264 -0.02801035 -0.2338778 0.2182328 0.1564201 -0.071547344 0.059185028 0.18103369 -0.1324 -0.050585717 -0.3961816 0.25224927 0.27185205 0.20798624 -0.3387808 0.032102346 0.012643704 0.10061807 0.046943534 -0.17065686 -0.07748353 -0.118450105 -0.09219396 -0.15903094 0.022108171 0.18349957 0.017439922 0.26846328 0.09478238 -0.11355936 -0.35654658 0.022962788 -0.33323503 -0.16614254 0.37985623 -0.03267776
6239.R06C1.1.1 0.02516464 -0.29541272 0.012473011 0.071120985 0.027423484 -0.23906599 -0.0768715 0.028542912 -0.11055812 0.0008260667 -0.11196277 0.2168145 -0.10049142 -0.44926718 -0.18151775 0.4122965 -0.044327307 0.072089456 -0.21165732 0.14849588 0.06401576 0.23314866 0.118078485 -0.11555692 -0.19210237 0.50169647 -0.13982439 0.088861875 0.050860558 -0.037224267 -0.21009289 -0.09111405 -0.094772965 -0.056824923 -0.22079952 -0.1360236 -0.20740493 -0.11369208 -0.25205305 0.055813845 0.014806531 0.31678343 -0.0387527 -0.020113327 -0.08741179 -0.012395141 -0.30460888 -0.12894404 0.14398187 -0.055888884 -0.039527196 -0.06636493 0.13316724 0.08399847 -0.2055467 -0.083753414 -0.23502102 -0.29207703 -0.08621139 0.034373414 -0.56175965 0.094130896 0.30082354 -0.21767527
6239.ZK1307.6 0.21730779 -0.23652512 -0.15873154 0.3268052 0.13380969 -0.06369585 0.13148409 0.086220026 -0.02067445 0.14821766 -0.20059204 -0.068566576 -0.1850212 -0.19785494 -0.009218556 0.2216792 -0.25645357 -0.091158286 -0.21770066 0.18021694 0.19400036 0.35913327 0.14848079 -0.37462398 -0.20686127 0.36735517 -0.032213192 -0.2475062 0.16782285 -0.17950197 -0.009482442 -0.05205208 0.078252025 -0.22532259 -0.034778137 0.11423051 0.0458403 0.0252944 -0.21774729 0.28132504 0.2065336 0.21431601 -0.41700873 -0.05807679 -0.058555458 0.030005239 -0.30267692 0.05714905 -0.0761422 0.10913523 -0.08741691 -0.24766347 0.019665765 -0.012385897 0.19216862 -0.09551717 -0.0351369 -0.39112467 -0.26302516 -0.17172049 -0.18540208 -0.21829724 0.3174133 -0.13805349
6239.C53A5.3 0.16737953 -0.43646857 -0.064716354 -0.00025871187 0.029180443 -0.3066946 0.021810839 -0.1787514 -0.20634718 0.043557104 -0.07163849 0.12734023 -0.12764771 -0.36785927 -0.10598442 0.29818404 -0.13247477 0.002268671 -0.22626753 0.17675734 -0.05988469 0.23261608 0.08658951 -0.07870727 -0.078763545 0.3140703 -0.0016611116 0.088224575 0.10770722 0.0074444725 -0.24767861 -0.23997019 -0.019896371 -0.017753063 -0.08236351 -0.0021792185 0.04160143 -0.09560689 -0.1916614 0.08170726 -0.030247351 0.42336923 -0.34602708 0.07668841 -0.046653613 0.07124121 -0.22295517 -0.019072369 0.161091 0.23821911 0.051092874 -0.12245383 0.10845957 0.30064654 -0.016761245 -0.026960947 -0.27181953 -0.35976586 -0.13500431 0.10610417 -0.47160304 -0.011135337 0.2181581 -0.22649711
6239.W03G1.6c 0.11021322 -0.14557505 -0.14879622 0.17198223 0.0165961 -0.037029106 -0.089596175 -0.11909119 -0.47351775 0.2891639 0.19322616 -0.2770649 -0.050061483 -0.21128845 0.0779476 0.37973964 -0.15755107 0.017914083 -0.12216967 0.32747054 0.3334419 0.0952045 0.19534543 -0.15810202 -0.38749337 0.19096945 0.17381307 0.19343123 0.24033825 -0.10374289 -0.11598907 0.12638022 0.10719603 -0.09298758 0.018439125 0.05920081 0.18057702 -0.20911375 -0.26097715 0.032806158 0.14845307 0.030682769 -0.20006794 -0.19180779 0.069554746 0.13186593 -0.09043811 -0.12149363 -0.17977893 0.020968175 -0.0023653933 -0.06694997 0.14308244 0.16296552 0.02613407 0.001311708 -0.17753978 -0.179592 -0.2374261 -0.05099789 -0.4768941 -0.24401261 0.30414212 -0.04965725
6239.F35D6.1a 0.10257755 -0.0091257915 -0.014489095 0.21385735 0.12676865 -0.22350346 0.016605074 -0.376955 -0.34651697 0.2627883 0.080354095 -0.28013408 -0.10927764 -0.13439491 -0.16121793 0.04609612 -0.04086915 -0.12763092 -0.14462373 0.12511021 0.18685345 0.034328084 0.04130258 -0.308039 0.17651434 0.41891783 -0.4169529 -0.035338275 0.14387324 0.031827424 0.11699814 0.1013695 0.19351356 0.01638272 0.14125891 -0.0361935 0.051166907 -0.05812381 -0.1564894 0.017612083 0.08820172 0.16200271 -0.1247887 -0.090879165 0.04664983 0.035680883 -0.25028753 -0.15098323 -0.043884423 -0.10226023 -0.16817096 -0.5661606 0.16252795 0.071651615 0.13456002 -0.30388483 0.02214328 -0.04456483 -0.24490885 0.21039382 -0.37571624 -0.034399018 0.21406256 -0.01878728
6239.Y47G6A.8 0.04809661 -0.11578936 0.16991684 0.1047468 -0.012423036 0.020815091 0.3192869 -0.14373091 -0.34120566 -0.093338974 0.13395803 -0.035155453 -0.2560023 -0.14228453 -0.017479308 0.24205616 -0.26718146 -0.1206839 -0.106134936 0.1316289 0.2979701 0.13785034 -0.03934131 -0.25700927 -0.22925253 0.44089326 0.21589004 -0.0033263802 -0.1705835 -0.050440006 -0.20991838 0.059839845 -0.102322556 -0.069818676 -0.0077788136 0.15843113 -0.044747982 -0.24000694 -0.40166295 0.1731346 0.25358084 -0.06834779 -0.11570052 0.31912768 0.15698697 -0.18382749 -0.3890565 0.19220163 0.04014339 0.008376949 -0.16049087 0.09726287 0.12675202 0.075275406 -0.24765916 -0.023908453 -0.007351454 -0.21885374 -0.11121699 -0.1673485 -0.46535274 0.059263866 0.32391292 0.08465758
6239.F26B1.3 0.13453998 -0.049208455 0.118666805 0.21769625 0.037935145 0.25978053 0.042828076 -0.05321974 -0.09775312 0.10893867 -0.171944 -0.14769095 -0.11454872 -0.29196075 -0.083714604 0.21318144 -0.40921563 0.012492935 0.27172533 0.4484583 -0.010198607 0.2648792 0.24714284 -0.04878127 -0.2466131 0.39072695 -0.21722773 0.25336722 -0.115201056 -0.18168966 -0.13828948 0.039555512 -0.09835134 -0.12913777 -0.2546189 0.20244601 -0.27326167 -0.15380044 -0.35842472 0.07040339 0.15553752 0.058957327 -0.24541052 0.09077453 0.038164463 0.03726388 -0.19038528 0.08369555 -0.15634343 -0.1578196 0.014218971 0.019232871 0.24713635 0.2517155 -0.12656748 -0.018342828 -0.014167295 -0.033887874 -0.31438252 0.10068928 -0.3831474 0.1255684 0.3966039 -0.06931407
6239.C47B2.3.1 -0.047891904 0.029333457 0.17756501 -0.01842369 -0.08689326 -0.0065192473 -0.20953071 -0.0538292 -0.31990308 0.25415668 -0.12820196 -0.2274655 0.17109147 -0.21575108 0.16077702 0.22248325 -0.22383194 -0.3369277 0.34906054 0.40522718 0.17823544 0.062071882 -0.11965956 -0.38657779 -0.40111336 0.12742732 -0.08135015 0.25184068 0.18266022 0.004353024 -0.036946744 -0.029485954 0.0135633275 -0.231492 -0.13836819 -0.11691343 -0.07270981 -0.27571586 -0.2442873 0.11609968 0.23876919 0.18692034 -0.28507265 0.09088161 -0.223024 0.24443729 -0.14258364 -0.044984125 -0.07009886 -0.13548881 0.19431506 0.09107135 0.12814929 0.28074867 -0.14829366 -0.3393801 0.06085707 -0.044921204 -0.3155366 -0.024599502 -0.36327767 -0.065739155 0.3550331 -0.036241785
6239.K04F10.4d.1 0.16347298 0.02390697 0.08627373 -0.09948001 0.02028597 -0.36460105 0.30591097 0.063491605 -0.039523438 0.12908556 0.13046989 -0.060840614 0.036500297 -0.20095654 0.108922385 0.109922506 -0.0784678 -0.11975297 0.28788057 0.14109254 0.33884725 0.25519735 0.022378143 -0.52287406 0.054319773 0.20728475 -0.26953036 0.124824986 -0.058581676 -0.03940646 -0.27731743 -0.066077955 -0.022834139 -0.1043601 0.19395368 0.27071437 0.2598239 -0.012923075 -0.46970028 0.20705087 -0.009018788 0.19236791 -0.2369779 -0.20171337 0.20490797 0.24696667 0.061646078 0.049955163 -0.23037001 -0.04806183 0.042934075 -0.044079438 -0.119356304 -0.07656076 -0.041699804 -0.0952027 0.18113679 0.0038668446 -0.19081436 0.27243444 -0.2816018 0.3306217 -0.20622489 0.221136
6239.F58A4.8 0.07404596 0.007561266 0.14271368 0.29210225 -0.08470669 -0.019289834 0.029632902 0.09200244 -0.18177284 0.24382445 0.0063289334 -0.16394396 0.124184005 -0.41297728 -0.1428523 0.1807797 -0.22975053 -0.27371863 0.19219323 0.40646517 0.13258378 0.051106546 -0.0627891 -0.30781683 -0.29587466 0.23367727 -0.13857207 0.09230548 0.07908987 -0.1427346 0.04376044 0.11227613 -0.0067456635 -0.17559622 -0.33562997 0.002249781 -0.13762386 -0.121577576 -0.26486418 0.19440076 0.21154971 0.20285249 -0.12608871 0.0344393 -0.15255898 0.031526543 -0.05986782 0.09797502 -0.16398877 -0.027862659 0.005670253 -0.01661361 0.09051974 0.19355838 -0.24207327 -0.0016967676 -0.025773114 -0.1477779 -0.3665081 0.06371228 -0.45136413 -0.042297404 0.4036635 0.13221775
6239.C10H11.9 0.1341768 0.058167167 0.17062792 0.29068854 0.11160957 -0.21454749 0.14049737 -0.023165429 -0.16761982 -0.034861617 -0.009191365 -0.08150806 0.25839454 -0.06323676 -0.026953211 0.033054136 0.0068893777 -0.08570706 0.11167407 0.21542671 0.433348 0.20042902 0.14921701 -0.16142292 -0.26452556 0.2159591 -0.4595232 -0.02598075 -0.14162336 0.26683754 0.22549286 0.15630227 0.122674875 -0.014433045 -0.07888249 0.012691447 -0.2138104 -0.07248916 -0.022646833 0.032002125 -0.105919875 0.11628288 -0.3687563 0.13870369 0.3052885 0.070313945 0.08641473 -0.28293255 0.019407142 0.014556317 0.052895922 0.09193162 0.0077501615 0.016999759 -0.11501987 -0.01690577 -0.009737232 -0.17804305 -0.32624248 0.2994664 -0.4352369 -0.19622089 -0.10339951 -0.5004918
6239.T01G9.5b -0.0040029017 -0.07382314 -0.012218662 0.17094597 -0.06312471 -0.076393284 -0.06646725 -0.022173533 -0.050801743 0.18362735 -0.10682819 -0.2410283 0.07622031 -0.18451057 -0.06838544 0.076484144 -0.40647903 -0.19546095 0.09384295 0.41485232 0.14623268 0.20574187 0.023546772 -0.34026995 -0.4168407 0.23983257 -0.11831523 -0.043487467 0.11371569 -0.103516184 -0.18404582 0.10920614 0.003769846 -0.22345491 -0.14036302 0.17887355 -0.31627133 0.09522761 -0.36959067 0.07583983 0.21528421 -0.16765618 -0.4600405 0.19867149 0.07826175 0.023286678 -0.16655344 -0.07292799 -0.011136918 -0.1224781 -0.031230075 0.068174995 -0.010820177 0.43718386 -0.0700896 0.02707536 -0.021488091 -0.01761769 -0.14636129 0.01776354 -0.3406161 -0.15600905 0.36075065 0.02238801
6239.R09B3.1a.1 0.076109044 -0.09471632 0.13261077 0.012862094 -0.38187405 -0.019465888 -0.014868357 -0.20692739 -0.39254984 0.1134559 0.03287196 -0.0062465686 -0.06831086 -0.27184388 -0.08130721 0.040682632 -0.15022258 -0.102815665 0.09638903 0.19424143 0.18571559 0.22460657 -0.011934658 -0.27552265 -0.25516546 0.5072916 -0.12795688 0.033849653 0.10968264 -0.24408956 -0.18925719 0.29694015 -0.18601301 -0.0850466 -0.040131673 0.28901708 -0.27194867 -0.069664516 -0.4092179 0.2753836 0.14335279 0.10419786 -0.08797943 0.33667684 0.14596322 0.057573836 -0.2503816 0.16869895 0.024446556 -0.009075338 -0.22298793 0.028381635 0.20093104 0.120242596 -0.13406442 0.13470758 0.12317796 -0.28596896 -0.061731316 -0.010655776 -0.19786347 0.327728 0.31553438 0.097429186
6239.C48A7.1b 0.12969048 -0.27985197 -0.009516961 -0.041593663 0.0857132 0.14117841 0.07419589 0.14750515 -0.37915158 -0.08725051 0.01720856 -0.19202588 -0.2670421 -0.18160082 0.059926182 0.019462187 -0.36579877 0.05903561 0.01789621 0.118563384 0.026307574 0.059102647 -0.44789964 -0.62995726 -0.18554421 -0.05461672 -0.39850077 -0.048839916 0.027350334 0.091908336 0.0050321734 0.107826166 0.22825997 0.010401069 -0.0039808755 -0.1578486 0.16711101 -0.057630137 -0.20992246 -0.006855261 -0.14246307 0.24996004 -0.3381758 0.12855396 0.21787748 -0.14575024 -0.04098165 -0.22165248 -0.15139763 -0.07241425 0.31097457 -0.08476985 0.031838655 -0.04607391 0.08954185 0.021494592 0.10810464 -0.08174068 0.20982 0.11897411 -0.071120374 -0.22499497 -0.44849962 -0.1379224
6239.Y105E8B.1a 0.2908471 -0.0386312 0.20711622 0.0125546865 0.07031133 -0.10441839 0.07208071 0.17591587 -0.38600343 -0.027502231 0.023538634 -0.029191267 -0.421174 -0.20308495 0.02225615 0.26470792 -0.05850976 0.030637808 0.17203148 0.33319205 0.2654135 -0.047008067 -0.2103286 -0.44826528 -0.17631379 -0.102505535 -0.10498785 0.05986019 0.12292069 0.1701029 0.18752249 0.37723088 -0.11120274 -0.14141825 0.25686657 -0.10161606 0.014604733 0.12669128 -0.1422334 0.036655597 -0.25252053 0.13614807 -0.31175154 -0.24089378 0.08033657 -0.43997836 0.10973047 -0.0629837 -0.015108852 0.081574745 0.026129609 0.03127287 -0.06464927 0.011750864 -0.08851737 -0.13336886 0.24947509 -0.21644355 -0.26686424 0.09982225 -0.24044019 -0.106226765 0.09201177 0.08365309
6239.Y53C10A.12 -0.028554149 -0.22159858 0.016382828 -0.004922987 0.2854452 -0.23238735 -0.09567257 -0.21502987 -0.018443868 0.11447434 0.33899918 0.09878133 0.032680076 -0.37816557 -0.1689422 0.06946852 0.100656 0.1348652 -0.17257762 0.12555191 0.07420291 0.48864582 -0.029878693 -0.2231785 -0.024343297 0.058834367 -0.25839552 -0.16674341 0.13468811 -0.13202782 -0.20277941 0.27985644 -0.015370689 0.025981031 -0.06085716 -0.0869078 0.13886067 -0.2995541 -0.21121274 0.1822647 0.032722887 0.13166605 -0.22988161 -0.13051376 0.12505715 -0.08114969 -0.5009294 -0.25125596 0.056777805 -0.2656382 -0.15089989 -0.015737256 0.36651874 0.18727037 0.15612416 0.002288288 -0.01735091 -0.16702199 -0.10085258 0.32716635 -0.25415006 -0.044490248 0.03957594 -0.15453836
6239.B0336.2.1 0.07664898 -0.25426322 0.24160942 0.35108575 0.21486199 0.016213821 0.16679475 -0.10361458 -0.3734584 -0.053150255 0.0076899743 -0.2564626 0.05976278 -0.19479533 -0.21175776 -0.12802069 -0.05910362 0.14268044 0.112884216 0.22631891 0.3739612 0.25214487 -0.3402561 -0.40433174 -0.111503884 0.34662187 -0.10924903 0.32923463 0.06316063 -0.1751895 0.44647998 -0.003067938 0.0051103435 -0.08040261 0.18778189 0.08491108 -0.061423205 0.2748534 0.061505243 -0.0740121 0.1656015 0.039699163 -0.090627 -0.3593977 -0.24178538 0.057021305 -0.084829174 -0.24839167 0.054798514 0.074170925 0.18220234 -0.03913541 0.17226775 0.14677411 0.013972699 -0.2761927 -0.036726773 -0.13376266 -0.2850865 0.22207424 -0.44978344 0.012356861 -0.16673993 -0.1609651
6239.F38H4.9.2 -0.1501479 -0.09856162 -0.12201673 0.05176176 0.17480972 -0.14631674 0.12155 -0.03169623 -0.14037484 0.020627802 -0.059461217 -0.22676432 -0.1177271 -0.425895 -0.048622362 0.28672206 0.12653175 -0.08639353 0.020758225 0.07046215 0.15435238 0.1611599 0.0641148 -0.24240674 -0.09054698 0.39154363 -0.36645257 0.31855893 0.18882221 -0.045560405 0.27926442 -0.053249124 0.16338474 0.055225138 0.1229171 0.016421333 0.09348554 0.06605668 -0.34317663 0.015332559 0.19504955 0.2935301 -0.3227712 0.0020382009 0.091258116 -0.06817741 0.016767405 -0.17778371 -0.43625796 -0.08994034 0.014940101 -0.01311376 0.068457305 0.30472696 -0.07403836 -0.10278556 -0.122731 -0.24564588 0.024423407 0.027991392 -0.33370548 -0.21512629 0.16340664 0.026340786
6239.Y49E10.14a.2 0.25719762 -0.029600393 -0.047197293 0.40862912 0.24665672 0.033918012 0.20503965 0.04811919 -0.13954626 0.1444157 0.2606553 -0.054356456 0.1091515 -0.16786425 -0.1758017 0.22077143 -0.16351242 -0.23605058 0.016661603 0.43413016 -0.046778668 0.30194202 0.04504677 -0.13572559 -0.41030657 0.39371058 -0.066516414 -0.0135394335 -0.017725682 -0.10366824 -0.19513047 0.11254611 0.18056263 -0.17685036 -0.06712274 0.019382795 0.028678104 -0.14996804 -0.46809924 0.16725306 -0.02202458 0.091060296 -0.2858888 0.10730539 0.22105287 0.068602234 -0.022279225 0.15887426 -0.082694754 -0.0808458 -0.23315886 -0.029556833 0.16236766 0.26329306 -0.00488569 -0.11656362 0.17348574 0.013047624 -0.33499327 0.05623326 -0.19079386 -0.076615 0.49137226 0.09094959
6239.C32D5.2 0.23657596 -0.4035696 0.13588999 0.026647653 -0.0107852025 -0.30513093 0.40520474 -0.13314909 -0.0041422336 -0.21367906 0.26150668 -0.061924964 0.20628628 -0.029049119 0.21921137 0.30792063 -0.2487606 0.17328873 0.14955103 0.08098069 0.05500135 0.35584548 0.17295496 -0.21179003 -0.03141023 0.25021273 -0.435263 -0.07135079 -0.06966532 0.16162711 0.15214653 0.27779755 0.16508791 0.06113904 0.10921894 0.072986335 0.14738627 -0.17074694 0.0058220527 -0.23793781 -0.10527765 0.089676954 -0.04070877 -0.037664585 0.080252126 0.2600839 0.13443066 -0.32637465 -0.10648615 -0.03091625 0.21561429 0.059608422 0.17916521 0.12575287 0.0004046488 -0.08327877 0.108121075 -0.52520126 -0.0048310636 0.18197007 -0.42086726 -0.26292977 0.20008884 -0.27591056
6239.F33G12.4.1 0.2528698 0.22483613 -0.0021213375 0.31648734 0.10610829 0.052889004 0.23186769 -0.39517713 -0.27591106 0.29276145 0.02061824 -0.16988695 -0.15719627 -0.06865395 -0.07946529 0.17875715 -0.21180673 0.0024774235 0.23445222 0.1944855 -0.029052816 0.13259047 0.11437893 -0.27070796 -0.2735943 0.38587847 -0.0019094392 0.27048823 0.042513777 -0.106172755 -0.14836253 0.096647926 0.05766605 0.04572448 0.039197955 0.18129295 -0.31415236 -0.20290875 -0.6205022 0.30144387 0.265704 0.074897766 -0.08115191 0.09299879 0.36377662 0.11607593 -0.037778128 0.036487255 -0.11814753 -0.24979615 -0.17922449 -0.08135267 0.13339093 0.15959756 0.07320343 -0.061517514 -0.13985969 -0.022097405 -0.2853913 -0.03216946 -0.38349593 0.024382688 0.31252274 -0.19763917
6239.Y110A7A.17a 0.08724717 -0.082309395 0.103902444 0.263893 0.052280262 -0.20187648 0.04963586 -0.18330184 -0.03792814 0.17528738 -0.04355566 -0.2956267 -0.0125246355 -0.24290171 -0.015008255 0.053267665 -0.22702472 -0.045632105 -0.014900703 0.29372683 0.28315613 0.32732356 0.06357585 -0.29513094 -0.3612423 0.26243144 -0.050454807 0.10640131 -0.013459853 -0.1394655 0.011095253 -0.104417935 -0.07377129 -0.11845532 -0.091421075 -0.031499833 -0.09408895 0.010857433 -0.46146053 0.025210315 0.21964589 0.047265068 -0.287469 0.022000462 -0.0015234039 -0.058362402 -0.28988993 0.092425324 0.1956126 -0.19826455 -0.08811447 -0.2056598 -0.03059599 0.13675243 -0.20660137 0.15587635 -0.055593494 -0.041104842 -0.14837994 0.0639966 -0.40341595 0.07498607 0.35465223 -0.06271769
