2968 32
6239.T27C10.6 0.04213666 -0.095829494 0.19790758 0.35147405 0.19676244 -0.17714868 0.004940843 -0.16732141 -0.40944573 -0.04058405 0.011527292 0.012732483 0.15655828 -0.17757368 0.100295015 0.23487759 -0.028039554 -0.17472282 -0.051853783 0.2848366 -0.020228146 0.4034691 0.118723884 -0.518637 0.005921309 0.18579869 -0.19639097 0.054210752 -0.21821667 -0.09527933 0.0201186 0.22679503
6239.T25C8.2.1 -0.09020038 -0.29039496 -0.2062501 0.06695145 0.034223035 -0.22400337 0.06399123 -0.08944902 -0.43681306 0.027342562 -0.06284204 -0.016325064 -0.021974336 -0.32557115 0.17564271 0.16761218 -0.11422449 -0.1471651 0.047236223 0.37634593 -0.01221733 -0.01970832 0.0005737558 -0.35965714 0.15045802 0.2827486 -0.3501371 -0.055588167 -0.020020757 -0.60214096 -0.037652433 0.11728864
6239.T07A9.6 0.35361058 -0.17348045 0.116313614 0.17454606 -0.21202533 -0.39246523 0.042770088 -0.4578734 -0.17806675 0.16543218 0.060709015 -0.08621352 0.01855273 0.19762014 0.00798126 0.0076149353 0.12748832 0.13812113 0.18123066 0.33820805 0.14265154 0.10927042 0.13696873 -0.5313714 -0.13503669 0.08352168 -0.4115768 0.054655723 -0.0009948589 -0.20621987 -0.08773969 0.49208656
6239.F43C1.2b 0.05019492 -0.0340072 0.31270427 0.16478993 -0.12619196 -0.34570667 0.24051373 -0.2145934 -0.47641528 0.109637626 0.16738386 -0.14464007 0.15204784 -0.2626021 0.16257012 0.022420106 -0.038582336 0.089604326 0.25418463 0.109317064 0.43329942 0.27729777 -0.045946177 -0.30387127 0.14582297 0.22308649 -0.48522475 -0.016893258 0.006400954 -0.24652311 -0.08203776 0.040789656
6239.T05G5.3.2 0.39545697 -0.0013304879 -0.0097860675 0.23458816 -0.13627802 -0.11282318 0.2524741 -0.514077 -0.17261581 0.113825 0.24198058 -0.10406266 0.265157 -0.027150448 0.09769478 -0.13139005 -0.3260506 -0.0080538895 0.18628405 0.36130694 -0.12244811 0.21616732 0.19102752 -0.52441657 -0.19357574 0.10870945 -0.4498223 0.16222009 -0.17479295 -0.077950105 -0.21821308 0.13362597
6239.F25B5.4a.2 -0.09116861 -0.3240931 -0.031092238 0.58732736 -0.6094191 0.027431864 -0.03731325 -0.31957978 -0.35226187 0.17000365 -0.17119826 -0.4098197 0.28796068 -0.18410456 0.18626632 0.25381765 0.14125536 -0.16642547 0.021918653 0.5326032 -0.08280379 0.31277317 -0.033801924 -0.4328936 0.035594262 -0.37115145 -0.22643769 0.08533534 0.13467629 -0.09331303 0.15015386 0.31499916
6239.C47E8.5.2 -0.1399184 -0.18043241 0.46688566 0.38644642 0.10723758 -0.3320723 0.17150879 -0.2540586 -0.41085532 0.16560137 0.09024733 -0.43178654 0.14321081 -0.15162942 0.22429422 0.08030145 -0.2399103 0.061485257 0.016541896 0.17045356 0.020587102 0.24473645 -0.10511298 -0.2963328 0.06694073 0.2220193 -0.26370654 0.14395727 0.07395438 -0.30254126 -0.11237517 0.000301257
6239.R13H8.1h 0.16526926 -0.44777578 0.37822697 0.08736479 0.22710398 -0.26893368 0.31595862 -0.25750667 -0.18754978 0.12337661 -0.18348844 -0.24217798 -0.0570334 0.009489486 -0.35890278 -0.10340678 -0.21522251 0.05523009 -0.044702984 0.14747934 0.32038817 0.3434703 -0.07669823 -0.5486545 -0.09026044 0.14071448 -0.15654342 -0.15362054 0.175982 -0.43401217 0.031690896 0.21346475
6239.ZK792.6 0.038359083 -0.03402966 0.11475332 0.30632588 -0.067139536 -0.113303244 0.13500176 0.015859628 -0.33243644 0.048608493 0.17369963 -0.02506114 0.021920737 0.012886267 0.092279255 0.2242106 -0.007721307 -0.0072289193 0.35108963 -0.13531947 0.4129849 0.15979585 -0.1315808 -0.74989647 0.14388555 0.014619753 -0.48910758 -0.20011899 -0.053658422 -0.19360903 -0.18447435 0.33015215
6239.Y55D5A.5a 0.08574552 -0.46252158 0.31722122 0.25711852 0.17787836 -0.38166785 0.19516464 -0.06585818 -0.18951756 -0.03522235 -0.15357952 -0.11150798 -0.025668206 -0.029432323 -0.24328467 -0.0628946 0.010828556 0.074874185 -0.05126203 0.2048985 0.34539783 0.30160338 -0.10220807 -0.56045973 -0.1796993 0.14002876 -0.1871517 -0.1626448 0.23270126 -0.37602898 0.06865905 0.28426465
6239.ZK1010.1 -0.09985503 -0.37331033 -0.050367605 0.72462505 -0.59307194 0.0988677 -0.008898522 -0.31498 -0.4073314 0.10428402 -0.2584253 -0.6272406 0.28466225 -0.13371134 0.22509778 0.23839524 0.15614434 -0.3559188 -0.024209483 0.65967524 -0.13808708 0.33522382 -0.057783104 -0.47285163 0.08938936 -0.29283637 -0.15563528 0.0025327343 0.10437245 0.033505656 0.12620914 0.19223315
6239.Y43C5A.6a 0.27231905 -0.062020678 -0.006794203 0.3204998 -0.21175118 -0.20989631 0.19484621 -0.26114798 -0.08434737 0.16722485 0.01745953 -0.19735745 0.19668627 0.15557335 -0.0011429341 0.0956248 -0.2572038 -0.22364119 0.14247592 0.3487201 -0.169425 -0.095577486 0.060127042 -0.786293 -0.23046191 0.22960651 -0.34473938 0.5721672 -0.36003897 -0.050778415 -0.16513361 -0.12500803
6239.Y43E12A.1 0.44786614 0.036055423 0.20493485 0.14247216 -0.35419175 -0.2641978 0.06266814 -0.46646675 -0.10817412 0.17305823 0.28053713 -0.19817872 -0.041809034 -0.034290634 0.14535561 -0.15895487 -0.22306122 -0.038311265 0.24692735 0.4811846 -0.0046328963 -0.13992584 0.30211073 -0.46965247 -0.2450937 0.09867847 -0.52280563 0.19280314 -0.208126 -0.058319196 -0.2860854 0.4116138
6239.B0218.3 0.064909555 -0.28867692 0.73198587 0.07830241 -0.10849973 -0.13573615 0.29529876 -0.110646375 -0.6517364 0.040807694 -0.06347467 -0.16202356 0.14859322 -0.3836074 -0.15187089 0.010983608 -0.1329686 0.24402553 0.41404885 0.034806337 0.3489777 0.080150075 -0.013154547 -0.34244046 0.12657474 0.27561352 -0.18372768 0.08126733 -0.046864994 -0.4620123 0.11561393 -0.1308464
6239.H31G24.4.2 0.4685434 0.032554943 0.11849953 0.20252295 -0.3093926 -0.2838055 0.091872245 -0.45802397 -0.16495539 0.21116237 0.34191135 -0.19317698 0.09197779 -0.02794536 0.18639988 -0.17687453 -0.23171802 -0.14895722 0.2535519 0.46371853 -0.003682357 -0.036530104 0.36628678 -0.5602965 -0.23585752 0.07920192 -0.43074784 0.14672425 -0.19026785 -0.041396927 -0.32755327 0.29097742
6239.C14B9.4b 0.3489939 0.12418849 -0.022763235 0.1376125 -0.26533365 -0.1075 0.052383713 -0.46582353 -0.20580506 0.0055694524 0.2917203 -0.04356405 0.20934805 -0.007397173 0.11330919 -0.14005598 -0.35388812 -0.142241 0.18241857 0.450636 -0.266076 -0.021592163 0.20910361 -0.6618119 -0.27746353 0.1510308 -0.55884796 0.11917145 -0.17391935 -0.019463632 -0.20525244 0.3239994
6239.ZK1067.1c 0.053140394 -0.37931508 -0.0866355 0.3052171 -0.09702112 -0.116407946 0.048279602 -0.1603105 -0.2686323 0.09589145 0.20247793 -0.16710173 0.085324846 -0.115061805 0.15300484 0.19043215 0.03960146 -0.047909394 0.35229948 0.2731563 0.681387 0.38664228 -0.051106907 -0.29150978 0.34036306 -0.078236334 -0.46017307 0.08236487 0.041013196 -0.12579052 0.057291858 0.40143692
6239.B0261.2a 0.34355903 -0.17196485 0.060252976 0.2180928 0.11970008 -0.17083204 0.36376765 -0.098824605 -0.4049214 0.06833924 0.15813889 -0.3426027 0.049024507 0.031331867 0.05053668 -0.12898155 0.13492608 -0.068358 -0.005034956 0.19497147 -0.081255086 0.19584997 -0.07709769 -0.8541549 0.023034958 -0.015238732 -0.14499654 0.018481638 0.15584522 -0.40110344 -0.07843153 0.18081954
6239.R07G3.1 -0.09223869 -0.17509238 -0.048180606 0.35790986 -0.008885493 -0.09307043 0.13909234 -0.14279538 -0.55741805 -0.31361142 0.11604006 0.048593022 0.08782686 -0.027614534 0.14373685 0.16112557 0.15768512 -0.116069645 0.24130519 0.19956434 0.2048269 0.19159359 0.1914374 -0.49314338 0.10955133 0.19265233 -0.49011025 -0.131046 0.029652245 -0.42427102 -0.011535233 0.36101478
6239.F26D10.3.1 -0.4928628 0.0333898 0.2717941 0.5364027 0.20318618 -0.120600514 0.19790363 -0.31991875 -0.5790323 0.21618517 -0.20724274 -0.43723798 0.14464137 -0.15454386 0.24871762 0.10766571 -0.09521186 -0.08825002 0.047000248 0.37717515 0.19624628 0.2671731 -0.023448203 -0.31067896 -0.030792711 -0.33403626 -0.5454801 0.39350477 -0.021356026 -0.2677895 0.1784846 -0.37874854
6239.R08C7.3.2 0.5303429 -0.006696699 -0.11972781 0.16337977 0.05321672 0.13989411 0.14019838 -0.41635135 -0.07603285 0.14282015 0.0361918 -0.47079736 0.20654914 -0.05671262 -0.021603521 -0.09464598 -0.44622737 0.07214401 0.14114997 0.33235678 -0.1392541 0.29094526 -0.17454958 -0.41662604 0.006961562 0.12277776 -0.39981204 0.35041562 -0.32954523 -0.20194018 -0.09062888 0.21547541
6239.F02A9.6 0.25658268 -0.042769145 0.19200554 0.046711065 -0.07045227 -0.202557 0.20206767 -0.1267274 -0.0946642 0.1459243 0.119781666 -0.13276133 -0.06266953 0.041010033 0.063511856 -0.12550263 0.035668727 -0.08058618 0.22068414 0.5799038 0.25717092 0.050533347 -0.15688175 -0.39132792 -0.26598728 0.13528301 -0.37986994 0.13894263 -0.2218942 -0.13589329 -0.12724066 0.6585016
6239.ZK177.6 0.44916302 0.03553553 0.0096942885 0.28172347 -0.24830344 -0.09778138 0.08462787 -0.44228965 -0.15526575 0.048131116 0.21143393 -0.24775343 0.31046745 -0.11082102 0.12833786 -0.2356578 -0.39338127 -0.0033120764 0.18263434 0.37511426 -0.307213 0.10145753 0.17761719 -0.5696246 -0.19613042 0.13131946 -0.512497 0.016938398 -0.21601774 0.04607451 -0.33557606 0.17111887
6239.F36A4.7 0.28396145 -0.057491295 0.24160515 0.4966377 0.0035717268 -0.17373939 -0.02668152 -0.10441238 -0.21582998 -0.15150703 -0.12428729 -0.6247372 -0.14634721 -0.15671682 0.008039931 -0.05867141 -0.23877786 -0.32442623 -0.08953836 0.20281528 -0.08592 0.11198541 -0.15176392 -0.42026287 -0.20546292 0.018096484 -0.41951057 0.24331276 -0.2891027 -0.13423714 0.027523888 -0.018112661
6239.D2021.1 0.09068241 -0.26683992 0.13679118 0.36987668 0.14756973 -0.0059125256 0.056584496 -0.17489693 -0.11966141 0.06463052 0.101053886 -0.51869 0.059627235 0.03851479 -0.047352947 -0.15565862 -0.36157987 -0.22483301 0.11440187 -0.013342683 -0.1563738 0.20273377 -0.06653556 -0.3711554 -0.13146245 0.29174656 -0.53662825 0.22910562 -0.4001968 -0.33870083 0.07522113 0.09135564
6239.ZC168.4.2 0.42268986 0.03889221 0.058745556 0.17166647 -0.26918688 -0.07047096 0.06986432 -0.52611184 -0.179494 0.24782774 0.31774393 -0.13371776 0.19379748 -0.20009388 0.08444101 -0.17948347 -0.2997475 -0.118504696 0.2941063 0.4149574 -0.08207418 0.031646643 0.24574175 -0.53567296 -0.2462766 0.118198894 -0.44985744 0.017957281 -0.2333393 -0.03794224 -0.32275087 0.2204614
6239.C09G12.8b -0.17703637 -0.054256946 -0.21984819 0.24388699 0.056067493 0.061433002 0.17394401 -0.09907405 -0.56508464 -0.45788747 -0.053063367 0.106529824 0.19130254 -0.21111491 0.12171227 0.14010464 0.15550579 -0.019302376 0.24716978 0.2838227 0.31881595 0.26503095 0.21877417 -0.5162989 0.17186774 0.27645248 -0.78026605 -0.14746763 0.18694384 -0.26390615 -0.1342202 0.25686914
6239.F11C3.3.1 -0.014044854 -0.40598568 0.049382366 -0.08799465 0.06989428 -0.37368414 0.02511771 -0.043213304 -0.38679564 -0.29162952 -0.116594926 0.14762266 -0.24908479 -0.3366851 0.25868297 0.24030498 -0.23019163 -0.291506 0.045738894 0.24833827 0.18698166 0.038348388 -0.2574049 -0.42093018 -0.07427021 0.04475978 -0.3596316 -0.14634633 -0.011678787 -0.37391663 0.010050443 0.14594115
6239.Y51H4A.3 -0.0028507127 -0.055092514 -0.01551578 0.35417882 0.02360154 -0.11021078 -0.046669137 -0.16730885 -0.58111507 -0.3372469 0.22571787 0.16881384 0.22505218 -0.1914552 0.18722889 0.21198179 0.118608676 -0.13385087 0.2578278 0.22152601 0.29773515 0.12675661 0.09903881 -0.4676155 0.10030122 0.2966389 -0.5041421 -0.10682272 0.09340757 -0.42721632 0.09773256 0.31634194
6239.C12D8.10b 0.19632438 -0.35232687 0.221878 0.20809893 0.08120633 -0.15965511 0.31178287 -0.379162 -0.33214697 0.13484797 0.034160182 0.0025409618 0.10178563 0.043869853 0.065430194 0.1331693 0.0365988 0.08282247 0.10357326 0.06311474 0.43672127 0.35547537 0.095947206 -0.58899474 -0.007233671 0.07285886 -0.17446604 0.07056299 0.10210548 -0.3237922 -0.026231674 0.3940188
6239.K05C4.6b -0.069812305 -0.16523317 0.43982175 0.27447653 -0.14398187 -0.093728736 0.15502445 -0.234066 -0.29187176 -0.13706599 0.305456 0.0030450716 0.22520767 -0.06598219 0.40200797 -0.1392403 -0.13402377 0.29700252 0.16401944 0.25296915 0.26564497 0.39535433 -0.3310946 -0.2933591 0.23602079 0.3253407 -0.5628458 0.32005626 0.14706072 -0.26011682 -0.014883204 0.09248148
6239.K12F2.1 -0.044974167 -0.4494972 0.047465943 -0.15365328 0.035470866 -0.49019232 0.19940019 -0.0594846 -0.27143043 -0.29487982 -0.0021321946 0.13703097 -0.34962803 -0.34564126 0.24052958 0.34199476 -0.22654629 -0.40568522 0.16931033 0.18885514 0.022711799 0.07434247 -0.16830586 -0.33164182 -0.15027362 -0.059102185 -0.36177868 -0.06460206 -0.13751149 -0.47062755 0.13118152 0.26476282
6239.M03D4.1c 0.23259299 0.0667745 -0.107584484 0.073621854 -0.14580344 -0.11777313 0.021411013 -0.45768654 -0.33434388 -0.005872148 0.26365456 0.014789338 0.34097424 0.004353735 0.082278535 -0.2088909 -0.35571244 -0.018012233 0.35551226 0.53829986 -0.3224495 0.03370841 0.10489131 -0.53099555 -0.22953846 0.14759271 -0.4892558 0.09062414 -0.24246709 -0.14350426 -0.02541702 0.3218263
6239.C09D1.1b 0.04208026 -0.17766955 0.047257334 0.10006404 -0.011346238 -0.22136211 0.1699308 -0.0136295445 -0.36178485 -0.21982317 0.037344314 0.15813069 -0.09884997 -0.36184865 0.35369197 0.3663704 -0.19215636 -0.26276767 0.21370983 0.07439603 0.178001 0.04959953 0.006762393 -0.3741096 0.09248199 0.15436853 -0.4307616 0.012221226 -0.1267552 -0.41100362 0.06349674 0.3058186
6239.C07H6.1 0.23004436 -0.18511303 0.2697976 0.22850442 -0.39228067 -0.11253139 0.23104373 -0.14132774 -0.11687009 0.15458512 -0.048559427 -0.14809364 0.24264692 -0.13499537 0.066119716 0.16624741 -0.16371642 -0.114454634 -0.08626056 0.2836188 -0.17886648 0.2349179 0.14172035 -0.5819943 -0.26700217 0.3094699 -0.22141223 0.55252236 0.12639898 -0.1412524 -0.15743898 0.23079993
6239.C07H6.5 0.5782073 0.07779917 0.350267 0.08723513 -0.016565397 -0.28854904 -0.22204496 -0.03711776 -0.43394879 0.29983193 -0.062486142 -0.31798434 0.10994492 0.18386355 0.26574057 -0.12830405 0.04517013 -0.2594489 -0.010069039 0.5052802 0.14522885 -0.06870581 0.06597078 -0.44771376 -0.3008214 -0.27126968 -0.4617396 0.20714977 -0.3692235 -0.14409241 -0.17683333 0.26229903
6239.B0207.4 0.31071556 0.21794337 -0.03784905 0.1687769 -0.14937514 -0.030055713 0.21424918 -0.5097623 -0.17300503 0.10253572 0.3013683 0.07431697 0.19106211 -0.22863278 0.05767554 -0.08550072 -0.49377075 -0.17493808 0.2325246 0.50954807 -0.1336154 -0.040109523 0.182333 -0.6649226 -0.12159021 0.2134608 -0.36602023 0.20951451 -0.2011992 0.000981823 -0.21800916 0.24578564
6239.T06E6.2a.2 0.4261644 -0.025870284 0.08239319 0.11410937 -0.19402947 -0.09538526 0.18151918 -0.5457509 -0.19773121 0.14472541 0.3426192 -0.17953 0.26004755 -0.15957634 0.02825433 -0.3240849 -0.32244685 -0.058748525 0.21395907 0.45191175 -0.22675619 0.10187963 0.16174695 -0.4883896 -0.1906133 0.03572298 -0.42669794 0.06344665 -0.25836885 -0.014692719 -0.3760048 0.2632323
6239.R11A8.4a 0.27047077 -0.3453232 0.14141797 0.20234364 0.21349497 -0.10605301 0.44583935 -0.28200436 -0.18596698 0.24626821 0.020572904 -0.41133845 0.025785394 0.11978323 -0.24814329 0.031448834 -0.18394633 -0.019779757 0.082869604 -0.041840293 0.052986745 0.3921347 -0.13877213 -0.5719799 -0.11366245 0.2878913 -0.41039163 0.39846838 0.10305817 -0.14950624 0.024047963 0.05980501
6239.C54D1.6 -0.08475331 -0.40603966 0.46299818 0.15455864 -0.19004203 -0.06739951 0.32439935 -0.15276982 -0.11341598 -0.048754442 0.16979441 0.053376 0.2411341 -0.30112275 0.26634994 -0.077353604 -0.22169119 0.15152937 0.07737848 0.19103612 0.32396877 0.2240327 -0.33453846 -0.22133707 0.29901066 0.26340815 -0.6375708 0.19574432 0.112355895 -0.30155835 0.043296885 -0.13212395
6239.T05C12.6a 0.2980317 -0.16349101 0.1751342 0.42394146 -0.076072134 0.043128867 -0.096027486 -0.29487127 0.032218404 -0.101167984 0.30686668 -0.0007538124 0.06278139 -0.07700962 0.20540845 0.035776224 -0.013755338 0.27715278 0.1672089 0.547627 -0.0355859 0.06841154 -0.1864572 -0.32636008 -0.06487488 0.07897797 -0.70873535 0.15167393 -0.115556635 0.024045045 0.008135796 0.32018173
6239.F28H6.1a 0.12501848 -0.29522714 0.27301356 0.16462657 0.14273302 -0.16078775 0.35044295 -0.44451383 -0.38844487 0.034411635 0.045637555 0.0031840287 0.08017464 0.041038115 -0.051556036 0.13026918 -0.0480911 0.09437664 0.051537428 0.1246531 0.44252205 0.34865835 0.07480815 -0.62524575 0.07160599 0.12829393 -0.0618109 0.008549223 0.086585626 -0.41432455 -0.065313146 0.4340132
6239.F26H9.6 -0.18452722 -0.41046152 -0.3180401 0.5439983 0.07517572 0.1908341 -0.037270624 0.19882435 -0.52309173 0.3869903 0.14437635 0.18501888 -0.08513328 -0.13887234 0.34415266 0.10095582 0.1695998 0.13007881 0.34326294 0.38973844 0.014506868 0.11278393 0.1916808 -0.5091155 0.18209939 -0.33572674 -0.48597515 0.15792608 0.25395223 -0.31355298 -0.039555814 0.42057687
6239.C32F10.2 0.4871713 -0.17957173 -0.044317227 0.07912825 -0.16744976 0.011854834 0.24812637 -0.19960104 -0.039195035 -0.1927571 0.14121231 -0.3724213 0.37393323 -0.10773563 0.15518537 -0.08831296 -0.4602939 0.16657038 -0.0025611403 0.2650939 -0.01961794 0.18628058 -0.09957753 -0.5885941 -0.37115994 0.10678111 -0.55181646 0.16270182 -0.1835233 0.08633471 -0.3447824 0.23303062
6239.F32D1.10 0.42022684 0.27173266 -0.031124882 0.2338214 -0.30516353 0.07570948 -0.10047139 -0.46685746 -0.15623333 0.08909066 0.23263541 -0.19827735 0.35861707 -0.19681603 -0.02190318 -0.12034718 -0.52011853 -0.07228101 0.12940286 0.4981417 -0.40799358 0.040126383 -0.031185888 -0.680874 -0.12580715 0.1600113 -0.4473557 0.25204843 -0.22001548 -0.025429167 -0.22230645 0.17339644
6239.F37A4.8 0.46657488 0.035856064 -0.061924364 0.25582162 -0.15152766 0.14094086 -0.0056112637 -0.37553373 -0.25952357 0.045675613 0.1416335 -0.48522305 0.21149014 -0.04331059 -0.1098768 -0.22853798 -0.3723432 -0.22004925 0.10876104 0.25964868 -0.13501106 0.2326758 -0.09311359 -0.5334245 -0.18085246 0.17055339 -0.4896893 0.50707424 -0.21432137 -0.14840175 -0.011217121 0.11085436
6239.F29B9.6 0.17327033 -0.088888034 0.09706243 0.32421494 -0.19665308 0.20172274 0.14277196 -0.5259832 -0.13281882 0.13645503 -0.069583505 -0.30404103 0.24287997 -0.13275985 -0.06877264 -0.046065394 -0.31666493 -0.4042518 0.04183143 0.48184285 -0.13144766 0.4615797 -0.0826355 -0.36540216 -0.20230778 0.12904814 -0.14778614 0.46399906 -0.054713476 -0.05961112 -0.19248672 0.4773241
6239.C02C6.1b -0.26943266 -0.38031685 -0.39913896 0.3426682 0.19591062 -0.05122701 0.040006902 0.013433681 -0.53579223 0.14812827 -0.05662586 -0.027257286 0.16774783 -0.26979586 0.20318656 0.3486743 0.19562162 0.1135906 0.13443848 0.44968295 0.06968915 0.33052462 0.38450179 -0.308694 0.058564413 -0.06025014 -0.6542507 0.24778165 0.16385262 -0.232832 0.10488183 0.14361833
6239.T12E12.4b.1 0.0049229953 -0.17055379 -0.19562615 0.4540566 0.23973809 -0.16606423 0.15541369 0.02819364 -0.5004799 0.13718352 -0.009923147 -0.018672135 0.14406173 -0.16059127 0.0859386 0.14045225 0.007113183 0.12553534 0.0012865441 0.38120928 -0.17475873 0.25375384 0.118511625 -0.35032743 -0.30087784 0.054825015 -0.50411963 0.34455183 0.052732904 -0.17150384 0.14689131 0.08222665
6239.K12H4.8 0.51675916 -0.20572726 0.3316977 -0.033720043 0.24175909 -0.10053939 -0.1797789 -0.004213357 -0.2826287 -0.07110581 -0.00709264 -0.42544225 0.39761248 0.07820773 0.010710459 0.07526462 -0.17708662 -0.033117734 0.054214004 0.15619452 -0.047147434 -0.03824565 -0.2126539 -0.4366346 -0.14716953 0.030453855 -0.47406435 0.47512284 -0.35322645 -0.20265383 -0.10946836 0.13485372
6239.ZK909.2c 0.49697506 -0.40347514 0.16776931 0.21108925 0.09953517 -0.20784299 0.1023762 0.025661856 -0.2705988 0.07647847 0.105099276 -0.024909537 -0.18266037 -0.3385762 0.15535538 0.39601874 -0.41324887 -0.03018488 0.108007655 0.15742272 0.34276304 0.1354568 0.051485837 -0.45109478 0.25796017 0.111883305 -0.2644552 -0.31009048 0.17815037 -0.21106584 0.063695036 0.05538549
6239.B0334.8 0.27738023 -0.28715643 0.10781483 0.23010164 -0.012370978 -0.35369864 0.24375096 -0.16769752 -0.30652723 -0.011728528 -0.02079648 -0.20933829 -0.14477566 0.13533618 -0.14477934 -0.031193428 0.13336681 0.09189724 0.098485224 0.23324956 0.17358841 0.23619215 0.051722653 -0.8767071 0.04826529 0.04636782 -0.107291974 0.015011158 0.18736228 -0.37103644 0.10997709 0.20449881
6239.K07C11.2.2 0.35879257 0.030510256 0.026725087 0.33029532 -0.29307157 -0.2144171 0.15142949 -0.49421522 -0.21263017 0.14880198 0.26016164 -0.040860165 0.26472455 -0.23816846 0.2672794 -0.13904822 -0.4514772 -0.14398625 0.11576939 0.46125737 -0.18391466 -0.024451764 0.35744625 -0.47302222 -0.25980148 0.13932374 -0.3357802 0.06849724 -0.1864761 -0.03145032 -0.26480275 0.26414776
6239.C48B6.6a 0.4024084 -0.15854532 0.1226387 0.27848256 0.1781861 -0.029498516 0.22077414 -0.041271143 -0.45394897 -0.03589257 0.12836865 -0.4658453 0.06330511 0.13974485 0.05986234 0.11416312 0.07900755 -0.2475256 0.19670054 0.2801576 -0.03371805 0.19779795 -0.17804372 -0.866724 0.0976624 -0.15638816 0.09602595 0.26788616 -0.056365747 -0.3833915 -0.23893405 0.060547344
6239.F42G8.3a 0.09790716 -0.17262197 0.6514699 0.15286554 -0.04476572 -0.21995547 0.18204992 -0.2825748 -0.70904005 0.040609818 0.17100531 -0.25409192 -0.0055410643 -0.2135711 0.24722832 -0.04458387 -0.13377418 0.106847584 0.40758452 0.08050026 0.30494127 0.3925272 -0.018819056 -0.35568306 0.25581643 0.21455365 -0.23098348 0.07565804 0.03473035 -0.34920338 -0.11970323 -0.26578638
6239.T04C12.5.1 0.14671914 -0.15718526 -0.45283094 0.252398 0.19376428 -0.18592681 0.050871458 -0.37496513 -0.5228692 0.057107426 -0.046864115 -0.11610088 -0.002954166 -0.14898531 0.34697336 -0.0045386176 -0.09221499 -0.2151623 0.045030285 0.5320386 -0.06734193 0.04826964 -0.015954498 -0.32781532 -0.007045609 0.20448586 -0.3165095 0.056555435 -0.1107911 -0.31859288 -0.21894425 0.2193543
6239.M117.2a.2 0.15090509 -0.09724607 0.10478715 0.43873712 0.153841 -0.22923748 0.077732906 -0.2901687 -0.3851656 0.21783403 0.25352612 -0.042419028 0.0986488 -0.08303953 0.20144172 0.09837353 -0.110077724 -0.20210202 -0.10966773 0.0874645 0.16371185 0.18053758 0.16184385 -0.59511685 -0.12986742 0.2586712 -0.22207037 -0.15724537 -0.11160224 -0.3535184 -0.06858116 0.29480878
6239.Y47G6A.8 0.4511054 0.07982273 -0.07724531 0.26849917 -0.13665673 -0.034388322 -0.0076996326 -0.39705697 -0.05135746 0.20154548 -0.082857594 -0.104046464 0.47525725 0.10636175 0.022059804 0.107269965 -0.303145 -0.013004104 0.14424904 0.50626504 -0.36919364 0.18816161 0.013935611 -0.7782138 -0.2418253 0.23420009 -0.37862438 0.41317242 -0.22238511 0.0038134328 -0.16315626 -0.11606311
6239.M7.5 -0.022343995 -0.40992245 0.37627244 0.21625243 -0.30490163 -0.12787904 0.52453536 -0.15309128 -0.62817556 0.46293417 -0.00819105 -0.35417712 0.20889416 -0.24554205 0.38716573 -0.10489224 -0.087710194 0.29920253 -0.30573857 0.15378243 -0.42342278 0.48168984 -0.14299609 -0.3808421 0.023429744 -0.06464125 -0.356759 0.3599913 0.5109118 -0.23693942 -0.09048431 0.016871996
6239.Y39G10AR.14.1 0.3151 0.15637626 -0.12676516 0.20944136 -0.22942626 -0.15597762 0.07118545 -0.5339011 -0.23741053 0.11750822 0.20123103 -0.25255072 0.42108014 -0.029606307 -0.05459062 -0.09980142 -0.4445221 -0.13651505 0.122868344 0.5135667 -0.32559946 0.016033387 0.023138812 -0.6607485 -0.13936025 0.12139552 -0.42952693 0.35778898 -0.2595845 0.06571042 -0.1418731 0.16754231
6239.F52D10.3a.1 0.11499602 -0.10563931 0.14121704 0.33087707 0.20711648 -0.28954887 0.1442477 -0.30969873 -0.3643008 0.07397595 0.121854864 -0.17149621 0.0493546 -0.17106669 0.21362719 0.10362629 -0.26489916 -0.16686231 -0.0381194 0.085270554 0.2377914 0.120272286 0.10807055 -0.60612696 -0.05546755 0.16930048 -0.23241235 -0.14670269 -0.104422145 -0.18450272 -0.11203741 0.24303837
6239.K12C11.2 0.2550288 -0.09645186 0.062068045 0.29108906 -0.25929537 0.16852255 0.3191589 -0.43121782 -0.1581711 0.26996073 -0.03930194 -0.35341674 0.19974814 -0.25880504 -0.06052992 0.06893659 -0.30773342 -0.33193558 0.027136873 0.47835156 -0.15521087 0.372181 -0.16806844 -0.4577803 -0.31562155 0.12828487 -0.18622367 0.4410705 0.10795863 -0.09974624 0.07910181 0.18849507
6239.F25H5.4a.1 -0.22061896 0.08600755 0.6756871 0.48158744 -0.05440741 -0.3248253 0.21369213 -0.053554945 -0.46413022 0.15080355 -0.10271786 -0.4651774 0.26684555 0.1469794 0.38136446 0.11255804 -0.2536531 -0.16738716 0.0062776096 0.47381622 -0.027167771 0.11842073 -0.22905114 -0.267346 0.163792 -0.04086035 -0.3225129 0.09008477 -0.20489572 -0.5284441 0.0018844557 -0.42156076
6239.Y49E10.14a.2 0.39004037 0.22226764 0.21315852 -0.026572978 -0.1587867 -0.46413612 -0.11210488 -0.23175031 -0.2629729 0.3881137 0.13909873 -0.07783612 0.031517025 0.0912421 0.21758153 -0.32443723 -0.10844552 -0.11372103 0.13447887 0.5903948 0.080253355 -0.05438863 0.078053355 -0.48997533 -0.37307334 0.1019059 -0.5615662 0.08081826 -0.22560473 -0.013392247 -0.37464014 0.4983872
6239.Y18D10A.5 0.21365304 -0.35324785 0.31965822 0.480465 -0.059063092 0.039204802 0.39709035 -0.36117765 -0.20016281 0.13297373 0.24524257 0.041937087 0.2228538 -0.18899442 0.26445693 0.019970277 -0.120639525 0.019874025 0.033058178 0.10966225 0.24897331 0.35456014 0.005835765 -0.28499895 0.031530328 0.19485845 -0.39720476 -0.07439243 0.12330258 -0.15838337 -0.0641212 0.3390928
6239.F38H4.9.2 0.2719317 -0.13280764 0.16091792 0.48697895 0.020201202 -0.208199 0.48032433 -0.26319623 -0.27356195 -0.015402573 0.14224336 -0.14776611 0.13736704 -0.21512559 0.35383257 -0.18643157 -0.16615056 -0.09131842 -0.13125357 0.07398735 0.056605607 0.16989622 0.13784632 -0.5174866 0.0039864667 0.11041525 -0.4071073 -0.3070945 -0.19813257 -0.09375765 -0.031397782 0.18902388
6239.F18H3.5b 0.41781586 -0.21026161 0.21240242 0.3147308 -0.04402137 -0.11636757 0.27570716 -0.41668987 -0.14065704 -0.073079504 0.36068028 -0.26750225 0.24035528 -0.02181968 0.10824397 -0.06710782 -0.29080537 -0.04922795 0.19001861 0.07216397 0.03849346 0.25430268 0.1692645 -0.63700825 0.05748502 0.13080026 -0.24540298 0.06583656 -0.27482817 -0.05879801 -0.3745095 0.14062308
6239.Y67D8C.5h 0.041102644 -0.13337469 0.4917621 0.44751742 -0.5875324 -0.0031802063 0.09449718 -0.039864898 -0.6991222 0.0898282 -0.013035137 -0.43308073 0.26659244 -0.32854062 0.47189844 -0.19376145 -0.12927787 -0.0122930845 -0.13810226 -0.04453913 -0.10898185 0.44525272 -0.37581402 -0.28015918 -0.09777511 0.009147722 -0.38002595 0.3922936 0.26797253 -0.27728498 -0.025200542 0.111116774
6239.T06E4.3a 0.39163497 -0.09782933 -0.01995183 0.21599153 -0.22097951 -0.08731587 0.31420127 -0.064957984 -0.3205259 0.046641897 0.105365045 -0.44795173 0.17821817 -0.0017415906 0.10271539 -0.067407966 0.014848758 -0.28033292 0.23061821 0.2544923 -0.08284983 0.08351673 0.022017714 -1.0349654 -0.049474094 0.13427477 -0.17063713 0.4562077 -0.05598638 0.006890999 -0.030072244 0.009822508
6239.M142.1c -0.05969703 -0.27276522 0.0763963 -0.0065106535 0.058748152 -0.40804428 0.15255198 0.3139598 -0.019785091 -0.16939603 0.022965576 0.0020968865 -0.118771605 -0.124722034 0.1110223 -0.051403195 -0.2744885 -0.035331246 0.28952286 0.5106628 0.16617277 0.107042335 -0.08149875 -0.43336365 -0.3536054 -0.032497857 -0.43684787 -0.10896753 0.11966762 -0.059098613 -0.34288862 0.53911924
6239.Y71F9B.7 0.27121934 0.02405607 0.045631368 0.12376457 -0.2637758 -0.26517057 0.16338474 -0.29977947 -0.24240018 0.062214 0.36164457 -0.15039492 0.27460814 -0.113739684 0.058726333 -0.19436486 -0.3005414 -0.3336127 0.24906039 0.42998672 -0.13878912 -0.1560433 0.32440177 -0.6591744 -0.16302647 0.10347324 -0.49383622 0.26249406 -0.30338526 0.14317094 -0.14578617 0.26775265
6239.B0025.1a 0.269194 -0.39528257 -0.03611481 0.17926532 0.23938388 -0.045671172 0.31216162 0.002435929 -0.5552366 0.15859184 0.2290025 -0.24908699 -0.06267314 -0.14680931 0.13390578 0.07854903 0.31142214 0.1229901 -0.036313213 0.39890903 -0.39217833 0.21569178 0.21326405 -0.8542006 0.20165063 -0.088867776 -0.12482437 0.16342697 0.23274532 -0.2983739 -0.013485106 0.228222
6239.B0350.2f.2 -0.059902776 -0.031856906 -0.05723227 0.14996023 -0.08062484 -0.23080602 -0.0010393438 0.3334061 -0.27995697 -0.096344426 0.28209615 -0.076898955 0.03397667 -0.46271306 0.15187149 0.09793311 -0.27728635 -0.22066884 0.21917355 0.17124365 -0.012576998 0.2795981 0.046809167 -0.47438797 0.16003162 0.015287582 -0.30695838 0.019186547 0.019047659 -0.4281676 -0.119399816 0.37605128
6239.C06A1.1 -0.38521272 -0.030914342 0.6563615 0.35889593 -0.262842 -0.18680757 0.06357053 -0.31522164 -0.78188396 0.20597336 0.18281455 -0.45646578 0.07857877 -0.24150158 0.22216971 0.17546445 -0.2718596 -0.13390079 -0.086199604 0.29644653 -0.32117096 0.014373589 -0.102287576 -0.31960478 -0.108322844 0.014743099 -0.50580716 0.327195 0.06612712 0.05112694 -0.07321966 -0.09538488
6239.F43E2.8.1 -0.3472996 -0.10345891 0.40337107 0.41370365 0.3991423 -0.28146398 0.19776444 -0.23124766 -0.48179168 0.2841219 -0.02923832 -0.42168918 0.15372944 -0.06151696 -0.19477972 0.54400134 -0.29050615 -0.025148232 -0.22822222 0.14688563 -0.116415694 -0.08011614 0.09370615 -0.3126708 0.009601559 -0.09244854 -0.37049082 0.29631442 0.08845604 -0.35361665 -0.087610245 0.3173006
6239.T21H3.3 0.15935168 -0.23710045 0.07767868 0.18481563 0.2009197 -0.38176924 0.0019333471 0.026117414 -0.66108125 0.011129361 0.084882066 0.118918024 -0.18819048 -0.2306596 0.22141875 0.3003792 -0.30518684 -0.13244176 0.12297803 0.39646533 -0.005067535 0.33992815 0.17686984 -0.38531646 0.16325755 0.3715821 -0.14077684 -0.2679638 -0.050955538 -0.23760247 0.21580736 0.071130745
6239.C44C11.1a 0.2398216 -0.41418886 0.04194947 0.23694484 0.05700773 -0.21133488 0.11890641 -0.06525892 -0.30556443 -0.16199891 0.24119553 0.014774679 -0.096806265 -0.20801646 0.19981703 0.19903527 -0.0118764285 -0.28285915 0.2909276 -0.030930636 0.29560345 0.03466326 0.15628192 -0.6371418 0.2836296 0.093873 -0.34877595 -0.1386396 0.032877743 -0.42295194 0.07063454 0.16596554
6239.F38A6.1a 0.16401581 -0.5341285 0.2715996 -0.14704424 0.27366313 -0.117753886 0.36963153 -0.21997598 0.11587838 0.12543777 0.30270058 -0.30555683 -0.088205166 -0.15649195 -0.2535757 -0.2026058 -0.010840435 -0.2609391 0.009960259 0.34713167 0.22928065 0.537309 -0.36840427 -0.38474214 -0.02473317 0.07048003 -0.34019536 -0.06975799 -0.096175425 -0.2427058 -0.22380574 0.427376
6239.B0478.1a 0.050545555 -0.41907188 0.3401595 -0.020416433 0.114974014 -0.04615479 0.32282493 -0.28212482 -0.31148198 0.029596133 0.05417861 0.07815095 0.23760414 0.054290783 -0.034056164 0.26822177 -0.19668458 -0.010775284 0.2137631 0.07458708 0.33619472 0.45754296 0.22770546 -0.47215992 0.04597195 -0.018001456 -0.31997743 0.0024784785 0.08458199 -0.34826064 -0.022762353 0.34590602
6239.T20G5.1 -0.32146928 -0.27579838 -0.25954777 0.55271333 0.29648226 -0.08031276 -0.099484324 0.079589725 -0.7639536 0.1412139 0.19214195 -0.03442772 0.1366549 -0.28535578 0.18638359 -0.032908563 0.143486 0.0061496273 0.08763022 0.28021023 0.027933933 0.041636005 0.13979523 -0.38216293 0.046935875 -0.3951357 -0.58388174 0.27513397 0.014550959 -0.20428841 0.12731515 0.26526305
6239.C33B4.3c -0.0022234637 -0.18363287 0.14428066 0.22877395 0.09108941 -0.1080371 -0.024434036 -0.0047818236 -0.36393774 -0.1696635 0.025280403 0.041358814 0.0093309535 -0.43516427 0.2136611 0.22831815 -0.14513667 -0.28890032 0.1601414 0.15128016 0.08371196 0.4194905 0.1894981 -0.45592386 0.21239209 0.22175886 -0.2703258 0.062338952 -0.12909694 -0.11540359 0.0062214504 0.30428824
6239.F23B12.8b 0.172528 -0.066122286 -0.16901644 0.06283532 -0.08056017 -0.30537036 -0.053276926 -0.32820135 -0.12054893 -0.14612159 0.5181156 -0.049141657 0.4850527 -0.13498896 0.10456784 -0.24992707 -0.63159364 -0.1653978 0.42616472 0.36456048 -0.29063204 -0.062763184 0.17454962 -0.7359251 -0.14003782 0.07648217 -0.37919495 0.09434867 -0.28653565 -0.05092786 -0.043892242 0.2760479
6239.C02F4.2c 0.2860133 -0.14225934 0.12224118 0.36742285 0.30097148 -0.16718654 0.11635671 -0.08637375 -0.35547188 0.027353695 -0.09836464 -0.0037477375 -0.27172834 -0.5667902 0.19352992 0.22826177 -0.3440312 -0.12468043 0.04591025 0.030549543 -0.039238743 0.43205988 0.085091636 -0.49716774 0.20921414 0.3113225 -0.33204335 -0.36423856 -0.11789153 -0.02453545 0.13602084 -0.018801907
6239.K07C5.1 -0.46565586 -0.08637997 -0.17313278 0.30895334 -0.07978605 -0.41158843 -0.085286945 -0.25888535 -0.7935853 -0.03716566 -3.2650358e-05 -0.2856224 -0.13517389 -0.41118237 0.46396214 -0.18642434 0.0471702 -0.06458051 0.25663128 0.43172663 0.18499 0.31676558 -0.06560542 -0.23452817 0.18034564 -0.0042948555 -0.5259097 0.2736078 0.09723046 -0.323567 -0.02349436 -0.16971065
6239.K06A5.7.1 0.46686953 -0.11961982 0.3444332 0.17697087 -0.59218955 -0.170806 0.13103074 -0.47894257 -0.28984407 0.16001199 0.13077945 -0.08852067 0.14528815 -0.046228107 -0.008204751 -0.30090502 -0.13669583 0.024219949 0.094047874 0.44850263 0.20016688 -0.23982745 0.19914354 -0.50244427 -0.40880945 0.09431516 -0.417699 0.06497902 -0.17775314 -0.11308703 -0.21721457 0.33394843
6239.F52E1.1 0.54795873 0.12092394 0.27183136 -0.0560957 -0.30466244 -0.31485894 -0.33803925 -0.3575314 -0.22753423 0.50527143 -0.0336075 -0.0972799 -0.01857036 0.09997013 0.21934314 -0.24669695 -0.05744934 0.069204226 0.114759 0.64467305 -0.024002237 -0.2107816 -0.016893521 -0.33439612 -0.47659346 -0.04489658 -0.67490673 0.13986006 -0.36478332 -0.1687201 -0.23981135 0.48020315
6239.R07E4.6c 0.47500002 -0.21978155 0.1695785 0.26079455 0.35297376 -0.44729638 -0.20084132 0.08095623 -0.35940608 0.12321143 -0.09680932 -0.08406842 -0.28090537 -0.49998203 0.18724428 0.22464153 -0.16461267 -0.17578508 0.13361265 -0.0046072295 0.010736042 0.21420169 0.008290056 -0.4502221 0.039705392 0.3479147 -0.3685518 -0.29782972 0.009787098 -0.06037183 0.0075325314 -0.00618482
6239.C27A2.6 0.28017208 0.016509283 0.048469633 0.3703567 -0.1540476 0.23149186 -0.0025921192 -0.56858927 -0.13982402 -0.05762827 0.3639425 0.22259617 0.49530366 -0.035015866 0.341385 -0.17346874 -0.24528404 0.17284857 0.17874053 0.70365125 0.009797631 0.2074323 -0.19986495 -0.38209748 0.0444013 0.19086131 -0.651421 -0.09536572 -0.09484219 0.12755185 -0.029706249 0.40957206
6239.K07A9.2 0.08957966 -0.45604402 0.08716585 0.0758498 0.19423655 -0.32532656 0.16859306 -0.07047484 -0.3477636 0.03660059 0.13474298 0.11218513 -0.22572611 -0.09748795 0.17126875 0.31763667 -0.21155329 -0.029763818 0.27461672 0.21397866 0.17401315 0.59645474 0.12088498 -0.41638955 0.15025151 0.096030615 -0.32945207 -0.17582014 -0.011750653 -0.23972279 0.17791967 0.048267767
6239.K03D3.10 -0.2688495 -0.043126173 -0.17802164 0.16767068 0.0018372866 -0.15842608 -0.009992968 -0.25683668 -0.73653847 -0.39740545 0.114940874 0.17394717 0.17166375 -0.27541348 0.090459354 0.12925546 0.23458096 -0.13495766 0.34967065 0.20163792 0.24610414 0.20641287 0.15366529 -0.60115033 0.18238427 0.30472183 -0.5746979 -0.18070671 0.112596 -0.36489782 -0.042900693 0.3379637
6239.Y105E8B.1a -0.10271206 -0.31710356 -0.14725195 0.008427457 0.025003232 -0.34399536 0.112117976 -0.22574015 -0.4264316 0.07789358 -0.13434678 0.06949009 -0.21006605 -0.48195493 0.30050963 0.18271491 -0.23564212 -0.45056906 0.14889115 0.21217251 -0.036290705 -0.084540844 -0.35192794 -0.27972767 0.09524792 -0.04809669 -0.23252085 -0.08453232 -0.24137898 -0.69105864 -0.043655057 0.023420276
6239.C26D10.2a 0.38141936 0.26161766 0.27331993 0.3835115 0.16472758 0.16384307 0.0045364695 -0.25600746 -0.3073637 0.1843369 0.050902467 -0.3144019 0.37432483 0.09896895 0.13546887 -0.051019207 -0.34996393 -0.43431428 -0.121158205 0.52270776 -0.115499474 0.06391515 -0.12985343 -0.36100906 -0.029389432 -0.25772992 -0.41917214 0.28709537 -0.46104974 -0.3951433 -0.050686635 -0.05598206
6239.ZC477.9a -0.23826396 -0.21386792 0.2515442 -0.21718659 -0.25900134 -0.27962026 0.16044433 -0.13217844 -0.7083967 -0.2860183 -0.11039906 0.054001253 -0.13018748 -0.39619988 0.7412422 0.19326289 -0.10659532 0.0005325556 0.28710714 0.16436884 0.01131957 0.41747716 -0.32618815 -0.10735972 0.39226592 0.19975765 -0.49804217 0.28951463 -0.052116495 -0.7218105 -0.087375805 -0.1634365
6239.F26B1.3 0.3714951 0.20454168 0.11267193 0.16734484 -0.24570276 -0.24309735 0.004400217 -0.43977416 -0.2873009 0.26961902 0.091216326 -0.09928294 -0.003724402 0.104776934 -0.031390727 -0.12412298 -0.27606618 -0.12397349 0.10028454 0.7129017 -0.17799434 -0.122156024 0.24541916 -0.20413037 -0.17037836 0.12389358 -0.6621006 0.33736455 -0.26090676 -0.16054244 -0.17039181 0.2826107
6239.R06C1.1.1 0.40233687 -0.17622887 0.10870173 0.19713041 0.2537359 0.2679412 0.15044904 -0.43786395 -0.12132307 0.0726054 0.20789786 -0.48490605 0.02765425 -0.07953111 -0.15559073 -0.18017371 -0.43299577 -0.11126004 0.13033101 0.11683669 0.036978643 0.4032778 -0.104572624 -0.46211907 -0.085560285 0.10638824 -0.40601912 0.38048255 -0.32585204 -0.2300332 0.109462015 0.23817247
6239.K03E5.3 0.3059767 -0.1370903 0.17900938 0.30598944 -0.09954907 -0.12458669 0.22915946 -0.32159826 -0.22343518 -0.068254575 0.3172858 -0.20304313 0.27058232 -0.124352895 0.24211097 -0.06594846 -0.3177633 -0.3098594 0.10602364 0.10080595 0.042271864 0.18369628 0.2864938 -0.65199447 -0.06713951 0.16859454 -0.26685813 0.22854935 -0.14283843 -0.095884584 -0.37056762 0.080236845
6239.D2045.6 0.29520902 -0.25725555 0.13633823 0.6002782 -0.5099905 0.13797092 0.31193057 -0.22648449 -0.28176916 0.03472866 0.077237025 -0.46772778 0.43480432 -0.4959203 0.28791204 -0.111183435 -0.2377044 -0.18341976 -0.2036499 0.11116786 -0.11937414 0.26247174 0.0024580418 -0.36845407 -0.2735089 0.14655879 -0.3692032 0.01822121 0.21268639 -0.019003302 -0.28465712 0.3316948
6239.W02A2.7 0.5015937 0.18275723 0.31282893 0.09805958 -0.23212641 -0.5203435 -0.3171904 -0.3363851 -0.24378039 0.49952975 0.07585688 -0.16057788 0.1197965 0.03135176 0.26093498 -0.3559051 0.090453625 -0.05015476 0.18528096 0.6443415 0.07138136 -0.06713121 0.14857942 -0.35405117 -0.3548769 0.029095203 -0.6521336 0.031246202 -0.31225872 0.05989771 -0.38965607 0.45502073
6239.C37H5.8 -0.32165298 -0.37122872 0.22607031 0.5002135 0.24052516 -0.36548546 0.31586185 -0.1011941 -0.24262531 0.36147097 -0.053742714 -0.5318653 0.26759318 0.123618 -0.0010760541 0.32998982 -0.26174182 -0.098510146 -0.25220513 0.20608802 -0.123677224 0.12368456 0.18897581 -0.29848987 -0.20523189 0.11061585 -0.30779785 0.13894682 -0.18649605 -0.5219399 -0.021861527 0.04316318
6239.C35C5.4 -0.15911978 0.002041604 -0.16256908 0.20051545 -0.045456495 -0.084677555 0.19879125 -0.03051881 -0.4721102 -0.46421525 0.16838804 0.17681667 0.103914954 -0.28381568 0.1389898 0.117139086 0.07947051 -0.069140434 0.20052007 0.30015108 0.3565475 0.10349535 0.22543176 -0.49279067 0.1296603 0.16454546 -0.7465122 -0.11652841 0.0019862966 -0.30773473 -0.1728944 0.2818275
6239.ZK524.2d 0.15745826 -0.3442205 0.03692294 -0.0009995023 -0.07124282 -0.3807465 -0.08452406 0.34497815 -0.2675036 -0.09990894 -0.10821261 0.2704763 -0.3369836 -0.45006913 0.26261875 0.35516354 -0.4489144 -0.0985052 0.21559955 0.28525206 0.14703724 0.38196236 0.09880798 -0.34292027 -0.036578935 -0.28298038 -0.44605765 -0.16358462 0.0925756 -0.115214735 0.076498166 0.18999024
6239.F31E3.3 0.3189034 0.08590304 0.006529263 0.45518827 -0.40189222 -0.0021719076 -0.020260641 -0.47325566 -0.050518423 0.120338656 0.031954344 -0.16060145 0.2544027 0.0042428277 -0.013354218 0.009462707 -0.4388946 -0.017443119 0.17877693 0.6173716 -0.34124416 0.056139387 0.06995866 -0.6420287 -0.21934445 0.09840623 -0.36053523 0.49960867 -0.25342155 -0.0021932218 -0.20520477 -0.08491718
6239.AH6.5 0.6764237 0.25169918 0.29251042 0.16375388 -0.32398632 -0.42554256 -0.22153965 -0.3662606 -0.19253454 0.428708 0.025677653 -0.028424166 0.1064526 0.10360662 0.18796398 -0.3360446 0.087267876 -0.06591807 0.25095046 0.6506544 0.052310362 -0.15911442 0.09943506 -0.39650065 -0.33632985 -0.04996382 -0.7200632 0.13531482 -0.29433846 0.10253117 -0.2957184 0.45008457
6239.W03C9.3.2 -0.14514177 -0.4778785 -0.06543895 0.32742742 0.22244185 0.006504745 0.13389118 0.31707835 -0.621111 0.12751321 0.22109735 0.18798815 0.041265972 -0.18487617 0.117651336 0.053782865 0.2235986 0.21703446 0.06191997 0.46150616 -0.24982421 -0.0021089758 0.21257931 -0.6175236 0.08165279 -0.26898503 -0.34670168 0.21251081 0.33938593 -0.3978396 -0.27174413 0.22285694
6239.ZC513.6 0.61829686 0.20924398 0.3318744 0.048356548 -0.263387 -0.47267565 -0.2780924 -0.29243243 -0.1745125 0.55912775 0.09857733 -0.12506002 -0.061392292 0.049361244 0.18472119 -0.11535508 0.12564234 -0.037556544 0.1270344 0.5473308 0.12617078 -0.044810917 0.06693457 -0.34077442 -0.34810707 0.015207008 -0.7435984 0.28242734 -0.30363846 0.07539223 -0.34558722 0.39369258
6239.K07A1.12 0.45301723 -0.06798214 -0.1811625 0.15037972 0.008350657 0.26182905 0.027575951 -0.3574085 -0.06062998 0.07736212 0.12486703 -0.39911819 0.24717079 -0.03232797 0.093661994 -0.10305946 -0.7751746 0.16402766 0.16206425 0.3828527 -0.19812736 0.21243155 -0.18614076 -0.42123356 -0.27514276 0.041676078 -0.51205534 0.27131644 -0.2649775 -0.16441391 -0.10905809 0.20065592
6239.C37A2.4a 0.45272946 -0.009998393 0.18850161 0.12175649 -0.21566077 -0.16587499 0.044018008 -0.39263946 -0.123893075 0.048479497 0.2545543 -0.22906737 0.26688376 0.090982385 0.15308923 -0.16071479 -0.27338135 -0.11622845 0.14915541 0.371332 0.20644121 0.076880515 0.06576263 -0.54408175 -0.23900428 0.08377507 -0.4553082 0.061036635 -0.18937668 -0.049353823 -0.3207712 0.4043891
6239.K01A6.2a 0.062117405 -0.18814076 0.033113938 0.5617096 -0.12716226 -0.17067434 -0.08337541 0.047366414 -0.36508906 -0.25774434 0.024926877 0.18002963 0.066476434 -0.0037771272 0.38215992 0.27439237 -0.080838755 -0.16603467 0.10321055 0.26450548 0.058869697 0.53285444 -0.05881154 -0.3650833 0.05106468 0.2240541 -0.20577861 0.08360441 -0.11681336 -0.33659297 0.070016295 0.27633137
6239.C41C4.8.2 -0.4658735 -0.12513746 0.64639354 0.36837748 -0.22880721 -0.18469018 0.02938752 -0.41728836 -0.78475136 0.170769 0.06590655 -0.3248544 0.03769536 -0.2804095 0.27592927 0.14700465 -0.29912934 -0.048429307 -0.20961593 0.30141866 -0.38851166 0.119127244 -0.15630679 -0.27103564 -0.0554745 0.034663428 -0.42412904 0.37506992 0.13815655 -0.052878294 -0.06315427 -0.0761038
6239.F53G12.5b 0.5036489 0.028083447 0.44716105 0.21637692 -0.6193682 -0.29173502 -0.263283 -0.0031141515 -0.1942089 0.5284037 -0.034688007 -0.23696746 0.29786864 -0.16815194 0.30940616 -0.27050668 0.11747941 -0.22372478 -0.0789779 0.3243843 0.061185054 0.1088411 -0.0113579 -0.27152106 -0.6183374 -0.09035257 -0.6196906 0.031401068 0.017138641 -0.08138065 -0.27935216 0.56089884
6239.F17E5.1a 0.07770046 -0.28594032 0.09106541 0.26536977 -0.24361703 -0.16856615 0.13020596 0.19395709 -0.2286472 -0.13543928 0.03893033 0.31596953 -0.03045384 -0.070436634 0.4982694 0.37419516 -0.3188916 -0.24903235 0.2539076 0.18642098 0.22029294 0.58737826 -0.04116944 -0.35512742 0.11029445 0.012551051 -0.3410397 0.10137452 -0.22339568 -0.15678589 0.17904124 0.14522177
6239.F44F4.2.1 0.44415674 0.23387395 0.4272744 0.22091597 -0.19636619 -0.19198982 -0.13002409 -0.389947 -0.25394565 0.20054388 0.074256614 -0.021002574 -0.17690527 0.017635845 0.23582013 -0.10349863 0.12632996 -0.10150817 0.20869417 0.6898611 0.18732259 0.014938149 0.17112446 -0.4085775 -0.31122917 0.0009570949 -0.46990323 0.22142994 -0.36273143 -0.12848043 -0.19543076 0.32334784
6239.F48E8.5.2 0.35689497 -0.035251264 0.13088599 0.44384706 0.04853217 -0.30028462 -0.024672654 -0.097336635 -0.46306604 0.5893774 0.16507822 -0.1733491 0.3190587 0.020649903 0.5329978 -0.39592645 -0.18344864 -0.2694686 -0.35175535 0.09693279 0.19596046 0.022869674 0.032816637 -0.5485532 -0.040955372 -0.015739257 -0.5969644 -0.37351936 -0.13524957 0.009757751 -0.32890818 0.14551806
6239.F58A3.2c 0.14735398 -0.2024496 0.07115358 -0.13683341 -0.2123651 -0.30258998 0.22464171 -0.020929407 0.25697878 -0.1899881 0.015432379 0.10948015 0.055827674 -0.3574596 0.14486608 0.3374923 0.011241447 -0.23912112 0.21372257 0.16036102 0.45788577 0.35884374 -0.07015059 -0.44125947 0.34231836 -0.20019749 -0.6152754 -0.019348074 -0.13318817 -0.3557486 0.13615432 0.38854492
6239.T04C12.6.2 -0.07508314 -0.27146918 -0.32792178 0.17615028 0.27411574 -0.35420015 0.03869779 -0.3222072 -0.625166 -0.086715266 0.110672265 -0.2330768 -0.09666071 -0.33547503 0.27368852 0.102077685 -0.10173562 -0.29756752 0.0740859 0.39101726 0.047828253 0.09491637 0.0011184833 -0.24757838 0.059935115 0.21939643 -0.33513004 0.115731664 -0.1439398 -0.3590854 -0.06506168 0.099368885
6239.K12D12.1 0.22114778 0.013043727 -0.19059005 0.25423205 -0.06877322 -0.08811314 0.039837737 -0.33226264 -0.37376055 -0.0050924127 0.21489075 -0.23580065 0.48241103 0.093570665 -0.033698652 -0.10745383 -0.56398225 -0.072007 -0.029770505 0.4210291 -0.4086328 0.09990635 -0.090649985 -0.7095135 -0.115256846 0.21230254 -0.46068928 0.3748887 -0.340735 0.08219267 -0.018977264 -0.022978533
6239.R06C7.8 0.31637082 -0.0048676394 -0.13163605 0.21645008 -0.2279289 -0.22156455 0.23078357 -0.44180945 -0.18694402 -0.02112996 0.3079062 -0.039206166 0.37559718 -0.008562468 0.08422896 -0.31543297 -0.6007248 -0.052314248 0.24242522 0.50395143 -0.35915378 -0.005860965 0.29184833 -0.7789417 -0.16644204 0.048027705 -0.37979582 0.1770603 -0.2302829 0.016251633 -0.030600224 0.08638446
6239.W06B3.2c 0.42443237 -0.30091864 0.1789466 -0.016832624 0.0011179793 -0.3084831 0.19233693 -0.09451639 -0.3521113 0.14026459 0.094810225 -0.1667588 -0.21264693 -0.3872089 0.14952524 0.16322157 -0.050991178 -0.119037285 0.34803316 -0.04907312 0.16348007 0.065824956 0.16673315 -0.49996474 0.291415 0.2597225 -0.27741244 -0.17150407 -0.17800318 -0.37939683 -0.029748451 0.10047543
6239.Y53C12A.1 0.49125558 0.0036907322 -0.0070096087 0.21110122 -0.33026382 -0.38653472 0.117155805 -0.42453563 -0.3765943 0.05872164 0.25798446 -0.09849628 0.09755313 -0.06939618 0.26774785 -0.16947089 -0.10715997 0.057289705 0.19756342 0.49503574 0.069241315 -0.058612775 0.34540704 -0.5932062 -0.21584523 0.1933078 -0.33151862 0.15560545 -0.39619493 0.047388326 -0.36513597 0.21276182
6239.F42G8.4.1 0.21519347 -0.13960145 0.26517516 0.087398216 -0.010501788 -0.039634623 0.25003833 -0.15796642 -0.58427787 0.04682286 0.11651077 -0.11859478 0.1049151 -0.4183931 -0.017483378 0.22796491 -0.04834692 -0.12603642 0.2870227 -0.049693216 0.3689533 0.42110777 0.4758866 -0.43980658 -0.046220846 0.2273911 -0.25168675 -0.07340503 -0.09370499 -0.35543284 -0.17462985 0.19827442
6239.F54C9.8 0.56511337 0.2628866 0.34032032 0.023680795 -0.17955674 -0.46898013 -0.34486055 -0.109745696 -0.1996173 0.50726455 0.09624701 -0.18443666 -0.052194443 0.09923732 0.22951825 -0.35447988 0.12421786 0.052149594 0.11279322 0.6432231 0.055195127 -0.13310646 0.15953673 -0.36275452 -0.23975518 -0.10262114 -0.85488814 0.12035843 -0.34440336 -0.033729143 -0.27459142 0.42106238
6239.C47D12.1a 0.29799563 -0.016147317 -0.14319783 0.23988335 0.0030716266 -0.03735918 0.025887039 0.03306509 -0.45003977 -0.11427667 0.27641794 -0.5108705 0.0063738334 -0.082261 0.015015886 -0.19169794 -0.1066686 -0.054868627 0.20186621 0.105716765 0.0056612887 0.23223102 -0.09010614 -0.7987639 -0.120301165 0.068275645 -0.28947076 0.3722617 -0.061259728 -0.35991818 -0.14761856 0.11796249
6239.C53A5.3 0.3471793 -0.12908751 -0.07802695 0.26210105 0.13747203 0.24609724 0.24273351 -0.41363755 -0.08736864 0.017100696 0.27614477 -0.5215929 -0.13100614 -0.17146617 -0.03496511 -0.12171337 -0.50062215 -0.17012376 0.19403388 0.20253356 0.106654756 0.4082276 -0.026564693 -0.41419226 -0.03195166 0.13555533 -0.41712716 0.4646986 -0.2353456 -0.15049647 -0.025991429 0.2687703
6239.Y92H12A.1 -0.21957278 0.040164277 0.20017911 0.23104045 -0.31968766 -0.23924248 0.0016965251 -0.16621035 -0.56518775 -0.24474128 0.10258234 -0.005864988 0.20362072 -0.13945962 0.35662115 0.032887265 0.07881921 0.2431176 0.30293617 0.056599166 0.4193349 0.46789765 -0.094131336 -0.5887205 0.3890026 0.16083439 -0.5210668 0.08711155 0.06717452 -0.32482094 -0.084989406 0.06999043
6239.R06A4.7 0.41106892 -0.048924778 0.004542868 0.12509938 0.0847248 0.027505 -0.08513006 -0.23668066 0.038200118 -0.081517294 0.19886394 -0.6929769 0.033683956 -0.06155942 0.013765435 -0.21434693 -0.44400248 0.024242064 0.20825878 0.23190303 0.017951792 0.25320077 -0.21499464 -0.37806788 -0.3114987 0.15720005 -0.6399707 0.306211 -0.2743121 -0.19886643 -0.0065062703 0.3709485
6239.T05E11.4 0.43098366 0.083372 0.12561323 0.10822261 -0.42988536 -0.24315017 0.22215265 -0.16577624 0.011542837 0.32970962 0.10485727 -0.28598553 -0.1361638 0.037748832 0.0026277276 0.049111914 -0.2170843 -0.11308409 0.40755814 0.5097661 -0.07530002 -0.15448044 0.08119293 -0.7482318 -0.34116772 0.1665637 -0.40411714 0.6573522 -0.2041868 0.12855175 -0.20028782 0.20681888
6239.ZK1307.6 0.43623284 -0.19877988 0.05951057 0.3730719 -0.163471 -0.058991037 0.19542742 -0.38049063 -0.14258333 -0.005558312 0.30734238 -0.39058164 0.3688691 -0.29505825 0.26574653 -0.26819983 -0.390054 -0.17972308 0.0505332 0.1744722 -0.055923387 0.23865011 0.2735732 -0.5319077 -0.1510278 -0.031956326 -0.36818188 -0.034157556 -0.28448382 0.072586685 -0.36746034 0.11889761
6239.C26E6.9c 0.49408635 0.21144825 -0.076573245 0.2099859 -0.021843378 0.0015193486 -0.028324917 -0.032398887 -0.22910716 -0.13253051 0.06643567 -0.58481836 -0.036084887 -0.10439988 -0.17831306 -0.3482755 -0.41711137 -0.06824514 0.08875364 0.09492928 -0.12873496 0.2815769 -0.18654294 -0.5745707 -0.21427174 0.045971207 -0.57162917 0.4304092 -0.28818816 -0.24840507 0.22158146 0.29553562
6239.C14F5.5 -0.23120628 -0.18529715 -0.27425835 0.35807893 -0.22457728 -0.19449247 0.061645698 -0.1340605 -0.53406894 -0.08033994 0.05789917 -0.14053638 0.0791062 -0.180746 0.12434347 0.06573733 0.29883987 0.083881944 0.35413685 0.2284355 0.75733334 0.2427309 0.14830251 -0.548061 0.28223246 -0.21820717 -0.65726286 0.2008552 -0.06669929 -0.028004378 0.1272703 0.2647705
6239.C09G9.6 0.601492 0.25063196 0.23530038 0.09976992 -0.31995702 -0.44219226 -0.3276587 -0.29293326 -0.16538787 0.47073892 -0.045923825 -0.087321624 0.1778578 0.09264521 0.2778901 -0.25489017 -0.037406143 -0.18191937 0.066611 0.5604737 0.009173036 -0.022807326 0.15410385 -0.42566982 -0.33601308 0.03213266 -0.66532326 0.15559924 -0.3864811 0.074141584 -0.39878744 0.43462637
6239.Y65B4BR.4a 0.1489166 -0.3282461 0.069352925 0.5591558 -0.60903156 -0.06106458 0.1955142 -0.095759 -0.38902664 0.1224368 -0.15069222 -0.34614056 0.15529966 -0.19509697 0.08560624 -0.009078415 0.11317141 -0.06434457 -0.17471023 0.10837517 -0.04459555 0.41004172 0.03409354 -0.37220582 -0.093082845 -0.13756928 -0.30503115 -0.12326095 0.10902852 -0.24205744 0.021887975 0.55558914
6239.H26D21.2 0.24516329 0.07126195 0.054940272 0.1354915 -0.23354621 -0.18240824 0.045016084 -0.33983725 0.057930168 0.23557493 0.1167951 -0.118711665 0.05169828 0.052573185 0.013074705 0.053607747 -0.28172874 -0.027794546 0.3072269 0.5237693 -0.26879218 0.08547045 0.034195967 -0.9186219 -0.2884165 0.14353172 -0.4735684 0.54901934 -0.1097136 0.14663474 -0.112814836 -0.052885927
6239.Y108G3AL.1.2 0.27955154 -0.16611153 0.3042523 0.5897377 -0.5418664 0.19336037 0.27192235 -0.15915142 -0.2793944 0.2574824 -0.11229706 -0.35017118 0.30014268 -0.407004 0.3505155 0.036034305 -0.15750612 -0.1697207 -0.10061674 0.041011237 -0.2626456 0.27423683 0.026945433 -0.3717533 -0.34733465 0.17316198 -0.33476415 0.18161991 0.22247036 -0.1316204 -0.13820818 0.40400875
6239.F58E10.3a.1 0.40141907 0.18530641 0.46949005 0.45550168 0.27774012 0.29174167 -0.11792625 -0.08795359 -0.3554639 0.048672553 -0.1317541 -0.24178742 0.2919885 0.13554654 0.070578724 -0.02176209 -0.24805284 -0.43954825 -0.14609915 0.54654676 0.037772954 0.3018192 0.029958136 -0.32192943 -0.12140995 -0.23116167 -0.3685073 0.21425219 -0.48550725 -0.34359455 -0.1880729 -0.09334655
6239.M03A1.1b 0.094318636 0.0484421 -0.1926373 0.27929178 -0.009100864 -0.21969245 0.02948471 0.051233724 -0.31408662 -0.24907385 0.20374484 0.1803062 0.13767008 -0.24604446 0.08720764 0.0006828637 0.07991092 0.102939054 0.054502625 0.37182802 0.4049974 0.3898466 -0.016920745 -0.4322387 0.10070661 0.065485984 -0.48503956 0.0997792 -0.12277155 -0.16006143 -0.10511653 0.56536114
6239.T25F10.2.1 0.15122856 -0.4936415 0.39596996 0.11603239 0.03183285 -0.29834622 0.18203661 -0.15692659 0.21517211 -0.13812451 -0.022672057 0.09394223 0.2970181 -0.29795614 -0.27157918 0.052147146 -0.063677214 -0.050125934 0.44166535 0.32385588 0.43903047 0.30040547 -0.42628095 -0.2781518 0.3427313 -0.02299355 -0.16629942 -0.1669904 -0.118687205 -0.16770098 0.020377135 0.60188615
6239.M7.2b 0.032974496 -0.02649671 0.24021572 0.2013046 -0.2836186 -0.36308306 -0.107344605 -0.022342518 -0.07808741 0.12603554 0.16799629 -0.054761473 -0.18058592 0.12132321 0.19271192 -0.18537678 -0.30814046 -0.20922728 0.3132684 0.65829515 -0.103301756 -0.056952152 0.57910377 -0.4144058 -0.37184 -0.0009521589 -0.6055438 0.33525568 0.028752847 -0.16409606 -0.15212512 0.36111444
6239.Y110A7A.17a 0.30328238 0.07096579 0.023079846 0.4039446 -0.20512117 -0.20840241 0.08501072 -0.2635116 -0.11601929 -0.03734273 0.19502828 -0.11867188 0.1845735 -0.18193762 0.119626336 -0.21545726 -0.32540023 -0.18811187 0.08301371 0.3007681 -0.3458516 0.01360661 0.08021825 -0.6187139 -0.44746935 -0.030482138 -0.55591255 0.22156526 -0.15139695 0.035548 -0.079013616 0.18379846
6239.C15H9.6.1 -0.34396914 -0.14719917 0.42894247 0.55919087 0.31815615 -0.31899542 0.1264734 -0.19283807 -0.5022662 0.32825905 0.07631379 -0.44479775 0.08983044 -0.11701098 -0.17982987 0.6096554 -0.28842503 -0.17018957 -0.16755739 0.15376592 -0.006007997 -0.082611844 0.13934349 -0.23862793 0.12634276 -0.076128654 -0.3202136 0.19361052 0.0056788665 -0.20863254 -0.09781776 0.31349677
6239.Y69A2AR.30a 0.19767357 0.09404394 -0.008225694 0.30231652 -0.16264145 -0.08436435 0.1577807 -0.5327406 -0.14262494 0.103460655 0.37066203 -0.042251214 0.4098703 -0.15066426 0.1400387 -0.24396437 -0.68995255 -0.070113316 0.21326585 0.3958188 -0.4052387 0.078779496 0.20867695 -0.67133355 -0.1584414 0.06383175 -0.46840742 0.076875724 -0.15970255 0.058967438 -0.27748066 0.07480921
6239.C08B11.2 0.46507534 -0.12869667 0.067823835 0.23088868 0.050738566 0.18665539 0.077459924 -0.4660778 -0.20932737 0.0005670007 0.01003715 -0.4786764 -0.024362814 -0.09360806 -0.16401674 -0.059144545 -0.34960553 -0.116897136 0.17932922 -0.023082767 0.031084398 0.41037288 -0.06687496 -0.55998313 -0.15278894 0.159602 -0.3249147 0.3253794 -0.27841917 -0.20642422 0.0108955875 0.24047291
6239.T07F8.3a 0.4781023 0.33489496 0.32023594 0.013540778 -0.32401562 -0.37699142 -0.21147624 -0.17300706 -0.1981474 0.5496588 -0.019194085 -0.123031534 -0.010588752 0.07226815 0.34640613 -0.30457437 -0.052321278 0.010429104 0.07461922 0.7395759 0.070053644 -0.21750627 0.076400265 -0.51736957 -0.47411826 -0.046087187 -0.6987837 0.15607888 -0.4397346 0.034055028 -0.3530713 0.37221593
6239.C55B7.1 0.57331246 0.3002749 0.31433237 0.09936093 -0.0795328 -0.28173536 -0.25861987 -0.07606604 -0.3095794 0.4531832 -0.09125475 -0.2157821 0.17413965 0.2691174 0.23483086 -0.22260165 0.060752217 -0.29825926 -0.0057702297 0.64739215 0.09144469 -0.03723908 0.07747034 -0.5500375 -0.30454147 -0.06537283 -0.6399263 0.17533231 -0.40838447 0.054090854 -0.20853405 0.30223083
6239.T11F8.3.1 0.3125356 -0.065444 0.117100984 0.2522158 -0.0015099014 -0.25008303 -0.1558451 -0.4020548 -0.19363342 0.462354 0.09723118 0.044091478 -0.27561644 0.018080225 0.1356022 -0.10251451 0.19246598 -0.0056312666 0.345675 0.75767267 0.24772288 -0.304636 0.110897504 -0.33083853 -0.08041825 -0.14784198 -0.8687487 0.1845122 -0.025610028 0.26729104 -0.13501959 0.3603976
6239.C18A3.6a 0.19291654 -0.6272659 0.0028767127 0.22846004 -0.046100948 -0.24770288 0.029249221 0.36874294 -0.17982608 -0.1354699 0.21621634 0.57480043 -0.09696988 -0.2864217 0.06531365 0.39745483 -0.22692409 -0.28410527 0.3296114 0.16962174 0.08827731 0.38594228 0.083336614 -0.39543384 0.09787236 -0.4213103 -0.49333292 -0.135343 0.22246088 -0.28360146 -0.16308585 -0.070851035
6239.ZK287.5.1 0.14948347 -0.04496005 0.1797574 0.74300677 -0.55061215 0.18750663 0.3118189 -0.4056944 -0.02763047 0.04301456 -0.16778666 -0.33248556 0.2727676 -0.3721071 0.4683434 -0.06146424 -0.23713428 -0.14054821 -0.17132184 0.34048814 -0.25998867 0.45785737 0.021802329 -0.46642038 -0.51931685 0.075789325 -0.25109616 0.20193675 0.18369408 -0.22209543 -0.21203561 0.26531872
6239.Y106G6H.2a.2 0.44230714 0.13688964 0.4176252 0.1392425 0.0969275 -0.36615285 -0.40981278 -0.014647307 -0.42179915 0.39342627 -0.0016206481 -0.42103517 0.26144627 0.24219182 0.3290494 -0.05286295 0.049472466 -0.32265928 -0.33678907 0.47242767 0.07642372 0.052549466 0.01158044 -0.52187145 -0.053408634 -0.20222238 -0.4510487 -0.073829085 -0.5117151 -0.19584304 -0.26280808 0.13257179
6239.Y60A3A.12 0.4831516 0.047242913 -0.014208934 0.08385774 -0.032812566 -0.22722098 0.25136152 -0.21312588 -0.12696177 0.21750876 0.15095079 -0.41658202 -0.0066112983 -0.123220004 0.03668536 0.048339248 -0.41285098 -0.12622957 0.32402512 0.24408925 0.02592707 0.16873226 0.37523285 -0.9065247 -0.02580701 0.44303834 -0.2516105 0.5058275 -0.08405141 0.13564308 -0.047735084 0.08973142
6239.Y54G11A.5.1 -0.3590518 -0.50994766 0.47875112 0.14620157 -0.09686774 -0.52335095 0.38597202 -0.15537411 -0.4256851 0.4732909 -0.26004824 -0.018937644 0.045425404 -0.1682686 0.064465456 -0.17596424 -0.24604523 0.18522051 -0.06713413 -0.026468659 0.021713836 0.24167675 -0.20559576 -0.22337453 0.014126017 0.472562 -0.5344537 0.31518114 0.117408134 -0.60133564 -0.080320194 -0.5929305
6239.C42D8.8a -0.14981467 -0.069921106 0.00028101433 0.056495856 0.14147799 -0.33494583 0.2567284 -0.08700756 -0.036949955 0.28040516 -0.16749519 0.058338743 0.07119717 -0.3431941 0.14415619 0.5254464 -0.47506395 -0.036532708 0.19923986 0.15214716 0.26819718 0.48318863 0.12840912 -0.2026561 0.21361221 -0.18686114 -0.39408168 0.15911609 0.15487762 -0.37702876 0.101312116 0.53201115
6239.Y54E10A.9c.1 0.1326175 0.22764282 0.822527 -0.007322937 -0.12549311 -0.3493547 -0.2838646 -0.024258323 -0.62351704 0.34983006 -0.10361605 -0.4359782 0.33971435 0.07800948 0.5387474 -0.33931166 -0.18786094 -0.005823928 -0.06262631 0.35491762 0.17922086 0.08110435 -0.28635278 -0.34887084 0.037196435 -0.13581817 -0.6277782 0.38174635 -0.264406 -0.2125251 -0.20703433 -0.3068434
6239.F26E4.10a 0.6075941 -0.16369997 0.40216985 0.14453559 0.03313057 -0.047021475 -0.2759149 -0.20607579 -0.19598141 -0.18227579 -0.1497841 -0.14198993 0.21541718 0.35743243 0.1988672 0.07560988 -0.038131986 -0.025845973 -0.06897395 0.25758746 -0.08333405 0.02409811 -0.11859835 -0.58630884 -0.30086732 0.040209208 -0.5503749 0.3556975 -0.32117742 -0.16212235 -0.15247832 0.14685798
6239.C47E12.5a.1 0.13482851 -0.25405714 0.18299441 0.5069139 -0.56419486 -0.093874946 0.19702646 -0.07360806 -0.4317823 0.2779978 -0.07896339 -0.29106098 0.18537095 -0.14288399 0.34646168 0.100090265 0.0873348 -0.22992967 -0.35093093 0.318361 -0.4736627 0.23503411 -0.06485117 -0.28376445 -0.30223802 -0.0766921 -0.44728976 0.31937262 0.20424098 -0.09589592 0.02632969 0.46633205
6239.C10H11.9 -0.19727132 0.028774811 0.2768205 0.153684 -0.2151062 -0.2878588 0.12461455 -0.21782689 -0.6251558 -0.18094257 0.1853684 -0.013870374 0.30400884 -0.15547824 0.45484632 -0.092284314 -0.09820125 -0.058154907 0.3055543 0.16181527 0.20143533 0.2691817 -0.24384171 -0.40910822 0.08250635 0.28967488 -0.44345552 0.19881724 0.16380478 -0.35655943 -0.12813829 0.06277538
6239.Y2H9A.1 0.52266926 0.13127783 0.004347013 0.0057890546 -0.05090468 0.10680486 -0.064646155 -0.20212966 -0.18533088 0.015432251 0.20809036 -0.45118424 0.04145919 0.09767506 -0.0905787 -0.16138488 -0.5028299 0.11086105 0.3140233 0.25565672 -0.13772716 0.04336427 -0.22058168 -0.65869915 -0.41475058 0.03560936 -0.64337033 0.33172593 -0.3235326 -0.08009889 -0.018870281 0.33394963
6239.Y73B6A.5a.1 0.07161777 -0.1021756 0.032184258 0.36653274 -0.21700501 -0.269214 0.14043418 0.07119046 -0.31054613 -0.039996095 0.21242441 -0.33456755 0.11809929 0.0035638134 -0.026846467 0.13386232 -0.031349298 0.16301566 0.10796477 0.066683374 0.62511396 0.2538138 0.14238499 -0.6129737 0.071360394 0.0003528302 -0.49784863 -0.18866621 0.012285886 -0.14389499 -0.15272075 0.4181506
6239.C03C10.3 0.40978163 0.23431541 0.030318914 0.26129165 -0.2560867 -0.13496263 0.0154741965 -0.5633303 -0.020873098 0.34757036 0.24452409 -0.15659156 0.2754003 -0.075990155 0.123352736 -0.15066646 -0.37807176 0.15294233 0.25995323 0.58748925 -0.40881887 -0.04521475 0.16271375 -0.52263886 -0.14585158 0.1355304 -0.5757548 0.2637087 -0.30867717 -0.120653264 -0.29656827 0.027000532
6239.ZC101.2e -0.056012746 0.049988274 0.044181854 -0.15099041 0.076657325 -0.42346403 0.24237521 -0.026167363 0.27458152 -0.376816 -0.28543577 0.03095441 -0.08276252 -0.6001664 0.31757018 0.5166502 -0.22016571 -0.09455794 0.13810505 0.24126711 0.1301541 -0.12784463 -0.30329454 -0.36670136 0.34042495 -0.25787333 -0.5870399 -0.035509672 -0.14841338 -0.61260915 0.04755975 0.53181267
6239.Y102A5C.18 0.58733976 -0.0499172 -0.086223714 0.13619974 -0.085227855 -0.032649923 0.098430954 -0.59765846 -0.10577374 -0.09414012 0.28891987 -0.423018 0.30623084 -0.013496816 0.12589537 -0.15529403 -0.39457718 0.21259755 0.17692375 0.25658175 0.10566177 0.2474414 -0.1096925 -0.55153793 -0.3350057 0.054296456 -0.4742977 0.1586701 -0.30278364 -0.08655839 -0.26453358 0.31451887
6239.F33G12.4.1 0.41052788 0.32619807 0.256497 0.24036245 -0.2939033 -0.074181534 0.00975716 -0.532333 -0.084283 0.25637192 -0.04622789 0.039778873 0.052091233 -0.23479812 0.23115635 -0.07623094 -0.094162695 0.13503909 0.22551262 0.58371013 -0.15777554 0.052681275 0.013010091 -0.50455713 -0.4140124 -0.0072602197 -0.5352475 0.29363322 -0.15870048 0.0026484625 -0.2551222 0.2567154
6239.T19B10.6.1 0.31916738 0.076878294 0.35145065 0.14058343 -0.5675878 -0.10622678 -0.0957359 -0.55831844 -0.09939765 0.19408979 0.051418353 -0.15628205 -0.1393182 -0.15443692 -0.069537945 0.048761457 -0.08496485 0.0617618 0.22222191 0.7598227 -0.19283126 -0.11914717 0.08610177 -0.40741363 -0.38897997 0.010774994 -0.5797317 0.29575774 -0.09360563 0.13710468 -0.24503945 0.45234323
6239.K07A1.11 0.52649677 0.035527036 -0.170998 0.25859633 0.028946977 0.25518593 -0.010857756 -0.49175483 -0.01930702 0.10515377 0.061123904 -0.4988427 0.090288214 -0.08857298 0.13355076 -0.0746756 -0.5924351 -0.0001302158 0.2899631 0.3083621 -0.19013785 0.16634406 -0.13038604 -0.42385653 -0.24269137 0.079781994 -0.46694538 0.35067317 -0.3198144 -0.30991864 -0.16525716 0.14855641
6239.F55B12.3a 0.2693536 -0.035511 0.1292022 0.52151126 -0.56967705 0.06510493 0.38073993 -0.081765905 -0.29317087 -0.01958128 -0.06882612 -0.26325867 0.22818041 -0.2982147 0.17857169 -0.060495622 0.015163273 -0.10949176 0.02156045 0.12495462 -0.13389166 0.25526205 -0.1468717 -0.4653972 -0.45576432 -0.07164413 -0.33416295 0.008395368 0.058256105 -0.15828569 -0.18569699 0.5373613
6239.F49E11.1b 0.5723682 0.15536234 0.20375411 0.21006578 -0.013545986 -0.26448935 -0.2906528 -0.19708939 -0.45116454 0.427712 0.20546567 -0.15758102 0.21508062 -0.14772208 0.34784898 -0.3230064 0.14238702 -0.17944343 -0.15399449 0.17683631 0.15443279 0.10289777 0.13150409 -0.6087851 -0.12273338 -0.08144621 -0.57743627 -0.01812409 -0.17642237 -0.04151014 -0.15702753 0.3549707
6239.F45H11.2 0.07106222 -0.40432447 0.0015322911 0.69832945 -0.5365158 0.23509337 0.21648355 -0.15313722 -0.35102683 0.12285718 -0.20059517 -0.57872736 0.36155182 -0.10523339 0.26567215 0.3377406 -0.09040249 -0.2861247 -0.058382977 0.46061984 -0.4758868 0.44895753 0.12763284 -0.17162101 -0.1922538 -0.034525916 -0.21662576 -0.0445016 0.053346023 -0.2156254 -0.0877749 0.39325228
6239.F35G12.8 0.36228946 0.08056279 -0.07981719 0.118724205 -0.23585206 -0.030767212 0.20717798 -0.15803143 -0.2684699 -0.09940583 0.16766407 -0.118072435 0.38629612 -0.016457364 -0.013124062 -0.2059731 -0.6101021 -0.14035377 0.1285146 0.42560685 -0.56799734 -0.07657555 -0.042669404 -0.8077168 -0.18485211 0.14676142 -0.41002205 0.34500238 -0.46920204 0.10098272 0.008846886 0.09257648
6239.C12C8.1 -0.16825381 -0.11943987 0.277748 0.47481573 0.15862375 -0.26390862 0.22299257 -0.39924642 -0.49505547 0.30457506 -0.082740195 -0.45119712 0.1179865 0.064903475 -0.067732975 0.4058552 -0.2346569 -0.11628532 -0.26966023 0.2728514 0.003679598 0.16274503 0.083529025 -0.285569 -0.1250486 -0.05044791 -0.25841233 -0.0076249167 -0.11613187 -0.3826621 -0.14977169 0.15071699
6239.C48A7.1b 0.14898038 -0.3819495 0.05665895 -0.16994233 -0.05709897 -0.2686138 -0.121390074 0.16051635 -0.32803637 -0.06306353 -0.14879642 0.3315377 -0.19985756 -0.5016107 0.20211592 0.6451671 -0.3251315 -0.46147978 0.28624192 0.109085485 -0.074232854 0.4480852 0.062167335 -0.3856476 0.2315893 -0.15054315 -0.38620767 -0.12438913 -0.0749686 -0.2805492 0.22668085 0.15275835
6239.F01G4.1 0.3791213 -0.008511865 -0.0023041712 0.09354044 0.038800396 0.15888144 0.015946858 -0.17677145 -0.39832315 -0.035691857 0.33419153 -0.63190174 0.15777248 -0.20756483 -0.24183248 -0.24482512 -0.25846836 -0.13376375 0.1251819 0.19347285 -0.059742242 0.4078998 -0.36393148 -0.5021874 0.026465146 0.061313942 -0.46944854 0.41508234 -0.30771214 -0.08387188 0.05902209 0.13023108
6239.Y71H2AM.19b 0.17466474 0.28777334 0.61345494 -0.04382994 -0.19523671 -0.33614084 -0.07274408 0.159412 -0.5921588 0.48913705 -0.11602632 -0.6206569 0.36677238 -0.029477218 0.65600824 -0.34784266 -0.08789289 -0.09278497 -0.010336099 0.45718482 0.22745349 0.13165402 -0.27034503 -0.40038377 -0.033132106 -0.11788123 -0.58768535 0.16677926 -0.30846086 -0.26415414 -0.22244413 -0.3886249
6239.C25F6.2a 0.04640312 -0.18141045 -0.04376465 0.17423433 0.004875723 -0.15950125 -0.099305466 0.0046430514 -0.3027656 -0.18336187 0.106385045 0.42981887 0.3008679 0.0002958727 0.33293578 0.25296712 -0.3039425 -0.21370302 0.19808134 0.32266116 0.30244943 0.63589716 -0.10876621 -0.15571323 0.14544342 0.1791738 -0.37930548 0.14674166 -0.10889453 -0.40450606 0.053286362 0.36046267
6239.R107.8 -0.021378797 -0.1554794 0.05654483 0.30202022 0.06999051 -0.0063731414 0.1132214 0.03350175 -0.04539336 0.12565592 0.4530092 -0.1064556 0.1310604 -0.17424743 0.027184155 0.022093778 -0.15407363 -0.06088345 0.21044236 0.18589674 0.52839315 0.43075716 -0.3342963 -0.2666581 0.15003312 0.11554215 -0.47519517 0.11898233 -0.1780436 -0.072067246 -0.23912682 0.7154072
6239.Y47D3A.4 0.0525388 0.0029068354 0.463402 0.021464814 -0.39667714 -0.21728401 0.32310653 -0.24604775 -0.293064 0.203866 0.08337086 -0.48483953 0.123630755 -0.076785766 0.23263404 -0.15628454 -0.32821918 0.05854157 0.29854256 0.30568737 -0.0048349984 0.14329326 -0.34582743 -0.76969236 0.027011719 0.25301963 -0.27557638 0.8886315 0.08679061 -0.09687721 -0.17863207 -0.4483146
6239.Y54G2A.31 0.12590735 -0.32021415 0.20831145 0.6473907 -0.56820005 0.29551834 0.14446567 -0.069504805 -0.34995288 0.20751934 -0.075060986 -0.29372796 0.27093515 -0.3881497 0.24762419 0.21835203 -0.0554914 -0.26853982 -0.09126197 0.16085327 -0.19847584 0.3370081 0.09478558 -0.5166797 -0.22512639 0.26872596 -0.20635156 0.47576588 0.082056955 0.14516576 -0.10088535 0.3284484
6239.C08A9.1 -0.105944715 -0.62470156 0.21809326 0.3908797 0.06245744 -0.49726456 0.25913256 -0.051720478 -0.10561174 0.38330272 -0.46684492 -0.14202605 0.07389394 0.22771871 -0.24427012 0.13543518 -0.07828103 0.08850535 -0.3042616 0.1362293 0.022426767 0.20857973 -0.089350775 -0.5850052 -0.40554622 0.33753976 -0.018788287 0.043655384 -0.25731653 -0.7218984 -0.012497806 -0.10481504
6239.C27A2.1 0.5259248 0.14239085 0.0660139 0.14267774 -0.34991643 -0.10382382 0.16670464 -0.16582291 -0.17077751 0.006643762 0.16427879 -0.29574785 0.19042979 -0.093747266 -0.06566808 -0.09603557 -0.491148 -0.37503892 0.17408071 0.42083713 -0.40119958 -0.041833144 0.019202037 -0.80765027 -0.2579331 0.24253711 -0.44031546 0.6319661 -0.23156595 0.20511866 0.041652776 0.05497375
6239.K04D7.1.3 0.12404446 -0.13118938 0.3111254 0.4982788 -0.15781458 -0.22465567 -0.14317186 0.07669387 -0.62475085 0.012572963 -0.23829904 -0.58045435 0.31531754 0.3580057 -0.01350373 0.36590904 -0.07984236 -0.24092717 -0.050771642 0.48657092 0.0881052 0.11390204 0.07546602 -0.19769946 0.29235634 -0.007304872 -0.2877065 -0.24423067 -0.32073098 -0.49852407 -0.019022474 -0.038974
6239.T10H9.4 -0.20290786 -0.56598616 -0.22454114 0.5455162 0.06664345 -0.0443149 -0.15810806 0.28558505 -0.5960878 -0.09340475 0.16298814 0.21882623 -0.14814791 -0.33090755 -0.12292328 0.21135198 -0.008127393 -0.14026882 0.3135283 0.33402994 0.24248989 0.2405687 0.18413045 -0.3411067 -0.06694428 -0.6715727 -0.5326596 0.23803557 0.29769456 -0.109518 -0.18401018 0.1638254
6239.F38E1.7 0.29801005 -0.19210322 0.35044748 0.18671776 -0.13592821 -0.037708044 -0.08775659 -0.5157816 0.3048656 0.14623077 0.4713634 0.10524187 0.019376813 -0.05607317 0.14996558 -0.086243734 -0.029008111 0.2016645 0.2732067 0.8064328 0.24963748 -0.046617754 -0.13239041 -0.19074807 -0.24381365 0.20999451 -0.8901848 -0.00075963966 -0.045761246 0.064170554 -0.18479098 0.46212444
6239.F15C11.2a -0.1694669 -0.5072447 0.08371647 0.61165994 -0.38998702 0.20519702 -0.08107561 -0.24271215 -0.5207772 0.15662727 -0.13693474 -0.5061286 0.15851356 -0.14124714 0.23941047 0.3706689 -0.0945733 -0.38566652 -0.07616378 0.45742923 -0.10603121 0.26068377 0.08353521 -0.24475528 -0.045000974 -0.21404447 -0.32810268 0.14835085 -0.07397148 0.052385226 0.21806115 0.27387124
6239.F42A6.7d.1 0.36145958 0.42132157 0.37410864 0.40412366 0.35823438 0.039231386 -0.048517663 -0.22704542 -0.34776998 0.002744801 -0.059384543 -0.2696915 0.3303526 0.047922503 0.11764894 -0.03160932 -0.16628745 -0.44203642 -0.03594942 0.5918 0.002187334 0.21363494 -0.05513546 -0.46205336 -0.14830025 -0.2580346 -0.37086466 0.13801074 -0.39837292 -0.34532195 -0.011961637 -0.10486145
6239.W03G1.6c 0.45451626 0.05154689 0.02472371 -0.06870342 0.035436057 0.004460375 0.122884676 -0.54286504 -0.31167644 0.19067982 0.36550894 -0.11230136 0.61410326 -0.20351437 -0.1042254 0.013171676 -0.30940092 -0.00067215424 0.20448738 0.37383935 -0.09878205 0.036385994 0.2078241 -0.74662614 0.0043180226 0.18355182 -0.39256397 0.06859683 -0.20310545 0.020757664 -0.31139055 0.08761884
6239.F07A5.7a.4 0.06760141 -0.29715323 -0.16259825 -0.07428035 -0.0015864164 -0.33396396 0.08270122 -0.09090687 -0.4452565 -0.12378208 -0.08755566 -0.041851576 -0.3252785 -0.5657628 0.57741547 0.33054614 -0.21509026 -0.34000412 0.085834995 0.08245979 0.16973543 -0.17649102 -0.21827717 -0.33155307 0.1742182 -0.030133601 -0.33596024 -0.0051648035 -0.2636304 -0.5833565 -0.02900137 0.25441802
6239.K10B2.1 0.40086526 -0.27414504 0.37581086 0.63714653 -0.46400088 0.16638447 0.39516073 -0.1476241 -0.22379366 0.015309174 0.13870765 -0.20422037 0.33555338 -0.33416605 0.47783288 -0.09947627 -0.10299358 -0.08747982 -0.071900755 -0.011235717 0.048583873 0.38402086 -0.1449287 -0.20839724 -0.2058168 0.1254821 -0.46883872 -0.04112451 0.17898229 0.012350284 -0.22726949 0.5625084
6239.T01G9.5b 0.20097576 0.016472043 0.104650356 0.31502226 -0.33717847 -0.31241378 -0.08348149 -0.26762718 -0.23445359 0.064408325 0.16792585 -0.09637129 0.06159987 -0.08669454 0.2311841 -0.11552864 -0.32101452 -0.1048351 0.08185731 0.48797086 -0.45239267 0.10086516 0.22902955 -0.34782097 -0.40470138 0.13238256 -0.33443487 0.017771846 -0.4276202 -0.1108996 -0.19550212 0.5157119
6239.T20B12.2.2 0.51832944 -0.12771487 -0.035251558 0.29634255 -0.02993116 -0.1237947 0.15980978 -0.39689144 -0.19983493 -0.04291459 0.1179479 -0.68612766 -0.3287213 0.0037979316 -0.25208023 -0.19545761 -0.048730083 -0.035776686 0.11332936 0.31915832 -0.12261499 0.34182072 0.05823101 -0.3559326 -0.118457824 -0.16078554 -0.38749376 0.35885876 -0.2346963 -0.34332252 -0.3662388 0.16754425
6239.T24H10.7a 0.2178155 -0.32705635 0.38960996 0.07270687 0.030016093 -0.09274214 0.25785795 -0.31654716 -0.30397213 -0.034908194 0.19873503 -0.5317904 0.12392491 -0.29248026 -0.29507092 0.16446409 0.05175227 -0.120516226 0.054608863 0.09232003 0.30190507 0.49369213 0.037063986 -0.4008473 0.06489119 0.0365795 -0.14814702 0.12898743 -0.3694682 -0.20816375 -0.1926975 0.25715148
6239.C35B1.1 0.30557644 -0.2380486 0.06445069 0.6647918 -0.6595058 0.15574972 0.18374915 -0.18732862 -0.34968078 0.028465971 -0.17167792 -0.43576238 0.19393547 -0.39975378 0.16184787 0.09920069 -0.19785109 -0.18680385 -0.056429163 0.004829392 -0.21545362 0.28941572 0.04161388 -0.3840796 -0.25441456 0.1013217 -0.2856999 0.49744123 0.18020068 -0.022021955 -0.14412189 0.38574415
6239.Y48G1BL.2 0.40224227 0.025494399 0.0849531 0.21490999 -0.23213388 -0.06083324 0.4077801 -0.29278633 -0.11857199 0.16041465 0.15672924 -0.40509826 0.097926006 0.016258713 0.013790079 0.051216036 -0.18643598 -0.22943236 0.12209008 0.17179352 0.07331843 0.12869762 0.11412575 -1.0515281 -0.10979275 0.35229954 -0.2640349 0.69657695 0.101483844 -0.0061863363 -0.13998461 0.014854156
6239.Y43F4B.6 0.2683111 0.12923488 -0.08411377 0.124427244 -0.13246241 -0.2547206 -0.12916261 -0.2601734 -0.32489237 -0.089206286 0.3470168 -0.0040386855 0.52355504 -0.07959102 0.11066635 -0.2124078 -0.3431358 -0.07354989 0.3013325 0.5488937 -0.37720335 -0.11706567 0.28350618 -0.7966913 -0.1884241 0.05233324 -0.3853637 0.1396897 -0.23242185 -0.09068074 -0.07327699 0.1963217
6239.F53G12.1.1 -0.092591785 -0.3892338 0.00031434424 0.45770165 0.3248603 0.06885265 -0.05257006 0.22311454 -0.69413924 -0.051465623 0.25178665 0.34128788 -0.02863323 -0.2095302 0.11221462 0.147324 0.18746479 -0.040135954 0.31785813 0.1619408 -0.098058164 0.0019442397 0.21281555 -0.56821877 -0.043132074 -0.021591619 -0.4019721 0.026357558 0.09087625 -0.30691668 -0.32418224 0.3477546
6239.Y47G6A.12 0.4010668 -0.015435479 0.061360106 0.12945448 -0.26629478 -0.23956998 0.17384757 -0.34092402 -0.13517962 0.062787384 0.4113712 -0.08428993 0.14467016 -0.10046444 0.020387003 -0.2647972 -0.40375957 -0.18561721 0.19638789 0.4595731 -0.34472933 -0.2295027 0.18319644 -0.8258802 -0.21319169 0.11740484 -0.4332864 0.31287616 -0.18243591 0.10049546 -0.101771444 0.1822506
6239.F20G4.3 0.12781546 -0.09953735 -0.22386323 0.09467882 -0.028807538 -0.32912633 0.011988357 -0.264696 -0.58943087 -0.30176088 0.26617408 0.21889389 0.018832298 -0.1542794 0.36466807 -0.15375233 -0.017971732 -0.4444267 0.24923599 0.53662086 -0.13675167 -0.06821105 -0.17228083 -0.38193095 -0.18933634 0.29677007 -0.39941838 -0.076722205 -0.2017267 -0.22936325 -0.075422466 0.39604792
6239.C30C11.4.1 -0.3359409 -0.15067855 0.3090382 0.55556303 0.16458869 -0.17414576 0.17515235 -0.18333898 -0.32596123 0.4285743 0.0832846 -0.40034384 0.16201167 0.098763295 0.056733526 0.53280973 -0.39261648 -0.3034643 -0.16762131 0.13009329 0.002583211 -0.03773182 0.14512292 -0.33791402 -0.14510396 -0.009349712 -0.43074057 0.18796855 -0.12546207 -0.32353637 -0.012222617 0.13893737
6239.T22D1.9.1 -0.24392557 -0.148593 0.5584707 0.6287422 -0.4774688 -0.15867703 0.21973749 -0.31089574 -0.5829542 0.121231236 -0.1085014 -0.46198428 0.35020027 -0.27341807 0.60167795 -0.20158876 -0.27818787 0.0339353 0.044949494 0.21795735 -0.26477227 0.16377634 -0.32724503 -0.15077564 -0.060228918 0.07022233 -0.35405788 0.07675651 0.057816822 -0.27118602 -0.13853338 -0.16894041
6239.F42H11.2 0.22401445 0.10005889 0.05572471 0.14535345 -0.044212323 -0.012527306 -0.018593866 -0.17661886 -0.27494612 0.17229947 0.27998275 -0.25711352 0.001588998 -0.093565024 0.21893108 0.11015082 -0.29791743 -0.06821036 0.120372705 0.43977684 -0.0730429 0.21427175 -0.08019329 -0.766818 -0.13824926 0.2987151 -0.19513978 0.095033556 -0.027599856 -0.16208154 0.007009406 0.28238893
6239.M7.1 0.08097662 -0.33921474 0.22315618 0.5416278 -0.31168237 0.26705936 0.21495062 -0.22704665 -0.4299906 0.12416753 -0.059924103 -0.24646643 0.21045673 -0.35484844 0.079430126 0.17076428 -0.082815394 -0.2980714 -0.22061488 0.15409507 -0.11930491 0.105639726 0.110368885 -0.37430632 -0.1949233 0.21775949 -0.4188974 0.31963032 0.0070813373 0.047024522 -0.13111277 0.24339594
6239.ZC328.4 0.33833775 -0.022761857 -0.16344553 0.16629288 -0.3932666 -0.18869574 0.013527137 -0.48119357 -0.13117835 -0.014613818 0.23510514 -0.081641704 0.26708758 -0.15100355 0.030489946 -0.30775923 -0.6023106 -0.01286444 0.3004153 0.42828676 -0.46526793 0.027502954 0.24615557 -0.709363 -0.264293 0.050568055 -0.40696737 0.30773708 -0.25804973 0.0008002126 -0.24573521 0.117715836
6239.T26A5.7a 0.56760395 0.11102681 -0.11979176 0.36780107 0.07676894 0.22528006 -0.20486605 -0.30561092 0.045623682 0.095075406 -0.055203706 -0.5936275 -0.0118140485 -0.43684068 0.10738705 -0.05310959 -0.5871392 0.18821129 -0.06510652 0.3595282 -0.3383078 0.18040824 -0.085252404 -0.48087066 -0.031328358 0.36016366 -0.55592656 0.1278101 -0.20632288 -0.06510142 0.1036107 0.15949252
6239.R07E5.8.2 0.19778362 0.116441585 0.34294295 0.06254808 -0.31642172 -0.0014200055 0.2611276 -0.317423 -0.22793415 0.15835837 -0.035664763 -0.3785516 0.16993555 -0.053780254 0.28705505 -0.06826018 -0.3067501 0.0946956 0.4101421 0.37977698 -0.12020669 0.19415015 -0.33559316 -0.7050676 -0.08312608 0.22913134 -0.40206343 0.7698693 0.11908383 -0.0600659 -0.19590335 -0.31269753
6239.F58A4.3 0.55181396 0.1388593 -0.16357093 0.18495384 -0.22412299 0.053293403 -0.04343894 -0.58330375 -0.21305603 0.19356497 -0.023025056 -0.33718368 0.06131135 0.021223826 -0.07086838 -0.31550154 -0.52717215 0.14153503 0.24770384 0.48377326 -0.255814 -0.0038187413 0.27189282 -0.44627148 -0.22515336 0.13411966 -0.6250799 0.27992478 -0.28319466 -0.1164283 -0.103505276 0.37729582
6239.T01B7.7 -0.16207483 -0.28609225 0.24416223 -0.16314095 0.31907958 -0.6012647 0.45864955 0.18284541 -0.089510344 -0.26053083 -0.5751706 -0.12080433 0.09429831 -0.21993601 0.039744847 -0.028330682 -0.19936675 0.1320141 0.37932965 0.2298707 0.057823837 0.19618759 -0.2979688 -0.4009014 -0.16929077 0.023092957 -0.3044952 -0.12443227 0.07597544 -0.16429119 -0.02467096 0.6511502
6239.C14B1.4 0.2788967 -0.08930352 0.08719071 0.2781175 0.08573499 0.2529689 -0.039599452 -0.362503 -0.15919897 0.05631609 0.14850813 -0.4478513 -0.08856719 -0.080656335 -0.07216574 -0.30808228 -0.5200639 0.006798389 0.22679621 0.33796817 -0.26799577 0.24751519 -0.1258589 -0.41038692 -0.26338166 0.023097804 -0.44704655 0.3535993 -0.112536505 -0.32118645 0.0035273158 0.18236496
6239.C36E8.5.1 0.04448903 -0.065607965 -0.13680385 0.21637072 0.09560377 -0.26342 0.01228814 -0.110435404 -0.24269614 0.07748374 0.22887085 -0.2202951 0.28383723 -0.22266428 0.2004156 -0.04006707 -0.41404587 -0.20008482 0.050078522 0.4847165 -0.30766073 -0.036569804 0.18536748 -0.46749762 -0.31157678 0.1349228 -0.32997695 -0.16125922 -0.16636284 -0.3471407 -0.17451322 0.19671762
6239.K03E6.5b -0.06939302 -0.26215482 -0.042247202 0.06543628 -0.21456276 -0.11476952 0.006525034 -0.0033357842 0.05795603 0.4044609 -0.19829074 0.32749462 -0.39440683 -0.009522634 0.17646888 0.6395897 -0.3891631 -0.23512173 0.48974997 -0.22228561 -0.025414381 0.27051923 -0.17550369 -0.59498006 0.45477495 -0.40184435 -0.6570558 -0.25288525 -0.22375812 -0.462975 -0.085265756 0.1255842
6239.M01E11.6 0.2236186 0.12519345 0.1292958 0.021426985 -0.16890317 -0.44050384 -0.13803886 -0.34269673 -0.27331582 0.09298836 0.35649383 -0.080620214 0.09872587 -0.052249696 0.1016897 -0.19041911 -0.17185467 -0.14908864 0.38035086 0.65464145 -0.29407394 -0.17418598 0.4993048 -0.54474115 -0.27420926 0.12524958 -0.5463572 0.12386701 -0.15285456 -0.15470162 -0.16617611 0.3223611
6239.F33D4.2a 0.18970245 -0.32463902 0.04616252 -0.016193194 -0.26218513 -0.22956264 -0.08102841 0.31930453 -0.53463304 0.21036647 -0.023881802 0.015701303 -0.34708947 -0.46013817 0.15039559 0.43217036 -0.22059815 -0.03778421 0.07789905 0.32034534 0.06713185 0.11002165 0.0035986947 -0.5264774 0.4437773 0.087625675 -0.12891497 -0.21763198 -0.055079155 -0.38139033 0.22181448 0.19188109
6239.T23G11.3.2 0.46619043 0.26751307 0.3914149 0.017783798 -0.15516527 -0.37135586 0.090854384 0.07581188 -0.073353834 0.27241945 0.003707628 -0.33584696 -0.044587117 0.021958608 0.18235224 -0.1997835 0.025116986 -0.013278257 0.10892929 0.7565205 0.5680762 -0.068486944 -0.0013058715 -0.45330366 -0.41477057 -0.038516887 -0.5617395 0.14627606 -0.28505582 0.03697498 -0.30387294 0.41347495
6239.Y39A1A.5 0.10619509 -0.3888041 0.060252383 0.37218124 0.12808423 0.25385046 -0.08889498 0.040736318 -0.55600333 0.0008271419 0.25921518 -0.075996906 0.11297685 -0.3930239 0.21132179 0.13047703 0.07993021 0.015530992 0.2268547 0.12598836 -0.2797342 0.13849795 0.3416826 -0.69689536 0.13969366 -0.015776265 -0.19127648 0.101624236 0.11086822 -0.33727863 -0.07797443 0.34792548
6239.R09B3.1a.1 0.27061307 0.15311071 0.12476406 0.3456889 -0.15489373 -0.28589243 -0.10199028 -0.44162557 -0.04884553 0.45785284 0.032332327 -0.14879838 -0.07933728 0.13987999 -0.017227689 0.2899043 -0.19240767 0.11466377 0.07328865 0.46756417 -0.2888407 0.12982254 -0.032982547 -0.7170643 -0.199856 0.39640567 -0.38330418 0.6459905 -0.15441659 0.0064371643 -0.06769146 0.0042634895
6239.K08E7.7 0.3144281 -0.40438437 0.31979913 0.7237925 -0.5859483 0.21632218 0.27633044 -0.18469885 -0.29654834 0.060245626 -0.07104696 -0.3516772 0.44283527 -0.4643839 0.35712755 -0.031454645 -0.16455367 -0.09483671 -0.22080727 0.06394309 -0.27310088 0.1388325 -0.04427236 -0.4668054 -0.2931845 0.11709985 -0.19887611 0.08605793 0.23174644 -0.05178211 -0.12260904 0.3383722
6239.Y110A7A.4 0.13661547 -0.11876598 -0.16444503 0.41717196 -0.25383663 -0.35854053 0.051794022 -0.51440954 -0.040516213 0.2025802 -0.008906004 0.003748454 0.4409744 0.12182632 0.038915277 0.14054914 -0.47889936 0.057187837 -0.102262385 0.4255145 -0.4445988 0.06313402 -0.10373244 -0.5636649 0.0656721 0.25666186 -0.32524928 0.37545487 -0.47141668 -0.06641921 -0.28794625 -0.15633097
6239.F59A2.1b.1 0.3345809 0.15008938 0.14718853 0.27144906 -0.18281333 -0.14727604 0.041578673 0.018092062 -0.46710154 0.31599826 0.33621404 -0.061118208 0.25681594 0.24467453 -0.10964211 -0.26239923 -0.4331626 -0.43875468 0.14853285 0.4825373 -0.26047873 0.10507977 0.02262908 -0.3647762 -0.1419738 -0.16380121 -0.3225659 0.322261 -0.006550901 -0.29044864 -0.14357622 0.3903726
6239.C27B7.8 -0.05615351 0.006948562 -0.12367535 0.46620208 -0.026836934 0.16686001 0.072339445 -0.10421257 -0.55986214 0.06413167 0.21223518 0.2373399 -0.23562041 -0.015750479 0.01810922 0.29228806 0.016736068 -0.022772778 0.42164263 -0.18559733 0.19213085 0.17987235 -0.13290235 -0.8851148 0.22573575 -0.05380162 -0.49430564 -0.33348787 -0.06407362 -0.28580317 -0.29007006 0.3302717
6239.C10C5.6c 0.36101994 -0.25293 0.11356362 0.18282585 0.22296779 -0.26790476 0.33718225 -0.01676317 -0.46014622 0.0612168 0.10391937 -0.44088122 -0.07709088 0.19612437 0.03184208 -0.18876252 0.18306327 0.07453103 -0.21182273 0.07154404 -0.08510781 0.18790156 -0.16859652 -0.8952028 0.10542578 0.07933146 -0.18749528 -0.16202392 0.19184189 -0.43551335 0.061182044 0.4994845
6239.K08E3.6.1 0.22167054 0.07646318 -0.17516461 0.13721454 -0.26324227 -0.14453557 -0.077428944 -0.48097354 -0.3497024 -0.19602515 0.35639313 0.25429642 0.36875832 -0.019689364 0.15323655 -0.1863386 -0.32105833 -0.11433176 0.2715353 0.57948476 -0.18803205 -0.027122153 0.15226448 -0.7217426 -0.20389354 0.19795454 -0.42870095 -0.028768169 -0.41975743 -0.04841898 -0.10814727 0.2908101
6239.C32D5.9 0.1173001 -0.5911064 0.08694717 0.072401166 0.29394066 -0.13217758 0.5416188 -0.11474057 -0.53276193 0.38021046 -0.018779986 -0.36888936 0.034907132 -0.12904151 0.1470941 0.13396232 0.13206482 0.2260252 -0.40320757 0.4251991 -0.41554943 0.2043355 0.10153421 -0.48508802 -0.03788729 -0.08224811 -0.34128207 -0.048035488 0.39852124 -0.22972488 -0.026575394 0.33493614
6239.C32F10.5 0.53144795 0.10394114 0.1297388 0.20551413 -0.13426356 0.1341301 -0.07435897 -0.440676 -0.19032186 0.26889333 0.05908477 -0.1643469 0.02799522 0.148795 0.14670593 -0.11136298 -0.44896075 -0.21424542 0.30124873 0.69097 -0.05210508 -0.10334966 0.03818576 -0.38221747 -0.3693246 0.11585695 -0.5952035 0.46277556 -0.07976102 -0.12196529 -0.04535469 0.09156981
6239.W10C8.2 0.18686569 -0.4040434 0.36511713 0.276057 0.2079113 0.060375705 0.2928572 -0.2431101 0.10228984 -0.045622114 0.5751176 -0.036925785 0.18399101 -0.19201681 -0.025057804 -0.04955642 -0.05522626 -0.016206695 0.126906 0.31629154 0.48728096 0.6092638 -0.4558447 -0.23921765 0.12829196 0.28206068 -0.49098772 -0.06499088 -0.19773383 0.0020635268 0.031369917 0.4487668
6239.F26D11.11b 0.010149821 -0.040668905 0.18838859 0.2627102 -0.045128934 0.13471554 0.014248019 0.0209455 -0.5175513 -0.36110175 0.16439657 0.34122923 0.21085717 -0.40467483 0.39083207 0.08691188 -0.12464912 -0.049088128 0.022468729 0.26825455 0.43719324 0.43379503 -0.024806088 -0.46187174 0.13828082 0.13997687 -0.1388061 0.13331847 -0.32683483 -0.3685713 0.039269388 0.488721
6239.W09C5.2 0.25871626 -0.05721618 -0.0025510443 0.2312933 -0.13355644 -0.03244303 0.08933565 -0.4659858 -0.35682824 0.013995054 0.18810518 0.16125646 -0.047442008 -0.00792019 0.2658154 -0.1931604 -0.19800766 -0.24811402 0.36614594 0.47183037 -0.33151674 0.008676758 0.11412981 -0.50482 -0.20969313 0.05045525 -0.47656474 0.09393934 -0.11896592 -0.084649354 -0.08426147 0.2943113
6239.Y71F9AL.16 -0.3365597 -0.22393407 -0.6100368 0.30846572 0.11990502 -0.26579458 -0.10368919 -0.28804576 -0.70838696 -0.191428 -0.04304779 -0.14573093 -0.0535061 -0.34010127 0.24945088 -0.04775954 0.24300247 -0.268066 0.30849916 0.54517865 0.16280906 0.3379654 0.008209489 -0.22357295 0.11811195 0.11095279 -0.56598985 0.19216962 -0.23989944 -0.18427256 0.031353723 0.048045285
6239.ZK520.4a 0.28437138 -0.0612653 0.33473146 0.47556877 -0.66155905 0.1822611 0.24033572 -0.055755228 -0.33953524 0.14384466 -0.048648424 -0.40164632 0.31720045 -0.5167657 0.2678052 -0.24647725 -0.056772795 -0.119972795 -0.04269463 0.18286884 -0.2741311 0.29743853 -0.05867826 -0.33224 -0.47654736 0.16779874 -0.37740213 0.082262814 0.07764083 -0.024153067 -0.33511624 0.51201576
6239.D2005.5 0.52840495 0.048083678 0.16016495 -0.15848602 -0.13169836 -0.28600213 -0.50661325 0.017805573 -0.28534958 0.3557674 -0.049453504 -0.4415389 0.47443554 0.15312687 0.31230828 -0.041823473 0.022008594 -0.19524659 -0.22360586 0.37216747 -0.0648424 -0.14244269 -0.127639 -1.0359925 -0.38687915 -0.06198669 -0.5576492 0.5532347 -0.18419686 0.12496567 -0.20321718 0.24788149
6239.M79.1a 0.006100145 0.091132015 -0.09686184 0.11661971 -0.08915246 0.112932354 0.13245091 -0.13061024 -0.416101 -0.23335508 -0.06990257 0.026398374 0.18139711 -0.05299521 0.10009553 0.19918062 0.08568328 0.10339581 0.11168817 0.32683605 0.51323205 0.3600667 0.2114871 -0.50454885 0.19311443 0.37019005 -0.6139808 0.13137424 -0.017651325 -0.32838058 -0.30990198 0.37491342
6239.VW02B12L.1.1 -0.09067978 -0.8175355 -0.24883391 0.36588496 0.047694795 -0.056290187 0.047398873 0.39014676 -0.39835736 0.4561279 -0.22387245 0.20982799 -0.06950542 -0.42810032 0.07905272 0.12652381 -0.27822423 0.12615824 -0.01768778 0.3142045 0.15763515 -0.53720206 -0.4096319 -0.36428937 -0.08985738 -0.13033886 -0.26914766 -0.1613042 -0.18963842 -0.6288509 0.05331296 -0.014854053
6239.Y53C10A.12 0.04203137 -0.20137493 0.3081328 0.25178704 0.3065554 -0.2981929 0.27755457 -0.39253026 -0.39772847 0.15187615 -0.029983297 -0.43679106 -0.10323942 0.047125302 -0.16878287 -0.10963275 -0.18367065 -0.06357617 -0.14361157 -0.0145125985 0.27157325 0.22134838 -0.04523838 -0.567115 -0.32173476 0.13964368 -0.29218623 -0.018307684 0.08138034 -0.38352254 -0.058546625 0.23092508
6239.ZK507.6 0.2657739 -0.05528814 0.09150524 0.20681183 -0.25144413 0.061002046 0.07851599 -0.45767534 -0.116459124 -0.1424471 0.37519386 -0.2982789 0.44219553 -0.16919085 0.0717785 -0.24457458 -0.4133618 -0.12835094 0.11410127 0.30130205 -0.26389945 0.030814536 1.1950703e-05 -0.65355766 -0.112441376 0.15265985 -0.48398545 0.09383516 -0.21407564 -0.04096175 -0.32380557 0.20890561
6239.T01C8.1b 0.3542873 -0.41377065 0.26891375 0.24334612 0.44032174 -0.46217704 0.5838106 -0.15569158 -0.47530013 0.03446569 -0.028709581 -0.08458684 -0.10626467 -0.15869692 -0.018640658 -0.16739106 -0.033919588 0.026968746 -0.12516885 -0.13636746 -0.004502509 0.34497952 0.25118488 -0.61747444 -0.09658568 0.2462175 -0.15085877 -0.08969107 -0.033036936 -0.22831275 -0.07479766 0.193528
6239.F35G12.4c 0.58034056 0.036841113 0.088964954 0.40111175 -0.25878257 0.096798964 -0.10687937 -0.19028004 -0.014790351 -0.023809142 -0.0017199974 -0.1714268 0.06604077 0.03404868 -0.031906884 -0.1507838 -0.05100236 0.052448187 0.27780747 0.517654 -0.5033819 0.09131074 0.020872036 -0.6422819 -0.3184565 -0.17943245 -0.445651 0.46502873 -0.06915204 -0.05056679 -0.071183905 0.4388111
6239.C26C6.1a 0.49611527 -0.002912594 -0.09332032 0.09220839 0.053243175 0.15670153 0.21840663 -0.10567028 -0.33441484 -0.061477832 0.2309399 -0.5864129 0.11047123 -0.21270989 -0.21450429 -0.3656689 -0.2949215 -0.15995868 0.035980873 0.12676463 -0.14688502 0.3946704 -0.31404746 -0.33340546 0.021296436 0.13870609 -0.62666637 0.30577272 -0.3341196 -0.137325 0.060225327 0.28769097
6239.M106.1 0.35446212 0.1318712 -0.09254427 0.1654122 -0.16771823 -0.050439816 0.28591228 -0.25692317 -0.24098967 -0.12149868 0.35686582 -0.30935407 0.39763075 -0.18387268 -0.07839704 -0.2840296 -0.65675205 -0.1412394 0.093052804 0.3627509 -0.4485905 -0.049789645 -0.0043361164 -0.89644444 -0.15269354 0.14497812 -0.54311806 0.33304384 -0.35904232 0.19320947 0.18155907 -0.057873223
6239.B0336.2.1 -0.17054652 -0.14345594 -0.08708745 0.58140874 0.15550727 -0.033014584 -0.12953204 0.20411405 -0.74095356 0.19595218 0.26123238 -0.032365654 -0.038118318 -0.26054418 -0.048756663 0.06325288 0.026295928 -0.29167283 0.28280574 0.04955407 -0.09150716 -0.13561611 0.12587804 -0.54198265 0.20022628 0.12266758 -0.47357205 -0.11881704 0.091033645 -0.26315796 -0.26724628 0.2570616
6239.F10G7.4 0.5468611 0.21397306 -0.0744709 0.099655986 -0.2532117 -0.15092276 0.16266885 -0.48655233 -0.266312 -0.01066399 0.34324914 -0.14280705 0.07400099 -0.011974554 -0.04060767 -0.25813198 -0.5096437 -0.021196643 0.28852913 0.41657114 -0.26427156 0.073191136 -0.005371163 -0.8344422 -0.17485812 0.25364095 -0.3909322 0.28678265 -0.30777267 -0.0211548 0.09643933 0.112957455
6239.C38C3.5b.2 -0.37607446 0.020735575 -0.19904196 0.2651045 0.28193462 -0.22276503 0.011578941 -0.17456757 -0.5998658 -0.111154996 -0.13667275 -0.08357614 0.0322812 -0.48184398 0.4214033 0.26623467 -0.020783233 -0.39967462 0.035241283 0.4438283 0.108137615 0.17454387 0.042079527 -0.25051078 -0.026387447 0.18703128 -0.3941474 -0.049509127 -0.041150376 -0.4032938 -0.21489905 0.21054502
6239.Y54E10BL.6 0.25632638 -0.13728277 0.33415347 0.30233982 0.050238527 -0.16539083 0.37927744 -0.20327465 -0.49907622 -0.21680741 0.28592515 -0.21649848 0.079326384 -0.0034797604 0.09462721 0.23514438 0.060716502 -0.063137166 0.3871671 0.0026880964 0.4681718 0.17199309 0.26559815 -0.5493415 0.15220763 0.2522124 -0.44664538 -0.1186023 0.017507989 -0.1200118 -0.20593461 0.24302863
6239.Y37D8A.9b 0.47720948 0.1871562 -0.15589635 0.21367292 0.056676418 0.13079402 0.023775717 -0.57611483 -0.19470197 0.05871863 0.1596179 -0.4794002 0.0388663 0.03745743 0.013030835 -0.17013359 -0.4086855 0.09206983 0.23821452 0.45825982 -0.24497758 0.23432608 -0.08259074 -0.49984357 -0.38533607 -0.02734494 -0.61229813 0.2699846 -0.32849598 -0.14129438 -0.046334974 0.24400383
6239.T01G9.6b.1 -0.16969526 -0.024720225 0.6235464 0.38254422 -0.17618465 -0.06779172 0.123771995 -0.25890735 -0.5143464 0.05679021 0.038703397 -0.28836253 0.16346323 -0.09576562 0.58376724 -0.31465164 -0.41369763 -0.013276595 0.18806063 0.15330149 0.23930827 0.23747875 -0.21461073 -0.2528332 0.27408773 0.026624197 -0.5700625 0.21755077 -0.11870263 -0.29424763 0.02708436 -0.37081584
6239.C33D3.1 0.07201761 -0.50154847 0.26706147 -0.12298408 0.19146708 -0.17972054 0.12881997 -0.123615846 -0.12881348 0.07086231 0.05453562 -0.2976432 -0.03893813 -0.4114689 -0.46285355 -0.13640289 -0.08520476 -0.16021888 0.20517495 0.22325282 0.1669843 0.33614996 -0.48657352 -0.26794192 -0.039145667 0.24662937 -0.33720797 -0.07818946 -0.28911835 -0.26098168 -0.102541685 0.12863629
6239.R08E3.4b 0.21323186 -0.29438323 0.047070812 0.16795571 0.13796864 0.090667196 0.00946995 -0.23501684 -0.15467542 0.020332448 0.21478127 -0.4137411 0.09720149 -0.3752727 -0.123443425 -0.07449359 -0.066141576 -0.22901712 0.10978389 0.053785823 0.14160535 0.62819815 -0.3073559 -0.44820935 0.07345378 0.23812993 -0.24762295 -0.011385722 -0.3308521 -0.23954187 -0.1315527 0.289072
6239.F35D6.1a 0.06404671 -0.14809018 0.3119765 0.25844988 -0.34516886 -0.063376196 0.3972256 0.14719634 -0.39677596 -0.009726985 -0.09937854 -0.33018082 0.11762111 -0.33594754 0.42888966 -0.13721222 -0.1303337 0.004607243 -0.08762711 0.40056422 -0.095167086 0.33097062 -0.1011289 -0.46935603 -0.42674923 0.11582081 -0.14307784 -0.2785294 -0.1319472 -0.043094736 -0.29190168 0.42309877
6239.F25H2.5.1 -0.26025933 -0.104439646 0.45704082 0.5849462 -0.08015073 -0.5380451 -0.08789813 0.077121966 -0.31548643 0.07560228 -0.14281675 -0.4327082 0.14794725 -0.017055193 0.52484924 0.16568945 -0.11475715 0.13954522 0.1950772 0.28755555 -0.007558239 0.23390171 -0.20968238 -0.27772665 0.27753544 0.40914896 -0.48974243 0.13192041 0.10524368 -0.40483057 -0.18204851 -0.5598409
6239.F58A4.8 0.17994803 0.16206944 0.013353877 0.16595414 -0.048675757 -0.20447204 -0.010799429 -0.009083745 -0.23260167 0.13710937 0.18366466 -0.17036994 0.27836937 0.06049113 0.074267894 -0.19417739 -0.49965188 -0.13843393 0.33933678 0.59890807 -0.321452 -0.06022006 0.2758075 -0.6278558 -0.2418044 0.19560464 -0.36918354 0.033840448 -0.10259613 -0.235176 -0.20841077 0.171363
6239.Y41D4B.13a 0.06845051 -0.034533992 -0.05473239 -0.02187173 -0.1666599 0.18846019 -0.022445874 -0.3072262 -0.31540304 -0.10803815 -0.121961996 0.003438126 0.18976519 -0.012723902 0.0726935 0.2501332 0.23965761 0.47620633 0.31807876 0.37719023 0.35779014 0.22399308 0.30374345 -0.5719908 0.13108383 0.12059537 -0.7692766 0.11293435 -0.13654365 -0.20780745 -0.45198715 0.33997834
6239.F45E12.3 0.2642486 -0.14835465 0.12109901 0.5251666 -0.42965412 0.3271209 0.10638034 -0.2231158 -0.053377837 -0.037137046 -0.061432306 -0.4455746 0.20061713 -0.17857395 0.12719415 -0.041956186 -0.32304022 -0.21370839 -0.09502546 0.24563593 -0.19332059 0.3936165 0.012980643 -0.6526977 -0.39556295 0.18818851 -0.22981045 0.61317253 0.028636802 -0.14872606 -0.15722635 0.27831236
6239.C48D1.2a 0.13424347 0.00335543 0.09359503 -0.18811853 -0.02804061 0.1555763 0.40775716 -0.04762902 -0.18842062 0.27933693 -0.22840892 -0.31803653 0.37541857 -0.10519357 -0.04316383 0.3209437 0.009579037 0.25454032 0.28445753 0.49944407 0.35918972 0.18896182 0.22877307 -0.5350688 -0.15164405 0.16321644 -0.66110325 -0.0087149395 0.06751263 -0.003053074 -0.5872128 0.21716975
6239.K02B9.1 0.6875955 0.2383559 0.46705037 0.04123248 -0.30260986 -0.31518474 -0.5874892 -0.3336186 -0.22705469 0.6578695 -0.04053685 -0.20892629 0.09503734 -0.021629497 0.28103358 -0.28396583 0.098841965 0.028331762 0.1951755 0.5916019 0.0724884 -0.19434746 -0.025193054 -0.3781773 -0.26638097 -0.14878066 -0.7039843 0.1869712 -0.36439994 0.03048706 -0.32267886 0.51476467
6239.F43G6.1a 0.5304188 0.14044982 0.14794101 0.08247716 -0.076387584 -0.08565137 -0.024211232 -0.26596338 -0.13496768 0.10803809 0.13192713 -0.18156461 0.36182827 0.14041549 0.066776745 0.115972236 -0.1454422 -0.1477668 0.1262716 0.5357395 -0.31050017 0.017011555 -0.12813699 -0.8925242 -0.1241204 0.15625276 -0.41135213 0.6399954 -0.1967791 0.11398666 -0.1723569 -0.043335415
6239.ZK1058.2 -0.3192326 0.14809927 0.06504493 0.055126496 -0.2147058 0.09407372 0.16711894 -0.024278017 -0.2665923 -0.266358 -0.15723102 0.2841378 -0.39543068 -0.13192742 0.1409088 0.69063663 -0.07009129 -0.02657847 0.13104011 -0.023279095 0.08533437 0.19266944 -0.53804666 -0.7906398 0.18210343 -0.031122858 -0.58107084 -0.17660064 -0.14299956 -0.4054865 -0.18859735 0.6026363
6239.W01B6.9 0.38368368 0.14053327 -0.15140752 0.09222424 -0.20120977 -0.11300302 0.013847857 -0.65755695 -0.18029076 0.00820551 0.24320339 0.0018282732 0.3746058 0.020640451 0.005497972 -0.18871133 -0.5989701 0.00018501535 0.23420818 0.4968527 -0.38536352 0.011706936 0.14087167 -0.80456674 -0.24376793 0.057701934 -0.4478488 0.30030447 -0.41918308 -0.009751659 -0.09554799 0.094321266
6239.K04F10.4d.1 -0.031444985 0.06253089 0.15080503 0.31953397 0.24877572 -0.31691325 0.11753849 0.18375382 0.10092786 0.18548107 0.0036707576 -0.06701388 -0.07840526 -0.46263722 0.17174771 0.40764135 -0.0126762865 -0.023873923 0.108420186 0.3835311 0.19371162 -0.081642024 -0.30264297 -0.5587054 -0.15836231 -0.090255596 -0.43266773 0.30151823 0.117567845 0.05711331 -0.04552572 0.41733482
6239.C03D6.5 0.65103513 0.08104258 -0.0814197 0.36433583 -0.32363024 -0.10191194 -0.029656127 -0.56867445 -0.18134141 0.26353586 0.091290794 -0.33365822 -0.014943157 -0.015234101 -0.13160239 -0.054807164 -0.326104 -0.029213862 0.36941025 0.43886644 -0.1962967 -0.121077165 0.24336842 -0.49190745 -0.26102293 0.15621835 -0.43898228 0.52091366 -0.28841862 -0.10148396 -0.14940985 0.14107557
6239.F14F3.1a 0.06405052 -0.1909926 0.22707981 -0.18778661 0.15663421 0.0127303125 0.123990074 -0.00612778 0.30766186 0.052359145 0.2366704 0.11110944 0.27767777 -0.32207343 -0.32145384 0.12947378 0.03709562 -0.2876122 0.13988839 0.4786248 0.18421099 0.58913463 -0.38387036 -0.37130797 0.20632227 0.05992929 -0.5391062 -0.07495996 -0.28806993 -0.16945876 -0.12662044 0.45282137
6239.F31E8.2b -0.016136056 -0.60545677 -0.40132338 0.4971551 0.018385202 -0.2503958 -0.09402457 0.011749412 -0.4313455 0.07022112 -0.1634312 0.36247626 -0.14323777 -0.38581365 0.0074803536 0.17509656 -0.18043852 -0.07699098 0.2886907 0.40654024 0.4863696 0.4588188 0.22983573 -0.27973893 0.17569938 -0.64017844 -0.5363414 0.026452692 0.11676816 -0.026987452 0.29403034 -0.15231206
6239.F26F12.7 0.39239267 -0.0064390525 -0.12463651 0.0722226 0.01801472 0.20907795 0.022470163 0.003162431 -0.2765806 -0.04184812 0.27201608 -0.77114713 0.09343258 -0.08046823 -0.15260717 -0.19935654 -0.54176474 -0.20083661 0.040899675 0.289853 -0.017349645 0.25047544 -0.45230576 -0.54487866 -0.2518503 0.07100902 -0.5727346 0.38320428 -0.318635 -0.08944827 0.02452243 0.09506913
6239.K08E3.7.2 0.057451777 -0.30820847 0.043653447 0.5041633 -0.41875824 -0.10640688 0.34735638 -0.20807643 -0.34496748 0.49731684 -0.11205854 -0.0602839 0.38725194 -0.15193461 0.063591264 0.3138089 0.057782777 0.067238815 -0.0933294 -0.0067218565 -0.16174397 0.6862481 0.111207165 -0.2609901 -0.47491807 -0.056674276 -0.30341402 0.060770534 0.16165371 -0.35794666 0.08160279 0.49367902
6239.C30G12.7 0.56748545 0.18975818 0.36603358 0.052482367 -0.25004697 -0.36343822 -0.2597126 -0.00036925983 -0.18962422 0.55249983 0.06255465 -0.29272845 0.08638245 0.03129697 0.29565802 -0.38588062 0.021223195 -0.24559358 0.14668113 0.38619778 0.2757909 -0.13857326 0.022562377 -0.5229869 -0.33180612 -0.15945908 -0.6403592 0.16383535 -0.35013098 -0.04806635 -0.21630313 0.39935493
6239.ZK328.5b 0.3782349 0.4484508 0.05256301 -0.05705302 -0.02945244 -0.29921824 -0.30930647 -0.19262736 -0.51170945 0.6031353 0.13687004 -0.18204427 0.31092104 0.2921184 0.18633257 -0.400452 -0.6220026 -0.46922734 -0.3201646 0.40846142 -0.03570589 0.24534442 -0.115425415 -0.44476622 -0.23691553 -0.064229466 -0.6096448 0.20968775 -0.32567555 -0.1831527 -0.08488291 0.42543396
6239.F57B10.12 0.4619226 0.1596485 0.2066978 0.21983422 -0.32933947 -0.3986163 -0.10905783 -0.47887677 -0.050776348 0.36448407 0.035501227 -0.0018458735 -0.22281286 0.021136587 0.11981217 -0.21922706 -0.18120122 0.08375656 0.4811101 0.7503171 -0.25301114 -0.22697441 0.23415945 -0.4511987 -0.5312486 0.05809958 -0.57680345 0.108757816 -0.20282133 0.054178555 -0.32169643 0.46202826
6239.C44B11.3 -0.056520052 -0.3221667 -0.22972356 -0.007871349 -0.17230146 -0.46315166 -0.15023115 0.15184854 -0.2090157 -0.072564304 0.0451473 -0.17638133 0.17128944 -0.46668965 -0.001908239 0.24016523 -0.60985994 -0.3021784 0.1472494 0.09519301 -0.14942417 0.11964761 0.46202454 -0.5275401 0.05743428 -0.27942923 -0.37454164 -0.36197212 -0.15664934 -0.4631279 -0.12711789 0.017696934
6239.W10D5.1 0.2561917 -0.3512458 0.18450703 -0.05375412 0.20633009 -0.09952929 0.08394801 -0.33738503 -0.25328356 -0.17952445 0.3243238 -0.20132777 -0.24902375 -0.43664402 -0.22906567 0.12098362 -0.12372475 -0.19642493 0.4136209 -0.008131797 0.18562214 0.58925104 -0.25966334 -0.40046218 0.096877426 0.017395278 -0.24383922 -0.025659781 -0.2689597 -0.4077879 -0.0016354527 0.1214736
