2968 64
6239.T27C10.6 -5.1208543e-05 -0.15625073 0.14883918 0.17972088 -0.13630992 -0.08064944 0.16108271 -0.09636006 -0.08473477 0.17221412 0.27062747 -0.29255295 -0.17781033 -0.20509589 0.009229135 0.116468444 -0.2102881 -0.17130233 0.13045484 0.1920356 0.09821815 0.35753962 0.06955445 -0.30005985 0.004382239 0.2357393 -0.0994923 -0.016028218 0.09469771 -0.23546195 -0.06846601 0.03175752 0.2662232 -0.11862015 -0.04296849 -0.002191786 -0.0040850784 -0.15340674 -0.14704834 -0.066447735 0.046471857 0.1305323 -0.13499457 0.075814314 0.3215851 -0.1688411 0.101011835 -0.112513356 -0.19483736 -0.0627217 0.18591496 -0.031876586 0.07388325 -0.027977912 -0.15720464 0.10006204 0.12209528 -0.36944202 -0.09274278 0.07662331 0.032451615 -0.010782092 -0.02322514 0.18371359
6239.T25C8.2.1 -0.012663848 -0.10005929 0.073849134 0.21591564 -0.06382237 -0.3506562 -0.02986922 -0.06765978 -0.044984657 -0.13052794 0.18700619 -0.22914901 0.00052558165 0.08354288 -0.03254973 0.2664911 -0.31896946 -0.26667154 -0.07907188 0.23028469 0.2563755 0.42776254 -0.033264935 -0.09919251 0.102308095 0.01579739 -0.020398024 -0.068680264 0.019378416 -0.00495669 0.2535207 0.26620746 0.075497374 -0.085608125 -0.03374315 0.117199145 -0.120523706 0.21953772 -0.121583425 0.13719232 -0.099174924 -0.14515221 0.006429185 -0.07955787 0.110948555 -0.38940835 -0.08986098 -0.36925575 -0.2821722 -0.1842241 0.17505766 0.08189603 -0.023363164 -0.11485268 -0.102033466 0.054952513 0.041807175 -0.2617007 -0.07816911 0.08645851 -0.105406426 0.026746267 0.028464094 0.07018216
6239.T07A9.6 0.048088726 0.060644463 0.19538043 0.21798372 0.016591761 -0.012677532 0.086379334 0.11755347 -0.011711224 0.04379842 0.4572459 0.02287338 0.16312571 -0.047439426 -0.10335979 0.38305277 -0.3574156 -0.06017357 -0.018262036 0.33352712 0.0014368428 0.14593975 0.21536385 -0.28360936 -0.27282345 0.2965868 -0.11211429 0.22183003 0.40768906 0.039394286 -0.03446885 0.187699 -0.0201523 -0.019289613 -0.03369615 -0.019414801 -0.0562888 0.07527566 0.07236189 -0.064546175 -0.0795298 0.1906693 -0.14949079 0.20649487 0.4418323 -0.08574302 -0.2436539 -0.13097253 0.03951495 0.002475382 0.083152786 0.183513 -0.03324295 -0.04096849 0.004291608 -0.056267727 0.15753283 -0.055343296 0.05767514 0.0670763 0.07071041 -0.08628796 -0.121747844 0.41855767
6239.F43C1.2b 0.0065058838 -0.027845785 0.08189443 0.114480905 -0.041355312 -0.10757829 0.18074518 -0.1582008 -0.071736485 0.052191496 -0.07057347 -0.20249239 -0.28884184 0.013730917 0.042020258 0.39728284 -0.20568763 -0.1672127 -0.35150126 0.34977975 0.14720808 0.22270735 0.3104408 -0.53581876 -0.18539642 0.224908 -0.18450135 0.029800689 0.14539008 0.07911858 0.008984352 -0.10874917 0.098220676 0.09669489 -0.13206105 -0.03026279 -0.054872382 0.00033441238 -0.067032926 0.14260684 0.08890519 -0.07411266 -0.19402629 0.009588097 0.20763691 -0.20796314 -0.15582994 -0.12152116 -0.0919752 -0.10003738 0.22733523 0.039812475 -0.017657889 -0.073644415 0.22815043 -0.07477204 0.0129520465 -0.29536745 -0.2875773 -0.06764371 -0.03822146 -0.00869909 -0.21773662 0.1992489
6239.T05G5.3.2 0.07746165 -0.079197474 -0.015273178 0.10486126 -0.2523692 -0.19322236 0.23781924 -0.0053052516 0.0003539622 -0.24071828 0.27702954 0.10953274 -0.13014613 -0.09875584 0.05622899 0.23921727 -0.394695 -0.17158835 -0.016109977 0.34744364 0.12200424 0.2706573 -0.009291585 -0.29455763 -0.32501203 0.17943527 -0.26252648 -0.0405626 0.17406388 0.09233339 0.027744448 0.22269535 0.22794454 0.040343326 0.0046059825 0.06544451 0.25125384 0.13039698 -0.18972526 -0.0554948 -0.017092189 0.11598311 -0.10132135 0.17977281 0.49889988 0.2140554 0.060540028 -0.086082436 0.042374454 -0.022700898 0.111230075 0.18868674 -0.015255792 0.07412784 0.21769552 -0.15603274 0.08389492 -0.17873676 -0.1293588 -0.057072267 0.046730503 -0.088920005 -0.12532485 0.30322185
6239.F25B5.4a.2 -0.081523865 -0.09187021 0.40082106 -0.019539366 0.07301136 0.09801635 -0.16425435 -0.5619395 0.048415177 -0.09070888 0.2051031 0.15167496 -0.0973173 -0.20591949 0.055970073 0.3423914 -0.20645249 -0.24930646 -0.071551844 0.14832921 0.13466148 0.033314403 0.018311502 -0.14607772 -0.1965869 0.4108397 -0.308785 -0.14752811 0.24294263 -0.36410198 0.28652552 0.111299306 -0.031414907 -0.13117705 -0.004409349 -0.06644744 -0.21865572 0.20648931 -0.04850375 -0.050804663 -0.065890186 0.02454381 -0.057714906 0.42271173 0.46467474 -0.2983803 0.25874966 -0.07129677 0.1655696 -0.1334655 -0.051684875 -0.043445192 -0.27347586 -0.094179064 -0.49360168 -0.33554295 0.44677815 -0.31659526 -0.2322355 0.0322188 -0.3362194 -0.29728878 0.1096961 0.09624676
6239.C47E8.5.2 -0.21861006 -0.08756863 -0.05927488 -0.05912553 0.07146261 -0.17451972 0.059824858 -0.34671697 -0.21758947 0.21842532 -0.045710832 0.023220167 -0.10755841 0.0188923 -0.037724633 0.34052616 -0.22080407 0.11121438 -0.10108048 0.38585263 0.06101141 0.3875395 0.023985324 -0.28709105 -0.1752554 0.3187898 -0.1559066 -0.009447957 0.13425887 0.13305436 0.26624453 0.086033486 0.10345833 -0.0726138 0.056871496 -0.030873673 0.050197653 -0.2188169 -0.102050684 0.15554121 0.1595549 0.12876678 -0.11396976 -0.05723485 0.17607127 -0.058945626 -0.09416493 -0.14512143 -0.24375765 -0.1823507 0.26429492 -0.054094423 0.012389792 0.02906616 -0.19931209 -0.07505313 0.12479003 -0.33584818 -0.23472159 0.062231816 0.036485255 -0.032034457 0.19119263 0.32654724
6239.R13H8.1h -0.090974376 -0.34383085 0.15242815 0.22575137 0.1108422 -0.13308331 0.07157937 -0.07605472 -0.32713625 0.12298035 0.41349846 -0.08280334 0.0059220954 -0.109710254 -0.034192722 0.31196415 -0.24434549 -0.034302417 0.06613146 0.51787156 0.061335657 0.38420552 0.18125133 -0.2751104 -0.058763746 -0.036523342 -0.21824633 0.11867983 0.49833024 0.1390392 0.054468103 -0.037311018 -0.17574795 -0.38555685 0.062296085 -0.04526102 -0.06236774 -0.0022243608 -0.08726565 0.117366984 0.14629172 -0.08713602 -0.053142287 -0.048352905 0.003322215 0.11956146 -0.22895962 0.024803046 0.19534929 0.056052342 0.15121643 0.19533731 -0.08463241 -0.010124712 -0.08599322 0.27834412 0.11587428 -0.014332318 -0.26970208 -0.023100438 -0.18555884 0.0059848716 5.4542666e-05 0.109438166
6239.ZK792.6 0.1652158 -0.2140568 0.1955557 -0.01243075 0.04920455 0.042328153 0.30432937 0.071886934 0.14996576 -0.02311213 -0.16499639 -0.18237217 0.08629688 -0.1423452 -0.007457896 0.2795311 -0.20189022 -0.1374269 -0.3694144 0.40020755 0.15305978 0.2262603 0.0007506269 -0.45434254 -0.15012851 0.28364524 0.005285856 -0.06862514 0.12775955 -0.07104013 -0.19474928 -0.026009357 -0.1328223 0.0033768553 0.09921507 0.19572209 -0.15568185 -0.104480416 -0.052394144 0.10895748 -0.06180565 0.1294919 -0.06480991 0.0047839615 0.45249775 -0.15933393 -0.07220326 -0.30335152 0.008634723 0.26823157 0.50415784 -0.08205168 -0.06766015 -0.22883612 -0.04673665 0.10819736 0.077885486 -0.15601201 -0.27704936 -0.0034224256 0.03738158 -0.03574921 -0.3251101 0.12815896
6239.Y55D5A.5a -0.062479142 -0.26920426 0.21113412 0.23823886 0.15782967 -0.06924926 0.04243064 -0.102011316 -0.23420392 0.16723214 0.41065782 -0.026538126 0.14991981 0.032408025 -0.03241187 0.12852105 -0.17193373 -0.0943172 0.12662023 0.41027582 0.008833389 0.14420356 0.23382512 -0.37978542 -0.043529265 0.16972592 -0.14001879 0.21200804 0.41917348 0.05198332 0.08239197 0.13014032 0.042327736 -0.21727996 0.046547744 -0.070853144 -0.1620643 -0.10303579 -0.14337239 0.12298117 0.24456313 0.06449101 -0.08979051 -0.024014302 0.029069709 -0.1199509 -0.35256574 -0.16243981 0.054645553 0.030848453 0.24971752 0.20112118 -0.01157075 -0.1577693 -0.21668714 0.20332558 0.06022829 0.014204651 -0.31272915 0.12294133 -0.19522785 0.09988461 -0.008645708 0.102083735
6239.ZK1010.1 -0.11279278 -0.118500315 0.5234928 0.033526286 0.114519954 0.14144526 -0.2303109 -0.6226124 -0.044379298 -0.12866174 0.19816251 0.055139158 -0.32302615 -0.15878955 -0.07541642 0.3502761 -0.26429448 -0.40031156 -0.052098744 0.11922973 0.22673306 -0.0020748363 -0.108937465 -0.09625464 -0.21330291 0.40407202 -0.35806248 -0.2795252 0.2337861 -0.48162687 0.33050248 0.11866155 0.068756446 -0.0683038 0.0056157387 -0.115426704 -0.30027375 0.15184897 0.076874405 0.01966884 0.25016934 -0.088252895 -0.09037983 0.38663265 0.45470896 -0.20682395 0.3994216 -0.005556726 0.24032947 -0.05656365 -0.02445153 -0.08751434 -0.28037232 0.007394189 -0.6807937 -0.33845395 0.61326593 -0.32778865 -0.2561932 -0.08731641 -0.26905158 -0.1297625 0.21323064 0.0789756
6239.Y43C5A.6a 0.172912 0.076031946 0.2737879 -0.082213506 0.17727312 -0.36238724 0.14391251 -0.23057918 -0.07310724 -0.39349508 0.25064144 0.077188596 -0.1369958 -0.15490645 -0.10396733 0.15372452 -0.4557433 -0.19550367 0.2186638 0.26692748 0.050129477 0.42318532 -0.2825072 -0.09373538 -0.36976206 0.15581088 -0.11328726 0.18321931 -0.03638365 -0.083724365 0.11018319 0.24035452 0.27565396 0.10883126 0.17002212 0.08596038 0.09034308 0.0017838919 -0.14911607 -0.0355214 0.014507848 0.22991906 -0.15097122 0.009515597 0.22270472 0.30803376 -0.039950818 -0.19216825 -0.05121724 0.056244396 -0.01033859 0.06153706 -0.24966949 0.19989784 -0.014261234 0.027440779 0.29601666 -0.27078176 0.035727974 -0.07011583 -0.0063549075 0.02264554 -0.19222191 0.40565
6239.Y43E12A.1 0.1696937 -0.039824303 -0.16476446 0.060057893 -0.16939919 0.0182062 0.15461881 0.038510125 0.02788597 -0.21613424 0.29759726 0.061629724 -0.15427907 0.13070028 0.0660231 0.26458007 -0.6022794 -0.1908337 -0.099769294 0.40244156 0.10666477 0.12551829 0.018373944 -0.2426864 -0.36291298 0.14603366 -0.031753954 0.04626078 0.055213563 0.04474479 0.11265663 0.31965482 0.10589311 0.16291255 0.007757041 0.17653403 0.021046508 0.12600979 0.02783525 -0.09321373 0.03766818 0.22093618 -0.08995501 0.29911065 0.5720827 0.16867155 -0.11188325 -0.0669784 -0.1442255 0.12258324 -0.0045061265 0.16456331 -0.09205753 0.21686593 0.23549455 0.052891705 -0.017295243 -0.32767102 0.11055827 -0.04076075 -0.13308953 -0.2176991 -0.12580486 0.50932115
6239.B0218.3 0.026287964 -0.1935272 0.062547654 0.089411214 -0.17638196 -0.19271234 0.05503579 -0.4190587 -0.30078572 0.08718161 0.09714344 -0.10970894 -0.2506489 -0.07840923 0.3070204 0.21591303 -0.3154463 -0.15097159 -0.41651565 0.27377936 0.015439698 0.41860595 0.33649173 -0.47488877 -0.092938215 0.2501619 -0.03677298 0.022767685 0.19356334 0.23231633 -0.012024623 0.016203877 -0.26968098 0.0069568027 -0.08602395 0.006760588 -0.21301979 0.015540812 -0.37323913 0.15995272 0.15840153 -0.0037725766 -0.20597923 -0.0416125 -0.001213269 -0.16515158 -0.26120988 -0.0016750084 -0.25877255 -0.2621151 0.23340409 -0.022951297 -0.37007743 0.14170605 0.23670666 0.18908937 -0.087160125 -0.22007284 -0.44686538 -0.004692979 0.004121792 0.17422037 -0.11978087 0.01951192
6239.H31G24.4.2 0.13259867 -0.04627349 -0.12264211 0.027600018 -0.24541903 0.06279204 0.116768405 0.013436555 0.050843574 -0.35985535 0.22374837 -0.025782136 -0.12887941 0.10806611 0.0051892116 0.2706562 -0.49388725 -0.15073688 -0.037165698 0.4752194 0.050346643 0.20903444 0.040714655 -0.36760616 -0.33532947 0.2768818 -0.10898673 -0.00840403 0.14904173 -0.021343969 0.018136557 0.28869906 0.20620982 0.1107289 -0.009835329 0.14631687 0.014162571 0.17693087 -0.03820287 -0.08412496 0.1799837 0.12044936 -0.05994629 0.30840814 0.59339404 0.22929259 -0.039304305 -0.12439237 -0.09507487 0.08113229 -0.014602714 0.21381769 -0.20001706 0.21871775 0.12662786 -0.06958489 -0.008259893 -0.21606706 0.12490336 0.0091215195 -0.09511893 -0.15486714 -0.098565504 0.45135045
6239.C14B9.4b 0.15953697 -0.01315125 -0.030269386 0.23690371 -0.22107542 -0.20020144 0.2668122 0.021709666 -0.010460557 -0.30336893 0.22807138 0.1623756 0.00055098365 0.00525262 -0.011600625 0.23332883 -0.49258497 -0.3185689 0.024092052 0.29995134 -0.08885178 0.15001696 -0.14034456 -0.18776867 -0.2982017 0.24674189 -0.2742124 -0.024335941 0.13062043 -0.03461363 0.08895295 0.24009162 0.18638486 0.09364258 -0.05413316 0.11079716 0.067974046 0.21484339 0.08299976 -0.10938088 0.053572856 0.26512554 0.03492931 0.26430255 0.5837399 0.30131927 0.04051132 -0.2460034 -0.12343716 -0.03285248 0.17081742 0.13545202 0.055990852 0.0036252567 0.13154687 -0.057704866 0.2249107 -0.2264352 0.055326518 0.12521154 0.023009365 0.08662751 -0.062225867 0.3437024
6239.ZK1067.1c 0.12645632 -0.033848118 0.14028719 0.0007390945 0.27469844 -0.078977525 0.12819497 -0.20344178 -0.004694744 0.06072098 -0.08409663 -0.28634557 0.116654314 -0.117820755 -0.011722763 0.43631044 -0.08737598 -0.2755408 -0.2665421 0.4127794 0.10658265 0.035414636 0.3417329 -0.53106815 -0.39204672 0.0030582072 -0.13426548 -0.09942167 0.34370306 -0.18764974 -0.1191899 0.22249545 0.019862667 -0.20203319 0.04568586 0.051885083 -0.23335141 0.15672578 0.0050670137 0.26305845 -0.033134945 -0.1113835 -0.1064046 0.15078515 0.2876825 -0.23691718 0.0043201204 -0.15080151 0.10844014 0.106506206 0.27884877 0.1154367 0.096693724 -0.21120118 -0.19251837 -0.077137314 0.10267943 -0.10144076 0.06750379 0.105979316 0.005713413 -0.3076675 0.037400093 -0.023075277
6239.B0261.2a -0.06376816 -0.19135141 0.18827571 0.26356632 -0.17461227 0.096175164 -0.018012317 0.03316296 -0.28173545 -0.09735674 0.15765916 0.018414227 0.03166636 -0.10123063 0.05359744 0.32308888 -0.23486872 -0.11012701 0.21705548 0.2919065 0.32589647 0.34795895 -0.111839436 -0.42578676 -0.25994954 0.44516107 0.21993805 -0.05602904 0.29409656 0.0012994729 0.07531535 0.13408527 0.15478365 -0.275412 -0.013692423 -0.11972015 -0.20368414 -0.19428404 -0.1892226 0.23541568 -0.02182893 -0.05661985 -0.0014585819 -0.13701984 0.3530909 0.14840771 -0.17907354 -0.13520612 0.075433426 0.29937202 0.21864541 0.0590051 -0.15294771 -0.045062393 -0.22705363 -0.08350093 -0.018530745 -0.115583844 -0.063081644 -0.068422675 -0.07461027 0.08257628 0.07362487 0.23456798
6239.R07G3.1 -0.015117952 0.009848497 0.12676154 0.24139997 -0.19542031 0.05371381 0.23104611 -0.21402158 -0.001741847 -0.10366034 0.059421763 -0.32867047 0.16196854 0.074568756 0.046091113 0.27666113 -0.18016163 -0.0703389 -0.32445514 0.17113082 0.21867032 0.3229914 0.2131244 -0.32854086 0.102315485 0.3452078 -0.12415993 0.14153123 0.090042755 -0.11600025 0.036421444 0.43851927 0.21937014 -0.13862275 -0.067892835 -0.11250006 0.007830389 0.10279444 -0.06815584 0.14277487 -0.289589 0.030804364 0.017410556 0.20598096 0.32107028 -0.12186529 -0.34564313 -0.3011554 -0.063497014 0.076599605 0.4527328 -0.018318957 -0.062309172 -0.32296157 -0.013401973 -0.110018246 0.16124299 -0.23267825 -0.24689183 -0.10257746 0.09826925 -0.029616948 -0.11866927 -0.09211768
6239.F26D10.3.1 -0.0025991006 0.057168715 0.33910513 -0.06389526 0.09526089 -0.29596943 0.15528762 -0.5757756 -0.19229212 0.29361242 -0.102829866 -0.07988487 -0.5362455 0.1732294 -0.15094441 0.36261967 -0.2876308 0.19084398 -0.061822858 0.21422262 0.05486764 0.38071465 -0.1233262 -0.4145758 -0.15610331 0.42746353 0.017667169 0.070385136 0.08753755 -0.24549957 0.2859236 0.018165752 0.21654929 -0.05412064 0.077862784 0.09461635 0.10683401 0.026619066 -0.25014296 0.26860532 0.15532923 0.10015097 -0.12078398 0.12051268 0.039582103 -0.049713083 0.13489406 0.05661622 0.03701329 -0.22019255 0.36979124 0.12353824 -0.06422019 -0.077500276 -0.1891431 -0.43635973 0.045855604 -0.2614499 -0.36414647 0.17249781 -0.19250183 -0.21463063 0.24285668 -0.027720012
6239.R08C7.3.2 -0.08159177 -0.06777905 -0.01923049 0.10981459 0.068999544 -0.31053826 0.22107083 0.042175137 -0.17861944 -0.34036598 0.048699424 0.025015566 0.19280988 -0.42032325 0.12301283 0.23994249 -0.51997674 -0.14431253 0.048426982 0.22112168 0.16062671 0.27349144 -0.19318067 -0.31137455 -0.3236199 0.013117669 -0.18328848 -0.1024148 0.38587874 -0.013402573 0.286748 0.012254774 0.21965261 0.030536972 0.112056576 0.17699999 0.25548837 0.12681451 -0.24855861 -0.0073586293 0.04146394 0.10935804 -0.19374937 0.2611517 0.28212026 0.12376073 -0.03441287 0.08307627 0.032636955 0.08898491 0.111664005 0.15278138 0.07600992 0.16651225 0.04411842 -0.020201564 0.1093543 -0.31302768 0.10059267 -0.21162283 0.08847212 -0.04962516 0.17309217 0.107105866
6239.F02A9.6 0.20805247 0.06338717 -0.081899226 0.07823749 0.18043965 -0.00036669502 0.123044156 0.2298652 -0.20299628 -0.053566154 0.26606914 -0.025829872 0.08081576 0.025974197 0.1309737 0.18312255 -0.3765756 -0.25064546 0.0029003685 0.31079108 0.00952977 0.12039032 0.2419393 -0.34475097 -0.07640597 0.27313325 -0.2155931 0.13206784 0.08000329 0.030296994 0.10420668 0.22863288 0.0015070407 -0.01250974 0.05600992 0.20151646 -0.18867923 0.058578845 0.01834069 0.21451262 0.049444508 0.17396697 -0.2587612 0.27494982 0.28679553 0.07207903 -0.114050515 -0.0649678 0.0053127054 0.1716556 0.16745514 0.27756116 -0.13752255 -0.15925668 0.13663296 -0.18435273 0.14340392 -0.2669237 0.081150986 -0.15446475 -0.28714833 0.0029076107 0.025425568 0.21870486
6239.ZK177.6 0.19547401 -0.13850592 -0.18565844 0.11295523 -0.21936242 -0.15733548 0.17489377 0.093126066 0.038493562 -0.27791923 0.32140556 0.044067785 -0.12055488 -0.052879337 -0.048053525 0.32346174 -0.4177967 -0.16167822 -0.11553117 0.43090847 0.03137015 0.31789273 -0.110631764 -0.20397066 -0.4409511 0.1939157 -0.13445535 -0.025636613 0.0715753 0.016385162 0.20753801 0.07329805 0.28515953 0.11842357 0.12321818 0.03448127 0.1513672 -0.0123356 -0.10316579 -0.24581249 0.078649625 0.042650774 -0.08322271 0.42019412 0.64322865 0.21436572 0.105108835 -0.20458858 -0.17033288 -0.010204032 -0.013308991 0.12875623 -0.07835118 0.10715717 0.24999057 -0.15468681 0.23654835 -0.057538938 -0.1519593 0.058402866 -0.023347748 -0.012476752 -0.08654361 0.20083718
6239.F36A4.7 0.18904099 -0.18833622 -0.018267531 0.07089051 0.044916894 -0.15180415 0.42576405 -0.23847006 -0.22434369 -0.1511497 0.039522562 -0.14575203 -0.040374864 -0.06965291 -0.0016039638 0.42586288 -0.37410498 -0.073074296 0.2763896 0.16968045 -0.012184784 -0.112974785 -0.26921633 -0.33019242 -0.033259228 0.44467592 -0.21608329 0.002451285 0.05384302 0.037702538 0.20100833 0.19514346 0.114476256 0.124322236 -0.073199876 0.16892275 0.19602424 -0.18385983 -0.20943353 0.01746033 -0.17239659 0.07124219 -0.35607278 0.116100505 0.054899607 0.21626097 -0.08616322 -0.0008177589 -0.06739378 0.13608539 0.21821809 0.19879226 -0.005399352 0.21878494 -0.093490966 0.23913346 0.38797128 -0.34066495 -0.23906013 -0.14258489 -0.16084902 -0.15896086 0.20748958 -0.11756319
6239.D2021.1 0.0908295 -0.27157873 -0.181996 0.29276288 0.22629595 -0.33878285 0.16823743 -0.23964877 -0.061919853 -0.13150758 -0.002202485 -0.11500875 -0.036161575 -0.15394923 -0.028502861 -0.026958281 -0.43606356 -0.08342645 0.12588918 0.3048265 0.24530618 0.31676227 -0.11615546 -0.26074702 -0.044689987 0.09991494 0.031151438 0.21881792 0.35819438 -0.07044985 0.24704932 0.11910528 0.17883742 0.028315762 0.036808006 0.25448275 0.06633414 -0.17220767 -0.27421954 -0.08459458 0.2381104 0.11921973 -0.03723829 -0.039127663 0.10756301 0.21215165 -0.14897503 -0.08220419 -0.10687879 0.053915594 -0.04077905 -0.0145483725 -0.053239502 0.1602394 -0.06122747 0.02151414 0.39517942 -0.31720704 -0.02897551 0.043703575 0.09073484 -0.20353876 0.20288278 0.19016023
6239.ZC168.4.2 0.052369017 -0.1090423 -0.21719888 0.14010051 -0.24563524 -0.10968429 0.21621597 0.0666761 0.09318491 -0.25759694 0.16429143 0.06805819 -0.18621327 -0.044295866 -0.0074588084 0.23203489 -0.45448136 -0.20380972 -0.09403986 0.38712853 0.08248588 0.21811119 -0.018658677 -0.26817477 -0.3990899 0.18799251 -0.16646053 -0.0702466 0.04697464 -0.041286137 0.07283948 0.22790967 0.18621323 0.008445394 0.022569546 0.18905368 0.14935698 0.07747656 -0.12976763 -0.10258068 0.10491748 0.16314936 -0.15501729 0.28939018 0.6165016 0.1914892 -0.084082596 -0.21718064 0.0068784566 -0.009941087 0.12457527 0.24084356 -0.119801044 0.21669348 0.22231427 -0.03793475 0.075652935 -0.13235849 0.10062756 0.029649187 -0.1023079 -0.087417185 -0.1344878 0.28820497
6239.C09G12.8b -0.042240843 0.012159486 0.23282088 0.26777953 -0.07523034 -0.014320077 0.51161075 -0.101448014 0.15671586 0.03858318 0.081193514 -0.23341314 -0.073951334 -0.064130925 0.00015626593 0.35184854 -0.1845594 -0.23647724 -0.20114332 0.09708354 0.37046248 0.41758662 0.09797314 -0.29682937 -0.0060060075 0.21075027 -0.26010036 0.09537678 -0.088016726 -0.1972989 0.10864726 0.38132408 0.15374032 -0.17252222 -0.21249445 -0.14489055 -0.11554093 0.06791917 -0.15885957 0.24289086 -0.028203558 -0.11842723 0.32754463 0.14585714 0.24063255 -0.2808208 -0.17027855 -0.1870587 -0.17813423 0.066111565 0.5700618 -0.14562286 0.03550737 -0.21009433 0.017062765 -0.26476744 0.20064703 -0.2622535 -0.09868302 -0.114272095 -0.0038680304 0.03536044 -0.29962274 -0.19719179
6239.F11C3.3.1 0.28838626 -0.16241063 0.07492773 0.16697952 0.0014167067 -0.2059686 -0.037487935 -0.0011706704 -0.23381689 -0.20711064 0.14466931 -0.25068092 0.006285919 -0.010778898 -0.08249477 0.37350786 -0.15986504 -0.3182406 -0.2395132 0.21987695 0.03521854 0.28972894 0.09056372 -0.2192019 0.16064575 0.23228075 -0.1457808 -0.03407427 -0.025294324 -0.15675165 0.082363605 0.3455519 -0.11362341 -0.21807753 -0.07941285 0.14142248 -0.060572606 0.024298634 -0.058845714 0.085515894 0.117545895 0.16976301 0.17969403 -0.07868143 -0.13559751 -0.26606703 -0.1321721 -0.30159873 -0.14882907 -0.10686067 0.23048778 0.16065446 0.20868756 -0.3174906 -0.09731151 0.24399987 0.01147171 -0.030142874 -0.22805916 0.20193136 -0.2626306 -0.015634429 0.15515105 0.09801586
6239.Y51H4A.3 0.0073535754 0.19444284 0.30094558 0.28079435 -0.066980146 0.05682545 0.3300584 -0.25534958 0.07872979 -0.19284324 -0.041578066 -0.23527904 0.10769417 -0.11599074 0.062860094 0.15872681 -0.23639151 -0.06492334 -0.2836736 0.23947586 0.26318702 0.31015286 0.20860375 -0.3986299 0.04473493 0.31922436 -0.2370141 -0.02321702 0.008249384 -0.2588316 -0.039416008 0.30509815 0.12803982 -0.29677296 -0.25377563 -0.20737506 -0.016956192 0.018709565 -0.0016298092 0.07557776 -0.12085839 -0.07382157 0.05429999 0.09447497 0.31702194 -0.17934874 -0.30702198 -0.31085864 -0.21716341 0.109588884 0.39087036 0.029489238 0.075585835 -0.22336628 -0.009812821 -0.02201415 0.07181381 -0.3186569 -0.17218341 -0.07197775 0.0726881 -0.024792546 -0.03080391 0.0073981453
6239.C12D8.10b -0.05138437 -0.20426778 0.24421111 0.17362216 0.027473826 0.07459724 0.16080627 -0.13124944 -0.2799281 0.056511447 0.25640023 -0.027530842 0.12718982 -0.23917738 -0.12931582 0.175886 -0.19991566 -0.09129258 0.022877716 0.3950975 0.027758585 0.45091578 0.32159853 -0.42896667 -0.17100717 0.06913766 -0.16807093 0.15972139 0.43437484 -0.18794249 0.012603475 -0.022048557 -0.022287866 -0.3600755 -0.014949875 -0.012879807 -0.10363027 0.0937653 0.015407362 0.23450679 -0.1042528 0.12033993 -0.033522036 -0.0019353768 0.33657646 -0.20505224 -0.06744058 0.013844423 0.08921691 0.017891392 0.1337363 0.12163232 -0.07537773 -0.08260019 -0.04377845 0.1358439 0.14531782 -0.058214683 -0.15095869 0.08397941 0.019624807 -0.16203317 -0.15823285 0.2792437
6239.K05C4.6b -0.17169675 0.03778801 -0.012914621 -0.00079356576 0.33843556 -0.1876429 0.37189075 -0.2567143 -0.0488717 0.30597708 0.072884195 0.06653367 -0.0026209166 -0.15214294 -0.10493497 0.18897243 -0.14938308 -0.09617636 -0.30902943 0.3289379 0.2575938 0.20914407 0.14062616 -0.4535618 -0.37916028 0.32404298 -0.3984734 0.040453542 0.1816846 -0.088230684 0.077212386 -0.15194398 0.257666 -0.17722969 -0.15771946 0.13274714 -0.14750446 0.00086293387 -0.08838601 0.3301884 0.05117741 0.1151727 0.10494626 0.23016928 0.0035307829 -0.015319669 -0.04321074 -0.26877013 -0.56586903 -0.08870588 -0.03473747 0.11293432 0.14550121 0.20463574 0.16421947 -0.1487468 0.19346392 -0.15876023 -0.3763435 -0.13590972 0.060167924 -0.29962617 -0.0975453 0.24239
6239.K12F2.1 0.28759792 -0.15549934 0.010111175 0.103402875 -0.0053276885 -0.19817896 -0.03308764 -0.025875447 -0.11194069 -0.074063696 0.07928296 -0.20494473 -0.10584736 -0.184423 -0.09101038 0.2100325 -0.14512385 -0.3240317 -0.106958345 0.27766216 0.2006721 0.36146858 0.17516206 -0.23000546 0.22334069 0.49091247 -0.17064786 -0.057398092 0.046196394 -0.07479276 0.11404193 0.444586 -0.17244342 -0.1820302 -0.016902197 0.24113634 0.06489959 0.16470179 0.10848655 0.05437168 -0.063370526 0.22229345 0.13600385 -0.051595517 -0.23424782 -0.17406876 -0.20176283 -0.2985578 -0.034519944 -0.097782254 0.07553744 0.17287834 0.13779622 -0.3391381 -0.20825362 0.30323797 0.071014345 -0.012577126 -0.12433216 0.19554137 -0.20986375 -0.098726355 0.11664137 0.17747314
6239.M03D4.1c 0.06616987 0.18653738 -0.09518978 0.26088488 -0.20665413 -0.30245182 0.25112164 0.078021064 0.096191525 -0.13743725 0.1977194 0.050070014 -0.10698751 -0.16515745 0.13788274 0.035773028 -0.4886687 -0.28233957 -0.008521168 0.18484022 0.14208668 0.17383341 -0.11893645 -0.17783502 -0.32277417 0.2694222 -0.25291663 0.057805482 0.25639817 -0.13819444 0.08422147 0.2111759 0.30236784 0.10970514 -0.041709606 0.18340495 0.121304795 0.28553957 0.001196343 -0.03662817 -0.015899528 0.107022405 0.056647614 0.22815156 0.60610723 0.20971666 -0.1494178 -0.28999045 -0.09925505 -0.19629365 0.15252008 0.07780934 0.058554877 0.05308251 0.116637945 -0.1677042 0.065204315 -0.1572329 0.0125941085 -0.053373165 -0.105659746 0.06262747 0.083183646 0.31850457
6239.C09D1.1b 0.210905 -0.065924846 0.08555576 0.13478778 0.005471647 0.07349717 -0.025448577 -0.25111967 -0.13889384 -0.16505618 -0.042540576 -0.20933805 0.004618623 -0.28354993 -0.04181485 0.13646945 -0.2247073 -0.2475468 -0.008654781 0.19189961 0.2599617 0.38551557 0.14692628 -0.4532885 0.1674807 0.16432776 -0.025088549 0.12676466 0.04719596 -0.18096615 0.24126895 0.24019231 0.05334071 -0.14628698 -0.18002598 0.090855 -0.02313883 0.15488675 0.09390156 0.08046388 -0.04690132 0.22976838 0.1299795 -0.12061078 0.10646981 -0.29851934 -0.09532097 -0.25175452 -0.26401055 -0.048260797 0.21646053 0.09274889 0.14806302 -0.22909974 0.030007882 0.26645714 0.07103372 -0.23111308 0.040667437 0.08913511 -0.051220343 -0.123344585 -0.040684897 0.103169575
6239.C07H6.1 -0.023626825 -0.1380618 -0.01985998 0.040239505 -0.10702708 -0.12203213 -0.08456628 -0.33429584 -0.28486 -0.21808816 0.45552054 -0.061978944 -0.034320526 -0.03113717 0.30018827 0.2849667 -0.20365167 -0.03324839 0.02988775 0.24029408 -0.094654515 0.14015871 0.028250545 -0.21127024 -0.28044614 0.33744115 -0.33491337 -0.0056178756 0.09729916 -0.114373475 0.32485473 0.23464823 0.068807244 -0.04481623 0.04340908 0.16481094 0.11667327 0.023904365 -0.3180608 0.107944444 -0.12943976 0.31639156 -0.0058325324 0.03697206 0.32063785 0.11990231 -0.10344423 -0.13993649 -0.06581737 0.0360118 -0.18736643 0.11649801 -0.05375768 0.05195845 -0.12830319 -0.033836536 0.253741 -0.33447924 -0.016806895 0.054791335 -0.0072591244 0.13602404 -0.34691805 0.14891213
6239.C07H6.5 0.31757173 0.21212313 -0.089945816 0.1818309 0.013160848 0.23885301 -0.022609603 -0.058987547 -0.017843597 -0.0059313653 0.17291677 0.017771326 0.009800309 0.027986377 -0.1539671 0.4900347 -0.6068763 -0.18314314 0.16099133 0.13943587 -0.2855472 0.27546102 -0.13689908 -0.30041975 -0.26906264 0.21700647 -0.19289316 0.08135847 0.21350347 -0.22002237 -0.066728584 0.18266597 0.07170767 0.1628144 -0.062026415 0.2449496 0.05062431 -0.10822767 -0.06698323 0.06699464 0.059558813 0.08167813 -0.2332272 0.14985812 0.26745337 -0.06737825 -0.17901385 -0.057266552 0.11520124 0.18946019 -0.12674443 0.21016036 -0.13321383 0.11242381 0.026775885 -0.14629711 -0.09865021 -0.55130434 0.008559378 -0.0413994 -0.27127123 -0.049461912 0.29950127 0.3856044
6239.B0207.4 0.17616367 0.0628733 -0.12003131 0.009928864 -0.1252966 -0.35159388 0.3207894 -0.03457211 -0.07162776 -0.3718535 0.1615198 0.15652093 -0.07476354 -0.018596156 0.15365802 0.235719 -0.46867362 -0.19484103 0.035983372 0.31009206 0.060195077 0.30164096 -0.07253605 -0.33144167 -0.18384372 0.15680054 -0.22735776 -0.09528217 -0.1011045 0.013770118 0.044320665 0.22126766 0.33896413 -0.096930616 0.0033335004 0.1770568 0.020917391 0.34312287 -0.03286432 -0.013160278 0.058543507 0.14682867 -0.105128296 0.29900202 0.6136531 0.3513927 0.03583187 -0.16551992 0.036959663 -0.06728214 0.22472228 0.20268717 0.07838229 0.102008425 0.12865987 0.1567864 0.13568181 -0.16172956 0.12000846 -0.031380113 -0.07461071 0.12965201 -0.19301817 0.19398859
6239.T06E6.2a.2 -0.07277476 -0.10538841 -0.19456089 0.15304804 -0.21303213 -0.10169732 0.13722734 0.024257632 0.045612805 -0.29291937 0.18987092 0.06617972 -0.09034914 -0.107826844 0.038263705 0.16009614 -0.44548008 -0.25972873 -0.017415076 0.3800135 0.13089363 0.3038112 0.07101117 -0.25992242 -0.43733978 0.090223774 -0.10503039 -0.15826611 0.16594402 0.019258909 0.12645476 0.21689948 0.33830312 0.002013269 0.03529043 0.2054051 0.165392 0.06210048 -0.21971673 -0.12427 0.07523886 0.18268347 -0.011997306 0.3913989 0.6001328 0.2750843 -0.092844315 -0.1284333 0.022384966 -0.027511898 -0.0015009721 0.24884076 -0.056545466 0.17073737 0.25547495 -0.11060147 -0.04034164 -0.11304951 -0.03362254 -0.070194736 -0.24235867 -0.13352884 0.009393796 0.34228346
6239.R11A8.4a 0.18366188 -0.29893 0.301285 0.16712293 0.15494077 -0.23027354 0.1287768 -0.09944354 -0.38663468 -0.043581124 0.16704774 -0.08103483 0.092044145 -0.25391018 -0.031980634 0.10529545 -0.14078996 0.06411604 -0.05344649 0.4009794 0.026428487 0.41863248 -0.017032126 -0.37312374 -0.1519996 0.103567466 -0.23005426 0.012668199 0.3597196 0.21107374 0.37187597 0.048029594 0.11697626 -0.08246439 0.056132738 -0.06999282 0.09660134 -0.028392307 -0.24956776 0.17124172 -0.033666667 0.20482372 -0.032734077 -0.17557248 0.17596199 0.15832566 -0.1882485 0.16431727 0.19245367 0.1165545 0.1970945 -0.02095017 -0.05353011 0.19282754 -0.2069174 -0.22861238 0.18996792 -0.25260976 -0.032314133 -0.17727938 -0.03538822 -0.004436054 -0.14070362 0.25187725
6239.C54D1.6 -0.086224966 -0.05015875 -0.076087 0.04684602 0.27537525 -0.19177334 0.23891988 -0.40834188 -0.102810256 0.240114 0.012235513 0.0398752 -0.12958136 -0.03608315 -0.061263654 0.15855826 0.006118339 -0.18769248 -0.39589295 0.33755744 0.29924443 0.10857699 -0.05386824 -0.3807949 -0.39940333 0.21016671 -0.35093427 0.032867033 0.34775683 0.07755136 0.07934668 0.028276762 0.070386015 -0.20390132 -0.072836764 0.09001755 -0.080724336 0.028511507 -0.1574626 0.43705082 0.20235822 0.2609872 0.14040783 0.06295738 -0.24777536 -0.13335092 -0.09094712 -0.36204022 -0.419096 -0.2090832 -0.04746904 0.36587083 0.09829271 0.20338506 0.18942386 -0.017099058 0.1947301 -0.07563443 -0.18654144 0.045328107 -0.013687308 -0.058715872 -0.12689495 0.07013566
6239.T05C12.6a 0.30546194 0.08903948 0.14062476 -0.04437026 0.03370418 -0.2636239 0.30213693 -0.008199966 -0.11140877 0.17680767 0.33615696 0.094226584 0.041647956 -0.041414246 0.14847879 0.13212967 -0.23999727 -0.1482734 -0.11469469 0.20661172 0.4287624 0.1369534 -0.17470796 -0.32099706 -0.2928712 0.03888127 -0.34939906 -0.0034806998 0.12834977 -0.099754 0.08978606 0.24619749 -0.15510106 0.06348216 -0.20705491 -0.14115581 -0.09843852 -0.11064457 0.26184556 -0.043615352 0.0662153 0.279164 -0.07972676 0.42474028 0.3090875 0.1013371 0.0038076164 -0.055380553 -0.3864633 0.09834954 0.014147826 0.37265778 0.061446816 0.037712503 -0.067797385 -0.26206776 0.23938607 -0.13696997 0.0016525547 0.19865116 0.16265096 -0.019122755 0.09825807 0.18323798
6239.F28H6.1a -0.08175035 -0.20615208 0.21584265 0.17978542 0.038595326 0.0024834592 0.13197954 0.0075052395 -0.30717787 0.10010498 0.22400975 -0.13621598 0.11780794 -0.100239545 -0.0918788 0.2665538 -0.21173911 -0.13514256 0.021830475 0.4179868 0.043969013 0.47719347 0.34869817 -0.40780053 -0.139749 0.050155353 -0.11194192 0.15721598 0.42671633 -0.034484707 -0.07765404 -0.008304137 0.01204977 -0.4628811 0.058508515 0.025312543 -0.16826765 0.08281906 -0.07323926 0.26256102 -0.09237063 0.02771594 -0.042053208 0.09488014 0.3768326 -0.09940503 -0.13078378 -0.019550905 0.040541485 -0.13596673 0.19603293 0.048925135 -0.0020763273 -0.0690777 -0.034053184 0.25938532 0.05178039 -0.1077079 -0.15923436 -0.06198539 0.040389676 -0.061192278 -0.17989175 0.19952591
6239.F26H9.6 -0.023791382 0.121118344 0.22445287 0.28514406 0.06399002 -0.19734867 0.002723343 -0.22859488 0.042640183 0.0774697 0.26160684 0.090290435 0.33974466 0.15254873 0.0476769 0.23851342 -0.35347182 -0.14401035 -0.18822162 0.054462895 0.19242434 0.27258202 -0.040836494 -0.60726064 -0.049705364 -0.04288161 -0.19736773 0.0747821 0.09059316 -0.1780694 0.048190232 0.49060282 0.15746482 -0.1281006 -0.14063112 0.16229437 -0.2595191 0.11506052 0.12820132 0.26480684 -0.317682 0.24179731 -0.0062968624 -0.057089537 0.30562478 -0.261995 0.2683747 -0.38814953 0.05229801 -0.004679349 0.18248181 -0.022518821 -0.29505423 -0.2001633 -0.35593456 -0.36294505 -0.12167542 -0.11753799 -0.048536927 0.3046163 -0.1315901 -0.25906304 0.083314076 -0.3859914
6239.C32F10.2 0.17065343 -0.109099925 -0.1692202 -0.089890584 0.07815913 -0.30147737 0.18201 0.13471998 -0.115514085 -0.4844606 0.24506289 -0.07953759 0.1342805 -0.22378816 -0.070320874 0.2549174 -0.19613571 -0.36233088 0.05726265 0.4683556 0.10724076 0.18880706 -0.13793574 -0.4319721 -0.6348799 0.13408634 -0.28567827 0.12475175 0.098576844 -0.04280264 0.09022116 0.18158674 -0.15170151 0.10999803 -0.03364353 0.027510162 0.11612389 -0.18505704 -0.21979646 -0.14648807 0.082587786 -0.0339552 0.09382462 0.26007175 0.3622492 0.23416266 0.11309876 0.03239827 0.035203267 -0.057697516 0.03336724 0.07269223 0.11174081 -0.16041134 0.18426396 -0.21392728 0.20894031 -0.15906234 -0.1060513 -0.056401126 -0.087523 0.093681134 0.0020390246 0.18412068
6239.F32D1.10 0.11312042 0.050593894 -0.002067113 0.08462405 -0.06637962 -0.2406285 0.2184064 -0.027200306 0.09209521 -0.36330137 0.24407324 0.26487702 0.025023652 -0.13410556 0.19879268 0.39780095 -0.49075478 -0.28456265 -0.03250615 0.27526078 0.05237633 0.22185731 -0.21996546 -0.17363434 -0.41712636 0.20939665 -0.15025103 -0.06632259 0.06251456 -0.100646295 0.22139205 0.012228219 0.3383309 -0.0051298426 0.0027112705 0.105629414 0.1290459 0.09731953 -0.17972234 -0.27931815 0.16652328 0.26693437 -0.12697545 0.32990193 0.5521918 0.36141208 0.022213506 -0.28217933 0.0021198678 -0.18591973 -0.013439332 0.13795376 0.07301024 0.16181506 0.13011537 0.02475108 0.23567681 -0.23538125 0.06105836 -0.0785682 -0.01402172 0.15833135 0.057056334 0.17918976
6239.F37A4.8 0.27876303 -0.09554729 -0.07365687 0.13337746 -0.12833074 -0.24982528 0.12406223 -0.1608794 -0.08120797 -0.2844721 0.10483648 -0.009864093 0.019940594 -0.20915705 0.2240219 0.3006418 -0.49772006 -0.286269 0.090178944 0.35732085 0.023597857 0.08286886 -0.22311163 -0.1709418 -0.39902547 0.19217472 -0.06521259 0.112902634 0.18188247 -0.06282359 0.29656315 0.11992746 0.26848882 -0.06872933 -0.06210428 -0.090966605 0.14370821 0.092975326 -0.3310342 -0.035539985 -0.039757814 0.21412307 -0.1066349 0.015438729 0.35526508 0.36618015 -0.17635536 0.041627925 -0.023856765 0.07912438 -0.0077363765 0.10185507 -0.017872505 0.25773504 0.047697328 -0.25773227 0.25098988 -0.4102677 -0.031953506 -0.1590337 0.033638775 -0.12066361 0.18913956 0.041660473
6239.F29B9.6 -0.25156125 -0.15996283 -0.141666 0.1500703 -0.20907325 -0.32968685 0.13447231 -0.1926633 -0.116707034 -0.10499255 0.15821935 0.06528687 -0.15578188 -0.23103566 0.06951717 0.16398495 -0.34069818 -0.34345296 0.12216122 0.38936013 0.052243024 -0.12687589 -0.16487715 -0.17968582 -0.22980899 0.19461526 -0.30038828 0.17808598 0.07309406 -0.31166863 0.21484686 -0.017121306 0.1616404 -0.14814223 0.43388554 -0.014801235 0.22937 0.09508438 -0.12083293 0.13652524 0.02661944 0.4867106 -0.04943457 0.16322224 0.47603282 0.0721859 -0.09489765 0.16598842 -0.11407354 -0.032767028 0.08799254 0.1081555 0.02914667 0.12051236 -0.17014155 -0.1016688 0.34281886 -0.42130026 0.10854529 -0.12184763 -0.05602303 -0.064979054 0.09227966 0.20968059
6239.C02C6.1b 0.01602514 0.22321023 0.24180545 0.24901326 0.142636 -0.044122424 0.10946133 -0.30906495 0.20395194 0.059728548 0.33770347 -0.28741887 -0.012750899 0.12948012 -0.00900604 0.1932561 -0.34604084 -0.19905597 -0.09093252 0.38672054 0.26661113 0.29110634 -0.06449219 -0.37069952 -0.0823904 -0.03955951 -0.111528575 -0.19565992 0.091048606 -0.10845626 0.30698586 0.28033897 0.35341892 -0.45143905 -0.071069434 -0.09939693 -0.032205224 0.1728271 -0.15569283 0.27102622 -0.14757043 -0.1071402 0.082921684 0.08975469 0.087265655 -0.33436066 0.30813706 -0.007725591 -0.030206036 0.09364449 0.19176355 -0.3376898 -0.2882777 -0.2165368 -0.0422158 -0.1706175 -0.098685816 -0.32713407 -0.038238063 0.48049086 -0.119944535 -0.19653119 0.019815572 -0.0558138
6239.T12E12.4b.1 0.11422494 0.19894892 0.16741215 0.1590195 0.10528057 -0.16519703 0.28005037 -0.17390443 0.12193512 0.014334552 0.30672914 -0.08863323 0.11578614 0.026830135 0.108067915 0.18627946 -0.35559574 -0.016267804 0.06221355 0.28317434 0.1728503 0.26216686 -0.26402134 -0.30748773 -0.06878288 0.2051735 -0.18178609 -0.20635943 0.08443622 -0.03923975 0.19910052 0.24132787 0.27598542 -0.27029893 -0.09825738 -0.10156045 0.0032299527 -0.012307782 -0.26882178 0.11306109 -0.14835508 0.10209667 -0.20165063 -0.10009147 0.17856121 -0.026859554 0.18705995 0.13536929 -0.1691075 0.04342332 0.10655279 -0.33805335 -0.030182093 -0.1808331 -0.06497222 -0.15010333 0.01896817 -0.27827764 -0.1642533 0.28064832 -0.2925243 -0.021488948 -0.03093355 0.14052343
6239.K12H4.8 0.5721654 0.1329632 0.042541098 -0.14379525 0.045141924 -0.07501023 0.20338479 -0.05992336 -0.32212603 -0.09162147 0.31649548 -0.020232711 0.09504768 -0.31474566 -0.20428571 0.07006797 -0.24201603 -0.19450444 0.02786838 0.36319172 0.0051085297 0.29740644 -0.09150646 -0.2397137 -0.3625449 0.17377977 -0.14014114 0.09821759 0.032714453 0.10500055 0.14100885 -0.084818885 0.060086813 0.022480361 0.01975922 0.3292364 0.12521623 -0.15709968 -0.31269225 -0.015124687 -0.05139356 -0.10037545 -0.0895154 0.08988015 0.18619533 0.13953052 -0.22908397 -0.047758132 -0.027579559 0.09327232 0.0832913 -0.010697525 -0.23513126 0.1025123 0.0746364 -0.06471267 0.023843402 -0.55379546 -0.10031767 -0.118687384 -0.04245497 -0.049026094 0.44335273 0.13379648
6239.ZK909.2c 0.27438128 -0.43057165 0.117257565 0.24827895 -0.22174686 0.15412195 -0.07909671 -0.12309166 -0.06856558 -0.11308173 -0.0026136416 -0.2556777 -0.28495747 -0.31363085 0.20400973 0.31505302 -0.10626892 -0.08975745 -0.028031493 0.32716987 0.17986983 0.22703871 -0.05942053 -0.54018795 -0.12971069 -0.057085358 -0.31809866 0.047162086 0.03677784 0.16804233 0.15771158 0.17970581 0.10430323 -0.17795408 -0.06319982 -0.03960755 -0.31629837 -0.0043329117 -0.14221232 0.002303475 -0.04315686 -0.047104027 -0.09246913 -0.15893474 0.11399644 -0.5110794 -0.0766935 -0.15099423 -0.23335741 0.15135716 0.24226128 0.23640701 -0.008672696 0.10498514 -0.100019306 0.2877714 -0.20467257 -0.05105934 -0.13636704 -0.016126817 -0.10746582 -0.09897352 0.005666618 0.121535905
6239.B0334.8 -0.012500084 -0.24393542 0.4363409 0.25499082 -0.0070386613 0.17541805 -0.010136978 -0.008907999 -0.22529535 0.12577234 0.35489425 -0.011176641 0.040530622 -0.0021021243 0.044269882 0.3824609 -0.276655 -0.19382162 -0.04407188 0.36093786 0.07170405 0.40725073 -0.070067525 -0.28904307 -0.114403665 0.4307821 0.05085782 0.14354512 0.40656048 0.0698757 0.060440548 0.14873242 0.11174748 -0.11314723 0.1673212 -0.3175592 -0.32140774 -0.08939009 -0.15611908 0.08223766 0.0005139137 0.14363563 -0.050222125 -0.0870776 0.21060161 0.02166903 -0.31712124 -0.091344096 0.007415449 0.044911746 0.1422826 0.12825115 -0.13100587 -0.1467668 -0.13982767 -0.008654112 -0.103063576 0.09262633 -0.01682365 0.014371395 0.07403595 0.030216224 -0.14260826 0.2259988
6239.K07C11.2.2 0.1109882 0.057369925 -0.23710318 -0.025913162 -0.24904838 -0.1638607 0.13913466 -0.056249715 0.07098276 -0.2999619 0.27099544 0.20803218 -0.12143518 -0.05005531 -0.07962388 0.31347838 -0.45992044 -0.07207278 0.061101526 0.3863258 0.09398946 0.1600461 -0.14836322 -0.23351163 -0.25934395 0.34453097 -0.24281546 -0.14746961 -0.00993619 0.09739714 0.0019095833 0.40855455 0.23867294 -0.08410138 0.0130298035 0.059980568 0.04873537 0.18182723 0.04029551 -0.025123106 0.19181105 0.105830975 -0.17851399 0.18158577 0.6852216 0.2730011 0.029414164 -0.20648676 0.03397887 -0.108106814 0.113434575 0.12754178 0.005598772 -0.007677416 0.16934195 0.13852894 0.2420645 -0.18875432 0.03907639 0.117108345 0.0038961081 0.023846382 -0.13695678 0.28203675
6239.C48B6.6a 0.1704688 -0.25785604 0.36902547 0.13894187 -0.321023 -0.035999667 -0.16861513 -0.051602934 -0.26336667 -0.16647063 0.086034976 -0.0075056506 0.008458099 -0.14421995 0.04739929 0.39746 -0.31428963 -0.2477961 0.10025496 0.10315356 0.1559921 0.55530804 -0.13273093 -0.3172203 -0.1726812 0.29865116 0.08918516 -0.064127356 0.15362632 -0.11370684 0.012500785 0.067847274 0.1271081 0.048178844 0.15862244 -0.16640861 -0.23635437 -0.24529746 -0.36102024 0.38359132 0.052274577 0.09672023 -0.064531095 0.046612244 0.30253452 0.17146139 -0.15295914 -0.07967415 -0.05201359 0.22457173 0.20671667 0.08926416 -0.27858275 -0.07476926 -0.49789122 -0.08187281 0.033611935 -0.15944313 -0.017000522 -0.06761461 0.121379785 0.2330339 0.18404053 0.18966953
6239.F42G8.3a -0.08285847 -0.2638186 0.033832338 0.094198 -0.1590992 -0.25049242 0.09523452 -0.40245426 -0.1782168 0.029397868 -0.05720608 -0.103984125 -0.12751499 -0.10290182 -0.06845298 0.46907037 -0.3351035 -0.09455839 -0.47346634 0.3288976 0.041033767 0.35981527 0.34285566 -0.603296 0.034852892 0.30304992 -0.17599234 0.018577794 0.052575793 0.09198665 -0.08594247 -0.0983791 0.062807865 0.07937893 -0.11557182 -0.02838903 -0.11829803 -0.060987055 -0.2837678 0.16652271 0.13411854 0.009224549 -0.14286576 0.02040801 0.11056617 -0.16129409 -0.08159656 -0.03399133 -0.21270868 -0.22497736 0.26969555 -0.08219434 -0.16015036 0.2337411 0.19149314 -0.052151866 -0.18997201 -0.18840595 -0.4999072 -0.09921151 0.15774488 -0.010698742 -0.01040164 0.33971187
6239.T04C12.5.1 -0.11327927 0.054037105 0.18038708 0.07017775 -0.22114782 -0.21837437 0.118506916 0.20521483 0.07777531 -0.21399073 0.22438245 -0.24366699 0.21435893 -0.019330146 -0.086622834 0.3714508 -0.47481087 -0.27987748 0.0440356 0.103198044 0.31953126 0.3470943 -0.14012377 -0.21617137 0.0816021 0.29566565 -0.096582964 -0.15919228 0.12542652 -0.0921885 0.12672342 0.3413585 0.30739278 -0.13195737 0.12915914 0.07909524 0.15271236 0.098040596 0.039208226 0.16499503 0.014238002 -0.06604128 -0.14879146 -0.04717243 0.28957316 -0.22923414 -0.023621645 -0.117507055 -0.10651993 -0.23843609 0.16982499 0.24461947 -0.08387599 -0.0178233 0.053022932 -0.124296986 0.19787815 -0.15393339 -0.06682314 0.04318685 0.033820555 -0.057090838 0.14599247 0.114163525
6239.M117.2a.2 0.11635826 -0.12697302 0.2785038 0.059534512 -0.33764648 0.047336906 -0.0022391651 0.07010641 -0.08343254 -0.010642813 0.02399845 -0.08869584 -0.081638396 0.0133386515 -0.2572232 0.112958685 -0.5126387 -0.08821124 0.019114735 0.5829235 0.123628214 0.3071406 0.061307114 -0.1662359 -0.071561225 -0.02219044 -0.08745931 0.13948333 0.072443746 0.05717851 0.0698744 0.23909989 0.328424 -0.21642879 0.00443126 -0.24340953 -0.1922071 -0.14890905 -0.016792309 0.018677786 0.02013264 0.1834147 -0.2877715 -0.23872632 0.44229293 -0.016866922 -0.0057066763 -0.38814208 -0.02008198 0.025545474 0.1904517 0.018268635 -0.0037423177 -0.14964311 -0.0032725346 0.0046859924 0.14171474 -0.3953971 -0.27776167 0.007144089 0.020270634 -0.042910635 -0.09208051 0.13302413
6239.Y47G6A.8 0.21093187 0.22701693 0.16392872 0.056024514 -0.0187268 -0.28393948 0.13388288 0.010131594 -0.10331809 -0.2618198 0.36693582 0.009246337 -0.09191119 -0.29428443 0.20711662 0.41820174 -0.21453305 -0.13718297 0.1969384 0.26177326 0.0005058083 0.31170887 -0.34277147 -0.11539865 -0.44191608 0.3890795 -0.24454209 0.04912661 0.20911026 -0.1706657 0.11162174 0.19562437 0.12847745 0.027388033 0.08825276 -0.06112959 0.27050492 0.059860244 -0.22473651 -0.21279351 0.039600372 0.23921102 -0.1174208 0.084153704 0.43918574 0.18906328 0.13108264 -0.13957566 0.05886149 -0.062895514 0.043312483 0.13358708 -0.14897543 0.28932914 0.007268414 -0.223492 0.19840816 -0.18457514 0.02307349 0.018060392 0.17704043 0.35420504 -0.008403149 0.24758469
6239.M7.5 -0.54427004 -0.20628618 -0.098164104 -0.030086877 -0.20151053 -0.33399662 -0.06646142 -0.27853638 -0.5937369 0.04380669 0.1449957 0.15024193 -0.043469526 0.10245083 -0.023567265 0.34990558 -0.04352677 0.2599922 -0.21609454 0.20596324 0.38106483 0.107669085 -0.33125842 -0.6250742 -0.46325052 0.50015837 -0.17001636 -0.148814 0.17653114 0.016184337 0.29299384 0.084954984 0.22846195 0.026826365 0.032387927 0.08544024 0.03292963 -0.01660218 -0.11049647 0.26632774 -0.06318766 0.16557442 0.09356235 -0.11516054 0.23924647 -0.17627092 -0.10830212 -0.05112265 0.09393471 -0.18833213 0.034965497 -0.3747255 -0.13559625 0.016992062 -0.066046014 -0.2981154 0.048694346 -0.48377252 -0.2527173 0.012072146 -0.25094822 0.0051946626 -0.09503099 0.21080408
6239.Y39G10AR.14.1 0.057761084 0.1658732 0.085364476 -0.001457342 -0.07274911 -0.25609148 0.2868598 -0.027532712 -0.038533606 -0.28960487 0.1297119 0.04678583 -0.16858833 -0.068190664 0.14139482 0.25209114 -0.46426925 -0.3117307 0.09412224 0.3109898 0.040230338 0.24375528 -0.20953166 -0.13270153 -0.543113 0.3062768 -0.27842614 0.067125596 0.13723928 0.008775991 0.09742042 0.114748254 0.42105386 0.11276366 0.005025798 0.06452973 0.24147035 0.20177725 -0.082013845 -0.09192391 0.049030904 0.11293872 -0.043400005 0.2741791 0.55929047 0.3585495 0.008364444 -0.2154032 0.07536329 -0.1656892 0.0026248298 0.12509647 0.029772893 0.23990019 -0.038814537 -0.12881777 0.2554729 -0.23733774 0.11369033 -0.06511457 -0.1827075 0.049444728 0.07207772 0.17882663
6239.F52D10.3a.1 0.118386626 -0.21436772 0.16702506 -0.07708954 -0.24819256 0.045844905 0.060702343 0.00040207352 -0.039717667 0.0763442 0.05952643 -0.063023664 -0.061002936 -0.0027264364 -0.25781372 0.1763875 -0.51452625 -0.21917687 0.06604785 0.42893785 0.10519914 0.41707835 0.14108488 -0.22872026 -0.17111593 0.060838822 -0.0938437 0.22779739 0.1243156 0.08286727 0.12760757 0.13303405 0.29103377 -0.035497457 0.014615792 -0.16616926 -0.029271556 -0.15249123 0.095798455 -0.04318831 0.13873778 0.1353853 -0.15866823 -0.14823288 0.30206499 -0.067662634 0.022273421 -0.31426468 -0.018239172 -0.20714043 0.2553037 0.1101276 0.06678318 -0.06255304 -0.13570322 0.12521565 0.1297215 -0.3102493 -0.27695024 -0.006693404 -0.02200461 -0.106937476 -0.05934744 0.14781609
6239.K12C11.2 -0.100036256 -0.2947551 0.07339874 0.036365427 -0.21780519 -0.52950263 0.0013350281 -0.29696664 -0.18380563 -0.25329992 0.15800092 0.19205204 -0.15816152 -0.16050059 0.10806855 0.12921658 -0.25398377 -0.21484402 0.06110667 0.3461617 0.13701463 0.074894845 -0.21533751 -0.29851535 -0.19459826 0.19302866 -0.44559613 0.07330187 0.036098756 -0.30518314 0.34516495 -0.06675491 0.12324129 -0.053093314 0.33647344 -0.08703435 0.0791743 0.2302814 -0.16473655 -0.012460125 -0.300077 0.24441727 -0.19947143 0.03698206 0.34440196 0.07337543 -0.13736126 0.23330723 0.014715081 0.011629871 0.104187615 0.18016851 -0.046330065 0.03416098 0.01305343 -0.06560663 0.43525735 -0.3968481 0.019679636 -0.14937405 -0.19335198 0.021807734 -0.07367182 0.19635291
6239.F25H5.4a.1 0.052246545 0.035568163 0.09427964 -0.032177966 0.16676058 -0.30336922 -0.19461654 -0.5189662 -0.24198234 0.15519436 -0.108592175 -0.061813403 -0.4848212 0.17542714 -0.24836978 0.43575707 -0.23181698 0.1583548 -0.054378998 0.1471813 0.24214682 0.32088932 -0.20513445 -0.2362293 0.038317524 0.42480922 -0.1042343 0.32775256 0.24108332 -0.050907824 -0.008663397 -0.03798012 0.17260396 0.055094928 0.058618367 0.1201767 0.025816714 -0.08932064 -0.15905021 0.2920709 0.10526539 -0.034356102 -0.21327193 0.21488363 0.11725646 0.08044257 0.0899084 -0.31570086 -0.25366023 -0.1417303 0.108677246 0.019495932 -0.113260016 0.114291266 0.09653973 -0.07010661 0.10631876 -0.43155956 -0.46715614 -0.01912503 -0.060663402 0.14901522 0.36389914 0.28556147
6239.Y49E10.14a.2 0.029027749 0.13946272 -0.12680425 -0.0426003 -0.11220539 -0.11526655 0.20910943 0.2439226 0.071516424 -0.06339996 0.1690251 -0.08244582 -0.05900289 -0.04613464 0.0056317216 0.4721411 -0.6150173 -0.21755007 0.12061674 0.32540172 -0.17760228 0.033867415 0.05687107 -0.18127427 -0.1926963 0.24260132 -0.2311949 0.06528713 0.09724762 -0.07538739 -0.030281615 0.22974706 0.095307685 0.052537296 -0.14816411 0.30492604 -0.2237886 -0.0049973656 0.12994465 0.006881759 0.055151083 0.18457882 -0.1308411 0.11561805 0.4898269 0.24801286 -0.13932897 -0.15104565 -0.104457766 0.23818418 0.04835256 0.26230025 -0.09422251 0.04313746 0.22838858 -0.21049722 0.067856565 -0.33571187 0.010102191 0.09348756 -0.46063852 0.069805555 -0.015188982 0.5240171
6239.Y18D10A.5 -0.033179037 -0.26602134 0.043536697 0.21600161 -0.079133295 0.027877651 -0.01054726 -0.10654537 -0.10097272 0.10730185 0.16455369 0.091450095 0.04999546 -0.11774296 -0.056886557 0.09258902 -0.16223773 -0.02764331 -0.09859625 0.37064108 0.16025929 0.38138637 0.22948608 -0.4972133 -0.27742133 -0.11208748 -0.2631852 -0.27359548 0.41555637 -0.056598503 -0.0017514051 0.161113 0.038624242 -0.17286015 -0.12864013 -0.115315564 -0.021950921 -0.036886483 -0.040129274 0.15249836 0.015265014 0.08075884 -0.048031777 0.1754987 0.374291 -0.25972274 0.072494306 -0.103973925 -0.28178558 -0.05312774 0.022066472 0.2767228 0.11297035 0.04200784 -0.118990906 -0.06650891 0.35348862 -0.23895663 -0.25685596 -0.0583946 0.090592146 -0.08171948 -0.27088445 0.18361619
6239.F38H4.9.2 0.02762213 -0.283079 -0.13168919 -0.0629601 -0.15802045 -0.053447213 0.07961944 -0.2463494 -0.06510237 -0.1651783 0.17639448 0.11522803 -0.083286114 -0.0085509475 -0.27705315 0.10338307 -0.289599 -0.19669022 0.20760578 0.45592123 0.32712746 0.43141106 -0.16817524 -0.34092692 -0.0911249 0.089377224 -0.07949793 0.012576565 0.25997427 0.12891749 -0.16221984 0.29793352 0.0040847855 -0.09076005 -0.23905268 -0.29504868 -0.0846517 -0.17579983 0.14686982 0.040672243 0.08307049 -0.08081407 -0.006923144 -0.02990281 0.40509564 -0.0051840087 0.12583858 -0.13413243 0.075273894 0.125392 0.22069712 0.11141652 0.22669399 -0.14913142 0.13334963 -0.042536147 0.36442572 -0.25515705 -0.20523542 0.03586788 -0.03420934 -0.11968612 -0.0448192 0.26868597
6239.F18H3.5b 0.13814647 -0.21909021 -0.15605056 0.086683325 -0.088465996 0.046885453 0.27382785 -0.14135979 -0.1659783 -0.2704963 0.092310205 -0.08258698 -0.16795714 -0.19476683 -0.014069016 0.24876642 -0.23192209 -0.17129304 -0.10905578 0.36545816 0.18630776 0.43864426 0.08353276 -0.32824314 -0.362173 0.13062271 -0.15436918 0.036098715 0.111067876 0.10649603 0.042134415 0.1353424 0.23903948 0.072781906 0.082587875 -0.00030107077 0.09210658 -0.1316579 -0.2183208 -0.07516313 0.07856786 0.1416668 0.0056903427 0.16504946 0.5722581 0.16951227 -0.05019276 -0.059010185 -0.0032530127 0.060288157 0.02142693 0.14220065 -0.07189799 0.077491395 -0.050090317 0.027670182 -0.022051567 -0.12122608 -0.2449359 -0.24896605 0.16702041 -0.20594569 -0.09575818 0.3356879
6239.Y67D8C.5h -0.17839392 -0.17034929 -0.06543094 0.07342019 0.0017976415 -0.28935122 -0.20426993 -0.35911715 -0.3732951 0.109796375 0.07617378 0.46914715 -0.09901182 -0.098949894 0.026995406 0.41117865 -0.18252742 -0.062058 -0.23943983 0.13864441 0.01329344 -0.01108869 -0.17205717 -0.6894448 -0.22041953 0.576817 -0.02623883 -0.05630596 0.05185035 -0.221422 0.31547377 -0.052465353 0.1175178 -0.076868534 -0.20739935 0.06870564 -0.016515916 -0.27141884 -0.21318933 0.32089293 0.21356189 0.035385422 -0.12273791 0.052691177 0.27971092 -0.104199976 -0.19439214 -0.1603031 -0.0966335 -0.14235017 -0.07925898 -0.23454879 -0.00097409455 -0.13412055 0.032799896 -0.18223263 0.46318787 -0.4675156 -0.32469773 0.035372756 -0.04574033 -0.10600883 0.031092595 0.0686218
6239.T06E4.3a 0.008094163 -0.12383984 0.23924273 0.12917879 -0.044014495 -0.11910181 0.021182608 -0.24715129 -0.37154296 -0.3301195 0.118515685 -0.030027658 -0.01951405 -0.19740392 0.04565177 0.25787792 -0.44659084 -0.3512724 0.13225858 0.029046994 0.03456138 0.3800752 -0.22709772 -0.41602403 -0.33602673 0.41232395 -0.04300055 -0.023920177 0.15909588 -0.24765383 0.098902784 0.098109886 0.2168103 0.17363372 0.11869496 -0.25071433 -0.13999137 -0.10468293 -0.12528135 0.09507125 -0.08617409 0.08204392 0.062026 -0.07431484 0.34594753 0.36061803 -0.07155315 -0.10237868 -0.064402245 0.19967665 0.15721983 0.09685432 -0.20679174 0.0797148 -0.19561292 -0.06501446 0.223328 -0.22244892 0.16567992 0.031131504 0.052105907 0.10362072 -0.21325101 0.2770893
6239.M142.1c 0.18643211 -0.24202108 -0.16358109 -0.10362997 0.24000834 -0.21892388 -0.050169434 0.20454276 0.12743588 0.08164578 0.39277023 -0.09631071 0.013560883 0.023541158 0.088528745 0.2993825 -0.10330993 -0.28393185 -0.18351933 0.2861846 0.030474456 0.22079554 0.22822243 -0.24151127 0.026392534 0.042029716 -0.29168475 0.09709815 -0.005009179 -0.08175238 0.34809247 0.5093162 0.06979702 -0.045798115 0.16493322 0.32461253 -0.13160986 0.008325014 0.075194545 0.2953339 -0.007914783 0.043420333 0.20473365 0.10824645 0.2379785 0.21732868 -0.12742366 -0.19851325 0.03981967 0.3016327 0.22358687 0.18908763 -0.04236361 -0.35720906 0.08401 0.19246356 -0.03869068 -0.036090907 -0.18428673 0.15769345 -0.5176351 0.14938226 -0.021695886 0.034841947
6239.Y71F9B.7 0.17257078 0.009222899 -0.16452181 0.07235768 -0.042419262 -0.045127563 0.085040554 -0.19229701 0.07947935 -0.329318 0.20633814 0.034303177 0.0555312 0.011153988 -0.035097096 0.061587628 -0.46103182 -0.30266812 0.017955327 0.3406651 -0.049557675 0.42815542 -0.05861063 -0.23312293 -0.3648311 0.32490405 -0.061473235 -0.09536207 0.011371205 0.0011065791 0.013626581 0.33671546 0.33108255 0.07325931 0.096287616 0.058709215 0.16227701 0.15207078 0.021579688 -0.1631071 0.192587 0.23495811 0.08307557 0.15285367 0.5208969 0.33424518 -0.046099607 -0.21527462 -0.063575685 0.03935633 0.12844576 0.12574422 -0.17768177 0.11012172 0.20902961 0.054033373 0.098999485 -0.4062008 0.2265945 0.039701413 -0.09981139 -0.17712955 -0.120713495 0.35746723
6239.B0025.1a -0.1397559 -0.21392481 0.1730544 0.4597977 -0.28616408 0.06792948 0.003287361 -0.06265577 -0.21674082 -0.082812026 0.35671914 -0.1389937 0.24554466 -0.01486729 -0.07679791 0.26417172 -0.35712925 -0.088958725 0.03897691 0.06561774 0.31225705 0.4423313 -0.06455779 -0.44076997 -0.36197275 0.3818271 0.0227505 -0.2288461 0.22328797 -0.023531703 0.13414422 0.13633575 0.32598528 -0.10763745 0.17905197 -0.10065498 -0.36783734 -0.115965165 -0.02522533 0.15244508 -0.29989782 0.17712186 -0.010294397 -0.073616676 0.22455364 -0.122749224 0.08899103 -0.18057176 -0.045799594 0.0052753957 0.12549071 -0.2200732 -0.17116319 -0.020044228 -0.3830073 -0.20205206 -0.16708809 -0.17984943 -0.014818275 0.09008936 0.0057387273 0.1580944 0.04692573 0.1604759
6239.B0350.2f.2 0.120751835 -0.14956827 0.10269006 0.0047393846 -0.05652934 -0.05939638 -0.02681186 -0.10556773 0.1759941 0.08112558 0.21954238 -0.14481053 0.05153395 -0.3732742 0.06271989 0.23924461 -0.12536213 -0.23089048 -0.07370582 0.3222871 0.4049575 0.3777952 0.19003649 -0.46973115 -0.061665777 0.2254642 -0.017905764 -0.07991233 0.10965022 -0.20317554 0.19297366 0.017179888 0.019295923 0.031227231 -0.29365078 0.09117626 0.075425476 0.031650886 0.28124875 -0.015128901 -0.015927657 -0.08768255 -0.024294388 -0.019553585 0.1660959 0.16866493 0.046584062 -0.45783508 -0.16712584 -0.074304216 -0.009195931 0.13994177 -0.14313206 -0.27820334 -0.28036904 0.25221038 0.051866185 -0.27574036 0.0074883685 -0.13598202 -0.06572886 -0.07206991 -0.056654558 -0.15102366
6239.C06A1.1 -0.02299669 0.061991714 0.06500725 0.109305054 0.14322847 -0.15181369 -0.10021737 -0.5803107 -0.027740259 0.17081124 -0.014095741 0.057882424 -0.15669072 0.15804692 -0.13702594 0.51844585 -0.34615925 0.17738333 -0.27661625 0.28060016 -0.04278149 0.17291494 -0.18764317 -0.47626615 -0.27345222 0.2708906 0.038144622 -0.18644024 -0.25571406 0.0128571475 0.3078569 0.023503853 0.3162618 -0.14413528 -0.21577987 -0.03613774 0.08221931 -0.084299095 -0.032724343 0.13726638 -0.07967356 0.33929884 -0.10681127 0.09145268 0.29935217 0.13999264 0.01599677 0.048696093 -0.05876477 -0.29782686 0.2066903 -0.18158683 -0.036744602 0.099296756 0.053292688 0.091860816 0.46961278 -0.43627128 -0.25975597 0.0028331066 -0.24309705 0.17036378 0.22692749 0.4886787
6239.F43E2.8.1 -0.09307745 -0.07188662 0.3495122 -0.027849399 0.08573584 -0.064842865 0.14236127 -0.28911963 -0.18187425 0.18619992 0.060271163 -0.2800226 -0.33793437 0.07137595 -0.013943778 0.18646364 -0.22973035 0.3680149 0.13912454 0.29383427 0.11587027 0.4160506 -0.14216462 -0.27125016 -0.16245548 0.1994488 -0.059849776 0.17243372 0.070100315 0.22767395 0.305812 -0.0036001715 0.062329654 -0.38742927 0.05964805 0.32902053 0.013870832 -0.17107879 -0.11464045 0.1739031 -0.045798037 0.3510448 0.06985148 -0.029571578 0.3406027 -0.036169294 -0.18991493 0.097176366 -0.17777644 -0.30628374 0.17252067 0.040704712 -0.1655116 -0.22037964 -0.41151518 -0.036495235 0.14948522 -0.38307518 0.0112890415 0.21145529 -0.12362738 0.14412989 0.3617209 0.070011474
6239.T21H3.3 0.04931093 -0.2987655 0.050109494 0.21422154 -0.2082341 -0.06071685 -0.11299597 -0.2561234 -0.13857959 -0.04071896 0.4180905 -0.48411232 -0.06830594 -0.08248134 0.28112766 0.17990242 -0.47365043 -0.09345581 -0.13837706 0.20673682 0.30663413 0.31006294 0.03175958 -0.3963631 0.0471744 -0.02051528 -0.17629828 -0.18484378 0.02665593 -0.24824922 -0.06762824 0.11262694 0.28138587 -0.16304378 0.068721645 0.14890666 0.26395404 -0.0849106 0.22905241 -0.02826743 -0.07534088 -0.26241106 -0.2282932 -0.29622337 0.1496482 -0.2953734 -0.019493831 -0.34809795 -0.1944993 0.01697848 0.29202393 -0.09405998 0.17260078 -0.27203313 0.20703341 0.17361496 -0.13338879 -0.045334384 -0.24716398 -0.17680916 0.009188349 -0.13874567 0.08403157 0.35360512
6239.C44C11.1a 0.06465924 -0.14270735 0.2269679 0.34269133 -0.116492376 0.17160411 0.27983972 -0.20089585 -0.010756839 -0.20706896 -0.19345964 -0.14821006 -0.10710509 -0.19130322 -0.25060993 0.19182876 -0.12512091 -0.29166794 -0.39801878 0.44034168 0.21066336 0.3162768 -0.024143072 -0.39997843 -0.03072162 0.26713634 -0.20795037 0.04357143 0.14740269 -0.092298955 -0.036267415 0.24539584 0.22409911 -0.08869038 0.1236504 0.018006597 -0.304708 -0.055086307 0.011396633 0.070760876 -0.21308327 0.032782566 0.0008509829 -0.1522664 0.10288779 -0.24152324 -0.29585287 -0.2373502 -0.100185424 0.06994763 0.27134213 0.066051066 0.05215244 -0.14640158 -0.108900115 0.18909004 -0.05098671 -0.07282023 0.024525872 -0.012134081 0.06464036 -0.051957577 -0.07479724 0.08152406
6239.F38A6.1a 0.13926195 -0.4186097 -0.2109674 0.30991632 0.1367652 -0.23512809 0.17145449 0.1879523 -0.23100916 0.11274431 0.14569381 -0.13072406 0.03665955 -0.20798638 -0.03245831 0.13842602 -0.043799993 -0.22134067 0.036750875 0.50851125 0.38364136 0.12912193 0.34834665 -0.29018068 -0.056762084 0.13154995 -0.23992221 -0.01917266 0.23411852 0.1686662 0.081724584 0.037136022 0.07234048 -0.08703892 0.1332258 -0.07967331 -0.093483634 0.012292282 -0.10921944 0.2877665 0.16335623 0.2606689 -0.02351559 0.12897104 0.035616856 0.017412564 -0.24970646 -0.056164708 0.36687195 0.14583808 0.04200685 0.43195698 -0.15566647 -0.0010235911 -0.2378132 -0.08600984 0.11448757 -0.23724636 -0.06847877 -0.21848093 -0.24981767 0.05567195 0.16334905 0.19109796
6239.B0478.1a 0.11283866 -0.106632635 0.14016064 0.2955715 0.01522804 -0.056898337 0.2536973 -0.13129726 -0.22584277 0.18759513 0.09974219 -0.23867775 -0.06259857 -0.25224057 -0.037865434 0.040545717 -0.20092995 0.01196269 -0.112711824 0.5255415 0.19773355 0.24397764 0.087697834 -0.39551327 -0.24506913 0.13108528 -0.46122217 0.10266151 0.3337146 -0.025967268 -0.23548166 0.04211282 -0.12208808 -0.29867446 -0.08660155 0.12020667 0.17779945 0.045281753 0.03770182 0.32887644 -0.10241674 -0.041874684 0.18233763 0.16363348 0.19163477 -0.14184588 -0.04378638 -0.02434066 0.040608972 -0.05410066 0.16866428 -0.01625474 -0.1652888 -0.14685394 -0.17600615 0.10606297 -0.04478253 -0.15580824 -0.062376946 -0.22146672 -0.047599036 -0.0035719173 -0.22008134 0.15755512
6239.T20G5.1 0.017376335 0.2617691 0.20107354 0.3323964 0.15611713 -0.19388956 0.19138817 -0.33587638 0.20847061 0.15673299 0.3033144 -0.24255231 -0.060215026 0.099388674 -0.15367801 0.15623188 -0.25996295 -0.09121484 -0.08662679 0.061897974 0.2917115 0.3951261 -0.164378 -0.5833207 -0.14096965 0.16163869 0.00861508 0.05093569 -0.018599512 -0.14341207 0.009352478 0.20958523 0.03910238 -0.24142513 -0.1736072 -0.013865708 -0.04569966 -0.032577492 0.02954151 0.20130962 -0.13379872 0.11352893 0.07957289 -0.1884401 0.40162316 -0.00054646784 0.082348034 -0.12559459 0.092431046 -0.016356872 0.04550857 -0.07736638 -0.07768545 -0.22973596 -0.08289881 -0.16722001 -0.12021799 -0.33032706 -0.024009403 0.3621124 -0.24546346 -0.53377616 0.35175952 -0.28291667
6239.C33B4.3c 0.13002819 -0.087596215 -0.1294984 -0.053505484 -0.2920872 -0.06752549 0.14679287 -0.23101768 0.046232905 0.062972255 0.24469201 -0.3061811 -0.097699836 -0.21592756 0.02607536 0.1709555 -0.11786597 -0.23939024 -0.10946977 0.35037062 0.18244961 0.25554064 0.07356983 -0.47305113 0.16394332 0.21505617 -0.09775857 0.09731798 0.030802343 -0.16223326 -0.026808165 0.11910783 0.16769688 -0.13496576 -0.041244213 -0.13968089 -0.04042716 -0.10569582 -0.03872348 0.02937001 0.042878114 0.11381046 0.038575705 0.1790845 0.123326324 -0.13298708 -0.08578115 -0.3254354 -0.18675974 -0.2617037 0.25153944 -0.11439038 -0.00030453195 -0.118980765 -0.20165819 0.06418003 0.121404395 -0.27294627 0.16967626 0.019582046 0.07469826 -0.061845835 -0.030289121 0.008651854
6239.F23B12.8b 0.39734048 0.17073496 -0.15437229 0.41487923 -0.00853288 -0.22314085 0.16149291 0.052202184 0.12445957 -0.33871138 0.17525631 -0.013384952 -0.10122397 -0.27174008 0.15113448 0.028540432 -0.31654516 -0.32278773 -0.07623241 0.32802498 -0.010476828 0.19657908 -0.010649153 -0.18200022 -0.37901697 0.38508087 -0.26235774 -0.077532694 0.29587466 -0.02278641 0.07988946 0.2219348 0.3863236 0.20057791 -0.07180539 0.21605635 0.15069582 0.16220115 0.06273238 -0.008486384 0.17867972 0.016154496 0.1740648 0.0873833 0.6916403 0.40640172 0.054274954 -0.43857625 0.008777828 -0.2703586 0.10729039 0.25964454 0.06928439 0.008074601 -0.06374971 0.108910695 -0.022273622 -0.09557514 0.06207806 0.08142473 0.056543596 0.03692507 0.11560963 0.1427656
6239.C02F4.2c 0.3296836 -0.37897423 -0.018742379 0.015707904 -0.12677354 -0.11221689 0.105008 -0.27820194 -0.0982587 -0.007831363 0.33068925 -0.1988308 -0.31639782 -0.16432667 0.13739103 0.20662092 -0.35282347 -0.31078875 0.106511556 0.30033115 0.29205626 0.253866 -0.100484505 -0.52062035 0.24128743 0.117365986 -0.20787151 -0.19150351 0.19601224 0.14492092 0.003841019 0.13169017 0.031549007 -0.16233352 -0.26528922 -0.040670354 -0.06480959 -0.20429133 0.1281623 -0.17741503 0.2077873 0.029579215 -0.13926099 -0.26759645 0.057686817 -0.29031807 0.23055157 -0.30148777 0.1981938 -0.13795115 0.24809544 -0.052122302 0.25953445 0.042676546 0.0019297674 0.11234961 0.06515865 0.013743799 -0.17276917 -0.04555084 0.07636767 -0.015625073 0.06901429 -0.0017296511
6239.K07C5.1 -0.21031506 0.051412918 0.22316255 0.06155435 0.073931046 -0.44260618 0.038168553 -0.28393346 0.15681034 0.15236937 0.10145267 -0.1437022 -0.17592746 0.2529696 0.011084928 0.5692641 -0.3525913 -0.41509485 -0.3445167 0.23456265 0.16893001 0.19807388 0.038782746 -0.43103033 0.10585673 0.48895928 0.13677199 -0.27093312 0.1417643 -0.18017218 0.13426645 0.25964564 0.25660113 -0.0024786524 -0.2248408 0.0013356538 0.098259285 -0.017139005 0.023322534 0.43000406 0.12912445 -0.18881416 -0.01601707 -0.024028359 0.0053234585 -0.15306261 0.034882043 -0.14200568 -0.08391076 -0.31589928 0.2554219 -0.013000601 -0.04431764 0.02435396 0.0898001 -0.24731995 -0.08125295 -0.27362156 -0.18190016 0.2532152 -0.023302736 -0.40422288 0.19187082 0.08745722
6239.K06A5.7.1 0.11511866 -0.10180663 0.012554696 -0.00094926957 -0.18525504 0.07511801 0.037300654 -0.015037315 -0.050205857 -0.16122651 0.20708132 0.0742989 -0.0056316764 0.10298111 -0.019604199 0.28331876 -0.4884112 -0.24363622 -0.0451745 0.47633803 0.025744958 0.14821206 -0.010181256 -0.1301291 -0.53373563 0.32486972 -0.12200746 0.16515023 0.08834869 -0.0023170267 -0.0947818 0.42959434 -0.17641185 0.0017131995 -0.003364683 0.09061641 -0.14961685 0.06262085 -0.034003776 -0.02612518 0.18942456 0.14734437 -0.17490697 0.21125309 0.59077024 0.18188195 -0.2802745 -0.085075215 0.033481356 -0.032265943 -0.098640084 0.26199818 -0.15711223 0.22357018 0.42947793 0.011294843 0.23229167 -0.18525966 -0.03717072 0.12038768 -0.27393195 -0.0733187 -0.29127002 0.24939309
6239.F52E1.1 0.21062565 0.22904605 -0.019365266 -0.058039747 -0.06380439 -0.19032261 0.114898875 0.31860334 -0.051263854 -0.12648657 0.23197792 -0.013721192 -0.003960264 -0.043386895 -0.021691129 0.48156902 -0.6313666 -0.09059375 -0.07951046 0.26437187 -0.10575461 0.073231995 -0.07445008 -0.09605597 -0.1893214 0.22986588 -0.11255132 0.009863041 0.21813516 -0.21262386 0.111304 0.30590597 -0.19013491 0.11318237 -0.20613539 0.40391195 -0.24137984 0.09275657 0.15990731 -0.1726571 0.14877523 0.26208398 -0.2860151 0.3399792 0.47710705 0.087917745 -0.26459557 -0.031273995 -0.04985286 0.17222573 -0.1865223 0.31658754 -0.24289498 0.16529691 0.22834533 -0.18970184 0.03448193 -0.38752905 0.03630094 0.23889594 -0.38232744 0.14668496 0.09091697 0.44636744
6239.R07E4.6c 0.2951033 -0.49732897 -0.06312292 -0.002522025 -0.22329983 -0.19898385 0.26602605 -0.13723461 0.1276229 0.037670698 0.37148094 -0.16000688 -0.28162652 -0.1961456 0.05999433 0.2824719 -0.2712767 -0.19936267 0.06801168 0.14142847 0.0054231044 0.24270166 -0.09309695 -0.41822684 0.35878024 0.022850322 -0.28196248 -0.0539049 0.073034346 0.095242105 0.18729445 0.16366158 -0.025741635 -0.010001359 -0.23181337 -0.041618936 -0.10896897 -0.27226827 -0.07293736 0.02940005 -0.08956451 -0.062083397 -0.078804985 -0.2737224 0.14501736 -0.49044147 -0.1800993 -0.41132504 -0.079204366 0.12382171 0.17949158 0.07400533 0.10940079 0.25940156 -0.08913818 0.17612262 0.09317822 0.035377547 -0.03864308 0.17409803 -0.22590774 0.0571895 0.22397603 0.24999256
6239.C27A2.6 0.21314123 0.25822568 -0.075280726 -0.011527811 0.023095151 -0.29840362 0.39014652 0.044876292 -0.018947612 0.19664474 0.23411039 0.082577445 0.07865675 -0.22860534 0.101185545 0.16782817 -0.28117603 -0.026169278 -0.20225321 0.08902309 0.4046715 0.21029755 -0.23062561 -0.18128759 -0.45875013 0.06370002 -0.45463336 -0.13582514 0.21925691 -0.25020677 0.048202246 0.14933842 0.14554735 -0.38733608 -0.15700328 -0.17778659 -0.023072593 0.06851863 0.21640109 0.041549254 0.21992075 0.23237325 0.024161927 0.5659422 0.7127217 0.15480243 0.0400118 -0.2710379 -0.33082792 0.040342994 0.030340478 0.47932026 0.11537944 0.015037746 0.11424992 -0.18286239 0.35395315 0.0010628816 -0.038831532 -0.11665442 0.040139142 -0.041388385 -0.07089237 0.17979264
6239.K07A9.2 0.1567845 -0.32237932 0.075590625 0.23551974 0.0989242 0.024047313 -0.054631125 -0.112974174 -0.28531173 0.18710402 0.20918992 -0.3459878 -0.1046327 -0.11794778 0.08608755 0.15440013 -0.28502664 -0.11365627 -0.15120189 0.45661154 0.35023227 0.3433262 0.03725617 -0.48104826 0.079255454 0.07381141 -0.33550352 -0.08932326 0.26441094 -0.098913185 -0.161817 0.19491945 0.2462018 -0.06693162 -0.088536516 -0.078211024 0.1817326 0.18499804 0.19782935 0.05144414 -0.11860209 -0.09494668 0.09185229 -0.14596367 -0.033811565 -0.27381486 0.0404573 -0.14221188 0.022910858 0.08342851 0.23343614 -0.08476184 0.035728153 -0.091018796 0.008763811 0.056225732 -0.17090939 -0.05952855 -0.12404349 0.037172448 0.121746995 -0.19217917 0.026955208 0.25412425
6239.K03D3.10 -0.21414284 0.1324729 0.2647292 0.19175261 -0.1865155 0.03858072 0.46570447 -0.09919688 0.087666616 -0.14017208 0.014941339 -0.37226543 0.005024521 -0.054463077 0.05877308 0.30529538 -0.24660718 -0.1844311 -0.4013995 0.19714697 0.36466053 0.47618327 0.2587828 -0.29983884 0.13464428 0.35555968 -0.20635141 0.037389282 -0.061324276 -0.27811596 -0.0884755 0.29778272 0.2389583 -0.22807822 -0.3503171 -0.28022042 -0.05889971 0.09573661 -0.07478743 0.027957955 -0.19436425 -0.054208964 0.32278204 0.077592224 0.263322 -0.1577683 -0.38108954 -0.24452949 -0.21008629 -0.036341168 0.5404687 -0.08757449 -0.1367619 -0.19296756 0.009066645 -0.11090166 0.14687018 -0.3124639 -0.06622418 -0.09743946 -0.035195354 -0.09428519 -0.14348641 -0.11651367
6239.Y105E8B.1a 0.09473333 -0.068108946 0.0012671882 0.24567328 -0.100373946 -0.16087013 -0.10392784 -0.017930051 -0.28829363 -0.15421197 -0.018544188 -0.13743687 -0.2541214 0.012954007 0.045610607 0.35517037 -0.3317849 -0.4475913 -0.17938852 0.15564129 0.3556678 0.37428564 -0.09492734 -0.17099819 0.30782485 0.21957813 0.022444023 -0.21118243 0.1897813 -0.14924423 -0.0087258285 0.093337014 -0.13505234 -0.008347375 0.038061783 0.39120072 0.28333476 0.117497414 -0.04137984 0.21334086 -0.09749111 0.040431067 -0.035656877 -0.224947 0.00066456856 -0.3474478 -0.08907562 -0.35460946 -0.20612644 -0.4338771 0.07639393 0.28206566 0.15915182 -0.16366787 -0.16831139 0.076547325 0.02294558 -0.022995774 -0.024578068 0.18506461 -0.25330418 -0.20769499 0.17593817 0.08019111
6239.C26D10.2a 0.24356799 -0.0046933023 -0.007711993 0.062813945 -0.13253303 -0.24758679 0.17797 -0.28406188 -0.07312349 -0.16025987 -0.117972314 0.13535185 -0.09489759 -0.11326317 -0.23969352 0.4652985 -0.21649568 -0.13705179 0.08109684 0.078252144 -0.0648954 0.4653268 -0.39696452 -0.14569244 -0.09335114 0.11235362 -0.1601401 0.13214236 0.27938715 -0.29886484 -0.029460039 0.084643096 0.07493363 -0.102042444 0.1943467 0.16230032 0.14835678 0.10096743 -0.15625389 0.11063399 -0.030827966 0.2012895 -0.30512685 0.24191311 0.34606564 0.24209501 -0.0025167773 -0.084475 0.013040255 -0.06653857 -0.020680591 0.2423042 0.04739866 0.09142377 0.023134561 -0.24178907 0.18026608 -0.6021531 -0.05526393 -0.07236636 -0.031492416 0.26971638 0.51492643 0.14925317
6239.ZC477.9a 0.040006746 0.22856201 -0.08126845 -0.034093358 -0.053686447 -0.4397482 -0.044246282 -0.31747773 -0.3518133 0.26424345 -0.06810816 -0.22853889 -0.08206063 -0.07224569 -0.1084805 0.7102805 -0.08081849 -0.3083273 -0.3793014 0.30616352 0.44917074 0.36596194 0.036133748 -0.3662113 0.089949094 0.48178306 0.05085973 -0.091670744 0.052218754 -0.124053314 0.29748237 0.0973452 0.071116865 -0.080948 -0.40796462 0.12384424 0.09274823 0.20350611 -0.066065505 0.4460204 -0.1739033 0.14665903 0.101802744 0.04335756 -0.26775327 -0.32910103 -0.10008974 -0.2810206 -0.4094609 -0.25938705 -0.032157183 -0.07493902 -0.038595106 -0.07877772 0.31139335 0.31866014 0.005897184 -0.09402759 -0.17683318 -0.12437824 0.05506571 -0.15446758 -0.01459213 0.053331856
6239.F26B1.3 0.06401005 0.17570399 0.2140931 0.41138977 -0.19019833 -0.16486146 0.007775315 -0.022167934 0.05454976 -0.08187369 0.27607298 0.09304454 -0.14545032 -0.09185401 -0.012842657 0.31622583 -0.42320472 -0.08672956 0.12191336 0.30790856 -0.16385509 0.19236137 -0.14733379 -0.2088554 -0.15860105 0.26397994 -0.12484876 0.16621797 -0.010795555 0.24337548 0.11516029 0.34144363 -0.0022400701 0.16519453 -0.059824057 0.09814311 0.15760352 0.17653789 -0.033048876 -0.106014326 0.20399919 0.36823508 -0.23624538 0.3319373 0.41895002 0.11807101 -0.069240816 -0.08100069 -0.17728436 -0.058932796 0.1334528 0.24673235 0.051388714 0.12226477 0.24091047 -0.3505358 -0.026972286 -0.46760947 0.3058853 0.09600699 -0.08091511 -0.11101724 0.15047559 0.43013683
6239.R06C1.1.1 0.2995211 -0.43377912 -0.07526871 0.11684964 -0.049493726 -0.30279696 0.30933776 -0.032114666 -0.20296372 -0.20139155 0.06567778 -0.1312159 0.024749065 -0.34541786 0.04912095 0.12715845 -0.49574387 -0.10445389 -0.10346748 0.40234905 0.19992879 0.33254513 -0.047933105 -0.2100862 -0.17971541 0.12141305 -0.106501184 0.04635662 0.37130702 -0.069441386 0.07507955 0.04510157 -0.042620353 -0.09439715 0.14258356 -0.058696218 -0.06875375 0.066999994 -0.29017013 0.00163543 0.11416556 0.24013138 -0.009194417 0.027083118 0.2670683 0.34072733 0.013787829 0.19220656 0.121706076 -0.0019692846 -0.02762281 0.038500343 0.16214983 0.21154004 -0.050413217 -0.26304477 0.20388442 -0.35474706 -0.012153661 -0.04528178 0.13093635 -0.14070274 0.24236424 0.05032931
6239.K03E5.3 0.16214839 -0.21667355 -0.09778895 0.16078964 -0.20148455 0.09975595 0.12064979 -0.16033389 -0.06752425 -0.2818447 0.13105443 -0.05933857 -0.12959053 -0.041061275 -0.063758194 0.30468166 -0.22382823 -0.25186804 -0.12891892 0.4132272 -0.043150946 0.4565412 0.053714257 -0.32686263 -0.22651011 0.22004278 -0.12848483 -0.037019536 0.0009561848 0.03356595 0.06277796 0.2598192 0.25371 0.10255892 0.14589995 -0.0592613 0.21864878 -0.11342182 -0.29034358 0.0939592 0.0412892 0.061204683 0.050753295 0.104154855 0.5209374 0.19091627 0.056707643 -0.20590062 -0.04667817 -0.07934298 -0.003963111 0.1100976 -0.04224926 0.13527198 0.036725417 0.0030131226 0.022944698 -0.3505733 -0.11872814 -0.07828692 0.14559852 -0.14283766 -0.2115423 0.23975207
6239.D2045.6 -0.19703501 -0.23134924 -0.06865362 0.092922375 0.047133364 0.116217 -0.040802706 -0.28318137 -0.14315496 -0.35885742 0.05024244 0.16996996 -0.07144914 -0.07353914 -0.044016436 0.32723862 -0.19231094 -0.22353633 -0.09096159 0.30990952 0.15198107 0.058858387 -0.0632614 -0.5324278 -0.3646948 0.23447457 -0.28266132 -0.2940869 0.13893263 -0.1243466 0.4018556 0.3590515 -0.011466587 -0.111887574 -0.07137913 -0.13152747 0.062100075 -0.2486268 -0.26879776 0.01044326 0.17711772 -0.0015087394 -0.001494289 0.11432629 0.66824573 0.012149686 0.09310726 -0.06196545 0.15088095 -0.14803375 -0.23899642 0.013803231 0.1005539 -0.035371527 -0.023364032 -0.06804483 0.46303713 -0.35337844 -0.15791655 -0.061707973 -0.23568691 0.044209715 -0.12805112 -0.06773838
6239.W02A2.7 0.14279994 0.20423147 -0.14699118 -0.10713701 -0.16058144 0.030113319 0.12176756 0.13394707 0.060332578 -0.021978252 0.22562043 -0.020110479 -0.048803385 0.006335764 -0.06973544 0.5491284 -0.5793539 -0.14477392 0.0051069986 0.3078562 -0.16749132 0.09041784 0.13306923 -0.059295923 -0.21489796 0.14233276 -0.20186068 -0.09408632 0.27237698 -0.16107297 0.07698674 0.2627673 0.1886029 0.17782013 -0.22837563 0.26640025 -0.24318694 -0.053653006 0.16984692 -0.11385739 0.1265162 0.17703861 -0.2770574 0.29391026 0.592399 0.10056994 -0.2473788 -0.07875802 -0.08407883 0.28194568 0.024206782 0.26520458 -0.24261725 0.17030172 0.27758172 -0.2836857 0.14212406 -0.407962 0.11146371 0.21325195 -0.45464584 0.05623572 -0.0016236918 0.47123793
6239.C37H5.8 -0.1176278 -0.007729182 0.15656894 0.18234257 0.141158 0.0357188 0.04006965 -0.3848992 -0.1418504 0.17220823 0.03964204 -0.30163983 -0.25884542 -0.009831855 -0.0893568 0.12908427 -0.18714586 0.29582122 0.23374118 0.41225353 0.17855169 0.42648864 -0.23930357 -0.09825632 -0.025983784 0.291958 -0.21381222 0.20567337 0.32179517 0.16267206 0.37079018 0.15107736 0.0034134549 -0.028651992 0.20647246 0.10082238 0.12733836 -0.107991844 -0.30651838 0.14807145 -0.012075759 0.19427134 -0.20646985 -0.16249897 0.23693673 0.038516674 0.050458316 -0.081656665 -0.047166247 -0.22412956 0.00793454 0.08246404 -0.20553626 -0.29366487 -0.32377127 -0.05225311 0.24350283 -0.31293505 -0.18341205 0.23133057 -0.06805293 -0.005383523 0.17222178 0.310662
6239.C35C5.4 -0.02004151 0.037935887 0.12052558 0.35822326 0.03546813 0.02389247 0.4191951 -0.080007575 0.18143387 -0.19829595 0.064450026 -0.33011156 -0.08862277 -0.058633737 -0.011235847 0.29498464 -0.17503037 -0.16484107 -0.12092396 0.1768226 0.39197418 0.3319614 0.02362482 -0.42021525 0.01784222 0.25430575 -0.19363546 0.027085213 -0.18379997 -0.19515519 -0.07584701 0.2778555 0.081918545 -0.028082676 -0.19726484 -0.12321577 -0.074926816 0.15503469 -0.005367041 0.23380487 -0.10036759 -0.09539171 0.32230702 0.16978593 0.28937063 -0.21858412 -0.274687 -0.18429278 -0.2248675 0.02633551 0.47997272 0.09318031 0.06571913 -0.3799399 0.14330792 -0.17426144 0.051568013 -0.30643153 -0.10358957 -0.016128412 0.096037716 0.039047528 -0.24641642 -0.06914956
6239.ZK524.2d 0.3724658 -0.35978395 -0.023874117 -0.004157636 0.06151206 0.12678297 -0.13457322 -0.12929957 -0.013101392 0.01575642 0.1999526 -0.26510978 -0.16939987 -0.29824674 0.093629755 0.4002424 -0.23827696 -0.13203155 -0.15171252 0.29558367 0.0657644 0.0600379 -0.10634441 -0.48044553 0.13138661 0.09699725 -0.34985402 -0.07785162 -0.015056073 -0.20565999 0.17192484 0.28730538 0.29238048 -0.10184061 -0.15210518 0.15179724 -0.11554077 0.20195618 0.1021226 0.04248163 -0.04625479 0.14274289 0.15379682 0.076919004 -0.12685044 -0.30423966 -0.06811588 -0.22617288 -0.18045703 0.08213456 0.09710803 0.088266045 0.015253827 -0.39918467 0.007661811 0.17859986 -0.16703825 0.20972842 -0.12064138 0.33863714 -0.3696417 0.049562212 -0.0050255414 -0.1385908
6239.F31E3.3 0.05624857 0.1916283 0.112396985 0.06485869 0.063679844 -0.17457421 -0.079171985 -0.17671572 0.13743262 -0.40628085 0.38576847 0.09991918 -0.17861485 -0.09469276 0.16118278 0.37963876 -0.27784687 -0.35465062 0.14585577 0.36544943 -0.022285853 0.086124 -0.3197994 -0.26185903 -0.35581285 0.16935429 -0.1660067 -0.06691634 0.28602085 -0.124568366 0.15304588 0.17413892 0.33156595 -0.023684548 0.1000029 0.2213302 0.15095207 0.24076915 -0.18752085 -0.07199768 0.047542334 0.23739718 -0.20038667 0.38019276 0.4040676 0.4464918 0.027794018 -0.040964425 -0.061053798 -0.17082201 0.058239266 0.108064644 -0.11766404 0.40268248 0.15579663 -0.0048862053 0.14199512 -0.22797413 -0.015268069 0.13343622 0.18366116 0.1450435 0.0038276268 0.26218468
6239.AH6.5 0.1289251 0.18828526 0.124049544 -0.0846093 -0.12561367 0.049884822 0.19869594 0.1876119 0.09607564 -0.037507124 0.21516256 0.13027585 -0.09573858 -0.19857146 -0.116373666 0.4534 -0.5854559 -0.25881013 0.008653865 0.19740264 -0.10831331 0.027308095 0.04117129 -0.17213936 -0.2262202 0.3091171 -0.13954128 -0.025580859 0.2454381 -0.120008454 -0.044159353 0.30853206 0.1246997 0.13938782 -0.16303562 0.32923985 -0.18735342 -0.025419138 0.19852567 -0.17014349 0.20743532 0.2614048 -0.2940457 0.29754943 0.62197846 0.11379873 -0.20418124 0.013741825 -0.15652485 0.35681283 0.006857717 0.3258372 -0.17450741 0.2806578 0.311717 -0.34555656 0.09096092 -0.35086945 0.1102635 0.17134894 -0.42347977 0.08295119 -0.085362695 0.48194808
6239.W03C9.3.2 -0.1808999 -0.019781753 0.12715872 0.39911276 -0.13313928 -0.13479203 0.06148173 -0.26294744 0.19000727 0.054785013 0.519981 0.07048698 0.39363238 0.100122675 -0.3133212 0.18987834 -0.19927192 -0.076390095 -0.15566571 0.121401325 0.24181867 0.31965944 -0.019369947 -0.37288332 -0.26332933 0.121656604 -0.12193968 0.14120783 -0.075439245 -0.034174785 0.072736986 0.21121351 0.2942617 -0.11751377 0.073800534 0.11874625 -0.14897658 0.07124678 0.095214434 0.3993576 -0.36499652 0.27556324 0.015918724 -0.042510413 0.23557907 -0.09673253 0.050879605 -0.41409764 -0.056362446 -0.044262003 0.23001325 -0.16192693 -0.17075445 -0.12826252 -0.34031442 -0.21579424 -0.22910792 -0.1633028 -0.2935042 0.41870508 -0.21089062 0.08028379 0.10867077 -0.17111768
6239.ZC513.6 0.16620398 0.16369797 0.008328088 -0.038399607 -0.04778321 -0.033259902 0.10300364 0.1769812 -0.032970134 -0.030790323 0.18323942 -0.031693187 -0.061634302 -0.12333345 -0.056581922 0.5479935 -0.5927292 -0.07675014 0.07634477 0.16138911 -0.1717694 0.11389486 0.18253575 -0.25159436 -0.27947342 0.06754126 -0.24038859 0.017135393 0.0969589 -0.14846404 0.09911202 0.19500117 0.084505506 0.28292155 -0.15657264 0.32740214 -0.11375566 -0.05677805 0.07842951 -0.2148714 -0.02974929 0.33734882 -0.32533488 0.24626707 0.423065 0.013346302 -0.3090276 -0.0667043 -0.09683414 0.31615937 -0.055742174 0.23331198 -0.10118933 0.22943895 0.2201362 -0.32154068 0.0022591865 -0.5094247 0.14969116 0.15725787 -0.3504463 -0.09618743 -0.12620355 0.54976803
6239.K07A1.12 0.18843783 -0.21040073 -0.06185958 -0.105165474 -0.3662431 -0.37187582 0.13041353 0.12030936 0.055302624 -0.43426487 0.14494754 -0.02588497 0.041254323 -0.36134365 0.22616889 0.16102165 -0.23857495 -0.23556808 -0.20305462 0.2783181 0.29884487 0.22052336 -0.33452952 -0.29858184 -0.2230427 0.08860385 -0.23586114 0.35475647 0.3417762 -0.11846262 0.3857438 0.054267123 0.07063126 0.07367789 0.11503855 0.09753471 0.09020894 0.17371169 -0.24245858 -0.13224544 0.15661927 0.19538377 -0.0155624775 0.2703138 0.35996294 0.38913447 -0.016991178 0.077768534 0.070723034 -0.14089528 0.07380651 0.16725637 -0.0001183282 0.09539945 0.1996083 -0.26817697 0.179493 -0.29535806 -0.07757566 0.15508685 0.008775902 0.054316666 0.28462976 0.16014485
6239.C37A2.4a 0.10211361 0.017011756 -0.08717953 0.15645155 0.04610216 0.17139068 0.23115022 0.11048898 -0.093601115 -0.26906967 0.083188504 0.043116976 -0.07762324 -0.014024597 0.02410043 0.2883553 -0.46977815 -0.3258524 -0.012526498 0.36519158 -0.12783824 0.0966648 0.07827967 -0.34552372 -0.38068923 0.1437366 -0.37322348 -0.0658838 0.24967101 -0.020096125 -0.009120649 0.2020817 0.113966614 0.042341013 0.07286118 0.25749946 0.013676657 0.034170255 -0.23084103 -0.013542699 0.15048517 0.057434995 0.03404719 0.25430977 0.50530195 0.15010253 -0.06583719 -0.17713459 -0.0024713257 0.0366462 0.068750136 0.20750205 -0.011416424 0.05603755 0.21637185 -0.053237434 0.0032815821 -0.34870496 -0.048737425 -0.085898206 -0.040146884 -0.1600736 0.0068944665 0.35760012
6239.K01A6.2a 0.06365615 0.029923696 0.18485734 -0.00504048 0.04217986 -0.3046762 0.012276074 -0.118362084 -0.13699335 -0.05087791 0.13772582 -0.1909289 -0.065056615 -0.11689954 -0.02905315 0.08464644 -0.13890654 -0.20947312 0.056269072 0.32533118 0.19990867 0.08226574 0.0022916773 -0.46079016 0.12045359 0.25225458 -0.26030067 0.2908494 -0.002235329 -0.2725782 -0.07904794 0.36461738 0.21290243 -0.12512977 -0.11754293 -0.023265582 -0.095036924 -0.056747 -0.14888471 0.020343274 0.14799657 0.14430672 -0.08150966 0.13825208 0.25122133 -0.26418412 0.020808516 -0.40450677 -0.3876594 0.07575706 0.010305101 -0.23933357 0.070215836 -0.18789771 -0.20920582 0.03523644 -0.006408847 -0.23140493 -0.20511274 -0.14892031 0.107352905 -0.25564 0.10921787 -0.0051613357
6239.C41C4.8.2 -0.20596191 -0.0066678044 0.15039188 0.08205209 0.07692133 -0.2546867 -0.077373706 -0.5673312 -0.10782489 0.09418233 0.10546565 0.055305257 -0.058814663 0.09691766 -0.03921913 0.55723697 -0.27222466 0.20104909 -0.13762064 0.23722874 0.06139481 0.07588698 -0.16229035 -0.53529024 -0.041861665 0.285107 0.05604384 -0.20313002 -0.17333126 -0.042402353 0.23459212 0.0419163 0.38061726 -0.14739512 -0.30679286 0.056833025 0.038624384 0.07711247 -0.052509047 0.21363649 -0.040428303 0.32730213 0.015916398 0.045102414 0.28584808 -0.03229245 0.013114046 0.18341754 0.010408584 -0.47169745 0.15938526 -0.11211593 0.019877112 0.13882262 0.07818731 0.122708425 0.523123 -0.41743475 -0.4168098 0.11030732 -0.16355965 0.26879087 0.29845008 0.45741904
6239.F53G12.5b -0.21396807 -0.095828496 -0.17481093 -0.057955027 0.0038122102 0.22694542 -0.052908286 0.1604145 -0.15281962 0.025455914 0.116064295 0.22835866 -0.023479035 -0.020851316 -0.17598319 0.42880148 -0.458386 -0.12343978 -0.021211594 0.4080166 -0.19628 -0.20365697 -0.02390797 -0.33749557 -0.32742146 0.38864073 -0.28223613 -0.11545277 0.19813116 -0.4324906 -0.028368257 0.34859878 -0.16885963 0.14506932 -0.1930518 0.30839682 0.028868772 -0.16250932 -0.15868089 -0.2140653 0.12099462 0.18080196 -0.103893034 -0.031197956 0.5922393 -0.1336551 -0.19901875 -0.12929872 -0.13737239 0.28306544 -0.20421878 0.22638308 -0.09082497 0.050169345 0.18788412 -0.35267738 0.18817768 -0.5653457 0.102894165 0.25093892 -0.4669796 0.026292559 -0.017907334 0.17177139
6239.F17E5.1a 0.37435615 -0.14175832 0.08688013 -0.19365755 -0.052560095 -0.13175005 -0.22485313 -0.21515949 -0.17072687 -0.12380998 0.007295137 -0.16319986 -0.19031006 -0.25602308 0.045508802 0.13260171 -0.10501577 -0.2544181 -0.055601172 0.28050295 0.15118463 0.046358604 0.055698615 -0.487803 -0.007085774 0.123780906 -0.27907217 0.13321266 0.1806249 -0.2686332 -0.15716113 0.49247992 0.27789494 0.03054465 -0.039959162 0.07812286 -0.14119494 0.16039655 -0.024403488 0.21542543 0.10333348 0.29176465 0.011530942 0.0067068185 -0.049227655 -0.23803626 0.07990594 -0.561164 -0.05713407 0.006169361 0.14497241 -0.1866883 0.065516554 -0.3442433 0.043686878 -0.002427633 0.07755955 -0.17683296 -0.091423266 -0.046441015 0.067585506 -0.14764196 -0.036858544 -0.07611869
6239.F44F4.2.1 0.2738827 0.08468633 -0.09830317 0.006345582 0.027922634 -0.14585395 0.14882196 -0.038979847 0.07434618 -0.027406428 0.22950272 0.058220614 -0.087835796 0.029153716 -0.21968777 0.35863808 -0.5832381 -0.07542422 0.24892637 0.3284687 -0.0055613117 0.15414684 0.05388326 -0.20370921 -0.16069964 0.36537457 -0.067351714 0.24693698 -0.11023336 -0.31858316 -0.0020284096 0.27092287 -0.052699316 0.1268314 -0.063392535 0.1110467 -0.32691646 0.07303054 0.013676975 -0.03826637 0.19451627 0.41799843 -0.31127223 0.402552 0.47597307 -0.123795845 -0.19361977 -0.12489107 -0.03730829 0.17243558 0.040300295 0.192087 -0.028797138 0.2363966 0.11488197 -0.14412996 -0.121078804 -0.3103874 0.075069726 -0.00014863769 -0.12634313 -0.06813518 0.0330224 0.41668049
6239.F48E8.5.2 0.014493996 -0.0063809245 -0.1920292 -0.08615947 -0.082530625 0.003321207 0.04352263 -0.10967485 0.0711601 0.063063964 0.02983121 -0.11415914 0.15829729 0.0226593 -0.45030755 0.5885927 -0.39373955 -0.18321024 0.14653823 0.42942837 -0.03310885 0.1956362 -0.34995347 -0.4279247 -0.17686209 0.039921723 -0.17207387 -0.081189014 0.26639304 0.037313353 -0.25748 -0.030281702 0.1911907 -0.17396995 -0.31203678 0.11040034 -0.08224341 -0.2023998 0.30729327 -0.14241879 0.07487145 -0.15845878 -0.24995242 -0.3150646 0.5946778 0.07606559 0.14756252 -0.19447932 0.12125467 0.16401473 -0.028120564 0.52235764 -0.04775609 -0.097414345 0.12898093 -0.22713187 0.379036 -0.31943178 -0.4644774 0.15422125 -0.14717484 -0.02388131 -0.049533654 0.26248378
6239.F58A3.2c 0.22710785 -0.019866139 0.13832137 0.111047365 0.27343068 0.1879564 0.20495515 -0.11281404 0.05935976 0.094645575 -0.1448233 -0.023180516 -0.19888417 -0.378094 -0.15372899 0.3961988 -0.08041494 -0.5170343 -0.16578843 0.562751 0.35268804 -0.06959153 0.18391292 -0.27103388 -0.20238696 0.15757264 -0.0097678155 0.16516851 0.31220612 -0.017384134 -0.045807634 0.12179369 0.12089286 -0.1294131 0.17521736 -0.107500106 -0.036369864 0.09123062 0.089383945 0.08293163 -0.2961562 0.20898592 0.08831504 0.18385337 -0.13750957 -0.32466573 -0.054899495 -0.32107443 0.065497465 0.08264528 0.07246304 0.2018367 0.2072935 -0.39923617 0.15494877 0.2685688 -0.08284341 -0.27633804 0.21984239 0.017209131 -0.14065127 -0.0073662037 -0.23602404 0.018799134
6239.T04C12.6.2 -0.017628802 -0.069022335 0.22630066 0.24522352 -0.0021711907 -0.40927488 0.05825474 -0.018641923 0.098566554 -0.18303005 0.0670704 -0.41682735 0.07242019 -0.023871694 -0.0666124 0.27671352 -0.45106196 -0.30857942 -0.06833574 0.15379879 0.22866295 0.42703396 0.034797937 -0.27213523 0.15939927 0.35283878 -0.03613524 -0.28379494 0.033613592 0.015510267 0.1108304 0.3616718 0.15220556 -0.107539274 0.025089653 -0.013379187 0.07307987 -0.05236363 0.0036851426 0.16064127 0.06345292 -0.08276924 -0.07850745 -0.14202297 0.11106134 -0.2524396 -0.021592032 -0.0543678 -0.16089644 -0.29570043 0.10963529 0.14140926 -0.0012571849 -0.14387417 -0.044169758 -0.041845504 0.01955582 -0.27703103 -0.07147784 0.06855681 0.056781866 -0.16829851 0.2292398 0.2179155
6239.K12D12.1 0.15148912 0.13125348 0.030692216 0.10228443 -0.047318164 -0.4108546 0.2910338 -0.21644935 -0.12860812 -0.28280026 0.05190009 -0.169477 0.083952405 -0.14156735 0.18566161 0.235066 -0.24122182 -0.25710508 0.0814352 0.23333405 -0.07741005 0.32699826 -0.49828395 -0.12098644 -0.51755553 0.17302562 -0.21051219 0.1059078 0.11156043 -0.06912266 0.25863305 0.124710694 0.5124311 0.062364336 0.00033951466 0.03670494 0.16814323 0.074256554 -0.28415713 -0.11443133 -0.059489794 0.24867015 -0.075385846 0.076966025 0.5092239 0.3634459 -0.0445285 -0.15976122 -0.046644386 -0.11671739 0.076479524 0.074298784 0.0866904 -0.020159796 0.10626943 -0.07867083 0.30936787 -0.12683481 -0.002584527 -0.012040865 -0.10803601 0.11717072 0.16270728 0.2019011
6239.R06C7.8 0.13466318 0.10764495 -0.019495845 0.33186093 -0.13142855 -0.15976606 0.17027499 -0.07931498 -0.06777581 -0.48640195 0.16879058 0.13638884 -0.08807652 -0.15615258 0.12379936 0.18865918 -0.35524222 -0.1536619 0.008127877 0.40502986 -0.11188006 0.4144548 -0.21336608 -0.2144387 -0.5355651 0.3889767 -0.20793365 -0.11144432 0.22128761 -0.024750734 0.09214455 0.36483425 0.45281938 0.17747824 0.052097768 0.04596896 0.0811291 0.2651573 0.024259992 -0.18339214 0.19387312 0.1391875 0.017886866 0.17651905 0.5205996 0.34725708 0.1451815 -0.18045925 -0.036580082 -0.12170301 0.13411196 0.18390667 -0.016969452 -0.014213322 0.08401095 -0.048350345 0.07115051 -0.04980749 -0.0348675 0.015238083 0.015042973 0.102283336 -0.014155078 0.19210686
6239.W06B3.2c 0.086718336 -0.31041396 -0.035746135 0.1527434 -0.21914893 0.040758673 0.22210452 -0.1968929 -0.20678544 -0.13260643 0.014103736 -0.25752273 -0.3097755 -0.15025389 -0.18935142 0.14871301 -0.4321761 -0.5217919 -0.47365004 0.3973706 0.19476213 0.2422121 0.13049708 -0.43516412 0.103009045 0.15577053 -0.028569192 0.14515255 0.09325242 0.19818224 0.16658853 -0.08914537 0.064876646 0.062384907 -0.03029716 0.1489662 -0.11297638 0.06014081 0.07338106 -0.011213366 0.016277933 -0.008758571 -0.23662587 -0.09909901 0.14196971 -0.29688036 -0.051372517 -0.18867438 -0.12418652 0.09583024 0.1183597 0.02865493 -0.069756 0.12985978 -0.115895264 0.1715584 -0.23675413 -0.040181767 -0.08522437 0.08088636 -0.032268368 0.04488535 -0.10313231 0.3025354
6239.Y53C12A.1 0.036786474 0.13784799 -0.13603765 -0.039227802 -0.1760471 0.02387797 0.19871707 -0.057456966 0.120007694 -0.37647986 0.35173196 -0.031155482 -0.1692761 -0.0050578495 -0.034441445 0.30842656 -0.48233658 -0.33714756 0.08504847 0.3513864 0.024880597 0.42338485 -0.06928176 -0.2306745 -0.4001951 0.24510805 -0.20852232 0.0610547 -0.062495526 -0.02147194 0.0050971652 0.3941668 0.15750721 0.15822403 -0.16211411 -0.044741247 -0.050974805 0.0059342226 -0.07611558 0.029177904 0.1558103 0.15833052 -0.16771321 0.16584691 0.5393182 0.06361531 -0.15674874 -0.10528179 -0.010622437 0.0259298 0.012615375 0.16058347 -0.11906377 0.08300426 0.25178367 -0.06419441 -0.009872873 -0.09248806 0.08426457 -0.041819785 -0.046657026 -0.20297109 -0.10519806 0.5178034
6239.F42G8.4.1 -0.06820714 -0.43718466 -0.05982504 0.09286258 -0.2811947 -0.10298962 0.2934691 -0.28213826 0.03513441 0.045140836 0.21267581 -0.33575428 -0.2358752 -0.10035189 -0.117773436 0.17174247 -0.60448813 -0.31033862 -0.26906338 0.22603595 0.00053199637 0.22670755 0.39875206 -0.5182787 0.02368327 0.15641558 -0.20625572 0.118068546 0.03911236 0.13198236 -0.0761417 0.13234769 -0.09159899 -0.13436595 -0.3203472 -0.017774623 0.17945187 0.02290876 -0.41453266 0.11035632 0.037456535 0.10873721 -0.10969999 -0.027204981 0.3421348 -0.18591401 -0.020394858 -0.16466707 -0.0866324 -0.12925011 0.09285903 0.16958383 -0.14265738 -0.054666832 -0.13284014 0.00675813 -0.18486522 -0.09903687 -0.18802764 -0.05088423 0.11516397 0.10452021 -0.25013876 0.010371149
6239.F54C9.8 0.07275901 0.2824514 -0.030476939 0.08776514 -0.026347626 0.08420497 0.1504095 0.1759132 0.07030757 0.027214956 0.30804986 0.05343744 -0.03529755 -0.099637285 -0.16592228 0.60332584 -0.59987074 -0.04911372 0.059677854 0.15947685 -0.13473083 0.175164 0.06390263 -0.3478703 -0.19624116 0.16435663 -0.11687631 -0.056323703 0.22752026 -0.09721383 -0.0072040465 0.21722575 0.045019463 0.31962582 -0.29511744 0.33241397 -0.26609212 0.01972261 0.16421682 -0.3092274 0.1722283 0.22877802 -0.25242022 0.24861966 0.3240872 0.15239057 -0.22857554 -0.07645289 -0.05367028 0.35329315 0.002179718 0.33556896 -0.15860383 0.11152277 0.29622102 -0.2750096 -0.06622979 -0.57345957 0.14141533 0.18009011 -0.24086818 -0.03602824 0.11870865 0.46635416
6239.C47D12.1a 0.14388983 -0.1321498 0.24446274 0.27070266 -0.14369524 -0.07160792 0.037056364 0.060475167 -0.14220627 -0.11584551 0.04230781 -0.05720475 -0.019362448 -0.18372071 0.042696018 0.35135278 -0.3951697 -0.3799412 0.22039199 0.27334112 0.090061545 0.32879746 -0.17835224 -0.4844555 -0.414885 0.2239237 0.04596482 0.008057222 0.22693947 -0.18990964 0.27642798 -0.024041776 0.15507878 0.12558135 -0.056142833 -0.09463201 -0.29745927 -0.20668915 -0.22296914 0.15503009 0.03982352 0.05803252 -0.019174244 -0.19987652 0.21761245 0.4040909 -0.2364214 -0.14995027 -0.23575617 -0.02312419 0.15408395 -0.0111262025 -0.12074941 -0.1507339 -0.106365524 -0.18728523 0.120106734 -0.1621703 0.0944205 -0.008379508 0.13879552 -0.11873296 0.107149504 -0.021199532
6239.C53A5.3 0.22193722 -0.45528355 0.0033001783 0.06781687 -0.07932182 -0.36311796 0.30282056 -0.06673405 -0.086213626 -0.28467676 0.06270707 -0.026345734 0.0077884546 -0.20546688 0.1190843 0.20457819 -0.4458741 -0.28925872 -0.12976007 0.49989808 0.18067585 0.31722924 -0.048494082 -0.35079262 -0.22599299 -0.043989174 -0.13581051 0.025268836 0.20736235 -0.10941538 0.20014279 0.13581763 -0.03329662 0.028342804 0.17876548 -0.041256115 0.044226896 0.022815512 -0.17492956 0.14692141 0.096719004 0.18767665 -0.09320297 0.04644732 0.23128018 0.29996794 0.12531202 0.17814207 0.14213274 -0.08477459 0.04248623 0.055688426 0.23826097 0.08124179 -0.074384816 -0.23949859 0.1969314 -0.30612794 0.19695336 -0.15592971 0.13661389 -0.25045452 0.17567654 0.09678542
6239.Y92H12A.1 -0.016639652 0.00889049 0.19501503 -0.054307055 0.06537737 -0.12063245 0.2072191 -0.34052995 -0.17566851 0.1425372 0.007934201 -0.15247159 0.02981973 -0.10896653 -0.063675955 0.47813466 -0.13787626 -0.19059241 -0.3317493 0.30242443 0.25304636 0.17127612 0.1973653 -0.48567343 -0.0943613 0.12822117 0.14193515 0.23542768 0.14375584 -0.29932347 0.1375311 -0.18136722 0.28886962 -0.015178918 -0.37915263 -0.16869661 -0.13153271 0.08893337 -0.049482226 0.3212909 0.0065037855 0.018779544 0.14452092 0.22923242 0.36280876 -0.15682338 -0.13355115 -0.29173777 -0.35595718 0.009549303 0.42633563 -0.1592401 -0.020774558 -0.14601226 0.1822391 0.024447808 0.0665787 -0.17314173 -0.2573442 0.024359165 0.06803706 -0.20563695 -0.27733406 0.1607518
6239.R06A4.7 0.3246841 -0.31216827 -0.17222323 0.009886452 0.090230346 -0.10587641 0.22980332 0.16095062 0.097308524 -0.1729023 0.16276519 0.029999897 0.1896094 -0.26293665 0.013023898 0.17405695 -0.5358804 -0.21522813 -0.024386656 0.4134705 0.16513568 0.1500525 -0.0005293334 -0.266882 -0.25960886 0.180329 -0.1710774 0.20439647 0.3167886 0.0011486927 0.36053535 0.03741733 0.0816712 0.15236382 0.058200885 0.06826939 0.068078056 -0.028549718 -0.26695892 -0.020337868 0.109555274 0.027664123 0.00436348 0.23900567 0.1398092 0.33313155 -0.122912444 -0.010416761 -0.06696948 0.024267089 0.08297135 0.064870775 0.11440279 0.1414942 0.1333886 -0.27709055 0.36593017 -0.36805424 0.06163541 -0.0036893669 0.012945716 -0.19574624 0.30054256 0.14198686
6239.T05E11.4 0.1778438 -0.15575285 0.22116445 -0.06393159 0.08887374 -0.24039401 -0.10813406 0.054278683 -0.018031476 -0.3643031 0.35512638 0.06716449 -0.17299226 -0.10735555 0.25239557 0.21791773 -0.5905115 -0.23998785 0.07541381 0.21150634 -0.036565896 0.18557161 -0.06986605 -0.35822594 -0.3665559 0.18784848 0.0035448228 0.16413544 0.056218248 -0.08481441 0.13636301 0.27300832 0.12238483 0.3556645 0.08018961 0.11353141 0.020077193 0.058899987 0.07150426 0.13616922 -0.072207734 0.25532103 -0.11714935 0.18710084 0.30370697 0.3795914 -0.06909998 -0.047230218 -0.120761596 0.14690843 0.021061806 0.20547888 -0.27401814 0.31717286 0.038993914 -0.09105719 0.18039554 -0.32337353 0.32854962 0.06538113 -0.1425922 0.1240176 -0.29038307 0.5106333
6239.ZK1307.6 0.18929571 -0.2719373 -0.41763756 0.09539399 -0.2731394 -0.09008913 0.10533435 -0.11477432 -0.011945102 -0.32778436 0.07869482 -0.010140023 -0.10607277 0.0278982 -0.168109 0.30194625 -0.2699458 -0.29797822 -0.049709603 0.46870884 -0.021254877 0.39610955 -0.031912915 -0.32314304 -0.47605318 0.1868247 -0.20976397 -0.07081868 0.15268248 0.057202186 0.13866128 0.23005295 0.24456796 0.16083519 0.22280324 -0.07475969 0.11974431 -0.17544821 -0.21988934 -0.2111939 0.1459284 0.058391847 -0.07898809 0.31896898 0.53882027 0.12821323 0.13201956 -0.17156501 0.036283642 -0.054292444 -0.08976974 0.1606244 -0.119602576 -0.0031240964 0.1830238 -0.0065043457 0.14558932 -0.18428065 -0.19480404 0.0742486 0.039822593 -0.263558 -0.106455006 0.030278131
6239.C26E6.9c 0.14777178 -0.40077505 -0.021795807 0.17765594 0.19409771 -0.21350205 0.2533732 0.08746574 -0.025159122 -0.226282 0.20345408 0.16404791 0.060980357 -0.24238625 0.13983645 0.19761711 -0.6780672 -0.23717426 0.15511169 0.20056187 -0.023402337 0.27560225 -0.23041208 -0.38384426 -0.2605447 0.22646964 0.047695547 0.12709671 0.2942333 -0.06056019 0.25733268 0.0121217985 0.29941374 0.036615424 -0.19332817 0.04662936 0.18968718 -0.011995983 -0.16352008 0.0179063 0.06729003 -0.082668155 -0.06674822 0.14296246 0.044390853 0.4351697 -0.21600619 -0.045717992 -0.10917436 0.24563877 -0.0074811294 0.011279922 0.14158273 0.12590662 0.07294876 -0.05299999 0.31007755 -0.45404127 0.095592245 -0.09192494 -0.043427624 -0.16726403 0.2389155 -0.14725211
6239.C14F5.5 0.0908558 0.034990262 0.36163205 0.058396857 0.19511357 -0.08053016 0.4055242 -0.39813408 0.21500362 0.09252272 -0.0077107134 -0.3830444 0.09386011 0.089776024 -0.0076783393 0.43356338 -0.19045648 -0.41165456 -0.34025377 0.2887213 0.11511668 0.1510678 0.10367121 -0.49004614 -0.40276238 0.21090852 0.22528078 0.103545256 0.22454341 -0.35912436 -0.08001056 0.16736805 -0.059099704 0.12064831 -0.09153275 -0.1637405 -0.17621729 0.031378884 -0.06260827 0.26075375 0.027388172 0.0994823 -0.053225763 0.11145492 0.37058425 -0.34871393 -0.0075547965 -0.010905223 0.04877443 -0.050388318 0.33762094 0.051474165 0.014580872 -0.4411476 -0.034449067 -0.16730253 0.0060973894 0.006967031 0.15801807 0.2112895 -0.13836856 -0.37882867 -0.21196732 -0.016618611
6239.C09G9.6 0.124856204 0.20372613 -0.009815766 -0.07360984 -0.14637527 -0.006080298 0.20346503 0.1481141 -0.030097757 -0.028426493 0.2214062 0.0018094087 -0.04588576 -0.117980346 0.0004272875 0.5378116 -0.62471175 -0.19923538 0.12872002 0.15007478 -0.19875872 0.10807743 -0.0329502 -0.20730902 -0.13178892 0.15719566 -0.21580726 0.073052056 0.17094608 -0.1888723 0.059561834 0.25270718 0.18405497 0.28216174 -0.16610439 0.29960722 0.032480735 -0.06846276 0.019203724 -0.21661961 0.19715653 0.28557235 -0.2042784 0.27956116 0.59425604 0.012119418 -0.16991737 -0.14303899 -0.07808919 0.2503299 -0.2677402 0.37981775 -0.1966666 0.1579159 0.28328052 -0.13074616 0.10822368 -0.4027091 0.13431588 0.13604997 -0.37167504 0.01162235 -0.103658184 0.45407316
6239.Y65B4BR.4a -0.21995278 -0.31330007 0.031918842 0.11263332 0.07133608 0.004680887 0.07470465 -0.22239687 -0.14316739 -0.25695264 0.2829625 0.2636953 -0.084330335 -0.1438219 -0.14861028 0.24892633 -0.21511099 -0.108681336 -0.017314 0.11529359 0.023201529 -0.16275936 0.13686599 -0.34263808 -0.23486163 0.43607664 -0.09218566 0.14308287 0.2350808 -0.015220708 0.20892252 0.35444403 -0.05580581 -0.24027531 -0.18756405 -0.02809162 -0.14873292 -0.0830929 -0.1138967 -0.027975231 0.13865685 0.1667016 -0.23283829 0.1907289 0.395331 -0.27410087 0.045834746 -0.3350246 0.08600848 0.012968155 0.0563099 -0.27338153 -0.2225192 -0.2345295 -0.37285045 -0.18484482 0.36016226 -0.41847715 -0.2580962 -0.18082884 -0.3397344 -0.3504205 0.00400812 -0.09195589
6239.H26D21.2 0.28620642 0.032049578 0.14880697 -0.017238634 0.21416683 -0.31563002 0.10198364 -0.006917127 -0.029502213 -0.30500865 0.4167261 0.023356242 -0.139758 -0.041313782 0.17201117 0.37769425 -0.34509647 -0.17036714 0.031674214 0.3284879 -0.00090457324 0.19546132 -0.20440057 -0.24733476 -0.2977467 0.3529424 -0.20254211 0.15823032 0.10179871 -0.13485615 0.109452575 0.194368 0.2783209 0.0036822844 0.07619265 0.09865857 0.01161922 0.024205476 -0.14525554 -0.062373724 -0.075217485 0.4001676 0.07291816 0.14353414 0.28213227 0.47116777 0.066464595 -0.16271514 0.084336214 -0.07354095 0.02348356 0.079698235 -0.21294294 0.37228528 0.17350462 -0.1348793 0.086221114 -0.1091855 0.26700246 0.144616 -0.035001025 0.13234328 -0.17599185 0.3517708
