2968 32
6239.T27C10.6 -0.3857287 0.023656432 0.2405133 0.021639667 0.08365141 -0.16189708 0.07660828 0.007591829 -0.3015464 0.058352455 -0.28297916 0.15051311 0.03611701 -0.104568064 0.013755592 0.12369399 0.2315351 -0.22598255 0.004306388 0.30701458 -0.013968445 0.19570182 -0.098959364 -0.04079475 -0.0032082004 -0.019899355 -0.03088784 0.113435835 -0.1014896 0.051275726 -0.11971434 0.2171762
6239.T25C8.2.1 0.05640118 -0.018356146 0.21254179 0.075015076 0.08219269 -0.1972631 -0.13816714 -0.19090968 -0.24057615 -0.0038299179 -0.28069556 -0.007823267 0.059947614 -0.21169946 0.0069405157 0.07447766 0.35320163 -0.2940719 0.025409976 0.11397207 -0.05467962 0.33964175 0.011622335 -0.1290928 0.1730163 -0.08698673 0.06647656 -0.09817907 -0.21147749 -0.10354719 -0.019793505 0.2123387
6239.T07A9.6 -0.36903432 0.24260446 0.38678584 -0.23894264 0.10053349 -0.20562549 0.11165123 0.2546956 -0.21180059 -0.16730885 -0.17490193 0.046591718 -0.047920357 -0.25974977 -0.04078798 -0.13123965 0.2461471 -0.46844605 -0.14106095 0.06686575 -0.10671933 0.28349513 -0.3506587 0.070485756 0.2222384 0.08255399 0.12386948 -0.009264426 -0.048462607 -0.0807115 -0.098224655 0.23482901
6239.Y55D5A.5a -0.025645018 -0.06667467 0.3381303 -0.052970286 0.1166014 -0.20389974 0.11860179 0.17141572 -0.17113806 -0.08307488 -0.014323471 0.29129562 -0.04798964 -0.17503898 -0.14242701 -0.10471409 0.07717235 -0.27210513 -0.017194035 0.123533465 -0.14671567 0.5089146 -0.13996327 -0.04878226 0.050803266 0.030367577 -0.12767124 0.046420857 -0.0072666323 -0.29639855 -0.24320292 0.09574554
6239.T05G5.3.2 -0.41840467 0.16577297 0.27989507 -0.07121946 0.10019385 -0.19067763 0.009030694 0.16137306 -0.32036847 -0.25476012 -0.3514728 0.095921576 -0.16905801 -0.152294 0.100283965 0.1195291 0.2635354 -0.41166773 -0.026528839 -0.011421678 0.009304487 0.30433625 -0.15958363 0.1706704 0.088455744 -0.16880241 0.06943591 -0.09796439 0.0074652005 0.06888919 0.113702655 0.45365193
6239.F43C1.2b -0.2752592 -0.030070467 0.36923072 -0.013473041 0.07615019 -0.089803174 -0.13576776 0.2708855 -0.2694939 0.035258584 -0.34579727 0.051541083 -0.11862839 -0.15021169 0.053483322 -0.12092887 0.2659581 -0.2892705 -0.03304869 0.10809939 -0.03742517 0.3435053 -0.0044644256 0.014377034 0.07462445 -0.0029042573 -0.19646148 -0.08128892 -0.045842517 -0.08504806 0.049092308 0.1861395
6239.C47E8.5.2 -0.31137505 0.04803934 0.26894394 0.06489735 0.09655243 -0.14224103 0.24975601 0.16661276 -0.10790576 -0.026938442 -0.43196934 0.18335094 0.06415269 -0.23236583 0.077382535 0.05922171 0.22018854 -0.09104791 0.076181404 0.23156974 -0.0305873 0.36278784 0.028662134 -0.1817929 0.033342395 -0.18213618 -0.2478439 -0.08844936 -0.11559545 -0.00943003 -0.14559603 0.23086429
6239.F02A9.6 -0.3339047 0.24161997 0.46165347 -0.19766869 0.07383871 -0.11442918 0.02408221 -0.06804594 -0.13192749 -0.18941425 -0.2300824 0.093004204 -0.110776 -0.17993033 0.13538888 -0.09759402 0.28000182 -0.28445312 -0.0041114152 0.0236185 -0.20816627 0.29273888 -0.2450564 0.16714199 0.08176743 0.13433875 0.20938829 0.019410191 -0.17675675 -0.3326459 0.020287342 0.32473063
6239.R13H8.1h -0.0068036513 -0.058156557 0.3052806 -0.11540342 0.19315647 -0.20904002 0.30756858 0.09342675 -0.05775135 -0.25796324 -0.24843763 0.3064725 -0.23469163 -0.17826575 -0.24749185 -0.10456821 0.06440769 -0.14448696 0.018654363 0.1521209 -0.24636306 0.6003112 -0.12223137 -0.035509367 0.13047476 -0.049617313 -0.26973167 0.021040628 0.053009786 -0.2756313 -0.009270158 0.0249138
6239.F11C3.3.1 -0.08577957 -0.1754097 0.3060621 -0.051221456 -0.01902315 -0.1617176 -0.109122545 -0.24613431 -0.15916114 -0.1330407 -0.096253745 -0.10520738 0.16141996 -0.05272788 -0.19746707 -0.16032328 0.06589986 -0.33324352 0.03421102 0.22044021 -0.14573786 0.29483032 0.06092382 -0.09181527 0.06360391 -0.15005018 0.11141109 -0.11995388 -0.15209055 -0.16404256 0.04128603 0.2565731
6239.B0218.3 0.09162731 0.041005194 0.38270423 -0.01259968 0.27802998 -0.35516855 -0.11012932 0.23773749 -0.18671103 -0.014127487 -0.45823616 0.09887174 -0.3081216 -0.0063135605 -0.21543254 -0.12192062 0.1519165 -0.27600121 0.011110529 0.2865221 0.063900456 0.41727152 0.06878001 0.016886245 0.13591748 -0.19059151 -0.4463492 -0.06189855 -0.104252234 -0.055469338 -0.040061727 -0.05898079
6239.C12D8.10b -0.20618479 0.063809365 0.30335873 -0.109320685 0.15661041 -0.34145716 -0.08854696 0.38300383 -0.22277062 -0.15313166 -0.15673529 0.1726211 0.083635285 -0.20889013 0.04468928 -0.021224163 0.02918938 -0.27292907 -0.13603128 0.15143676 -0.16803974 0.30077827 -0.23996095 -0.011806678 0.23673315 -0.02033842 -0.11921844 0.13318747 -0.0068343445 -0.074830316 -0.09375316 0.1952552
6239.B0261.2a -0.11312659 0.26004958 0.14372417 -0.004153295 0.32847232 -0.19404712 0.055806924 0.1810168 -0.25203604 -0.117351376 -0.3773391 -0.044346355 0.04582276 -0.18562292 -0.07506259 0.043944243 0.24112718 -0.28111887 -0.097240165 0.08708593 -0.093614966 0.47646004 -0.27008247 -0.2319527 -0.17441775 -0.07621857 -0.050640587 -0.018866464 0.18653847 -0.07173334 -0.1031645 0.35174432
6239.ZK792.6 -0.28780025 -0.01596675 0.29828793 0.12367384 0.19357592 -0.09335623 -0.070258915 0.11069901 -0.515995 0.09938243 -0.18293636 -0.002734801 -0.056601726 -0.17018737 -0.039472066 -0.094152234 0.20195152 -0.2891079 -0.3056189 0.018747017 0.013457335 0.14623311 -0.08330743 0.20157734 0.013425359 0.021964459 -0.13560492 0.0584157 -0.1260195 -0.19030009 0.003274374 0.2557482
6239.Y43C5A.6a -0.29179066 0.23123989 0.37610665 -0.25761592 0.097088315 -0.29437152 0.20546897 -0.01774984 -0.35167688 -0.2140333 -0.5730522 0.23375334 -0.01704449 -0.22370261 0.11833846 0.08367202 0.30298334 -0.28116846 -0.055602223 0.1892119 0.013252938 0.08432201 -0.0296987 -0.033251993 -0.04845401 -0.12568897 0.13231045 -0.2711299 0.006645034 0.028158382 -0.19259131 0.29054922
6239.K12F2.1 -0.18676224 -0.1564418 0.1641365 -0.05978971 -0.03597897 -0.17565496 -0.12214395 -0.29733157 -0.16922961 -0.07918023 -0.0978089 -0.20631449 0.088455044 -0.2611982 -0.13888448 -0.1951932 0.0801523 -0.29128215 -0.047972243 0.24329506 -0.15440781 0.24680597 0.067127034 -0.05721232 0.053294312 -0.08719639 0.086867146 -0.0245647 0.0021004686 -0.20702289 0.17437457 0.2756665
6239.C09D1.1b -0.23702139 -0.051203296 0.21682176 -0.09711753 0.06274971 -0.18339728 -0.19635431 -0.04055799 -0.38934544 -0.122098714 -0.22473083 -0.11653737 0.15953012 -0.03895002 0.050530568 0.030242108 0.09397521 -0.3420707 0.039787322 0.29430264 0.074334666 0.21779911 0.0421938 0.017874755 0.0720416 -0.06266407 0.05911526 -0.03715724 -0.11831939 0.025425196 0.25950772 0.21560581
6239.T12E12.4b.1 -0.48620078 0.2708742 0.09486159 -0.1447701 0.1801039 -0.32243022 -0.10061086 -0.19523583 -0.16524903 0.028848736 -0.25927895 0.05977813 -0.07738239 -0.28517306 0.039460473 -0.0066475044 0.32868645 -0.28815028 -0.06167544 0.057795007 -0.029223304 0.16535649 -0.23635069 -0.17532702 -0.07313261 0.008385954 -0.032880172 0.20167965 -0.12363452 -0.17757925 -0.21909456 0.33356276
6239.D2021.1 -0.33848807 0.22900149 0.14220218 0.15195206 0.15189856 -0.16679084 0.3720514 -0.06171588 -0.41563073 -0.24534842 -0.528161 0.17088036 -0.10449758 -0.16030353 0.1838936 0.11334616 0.07762041 -0.19355088 0.03942799 0.16812438 -0.020801086 0.25439277 0.104971 -0.110048465 -0.034250665 0.19606733 -0.11962421 -0.0007831443 -0.0005303962 -0.06927673 -0.03953083 0.37631518
6239.Y43E12A.1 -0.51344466 0.2809326 0.39580953 -0.14102775 0.07953536 -0.03484626 0.016005378 0.1656046 -0.26906303 -0.2063503 -0.40723783 0.1374773 -0.13285428 -0.13674466 0.02051227 -0.027205972 0.31061965 -0.49807352 0.05060945 -0.012349537 -0.06838803 0.27031565 -0.106322736 0.20816943 0.1814526 -0.18728693 0.07344722 -0.23419455 -0.107011765 0.004904136 0.04124323 0.37418717
6239.T05C12.6a -0.39053053 0.29541644 0.44822446 0.0051339385 0.09032651 -0.2103356 0.1148731 -0.00068268663 -0.119090274 0.062339824 -0.14250273 0.1721203 -0.04661247 -0.345341 0.036734514 -0.14524116 0.262959 -0.55372274 0.09558151 -0.077677116 -0.095706336 0.21543771 -0.24552593 0.38303494 0.13408291 0.031899557 0.05617145 0.0010786902 -0.08758175 0.043802444 0.10369842 0.28251997
6239.H31G24.4.2 -0.48043567 0.2146047 0.4301509 -0.17716451 0.12419323 -0.05878279 0.055568334 0.117762916 -0.3054628 -0.28636 -0.40838063 0.08012502 -0.14259169 -0.14961237 0.048616502 -0.038191684 0.30121198 -0.45069548 0.08967661 -0.018886928 -0.050537538 0.241965 -0.11620654 0.22685456 0.20788665 -0.1686866 0.040289085 -0.2559715 -0.0132865505 0.01862144 0.05734462 0.40127426
6239.C14B9.4b -0.4832443 0.31795424 0.30563363 -0.16084506 -0.04348832 -0.1687591 -0.045825236 0.014394606 -0.22306989 -0.25394455 -0.31497234 0.09616147 -0.014057241 -0.18476018 -0.065845706 -0.0068372088 0.2986025 -0.5288572 -0.034699295 -0.084986344 0.053597145 0.2786279 -0.00217195 0.17726243 0.05066112 -0.16420774 0.17238146 -0.14327054 -0.124790676 0.08165821 -0.009343369 0.6326031
6239.B0334.8 -0.19285302 0.17817692 0.265907 -0.16047163 0.21148732 -0.26535204 0.028303837 0.2186903 -0.20597413 -0.1558442 -0.15972324 0.027794119 0.047129918 -0.22285718 -0.13100402 -0.121566705 0.26139146 -0.42146158 -0.17328618 0.09255291 -0.26281542 0.48340994 -0.2131188 -0.045179296 -0.11408129 0.042213954 -0.11999467 -0.03625192 0.21725217 -0.081288345 -0.27185684 0.09285171
6239.F36A4.7 -0.36006552 0.10748694 0.25008985 -0.011498111 0.14982855 -0.23098487 0.29368252 -0.13654573 -0.12208371 -0.08846094 -0.6647209 0.17033464 -0.22075103 -0.020845028 -0.15457267 0.20711602 0.08227487 -0.1898176 0.015504773 0.10969795 -0.10897207 0.33329698 -0.108079344 -0.093799055 -0.13480723 -0.027659716 -0.0805185 -0.08873585 -0.04512874 -0.04959174 -0.1116792 0.33148262
6239.T04C12.5.1 -0.2112556 0.11820181 0.08600174 -0.038758088 0.012586838 -0.08255039 -0.096961305 -0.010751059 -0.35555595 0.004827474 -0.43297106 0.11321253 -8.332085e-05 -0.26208115 0.105946474 -0.13099782 0.37635118 -0.36331147 0.13911015 0.004117627 -0.036170267 0.38630134 -0.007822862 -0.19571815 0.24487348 -0.17784254 0.16299373 0.036771636 -0.035364956 -0.027606148 -0.19650386 0.37598717
6239.C33B4.3c -0.43614787 -0.007570494 0.02682839 -0.061053135 -0.029591918 -0.04984106 -0.07568078 -0.032536384 -0.25474855 0.11889936 -0.26817912 -0.116755016 0.05532199 0.026538994 0.0792487 -0.060329974 -0.092743665 -0.430165 -0.016587311 0.24447368 -0.19015801 0.3801554 0.054551296 0.08953352 -0.066238634 -0.21396983 -0.078783944 0.102259904 -0.0827812 0.020049404 -0.081775606 0.33923346
6239.F29B9.6 -0.48343933 0.17122176 0.1336674 0.022833442 0.27487627 -0.044799898 0.1689487 0.061770957 -0.06251044 -0.19436134 -0.4143879 0.26385784 0.1372643 -0.23069032 0.10091875 0.14727202 0.10027853 -0.30995345 0.008715729 -0.004398455 -0.03797146 0.4385893 0.028265703 0.2799492 0.1142312 -0.1295378 0.05239483 -0.2259132 -0.03145297 -0.009728368 -0.11591867 0.5593784
6239.R07G3.1 -0.211011 0.07848364 0.25069404 -0.010186637 -0.009400931 -0.15098374 -0.297885 0.09868998 -0.43100807 0.16689615 -0.107490554 -0.078855276 0.055011116 -0.2743685 0.008702864 -0.104859576 0.21885823 -0.27774894 -0.25207168 0.020544682 -0.09317007 0.35948744 -0.034480844 0.060179584 0.11767787 -0.038096026 -0.16372877 0.038312882 -0.08627403 0.024726922 -0.23110105 0.2971649
6239.F28H6.1a -0.16972363 -0.040693846 0.2882727 -0.14668599 0.14461924 -0.33087233 -0.20514545 0.43689203 -0.1739219 -0.1721744 -0.12031898 0.1746735 0.05076317 -0.20201956 0.061590128 0.020763336 0.07003635 -0.21292889 -0.1567118 0.13866109 -0.13169439 0.44433513 -0.28133953 0.006716124 0.26068065 0.010049965 -0.10413241 0.12869078 0.09806305 -0.088613816 -0.11998352 0.247934
6239.C48B6.6a -0.16181684 0.19401614 0.19245803 0.08012461 0.36146522 -0.162323 0.032708548 0.14701839 -0.27519134 -0.08917987 -0.4659279 -0.060179073 0.14961667 -0.10809664 -0.0037530612 -0.037805993 0.2638478 -0.38713527 -0.13866797 -0.0068605593 -0.24568047 0.40802458 -0.075074606 -0.15954578 -0.25916067 -0.2495671 -0.032820012 0.05328021 0.16223519 -0.01031502 -0.06846534 0.34480467
6239.M03D4.1c -0.39518094 0.3497932 0.28644064 -0.07768182 -0.078685254 -0.21896127 -0.18371738 0.018178584 -0.41779757 -0.16054265 -0.3195125 0.21188131 0.026363384 -0.29499906 -0.13333839 -0.013400678 0.330008 -0.4303563 -0.040611114 -0.24296917 -0.027449857 0.29186693 0.00051092415 0.23397918 0.0009582251 -0.111577645 0.18578601 -0.12410861 -0.112041004 -0.011662788 0.069278665 0.48379025
6239.ZK909.2c -0.2282487 -0.32697237 0.10337918 -0.07944454 0.25082672 -0.10471059 0.057864223 0.022994688 -0.35205677 -0.021299515 -0.1430835 0.11199329 0.0991603 0.06453341 -0.16769873 -0.0061190566 0.13293865 -0.54933316 0.24037054 0.19614793 0.13126715 0.19862188 -0.2246993 -0.09822609 0.057148393 -0.35864845 -0.17562313 -0.05153472 -0.21048805 -0.008540523 0.11660062 0.0404794
6239.ZK177.6 -0.48269057 0.25028145 0.2370016 -0.034407727 0.08565584 -0.20332289 0.058809243 0.07309887 -0.34291038 -0.18870535 -0.3832742 0.22189179 -0.26652297 -0.15920435 -0.17857195 0.02008877 0.27990922 -0.4271002 0.09983595 0.013654147 -0.16189268 0.25177112 -0.018925598 0.13597187 -0.01844836 -0.2508268 0.17509785 -0.21926965 0.0025115055 0.03356372 0.14682403 0.48836932
6239.R11A8.4a -0.20614728 0.095651224 0.12947726 -0.22346786 0.35960358 -0.30067948 0.3242722 0.08832837 -0.22153609 -0.16947071 -0.45181346 0.33281982 -0.06939816 -0.13444288 -0.071838476 0.10991361 0.23538399 -0.18071897 -0.19261315 0.102690324 -0.0017993486 0.37633795 -0.14094627 -0.10402702 0.09358255 0.0073918225 -0.25402284 -0.042697277 0.19061534 -0.16899174 0.14450091 0.17792375
6239.ZK1067.1c -0.333445 -0.033268522 0.35594338 0.07442815 0.1348042 -0.18065411 -0.060651857 0.09728853 -0.18561977 0.099166155 -0.15584753 0.21160114 0.22800224 -0.11227025 0.2036877 -0.1569076 0.09985886 -0.26017746 -0.12760931 0.07460775 -0.06338747 0.28113472 -0.13844635 0.25248894 0.27653247 0.028181374 -0.14361247 0.074072085 0.037163366 -0.21865876 0.17349108 0.094950505
6239.B0350.2f.2 -0.3431521 0.07630437 0.20658074 0.109671555 0.06220647 -0.04521732 -0.10374572 -0.084859215 -0.41176173 0.008032826 -0.23395823 -0.1997621 -0.02708439 -0.2552778 0.09449006 0.026441846 0.07441336 -0.23935916 0.09249476 0.1323663 -0.1642901 0.4018416 0.1407529 0.058975495 -0.039353993 -0.13453206 -0.003725763 0.09788641 -0.066668004 0.009617403 0.10680525 0.17319423
6239.M117.2a.2 -0.28369963 0.002008752 0.33704132 0.016352378 0.14036947 -0.08999711 0.22466436 0.1220732 -0.33740395 -0.023905601 -0.27449146 -0.10704851 -0.029488724 -0.16552997 -0.14958791 -0.0895078 0.1909134 -0.18940885 0.09730913 0.14293881 -0.10306461 0.3358763 -0.061889604 0.0010085406 0.15722717 -0.24006847 -0.06022669 0.075949684 -0.09250627 0.1290657 -0.27194014 0.393428
6239.ZC168.4.2 -0.38818523 0.24736325 0.29942003 -0.112385295 0.04976337 -0.1658353 0.087686665 0.1584422 -0.34521767 -0.27667704 -0.41067234 0.1648368 -0.16144961 -0.15762493 0.013934604 -0.05766821 0.270127 -0.43476573 0.13536067 -0.055324417 -0.024593495 0.31923473 -0.08495149 0.22640379 0.14311174 -0.1668231 0.09484789 -0.1839293 0.017732047 0.019855177 0.102445304 0.4920625
6239.F25B5.4a.2 -0.5678624 0.08566782 0.13367625 -0.15400106 0.23293951 -0.114567496 0.04201113 -0.058477946 -0.097107455 0.05790451 -0.46448702 0.16437024 0.26437795 -0.4040658 -0.0021891443 0.18130831 0.03567867 -0.16304106 0.06781545 0.079259515 -0.33358583 0.26616058 -0.029343247 0.06898243 0.3060287 -0.0124465255 -0.150625 -0.09651159 0.06487437 0.20062901 -0.17291829 0.27607685
6239.C54D1.6 -0.012463917 -0.06630666 0.41183466 -0.08237855 0.1048077 -0.3965492 -0.09242848 -0.0057490207 -0.1031443 0.09170913 -0.16459845 0.2713927 0.19756472 -0.17400688 0.09043035 0.119229145 0.1844774 -0.28037804 -0.033254366 0.15654445 0.081900835 0.27507946 -6.877115e-05 0.17415825 0.067917354 0.18314469 -0.16856933 -0.22531848 -0.04446274 0.070030615 0.17969885 0.24912883
6239.M142.1c -0.24588439 -0.031079587 0.4362724 -0.25952348 0.112858236 -0.019421427 -0.034995496 -0.1760372 -0.25206068 -0.21305865 0.037918888 0.06642599 -0.035454918 -0.2557197 -0.2127907 -0.1787568 0.16997722 -0.10048751 -0.019825432 -0.020059753 -0.49007648 0.39697573 -0.120617785 0.17039202 -0.16927893 -0.07459022 0.13826872 -0.028251048 -0.40751368 -0.27829847 0.17004147 0.15291226
6239.T06E6.2a.2 -0.4321907 0.29314524 0.30399063 -0.02063147 0.10855111 -0.09114357 0.02092779 0.19521704 -0.24884176 -0.24105905 -0.38233232 0.24271354 -0.11457633 -0.14436781 -0.03583639 0.039651893 0.33282265 -0.41656354 0.1614447 -0.06034808 -0.027283017 0.3563135 -0.03468092 0.21849619 0.12409427 -0.14494528 0.07323397 -0.2412838 -0.08571596 -0.032736454 0.06522823 0.6093156
6239.K12H4.8 -0.25434294 0.15968072 0.22734599 0.18551648 0.16333646 -0.41810995 0.26147282 0.014280111 -0.33972332 -0.008765079 -0.647562 0.00073597144 -0.14520426 -0.1315594 -0.022399258 0.0018702238 0.40192798 -0.08041123 -0.19202177 0.08488962 -0.10889796 0.20666578 -0.21216705 0.011890394 -0.07640097 0.11664795 0.08152436 -0.22681864 -0.07347772 -0.19918525 0.1253162 0.29177162
6239.C44C11.1a -0.18483359 -0.0431323 0.14990903 -0.0032375162 0.055788707 -0.21503173 -0.03712779 0.04307982 -0.4578861 -0.07166589 -0.08925493 -0.24832135 0.19153446 -0.19735256 -0.034129456 -0.14336257 0.017672682 -0.4198142 -0.10567435 0.08058365 0.059328362 0.17490283 -0.1960354 0.04143427 0.11559261 -0.054344554 -0.13947503 -0.16260797 0.08839244 -0.07008624 -0.01917308 0.34349456
6239.C07H6.1 -0.3737615 0.24130833 0.26473314 -0.32167995 0.4255179 -0.22599195 0.029415846 0.02949975 -0.23458941 -0.10413259 -0.22626273 0.1647041 -0.005407976 -0.27505526 0.118231595 0.23148312 0.2801178 -0.24109845 -0.110225715 0.17640655 -0.20604548 0.3268664 -0.042935416 0.0965995 -0.28528634 -0.12538832 -0.00066013023 -0.1269395 -0.041881274 0.055209376 0.031207342 0.16550538
6239.F52D10.3a.1 -0.28157166 -0.012255553 0.27345133 0.035312284 0.026489055 -0.21831644 0.24018903 0.19699967 -0.29727215 0.0037086757 -0.31414443 -0.08943561 0.017285865 -0.1355574 -0.094767086 -0.029349016 0.11120242 -0.19742984 0.04053507 0.17748883 -0.13314752 0.33496296 0.014192918 -0.10552183 0.13981692 -0.23798668 0.0143038845 0.065643765 -0.07998534 0.044621766 -0.23129706 0.3759463
6239.F18H3.5b -0.42977384 0.17081209 0.18544473 -0.061605256 0.25894478 -0.197192 0.14468864 0.28565884 -0.46724558 -0.2198745 -0.40612522 0.2425799 -0.09907002 -0.0109702535 0.03287947 -0.016840976 0.15207732 -0.25082687 -0.124857426 0.14436054 -0.031255323 0.31989333 -0.046235096 0.0769985 0.043244623 -0.094587184 -0.03973376 -0.09684543 0.13147798 0.22620519 0.1800519 0.5232542
6239.K01A6.2a -0.5013842 0.10103572 0.13063666 0.08049099 -0.14099182 -0.26881224 0.052534286 0.0856906 -0.43257156 0.22989476 -0.18544862 0.17172584 0.20645201 -0.22500424 0.026863085 -0.0506163 0.1020524 -0.23648378 0.0035181385 0.24417937 -0.09507238 0.26795202 0.044429902 -0.14278567 -0.009649061 0.0018768177 -0.048734166 0.020460797 -0.062917754 0.25917318 -0.09847862 0.15570194
6239.R08C7.3.2 -0.32174447 0.111131996 0.036735434 0.066199616 0.18441537 -0.2114377 0.055957466 0.03569791 -0.13922462 -0.1512477 -0.6972305 0.32026032 -0.10752325 -0.23639259 0.008229205 0.13256046 0.2526895 -0.38761285 0.093707174 -0.070842095 0.05721905 0.44473463 0.018491525 0.23266883 0.15746897 0.08968723 0.12685557 0.05331883 -0.026442463 -0.06991925 0.17647223 0.35968184
6239.C09G12.8b -0.18885015 0.028240692 0.18830116 0.073033124 0.008103394 -0.22301534 -0.2778452 0.06535772 -0.5570757 0.24300309 -0.04626267 -0.13916652 0.12032527 -0.23689309 0.05080752 -0.1323853 0.37130398 -0.330151 -0.38593638 0.055186212 -0.14333932 0.30163318 -0.021680478 0.18564811 0.030840015 -0.047289576 -0.09199971 0.09597208 -0.06462376 0.06724083 -0.13123077 0.26292053
6239.C02C6.1b -0.4137907 0.2011199 0.13725002 -0.17308922 0.08506575 -0.08110292 -0.26135123 -0.16608602 -0.38765547 0.1661117 -0.21981733 0.10191235 0.13866073 -0.25708213 0.067107365 0.13169545 0.30109406 -0.26652384 -0.14524518 0.10973104 -0.07219206 0.22029068 -0.19697194 -0.19521466 0.01182503 -0.16314694 -0.09440592 0.32242885 0.038961228 -0.19224375 -0.09828611 0.03581651
6239.B0207.4 -0.4233418 0.24457182 0.22204673 -0.19840643 0.083254546 -0.1498433 -0.15671028 0.28569248 -0.3382357 -0.27348664 -0.39985985 0.20612824 -0.17278998 -0.15882358 0.016820028 0.0059895567 0.2712544 -0.5438651 0.09139568 0.07780956 0.010378814 0.26098445 -0.0067869914 0.23981188 -0.05132744 -0.25127593 0.1633076 -0.13077655 -0.19716917 0.13319841 0.08727147 0.5157189
6239.C32F10.2 -0.42099032 0.104953274 0.0528439 -0.021033406 0.38479728 -0.2929697 0.17928487 -0.04573015 -0.24690947 -0.26226148 -0.32416487 0.26237902 -0.19573882 -0.3213386 -0.02741438 0.00769923 0.38381732 -0.38519883 -0.12426019 0.007760726 -0.14896832 0.22874504 -0.080629885 0.3255993 -0.020854183 0.12849203 0.18304421 -0.020251635 -0.16768618 -0.09077495 0.32635552 0.363918
6239.C37A2.4a -0.5340701 0.21107407 0.42477918 -0.2625408 0.045354553 -0.16516934 0.033323206 0.096219085 -0.42372307 -0.18984495 -0.2542941 0.11702282 -0.034852322 -0.049284298 0.054982144 -0.0030127263 0.25631133 -0.38717377 -0.025903035 -0.150145 -0.08374853 0.29646322 -0.15861873 0.34476683 0.070697136 0.031648967 0.052383114 -0.24774382 0.010741661 -0.037492726 0.10978818 0.41638225
6239.W06B3.2c -0.033415932 -0.2764328 0.20033471 -0.052167445 -0.019044824 -0.17910646 0.068983585 0.20236905 -0.28241983 -0.11167508 -0.26621374 -0.20192118 0.018985858 0.043923866 -0.124213316 -0.06876639 0.13221934 -0.5016228 -0.048006102 0.25761628 0.069647186 0.21118225 -0.11842188 -0.03402468 0.21255103 -0.12244635 -0.15740234 -0.12752672 -0.08886933 -0.05576738 0.13849187 0.3767573
6239.F37A4.8 -0.49206582 0.34958538 0.1330313 0.016602091 0.3042386 -0.40747127 0.2077314 -0.13907433 -0.07626093 -0.15393691 -0.62010485 0.14082192 -0.087029934 -0.12547594 0.00033999633 0.04751224 0.28098884 -0.39072677 0.14723007 -0.07350419 0.040479876 0.35102123 -0.04749733 0.17526442 -0.06346709 0.01104665 0.11073792 -0.10659012 0.09820054 -0.1480999 0.0938726 0.44500214
6239.C07H6.5 -0.52866757 0.085899845 0.5979907 0.04679919 -0.035905603 -0.18887493 0.05661261 0.004782274 -0.16084573 -0.11998797 -0.5629953 0.0008330648 -0.2176997 0.032496046 0.057382908 0.024331229 0.28253326 -0.2744102 0.07678937 0.012398921 -0.17294984 0.16962703 -0.5564637 -0.029235827 0.13064481 -0.0009226367 0.118289806 -0.2522286 -0.05485559 -0.08364086 -0.15331672 0.32707906
6239.R07E4.6c -0.30482602 -0.20442696 0.08209853 -0.19443902 0.04714103 -0.034095388 0.25132743 0.033805598 -0.43896538 0.2467535 -0.27169454 -0.02720106 -0.1021517 0.053901732 -0.080575325 -0.06904426 0.042846248 -0.43634424 0.02493535 0.23600352 -0.032659452 0.21923701 -0.13504073 -0.21576506 -0.12106863 -0.3212434 -0.029416325 0.024702026 -0.14929713 -0.23832428 0.013626859 0.09236827
6239.Y18D10A.5 -0.25645712 0.048339196 0.40492845 -0.041706022 0.14529367 -0.060678106 -0.12706356 0.41223326 -0.35257986 -0.22169776 -0.13965996 0.42198926 0.13101473 -0.140008 0.15217188 0.24997453 0.04668127 -0.26217297 -0.046102 0.074259296 0.07618523 0.35328636 0.0049251667 0.08356237 0.2926251 0.0064609293 -0.2619405 0.010443678 -0.078565955 -0.004304409 0.014915551 0.28011614
6239.K05C4.6b -0.2702618 0.26923037 0.27219653 0.0995817 -0.04176111 -0.3277161 -0.013469094 0.1439283 -0.2288199 0.031723734 -0.2530793 0.32259452 0.23907752 -0.18589349 0.21128406 -0.00452101 0.31402287 -0.15007725 -0.1491733 0.11212014 0.03521512 0.3402866 -0.007908195 0.0279307 0.115729555 0.23975116 -0.18238217 -0.08203499 -0.05690556 -0.0060987994 0.23528674 0.3176929
6239.C02F4.2c -0.3222293 -0.13313924 0.0317256 -0.11628585 0.07959794 -0.045370247 0.08835375 -0.032880317 -0.36691445 0.093092464 -0.062891096 0.07744333 -0.2943289 0.08706422 -0.16875364 0.045535 0.032039955 -0.51276004 0.23829047 0.42787552 0.09295499 0.36346143 -0.06558329 -0.15085837 -0.07553776 -0.17876942 0.047780346 0.053733025 -0.118880294 -0.046334967 -0.030161642 0.21758194
6239.F26D10.3.1 -0.34375724 0.05141367 0.3211612 0.03029709 -0.041656155 -0.32747185 0.08676698 -0.12714879 0.015604273 0.011600808 -0.680215 0.13317297 0.14523242 -0.32615274 0.097346336 0.22692966 0.14016646 -0.0040289224 -0.13594481 0.10425303 -0.17423925 0.1625497 -0.03754219 -0.2968963 0.14732991 -0.22526982 -0.20103644 0.11865515 0.011272703 -0.029192021 -0.2772377 0.30029106
6239.K07A9.2 -0.21925738 -0.122355744 0.22379716 -0.0070080133 -0.19381565 -0.07053342 -0.01224586 -0.009087752 -0.3904396 -0.17544512 -0.10576372 0.068683885 -0.034393977 -0.25111848 0.016747717 0.026366428 -0.03470866 -0.3855442 0.01002345 0.24194701 0.03335918 0.21142401 -0.038909685 -0.019892998 0.015291952 -0.24342369 -0.17605239 0.056378257 0.13043983 -0.27831316 0.08251759 0.059736438
6239.T04C12.6.2 -0.2143467 0.07381437 0.1065409 0.0007462078 0.008582251 -0.15121295 -0.08507421 -0.11996997 -0.34762403 0.014831499 -0.38331726 -0.0032422778 -0.021818269 -0.08884789 0.06935987 -0.08493043 0.32190973 -0.3114113 0.013757941 0.08694598 -0.040375553 0.43908405 0.10608338 -0.32335642 0.19444537 -0.22629753 0.018562142 0.09496093 -0.1159807 0.019907206 -0.261313 0.28266752
6239.Y51H4A.3 -0.25825945 0.068702556 0.20439835 0.12067724 0.022233995 -0.1611123 -0.24852073 0.14180051 -0.60918885 0.12002572 -0.14080541 0.02893463 0.10340498 -0.16246437 0.04503713 -0.14508505 0.24283597 -0.28115746 -0.24490224 -0.05048265 0.005220853 0.2975178 -0.04159621 0.035494827 0.123326816 -0.16298717 -0.14529064 0.08078713 -0.09674669 0.050925463 -0.13979994 0.29812062
6239.F42G8.4.1 -0.25612307 -0.0098373415 0.2337426 -0.025856977 0.11146407 -0.0532129 -0.0044985632 0.2652123 -0.42266282 -0.1473832 -0.21904537 -0.13739017 -0.2733967 -0.11026794 -0.068207465 -0.04918819 0.2694339 -0.31566647 -0.13829847 0.30090293 0.032447215 0.39254797 0.046956096 0.04619242 0.11505934 -0.21397714 -0.28055203 0.09015687 0.030617887 0.049696345 0.0409768 0.23311147
6239.F17E5.1a -0.34450558 -0.14661805 0.3323427 0.06606277 0.062273376 -0.17939287 -0.13867126 0.00034153782 -0.54577994 0.24338427 -0.12081552 0.109298274 0.21089576 -0.19574179 0.016369874 0.16669336 0.1144983 -0.29151595 -0.028730432 0.29281044 -0.07612875 0.021861887 0.03916594 0.19319595 -0.14957853 0.033766564 0.17570044 -0.07401043 0.03227165 -0.024766017 0.10503055 0.11472001
6239.F26E4.10a -0.42696017 0.23008895 0.2777495 0.15979493 0.029125316 -0.37210828 0.2600552 -0.00044027442 -0.3061412 -0.03818842 -0.5375047 0.12339185 -0.2808641 -0.15558517 -0.0835931 -0.017743332 0.36339146 -0.36875883 -0.28282022 0.102614045 -0.04864888 0.1614907 -0.36080664 0.08814529 0.04342714 0.047673956 0.21834601 -0.29343548 0.06285304 -0.029422522 0.053383082 0.2482205
6239.K07C11.2.2 -0.48603475 0.2262833 0.34972638 -0.21031965 0.08529915 -0.10939115 -0.1604267 0.15101847 -0.3267863 -0.26407963 -0.32325011 0.19478601 -0.15934166 -0.23515959 0.036089312 -0.0062078084 0.2491187 -0.5414752 0.087801054 -0.043989044 -0.006099248 0.25715208 -0.04911527 0.114534095 0.08838006 -0.23255874 0.19879083 -0.12245296 -0.053126033 0.1365221 0.057395257 0.4267831
6239.C47D12.1a -0.27274 0.30019927 0.058495987 0.10990948 0.3936383 -0.3096543 0.030055042 0.12980689 -0.36418217 -0.09785485 -0.54213643 -0.10156544 0.19934161 -0.09190533 -0.035626095 0.02201454 0.30986947 -0.489864 -0.0067185727 -0.10404655 -0.06638974 0.3422158 -0.090550005 -0.02489161 -0.34935814 -0.04649983 -0.095998876 -0.045287423 0.18414724 -0.061818693 -0.051700648 0.36594903
6239.F42H11.2 -0.5532166 0.2643073 -0.037161298 -0.12312312 0.11155324 -0.29051897 0.10629414 0.05224618 -0.3337837 -0.08367088 -0.3756054 0.014737022 -0.013878733 -0.04591112 0.0329385 -0.15069896 0.39913553 -0.548275 0.07112799 0.09724505 -0.11101823 0.24932778 -0.057897296 0.09158726 0.042253204 -0.27727044 0.018970907 0.041539732 -0.1688701 0.10466211 -0.03380694 0.36987633
6239.ZK524.2d -0.23701634 -0.23002379 0.34808242 -0.06361968 -0.07972429 -0.0023205907 -0.17306255 -0.13427652 -0.2840593 -0.055063806 0.12426385 0.060785767 0.23298834 -0.15742648 -0.3375986 0.11020592 -0.11330377 -0.47041658 0.29070336 0.09086582 -0.10526621 0.25165954 -0.15205117 0.0066441773 -0.30846563 -0.18024214 0.10630285 -0.08752658 -0.28246385 -0.306917 0.38028196 -0.014142524
6239.T06E4.3a -0.27063122 0.29431894 0.2040126 -0.17873152 0.42612067 -0.16837993 -0.053661212 -0.03469813 -0.4447653 -0.07649537 -0.553391 0.002225191 0.041591454 -0.09743262 -0.035479505 -0.015440147 0.29098123 -0.46320516 -0.082063235 -0.13305306 -0.17169991 0.2911471 -0.08738435 -0.021024976 -0.26844785 -0.13911086 -0.04925643 -0.18871729 0.22948472 -0.06958486 -0.12239206 0.29512465
6239.F38H4.9.2 -0.28255466 -0.04593099 0.26329428 -0.05996321 0.2116753 0.0890543 -0.068211064 0.036291506 -0.33349788 -0.015803607 -0.29716247 0.097654566 -0.2939727 -0.0029411505 -0.07033302 -0.042508483 0.07329766 -0.3283883 0.15359874 0.2171908 0.018718226 0.25314048 -0.11760589 -0.21059482 0.03366423 0.083043374 -0.03463649 0.04494574 0.013548846 0.1394174 -0.02342163 0.68729126
6239.Y47G6A.8 -0.36024404 0.24729265 0.17096604 -0.17889819 0.0856048 -0.44063002 0.18818216 -0.08789105 -0.2064481 0.031406216 -0.5504762 0.41792598 -0.091422595 -0.41917142 0.09994472 0.05106129 0.23891531 -0.4067631 -0.08759036 0.013431757 0.011103729 0.12286041 -0.18831219 0.15163429 -0.15217672 -0.24594986 0.31388167 -0.14899771 0.098949134 0.09037435 -0.15174136 0.43863612
6239.M03A1.1b -0.3245068 0.15845643 0.4647052 0.06956599 0.13615498 -0.15397856 -0.28051946 0.29490343 -0.37283343 0.029660143 -0.25507283 0.004493672 0.16903682 -0.0835587 -0.020692669 -0.12767482 0.076368906 -0.36566803 -0.008051705 0.08957874 -0.09914954 0.2077688 -0.11181044 0.23705988 0.006587589 0.27533832 -0.0059115603 0.18209474 -0.24491204 -0.088200256 -0.074588835 0.16957633
6239.F43E2.8.1 -0.15657286 0.036785394 0.38412043 -0.1443656 0.030911172 -0.28247893 0.20864423 -0.09426048 0.0050871978 -0.25808838 -0.49531472 -0.015063724 0.05910219 -0.47599664 0.1446571 0.11053641 0.14769582 0.055865984 -0.12246406 0.07201307 0.14400886 0.28154522 -0.118648075 -0.18803146 -0.026065616 -0.46297655 -0.25405028 0.22876666 -0.1735336 0.021765266 -0.26007497 0.36091924
6239.Y110A7A.17a -0.5667761 0.4206733 0.33355317 -0.09986116 0.07262094 -0.32927352 0.107333966 -0.12774752 -0.25790256 -0.11101629 -0.32894653 0.17841035 -0.13287772 -0.20603856 -0.14807685 0.08307163 0.2003082 -0.4400853 0.056271788 -0.06556316 -0.13769665 0.1763351 -0.0024988102 0.08843344 -0.043782227 0.0072471565 0.102899365 -0.08382118 -0.13554761 0.09344913 0.030739514 0.46213016
6239.K03E5.3 -0.42900628 0.17676447 0.23384824 -0.04188449 0.28326532 -0.15321021 0.090170786 0.16181599 -0.5008526 -0.30798268 -0.34363392 0.14679165 -0.18164417 -0.043131858 0.074554734 -0.05213609 0.21275759 -0.33212832 -0.049097583 0.14351203 -0.10878329 0.24476776 -0.011995451 0.03155767 0.03362001 -0.07389369 -0.079243846 -0.16256577 0.1718177 0.22813101 0.04188812 0.5645076
6239.R06C1.1.1 -0.41029814 0.20312007 -0.030008897 0.17035946 0.3187528 -0.27858698 0.17584859 -0.046865728 -0.16655934 -0.34757978 -0.5317873 0.22515099 -0.20652434 -0.008986396 0.09292501 0.12703964 0.13684689 -0.28888306 -0.11441063 0.03831245 -0.03736541 0.5062534 -0.059865516 0.06489822 0.13518861 0.020384908 -0.0016783746 0.0087371515 0.15326186 -0.09961367 0.105741136 0.5105019
6239.C08B11.2 -0.38936716 0.30107737 0.06098224 0.08695502 0.3689565 -0.2735455 0.2136942 -0.027991865 -0.1122658 -0.36305276 -0.50208753 0.1358146 -0.16993181 0.018354934 0.0066353 0.042289864 0.17647085 -0.4504842 -0.1251592 0.14064136 -0.02520183 0.4081823 -0.048493616 0.10153299 0.16814864 0.0018247598 0.031212173 0.07687681 0.17800722 -0.07649973 0.07102039 0.48496982
6239.F42G8.3a -0.25565547 -0.03898111 0.21871217 0.10210994 0.008669132 -0.12102167 -0.13051365 0.430676 -0.1748236 -0.017318992 -0.42728603 0.10083672 -0.1791903 -0.072415635 -0.0218439 -0.19297527 0.3081728 -0.36039785 -0.13692178 0.27460998 0.028897574 0.36747056 0.08145449 -0.124533005 0.114251316 -0.20192377 -0.4935104 -0.14733413 0.046524398 0.058269236 0.07612099 0.27310643
6239.B0478.1a -0.26994526 0.04205894 0.2996874 -0.18089645 -0.019697625 -0.31772718 -0.220025 0.10769524 -0.25113627 -0.2403358 -0.00085697655 0.12992035 -0.0854037 -0.19155279 0.092457965 0.15558575 -0.0005161895 -0.20115729 -0.04929838 0.38942957 -0.15509124 0.24855551 -0.12070762 0.24958533 0.10390252 -0.12056756 -0.35357898 0.08335247 0.23848617 -0.083237864 0.26636982 0.14133275
6239.F32D1.10 -0.49466023 0.3609753 0.16109622 -0.06820957 0.042662986 -0.23610371 0.08679504 0.048663713 -0.24946608 -0.112235054 -0.43223765 0.23786022 -0.11133443 -0.24661618 0.040551517 0.11077588 0.39452288 -0.49804634 0.17103887 -0.068958916 0.040896382 0.4095284 -0.1129931 0.26769343 0.007113805 -0.19368312 0.28394154 -0.1593213 -0.1702666 0.09784187 -0.05060217 0.4557377
6239.K06A5.7.1 -0.3252056 0.19030292 0.54337245 -0.23860788 0.12512028 -0.35414112 -0.099295266 0.103214115 -0.17093424 -0.22420819 -0.22259441 0.16879672 -0.2402537 -0.099746324 -0.0042874324 -0.112754785 0.3928579 -0.41154683 0.04446087 -0.03552093 -0.018380174 0.34913167 -0.1716358 0.26674286 0.27473375 -0.1982731 -0.0038523655 -0.33314013 -0.08417796 -0.09483074 -0.0690568 0.17985451
6239.R06A4.7 -0.48874292 0.263833 0.24132614 0.091158345 0.29442507 -0.27705246 0.3138998 -0.018164426 -0.21230358 -0.20667985 -0.56020504 0.13891998 -0.11669627 0.032221425 0.041869085 -0.09623204 0.26781455 -0.3008057 0.026666777 -0.08488841 -0.041489664 0.43528807 0.03631387 0.3110948 0.13911206 0.13302588 0.10432077 -0.111961894 -0.0025658896 -0.26903293 0.22315022 0.36539957
6239.T21H3.3 -0.14575826 0.10382405 0.1418627 0.030593086 -0.15288211 0.11744295 -0.24995966 0.09437794 -0.5454248 -0.11782794 -0.37006542 0.14865454 0.024871478 -0.16009872 -0.14759879 0.090295985 0.003368415 -0.3612327 0.24423116 0.28966224 -0.023303092 0.40667927 -0.01846402 -0.27169105 0.15861812 -0.1627906 0.028796433 0.11507049 0.0061940583 -0.03528959 -0.051135387 -0.0026623055
6239.B0025.1a -0.08292807 0.32638037 0.04072961 -0.005811207 0.26136622 -0.10749607 -0.044796083 0.14578503 -0.36718854 -0.12501934 -0.42062363 -0.09080041 0.27616748 -0.24097387 -0.052547224 0.060027424 0.36584428 -0.35803878 -0.2879217 -0.060802273 -0.14793387 0.43240416 -0.34302163 -0.23615696 -0.0981582 -0.16453859 -0.13594235 0.047139503 0.13646956 -0.12153481 -0.094487496 0.2590172
6239.M7.2b -0.5133309 0.4528067 0.59848344 -0.11028507 -0.22379269 -0.24525696 0.047999498 -0.15207526 -0.3087408 -0.4179664 -0.20243865 0.11473213 -0.019977162 -0.14130953 0.038095072 0.07913839 0.17197447 -0.6411191 0.021582963 -0.077961735 -0.21944359 0.11451185 -0.050186742 0.017033946 0.037105616 -0.13429245 -0.020690713 -0.06372093 -0.14799204 0.050492264 -0.017979752 0.14896163
6239.Y2H9A.1 -0.56466186 0.3112652 0.13797723 -0.040493947 0.21118155 -0.35386193 0.20678799 -0.082889 -0.30692473 -0.16266645 -0.6009335 0.055889077 -0.16673529 -0.05142453 -0.12447989 0.035887543 0.24566676 -0.43874553 0.040306065 -0.16273092 -0.061456073 0.252313 0.0010383299 0.26911148 0.14597334 0.015432464 0.19601132 -0.15730493 -0.10269386 -0.2581056 0.1570961 0.42449304
6239.C35C5.4 -0.18432938 0.10884646 0.28948075 0.15384002 0.03349008 -0.08350128 -0.33568972 0.0147248395 -0.62573236 0.18748365 -0.096974835 -0.07220085 0.08764327 -0.22734362 0.05717265 -0.08749337 0.2407242 -0.26468992 -0.3807087 -0.048480295 -0.12061921 0.28795952 0.019987077 0.14389525 0.1337653 -0.033892047 -0.05240521 0.07280455 -0.11360342 0.052230153 -0.041051656 0.34840134
6239.Y49E10.14a.2 -0.47273266 0.1850938 0.6021684 -0.26370195 -0.07582809 -0.07355947 0.06645693 -0.0066078464 -0.1640205 -0.13883471 -0.26464772 0.14090566 -0.13161016 -0.20376298 -0.14709888 -0.106649816 0.46086058 -0.45541584 0.09622761 -0.21012758 -0.1710963 0.19400845 -0.26971918 0.23432893 0.01967907 -0.0919379 0.21432844 -0.14548856 -0.16128932 -0.24659266 0.117445365 0.5057107
6239.Y53C12A.1 -0.46729904 0.33427477 0.4483767 -0.2516805 0.05445482 -0.051104497 -0.028779956 0.32844022 -0.43812516 -0.20300563 -0.40972528 0.13069764 0.03280619 -0.10808507 -0.042438902 -0.11453377 0.4497272 -0.5765831 0.2523533 0.09102652 -0.057634957 0.120232016 -0.14595956 0.251101 0.047734942 -0.0021597196 0.24185595 -0.120832354 0.023834534 -0.0432708 -0.08171307 0.4920434
6239.Y73B6A.5a.1 -0.48506728 -0.0332139 0.4431559 -0.039071146 0.21455225 -0.18885396 -0.047188345 0.32944834 -0.38875437 0.05471916 -0.13400526 0.025757257 0.013818783 -0.16047192 -0.14712077 -0.11025512 0.25815585 -0.22902209 -0.1759826 0.0777643 0.021046616 0.1969002 -0.24905898 0.2167845 0.062155053 0.19413505 -0.15262231 -0.0073144245 -0.15329732 -0.13391772 -0.14706287 0.10296629
6239.T01B7.7 0.036497246 -0.20329252 0.33566654 -0.31171352 -0.037142415 -0.1825762 -0.008641966 -0.21910419 0.007851645 -0.14760447 -0.18372831 0.063723646 -0.030217217 -0.11868633 -0.3610257 -0.10918846 0.17603086 -0.07047259 -0.3119792 0.16368575 -0.38610318 0.498301 0.037936088 0.08592616 -0.033271555 -0.09119355 0.094557 0.20615682 -0.36001408 -0.37804845 0.28493384 0.14408672
6239.C14B1.4 -0.38677683 0.29915768 0.043626174 0.06275537 0.20287904 -0.30439135 0.24174984 -0.18688564 0.039168853 -0.16120936 -0.4258184 0.1691623 -0.2865845 -0.24294089 -0.16271971 0.04226688 0.29166958 -0.5757535 0.24934423 -0.015907522 -0.012810354 0.4242831 -0.05366355 0.2642273 0.10340796 -0.00426594 0.026630972 0.015570311 -0.09630446 0.04803531 0.22199462 0.45860848
6239.F58A3.2c -0.1789675 -0.26928443 0.3637103 -0.06468245 0.039265875 -0.22545108 -0.19490473 -0.11262844 -0.12401302 -0.01976828 -0.093131915 -0.11968011 0.13901304 -0.080910474 0.15089832 0.024470791 -0.0850084 -0.25120756 -0.0666368 0.32625943 -0.05779098 0.28014782 -0.2884549 0.43065652 -0.011777906 0.26922068 0.24083868 -0.17593423 0.020490834 -0.16744593 0.29809454 0.24721128
6239.Y39G10AR.14.1 -0.461855 0.27401808 0.13253987 -0.04550031 0.08970461 -0.3027273 0.09268568 -0.035675842 -0.22909237 -0.054480407 -0.48164555 0.25902638 -0.10994564 -0.21207984 0.10174334 0.007077939 0.34681463 -0.47149962 0.023917329 -0.12903276 0.044534992 0.25854504 -0.07890463 0.16419569 -0.0061395722 -0.23702398 0.22886719 -0.20195267 -0.21814972 0.035902627 -0.019987073 0.580641
6239.F38A6.1a 0.04944329 -0.034045078 0.31272796 0.055787597 0.21479532 0.022576716 0.3151416 0.021845097 -0.12000685 -0.2602576 -0.22512661 0.16954985 -0.0856432 -0.13079838 0.23693232 -0.14075294 0.1723852 -0.0040961956 -0.023901401 0.14302292 -0.17547366 0.65214753 -0.08354037 0.22962649 0.05434353 0.13889284 -0.038824413 0.11747804 0.048516326 -0.36256018 0.22881992 0.46435484
6239.F33G12.4.1 -0.6087369 0.22778195 0.39107752 -0.029158346 0.012825734 -0.10162853 -0.21898936 0.08390088 0.12306064 0.017445963 -0.33790028 0.27725032 -0.22390826 -0.23007184 0.0027880655 0.06028945 0.37965837 -0.70097375 -0.07889153 0.087797984 0.06378439 0.15884158 -0.17424113 0.17218955 0.11787952 -0.25856906 0.27685916 -0.22965346 -0.09451704 0.020661548 -0.008479079 0.58080375
6239.C12C8.1 -0.20735425 -0.038274884 0.32995293 -0.046330757 0.053078473 -0.32516286 0.26691905 -0.0551371 -0.009216959 -0.19206609 -0.5086335 0.12307554 -0.035939723 -0.4624414 0.11320415 0.27885687 0.15180665 0.0004328315 -0.010133049 0.17006767 -0.034845624 0.26755786 -0.14012358 -0.2298551 -0.00090537925 -0.27899578 -0.18802744 0.083038 -0.121592805 0.10610377 -0.36544144 0.2828371
6239.Y39A1A.5 -0.4156019 0.39049536 -0.006327184 0.07820641 0.29350013 -0.102573715 -0.05463737 -0.052098423 -0.413531 -0.0032084582 -0.2548336 -0.095115475 0.07004352 -0.14951567 -0.15492178 0.07660184 0.15911534 -0.35098463 -0.08947063 0.092451446 -0.04626822 0.21750157 -0.19893189 -0.031911362 0.108638845 -0.15146455 -0.28606448 0.14506881 -0.11439489 0.16309164 -0.08799173 0.48002574
6239.W09C5.2 -0.37230605 0.37598103 0.18305692 -0.10113463 -0.12772329 -0.15584852 -0.048073493 -0.17665963 -0.378594 0.01770731 -0.2217925 0.14496447 -0.08245257 -0.30062136 -0.12523411 -0.03638278 0.28703782 -0.6286015 -0.12417436 -0.080949605 -0.0004995328 0.1179884 0.00973238 0.20923905 0.037312087 -0.25400257 0.08873426 -0.08597209 -0.05011348 -0.048954032 -0.004775936 0.46652648
6239.K04F10.4d.1 -0.402878 0.11784091 0.47485992 -0.1948302 0.30805212 -0.109092474 -0.06681331 -0.12892367 0.0328587 0.050217208 -0.25618735 0.09983824 0.08023002 -0.086366266 0.2700866 -0.15333812 0.1222552 -0.19310056 -0.20617805 0.08682593 -0.13526696 0.06842948 -0.24427678 -0.044749845 -0.0824819 -0.2280334 0.13492393 0.03222404 -0.6188408 -0.4123912 0.06628252 0.21003796
6239.C26D10.2a -0.37613112 0.050974336 0.2083264 0.27908108 -0.006005223 -0.18515152 0.00065103924 -0.15142009 -0.050579976 -0.026205255 -0.82003444 0.16321774 -0.30995438 -0.28646296 0.13231586 0.13636975 0.06814431 -0.20021303 0.123064674 -0.072939135 -0.012451903 0.28201905 -0.3030597 0.038925 -0.16160086 -0.03583657 0.1571038 -0.13901414 -0.10200115 0.06325321 -0.055078845 0.63389164
6239.C53A5.3 -0.36884364 0.15797652 0.060309872 0.10639821 0.3276522 -0.23028873 0.21854848 -0.0038828284 -0.15648697 -0.29854625 -0.5346878 0.29943472 -0.18843544 0.02914173 0.070240274 0.06527255 0.16074409 -0.3151417 0.0029534143 0.100244924 -0.042291205 0.4758383 -0.063506514 0.13178563 0.09554364 0.12201419 -0.07914427 -0.010638774 0.17254463 -0.04133234 0.14847115 0.43739182
6239.F44F4.2.1 -0.5469364 0.18590306 0.59044534 0.013025912 -0.10624736 -0.08645866 -0.17647624 0.21913788 -0.08006864 -0.1840168 -0.4747458 0.08552185 -0.101576 -0.090793304 -0.025184276 -0.12708077 0.2699536 -0.540611 -0.013717088 0.042760532 -0.10232632 0.1694237 -0.43214712 0.06842053 0.07637926 -0.0491828 0.25426576 -0.1186398 -0.03672328 -0.0035611345 -0.12586783 0.40429735
6239.C37H5.8 -0.22415613 -0.021174176 0.36442924 -0.13881549 0.120943114 -0.24924645 0.17822674 -0.10215319 0.0017246556 -0.26556316 -0.47162497 0.21192421 -0.09740524 -0.5216854 0.21322563 0.1190393 0.19534713 0.042254064 -0.022858031 0.119496204 -0.016860344 0.19759578 -0.14724119 -0.26589298 0.04956725 -0.10521141 -0.32617965 0.111437835 -0.13710237 0.014714725 -0.4240031 0.39952165
6239.C04F12.3 -0.36172548 -0.014388379 -0.097494274 -0.16528782 -0.004158433 -0.11315019 -0.022911955 -0.05223255 -0.17231254 0.0014492562 -0.20843542 -0.19741808 0.013612087 -0.10439279 0.12130798 -0.10885355 0.10039093 -0.4345718 0.10141696 0.4825624 -0.17781523 0.23332474 0.06297925 0.19360192 0.021760616 -0.24292532 -0.18184587 -0.054931212 -0.091329254 0.15419996 0.040009424 0.533231
6239.Y105E8B.1a 0.15615976 -0.28280014 0.23555505 -0.03556738 0.012612732 -0.36079642 -0.13474718 -0.42575985 -0.12178024 0.07446087 -0.33307213 -0.13311502 0.11071995 -0.08897774 -0.009958042 -0.07203314 0.115499765 -0.30475494 0.14492655 0.1745719 0.097300045 0.08860765 0.10708643 -0.13417444 0.1820861 -0.15973692 -0.011794032 -0.21183035 -0.13189828 -0.20588745 0.14623842 0.46425116
6239.Y71F9B.7 -0.56654984 0.31224462 0.4159393 -0.30268294 0.009998124 0.007248926 -0.06998714 -0.06968197 -0.4711737 -0.3882152 -0.34471563 0.023948964 -0.0018842414 0.06044107 0.116017446 -0.20016532 0.2851675 -0.36154133 0.09659686 0.02507564 -0.06050588 0.22797833 0.010423622 0.06175492 -0.0020105187 -0.18159388 0.100690745 -0.26623654 -0.037609104 -0.10195184 -0.087314114 0.5103312
6239.F42A6.7d.1 -0.40346396 -0.06856427 0.2863081 0.40625566 0.07981598 -0.32075402 -0.0073768934 0.039498977 -0.15635994 0.09868233 -0.72388655 0.13250928 -0.2923488 -0.20471604 0.03733485 0.15210481 0.23883922 -0.14774641 0.07421348 -0.14361925 -0.086331375 0.2367407 -0.27979842 0.02179013 -0.13799582 -0.16326934 0.021653442 -0.10963568 -0.0052120253 -0.013476011 -0.006627386 0.53140116
6239.F35G12.4c -0.51429164 0.5577032 0.29338518 -0.055081792 0.23808816 -0.24675491 0.059087414 -0.1558967 -0.06626716 -0.001793655 -0.33065608 0.18049833 -0.11550184 -0.2850512 -0.045628194 0.05551671 0.27540496 -0.7254655 -0.14306973 -0.14950004 -0.05678974 0.23449874 -0.3573027 0.17151569 -0.06570169 0.020736186 0.14698903 -0.113470346 -0.044665396 -0.0039265137 0.0015423063 0.3183986
6239.F07A5.7a.4 -0.09785574 -0.22262117 0.13357773 -0.036390416 0.015217547 -0.24672158 -0.23410074 -0.27426034 -0.21953586 -0.029942121 -0.30420363 -0.27268067 0.19678512 -0.05133261 -0.11364069 -0.04298722 0.102053754 -0.4308437 0.08137425 0.2896822 -0.13142717 0.051896747 0.14169751 -0.19504419 0.2061422 0.07672932 0.104088485 -0.19979897 -0.2081562 -0.13272795 -0.005658294 0.41760626
6239.F35D6.1a -0.34160212 0.01506756 0.28276107 -0.12871058 0.26629508 0.09381331 -0.062336717 0.15827657 -0.16607085 -0.14298183 -0.41538346 -0.03785056 -0.0005559268 -0.26668584 -0.29783428 -0.25350025 0.4038683 -0.17783853 0.14179863 0.22085345 -0.43927842 0.26929224 0.15042974 0.09995295 -0.024101004 -0.028883182 -0.24622998 -0.063793786 -0.29451734 0.055222668 -0.14349177 0.3747215
6239.C15H9.6.1 -0.13550596 0.027763197 0.4309992 -0.13252078 0.12564087 -0.24046774 0.10803656 -0.055405237 -0.03732186 -0.2240154 -0.61461955 -0.05863448 0.17410228 -0.40151858 0.19653516 0.16544747 0.04564359 0.008650267 -0.08636506 0.21065617 0.1871952 0.20264617 -0.06298634 -0.122742124 -0.049775906 -0.5201498 -0.19128658 0.23365235 -0.18446055 0.09074314 -0.3654622 0.26550448
6239.T25F10.2.1 -0.012078066 -0.23008907 0.33209735 -0.17880304 0.07443554 -0.2725963 0.0561072 -0.13953012 -0.13752273 -0.115114085 -0.08535094 0.2794357 0.05765228 0.0053028977 -0.17514135 -0.42885357 -0.27440888 -0.019872233 -0.11052345 0.34060448 0.063525 0.5005155 -0.26343036 0.42579108 0.13855864 0.16548006 -0.08169711 -0.06940568 -0.2445418 -0.021993056 0.28456935 0.07354237
6239.F26D11.11b -0.4502004 0.08685756 0.32775772 0.26406956 0.039688308 -0.33532274 -0.45287505 0.08597578 -0.23647267 0.059732612 -0.19039308 0.08823393 0.114195295 -0.012122707 0.009157167 -0.056294903 -0.07217019 -0.14536524 -0.001988373 0.13160157 -0.16650456 0.38545793 0.0379453 -0.026287172 0.2103565 0.11162043 0.13146791 0.17658225 -0.13676855 0.065857865 -0.16704431 0.38781434
6239.C18A3.6a -0.22492492 -0.09983522 0.3174569 0.070728384 0.035858683 -0.037011974 -0.23802118 -0.35910383 -0.38722417 0.012301284 0.28417727 -0.0054430105 0.118214905 -0.43663052 -0.08940382 0.04044249 -0.23540035 -0.4209961 0.1069613 0.14724474 -0.005264773 0.23837182 -0.21126878 -0.09924228 -0.19130711 -0.16158693 0.12518775 -0.15278414 0.13677767 -0.053796824 0.36244276 0.04068434
6239.C27A2.6 -0.4150599 0.16134624 0.32600197 -0.005789744 -0.02391913 -0.32759625 -0.071864426 0.29618075 -0.31652853 0.119198516 -0.21015148 0.3429732 -0.061536856 -0.24298021 0.03513368 -0.07764194 0.31859383 -0.4215674 0.09250345 -0.124460764 -0.08041904 0.23517962 -0.104641676 0.4453216 0.22332725 0.046121847 0.19716014 0.037085563 -0.21582238 0.08765179 0.3037285 0.5430638
6239.K07A1.12 -0.31106895 0.021779612 -0.054375235 0.21277261 0.26484144 -0.20089132 0.20806485 -0.057558946 -0.2095545 -0.15912184 -0.6082496 0.23147607 -0.25483632 -0.3928626 -0.09376915 0.029471355 0.42159304 -0.5299465 0.030825645 -0.18173553 0.045225132 0.32611096 -0.050816733 0.28251565 -0.0494743 0.013061238 0.1438761 -0.1663693 -0.08324154 -0.0074655614 0.22347912 0.525572
6239.K12C11.2 -0.35440034 0.128108 0.1371856 -0.028904673 0.33298057 -0.22191502 0.16495809 -0.113415316 0.024860838 -0.073368326 -0.49427086 0.26512218 0.036477312 -0.2666078 0.13551466 0.1281889 0.21775208 -0.40467396 0.13357185 -0.10197272 -0.109336376 0.4806328 0.13486336 0.21657993 0.06549352 -0.16351534 0.028438993 -0.17104594 0.032938812 0.10816221 0.02421506 0.4462382
6239.C26E6.9c -0.4491401 0.27432153 0.12294069 0.069800995 0.4216935 -0.31866506 0.17531165 0.0007338482 -0.2872647 -0.08826426 -0.6771522 0.041245747 -0.24643861 0.023676781 -0.07661106 0.085956626 0.14690371 -0.30693948 0.094189234 -0.10963696 -0.04298207 0.4716924 0.036670525 -0.028730385 -0.10539618 0.1102746 0.09492434 -0.07771601 -0.05917142 -0.2102457 0.22709964 0.25382492
6239.T26A5.7a -0.40717992 0.2663297 -0.19909243 -0.06518116 0.1724176 -0.090325706 0.30596876 0.07432909 -0.20801215 0.14387219 -0.52698594 0.21348391 -0.23582256 -0.07201423 -0.09686368 0.1271424 0.20817256 -0.65339494 0.21357079 0.14484696 -0.0731051 0.4965231 -0.06431332 0.17776807 0.040909868 -0.13640319 0.21860215 -0.010353327 -0.35310844 0.014207715 0.30712017 0.21739064
6239.F26B1.3 -0.606002 0.3929398 0.39771765 -0.16250119 -0.023565015 -0.17038214 0.07195153 -0.13937877 -0.23696223 -0.29811078 -0.45031002 0.094310515 -0.10936488 -0.19562061 0.06069177 0.030039491 0.30225497 -0.4636021 -0.033493243 -0.13096821 0.08580229 0.22274987 -0.34758076 0.014279207 0.16070595 -0.03255833 0.08270522 -0.33658957 -0.21907048 -0.008114123 -0.089121014 0.27899414
6239.C10H11.9 -0.3837519 0.05011972 0.44021282 -0.08733909 0.014605185 -0.3722533 -0.2788285 0.2146468 -0.3405671 0.18108332 -0.16051751 0.14697994 0.27732787 -0.06720072 -0.06562587 -0.085225634 0.14347304 -0.2270291 -0.22154883 -0.0340956 0.007732416 0.3172899 0.22204041 0.06371155 0.018991038 0.088275306 -0.087594435 0.0130214235 -0.044568263 0.10252997 -0.044638667 0.38299844
6239.F01G4.1 -0.44939554 0.3740283 0.08427952 0.15952832 0.2882718 -0.3109951 0.25544366 0.095085174 -0.24659203 -0.044457447 -0.6403444 0.15968789 -0.024527835 -0.0028209214 -0.03861233 0.036328785 0.1688766 -0.25950894 0.02252916 -0.022021351 0.13518964 0.43136895 -0.047974836 0.17657366 -0.061327554 0.057602596 -0.0039167763 -0.06395687 0.0932883 -0.20062093 0.25409842 0.40711844
6239.T20B12.2.2 -0.38767374 0.2797258 0.19914877 -0.075006455 0.13261813 0.05234808 0.35276756 -0.043237727 -0.13191701 -0.16264026 -0.52051914 0.14644264 -0.23979738 -0.18694317 0.07728426 0.006931231 0.35273153 -0.57634866 -0.08783078 0.11523561 -0.042485 0.3601137 -0.3186761 0.12617067 0.20544498 0.057681777 0.032661136 -0.091113314 0.1394762 -0.09355436 0.16946353 0.21102919
6239.W03G1.6c -0.32206136 0.18765584 0.09255254 -0.07279324 0.21974936 -0.30138013 -0.039109547 0.21800774 -0.4028575 -0.14939734 -0.42882988 0.16785254 -0.15341885 -0.11807586 -0.032170624 -0.26788393 0.38528982 -0.30027485 0.018558836 0.09908797 0.07383027 0.1782479 -0.16709627 0.18797673 0.090462856 -0.3055042 0.092179425 -0.14921787 -0.065696776 0.029489953 0.054634813 0.61961144
6239.K12D12.1 -0.29114822 0.3008995 0.106910124 -0.064747326 0.12454189 -0.49487215 0.17042795 -0.08001975 -0.3883828 -0.011388682 -0.5811268 0.42704487 -0.062326398 -0.33153543 -0.010626203 0.09325192 0.3965021 -0.11623688 0.21016796 -0.007082372 0.15352309 0.3020771 -0.0017968352 0.060733434 -0.2659134 -0.14727075 0.29803059 -0.09265674 -0.072234266 0.07357533 -0.0077969106 0.4754903
6239.H26D21.2 -0.50751966 0.43106714 0.30872485 -0.22750394 0.11057397 -0.26564637 0.112216674 -0.08361154 -0.23183393 -0.24161774 -0.48402634 0.22847699 -0.09129212 -0.24481896 0.2198046 -0.12957172 0.4529442 -0.45230561 -0.016390434 -0.017297748 0.0114064105 0.22448008 -0.23207963 0.16003197 -0.09470975 -0.24792293 0.18550804 -0.26328364 0.07896887 -0.14276421 0.041542687 0.26946124
6239.C42D8.8a -0.26537707 -0.15319133 0.2909346 -0.34757516 -0.077643365 -0.19123277 -0.24469765 -0.032453254 -0.04920734 -0.0856869 -0.40894553 -0.010056926 0.19377045 -0.18221927 0.2565078 0.1506281 -0.28380206 -0.18066001 -0.16845554 0.23918685 -0.0040735393 0.254144 -0.082994476 0.07007027 0.06506373 -0.08038982 0.020468807 0.12800616 -0.08251318 -0.36472833 0.2750052 0.053808134
6239.C32D5.2 -0.057513766 -0.029103646 0.44157568 -0.12659945 0.24413636 -0.15734634 -0.18070604 0.10969218 -0.43036264 -0.06700474 -0.06275903 0.25746343 0.10342386 0.01709496 -0.05210765 -0.24035577 -0.13730367 -0.069843 -0.29869083 0.13518262 -0.020232314 0.44107172 -0.14735135 0.31968972 0.31980637 0.2396038 -0.11365275 -0.17633252 -0.22972135 -0.04054809 -0.10111906 0.16483772
6239.C06A1.1 -0.6138071 0.27163917 0.3415485 -0.09505606 -0.045727614 -0.123476155 -0.013075003 -0.085567705 0.034327336 -0.029155768 -0.47004262 0.22480178 0.24063703 -0.18212685 -0.10993727 0.21563661 0.30796206 -0.018096428 0.13772854 0.09895101 0.1415093 0.26048627 -0.11060696 -0.11411691 0.012619807 -0.26855683 -0.30957767 -0.18128619 -0.11975335 -0.04467419 -0.20158054 0.43763193
6239.C36E8.5.1 -0.34294152 0.0046308846 0.18441099 -0.15124509 -0.07155733 -0.063303106 -0.028724244 -0.1614445 -0.47596344 -0.24587235 -0.5411725 0.007929281 -0.11651958 -0.35465172 -0.109209344 0.040283814 0.29631972 -0.124882564 0.15437074 -0.14865237 -0.17228253 0.20360847 0.052516814 0.06971463 0.011627503 -0.151708 0.037009995 -0.1586345 -0.3670131 -0.054212704 -0.028131656 0.4621092
6239.K07A1.11 -0.3495082 0.20664525 0.111727476 0.10526536 0.20501527 -0.14779642 0.21624875 -0.062307484 -0.15058243 -0.065043904 -0.5085865 0.17608973 -0.2582446 -0.357918 -0.046164524 0.073779784 0.30770174 -0.7249098 0.02476207 -0.1596955 0.08358147 0.27692094 -0.12941825 0.24406973 0.084624864 -0.07582894 0.15762934 -0.14890654 -0.06122255 0.09323303 0.18477021 0.49563485
6239.F35H12.4 -0.16858676 0.3558876 0.09977162 0.06558703 0.3362115 -0.1839316 0.0054749115 0.13481797 -0.38073593 -0.023367984 -0.4219463 -0.14219297 0.11422613 -0.11706519 -0.09501159 -0.1493554 0.3372732 -0.47822085 -0.2106746 0.0063363644 -0.17027538 0.35108826 -0.24090384 -0.16283043 -0.2481561 -0.2094262 -0.2122216 0.083834596 0.1648799 0.026108017 -0.13311414 0.29439554
6239.F26H9.6 -0.186037 0.35063383 0.24977969 0.012912779 0.17565669 0.04210927 -0.2734591 -0.2607159 -0.3841246 0.11239272 -0.052886188 0.041000754 0.2086062 -0.37061086 -0.050281562 0.187716 0.11207596 -0.24965967 -0.2529235 0.011787707 -0.15579094 0.11059575 -0.36970598 -0.12903067 0.17742892 -0.173714 -0.14328039 0.3171919 -0.18479049 -0.09090955 -0.1304682 0.31114244
6239.ZK1307.6 -0.55065656 0.19957004 0.2483515 -0.062001564 0.23740189 -0.26993316 0.2001742 0.068542734 -0.48553887 -0.24798292 -0.31490698 0.08477265 -0.21243592 0.11913969 -0.1062957 0.14305645 0.22521295 -0.22672601 0.10870417 0.067664616 -0.18908739 0.27674288 -0.05876867 0.1758594 -0.09368428 -0.041304 -0.18979666 -0.24454392 0.021133538 0.094063886 0.16309676 0.51173836
6239.C48A7.1b -0.26268458 -0.20271568 0.25595576 -0.10534758 -0.24489862 -0.24730375 0.018571569 -0.15409866 -0.24186993 0.12087084 -0.12228856 -0.22141154 0.18035774 -0.15752989 -0.18225321 0.018163713 -0.29760435 -0.39992756 0.22586948 0.33634272 0.045287907 0.19273464 -0.09487107 0.06790649 -0.18215567 -0.21576817 -0.009094414 -0.04826329 0.10522749 -0.26621816 0.19484362 0.008631557
6239.C33D3.1 0.085706174 -0.011004433 0.27648407 0.08435009 0.26578572 -0.057188466 0.29210114 -0.048326854 0.05445143 -0.051692337 -0.17828421 0.28363833 -0.14228107 -0.023287224 -0.07562118 -0.23671503 0.16570385 -0.24601145 0.039375994 0.30013296 0.027465923 0.5979394 0.1178345 0.06449981 -0.075535245 -0.019202204 -0.04230172 -0.04370651 -0.103163846 -0.4749667 0.1408991 0.24577177
6239.C05D10.2a -0.19635077 0.0067423224 0.22011977 0.12639703 0.06408067 -0.0871748 -0.0037555408 0.33795217 -0.41242453 -0.1476984 -0.28897178 0.029809548 -0.21358061 0.0515841 -0.08332249 -0.06409461 0.32574338 -0.44221526 -0.06736339 0.29366955 -0.051956985 0.34476712 0.010786366 0.016298573 0.14319961 -0.24719518 -0.36418283 0.09017136 0.044520713 -0.0060757613 -0.06250113 0.23533899
6239.F23B12.8b -0.300942 0.21293573 0.09428948 -0.14708112 0.08972663 -0.3870374 -0.03827386 0.03187654 -0.58137697 -0.3091194 -0.32303804 0.14604038 0.00013338777 -0.061975352 -0.04790113 -0.16167475 0.25663015 -0.37626064 -0.078352235 -0.24323544 0.03389033 0.3186279 0.1807546 0.106450036 -0.18460245 -0.1475284 0.18925801 -0.05215933 -0.25729302 -0.03333037 0.17704035 0.6345851
6239.F11A10.1a -0.5387865 0.4168644 -0.0010702035 -0.058947176 0.19523878 -0.4997841 0.1932626 -0.14531216 -0.23423599 0.03460671 -0.5580144 0.13579267 -0.061767936 -0.1468384 -0.07495534 -0.014351662 0.29433742 -0.39733997 0.10770399 -0.054879036 0.10380746 0.26373205 -0.15660161 0.09603753 -0.080271594 0.038763188 0.06842808 -0.14824682 -0.04995635 -0.015629372 -0.08150973 0.44218928
6239.Y102A5C.18 -0.43809524 0.18585888 0.15680578 -0.00063443166 0.22555809 -0.38403347 0.1656645 0.23776923 -0.26479995 -0.21735188 -0.41133764 0.27135766 -0.064225316 -0.2183016 -0.06626935 -0.0065619536 0.25596294 -0.3844753 0.095784485 -0.16545498 -0.054149546 0.4146631 -0.036530145 0.35960788 0.11528692 0.06071177 0.34077188 -0.055636447 0.05067425 -0.15770453 0.17465134 0.49651647
6239.C44B11.3 -0.3815508 -0.21800856 -0.0015670296 -0.04047948 -0.1360911 -0.16144554 0.041015062 -0.3424455 -0.46792898 -0.3535578 -0.22501142 -0.1200818 0.05075316 -0.3589239 -0.041444063 0.03922781 -0.03733033 -0.26135573 0.03296411 -0.03148598 0.09856449 0.19247703 -0.1178155 -0.16094744 0.062336728 -0.38445118 -0.107890755 -0.3362077 -0.15638192 -0.0031165888 0.42456898 0.148854
6239.C30C11.4.1 -0.40254372 0.015054966 0.2803171 -0.055387955 0.008507222 -0.2142424 0.14264171 -0.12316402 -0.11715122 -0.2158713 -0.5515756 0.1481909 -0.072969064 -0.4481582 0.1847904 0.22792505 0.15108663 0.033319168 -0.13029248 0.19845122 0.08530737 0.082641155 -0.1939336 -0.1629287 0.013352142 -0.23145196 -0.26114687 0.065066844 -0.20142744 0.023297658 -0.2697477 0.322509
6239.T01G9.5b -0.65277135 0.34343538 0.2727734 -0.30368745 -0.13857263 -0.18837963 0.024772849 -0.05256178 -0.29625568 -0.23286612 -0.37018955 0.11269512 -0.14935581 -0.29878533 -0.018272456 0.058427144 0.35389847 -0.39408815 0.25749972 0.088502996 -0.07559842 0.10180361 -0.042563435 -0.0062828097 0.020317579 0.12436568 0.09395164 -0.22500205 -0.28123263 0.025837196 0.015117026 0.4576712
6239.F33D4.2a 0.009198673 -0.23702009 0.113174945 0.00852467 0.12490994 -0.21240515 -0.139963 -0.22004944 -0.19717455 0.027117146 -0.19068168 -0.005822931 0.42976582 -0.054016422 -0.10161534 0.24994199 0.16338444 -0.49175322 0.35814252 0.24968475 -0.0057554585 0.16594025 -0.22870935 0.073725246 0.0008091503 -0.17966947 -0.20756651 -0.15848929 -0.19037805 -0.17341422 -0.028659817 -0.018577982
6239.R107.8 -0.34558037 0.0033513687 0.38491133 0.14839613 0.17921022 -0.012976539 0.03946074 -0.07697389 -0.33530137 0.09461792 -0.17105983 0.16493142 0.04189902 0.029724533 0.31146863 -0.097331956 0.13619143 -0.13913932 -0.04288139 0.050719332 -0.14301758 0.32833186 -0.089135796 0.37038168 0.12962559 0.3233973 -0.01718914 0.24726549 -0.40888166 -0.22585301 0.2553245 0.27252164
6239.D2045.6 -0.4746826 0.18611847 0.12048185 -0.18054387 0.4430535 -0.23044719 0.05557912 0.11320769 -0.19266912 0.11362544 -0.28438 0.15100145 0.03251625 -0.15260221 -0.13598908 0.32982835 0.23595698 -0.20152289 0.10317949 0.022761771 -0.07446138 0.3686554 0.0040611047 0.1381192 -0.12444183 -0.023233555 -0.25328973 -0.18683654 -0.09636152 0.13024856 0.013410571 0.55280346
6239.F11A10.3a -0.6093104 0.40935785 0.37414202 -0.0240594 0.18892993 -0.048537668 0.30329657 -0.002621054 0.017709015 -0.11781089 -0.34853917 0.17536785 -0.14333658 -0.14899883 -0.09339602 0.032505713 0.22691667 -0.45179725 0.15289459 0.2412312 -0.026990186 0.26852944 -0.095642306 0.18914533 0.13408282 0.054461624 0.15035044 -0.097767696 -0.012666851 -0.024011632 0.11726235 0.45910504
6239.F20G4.3 -0.44093987 0.17893815 0.29417217 -0.24613488 -0.16964541 -0.31181657 -0.21217093 -0.17750487 -0.41004246 0.051465165 -0.27731413 -0.091589145 0.11397213 -0.1554561 -0.16803673 -0.44247258 0.37674168 -0.255675 0.19111878 -0.061588917 0.0479582 0.2176214 0.12028886 -0.036044154 0.0104224365 0.1094693 0.22220299 -0.04509208 -0.159384 -0.07531141 -0.06382964 0.5042592
6239.ZK507.6 -0.43850088 0.28821796 0.08398883 -0.059972215 0.17401038 -0.28212816 -0.03448578 0.14831245 -0.3494352 -0.24003689 -0.44070452 0.27579734 -0.027966762 -0.12517883 -0.06492133 0.16949028 0.3266438 -0.29971737 0.12044819 -0.113418005 0.03974428 0.51102173 -0.05517548 0.35143405 -0.11799964 -0.01279112 0.024108717 -0.15104872 -0.045302197 0.054866597 0.03846404 0.5216171
6239.R09B3.1a.1 -0.4608613 0.34323922 0.3730084 -0.25362504 -0.030991532 -0.19340055 0.3356114 -0.0022185603 -0.11929971 -0.1521147 -0.4546922 0.3169616 -0.22168066 -0.36833903 0.36118224 0.11355074 0.43904662 -0.6227013 -0.021262795 0.15393476 -0.031479202 0.12900676 -0.15228696 0.056490738 -0.050367706 -0.2790398 0.14375862 -0.2306873 -0.19090492 -0.035810065 -0.14230327 0.12921454
6239.B0205.7 -0.44762102 0.0091949925 0.2598192 0.28714332 0.11632758 -0.19554372 0.16352467 0.027252363 -0.21853015 -0.034976076 -0.34351566 0.14729887 -0.08904079 0.08554067 -0.17514463 0.1646508 0.15505238 -0.23824385 0.064216666 0.09005928 0.06413718 0.38132578 -0.1565768 0.074311264 0.060409762 -0.10622552 -0.09556454 0.1725956 0.106637314 0.14225258 -0.06127428 0.5603277
6239.C48D1.2a -0.3348887 0.062664784 0.31364703 -0.35356322 0.14745319 -0.13983457 -0.2357722 0.2285575 -0.2707814 -0.073669694 -0.2696093 0.20094338 0.0023254328 -0.23190466 0.09991727 -0.1222166 0.54839706 -0.080187075 -0.18980365 0.19677083 -0.22714366 0.18407096 -0.31359133 0.41537976 0.11572726 -0.41980138 0.058045223 0.057827193 -0.05089656 -0.2519781 0.19988264 0.22305849
6239.F49E11.1b -0.5460527 0.20405957 0.38973093 -0.07441022 0.13190602 -0.072821625 -0.041234992 0.29454866 -0.3436136 0.12702681 -0.30569884 0.023467889 -0.15236847 0.10263486 -0.26727405 0.059239928 0.31155875 -0.20568389 0.073658854 0.034595873 0.09931072 0.2496157 -0.22823521 -0.038567238 0.025323894 0.06829245 -0.13239509 -0.06956445 -0.18769409 -0.18870148 0.020499436 0.55064344
6239.F31E3.3 -0.47984058 0.4066408 0.3364026 -0.041013174 0.1189237 -0.15284863 0.16656451 -0.08890446 -0.1721179 -0.105768606 -0.5380572 0.2984592 0.045603108 -0.3829469 0.16691312 0.07099922 0.26499373 -0.62206167 -0.0876196 -0.098435365 0.035639767 0.19700114 -0.12103513 0.1830273 -0.029373016 -0.21689133 0.2899059 -0.19446334 -0.11745133 0.19486907 -0.042307843 0.3531793
6239.T24H10.7a -0.15630957 0.059868116 0.396586 0.032326814 0.47592556 -0.20504396 0.24481551 0.2861335 -0.10665173 -0.22353892 -0.39516908 0.0259345 0.06987478 -0.09187135 0.19238159 -0.022949664 0.035993934 -0.18820378 0.09152463 0.15434441 -0.083152935 0.46628088 -0.05084938 0.32851583 0.09840372 -0.0032546564 -0.22777835 0.16477063 0.25706023 -0.13010599 0.0366527 0.28577784
6239.R08E3.4b -0.24059497 0.11214344 0.017430035 0.17216328 0.35399547 0.107810505 0.26385173 0.103426866 -0.20433137 -0.12840867 -0.35464463 0.10741619 0.0422683 0.037354637 0.013684894 -0.1395307 0.06410077 -0.32365382 0.04913037 0.16373792 -0.09390918 0.5209672 -0.040152017 0.286096 0.288442 0.16807781 -0.2016821 -0.035852462 0.067701355 -0.1826076 0.11793973 0.53615636
6239.C25F6.2a -0.3075052 -0.0018869526 0.44399688 0.086666495 -0.2293478 -0.33007833 -0.112756275 0.036743615 -0.51468325 0.25790906 -0.21603318 0.047094915 0.09176535 -0.121518955 0.32802498 0.12746835 0.023838691 -0.16566765 -0.080239125 0.15409815 -0.22725017 0.26116973 0.096595384 0.13167027 0.10216793 0.07434559 0.18079293 0.09795207 -0.077616476 -0.031809375 0.085752614 0.019618133
6239.F58A4.8 -0.4181546 0.28153685 0.17145228 -0.12835859 -0.05090573 -0.19654892 -0.1256188 -0.15451956 -0.49603704 -0.2696338 -0.353392 0.04975326 -0.19756383 -0.30934754 -0.007435733 -0.03481943 0.3536489 -0.39113024 0.06404761 -0.14170407 -0.15003684 0.23994331 -0.009966778 0.039238684 0.0073879734 -0.2679674 0.084600285 -0.1886351 -0.18914354 0.090649046 0.06595604 0.42667824
6239.VC5.4.1 -0.42495364 0.26249892 0.17231877 0.096591234 0.38111505 -0.2643722 0.2184234 -0.11427988 -0.16715391 -0.15125231 -0.5716766 0.1728287 -0.13931236 -0.08218739 -0.030142931 0.067479596 0.25635153 -0.6595032 -0.27829137 -0.05949519 -0.0056404453 0.26261955 -0.09768963 0.37129194 0.15840277 0.07496348 0.08971555 -0.071493946 0.14407624 -0.11856018 0.20696965 0.21006772
6239.Y43F4B.6 -0.5098469 0.4082715 0.24985105 -0.16166109 0.008881441 -0.38060609 -0.105601475 -0.018290894 -0.5892549 -0.3024558 -0.34040624 0.0050020865 0.022709524 -0.10989493 -0.09534918 -0.15086788 0.34753492 -0.4983613 0.03522939 -0.25446647 -0.0319959 0.24758309 -0.017051809 0.18039374 -0.18795876 -0.2327213 0.19568901 -0.12566839 -0.161664 -0.019663416 -0.055524766 0.39340362
6239.M79.1a -0.2743154 0.049267776 0.39536488 -0.008738371 0.03262626 -0.37738967 -0.2644163 0.29930636 -0.40766844 -0.0011032193 -0.19118021 0.084677346 0.19899914 -0.031357575 0.045247342 0.08894563 0.33722162 -0.23468754 -0.24346311 0.07543636 -0.037828315 0.44613644 0.009679428 0.19547185 0.040144987 0.01655604 0.043627705 0.25720286 0.094901204 0.04724445 -0.006963409 0.16410637
6239.ZC101.2e -0.07438991 -0.45062673 0.37432605 -0.23280743 0.064466126 -0.16510732 -0.17934163 -0.27454552 0.062019024 -0.05357374 -0.27025265 -0.2679655 0.08916448 -0.15931109 0.032063644 -0.063209586 -0.1988065 -0.42945632 -0.11141988 0.27631018 -0.1636411 0.20305236 -0.034856897 0.09274176 -0.023631152 0.10881144 0.3871704 -0.038462285 -0.37278354 -0.10778521 0.44034106 0.18366367
6239.F25H5.4a.1 -0.2819494 -0.2063891 0.44448966 0.13077171 -0.13463081 -0.3072805 0.046497393 -0.03312992 -0.011103902 0.09615961 -0.8341094 0.19402523 -0.1552776 -0.40553012 0.03445547 0.065613486 0.23793682 0.050789073 0.093779795 0.13011228 -0.17489412 0.10323975 -0.1491259 -0.3349792 -0.05152472 0.040378407 -0.16342644 -0.06584913 -0.0015988004 0.12036404 -0.19143596 0.3597163
6239.M7.1 -0.55069834 0.09256481 0.10753797 -0.21118517 0.3664384 -0.19291127 0.16877133 -0.03824769 -0.0900639 -0.07544635 -0.3467728 0.3004586 0.20839457 -0.14295994 -0.06003667 0.31053916 0.09505891 -0.09243978 -0.20435044 0.094432995 -0.1519687 0.29836455 0.044296514 0.2552356 0.08652586 -0.11882848 -0.1762074 -0.28115115 -0.13200077 -0.001213472 -0.43003637 0.55511874
6239.Y67D8C.5h -0.66173667 0.32485995 0.26977882 -0.12212972 0.24677011 -0.4487029 -0.020446584 0.2596863 0.13370793 0.27808982 -0.46978143 0.095188946 0.25877088 -0.099815175 -0.23397611 0.23436478 0.1386052 -0.09874594 -0.006549706 0.03248584 -0.10315129 0.4215506 0.010356682 -0.16315047 -0.045710955 0.12800632 -0.27644363 -0.21808091 -0.10545793 -0.0011783319 0.049763534 0.3509811
6239.C08A9.1 0.15586475 0.02012285 0.3047817 -0.2348774 0.18543865 -0.5459293 0.38565624 0.067471266 -0.08669563 -0.27102947 -0.27146903 0.3212267 -0.2644317 -0.518332 0.21521996 0.0837173 0.112882234 -0.12720427 -0.022936584 0.2893995 -0.20772876 0.31253332 -0.15608476 -0.33924577 0.1069064 -0.035071258 -0.16701329 -0.0336263 -0.044247214 -0.1729527 -0.5144358 0.046627168
6239.Y53C10A.12 -0.21296383 0.11668146 0.30816782 -0.1092201 0.2657563 -0.3258774 0.2360862 0.18251543 -0.0015621083 -0.26448146 -0.23567891 -0.029129783 -0.29810145 -0.14586408 -0.12224176 0.070751145 0.2261838 -0.2981203 0.06092222 0.10421828 -0.06547971 0.5411237 -0.07875887 -0.14453961 -0.03182001 0.027923558 -0.25671384 0.08588326 0.045637622 -0.24468084 -0.16275807 0.24724226
6239.F53G12.1.1 -0.15166385 0.24096201 0.32621053 0.21904819 -0.010000177 -0.0027081568 -0.17048523 -0.117220804 -0.5755403 0.022969013 -0.063834816 -0.07013077 0.25170845 -0.25270548 -0.12035736 -0.032659844 0.1693006 -0.3335179 -0.27942023 -0.0733242 -0.019392345 0.08345887 -0.14385998 -0.047211334 0.108206935 -0.18297867 -0.17118973 0.10941869 -0.16426593 -0.0583221 -0.29497105 0.46491557
6239.Y37D8A.23a -0.3099552 -0.34633663 0.30615357 0.12633999 0.10733997 -0.23131528 0.04477469 -0.3451116 -0.35670924 0.01494829 0.22480834 0.3219715 0.046140138 -0.34768167 -0.21830171 -0.019276649 -0.037665814 -0.098989174 0.11894714 0.34959114 -0.05064214 0.24758124 -0.16796903 -0.2210653 -0.0026637104 -0.097642355 0.28821656 -0.2440535 0.023188936 -0.1825876 0.3790675 -0.24724586
6239.F59A2.1b.1 -0.5140104 0.38983175 0.401398 -0.14877221 0.05767414 -0.16489266 -0.09959138 -0.09177814 -0.39712727 -0.20194858 -0.5410169 -0.15221405 -0.047008682 -0.2826096 0.15005796 -0.046203684 0.14608438 -0.2770846 0.23166704 -0.36250594 0.04661348 0.31523275 -0.45524096 -0.05920061 -0.10502207 -0.053808797 0.017214764 -0.17870967 -0.13534786 0.041444212 -0.046903517 0.3881649
6239.F52E1.1 -0.3153087 0.10765011 0.7002657 -0.06569673 0.09912397 -0.20281279 0.15018323 0.03119344 -0.0653401 -0.10585767 -0.33390236 0.18672943 -0.20509678 -0.20863377 -0.13244718 -0.15019426 0.47041684 -0.54875 0.0979035 -0.12896109 -0.24016252 0.049778428 -0.29671645 0.26474047 0.28310522 -0.18583712 0.2071953 -0.37608573 -0.29392838 -0.2194851 0.020164538 0.32134414
6239.C10C5.6c -0.123202994 0.2368039 0.014882181 -0.057534076 0.38254008 -0.3413363 0.049277883 0.32734755 -0.21670382 -0.023056712 -0.284169 -0.16638087 -0.037444673 -0.23592408 -0.17086618 -0.19137242 0.16300477 -0.23160698 -0.053138144 -0.0021565245 -0.23515935 0.44806486 -0.46437058 -0.2848566 -0.1801977 0.05683592 -0.19454202 0.020514729 -0.09085982 -0.24786873 -0.13264202 0.33126438
6239.K03D3.10 -0.31661955 0.2092438 0.13716823 0.15841773 -0.042624332 -0.13664067 -0.27500287 0.17926082 -0.65877736 0.06640886 -0.088329464 -0.10054161 0.049792953 -0.26679462 0.07668047 -0.23443289 0.19929591 -0.32158625 -0.29242805 0.053335726 -0.00711254 0.34134614 0.05903185 0.053959265 0.101881534 -0.19047818 -0.082148634 0.010635635 -0.0783793 0.06670451 -0.21566367 0.31776488
6239.W03C9.3.2 -0.12279316 0.36617988 0.28268588 0.052078728 0.22552975 0.09643984 -0.24184588 -0.09959486 -0.36842903 0.15745427 -0.11069155 -0.008174047 0.3675601 -0.4819086 -0.04453062 0.14350885 0.2153565 -0.18776058 -0.33395508 -0.07443894 -0.17233616 0.09280561 -0.28032693 -0.18328318 0.07750994 -0.18393959 -0.06404207 0.09045244 -0.25485784 -0.2573142 -0.14551347 0.42588708
6239.F55B12.3a -0.6018691 0.14197168 0.31089386 -0.31343466 0.3368513 -0.14850116 -0.040297743 0.0060220887 -0.14040723 0.196235 -0.35822713 0.10435683 -0.13358709 -0.2997962 -0.13416447 0.07928651 0.18913282 -0.32698867 -0.010032982 -0.08552225 -0.06390212 0.37926507 0.11390977 0.21291117 0.0024018968 0.21256357 -0.058632262 -0.2428742 -0.047098838 0.09001669 -0.066813886 0.3789979
6239.C26C6.1a -0.25767317 0.17728876 0.10106989 0.05786061 0.25437933 -0.23329768 0.22300777 0.09180858 -0.15982875 -0.10671875 -0.4865931 0.23281689 -0.10602436 0.045389127 -0.21222918 0.23927763 0.21971455 -0.41166753 0.14318272 -0.14048165 0.058589432 0.5717071 -0.07424098 0.17209041 -0.13515127 0.3218757 -0.064918555 -0.041459978 0.07736061 -0.28347707 0.16860822 0.532311
6239.C03C10.3 -0.3115584 0.48077592 0.32455993 0.031559642 -0.10635398 -0.16096139 0.15496309 0.08703349 -0.1204482 -0.10675874 -0.43869302 0.31238294 -0.17305626 -0.50569224 0.13089284 0.06611731 0.32923418 -0.71200657 -0.00341639 -0.09156217 0.0068492247 0.20997201 -0.22449882 0.13278535 -0.041389648 -0.12940794 0.25432122 -0.16811053 -0.086609535 0.057043444 0.17771053 0.5041449
6239.T01C8.1b -0.100169085 -0.04143863 0.11066037 -0.25946656 0.30385786 0.025210302 0.14990453 0.30973133 -0.41074115 -0.322345 -0.17128548 0.08567619 -0.2695304 -0.15195645 -0.079308875 -0.022498155 0.20819108 -0.25646043 -0.12139575 0.34628695 0.004760283 0.40707767 -0.25134078 -0.20256773 0.031628314 -0.1227691 -0.12959571 0.015794959 0.055690542 -0.09596772 -0.25758374 0.40705827
6239.C38C3.5b.2 -0.40599957 -0.077910595 0.06909669 0.04181519 -0.0666838 -0.06291488 -0.21605176 -0.13630249 -0.24511422 0.1560889 -0.30132583 -0.10659286 0.18852933 -0.38016912 0.052340396 -0.09398451 0.29614058 -0.2603144 0.037805825 0.24338956 -0.08144715 0.25864074 0.12120358 -0.16280647 0.1542365 -0.124796756 0.10190679 0.13046087 -0.25125223 0.05796169 -0.27786323 0.2292789
6239.ZK154.3 -0.33407918 -0.033596523 0.043063495 0.047781657 0.002528731 -0.07502126 -0.08714119 -0.31454718 -0.4653719 -0.24628064 -0.17168386 -0.023142599 -0.16669297 -0.40399647 0.12554352 0.02206371 0.09614173 -0.082024805 -0.11215475 0.20274659 -0.001272721 0.3366819 0.1577986 0.011505663 -0.0073963357 -0.1703516 -0.00021370049 -0.039514065 -0.19945548 0.010299973 0.34424502 0.15408841
6239.Y65B4BR.4a -0.57439476 0.28256142 0.045342337 -0.14219677 0.3751093 -0.23424296 -0.005611187 0.22223163 -0.23081742 0.2637789 -0.2846253 -0.03115248 0.113052115 -0.23826668 -0.21983586 0.090866946 0.10094836 -0.085128255 -0.020417344 0.15693173 -0.21333785 0.3850209 -0.17712036 0.045187145 0.25772092 0.17196319 -0.21927138 -0.14433002 -0.040069517 0.034018576 -0.14761603 0.2893922
6239.C47E12.5a.1 -0.7573871 0.464456 0.37587658 -0.37273172 0.32262048 -0.09200722 0.16658866 -0.04515521 -0.037081644 0.22519068 -0.33642897 -0.068147965 0.05500463 -0.3854629 0.07855884 0.16708115 0.3008462 -0.04826101 0.033296604 0.09943769 -0.14270233 0.20482992 -0.3510296 -0.24288292 0.051286433 -0.11394806 -0.26537982 -0.28334072 -0.19855 0.100966424 -0.13970394 0.28134722
6239.B0336.2.1 -0.11161871 0.19542526 0.123051345 0.17133053 0.10220257 -0.068114854 -0.15144011 0.01712234 -0.70533293 0.10545717 -0.27890185 -0.04950363 0.15202585 -0.2909431 -0.056104004 -0.17827174 0.06471832 -0.40014347 -0.15392858 -0.09601097 -0.057561386 0.14438035 0.08343313 -0.04965141 0.011193816 -0.25853854 -0.23359507 0.0818529 -0.13919991 -0.030379705 -0.41319656 0.34392855
6239.T10A3.1a -0.5975293 -0.03844238 0.04553607 0.049777977 0.04228773 -0.037362948 -0.11818795 -0.13484603 -0.4130799 0.17102921 0.012368404 0.17794082 0.16006133 -0.1915089 -0.11968306 0.102075905 -0.011226716 -0.3241873 0.045866042 0.31143227 -0.2964325 0.2241488 -0.1233183 -0.011710038 -0.20272635 -0.19684303 0.24944359 0.12429356 -0.14498596 -0.18915296 0.04956623 -0.08432905
6239.C01G6.8a -0.55627877 0.07146162 0.41052592 0.23593052 0.16265187 -0.26516482 -0.18966757 0.32394174 -0.35118496 0.11261674 0.04046924 0.23539105 0.10989045 -0.23641683 0.05894399 -0.06074896 0.03159608 -0.20297837 -0.066120826 0.16974162 0.047077004 0.2244577 0.056650724 0.2693824 0.038640153 0.082317054 -0.07822211 0.16943876 -0.06565162 -0.0758395 0.13759781 0.13218005
6239.C55B7.1 -0.6623365 0.1563147 0.6182529 0.101690784 -0.086292095 -0.23715308 -0.0504957 -0.13332443 -0.18880303 -0.09189789 -0.6558104 0.06326276 -0.35994083 0.035191793 0.047760013 -0.16648415 0.345421 -0.30549455 -0.06082601 0.0040472024 -0.127559 0.059532885 -0.52865624 0.04220556 0.09468106 -0.062714525 0.2335248 -0.2746928 0.0037702075 -0.07823011 -0.07316113 0.35529128
6239.F58A4.3 -0.59433484 0.36817986 0.29181185 -0.18706247 0.06077903 -0.13993323 0.2416374 0.06465059 -0.33756107 -0.29747766 -0.5331038 0.19595066 -0.060514707 -0.18972753 -0.05529913 0.16783102 0.25028113 -0.6065973 0.16628852 -0.16682063 -0.05021167 0.25196365 -0.09050747 0.17102887 0.1936365 -0.04145483 0.3057015 -0.11034721 0.0104596615 -0.08542056 0.059700888 0.43381622
6239.Y37D8A.9b -0.44812977 0.30109861 0.1770376 0.058718916 0.13987976 -0.23149188 0.17091094 -0.01733355 -0.13598725 -0.19421086 -0.58330905 0.202799 -0.25124475 -0.31161702 -0.14583208 0.056802996 0.32337645 -0.5970807 0.075441524 -0.18159164 -0.1144922 0.33516636 -0.07873875 0.21816474 0.18310302 -0.0018228572 0.34800744 -0.1294356 0.012555638 -0.20071411 0.105751365 0.44399744
6239.VW02B12L.1.1 0.25998417 -0.08745036 0.40500152 0.07459085 0.5212771 -0.31362483 -0.013717321 -0.5225622 -0.21592426 0.19156201 -0.052990563 0.071723856 0.31902504 -0.23178537 -0.29132637 -0.02686301 0.13246287 -0.21190247 0.17764337 0.11064042 -0.022026964 -0.027394386 -0.274999 -0.34683615 0.48722667 -0.28782752 -0.007923204 -0.16368833 -0.2837241 -0.18273093 -0.04082261 0.14278713
6239.C27B7.1b -0.5343442 0.15470393 0.42006263 0.067798495 0.02400689 -0.037045605 0.11141197 -0.15039894 0.022013543 -0.13801493 -0.56700826 0.12255822 -0.13633505 -0.31832185 0.018144349 0.053195275 0.41585705 -0.54095244 -0.011052165 0.009026048 -0.05146425 0.23803504 -0.3384875 0.13895106 0.17250821 0.07814095 0.026814671 -0.12834719 -0.037167307 0.19324201 0.059472945 0.21374619
6239.F15C11.2a -0.6877986 0.054005794 0.12762171 0.06806259 0.19054726 0.010786037 0.09500789 -0.12366323 -0.045901798 0.044677667 -0.5017803 0.16043511 0.28956452 -0.40969372 -0.04673124 0.278236 0.047404204 0.020092664 0.1537241 0.09785268 -0.34299564 0.31546357 -0.12481698 0.108317785 0.18369222 -0.18107378 -0.29188994 -0.08072593 0.04139005 0.21720043 -0.18259665 0.2808041
6239.Y92H12A.1 -0.42891905 0.11195834 0.40060994 0.038124744 0.0026747033 -0.34651372 -0.3188395 0.502773 -0.3258264 0.10873726 -0.20750427 0.13212222 0.27702036 -0.119047485 0.053650815 -0.009423532 0.20092039 -0.18528295 -0.28183827 0.21038584 0.039621796 0.31753364 0.028929055 0.030479783 0.11854347 0.09026371 -0.10748214 0.04596085 0.19928615 0.033403084 -0.060720917 0.26396033
6239.F26F12.7 -0.46805292 0.23950097 0.07840518 0.23014562 0.35124144 -0.40396848 0.25363022 -0.13253452 -0.14946978 -0.065466814 -0.74486333 0.21628617 -0.07884809 -0.022190766 -0.0128451735 -0.03624562 0.33035743 -0.22110829 0.017768158 -0.119298674 -0.03626219 0.3745734 0.0553026 0.2178563 -0.20649074 0.14237072 0.032344304 -0.059841566 -0.036040936 -0.30831155 0.1790182 0.41850445
6239.T23G7.1 -0.52277946 0.22135735 0.2576016 -0.046055946 0.15211158 -0.3960175 0.18503977 0.12985 -0.19927092 -0.22311665 -0.39248317 0.1748 -0.1342734 -0.29732513 -0.10780624 -0.03763717 0.34799913 -0.5709129 0.032162793 -0.18175957 -0.048868816 0.18707006 -0.08834988 0.36244723 0.09990927 0.091372706 0.32564253 -0.09338896 -0.21770358 -0.21118315 0.18686119 0.42422763
6239.F15A2.6a -0.29827788 0.026822304 0.22643825 -0.06672071 -0.19110033 -0.13183497 -0.060281947 -0.2114049 -0.5490286 0.008646149 0.046363667 -0.18633716 -0.13951625 -0.16250908 -0.15065722 0.13502829 -0.17777084 -0.55360025 0.21523641 0.38466066 -0.043953877 0.09335158 -0.105097555 0.23874076 -0.3448751 -0.19123653 0.064083375 -0.07642716 0.2602963 0.0014115453 0.24672216 0.259826
6239.Y108G3AL.1.2 -0.6061787 0.26786843 0.29090723 -0.34604836 0.48155764 -0.0777905 0.038295016 0.0900392 -0.18315509 -0.025146006 -0.32987696 0.1150668 0.053637076 -0.18951274 -0.04095516 0.2541297 0.16704516 -0.19510551 0.09003063 0.07876849 -0.103804484 0.29283813 0.02439164 0.061416853 -0.017651241 -0.09696766 -0.2949516 -0.21674871 -0.036196616 0.18944992 0.057498973 0.42097026
6239.C47B2.3.1 -0.5237938 0.0925873 0.041224692 -0.025099106 -0.0991415 -0.12589954 -0.101099595 -0.03636176 -0.45407945 -0.090664335 -0.4776084 0.22001198 -0.16995358 -0.45969215 0.024427319 -0.20498073 0.18108545 -0.25334933 0.29012245 -0.36997443 0.1075806 0.3835952 0.033905327 -0.009973513 0.08069634 -0.31564662 0.105954364 -0.097424425 -0.2660612 0.017554814 0.04145779 0.47947603
6239.Y60A3A.12 -0.45243183 0.24915576 0.010176495 -0.32123503 0.36569533 -0.09315254 0.161431 0.15034443 -0.55197084 -0.27981588 -0.5544329 0.18868311 -0.18485661 0.2594628 0.09004314 0.040601093 0.34128848 -0.48767045 0.06650885 0.220143 -0.103803955 0.3964469 -0.052189153 0.05711556 -0.07060177 -0.36939272 -0.0053850133 -0.018536216 0.037951145 -0.061343066 0.07202989 0.14457467
6239.W10D5.1 -0.30669048 0.020237338 0.18661015 0.21766774 0.1495492 -0.05677858 0.19760928 -0.025077535 -0.19884755 -0.2654549 -0.20857936 -0.12625392 -0.024618827 0.038583733 -0.029694427 -0.21315373 0.00783748 -0.34624648 0.1273184 0.23118497 0.12588432 0.53551775 -0.010947979 0.07367593 0.17112896 0.12542656 -0.11579027 0.06438182 0.19637021 -0.21412736 0.36043406 0.2478388
6239.F35G12.8 -0.33485 0.29345396 0.089803696 -0.24806696 0.1704526 -0.4476217 0.022664964 -0.17005588 -0.30214864 -0.17984635 -0.6150072 0.236091 -0.060166392 -0.18480223 -0.16482954 -0.02353143 0.37164783 -0.43177602 0.12845807 -0.097654566 0.073296644 0.30161718 0.07068398 0.15986475 -0.44966447 -0.0071975463 0.2690572 -0.094147645 -0.032965127 0.024011075 0.008713794 0.53414977
6239.Y57G11C.13 -0.1942624 0.20905049 0.28642517 0.15397684 0.04219706 0.0050498885 -0.09162379 0.01254796 -0.51527965 0.08320444 -0.017582327 -0.082320765 -0.01179926 -0.36520475 -0.21926245 -0.07093233 0.07278406 -0.6197571 -0.30740392 -0.140652 -0.08344613 0.08411798 -0.1469968 0.06471583 -0.041959144 -0.11950541 -0.3461311 0.043094583 -0.18879536 -0.014598548 -0.2940887 0.35238102
6239.C05D2.1a -0.2069203 -0.036146 0.15816456 0.003567354 0.020422256 -0.08251156 0.10897334 0.26971066 -0.28764078 -0.038836554 -0.083606526 0.13685386 0.24063413 -0.0040543037 -0.18111558 -0.44638148 -0.1837446 -0.21903424 -0.36502782 0.18139663 -0.025452787 0.60873145 -0.33005324 0.14798582 0.06837623 0.047041174 0.0021772394 0.11532536 -0.17912695 0.0323753 -0.13693206 0.29039118
6239.F58E10.3a.1 -0.4260382 -0.015284034 0.32590768 0.42682666 -0.029322855 -0.36021325 0.026155667 -0.032578636 -0.18645658 -0.12640078 -0.6483456 0.2306075 -0.2771985 -0.114037916 0.099396706 0.20565075 0.21117239 -0.18247001 0.0018836511 -0.08437615 -0.10432345 0.3030209 -0.30100822 -0.14767218 -0.14943981 -0.034299005 0.123116136 -0.14026384 0.077167414 0.07893435 -0.08337389 0.51776
6239.C51E3.7a -0.30255395 -0.19581133 0.19213335 0.03256797 0.12600817 -0.22592644 0.15349759 -0.17065896 -0.13326603 0.07470968 0.18042348 0.16475424 0.14093575 -0.33338672 0.011939722 -0.26939014 -0.17485352 -0.3757482 0.23405533 0.2025323 -0.03797796 0.14073455 -0.35272318 -0.33656675 -0.11603102 -0.4872396 0.094421305 -0.035529308 0.02662564 -0.30762333 0.18883976 0.043062247
6239.F38E1.7 -0.49835914 0.2432428 0.63734317 -0.06901203 0.006133455 -0.021378772 0.1852884 0.05562432 -0.20564993 -0.09417386 -0.032406487 0.34448463 -0.058579672 -0.23546465 0.2126689 -0.30090266 0.4301063 -0.5057354 -0.11055578 -0.10415028 -0.039821446 0.24767008 -0.1170474 0.41693947 0.40165883 0.08786973 0.19460791 -0.0045925495 -0.2766242 -0.20727889 0.37264317 0.19635727
6239.K04D7.1.3 -0.26240322 -0.28832772 0.3380371 0.07857808 -0.12212565 -0.22241236 -0.09494699 -0.020363111 -0.2806462 -0.033486653 -0.8005032 0.047810078 -0.012617631 -0.3753069 -0.040941413 -0.014118755 0.13231842 -0.09382284 -0.0550026 0.15729545 -0.0061330446 0.24564141 -0.22156525 -0.11882003 0.1154483 -0.085411936 -0.19375119 -0.23795378 0.08495542 0.32846996 -0.38487893 -0.08820762
6239.T05G11.1a -0.4473643 0.49297598 0.44009355 -0.15057155 0.10877746 0.12166661 0.31846207 0.08964241 -0.17566842 -0.05357684 -0.42010027 0.017922673 -0.2861602 -0.29759005 -0.09403332 -0.07905485 0.37037054 -0.6243827 -0.0070528514 0.06778314 -0.044407036 0.17855191 -0.1645887 0.20883518 0.35511464 -0.14787462 0.013912977 -0.11570499 0.016885832 -0.15177344 0.35516465 0.31986168
6239.C27B7.8 -0.35138732 0.027870039 0.10784196 0.10568537 0.15967625 -0.14003278 -0.16445175 0.19883427 -0.5996505 0.042354453 -0.123846605 -0.14674984 -0.017011857 -0.3632659 -0.15810835 -0.23856653 0.08247559 -0.4154128 -0.25650427 -0.02560926 0.23446986 0.10299895 -0.13815115 0.18513878 0.12501831 -0.2092257 -0.12399241 0.006034863 0.018635254 0.0031597984 -0.21815446 0.46470982
6239.T05E11.4 -0.5250675 0.31635028 0.5764333 -0.2095222 0.12965554 0.0376824 0.1489723 -0.0067450884 -0.2010295 -0.26858148 -0.5268702 0.15748872 -0.07254034 -0.15677279 0.15546398 0.09935515 0.41579998 -0.57056177 -0.20528214 0.106846265 -0.07907937 0.21228819 -0.08367178 0.066809714 -0.036310524 -0.2145557 0.34205052 -0.30571663 0.1472887 -0.059464775 0.10708233 0.20337892
6239.Y41D4B.13a -0.3660265 0.19342661 0.3168663 -0.16777268 -0.053501308 -0.24012381 -0.2816234 0.16339678 -0.20141931 0.015875604 -0.22483031 0.022288885 0.09608387 -0.2691604 -0.0155499345 -0.07379532 0.5241917 -0.50009334 -0.2964402 0.13648261 0.07372935 0.20592532 -0.37284675 0.5074534 0.3297283 -0.019068379 0.20673862 0.07789371 0.084128946 -0.1375569 0.10183278 0.18770067
6239.F57H12.1 -0.14338228 0.2135953 0.2616516 0.21810223 0.14600737 -0.034990218 -0.16995254 -0.029705105 -0.6466254 0.08074204 -0.3445943 -0.10526051 0.17840342 -0.30395967 -0.07006618 -0.15685782 0.035024103 -0.31681758 -0.19482507 -0.21234688 0.04680844 0.115660846 0.07166179 -0.050019864 0.09685485 -0.10255312 -0.31379366 0.09629627 -0.2341981 0.013698153 -0.3051091 0.45066994
6239.F26E4.8b -0.29197368 0.08117244 0.0018556134 0.07991205 0.051188134 -0.22240402 -0.07527077 0.035701264 -0.45680532 -0.13420267 -0.37413472 0.2880705 -0.29594857 -0.46413583 -0.090734206 -0.0023295248 0.03843062 -0.10256939 0.09705152 -0.27331153 0.09323657 0.4298342 0.10927622 -0.032811146 0.19163099 -0.35087377 0.03382612 -0.18088913 -0.35495678 -0.13803945 0.083548196 0.39746612
6239.M01E11.6 -0.42266262 0.3724636 0.48327768 -0.15358569 -0.088833414 -0.056953188 -0.12064643 0.0068986877 -0.5922893 -0.37361783 -0.2574536 -0.00012818379 0.010345232 -0.13309988 -0.0077673607 -0.15836798 0.27700442 -0.60264206 -0.04122081 -0.2617387 0.009033196 0.20927557 0.007838833 0.11316814 0.025376081 -0.2770873 0.16925976 -0.20281525 -0.15222678 -0.07238005 0.01939856 0.37932003
6239.C27A2.1 -0.5280488 0.3897875 0.16459934 -0.2837141 0.2737471 -0.3319873 -0.096920155 -0.18024234 -0.19015768 -0.16439943 -0.6264859 0.24780297 -0.17223834 -0.0043187994 -0.068302296 0.053524088 0.364043 -0.53756434 -0.06794907 -0.055646747 0.012667836 0.2906978 -0.054297812 0.113393135 -0.18801959 -0.15206134 0.19916296 -0.23803036 0.037200514 -0.016272342 0.005030045 0.4664505
6239.F11A1.3a 0.040420324 -0.3226418 0.15033247 -0.356823 -0.09789858 -0.45630774 0.40145954 0.077923425 0.016770983 -0.09127592 0.08428353 -0.04174474 0.035872046 -0.12274246 -0.2034205 0.07059591 -0.13935412 -0.45337626 0.09711075 0.025586812 -0.30103773 0.5818925 -0.2559447 -0.042386953 0.08467133 0.08201624 -0.16112114 -0.31961444 0.044179834 -0.40214238 0.05789412 0.20473723
6239.F58E6.10b -0.27549207 0.24143292 0.22548018 0.079037346 -0.081104346 0.1394862 0.1448339 -0.5160039 -0.0046610176 -0.23960061 0.060530838 0.1363038 -0.12442368 -0.31516233 0.16143996 -0.28843924 -0.027976245 -0.17487068 0.035211496 0.27732787 -0.36010686 0.5179485 -0.000259609 0.4329548 -0.2677148 0.049167298 0.016309349 -0.24182488 -0.15298831 -0.2648732 0.31576046 0.35571963
6239.K08H10.7 -0.30606744 0.010341267 0.38494298 0.13358477 0.38984683 -0.50779194 0.28192133 -0.06760495 -0.1690174 -0.03892586 -0.36034614 -0.2596473 -0.073197305 -0.023750361 -0.3340005 0.030710239 0.39596605 -0.08200046 -0.3397777 0.055718552 -0.48387274 0.22344007 -0.2887906 0.30097407 0.033718392 -0.08946163 0.19451566 -0.09545648 -0.21163316 -0.3246893 -0.2272995 0.19572954
6239.F48E8.5.2 -0.38027215 0.0640212 0.3592685 -0.2211245 0.11753815 -0.049373675 0.03471207 0.035718635 -0.43800673 0.067009486 -0.2581522 0.06748324 -0.19687736 -0.0013164694 -0.07688373 0.15711573 0.175322 -0.049536984 0.27152887 -0.13575014 -0.12458199 0.37847355 -0.13800925 -0.17852053 0.02331625 0.08037464 0.041334704 -0.1329728 -0.079537794 -0.2669635 -0.25453943 0.7291234
6239.F26C11.2 -0.46214125 -0.1450464 0.2717922 0.1779066 0.25622407 0.20819406 0.20761272 -0.35563758 -0.19771618 -0.14895467 -0.07408695 0.31541145 -0.07939617 -0.30981365 -0.17533901 -0.34595534 0.1813275 -0.009421787 -0.008517443 0.07726302 -0.20690356 0.42549568 0.07298862 0.3839839 -0.16311267 0.12182823 0.15653224 -0.097693294 -0.15940696 -0.32350114 0.4376382 0.26526403
6239.T11F8.3.1 -0.3463657 0.17668842 0.69439644 -0.25970247 -0.14056036 0.043492593 -0.16626805 0.061169587 -0.3389063 -0.116744556 -0.24769266 0.3387104 0.070582725 -0.040163513 0.036869958 -0.033054315 0.18291469 -0.5220694 0.015398668 -0.14875482 -0.082348906 -0.006171106 -0.41493908 0.20105341 0.44720384 -0.13712935 0.12454083 0.046993032 -0.14903624 -0.3881681 0.02755217 0.24402243
6239.F29G9.4b -0.1903296 -0.13113283 0.28345123 0.033394206 0.32812363 -0.19705781 0.19744168 0.16388604 -0.25101644 -0.21494374 -0.23463796 -0.2118876 -0.082369216 0.14507644 0.124427326 0.07522561 -0.00467265 -0.27856642 -0.03623044 0.35654625 -0.08968628 0.4098456 0.025580615 0.34612682 0.11004945 0.012901382 -0.049393214 -0.08832562 0.09801408 -0.22052342 0.26998827 0.29202566
6239.C06C3.1c -0.4331265 0.072864175 0.10977396 -0.15537183 0.10779692 -0.16980372 -0.16482031 0.021281306 -0.4198663 -0.012211145 -0.30495855 -0.117041424 -0.09073856 -0.10253371 -0.13761522 -0.14089781 0.30845526 -0.25068292 0.018073058 0.17830278 -0.10310316 0.2129982 0.16787864 0.0304091 0.14299615 -0.036105487 -0.09790164 0.19431993 -0.13046215 0.08119338 0.074970596 0.5160169
6239.F29C4.1a -0.36615247 0.06539223 0.28498724 0.056630705 0.04932323 -0.1310652 0.07722301 0.30490318 -0.250675 -0.07360064 0.005438958 0.20741503 0.2537287 -0.10405424 -0.22290261 -0.26118478 -0.14598529 -0.09465068 -0.3524982 0.085501924 0.03159204 0.64216655 -0.2782498 0.08986482 0.18699016 0.15548259 0.024978084 -0.024016717 -0.16883561 -0.0500359 -0.16029048 0.21731408
6239.K07C5.1 -0.4042709 0.27809218 0.15258715 0.14370699 -0.106832184 -0.14036185 -0.27280226 -0.0646099 -0.15407893 0.40028778 -0.36940938 -0.03860947 0.15848565 -0.08219844 -0.07382627 -0.2145214 0.3540393 -0.46755338 -0.01421311 -0.0040712156 -0.104552224 0.42250332 0.1225275 -0.4883336 0.13430119 -0.09145527 -0.10801332 0.10335211 0.026661824 -0.0132391285 -0.15523082 0.3063679
6239.F45E4.1 -0.069583215 0.28774947 0.21179494 0.21613061 -0.0278158 -0.13322689 -0.10716005 -0.08190969 -0.68684375 0.04795629 -0.15427297 0.036549073 0.14888512 -0.13944483 -0.23668106 -0.12812318 -0.123727 -0.38321543 -0.19902152 -0.16625962 -0.02056704 0.2663961 0.12706293 0.07230281 -0.022854362 -0.38658652 -0.49215707 -0.021036537 -0.3244268 0.13565971 -0.45563605 0.35749894
6239.ZK1010.1 -0.73960507 0.035389666 0.16094705 -0.06404489 0.22551088 -0.11101322 0.3517276 -0.13813664 -0.0766063 0.26693523 -0.56448627 0.10230832 0.42811665 -0.44614366 -0.053813178 0.272059 0.10491535 0.028106973 0.15916169 0.16308916 -0.5097524 0.2607945 -0.05076312 0.1867173 0.44272923 -0.026617859 -0.102742314 -0.12505251 0.2936363 0.26428849 -0.23683485 0.21601492
6239.M7.5 -0.24243167 0.39388004 0.086844675 -0.26661584 0.36220795 -0.12073965 -0.13558963 0.21794309 0.10991636 0.08064879 -0.41830638 0.24107371 0.2305868 -0.5102072 0.023574278 0.3710379 0.44649148 -0.15636244 -0.14312679 0.18736981 -0.26377195 0.31423673 -0.11256833 -0.30200306 -0.088169955 -0.09269252 -0.39181966 -0.1800274 0.01982559 -0.02794316 -0.005188435 0.4768547
6239.C38D4.6a -0.21910189 0.14941971 0.73530596 -0.033089258 -0.01635461 0.25914758 0.16744347 -0.025519485 0.02521899 -0.15990615 -0.30911243 0.26094824 0.01230731 -0.16158883 0.17647919 -0.36200354 0.37405542 -0.32919487 0.078808814 0.14819251 -0.025190394 0.2700173 -0.21527524 0.45718676 0.22581491 0.044971094 0.0072739744 -0.1342715 -0.10641811 -0.2342839 0.3148729 0.33577976
6239.B0336.6.1 -0.5549645 0.46414217 0.46833977 -0.10328687 -0.12876086 -0.18189448 -0.27886367 -0.07457485 -0.07340123 0.14495245 -0.15880771 -0.009027323 0.07847224 -0.2924697 -0.10133484 -0.063265294 0.4762112 -0.71889293 -0.31869572 0.093228236 0.029335905 0.2086923 -0.18842664 0.29298145 0.30725244 0.008045053 0.35312992 0.010519155 -0.08971914 -0.01827557 -0.01753422 0.10432562
6239.F43G6.1a -0.4637772 0.4098401 0.4269004 -0.14894393 0.093957916 -0.4427809 0.014754761 -0.07106354 -0.27279466 -0.102187306 -0.6084855 0.24002536 -0.01444772 -0.043560546 0.1262283 0.027893974 0.4198622 -0.37993595 -0.074699804 -0.06304911 -0.0144950235 0.15894957 -0.25257874 0.12104883 -0.2504005 -0.18900262 0.26312253 -0.1953865 0.058951464 -0.057603482 -0.028802644 0.389941
6239.R05D3.7 -0.49629 0.27607304 0.34138703 -0.17194745 -0.030039297 -0.07190478 -0.2664519 -0.0745149 -0.72270733 -0.22243764 -0.12436591 -0.0029117435 -0.034041025 -0.16689174 -0.03550836 0.20684876 -0.079666205 -0.23527052 -0.06323866 -0.14911552 -0.19147123 0.26458192 0.14350134 -0.16532211 -0.2271771 -0.148058 0.111134075 -0.01761824 -0.08869798 -0.16436625 -0.04281106 0.33390784
6239.T07A9.5b -0.40309894 0.19399503 0.5827713 0.17890279 0.22717401 -0.3596975 0.27580783 -0.029431125 0.061116394 -0.061546896 -0.14346349 0.0909183 -0.23083487 -0.35541597 -0.33086032 -0.0903206 0.2516403 -0.40879664 -0.42116466 -0.08460547 -0.2872854 0.22158538 -0.10959131 0.22045182 -0.028839156 -0.3015393 0.28033373 -0.13195167 -0.21894613 -0.37038392 0.16878192 0.04780035
6239.F39B1.1 -0.20352837 0.4210225 0.14383592 -0.005174252 0.31202167 -0.1740993 -0.056707524 0.07069577 -0.4566705 -0.106002495 -0.3703122 -0.14843944 0.34607777 -0.060520466 -0.13306221 -0.056826252 0.33893725 -0.4211208 -0.24248168 -0.008994806 -0.12731422 0.3586349 -0.30514294 -0.11670119 -0.1776879 -0.16307272 -0.057056777 0.05157587 0.3252558 0.029463982 -0.062764056 0.32272393
6239.F40F8.7.2 0.2762589 -0.053154558 0.1496092 0.076373555 0.44275627 -0.32761985 0.34596035 -0.17930663 -0.100727886 -0.12803464 -0.16288823 -0.08845157 0.040500857 -0.055991698 -0.019481087 -0.11444267 0.0051548826 -0.37103975 0.37205118 0.13484906 -0.117210194 0.4334606 -0.07869769 0.14827651 0.2974845 -0.0050859167 -0.24116737 -0.5408873 0.053700294 -0.1661271 0.069318965 0.41594222
6239.F09E5.1 -0.36905771 0.047479153 0.44773257 -0.03467094 -0.13018534 -0.2820908 -0.24869195 0.23262848 -0.3998656 -0.12595986 -0.11450251 0.044672225 0.106777236 -0.20819347 -0.018117972 -0.20650752 0.0719789 -0.26928163 0.016809398 0.01954785 0.02669047 0.31137124 0.1166064 0.13739802 0.096270524 0.071394816 -0.095645815 0.06965053 -0.0934176 0.09735309 -0.1876283 0.31435037
6239.R06C7.8 -0.42280218 0.4901131 0.2054248 -0.29602855 0.10627853 -0.44033495 -0.062107474 0.0045026 -0.43382913 -0.24852212 -0.35448152 0.28953353 0.03814431 -0.21040033 0.060028963 0.0691935 0.26467687 -0.48330894 0.24139272 -0.21281844 -0.12923336 0.2942557 0.047297034 0.085432954 -0.06354551 -0.09919263 0.20683132 -0.28142548 -0.032528784 0.04606862 0.20891705 0.47044095
6239.T20G5.1 -0.48597693 0.39291754 0.29913482 0.07790045 0.06804075 -0.29834178 -0.20702711 -0.30201432 -0.41798896 0.075526915 -0.28485772 -0.108924486 0.1358137 -0.22751717 -0.13927388 0.04542271 0.03046258 -0.099210106 -0.1603937 -0.11254673 0.032492362 0.015291659 -0.21023639 -0.23286597 0.31159502 -0.02771394 -0.19524516 0.19249478 -0.15673365 -0.20144272 -0.2696658 0.35756782
6239.F45E12.3 -0.6880897 0.32706988 0.13453132 -0.16354153 0.48303598 -0.26994997 0.13611445 0.04653522 -0.15107407 -0.00896315 -0.37233153 0.12704232 0.025472322 -0.023595845 -0.17467587 0.35053182 0.30237553 -0.3114878 -0.060527965 0.10701994 -0.1799324 0.3502119 0.026225185 0.10002463 -0.12752329 -0.11766371 -0.09216458 -0.195597 -0.06666927 0.08981071 -0.06280051 0.3821755
6239.F22E12.2 -0.1695183 0.0744054 0.26541448 0.0062953997 -0.06631869 -0.09028999 -0.30552727 -0.01525011 -0.6119528 0.14410563 -0.13336326 -0.26049745 0.074738935 -0.17679755 0.17581259 -0.2149225 0.0037944599 -0.42948973 -0.3354004 -0.06257037 0.008877421 0.24669951 0.17603229 0.17425513 0.15243556 -0.118434176 -0.034784857 -0.06178244 -0.045870297 -0.021889167 -0.15602873 0.5299608
6239.F58H12.1 -0.14666179 -0.18324518 0.13999145 -0.13663617 0.08946365 -0.11338816 0.086283684 0.19519271 -0.33108598 -0.2291993 0.0063409237 -0.23112431 -0.12756686 -0.10573833 -0.03723156 -0.119480416 -0.016063407 -0.422949 0.10092485 0.33970204 0.008492582 0.27902275 -0.14885804 -0.03327193 -0.12060239 -0.15582411 -0.108867556 -0.18266882 0.09800268 -0.068573214 0.098898694 0.54439116
6239.Y110A7A.4 -0.09212568 0.3361686 0.23767944 -0.09433848 -0.061452378 -0.40272948 0.31617513 -0.010753192 -0.3144802 -0.03835727 -0.3892511 0.46222523 0.00887625 -0.5463882 0.022883328 0.19132401 0.32504612 -0.3205497 0.004342227 0.2898388 0.1361215 0.13100433 0.062237754 -0.10546971 -0.09174196 -0.12456258 0.4524321 -0.29991367 0.0063928086 0.19555229 -0.06518429 0.47198623
6239.C52E12.2b -0.4663891 0.24208865 0.2638521 0.053436078 0.17742479 -0.13772862 -0.26535904 -0.2240974 -0.654506 -0.307738 0.14626081 -0.033489715 0.06680346 -0.3973264 -0.085593216 -0.014837459 -0.12724027 -0.29473794 -0.1086252 -0.05186358 -0.031797636 0.24908221 -0.09545757 -0.075267516 -0.25606382 -0.17028551 0.19258653 0.079345874 -0.021948704 -0.0019859413 0.19633015 0.09203515
6239.F41E6.4a -0.25406557 0.01201426 0.31384677 -0.048716456 0.28644836 -0.18320496 -0.019888496 -0.120642215 -0.2746845 -0.07746772 -0.72194946 0.14292535 -0.21678002 0.051240057 -0.16126043 0.14098065 0.044562235 -0.20723952 0.015943876 -0.036863163 -0.15622717 0.60212326 -0.37436306 -0.13698094 -0.21015842 0.1032076 -0.0258564 -0.3677427 0.26141727 0.16137701 -0.34199739 0.14276464
6239.C32F10.5 -0.5714945 0.27621666 0.3930475 -0.14043018 -0.016792037 -0.27352986 0.074193574 -0.098451756 -0.14014241 -0.26101282 -0.61141056 0.21744479 -0.06850078 -0.13052247 0.12941541 -0.05288536 0.3269049 -0.5958886 0.14223997 -0.193186 -0.050331187 0.27136496 -0.16524361 0.1736835 0.08752517 -0.26270774 0.26080933 -0.23056489 0.024821859 0.008049024 -0.028409325 0.39085296
6239.F10B5.7 -0.20264108 -0.07985504 0.26816183 -0.09058687 0.6171251 -0.45612422 0.2528109 -0.27959833 -0.1942308 0.106249966 -0.20864432 0.19215634 0.018327732 0.016047437 -0.3957531 -0.27272034 0.30977547 -0.1869451 -0.4451741 0.041887894 -0.43093586 0.18227781 -0.09990155 0.07644897 0.044812534 0.08240977 0.38938892 -0.06703313 -0.22164544 -0.3985113 0.03204089 0.14359134
6239.F53G12.5b -0.7214953 0.053343464 0.7324163 -0.17697391 0.068720534 -0.018908517 0.06762725 0.124724925 -0.057722382 0.040094152 -0.2728702 -0.039438754 -0.13357334 -0.2184863 -0.15296434 -0.008848701 0.4354575 -0.28167567 -0.015818901 -0.066247016 -0.18511875 0.18784046 -0.27271155 0.22699696 0.19642413 0.127723 0.044241052 -0.5368962 -0.1807186 -0.17041919 0.09529131 0.29644683
6239.F49E7.1a -0.48160294 0.4154733 0.019517375 0.08323808 0.24294546 -0.05221269 -0.09900657 -0.21100159 -0.445948 0.10902368 -0.22796363 -0.12830646 0.090103045 -0.21649927 -0.07005878 -0.08909923 0.22731557 -0.29997808 -0.038867958 -0.0042639216 -0.22783235 0.16573614 -0.08672422 -0.014609807 0.26836324 -0.122737974 -0.37599388 0.21759877 -0.006947902 0.11548414 -0.071597956 0.52474093
6239.ZC477.9a -0.14798075 -0.054006048 0.31316856 -0.046640385 -0.2976806 -0.48705614 -0.35198003 -0.019793877 -0.0021432657 0.25539303 -0.3533232 -0.2811033 0.26503506 -0.19469644 0.15461652 0.035382666 0.17330226 -0.43211895 0.06585011 0.31978685 0.091885515 0.13105404 0.17654799 -0.08362545 0.09242453 0.071506485 -0.045397654 -0.14334254 0.07368592 -0.16730309 0.36269268 0.20801541
6239.C41C4.8.2 -0.63472414 0.2106881 0.2530087 -0.09696645 -0.027679415 -0.2400423 -0.04342726 -0.13115245 0.08444967 -0.045835294 -0.47112763 0.29437852 0.33439076 -0.1945593 -0.06426914 0.31753632 0.32690245 0.01267417 0.086613245 0.067948624 0.2292787 0.30081344 0.021397736 -0.15387379 -0.097439505 -0.43160656 -0.27575412 -0.056182053 -0.15149637 0.016980598 -0.27109337 0.49984527
6239.B0412.2 -0.18565744 -0.24135217 0.11547516 -0.23493874 -0.1142557 -0.20581268 0.29650167 0.13691096 -0.041135136 0.006561202 0.21169621 0.39119264 0.21776867 -0.13779812 -0.11939189 -0.38477746 -0.17354928 -0.23850378 -0.09787246 0.033918604 -0.1718933 0.71266973 -0.4435669 0.0004896646 -0.022778789 0.070459865 -0.059772555 -0.105949864 -0.2901077 -0.2527787 0.15169138 0.08993657
6239.F53A3.2 -0.5219239 0.41142383 0.3538589 -0.24520431 0.0050906134 -0.2553596 0.22701432 -0.05979965 -0.22803599 -0.1856292 -0.5487221 0.25346145 0.0027776249 -0.21841371 0.15621221 -0.04185043 0.49992713 -0.53845763 -0.053704318 -0.039810516 0.002882156 0.19694091 -0.23267286 0.045844566 0.021753117 -0.13451333 0.24354362 -0.24666935 0.10480829 -0.08813324 -0.07060201 0.2848938
6239.T19B10.6.1 -0.5525829 0.49600706 0.591071 -0.28716233 0.03959267 0.059487987 0.12204854 -0.105430074 0.13878721 -0.11817658 -0.44314206 0.106709175 -0.0044775666 -0.34952798 0.06638158 -0.096691266 0.29753706 -0.70033044 0.06864506 0.060703676 -0.0019228972 0.19203398 -0.2779579 0.34410357 0.07563368 -0.15053065 0.14740714 -0.31306764 -0.04961441 -0.010133618 -0.018086536 0.31786516
6239.T19B10.7.2 -0.646233 0.43105024 0.4791256 -0.017284064 -0.09977316 -0.18810993 0.13610637 -0.19229834 -0.13307382 -0.2897738 -0.367754 0.16642596 -0.15538071 -0.14032924 0.013903081 0.03701109 0.3047193 -0.6170506 -0.14834218 -0.09128115 0.06314092 0.2706714 -0.28023523 0.015820151 0.21231017 -0.098800465 0.14163765 -0.22611019 -0.1534408 0.09959009 0.0029106876 0.2167488
