2968 64
6239.T27C10.6 0.22579023 -0.0008506466 -0.0894338 -0.05561025 0.10877241 -0.114358395 0.076632515 -0.061801795 -0.10140987 0.12771796 0.110252425 -0.008868068 0.11383315 -0.11704847 -0.07178618 -0.06094624 0.13071561 -0.134359 -0.1942362 0.27340567 0.022080772 0.15288751 -0.020696303 -0.20768048 0.034494955 0.14802912 -0.19167168 -0.15406214 0.03684863 0.009883404 0.06883196 0.20766386 -0.15933326 -0.18451948 -0.033664156 -0.023461673 -0.0193253 0.034164876 -0.22600575 -0.12435113 0.028402273 0.10933114 0.20481946 0.022597173 -0.09316631 0.17146267 0.13763459 0.0370433 -0.1578481 0.21473269 -0.19131033 0.19332671 -0.011884819 -0.11587227 -0.19901249 0.060794786 -0.07710939 0.101939075 0.06925313 -0.046435673 -0.044481464 0.054831404 -0.071339354 -0.013739578
6239.T25C8.2.1 0.20657404 0.09652313 -0.06903843 -0.11972025 0.12330506 0.06560556 -0.20089537 -0.09217011 0.010802962 0.10774871 0.24228169 0.21080326 0.14964214 -0.1713303 -0.09803228 0.08597054 0.055903036 -0.24017343 -0.1452803 0.20707074 0.12309989 0.17465131 0.055308923 -0.29043022 0.12983456 0.17956857 -0.012836523 0.09902234 0.01813469 -0.07359922 0.051712807 0.26010624 -0.22130294 -0.2023783 -0.03704812 0.11800629 -0.1136223 0.1684378 0.008659834 -0.004431662 -0.0026721128 0.10492024 0.024617275 -0.06743253 -0.15659282 0.05227812 0.13468035 -0.1264263 -0.19694252 -0.054871175 -0.07787552 0.05544658 0.03821064 -0.001268288 -0.032101 0.04371221 0.13501231 0.03739091 -0.0346947 -0.11831036 -0.085371256 -0.022528268 0.18475144 -0.015419265
6239.T07A9.6 -0.019961441 -0.00716692 -0.3148974 0.048161894 -0.010566534 -0.113315426 -0.269913 -0.23401079 -0.25337917 0.21737859 -0.099844255 0.070186436 0.17613004 0.054241672 -0.15830229 0.026938677 0.12759711 -0.15447147 -0.110069826 0.27682582 0.1813638 0.048435103 -0.08056399 -0.13917445 0.15794373 0.13200109 -0.08885601 0.014382137 0.054522503 -0.047938596 0.2941033 0.21406093 -0.40827337 -0.0057201567 0.055154346 -0.029124552 0.14173979 0.021202756 0.107673824 -0.19942732 0.009489902 0.23951963 0.23253943 0.11954525 -0.01884634 0.14407346 0.11981348 0.09069837 -0.32347807 0.12192407 -0.16811426 0.124144316 0.04010384 0.070960484 -0.015926523 -0.02949701 -0.10018855 0.076577865 0.0785502 0.061889682 0.20554616 0.1590705 -0.10404823 -0.049808655
6239.Y55D5A.5a -0.019045614 0.119986065 -0.18733191 0.04725142 0.1893387 -0.123192154 0.04903114 -0.058769457 -0.27360508 0.20788182 0.24809688 0.09627418 0.32691404 0.028047752 -0.11987627 0.13793792 0.00045526863 -0.019220533 -0.023014432 0.1620806 0.09768039 0.22604033 -0.1146264 -0.25475943 -0.12467813 0.16958319 -0.07171783 -0.11348447 -0.05592763 -0.007872903 -0.051097758 0.07189542 -0.2675683 -0.021957738 -0.0881989 0.023554206 0.013967019 0.10831088 0.05285421 -0.2542491 0.026591409 0.3634302 -0.05936714 0.11648311 -0.09117009 0.15155849 0.036112044 0.025435952 -0.17737891 0.16406386 0.030490099 0.16773716 0.09558632 0.04762567 0.03536506 0.05754241 -0.07146715 -0.008907275 -0.08466028 0.11911056 0.09112595 0.23004045 -0.124810725 -0.017614136
6239.T05G5.3.2 0.024758946 -0.06026387 -0.20701455 0.02262576 -0.06902784 -0.09255989 -0.12385031 -0.2115053 -0.19299354 0.38570446 -0.050618283 0.17059498 0.012727155 -0.09265415 -0.2150459 0.18382044 0.2634788 -0.24303444 -0.2328631 0.18772265 -0.09544199 0.04572274 0.060239583 -0.1949945 0.23274924 0.1634806 -0.033796016 -0.054343764 0.11738887 -0.16568694 0.2236504 0.18428804 -0.3787105 -0.06854098 0.0142043615 -0.040939998 0.09314138 0.07484334 -0.020773178 -0.055426076 -0.026655192 0.17646101 0.18247758 0.048405677 -0.16502498 0.008673175 0.35640207 -0.06536378 -0.08904359 0.016048757 -0.24615745 0.07013476 -0.14641502 -0.16215315 -0.09292554 -0.053021327 -0.118532084 0.22480647 0.13372645 -0.17046419 -0.023997828 0.088450916 -0.1260399 0.021737792
6239.F43C1.2b 0.0026174323 -0.109486334 -0.08498084 0.0848006 0.09081771 -0.027827393 0.085704 -0.1877626 -0.053408727 0.27334175 -0.009384923 0.13807337 0.09802522 -0.084685884 -0.06622168 0.057811305 0.042699397 -0.1761463 -0.07956475 0.47015652 -0.07249448 0.20467307 0.08125565 -0.10530849 0.26037246 0.15714115 -0.12071074 -0.030556817 0.043647222 -0.32035708 0.14258407 0.16156478 -0.30828935 -0.10639169 -0.0068130987 0.01551866 0.016147215 0.045329206 0.019730907 -0.11673945 -0.1247749 0.24178582 0.07489765 0.027034393 -0.10763588 0.18087707 0.2579481 -0.09826543 -0.18248367 0.11484559 -0.055477984 0.03380827 0.07105402 -0.03548315 -0.07788849 0.06324874 0.00045818242 -0.054863624 -0.065144286 -0.02384752 0.037097953 0.04861986 -0.06104241 0.092302255
6239.C47E8.5.2 0.079987116 0.099879496 -0.029944908 0.0381627 0.0503863 -0.048881967 -0.068956904 -0.036601454 -0.030199043 0.29417703 -0.041159324 0.2795398 0.17903428 -0.25004673 -0.030133529 0.112994686 -0.030414093 -0.27263528 -0.15588759 0.3386435 0.01615134 0.17531323 8.525947e-05 -0.16919288 0.06498676 0.15996054 -0.15303507 -0.42115402 -0.04496034 0.04335268 0.055309717 0.17918186 -0.07515639 -0.20712318 0.13323654 -0.145931 -0.072150506 0.023096517 -0.075969025 0.062999874 -0.10412431 0.2566796 0.1354675 -0.061959993 -0.17622699 0.39248878 0.16550186 -0.109730676 -0.098276034 0.013184762 0.008605377 0.10039734 -0.07873115 -0.050470583 -0.08244879 0.016812269 0.14265652 0.020832345 0.12287488 0.055996407 -0.0767912 0.10790068 -0.078824 -0.06605346
6239.F02A9.6 0.06601208 0.0568352 -0.27788332 -0.07513174 0.113458544 -0.21232902 -0.21644507 -0.2508494 0.06056154 0.17620268 0.10716588 0.19973247 0.26003173 0.044265978 -0.21584515 0.19920953 0.21755792 -0.12182881 -0.10095446 0.20191072 0.106799565 0.0026961635 -0.11947523 -0.16633171 0.11199705 0.1853907 -0.039199054 0.03784626 0.031961404 -0.09046819 0.3449733 0.03525724 -0.3017652 0.012426024 0.11805511 0.13255298 0.06619681 -0.047610372 0.08724695 -0.28003576 0.09302817 0.06637704 0.24520206 0.24956974 -0.02633656 0.076440424 0.27719566 -0.16774662 -0.2564824 -0.021072943 -0.20325603 -0.02182459 -0.1687897 0.09814508 0.09570742 0.04139244 -0.046094403 0.1755862 0.1134794 0.119131766 0.13176155 0.048093442 -0.16176859 -0.040274214
6239.R13H8.1h 0.043188486 0.08714952 -0.08965167 0.0551844 0.15904488 0.0057700113 0.04634279 -0.09132085 -0.20282671 0.3401069 0.19337839 0.3032731 0.26554945 -0.022545436 -0.27107844 0.29112628 -0.045657687 -0.09985282 -0.08789903 0.2625063 0.004425381 -0.026049614 -0.13686763 -0.20817767 -0.12758864 0.30763426 -0.051414482 -0.07601078 -0.046681717 0.029033534 -0.069348365 0.026946152 -0.35846233 -0.04879227 -0.018397355 -0.03519228 0.12249162 0.18341608 0.19998594 -0.14785229 -0.01360516 0.24730866 -0.062937796 0.08335781 -0.20986453 0.30096805 -0.037954632 0.030277077 -0.039803915 -0.021981195 0.06332087 -0.043562274 -0.069104 0.04840524 0.10153987 0.24426234 -0.17859758 -0.07113434 -0.012088065 0.17504156 0.1398009 0.2064462 -0.14931174 0.029285824
6239.F11C3.3.1 0.10408597 -0.055075973 -0.2056503 -0.16605735 0.03452567 -0.1607962 -0.09532704 -0.04196048 0.036034953 0.07769335 0.30423963 0.2115327 -0.020484556 -0.1346713 -0.24407366 0.12993678 -0.073633246 -0.025117552 -0.11349908 0.15283217 0.047323253 0.25435427 -0.0021317392 -0.14363435 -0.029493537 -0.03909719 -0.14019063 0.08198392 0.19811416 0.012015323 -0.041881043 0.12153585 -0.2631122 -0.06630917 0.0905959 0.12569968 -0.021377368 0.10831633 -0.002085843 -0.15365902 0.029243542 0.21940017 0.022329358 0.17722473 0.0735869 0.022957865 -0.10562435 -0.02697887 -0.26392254 -0.1304521 -0.17125306 0.09505706 -0.11267869 -0.08782581 -0.117246106 0.14378707 -0.16118139 -0.0077915466 -0.15595141 -0.01877116 -0.1809444 0.030943729 0.16087529 -0.21523379
6239.B0218.3 0.13105825 -0.04945865 0.0917366 0.04260363 0.18510835 0.06951466 0.026057115 0.04614551 -0.11697524 0.2968873 0.15312408 0.27878827 0.18846835 -0.19443798 -0.2633538 0.052011155 -0.094060294 -0.1809272 -0.18421085 0.35213083 -0.28852555 0.05350606 0.17320412 -0.13212325 0.07186854 0.22708651 -0.08429149 -0.1433051 0.11728225 -0.4486568 -0.11735835 0.23932347 -0.3332048 -0.0009032525 0.021943502 -0.14241798 0.12000118 0.34245732 0.08629032 -0.19076698 0.037566632 0.23603165 -0.0838092 -0.032827113 -0.18728374 0.22542946 0.062404104 -0.078816354 -0.1280927 0.25833786 -0.0070048785 -0.16681007 0.11764652 -0.11554936 -0.14467351 0.06701514 -0.11564609 -0.12493679 -0.0612348 0.13304098 0.10686187 0.118871525 0.07173527 0.05383786
6239.C12D8.10b 0.061119 0.0639664 -0.19256973 0.12025719 -0.064827494 -0.2760416 -0.04494016 0.022254365 -0.40451822 0.37415212 -0.008612732 0.13213034 0.095206924 -0.040022783 -0.091174334 0.10237618 0.022006685 -0.06410874 -0.071418405 0.20524237 -0.083832696 0.05262199 -0.033923987 -0.28053284 0.16617112 0.11694068 -0.04580702 0.030143142 0.019287044 -0.005556632 0.09579792 0.27669108 -0.30292362 -0.10884309 0.042507805 -0.040980972 0.057095997 -0.050885476 0.10148597 -0.10602537 -0.006799162 0.15906787 0.13631532 0.07438295 0.0028033818 0.029872881 0.18933393 -0.06097832 -0.2669426 0.3319188 -0.028715333 0.19054767 -0.024834722 0.10903744 0.1093278 -0.038235754 -0.12965924 -0.15816046 0.026015913 0.14171071 0.09705038 0.04297894 -0.20809592 -0.06693333
6239.B0261.2a 0.23410554 0.099554874 -0.1066257 -0.09933991 0.16181332 -0.24791493 -0.27132422 -0.09766259 -0.09813722 0.41276297 -0.02655764 0.05139807 0.1743554 0.049641892 -0.14101969 0.17914638 -0.040733676 -0.38489208 -0.09184113 0.19473517 0.019304726 0.105270326 -0.028680116 -0.15126178 -0.007045986 0.08361993 -0.07255758 -0.060114484 -0.020123689 -0.0931695 -0.05243017 0.06902371 -0.4216954 -0.19078457 -0.20375058 -0.030838294 -0.03596282 0.07922927 -0.0019047153 0.024009509 -0.16995756 0.2646263 0.27855572 0.07021592 -0.15395342 0.16766062 0.18752193 0.18696009 -0.06171811 0.07295971 -0.12626879 0.06202915 -0.039832596 0.09429641 -0.08556025 -0.16274709 0.050318487 0.082907796 0.0533026 0.19996649 -0.043158047 0.09989737 0.011438237 -0.041302375
6239.ZK792.6 0.115887575 0.04398568 -0.32978848 -0.012693295 0.047899093 -0.08839616 -0.03796261 -0.33006364 0.06817144 0.15114982 0.07529981 0.109256886 0.06341396 0.0012623043 -0.099151626 0.040163595 0.18605764 -0.16473624 -0.054411743 0.4057892 -0.17515948 -0.00034144928 0.013091436 -0.15250465 0.13077481 0.13574113 -0.121844456 0.043652054 -0.026298242 -0.112919375 0.15140647 0.29024634 -0.26590547 -0.15561627 -0.09091399 0.13996056 0.116956666 0.031127019 -0.057090882 0.05989384 0.0072235726 0.13393681 -0.02213363 0.11265552 0.087791964 0.030999118 0.21982954 -0.11657925 -0.0041677034 0.33073047 -0.11453119 -0.048446983 -0.0057933643 -0.12038271 0.025266204 -0.09683756 0.11389153 -0.028944463 -0.13562587 0.03572143 -0.005591475 0.262506 0.0055847676 0.06527877
6239.Y43C5A.6a 0.26879412 0.0042288266 -0.3403691 -0.07181542 -0.12195175 -0.015817337 -0.08067556 -0.045590825 -0.07808251 0.1835401 -0.12592722 0.113266475 0.34161344 -0.21049903 -0.26870123 0.07507041 0.1524721 -0.3748414 -0.10099766 0.19273552 -0.08995751 0.045954783 -0.02775767 -0.08334858 0.13478516 0.111365624 -0.11685829 -0.23840682 0.020603929 -0.07767893 0.2400734 0.084257886 -0.30143842 0.011016504 0.031551965 -0.08860476 -0.15943818 -0.07843862 0.020651571 -0.057532676 0.074611425 0.036006674 0.20682947 0.053203493 -0.20139125 0.3128622 0.1120375 -0.16890484 -0.25865522 0.031477217 -0.11277226 0.11226177 -0.14821714 0.10200821 -0.1165627 -0.07566343 -0.11911338 0.34109005 0.095934324 -0.033237558 -0.17522599 0.37505567 -0.0657312 -0.1282782
6239.K12F2.1 0.13354632 -0.0038287193 -0.2327634 -0.09231561 -0.0015343974 -0.18523946 -0.13864712 -0.087676354 0.09326003 0.090708554 0.31797045 0.1593494 -0.09638236 -0.22580253 -0.06639524 0.18498811 -0.055499725 -0.1348 -0.09899219 0.10471144 0.19349077 0.1106615 -0.08110321 -0.10609448 0.12782268 0.07869516 0.0029901217 0.048046507 0.17213686 -0.05139749 0.023668902 0.16254184 -0.1657588 -0.03458092 -0.05118394 0.17987831 0.08439924 0.14365485 -0.099706225 -0.15602109 0.0008277444 0.19863597 0.042106822 0.16191228 0.15829958 0.035525326 -0.044059023 -0.038190965 -0.22199455 -0.02285396 -0.028872535 0.047785785 -0.3495902 -0.07687363 -0.1543515 0.07377796 -0.21700911 -0.14976236 0.019032111 -0.033571698 -0.08949402 -0.015564126 0.107521966 -0.1267239
6239.C09D1.1b 0.26892912 -0.12622888 -0.104037926 -0.017702553 0.0605531 -0.082643755 -0.0569396 -0.12714772 -0.13780582 0.13356113 0.14013515 0.09219342 -0.07063201 -0.27178395 -0.19300692 -0.058502447 -0.013160696 -0.111197785 -0.07519736 0.2185772 -0.062273365 0.20155491 0.16464695 -0.107590176 0.14130512 0.254919 -0.13328479 0.13357152 0.1253416 -0.0109865945 0.24917658 0.18912598 -0.2191217 -0.13961613 0.04781779 0.011294152 0.022554765 0.1665559 -0.08049085 0.04742383 -0.06905876 0.018384084 0.029251749 0.043129493 0.106327295 -0.03312073 0.1648763 -0.107598394 -0.20656522 0.0011608411 -0.015551657 0.12804551 -0.19241478 -0.03203542 -0.047722843 0.022517046 -0.05969736 0.17148952 -0.102734156 -0.10250459 -0.110212125 0.015005426 -0.0054958374 -0.19989908
6239.T12E12.4b.1 0.23931164 -0.01645405 -0.29296705 -0.08526797 0.09359419 -0.069189936 -0.3328882 0.025871737 0.15730947 0.14721686 -0.11135587 0.08906944 0.20689788 0.10643831 0.07293116 0.12470465 -0.022607325 -0.15973394 -0.26800513 0.25296062 0.07933976 -0.06427599 -0.09351185 -0.31869912 0.054013934 0.2808369 -0.037089814 -0.20304345 0.000101053 -0.1052351 0.120683074 0.3495228 -0.16099988 0.00702114 -0.009047159 0.0596141 0.029707087 -0.051767945 -0.29390714 -0.26637688 -0.038637325 -0.027427398 0.11163291 0.11070977 -0.022979466 0.1290657 0.25961462 0.12260397 -0.2215717 0.21068278 -0.19386415 0.06993668 -0.08425181 -0.02535139 -0.21698561 -0.11118641 0.020612724 0.07063063 0.15606168 -0.18338498 -0.04143555 0.030771157 0.009748682 -0.20531598
6239.D2021.1 0.33566046 0.06831006 -0.11301075 0.15960193 0.14133482 -0.15796542 -0.10098075 -0.14756306 -0.030846216 0.24299614 -0.04594244 0.1625897 0.33829933 -0.22484626 0.052075457 0.19375305 0.18615535 -0.21519788 -0.08872564 0.06678052 -0.06465525 0.13236114 -0.27254072 0.0010845562 0.035147604 0.077429056 -0.3524686 -0.108388886 0.038112607 0.016219502 0.19380435 0.107204184 -0.11320948 -0.191764 -0.12530416 -0.034705516 -0.000150889 0.10207978 0.0086421035 0.03893752 0.0035922078 0.10838178 0.302702 -0.0027199523 -0.30733335 0.16669796 0.21240395 0.06770409 0.041775882 0.18732637 -0.16097853 0.16941358 -0.16106105 -0.058847275 -0.19509053 0.08197158 -0.24393232 0.13765292 0.01457646 0.026954364 -0.1715307 0.15211727 -0.2328266 -0.20894836
6239.Y43E12A.1 -0.060635485 -0.045476776 -0.24780115 -0.032326154 0.06123254 -0.05693769 -0.13057084 -0.26091582 -0.08757256 0.3449685 -0.122028805 0.23226845 0.05848478 -0.08004034 -0.20939045 0.032222833 0.27752832 -0.29718345 -0.2503962 0.24843787 -0.027013028 0.08502574 0.07134605 -0.054872386 0.28856903 0.092714235 -0.08983444 -0.12857951 0.04027484 -0.08544074 0.25362998 0.2687892 -0.3790085 -0.03503867 0.011956729 -0.10380947 0.07029531 0.15236147 0.055119168 -0.1454215 0.029678948 0.26837128 0.2817003 0.08021974 -0.088544786 0.1406419 0.31447098 -0.1170062 -0.22149622 -0.1395275 -0.1738494 0.142871 -0.047486097 -0.101968564 -0.050138064 0.10861282 -0.044567615 0.29671803 -0.049358312 -0.19250178 0.14135274 0.24552202 -0.1270407 -0.010588979
6239.T05C12.6a -0.055450074 0.11052551 -0.2287957 0.194383 0.043406084 -0.15030017 -0.1423994 -0.25730905 -0.07449561 0.17208235 -0.0073133204 0.13297065 0.028131526 0.077389486 -0.026197756 0.16093698 0.38472748 -0.04675834 -0.11188353 0.13089128 0.040445928 0.16850406 -0.06451996 -0.22282699 0.03192891 0.1436665 -0.14480582 -0.08038252 -0.018884055 -0.007149409 0.31172726 0.08107383 -0.40889564 0.118972205 0.012843015 -0.17871523 0.25006375 0.035557497 -0.12107225 -0.32139066 0.21002288 0.29876277 0.19724166 0.2259758 -0.08220886 0.24953634 0.09903281 -0.24743728 -0.30882478 0.067630865 -0.088987134 0.11383276 0.0069997227 -0.29237312 -0.09656345 -0.13566981 -0.03266585 0.22125427 0.20245172 -0.048481014 0.14105533 -0.17411199 0.13554107 -0.15215705
6239.H31G24.4.2 -0.056526218 0.026936896 -0.24922024 0.00107029 0.06617075 -0.036951866 -0.11197952 -0.24627349 -0.14128986 0.25323588 -0.122824825 0.25392786 0.10265665 -0.069664575 -0.1760373 0.10028895 0.21431547 -0.34742323 -0.1879553 0.21698989 -0.06583778 0.09928855 0.032627918 -0.08210661 0.2407693 0.026001044 -0.12160162 -0.07878246 0.07755927 -0.1420919 0.20183884 0.24546622 -0.4212365 -0.0739461 -0.017933026 -0.14132743 0.1123923 0.091295294 0.033692632 -0.088872835 0.056945235 0.2797235 0.28030857 0.113864586 -0.12063591 0.10342932 0.32338685 -0.1489803 -0.26035202 -0.20819534 -0.21879409 0.03364123 -0.07337575 -0.09493541 -0.11132781 0.037449446 -0.16862005 0.33417025 -0.066307865 -0.13297585 0.12390265 0.22135396 -0.14824483 -0.04750461
6239.C14B9.4b 0.0580567 -0.112726435 -0.38212967 0.08267011 -0.0341926 -0.17289788 -0.3401457 -0.24954575 -0.11882582 0.33403915 -0.08846554 0.17570119 0.05061751 -0.07047766 -0.092581905 0.11892779 0.3009869 -0.26438138 -0.31900638 0.06449841 0.082494736 0.18341993 -0.025327215 -0.15604863 0.18785706 -0.03636506 0.0014478423 -0.12773329 0.1373295 0.008042172 0.18648233 0.15201116 -0.3679716 0.068453215 -0.050584123 -0.1338516 -0.016146366 0.11755316 -0.102069005 -0.18010893 0.06703793 0.20635195 0.32854065 0.04384628 -0.014814627 0.116624214 0.1830303 -0.0440137 -0.3034868 -0.05441307 -0.28449243 0.057030473 -0.16768944 -0.20874605 -0.09561912 -0.034218997 0.014254152 0.3276377 -0.09391135 -0.18227495 -0.087768115 0.112893574 0.0049380506 -0.040711403
6239.B0334.8 0.011568537 0.13280872 -0.341933 -0.006204199 0.07444006 -0.1820778 -0.10320574 -0.14775212 -0.24759755 0.40354788 -0.059718218 0.04147561 0.2305057 0.1346454 -0.14360043 0.082205534 -0.08077313 -0.3673876 0.13250417 0.2791382 0.17288037 0.034102775 -0.036222257 -0.19307025 0.016318254 0.14949867 -0.1308472 0.0038645004 -0.0143484855 -0.13917369 -0.12096226 0.13307546 -0.43128538 0.101974145 -0.081126615 -0.07056934 -0.04338885 0.021290187 0.03858818 -0.20849453 -0.08639319 0.338987 0.07379769 0.09103695 -0.0551754 0.19488384 0.15856381 0.19784153 -0.135714 0.21071269 -0.06832692 0.11191652 -0.014247575 0.1470737 -0.1040586 0.024212496 -0.14129426 0.054454688 -0.0036631653 0.16092405 0.1196548 0.028147228 0.023819521 0.03553462
6239.F36A4.7 0.22777157 -0.0686892 -0.24528739 0.01616411 0.13829556 0.0109029375 -0.049441066 -0.06897478 0.044117976 0.33367792 -0.008549746 0.3402921 0.124730065 -0.18523304 -0.09764132 0.12560165 0.068610966 -0.23415269 -0.34591344 0.2112903 -0.122948386 0.100213654 -0.075400926 -0.13571697 -0.086213045 0.226556 -0.077604815 -0.076951675 0.05150741 0.017690077 0.017099593 -0.023372231 -0.118208505 -0.0970568 -0.1691448 0.008523781 0.14197934 0.09883479 0.03013476 -0.18469758 -0.034647852 0.16082501 0.2748096 0.009127054 -0.33658805 0.2633906 0.007510956 -0.020106727 0.07559616 0.23249683 -0.2135839 0.22329177 -0.06964152 -0.022458877 -0.101541296 0.15798213 -0.04093212 0.27519706 0.20227589 -0.046285678 -0.1440903 0.14859979 -0.06208332 -0.11975414
6239.T04C12.5.1 0.17182326 0.005273641 -0.19824511 -0.10409275 -0.01434558 0.06811982 -0.2630328 0.10194431 -0.06972073 0.106164135 -0.085998625 0.17021954 0.16802494 -0.056964107 -0.20089483 0.15032496 0.12574239 -0.3628213 -0.15246211 0.30168036 0.26992905 0.23173806 -0.0875172 -0.18289557 0.22297202 0.14559971 0.04450613 -0.17156483 -0.004596337 -0.086693056 0.12324724 0.3954154 -0.31147486 -0.08980472 -0.17077006 0.15275903 -0.20718583 0.07670167 -0.017540274 -0.08350218 -0.12895437 0.20485029 0.07682125 -0.012302234 -0.23813173 0.108360544 0.38696802 -0.092355646 -0.08617231 -0.023145426 -0.025760636 -0.052413452 -0.0060168304 -0.12036371 -0.078823276 0.04662629 -0.079550326 0.0775388 -0.07985397 -0.055103067 0.016717548 -0.049900644 0.04408779 -0.13171092
6239.C33B4.3c 0.2666137 -0.110946156 -0.1991527 0.06699698 0.11357537 -0.23527752 0.05961798 0.07235296 -0.13442881 0.136356 0.3075178 -0.014355324 -0.15763502 -0.07179642 0.0529934 0.022052959 -0.011528117 -0.22649084 -0.41878507 0.26298887 0.09462153 0.19664012 -0.047229238 0.07478528 0.028255971 0.16855821 -0.31534892 -0.054272085 0.014376747 -0.09167414 0.046300292 0.08810828 -0.3031143 -0.0025870232 0.007741354 0.15597871 -0.12027362 0.046549417 -0.012594979 -0.18487886 0.016688623 0.20188396 0.17543498 0.02655466 0.16223006 0.08575977 0.22261125 -0.10342239 -0.013517054 0.12521157 -0.100985825 0.02328829 -0.036107358 -0.18064882 -0.385512 0.078045145 -0.10920331 0.21981724 -0.07909821 0.08238432 0.026744286 -0.14561825 -0.039461736 0.050122194
6239.F29B9.6 0.30640182 -0.049558423 -0.22156566 0.004455769 -0.046412393 -0.1874919 -0.23949791 -0.084136166 -0.16275926 0.31645757 -0.13515808 0.3248516 -0.03053051 -0.08608699 -0.06469654 0.23844695 0.14276357 -0.119263686 -0.108103074 0.06452609 -0.007398183 0.12446982 0.14288084 -0.14780906 0.02843844 -0.00971516 -0.2573347 -0.22613022 -0.04116528 0.086165 0.100467384 0.18546084 -0.45926264 -0.08115678 -0.041011855 0.09568803 0.11043148 0.09035226 -0.071009986 -0.04513899 0.0022470995 0.1601258 0.27648973 -0.038235374 -0.07745681 0.3719071 0.23840012 -0.1489291 0.053954303 -0.03433517 -0.1766648 0.12814607 0.03436824 -0.15889235 0.10624409 0.20080164 -0.050867703 0.35667616 -0.05186481 -0.2789733 -0.06281834 0.11725431 -0.2655092 0.0010267494
6239.R07G3.1 0.23957239 -0.035342544 -0.24210107 -0.12908174 -0.042616062 -0.012871348 -0.009571811 -0.2243558 -0.13369198 0.19358632 0.10071806 0.16235651 -0.02433027 -0.04465267 -0.018373035 0.052159756 0.114397004 -0.24581736 0.025564957 0.3632094 0.11799614 0.13799316 0.02946949 -0.20286492 0.025893947 0.1476787 -0.029449629 -0.16176578 -0.16031103 -0.13513975 0.21017748 0.33786944 -0.3136714 -0.087934114 -0.06953493 0.068256125 -0.03499765 0.009713143 0.15194239 -0.13728827 0.13175419 0.05657943 -0.033468205 0.011760718 0.15104 0.054058798 0.3406644 0.026591588 -0.113111764 0.19243333 -0.041473877 0.01380227 0.0680167 -0.060567614 -0.102071814 -0.07863196 0.21082301 -0.12253702 -0.2630144 0.05329648 -0.04777301 0.13406079 0.097999685 -0.0493478
6239.F28H6.1a 0.102680095 -0.090555556 -0.13963301 0.06363107 -0.024745349 -0.21806362 0.029802969 -0.025453577 -0.45660278 0.42084497 0.07076765 0.0971377 0.04749173 0.016663242 -0.047062278 0.11679782 -0.05771222 0.012150196 0.0016892463 0.22160608 -0.031689785 0.092479244 -0.0063564503 -0.34595472 0.16499494 0.1305174 -0.000875294 -0.02871137 0.020478258 -0.043424573 0.07546495 0.21499883 -0.33207104 -0.15077814 -0.0765433 -0.006142642 -0.028320096 -0.029926807 0.1233397 -0.15880892 0.03244964 0.19358757 0.120983295 0.10399339 0.015469348 0.057677634 0.1935225 -0.019954165 -0.27086434 0.3000102 -0.13465554 0.11731065 0.113637626 0.1622173 0.17406595 -0.074208416 -0.12743808 -0.14530058 0.0024425818 0.021932473 0.09227066 0.1325359 -0.26492682 -0.12922524
6239.C48B6.6a 0.24637046 0.1382966 -0.260661 -0.053300366 0.17602643 -0.23278539 -0.23317027 -0.07761546 -0.04182712 0.35887426 0.0002633274 0.026841162 0.019790635 0.07945634 -0.19377613 0.1379419 0.057083536 -0.38056883 -0.02231762 0.2614231 -0.11642064 0.032802697 0.034807857 -0.10135673 -0.001019786 0.101024784 -0.082268275 -0.092459545 0.018568972 -0.08545142 -0.11393537 0.17349264 -0.43336973 -0.061458193 -0.13880682 -0.007306582 -0.17432633 0.044259727 0.051107906 0.045421515 -0.19825593 0.38782 0.3007982 0.07272003 -0.111901306 0.24423623 0.36155874 0.055666625 -0.009876377 0.057441227 0.07587058 -0.0020437918 -0.092216395 0.016130496 -0.1983579 -0.041435987 0.0073733763 0.12519509 0.098647684 0.14914557 -0.12736215 -0.03981089 0.10196932 -0.033723477
6239.M03D4.1c 0.17354615 -0.12675633 -0.3942092 -0.031322416 -0.119000524 -0.09429129 -0.31873825 -0.2541198 -0.052820265 0.3643884 0.095921524 0.14387476 0.20257898 0.020198235 -0.14705424 0.061036855 0.36454687 -0.24655195 -0.16649269 0.06250559 0.17632887 0.010475442 0.018795265 -0.118349485 0.22720093 -0.031723727 -0.03606851 -0.07603344 0.048430216 0.0009919852 0.23222171 0.06325297 -0.45341855 0.019645946 -0.19570792 -0.075396515 0.041278575 0.025961092 0.035634927 -0.17228802 0.058846183 0.062927686 0.21553946 0.13224994 -0.04344864 0.17689295 0.21494514 -0.025101218 -0.3852217 0.13381308 -0.021553338 -0.015275569 -0.15283325 -0.26087984 -0.05235134 -0.029292459 0.050149124 0.24993451 -0.2405211 -0.19538195 -0.075710356 0.017573047 0.02911712 -0.11416012
6239.ZK909.2c -0.029281182 0.037586693 0.075096354 0.027115166 0.099944964 -0.056779858 -0.020352678 -0.01479527 -0.18557712 0.08296197 0.018908247 0.004785013 -0.005423278 0.0019881413 -0.2643053 -0.066972375 -0.14851955 -0.19042714 -0.41303346 0.2224033 -0.23250471 0.3080939 -0.1151122 -0.10145943 -0.044550363 0.27222934 -0.08895984 0.2214559 0.09830716 0.06113693 0.21129411 0.22009449 -0.1158688 -0.13803683 0.048341814 0.009599831 0.09155412 0.26425487 -0.08004556 0.010466227 -0.20456652 0.3358104 -0.1335025 0.11038349 0.020371271 0.17041203 0.11990457 -0.03991486 -0.24090208 0.16397971 0.0029571985 0.102887064 0.07990912 -0.13943565 -0.27439493 0.017169988 -0.024176778 0.13104595 -0.0023361233 -0.26144555 -0.03338376 0.05367336 0.054787934 0.095689766
6239.ZK177.6 -0.045002367 -0.16777474 -0.25458503 -0.05366747 0.032816283 -0.03655288 0.0048499634 -0.11893083 -0.0571034 0.31945494 0.0022352266 0.3282367 0.07304544 -0.047239527 -0.13447686 0.14469944 0.38018712 -0.28872734 -0.24173467 0.20918068 0.02275181 0.124218754 0.013142247 -0.22197902 0.28229752 0.051097583 -0.11121266 0.055138916 0.008132796 -0.034796156 -0.010623519 0.23839673 -0.5055412 -0.006932218 -0.09376801 -0.1514119 0.037057016 0.036655657 -0.06473778 -0.08006722 -0.119815625 0.16122665 0.23737782 0.024790442 -0.22303763 0.21472646 0.16874915 0.024383452 -0.15620407 0.026783492 -0.077717185 0.113363944 -0.24553871 -0.19750327 -0.09639146 0.029568614 -0.09037658 0.40007818 -0.023719897 -0.17419691 0.040514283 0.17047487 -0.11099682 -0.08475442
6239.R11A8.4a 0.24656998 0.049672354 -0.2356113 0.11062899 0.01748398 -0.050817482 -0.043897007 -0.28112155 -0.161267 0.25890622 -0.04663053 0.1624226 0.18819623 -0.061745834 -0.20505509 0.15694767 0.015998859 -0.16201052 -0.2118509 0.07978431 -0.020316668 0.04314269 -0.035457548 -0.41193196 0.0040430836 0.3464053 -0.0992722 -0.078127794 -0.046422265 -0.0901313 0.00015193342 0.016358472 -0.1403451 -0.27270886 -0.021651026 -0.25681463 0.18292318 0.22198552 0.041739088 -0.13715565 -0.14058971 0.140867 0.15659638 -0.094629414 -0.16249 0.315664 0.12710097 0.15783468 -0.12396823 0.14331585 0.21253571 -0.0042365394 -0.03315211 0.054548737 0.009386691 -0.16794018 -0.18369506 -0.0120525975 0.24211273 -0.11630427 0.018333256 0.4027018 -0.20233563 -0.04850764
6239.ZK1067.1c 0.022994043 0.13679679 -0.07008752 0.14002626 -0.09177279 -0.1689737 -0.053431895 -0.29277092 0.020204715 0.2404357 0.11052407 0.085615106 0.044479176 0.05451773 -0.06086837 0.08794955 0.1111005 -0.13757479 0.003770816 0.34993663 -0.0864748 0.16394687 0.045939673 -0.33141002 0.11956627 0.07357954 -0.19693477 -0.09060645 -0.03904971 -0.025001884 0.19496083 0.021393731 -0.22304435 -0.12283355 0.030752651 -0.024908466 0.052760858 0.033009507 0.020072706 -0.07882618 0.11581954 0.18895759 0.09967111 0.10357379 0.22636072 0.04175826 0.14844391 -0.3067592 -0.17503396 0.17254806 0.09832636 -0.033372283 0.032306276 -0.042909127 0.086731985 0.021054467 -0.15418997 -0.11663842 0.082959384 -0.009510189 0.15960976 0.048050825 -0.10556355 -0.032316834
6239.B0350.2f.2 0.29852623 -0.033620823 -0.00987776 0.04637201 0.15615946 -0.10189098 0.12669358 -0.15938391 -0.015531139 0.25657716 0.27046904 0.035795964 -0.074478194 -0.15631917 0.015740564 0.11860519 0.19370855 -0.24220625 -0.07391641 0.31301636 0.10082726 0.010606275 -0.22549419 0.060488854 0.07086331 0.13412176 -0.15785871 0.044030942 -0.008615367 -0.19091387 0.084457986 0.16733453 -0.272037 -0.019875208 -0.04232819 0.13193935 0.053166527 0.001039577 -0.15338802 0.05436009 -0.11521161 0.2295037 0.13193983 0.032765068 -0.08804581 -0.0083854925 0.13010535 -0.18282837 -0.12577914 0.06564749 -0.10961064 0.11094831 -0.11324698 -0.09237118 -0.09261949 0.057340283 -0.0215856 0.18216738 -0.20518368 -0.12820174 0.05388511 -0.15944204 -0.02219654 -0.1703968
6239.M117.2a.2 0.13662784 0.013335235 -0.061736785 -0.13766944 0.08083675 -0.027909758 0.007690563 -0.08382297 -0.28537184 -0.019202344 -0.0024392006 0.13127369 -0.007949949 -0.034160946 -0.08572334 0.004051267 0.2118515 -0.22402608 -0.15788096 0.45524776 0.24888219 0.1034424 -0.08707284 0.012179504 -0.09738757 0.1881784 -0.21764855 -0.16500352 -0.1296741 0.02889655 0.01680397 0.3257888 -0.25400552 -0.11103404 0.01287575 -0.08197026 0.007456039 0.06720345 0.18372159 -0.01196535 -0.2670042 0.37400535 0.26595482 0.02932084 -0.11789738 0.33550295 0.23411648 -0.051248763 -0.2595258 0.13077645 -0.14096501 -0.06844339 -0.06953522 -0.06984831 -0.10509247 -0.059207268 0.07200365 0.094137326 -0.11487972 0.06725875 -0.06537442 0.13177931 -0.061210025 0.0030543883
6239.ZC168.4.2 -0.0494834 0.013146881 -0.09433024 -0.01031701 0.010387524 -0.07476663 -0.20287244 -0.23894513 -0.12605934 0.36616364 -0.15981004 0.19959253 0.13836287 -0.14031526 -0.08614621 0.17054579 0.2514824 -0.29174623 -0.2511212 0.18029048 -0.02221074 0.120178744 -0.008856668 -0.076453365 0.2991628 0.07850259 -0.019811247 -0.06621096 0.15154012 -0.10967605 0.21328065 0.16085416 -0.44127044 0.059846845 -0.096715495 -0.07318277 0.07344014 0.09752808 0.056859072 -0.09607427 -0.07210224 0.24332143 0.19771753 -0.0026714525 -0.122302026 0.1442056 0.32757464 -0.091580406 -0.25515565 -0.08895959 -0.1672097 0.0031358036 -0.081413954 -0.15106912 -0.1562399 0.088723734 -0.15806988 0.3749158 -0.043365903 -0.14780517 0.09138139 0.25091532 -0.17494446 -0.06845497
6239.F25B5.4a.2 0.11124147 0.18813764 -0.21039069 -0.24924636 -0.10778586 -0.19042307 -0.06950428 -0.08935689 -0.21525647 0.26779768 -0.074340455 0.34054318 -0.049172148 -0.21887867 -0.09336068 0.13056895 0.039347116 -0.25930873 -0.1566983 0.25961208 0.18243079 0.08358814 0.15584014 -0.19669011 -0.14636427 0.008852151 -0.25473005 -0.21572863 -0.08847535 0.04647472 -0.03562699 0.19879597 -0.23226133 -0.2888109 -0.122793555 -0.13724619 0.12275448 -0.14940031 -0.17193173 -0.16491209 0.07214618 0.13243197 0.41110072 -0.10464106 -0.09291709 0.22378461 0.12059405 -0.2069711 -0.068021595 -0.021147938 0.034796666 0.15797426 -0.009517334 0.012783924 -0.11837779 0.07939474 -0.26540247 0.10188202 -0.011414787 -0.2318796 0.18587092 -0.15190738 -0.19159907 -0.18289348
6239.C54D1.6 0.31589988 0.12179015 -0.048018664 -0.062297866 -0.15011981 -0.15872712 0.21471727 -0.1457685 -0.22078022 0.09369764 -0.06014478 -0.10388949 0.3659483 -0.1311898 -0.07560713 0.15226837 0.028714392 -0.06003671 0.025354687 0.23962574 -0.02701207 0.33656484 -0.031201376 -0.2572943 0.32312012 0.075817026 -0.16951959 0.10067298 0.11738998 -0.101061784 0.121612355 -0.07580436 -0.32042664 0.1612087 0.027983746 -0.14579557 0.21285136 0.24076922 -0.029068151 -0.15253977 0.31173635 0.24244423 0.02744758 -0.024619766 -0.037839327 0.16698737 0.13648288 -0.11302003 -0.14707874 -0.047928877 0.051687993 -0.0605133 -0.009448858 0.007450009 -0.17953755 0.027789542 0.05369734 -0.12550476 0.021407643 -0.22664335 -0.087569095 0.022114864 -0.07714897 -0.04442045
6239.M142.1c -0.052899003 0.07528402 -0.35037377 -0.31323153 0.2626133 -0.12497615 0.046998847 -0.29539412 0.039921556 0.26166376 0.37586 0.4213851 -0.017553307 -0.029863821 -0.033024766 0.15436661 0.11740593 0.021019392 -0.07333289 0.43691748 0.11148618 -0.08006397 -0.09189 -0.20822965 -0.14683788 -0.014431289 0.14763981 0.21138814 0.0913719 0.009034132 0.3268605 0.06205807 -0.37013337 0.003555553 0.2511239 0.11517618 -0.0035508086 0.14148624 -0.016160564 -0.1395816 -0.14489137 0.070252776 0.07819612 0.12639181 0.03476036 0.15094233 0.07555881 0.026457466 -0.2142352 -0.14275952 0.06400131 -0.0060290922 -0.06174666 -0.0075981137 0.13579603 0.19023854 0.08555656 0.16810408 -0.11822128 -0.031080533 0.048218995 0.24185228 -0.10813752 0.009462668
6239.T06E6.2a.2 -0.011196938 -0.05653697 -0.11344539 -0.015607443 -0.0022750057 -0.12201914 -0.20244539 -0.26474148 -0.080146566 0.42553514 0.024471639 0.2739574 0.22884767 -0.032521345 -0.12126776 0.07306777 0.30205467 -0.25121167 -0.23827125 0.1737467 -0.01362823 0.16954806 0.07830294 -0.14567052 0.33383623 0.055414405 -0.06672437 -0.10603767 0.0017254191 -0.104290724 0.21487872 0.19258255 -0.31926852 -0.014365392 -0.09963546 -0.034170967 0.097655475 0.040530503 0.13817567 -0.1111098 0.009319597 0.2643676 0.2960274 0.007206874 -0.17321223 0.21992986 0.23616761 -0.031524695 -0.22954227 -0.121861376 -0.19481416 0.040426042 -0.039881893 -0.20297056 -0.11138457 0.020131534 -0.11175885 0.38552776 -0.13957947 -0.25192106 -0.007964049 0.15746361 -0.19699965 -0.052218713
6239.K12H4.8 0.32167235 0.19041534 -0.1560344 0.17877133 0.037855033 -0.10008035 -0.020415911 -0.23207705 0.11099779 0.09543278 0.17632815 0.14648467 0.23374301 -0.20032567 -0.14216018 0.24844605 0.2959358 -0.26143062 -0.26597908 0.24274784 -0.093225956 0.015261929 0.020634443 -0.33438787 0.21473368 -0.10758598 -0.2657768 -0.02025645 0.13715212 -0.13297701 0.04389949 0.042777494 -0.26429343 -0.13014777 -0.07466242 0.0035990346 0.2892834 -0.051587634 -0.004758365 -0.071827434 -0.17838213 0.016875649 0.13990872 -0.1346355 -0.28266206 0.15792623 0.17701586 0.0993388 -0.21713807 0.08134 -0.12789083 0.022173705 -0.13849439 0.08306286 -0.10746729 -0.06978362 0.06130893 0.21444702 0.27882788 -0.0112351235 0.11211702 0.27108374 -0.00806693 -0.16029538
6239.C44C11.1a 0.15411615 0.008924359 -0.1486879 -0.08533613 -0.14736195 -0.07630098 -0.14815602 -0.060415283 -0.017144935 0.2056432 0.008809935 -0.08789904 -0.059697814 -0.101854585 0.14191836 0.06265264 -0.04485869 -0.33798823 0.009613613 0.31327876 -0.025485033 0.15917006 -0.008019399 -0.09255256 0.09746419 0.13589829 -0.10147167 0.09020618 -0.07514582 0.002941042 0.2516761 0.21553168 -0.31405827 -0.11886003 -0.02789877 0.10006013 0.03492142 0.15403305 0.18718573 0.08583252 -0.005473421 0.1835216 -0.031223074 0.13718398 0.1877553 0.07198369 0.25538915 -0.037037775 -0.1254834 0.1592119 -0.1951218 -0.0353845 -0.15231565 0.0012407436 -0.173137 -0.16425622 -0.06549361 -0.021228027 -0.12207974 0.014677462 -0.06924557 0.32943237 0.0992585 0.08511164
6239.C07H6.1 0.3162557 0.09023608 -0.25722155 -0.12402264 0.0874282 -0.14960977 -0.03118971 -0.2737864 -0.055436816 0.29920185 0.04545253 0.20921381 -0.01773488 -0.043877523 -0.08907333 -0.063399285 0.0033848933 -0.36587864 -0.1363788 0.14514196 -0.04320695 -0.1479615 -0.1124575 -0.27696648 0.124304354 0.28393203 -0.035444524 -0.0124327205 0.09622432 -0.1833051 0.06584624 0.19054346 -0.46857372 0.05111128 0.060163166 -0.124727175 0.06661326 -0.12942138 -0.14226583 -0.12549354 0.07287512 0.073035076 0.18153328 -0.07460426 -0.19607884 0.21158563 0.11276884 0.09604776 -0.06590483 0.049973432 0.105499804 0.19506374 0.016994242 0.032449577 0.13729496 -0.061035987 -0.036389038 0.29555905 0.06303758 -0.29428247 -0.13912442 0.057374284 -0.11132037 0.14688893
6239.F52D10.3a.1 0.104784764 -0.017478175 -0.095277905 -0.05974008 0.0707203 -0.009505906 -0.01611226 0.043793123 -0.2364715 0.08737381 -0.044406522 0.028660176 0.019273728 -0.048092116 0.0080314735 0.011093862 0.15187298 -0.15866773 -0.15013316 0.48067278 0.20577377 0.15254907 -0.09872001 0.022208229 0.06518176 0.17852663 -0.19820923 -0.22105405 -0.025981015 0.051506985 -0.08326535 0.32583627 -0.2353635 -0.169974 0.078238875 0.037299044 -0.08575482 0.047673706 0.2115158 0.01929633 -0.24784233 0.38708887 0.24050547 0.004712892 -0.15084699 0.26757705 0.18204059 -0.06906106 -0.20531482 0.26286313 -0.11049087 0.048485678 -0.18106914 -0.021311337 -0.116178684 0.007222776 0.059198942 0.12711863 -0.04656217 0.054061 -0.12581897 0.104589306 -0.023280388 -0.06424666
6239.F18H3.5b 0.04263242 -0.052309908 -0.12222512 0.10227713 0.03713191 -0.29394567 -0.010679759 -0.26213104 -0.23750192 0.35969967 -0.26176342 0.07323449 0.08752477 -0.15661387 -0.25506517 0.023267841 0.20122075 -0.25366452 -0.21973144 0.37976563 -0.073227875 -0.00906549 0.085939184 -0.123850696 0.26428807 0.15169449 -0.056556605 -0.16040102 0.14328042 -0.06352781 0.094913304 0.20806867 -0.36582252 -0.05260525 -0.1314209 -0.09420065 0.1071537 0.12887676 0.12076691 0.05021243 -0.029246923 0.22612832 0.15488982 -0.012286825 -0.12925586 0.13568191 0.28526962 0.012815582 0.14299834 -0.0009797973 -0.06600064 0.12895305 -0.2532047 -0.19747914 -0.19169867 0.029891018 -0.16764513 0.178772 0.06569289 -0.113372795 -0.07227367 0.24766545 -0.22903298 -0.2220271
6239.K01A6.2a 0.29106382 0.057426456 -0.024851475 0.122884415 -0.023689624 -0.09476155 0.042973436 -0.14183412 -0.19196337 0.2695422 0.17677638 -0.14477314 0.025390679 -0.15866362 -0.073267326 -0.00016285041 0.012400991 -0.13504 -0.29951167 0.31795335 0.051259596 0.1813232 -0.19491546 -0.06760212 0.04575424 -0.06947035 -0.22087823 -0.013998638 -0.029461408 0.065664165 0.14821926 0.03764616 -0.2798854 -0.07844425 -0.039482806 0.006280643 -0.07124383 -0.19075224 -0.2853578 -0.23698331 0.09682503 0.01834504 0.10363333 -0.14121462 -0.036449604 0.2507015 0.18523408 -0.09565587 -0.116898015 0.32994917 -0.14579737 0.30550617 -0.09598936 -0.20496017 -0.25073388 -0.024614435 -0.15221314 0.0798051 -0.19264744 0.10690931 0.04697949 -0.084761076 0.16225086 -0.05714408
6239.R08C7.3.2 0.18432449 -0.08765854 -0.17699446 0.04698476 0.09902194 0.1093099 -0.27757832 -0.19276622 -0.10225696 0.42403233 -0.10788627 0.13335852 0.20081656 -0.15568161 -0.09811837 0.22833441 0.3626056 -0.169735 -0.16318995 0.086880215 -0.17145753 0.06751638 0.034395147 -0.2679814 0.21265583 0.19957697 -0.21431378 -0.060666192 0.12882403 -0.029114436 0.16694824 0.13169336 -0.19318494 -0.18889268 -0.15941592 0.12237987 0.0051677236 0.08243976 0.15009892 -0.21169275 -0.056321688 0.055624276 0.24988769 0.1325903 -0.094309 0.31808242 0.21486309 -0.07228691 -0.035947967 0.12903437 -0.038462624 -0.1187128 -0.025068862 -0.148304 0.07874431 0.06931244 -0.21000347 0.20379458 0.10268471 -0.2997913 0.025457552 -0.053012934 -0.13297403 -0.12778017
6239.C09G12.8b 0.32176235 0.10714537 -0.28844994 0.007190181 -0.0049720174 -0.054203834 0.004535225 -0.39278412 -0.13185497 0.18165472 0.14123158 0.050049234 -0.05173995 0.01681758 0.13211158 -0.038519878 0.15513945 -0.30320185 0.033056904 0.39123642 0.055177532 0.12892823 -0.030567013 -0.21564001 0.11202571 0.028163709 0.025997736 -0.06228642 -0.07729435 -0.07584595 0.21129176 0.40508544 -0.3103259 -0.061012685 -0.101499714 0.11778539 -0.15351066 0.043870583 0.07375184 0.055971846 0.1301202 0.05262125 -0.11264725 -0.011001864 0.24992885 0.0030217874 0.26968053 0.05744254 -0.10698859 0.24645291 -0.07640559 0.008019575 0.052885137 -0.112104006 -0.16049503 -0.040116973 0.2628427 -0.0057282303 -0.15633745 0.038826752 -0.028017554 0.15311922 0.18262054 -0.097683966
6239.C02C6.1b 0.42652398 -0.055010892 -0.25222534 -0.1972782 0.04274514 -0.019320458 -0.15137616 -0.046264622 0.13673447 0.2859048 0.08831268 -0.061384924 0.03190709 0.16471118 -0.05521346 0.1128434 -0.0041838475 -0.36375353 -0.22113968 0.22386009 0.16278747 0.030863741 -0.09936054 -0.30795282 -0.0019392131 0.3357969 0.07594907 -0.12593414 0.009194055 -0.15755166 0.23833396 0.23647137 -0.10491786 -0.13313042 0.03326029 -0.0402327 -0.07460672 -0.10315986 -0.26004937 -0.033679925 0.037817236 -0.060844388 0.026170086 0.08611268 0.038737673 0.0009861146 0.25557786 0.068350166 -0.17585313 0.21899776 0.026339753 0.13492079 0.18675426 -0.0751376 -0.2102692 0.058650885 -0.058247533 -0.059388038 0.03598216 -0.10651284 0.038908556 -0.035488684 1.990653e-06 -0.06942516
6239.B0207.4 0.0517565 -0.1616267 -0.22309698 -0.0082032615 0.033833906 -0.17744288 -0.17185028 -0.19722033 -0.1426409 0.505151 -0.024108594 0.08251971 0.08314223 -0.18565953 -0.3236164 0.034438387 0.24799074 -0.21070282 -0.3136388 0.081182785 -0.07754624 0.13411221 -0.06787301 -0.08424212 0.3075709 -0.020035645 0.09771922 -0.07699164 0.09075873 -0.13336979 0.39231497 0.3473842 -0.40257776 0.14603381 -0.049691286 -0.15563653 0.022303388 0.12723118 -0.036101628 -0.16342017 -0.02409641 0.09596786 0.19836551 0.081526056 -0.03990797 0.18884233 0.2407599 -0.034029853 -0.15981166 0.07588078 -0.18301566 -0.05579223 -0.13920864 -0.15833746 -0.07274769 -0.08219875 -0.030804737 0.37908718 -0.056661338 -0.25370312 -0.046016168 0.11199388 -0.18102847 -0.065544665
6239.C32F10.2 -0.017894333 -0.047119975 -0.22705483 0.09822514 0.116872616 -0.22879536 -0.1457833 -0.33477044 -0.025388872 0.16871299 0.028614778 0.22031444 0.22631341 -0.059157386 -0.003098001 0.31002566 0.3601077 -0.16350833 -0.15870719 0.23591757 -0.12785862 -0.10928846 -0.06702572 -0.3509123 0.2006183 0.062574156 -0.107891046 0.025882382 0.23406447 0.036406323 0.20708697 0.21063092 -0.48267436 -0.083900966 -0.04573058 0.095245086 0.23891522 0.23238054 -0.19398482 -0.08841117 -0.01627777 0.03261113 0.15366521 -0.0031396686 -0.105411865 0.29277167 0.12098536 -0.017305557 -0.039645344 -0.123185426 -0.011268869 -0.013215736 -0.052333962 -0.09128721 -0.14389123 -0.035140008 -0.1377223 0.30897588 0.26448828 -0.21880978 0.045318346 -0.0058466955 -0.11510229 -0.1320845
6239.C37A2.4a -0.054270614 0.036406003 -0.3756647 -0.15536928 0.0029126354 -0.18722144 -0.12609091 -0.37887654 -0.006568865 0.37180543 -0.2314711 0.20395741 0.029171927 -0.0014311373 -0.061808698 -0.007566873 0.19734362 -0.24378595 -0.083239906 0.2488982 0.043008335 0.018656999 -0.009172708 -0.104378015 0.27726907 0.05545296 -0.07278556 -0.06296997 0.19762918 -0.030408075 0.26887292 0.039768215 -0.4157949 -0.070175976 -0.072540656 -0.08159355 0.08491626 0.20001748 0.07800016 -0.124826625 0.09379152 0.217044 0.16972281 0.16049281 -0.02050978 0.15478806 0.36501047 -0.12896188 -0.20153162 0.041190546 -0.21459566 0.0730418 -0.20520678 -0.11199526 -0.037250966 0.05432229 -0.05231169 0.27252775 -0.06467233 -0.10360057 0.08037107 0.20372914 -0.22541063 -0.037935738
6239.W06B3.2c -0.08196524 -0.13946946 -0.042604253 0.04615919 -0.060571447 -0.01439184 -0.04379321 0.016236164 -0.07149248 0.16559277 0.05468434 -0.019880367 -0.06194927 -0.19119422 -0.10327813 0.022000706 -0.07554034 -0.09992753 -0.10961103 0.3710158 -0.080180764 0.20682025 0.17862886 -0.124947205 0.22909823 0.46360528 -0.21244879 0.15998724 0.049398825 -0.118814394 0.10193109 0.2382766 -0.23415135 -0.1383407 -0.04589834 0.05847452 0.09222106 0.0662124 0.13780858 -0.008453269 -0.18622024 0.37231573 -0.15894906 -0.15888694 0.015348574 0.16704269 0.041668337 -0.14478552 -0.30199936 0.059773173 -0.22009173 -0.11831221 -0.058387816 0.004905413 -0.21274064 0.0721114 -0.05513153 0.1893752 -0.093864046 0.04246277 -0.13584748 0.16936459 0.07939044 -0.044240616
6239.F37A4.8 0.35185167 -0.027534498 -0.1689082 0.022163311 0.008073803 -0.020526156 -0.38676962 -0.17637499 0.013669412 0.23847535 -0.10820439 0.3611037 0.18119814 0.028015675 -0.0671331 0.17243782 0.22284397 -0.25194162 -0.20073617 0.15843253 -0.056340355 0.08809614 -0.05751914 -0.21608718 0.24294777 0.23903945 -0.22484413 -0.115468055 0.04543252 -0.021779805 0.049667627 -0.04700351 -0.35947824 0.05855225 -0.13773121 0.051007006 0.21412538 0.20688729 -0.06367645 -0.16009925 -0.22604333 0.07431249 0.3189726 0.032801982 -0.20800312 0.30255944 0.22430871 -0.053400535 -0.049060725 0.07012814 -0.11031797 0.016966566 -0.10752848 -0.041938588 -0.12773716 0.035548765 -0.13132474 0.43237364 0.114400156 -0.21713288 0.014028555 0.076460406 -0.04036401 -0.07697449
6239.C07H6.5 0.112830676 -0.010172154 -0.34364107 0.11268305 0.0473256 0.06438512 -0.08491344 -0.07201207 0.11655208 0.10092533 -0.058648594 0.21281844 0.10145599 -0.007237532 -0.29412642 0.015081331 0.056628224 -0.25434533 -0.25389293 0.3324242 0.09050441 0.037630152 -0.046341397 -0.20738651 0.14680591 -0.033882614 -0.12567694 -0.004199467 -0.010526248 -0.014379429 0.29893342 0.022776823 -0.23121755 0.0277909 -0.18625167 -0.19760647 0.21990868 -0.08170123 0.22077937 -0.07917263 0.04589671 0.404501 0.28519076 0.23579282 -0.2198996 0.13077596 0.19726227 -0.060463715 -0.29365677 0.17031889 -0.4781384 0.13524324 -0.14525087 0.030409768 0.027315432 0.22996491 0.1385653 0.26240033 0.26280326 -0.052787073 0.12448077 0.044354405 -0.092418745 -0.17139862
6239.R07E4.6c 0.23698273 -0.18360417 -0.111110814 -0.014098554 -0.1054456 -0.030968605 0.12049104 0.0643445 0.11272039 0.14421046 0.124954976 0.13192455 -0.028712034 0.056129288 -0.17456338 -0.092094585 -0.05453238 -0.21533263 -0.35438743 0.24472854 0.022897331 0.27279565 -0.20332597 0.062238235 -0.08489683 0.043021698 -0.19759414 0.12283356 0.13616258 -0.055436067 0.1823121 0.26346576 -0.18782985 -0.25829896 0.0051324293 0.14800772 -0.0018620308 0.1449989 -0.2550893 0.016847597 -0.16801599 0.44333786 -0.09389885 0.07058348 -0.16660877 0.035819657 -0.053609755 0.09486633 -0.0981518 0.22323462 0.04276541 0.035826422 0.005337481 -0.10215731 -0.23451231 0.035458423 -0.10579908 0.16688812 0.19715889 0.08931398 0.0026437049 0.106758095 -0.17677292 -0.07485549
6239.Y18D10A.5 0.02334255 -0.018421363 -0.15601489 0.22746056 -0.05070485 -0.24080777 -0.004353699 -0.06219725 -0.40146372 0.3477658 0.017436909 0.16391473 0.12128603 -0.07832944 -0.052993845 0.011850397 0.13722491 0.04946133 0.0043133018 0.15262689 0.033947464 0.22284187 -0.04814922 -0.41623303 0.08260815 0.12842186 -0.09957683 -0.077126674 0.13405333 -0.10617454 0.079290666 0.23215337 -0.06081592 -0.3201219 0.044959903 -0.3173217 -0.017043874 0.11839469 -0.024785984 0.037754767 0.13945098 0.26616627 0.21372984 0.010925181 -0.09128896 0.07965248 0.40529552 -0.038900513 -0.23988901 0.30569765 0.05599735 0.038118966 0.12966311 -0.14247064 0.09863534 -0.11521479 -0.05358939 0.015391746 -0.10648686 -0.22845069 0.0003695331 0.11583092 -0.3083486 0.094527036
6239.K05C4.6b 0.24269727 0.036199287 -0.07559061 0.09924193 -0.088773444 -0.18510075 -0.019640045 -0.3068391 0.01656548 0.2809004 -0.020187695 -0.061425533 0.24226935 -0.13830942 0.04992874 0.28623146 0.0072917226 -0.04717362 -0.035469163 0.34572247 -0.023038693 0.1886107 0.01995013 -0.43819726 0.32779214 0.043359134 -0.119462654 -0.08954263 0.018839095 0.01224211 0.3003237 -0.045802817 -0.23951137 -0.057278905 0.053737838 -0.1413849 -0.096174076 0.13456085 -0.012672432 -0.11933657 0.20292458 0.07389831 0.2822791 -0.15240009 -0.106835306 0.14021058 0.27224672 -0.094976954 -0.08734602 0.14132781 0.06308553 -0.008905338 -0.055114392 -0.11543407 0.08601624 -0.05933119 -0.008202412 0.011752061 -0.047295853 0.04143696 0.11521638 0.12868315 -0.006990991 -0.16024835
6239.C02F4.2c 0.14383511 -0.21974002 0.0594048 -0.15572123 0.034842055 -0.062270135 0.14683013 0.05972706 -0.041271497 0.101013966 0.11642759 0.1015982 0.08180624 -0.063051425 -0.1665882 -0.047450073 0.13484506 -0.23262714 -0.4413501 0.17539068 -0.06117934 0.3514714 -0.31180036 -0.01984493 -0.050639056 0.33829576 -0.21760309 0.021490024 0.0007046331 -0.09377782 0.09997476 0.31614774 -0.18174616 -0.030464489 -0.10177744 0.0038885889 0.04467476 0.13170888 -0.14914162 -0.04106906 -0.09825887 0.2756947 -0.1605836 0.0017053201 0.04207101 0.062128905 -0.037262496 0.11593329 -0.08457061 0.02458735 -0.11626176 0.2389362 -0.22148082 -0.18602368 0.0017226646 -0.079291165 -0.031286918 0.17865334 0.078631625 0.0008853776 -0.067829855 0.035844237 -0.17106564 0.014362266
6239.F26D10.3.1 0.13592364 0.067107975 -0.2746641 -0.03713731 0.020413082 0.18103813 -0.06519017 -0.091130696 -0.042096604 0.2866454 -0.14797713 0.10280323 0.22212876 -0.28613642 -0.12631004 0.2602712 -0.020168014 -0.2664362 -0.27178416 0.33912176 -0.119311 0.17856902 0.08273432 -0.35380515 -0.12606163 0.04743508 -0.041216794 -0.36412448 -0.25602415 0.005072128 -0.121573016 0.0371221 -0.08554933 -0.13430782 0.037052047 0.061136257 -0.011612208 -0.28451648 -0.052427504 -0.034323607 0.08780512 0.15192282 0.40215242 0.03571051 -0.17834647 0.041915454 0.07246207 -0.22791569 -0.20143794 0.10254215 -0.033954483 0.10648596 0.06819079 0.15614092 -0.26384255 0.11075413 -0.06485311 -0.06422818 0.20971543 -0.06037926 -0.22072987 -0.00622799 0.0036781183 -0.21582514
6239.K07A9.2 0.058562994 -0.11230009 -0.09443742 0.06848544 0.014757782 -0.043580636 0.051212575 -0.09162158 -0.11047678 0.31060365 0.11844883 0.0735421 0.043487567 -0.12072487 -0.32103565 0.26924697 -0.06648342 -0.1758266 0.0020066046 -0.027156597 0.05633702 0.04753504 -0.18923639 -0.03544987 0.06359315 0.18803556 -0.2567589 0.009252402 0.015599551 0.013061523 0.083993345 0.19286782 -0.11214712 -0.12892692 -0.0907801 0.049967248 0.03425221 0.020214012 -0.07617132 0.0070950766 0.007830495 0.164792 -0.07535732 0.31815353 0.0673865 -0.12536213 0.14491375 -0.11676596 -0.34090972 0.20324966 0.08697419 0.09087036 -0.23068708 -0.08817772 -0.103309415 0.081632584 -0.12858538 -0.048331376 -0.07725799 0.076930955 -0.010415458 0.10313614 -0.113769256 0.017698288
6239.T04C12.6.2 0.19668753 0.036215905 -0.22633535 -0.018528504 -0.012937364 0.09962978 -0.13893293 0.022488402 -0.032639798 0.1512017 0.027096082 0.14483128 0.098999776 -0.1621957 -0.30300048 0.08981609 0.01992359 -0.3526718 -0.26956573 0.29946032 0.0975649 0.16150483 -0.032786883 -0.18220548 0.08135598 0.22093076 0.09722754 -0.1937404 0.012219886 -0.086157404 0.01779253 0.4457765 -0.22227274 -0.052644722 -0.08056259 0.2792455 -0.22239587 0.24672404 -0.019878803 -0.09623283 -0.09542524 0.10683487 0.10856633 -0.09814621 -0.23095492 0.039720275 0.40945962 -0.114038944 -0.07297553 0.0029286651 -0.07411389 0.09038542 -0.17276338 -0.084755495 -0.12807065 0.01866017 -0.027809309 -0.13310471 -0.07365211 0.052136134 -0.047286056 -0.11034532 0.08782488 -0.008402313
6239.Y51H4A.3 0.2140267 0.0586532 -0.19119528 -0.0042895544 -0.06836606 -0.06910809 -0.028363323 -0.22412865 -0.04390831 0.23876363 0.16049418 0.026018986 0.011306662 -0.0035175704 -0.10056317 0.0413026 0.122486025 -0.32344157 -0.13608201 0.25265685 0.035366226 0.06372753 -0.030443082 -0.24471584 0.12188547 0.09164705 -0.0030838281 -0.09720857 -0.049827788 -0.077473156 0.22267124 0.40720043 -0.22819483 -0.09917502 -0.07684757 -0.0135271195 -0.040255424 0.009686633 0.11815595 -0.08039323 -0.0021913352 0.056337435 -0.044619948 -0.080917686 0.13632047 -0.008325401 0.44121206 -0.11830918 -0.12925126 0.31985474 -0.05429352 -0.0019033835 0.001498147 -0.2662717 -0.09776285 -0.18800972 0.18366292 -0.15321094 -0.23516215 0.018628139 -0.02699921 0.19537792 0.072890125 -0.06692519
6239.F42G8.4.1 0.008715458 -0.17490731 -0.12996261 0.15397799 0.07717757 -0.020877026 0.16373806 -0.063751966 -0.19509146 0.1151888 0.058229737 0.08604327 -0.049687106 -0.10693862 -0.0070787673 0.1334124 0.027693989 -0.21480647 -0.18592195 0.35052085 -0.05547796 0.09335934 0.055536117 -0.08032992 0.16749945 0.4136409 -0.18476316 -0.21231523 0.0996214 -0.39479703 -0.03572597 0.3217275 -0.44342434 -0.04348489 -0.018245654 -0.07904944 0.058819845 -0.004154639 -0.09968683 0.08364874 -0.15535673 0.31740916 -0.009533813 -0.13738257 -0.08714551 0.15730117 0.12922019 0.0650608 -0.22604732 0.15920696 -0.1341841 -0.06859464 0.07618302 -0.20474122 -0.05483327 0.0029785084 -0.18137367 0.11986312 -0.16984157 0.08997912 -0.10418178 0.097730115 0.056237396 -0.042289555
6239.F17E5.1a 0.36498192 0.02733528 -0.15950416 -0.053890627 -0.0005571183 -0.09445312 0.15703283 -0.22282033 -0.11034983 0.029672973 0.29010028 -0.17101929 0.036082204 -0.098975055 -0.17530818 -0.050166752 0.16517663 -0.16801153 0.04338714 0.24482869 0.05698273 0.23099773 0.030240178 -0.19879587 0.09586353 -0.012397362 -0.17691256 0.19258873 0.15299344 -0.023271568 0.23966114 0.08005185 -0.32103455 -0.024712238 -0.11652014 0.033038054 0.055516023 -0.18869673 -0.087295644 0.059488717 0.09828066 -0.04628374 0.043626323 0.091938145 0.08323571 0.16582064 0.07588734 -0.13057707 -0.20705067 0.32718208 0.123457335 0.20739041 -0.13807791 -0.058959592 -0.22020127 0.012572567 -0.06940397 0.21900184 -0.08108941 -0.07406997 -0.021452405 -0.09735668 -0.016356928 0.21088892
6239.F26E4.10a 0.07551397 0.09112137 -0.1971488 0.10055347 -0.095392816 -0.006738197 -0.11132593 -0.1839524 0.13464324 0.085467435 0.17419012 0.09411871 0.034876827 -0.15573545 -0.17594622 0.29421318 0.3054837 -0.29435766 -0.24688247 0.15487722 -0.009994057 -0.021832397 -0.03320636 -0.2890149 0.25851354 0.045257412 -0.27133262 -0.0906 0.1902788 -0.15412743 0.13761592 0.17987838 -0.32926455 -0.09424721 -0.20423894 -0.14683588 0.21095832 0.042256042 0.03638823 -0.23105562 -0.041600745 -0.00043172552 0.27246523 -0.14337742 -0.2168731 0.23609918 0.15529455 0.066038325 -0.35703394 0.15778066 -0.17938392 0.2476664 -0.05869114 -0.113115326 -0.121647835 -0.15782352 0.019054411 0.28790018 0.41713786 -0.039632767 0.20366922 0.3279596 -0.0623825 -0.163679
6239.K07C11.2.2 0.08013868 -0.25008312 -0.2553711 0.042933434 0.08467124 0.0036128082 -0.22932243 -0.14764087 -0.17007276 0.4512412 -0.12722772 0.13403897 0.085159875 -0.025245018 -0.1840272 -0.01405854 0.21127124 -0.22625968 -0.26496828 0.13500881 -0.03010073 0.024026446 -0.13212956 -0.13699196 0.20279263 -0.04085411 0.02782433 -0.017389275 0.08718986 -0.21993038 0.36582798 0.289978 -0.4123572 0.067868695 0.034298934 -0.14671996 0.019195082 -0.011735997 0.026382076 -0.13232753 0.053582877 0.1887972 0.14578214 0.1388431 0.038438514 0.17855594 0.31105378 -0.14750831 -0.18597607 -0.011966924 -0.22706957 0.0437541 -0.1070608 -0.28924382 -0.091981806 -0.051026627 -0.09952801 0.24853165 0.044687286 -0.3195494 -0.011411589 0.15778784 -0.027479183 -0.07969523
6239.C47D12.1a 0.24020149 0.17594999 -0.3387109 0.08356014 0.20083295 -0.23663881 -0.104246736 -0.16049294 -0.13595988 0.3724983 -0.21750128 -0.06583701 0.28387612 0.01359633 -0.07736891 0.013417429 0.070558734 -0.37582585 -0.06151711 0.04131995 -0.22143325 0.16451168 0.09869083 -0.19498001 0.019102022 -0.06948774 -0.22849168 -0.053488966 -0.12504716 -0.054571684 -0.050927855 0.007700227 -0.44696975 -0.0037151517 -0.29740882 0.0725326 -0.0011851036 0.1583955 -0.02433678 -0.025176473 -0.26136196 0.4089463 0.4195313 0.17556964 -0.035897125 0.14344469 0.30953446 0.09460486 -0.10311841 0.2710068 0.051569104 0.054701198 -0.19011368 0.081258714 -0.16108878 -0.20507097 -0.061844006 0.30012706 -0.048767567 0.059324507 -0.040076762 0.0007102786 0.16064215 -0.12908922
6239.F42H11.2 0.30569008 -0.16968586 -0.22351742 -0.0155075565 0.15780988 -0.15119839 -0.103991665 -0.24977788 -0.11967456 0.12174723 0.070898086 0.1605182 -0.06178139 -0.011976142 -0.1467728 0.06655344 0.18436064 -0.38178468 -0.41627887 0.23682936 -0.07819539 -0.0041440614 -0.014185628 0.07271249 0.26659575 0.14401443 -0.20550758 -0.0079161525 -0.20193608 0.17139383 0.32351518 0.20299393 -0.37483835 0.073711105 0.049861263 -0.022706544 -0.07889619 0.17832395 0.03975317 -0.22186697 -0.055813905 0.38717905 0.1491737 -0.19579095 -0.092455916 0.25632012 0.23172702 -0.0042832606 -0.19953285 0.119880185 -0.08589388 0.055332668 -0.13151278 -0.2230185 -0.24399975 -0.0349247 -0.18409729 0.29059428 0.05310213 0.014882571 0.1262645 -0.16294506 -0.05734542 -0.13804457
6239.ZK524.2d 0.105165444 -0.058682673 -0.0492794 -0.27122825 0.10273767 0.018954702 0.098406434 0.06789576 0.010207281 0.20872115 0.43435574 -0.019725477 0.032154154 0.04173464 -0.13338217 0.09164351 -0.0383924 -0.04644113 -0.06802599 0.1665298 0.03017261 0.18623173 -0.22027715 -0.15018977 -0.0892764 0.09735364 -0.069861196 0.29276353 0.2684296 0.14824148 0.2500554 0.1403161 -0.11030572 -0.06331695 0.048877053 -0.05091913 0.25899246 0.18871611 -0.104889564 -0.074538685 -0.046264015 0.27705324 -0.058597185 0.3346544 0.160538 -0.10917337 0.14228074 0.040482808 -0.27681708 -0.10767934 0.3459661 0.14335433 -0.16041277 -0.083599225 -0.0115465475 0.18364869 0.16808645 0.35583684 -0.21029486 -0.21460491 -0.0015595728 0.11735051 0.09453228 0.078939624
6239.T06E4.3a 0.19608061 0.24841513 -0.4216191 -0.08573739 0.049656726 -0.2656045 -0.13936493 -0.21762319 -0.029579075 0.20653963 -0.23088486 0.1587049 0.28639075 0.095953844 -0.22850059 0.19354185 0.0841997 -0.47293833 -0.1897117 0.14988728 -0.15558231 0.20283394 0.21112318 0.05364629 -0.089939244 0.02614563 -0.13467714 0.0023551162 0.063093774 -0.1521065 -0.14943022 0.021442564 -0.5704627 -0.17280477 -0.16691872 -0.13797303 -0.17450534 0.07179072 -0.09911097 -0.031798974 -0.1965047 0.22131512 0.35780326 0.21156019 -0.058137357 0.08490579 0.3100015 0.099599205 -0.1918285 0.09329321 0.040726937 0.11901279 -0.15685873 0.12774953 -0.21605876 -0.21525352 -0.11771419 0.2958246 0.007710458 0.017971594 -0.057423875 -0.005227324 0.009783199 -0.09251108
6239.F38H4.9.2 0.10045948 -0.16103782 -0.06733387 0.098543346 0.17748487 -0.21155211 -0.08529318 -0.06074149 -0.03795978 0.12902784 0.021619031 0.21359695 0.12222262 -0.11979999 -0.057021618 0.059628334 0.10038354 -0.15203144 -0.32804543 0.2802134 -0.098718345 0.36392495 0.046033427 -0.07439676 -0.16681542 0.25767875 0.04163321 -0.035542853 0.1171742 -0.009301424 0.2348915 0.33101386 -0.26650837 -0.1390973 -0.40929762 -0.15651126 -0.10219316 -0.10238353 0.008864145 -0.0037008214 0.038651627 0.18746746 0.18028422 -0.020313472 -0.07329879 0.05702714 0.09989977 0.020168895 -0.019937392 -0.10833664 -0.26829788 0.0434978 -0.33871365 -0.18405683 -0.09031201 -0.024435919 0.040877674 0.10486313 0.053784963 -0.0072797383 -0.058101006 0.11636498 -0.13036309 -0.14633927
6239.Y47G6A.8 0.37654495 -0.07603549 -0.23040266 -0.04092112 -0.1969462 0.032941427 -0.26823002 -0.054008607 -0.102428764 0.1966083 -0.25768188 0.12786357 0.07564168 -0.026035722 -0.19816925 0.2231171 0.28772303 -0.359099 -0.15911229 0.22612375 0.048031673 -0.054899763 -0.1524973 -0.20088196 0.18183 0.041989017 -0.035058018 -0.023984002 -0.10365206 0.075198784 0.08136726 0.13157783 -0.52699393 0.022520168 -0.1460182 0.020702219 -0.010648926 -0.097157635 -0.16189423 -0.2916949 0.05259741 0.053117067 0.15451227 0.09273034 -0.26577455 0.2512496 0.037110873 -0.14504288 -0.11984619 0.22391786 -0.05057641 0.13634802 -0.043496564 -0.118217506 -0.07412407 -0.026191879 -0.0053950283 0.49396318 0.31613237 -0.20175135 -0.16860098 0.15280353 -0.11719204 -0.048331134
6239.M03A1.1b 0.09714937 0.00053967396 -0.30994755 0.054585084 0.09415061 -0.18634897 -0.13607916 -0.17005435 0.0026247213 0.21144098 0.20147176 0.0722886 0.18505308 -0.09272976 0.035479642 -0.20588297 0.14656357 0.0018508343 0.027053934 0.431601 -0.04207304 0.23662063 0.15913938 -0.22406042 0.080464154 0.1358825 -0.08955372 -0.031407617 0.1180011 0.022842556 0.24387881 0.29939088 -0.29950455 -0.026113398 -0.10493694 -0.16792554 0.1452626 0.011779203 -0.03934398 -0.13220367 -0.03716085 0.16577598 0.20645012 0.16476737 0.024041904 -0.08263048 0.17482013 -0.10701041 -0.10073406 0.27263817 -0.05198851 0.13702162 0.22956824 0.031491943 0.10402152 0.019320933 0.02237168 0.21115853 -0.24473482 0.0670566 0.08013365 -0.057569657 -0.0014204623 -0.16429281
6239.F43E2.8.1 0.12387302 0.13874064 -0.16599849 0.21886905 0.1227644 0.13392246 -0.12603523 -0.0963666 -0.20210348 0.18889251 -0.12258137 0.18727945 0.17626712 -0.3834533 -0.08025552 0.2720801 -0.094876975 -0.31827414 -0.21574724 0.22867827 -0.031243917 0.03375324 0.016227297 -0.38694978 -0.20394477 0.1433885 0.16867337 -0.34923738 -0.07040498 0.11308125 -0.06546581 0.04461071 -0.18016975 -0.030512389 0.26298377 0.023076214 0.022908147 -0.18704516 -0.21424733 -0.07200987 0.014459665 0.36253276 0.35337153 0.07925695 -0.21702562 -0.09773197 -0.004516121 -0.006178567 -0.36628962 0.0130300205 -0.06894736 -0.16424237 0.12014749 0.028744193 -0.30716112 -0.08366732 0.07316812 0.01140427 0.12439176 -0.06517598 -0.31123948 0.08169888 -0.0698253 -0.12260684
6239.Y110A7A.17a 0.060670897 -0.07141391 -0.35721993 -0.09182935 -0.0035941058 -0.13546783 -0.11205862 -0.18554215 0.10867455 0.17621692 -0.19414657 0.24100243 0.18668081 -0.18280521 -0.015466073 0.19528146 0.2728935 -0.16574739 -0.15181257 0.15573601 0.060432576 0.06373718 -0.13356152 -0.33306035 0.14527245 0.17246208 -0.002563602 0.019938339 0.13042629 0.11286289 0.046362307 0.14524622 -0.3668845 -0.008163093 0.11297444 -0.13244331 0.1250255 0.09548284 0.021156158 -0.25670433 0.1052227 0.1766668 0.4360523 0.16617446 -0.18940163 0.21981981 0.18995579 0.054399792 -0.20067781 0.0718114 -0.09728381 0.26007688 -0.21273045 -0.21078703 -0.33275887 -0.07520459 0.053713568 0.37414 -0.05954492 -0.051126212 0.08140385 -0.11751311 -0.10803918 -0.2799102
6239.K03E5.3 0.09455652 -0.048972942 -0.24075322 0.08984121 0.010110294 -0.2867509 -0.030579153 -0.2650048 -0.12678964 0.2914483 -0.17303723 0.16706727 0.10557206 -0.19197135 -0.22995172 0.019914538 0.15150464 -0.22285666 -0.21852635 0.2932646 -0.030520864 0.0049743205 0.09969747 -0.10926311 0.20124078 0.17483643 -0.064897545 -0.11087348 0.047908727 -0.15511014 0.10626359 0.24996212 -0.4292329 0.007949958 -0.12321441 -0.181895 0.020535631 0.052437417 0.09916398 0.07721584 -0.07544946 0.20773569 0.12832606 0.0262254 -0.13584872 0.14481042 0.26740226 0.036353335 0.123782136 -0.021408467 -0.27299413 0.17838432 -0.23516785 -0.21188103 -0.22952184 0.016529273 -0.2546139 0.1669792 0.012003936 -0.1799185 -0.10273269 0.22739463 -0.16667488 -0.14726827
6239.R06C1.1.1 0.24403602 -0.028673999 -0.17111689 0.19169345 -0.06331145 -0.07704348 -0.1954414 -0.09622323 -0.050151214 0.29356718 -0.013325607 0.28640613 0.16452241 -0.045619365 -0.16660413 0.37143818 0.20020477 -0.1583957 -0.25956202 0.045173448 -0.10963441 0.01973888 0.016047122 -0.36439702 0.12901634 0.2171717 -0.27835128 -0.22183642 0.10550948 -0.1299191 0.057429977 0.07301494 -0.38309237 -0.011393787 -0.21471171 0.06570183 0.16567901 0.19995184 0.13631868 0.041651934 -0.17929173 0.03668405 0.33673432 -0.16825871 -0.06216875 0.27828085 0.2075996 0.058840428 -0.010792344 -0.07012294 -0.14743145 0.083370194 -0.09732432 -0.11218901 -0.08335889 0.009734672 -0.29936558 0.13145007 0.077147566 -0.0031793378 -0.10938542 -0.025111487 -0.32232064 -0.14569479
6239.C08B11.2 0.3084892 -0.032306626 -0.18256532 0.16093451 0.022044074 -0.16207926 -0.27291784 -0.16136353 -0.14342171 0.18027177 -0.026957445 0.29043618 0.10995133 -0.031643372 -0.19623217 0.32471395 0.29708594 -0.18779488 -0.21528576 0.033830464 -0.13967238 0.12902944 -0.016971754 -0.2659559 0.08528865 0.28313243 -0.25678897 -0.26038522 0.055464886 -0.07554877 0.05955505 0.14561787 -0.39891684 0.042295467 -0.114793845 -0.06566 0.20838824 0.28338996 0.16447301 0.03262233 -0.14919953 0.0769562 0.36807 -0.18087225 0.022292087 0.25484717 0.20255738 0.14739867 -0.12341519 -0.16722353 -0.09612634 0.11166483 -0.08361159 -0.09285861 -0.16374353 0.014957012 -0.24866153 0.15906197 0.17293228 0.049588718 -0.031782288 0.031689502 -0.24213882 -0.112595536
6239.F42G8.3a -0.12671193 -0.20060423 -0.012338166 0.234233 -0.08705054 -0.030695777 0.009137118 -0.08397131 -0.1476728 0.30043226 0.01860354 0.25999904 0.12507391 -0.16560245 -0.1897899 0.20785241 -0.27463397 -0.21911359 -0.157079 0.44988775 -0.17479803 0.21855414 0.22828288 -0.089229435 0.3343432 0.2898855 -0.1436528 -0.15276179 -0.009914724 -0.3876912 0.001699516 0.30987677 -0.23159835 -0.1365904 -0.07071812 -0.08881698 -0.023380712 0.056238692 -0.03254602 -0.034360018 -0.16225286 0.24064657 0.042683672 -0.15033224 -0.06872685 0.27349365 0.2806256 -0.096875705 -0.10555708 0.17244305 0.028207868 -0.1157522 0.009938483 -0.23389597 -0.21983507 0.033779994 0.022894753 0.0002485095 -0.031279206 0.16696714 0.020505251 0.08503692 0.04998564 -0.08448018
6239.B0478.1a -0.018192843 -0.09575634 -0.039199766 -0.0565623 0.08230131 -0.0752632 0.1238665 -0.31364873 -0.29026696 0.4157496 0.036097683 0.18880819 -0.034390014 -0.16575521 -0.09732237 0.15260862 -0.13471982 -0.12387362 -0.01580123 0.20573153 -0.07422664 -0.029377693 -0.051064394 -0.3345269 0.15637761 0.24443495 -0.07042979 -0.031399027 -0.070420265 -0.17303126 0.035095975 0.13956788 -0.1971916 -0.0004486315 0.009856221 -0.170954 0.20343935 0.10433943 0.055934604 0.057756346 0.29879597 0.03610623 0.034671493 0.22668898 0.19324316 -0.1365995 0.28475088 -0.049363386 -0.27766392 0.16205534 0.1685428 -0.044134084 -0.16687727 -0.055408787 -0.036067154 -0.0621408 -0.27693027 -0.033255573 0.17062266 0.041386224 -0.002645867 0.02946865 -0.18199202 0.06602507
6239.F32D1.10 0.035892975 -0.038632132 -0.2178092 -0.045892745 -0.114836685 -0.058818914 -0.25613573 -0.18957062 -0.05723627 0.36450607 -0.12015619 0.22359124 0.2097462 -0.12161704 -0.22063583 0.04699911 0.35303757 -0.36324704 -0.28292307 0.102631785 0.057520386 -0.012569958 0.019561062 -0.23576908 0.23820215 0.062150482 -0.087311625 -0.20944273 0.08309062 -0.029801577 0.23531304 0.1386605 -0.3393966 0.08589262 -0.092547685 0.08293828 -0.07908085 0.015571801 -0.03361234 -0.24338408 0.061811756 0.31478494 0.28637627 0.13683204 -0.1524746 0.18637241 0.12106496 -0.04060468 -0.14698933 0.10624602 -0.18028498 0.02249926 -0.12124122 -0.26187247 0.051652357 -0.07098162 -0.059952874 0.54413164 0.045097705 -0.26837286 0.042016476 -0.0163324 -0.022074154 -0.18246576
6239.K06A5.7.1 -0.0053268294 0.010968225 -0.14600904 0.11877796 -0.06528341 -0.080014974 -0.056658722 -0.09684914 -0.24096821 0.20371261 -0.066040434 0.34738895 0.1831681 0.14206377 -0.24495716 0.03405972 0.15324323 -0.31954226 0.004225401 0.14639457 0.017289331 0.04264076 0.013970119 -0.18251094 0.23343676 0.024702583 0.009990654 -0.061343595 0.16854002 -0.16068083 0.06306577 0.19395266 -0.52260196 -0.011350768 0.07464679 -0.06885268 0.06418928 0.24524021 0.026777852 -0.2956434 0.24907349 0.22079477 0.043245982 0.29635715 -0.17805873 0.17878893 0.221702 -0.021505946 -0.40244928 0.1325078 -0.29892772 0.018280353 -0.17443661 -0.0045865006 -0.12769945 0.21186143 -0.02707215 0.2058095 -0.065916516 -0.16055168 0.1891935 0.13293855 -0.11208639 -0.116055064
6239.R06A4.7 0.11164658 -0.033121053 -0.1932117 0.20041841 0.026232464 0.016441237 -0.1565727 -0.32765806 0.037881956 0.23518439 -0.058296155 0.3940954 0.22061443 0.07962386 -0.078327365 0.062724315 0.40634805 -0.17093486 -0.09628634 0.16241829 -0.0014536806 0.15867776 0.0039113164 -0.25514033 0.23492905 0.2141323 -0.37455085 -0.05099514 0.076589786 -0.025346689 0.091092326 -0.05001547 -0.3588894 -0.029508661 -0.008652168 0.056666467 0.21739867 0.26305377 0.059650425 -0.11785566 -0.23851055 0.12060149 0.299074 0.005002209 -0.07267748 0.38913932 0.3292111 -0.10282933 -0.07840495 0.14309591 -0.09913032 -0.073818885 -0.14729358 0.026278522 0.06432422 0.06394944 -0.24074914 0.25125486 0.040558986 -0.06383889 -0.0023706257 0.1953859 -0.13628408 -0.14592794
6239.T21H3.3 0.1466054 -0.17409346 -0.020346899 0.13888857 0.12929048 0.025218168 -0.035832867 0.13950872 0.005812531 0.38991055 -0.019581243 0.10091544 -0.0015451248 -0.25711185 -0.39666033 0.086139016 0.049462534 -0.16135463 -0.23622805 0.21892624 0.25675002 0.12873644 -0.19616427 -0.14235693 0.053764366 0.1573812 -0.07807714 0.22687717 0.20964892 -0.02039338 -0.08838641 0.37079114 -0.11604634 -0.19490196 -0.12423755 -0.1024504 0.02011858 0.0066105835 -0.09018268 0.078869775 -0.17529024 0.15016432 0.013079787 0.027369374 -0.1459064 0.031112416 0.32426766 -0.039194424 -0.41119495 0.114651024 0.04129233 0.2625948 0.0820663 -0.18155527 0.12601191 -0.060859 -0.15002011 -0.021272166 -0.18254416 0.058025535 0.06175957 -0.2850016 0.015738925 0.14155109
6239.B0025.1a 0.19942622 0.0728077 -0.35172054 0.012636427 0.07540514 -0.2653981 -0.13984957 -0.0761414 -0.022651946 0.42767912 -0.06171167 -0.15283607 0.120286606 0.049628995 -0.11504604 0.1850698 0.05125134 -0.5157425 -0.031411704 0.17144735 0.008997715 0.036096275 0.13749656 -0.26666218 -0.06242998 0.17140464 0.011588331 -0.0038256224 -0.20831163 -0.0071622944 -0.034372095 0.07222538 -0.43235248 -0.25651154 -0.11845808 0.10466799 -0.12680435 0.0534867 0.018784525 0.074529275 -0.10998932 0.31804547 0.2691203 0.09055557 -0.12561978 0.12995897 0.2872792 0.20798631 -0.18509723 0.14970258 0.015086301 0.07309855 0.10089931 0.14457175 -0.05419696 -0.14649428 0.041340563 0.03852485 0.02187143 0.11743163 -0.026928203 0.01705437 0.17251068 -0.13480717
6239.M7.2b 0.14701362 0.015560714 -0.44196454 0.082740754 -0.17858888 -0.016861677 -0.26873598 -0.13172317 -0.02005168 0.346047 0.042353477 0.25280836 0.18495637 -0.0660982 -0.15176153 0.026303563 0.20716913 -0.12092121 -0.03270053 0.16583624 -0.060806315 0.005386796 -0.39077714 0.05277018 0.050810903 0.121176004 -0.034665663 0.065327086 -0.025041958 -0.009483867 0.20541358 0.16285151 -0.3028249 0.052496202 0.22956358 -0.20814715 0.099802 0.1282269 -0.035781004 0.06585701 0.22655344 0.13590828 0.26703405 0.13803618 -0.16738805 -0.033301923 0.37173396 0.019409683 -0.5061862 0.005471992 -0.17286028 0.33189085 -0.1792295 -0.23818497 -0.305171 0.17353883 0.00981844 0.31182575 0.039763063 -0.083203465 0.006142012 -0.08444774 -0.024378529 -0.100428775
6239.Y2H9A.1 0.11805415 -0.15237764 -0.33437562 0.069777235 0.12763527 0.017440837 -0.23596868 -0.20620658 0.07047328 0.24155782 -0.05381103 0.34596208 0.21330531 -0.0010737162 0.029627908 0.0893345 0.4742098 -0.3105366 -0.31797504 0.18784969 -0.008982274 -0.012512163 -0.054529876 -0.24563481 0.25026822 0.07473408 -0.21599205 -0.012652545 0.080427304 0.013144234 0.17676944 -0.01190013 -0.25337696 -0.02082719 -0.023149716 0.025695706 0.19749947 0.29007626 0.092115 -0.12534569 -0.05288377 0.29973543 0.23393716 -0.013028344 0.010365129 0.323184 0.28266704 -0.1974729 -0.06816799 0.13372536 -0.10216625 -0.07991274 -0.2590693 0.02856708 -0.16243558 -0.02185744 -0.14749968 0.4434036 0.06724916 -0.10197194 0.17646122 0.20367149 -0.0063832905 -0.12156182
6239.C35C5.4 0.22714539 0.07952191 -0.3157111 0.023142094 -0.028676389 -0.057134785 -0.020787258 -0.3098114 -0.036525078 0.11747332 0.116026506 0.057078477 0.056030456 -0.03679452 0.051669054 0.056351587 0.24266991 -0.26226452 -0.013626098 0.367719 0.09058059 0.14700754 0.043998174 -0.17458236 0.03448121 0.09168791 0.087541364 -0.09879791 -0.0012678915 -0.12073138 0.2624083 0.34702393 -0.31323025 -0.064711586 -0.097549655 0.083067186 -0.09572405 0.05235622 0.16298103 0.1590088 0.19156833 0.03616834 0.02318179 -0.005109216 0.26466823 -0.026314689 0.41648003 -0.043468684 -0.072008274 0.25350323 0.048290644 -0.031611368 -0.042532284 -0.16623683 -0.108708434 -0.072722435 0.30150172 -0.07510724 -0.1964648 -0.018798131 -0.06429059 0.16477989 0.17171171 -0.1763789
6239.Y49E10.14a.2 -0.012116832 -0.020810252 -0.35685885 -0.18085943 -0.05906174 -0.03279749 -0.29683408 -0.26867023 -0.008704945 0.2941329 0.1048379 0.22759454 0.1581174 0.21801005 -0.12283511 0.02377263 0.35940313 -0.20683533 -0.15970941 0.19993617 0.09771677 0.1086149 -0.09857913 -0.19446261 0.08540542 -0.008272726 0.073044814 -0.007335332 -0.05178171 -0.12245312 0.3737721 0.11969786 -0.37184975 -0.1059294 -0.053336564 -0.026031226 0.24273792 0.04243655 -0.08258747 -0.29507697 0.04343038 0.1470908 0.19921963 0.32734433 -0.118111394 0.2182242 0.3112227 -0.15454702 -0.37021896 -0.17757669 -0.21979365 -0.079245105 -0.17964208 -0.09570128 -0.084796906 0.2244917 0.064923055 0.42033568 0.034115527 0.027673917 0.047781352 0.2684492 -0.040985696 0.06868145
6239.Y53C12A.1 0.009712089 -0.2421289 -0.44878334 0.0010449436 0.02153118 -0.30161998 -0.17191936 -0.14765333 -0.04551779 0.14657648 -0.21416338 0.19132455 0.2039874 -0.07235078 -0.19819137 -0.061485983 0.23718615 -0.27689525 -0.05659564 0.3256235 0.065222785 0.2849656 0.06544193 -0.083634295 0.30389324 0.21291362 0.08827614 -0.10905496 0.19091465 0.11004606 0.25080177 0.30243343 -0.45930928 0.031264175 -0.033547673 -0.1227632 -0.0036543447 -0.023210077 0.09658303 -0.10585009 0.006014065 0.28830388 0.23273809 0.23273659 -0.20064062 0.18693916 0.42333886 -0.10750076 -0.27108848 0.07685705 -0.1172031 0.024492588 -0.1492558 -0.180539 0.02745743 -0.051782433 -0.11511449 0.45962697 0.10964676 -0.060633827 0.19034304 0.066638805 0.11271176 0.014252813
6239.Y73B6A.5a.1 -0.07379676 0.06913843 -0.30476522 0.18914382 0.14731026 -0.11781459 -0.09664542 -0.32668993 -0.07630566 0.11690581 0.009734225 0.13885602 0.07989326 0.048675876 0.08294484 -0.068688825 0.028210923 -0.07762321 -0.009350106 0.5358225 -0.15360299 0.04260955 0.2400906 -0.24598348 -0.04178366 -0.041666385 -0.12093587 -0.1479839 0.25908393 -0.043912016 0.24389367 0.24261041 -0.2341806 -0.134003 -0.08667503 -0.10147462 0.15414132 -0.035638623 -0.13008483 -0.07072288 0.05393451 0.37655792 0.020246107 0.09015379 -0.017630786 0.18439555 0.0456 0.012513968 -0.3367888 0.27525526 -0.15707047 0.15733959 0.09705298 -0.015870877 -0.0035266713 -0.097415425 -0.05633755 0.17092457 -0.09621653 0.1027166 0.16542429 0.024190579 -0.08782375 0.0014425695
6239.T01B7.7 0.18875502 -0.049650937 -0.37361753 -0.15223749 0.1531276 -0.10547229 -0.013837297 -0.24716714 -0.09077926 0.17768154 0.49448526 0.28204486 0.039172772 -0.03145666 -0.24373569 0.21766636 0.04774134 0.08982534 -0.17763293 0.3007544 0.11118556 0.015601962 -0.1430766 -0.09485725 -0.0866263 0.18082473 0.13264568 0.13621002 0.10351882 0.052611984 -0.10729017 0.053412575 -0.32430363 -0.1621284 0.13244027 0.22012565 0.14152016 0.21024464 -0.08096659 -0.22851045 -0.008515489 -0.011992028 -0.030373933 0.02297192 0.05782985 0.045172002 -0.21655482 0.059241954 -0.2255214 -0.03063651 0.119712956 -0.2034116 -0.11373036 0.08517801 0.22624043 0.4116231 0.121774524 0.036496647 0.03624825 0.048356906 -0.13271046 0.1490421 -0.01735004 -0.2531116
6239.C14B1.4 0.079807244 0.017179567 -0.10013857 0.050990444 -0.07073575 -0.008270555 -0.24430238 -0.09005159 -0.20228547 0.25251573 0.008504165 0.4133702 0.23441236 -0.05081669 0.052819435 0.2566302 0.3370998 -0.1218176 -0.3415329 0.10459118 -0.20601782 0.124953665 -0.030798057 -0.20962004 0.14466146 0.33996212 -0.31221062 0.0019578533 -0.03323129 -0.017693102 0.1444445 0.08619577 -0.47543457 0.037425634 -0.08989092 0.20549782 0.037452 0.13902758 0.021415401 -0.13314566 -0.11765025 -0.041394643 0.43001577 0.07164501 -0.13187912 0.3129665 -0.015703777 0.04740709 -0.1584558 -0.050070304 -0.121153235 -0.09915641 -0.23532201 -0.2748442 -0.07596368 0.004017987 -0.111818604 0.36779913 0.04467974 -0.124753565 0.18306504 -0.043430056 0.04879853 -0.019030953
6239.F58A3.2c 0.05230436 0.0778485 0.008617092 -0.038387198 0.08311023 -0.035191983 -0.036366772 -0.23935507 0.03191741 0.14970645 0.18855448 -0.062452886 0.015863692 -0.08977313 0.028422551 -0.012031858 0.008623365 -0.15119913 0.10591665 0.31966317 0.2010138 0.2203169 0.1420014 -0.24926612 0.16881432 0.12630998 -0.23142187 0.19341454 0.2532254 0.0072046784 0.23538476 -0.09938564 -0.35752478 -0.003081208 -0.119048476 -0.0030371626 0.20529233 0.052038487 0.1151895 -0.12234034 0.19165394 0.08064883 0.02598136 0.16058314 0.47939578 -0.029862314 0.029324917 -0.13640971 -0.15111329 0.06192465 -0.15418118 -0.09295492 -0.24046099 0.20673929 0.061551463 0.08097899 -0.08395187 0.18982133 0.17765374 -0.11821851 -0.16061367 -0.005400943 -0.09797407 0.09198947
6239.Y39G10AR.14.1 0.09201919 -0.06197997 -0.28840053 0.0012224802 -0.1300947 -0.09026436 -0.2161992 -0.151569 0.0065698577 0.18090387 -0.18761514 0.23556596 0.16891651 -0.039004903 -0.32653973 0.1830657 0.30211163 -0.27381858 -0.22011295 0.2164508 0.053090878 0.08385008 -0.030539265 -0.2017834 0.27243125 -0.017843025 -0.05646796 -0.117075376 -0.059023336 0.018443808 0.27005097 0.15860227 -0.37453452 0.09582293 -0.10071907 0.14784609 0.0038856687 0.15562358 -0.004716973 -0.2204584 -0.0026814498 0.29238683 0.30291903 0.047843635 -0.26591006 0.18131238 0.0934146 -0.08005647 -0.11667793 0.16612239 -0.092103906 -0.038781706 -0.15291105 -0.20600969 -0.1548119 -0.08168994 0.04534301 0.44303375 0.05252177 -0.287809 -0.07659852 -0.036214374 -0.1387193 -0.23046818
6239.F38A6.1a 0.17168383 0.27191442 -0.04442098 0.3128579 0.23468286 -0.25913015 -0.08819564 -0.30621362 -0.02420411 0.12671573 0.10804907 0.21626225 0.2360242 -0.07599579 -0.11189298 0.33989945 0.07733517 0.14698382 -0.027571043 0.1599949 0.14820565 0.25475255 -0.0674827 -0.17380689 -0.075836614 0.2349418 -0.051886898 -0.08861835 0.07583716 -0.09101968 -0.0045095077 -0.067032956 -0.47928363 -0.118641905 0.006724442 0.1616151 0.22219616 0.012704478 0.050921664 0.032153174 -0.07254755 0.24301666 0.045291226 0.005198007 -0.06425124 0.09915399 0.19809778 0.058740802 -0.049347375 -0.060250264 -0.05923467 -0.26266414 -0.061935663 -0.16855122 0.25280628 0.16305606 -0.15186797 0.11254806 0.2528507 0.035437994 -0.15874466 0.04848153 -0.21308856 -0.06331038
6239.F33G12.4.1 0.08760584 -0.107423134 -0.31920838 0.079803444 -0.04985809 -0.006477655 -0.33528277 0.010964495 -0.13261946 0.15088189 0.06050479 0.25601614 0.00047021048 0.23596038 -0.19383655 0.19199666 0.25991377 -0.22356299 -0.25395057 0.1374899 0.020638166 0.31708282 -0.17626177 -0.09215239 0.54642254 0.07876762 0.00080834335 -0.21847421 0.06443463 -0.06714898 0.28733718 0.2996582 -0.3536845 0.01027699 -0.21525715 -0.17787446 -0.011994775 0.08970772 -0.11830186 -0.20540662 0.27057314 0.16832177 0.46666133 0.122020535 0.08675669 0.38079506 0.08443639 -0.020958507 -0.31951502 0.040259905 -0.25378177 0.08008819 -0.1003313 -0.17357592 -0.17890175 0.022052394 0.22519286 0.3550864 0.0578275 -0.2250981 -0.044484116 0.037673898 -0.017871346 0.07403473
6239.C12C8.1 0.13505183 0.14014046 -0.20740809 0.028506918 0.09607841 0.17416202 -0.060566984 -0.043589782 -0.25015157 0.16954076 -0.035017982 0.31530446 0.18265313 -0.44072405 -0.16649857 0.16079728 -0.05094507 -0.26564503 -0.20203969 0.24065505 0.06125293 -0.09767535 -0.026916875 -0.46003774 -0.113984674 0.19217172 -0.05680897 -0.39966738 -0.16027448 0.13132393 -0.0270238 0.11406085 -0.094417684 -0.0886505 0.07982139 -0.10665812 0.03528568 -0.17757013 -0.041944765 -0.06365793 0.0012276524 0.31622866 0.28723037 0.052878093 -0.2848187 0.12114859 -0.033982735 -0.060408007 -0.19810237 -0.018695576 -0.05763565 0.055819206 0.07322862 0.05889042 -0.20884524 -0.0682357 0.11541073 0.03510167 0.16781402 -0.026829135 -0.2467978 0.020802334 -0.056564443 -0.020569466
6239.Y39A1A.5 0.31455335 -0.086037494 -0.07252911 -0.049713556 0.105240114 -0.30741033 -0.039744098 -0.057159875 -0.12119625 0.16208635 0.022983517 0.007025505 0.03352285 -0.030548453 0.098789915 0.15963742 0.20584995 -0.41125476 -0.46449792 0.3645804 -0.111174755 -0.07874274 0.12410577 -0.061427444 0.06896821 0.28248176 -0.23074491 0.096332125 -0.18497986 -0.04756163 0.054506782 0.21863544 -0.2868761 0.036971144 -0.040315066 0.081704885 0.18032335 -0.121298894 -0.06286499 0.010372205 0.11319283 0.31393692 0.18938299 -0.16605866 -0.1078219 0.020059787 0.22674781 0.09651613 -0.039877195 0.025546098 -0.22433637 0.13079232 0.15909427 -0.20800723 -0.3573059 -0.043119296 -0.122893445 0.13080014 -0.2634429 -0.08886081 0.0899457 0.016079176 0.0623376 -0.17331044
6239.W09C5.2 0.16347852 -0.17824593 -0.3608774 -0.022132099 -0.21906713 -0.07219002 -0.23266666 -0.27046213 0.018428223 0.2554292 -0.032170355 0.23061334 0.065512516 0.0009797105 -0.1903246 0.2365284 0.20696156 -0.04468296 -0.3502906 0.100972116 0.065612294 0.101822 0.077862136 -0.032720644 0.11605266 0.13733672 0.042986184 0.038672395 -0.017142363 -0.07308235 0.3177072 0.13327546 -0.44788197 0.05314789 -0.05466784 0.2035517 -0.10001186 0.13253179 -0.16365056 -0.094294675 0.076151155 -0.05296 0.26593566 0.13254574 -0.0036746694 0.12160701 0.12649131 -0.12721474 -0.3167566 0.19892134 -0.096903756 0.110845365 -0.023486475 -0.28393194 -0.26656583 -0.12464303 -0.04657563 0.35528713 -0.11046088 -0.068152584 0.016318921 0.16966863 0.20405565 0.0013768338
6239.K04F10.4d.1 0.14204815 0.2508919 -0.29192466 0.030790715 0.041947484 -0.064381085 -0.080202445 0.07347095 0.2628454 -0.015201331 0.13970095 0.16921549 0.013364716 0.31661254 -0.27311346 0.120772675 0.09107946 -0.2929668 0.020273972 0.40413952 -0.012805182 0.23365359 -0.16813529 -0.29358763 0.08890899 0.08868227 0.13178864 0.011555786 -0.04302404 0.13797037 0.3856136 0.33779535 -0.30062178 -0.01176554 0.24605687 -0.0072874767 0.0359718 0.18444644 -0.2847066 -0.18051618 0.08215344 0.035616677 0.36151916 0.10635346 -0.1258538 -0.004916649 0.03313463 0.0011238137 -0.17984691 0.07659041 0.08744086 -0.07281637 -0.05444674 0.452496 0.045995113 0.25547618 0.2695127 0.22113729 -0.14242369 -0.012323288 -0.2128388 0.055641964 -0.37468806 -0.21752696
6239.C26D10.2a 0.18861617 -0.15989463 -0.13987769 0.08862323 0.03276927 0.096361674 -0.13163823 0.1402183 0.13615139 0.33774933 -0.09083393 0.38687536 0.04732217 -0.20730034 -0.054316252 0.36748075 0.28494754 -0.23711467 -0.20692706 0.23229153 0.044229634 0.003215705 -0.03872288 -0.35449678 0.118468426 -0.06258348 -0.22526282 -0.15269202 0.08729868 0.0064435015 0.32949927 0.04460171 -0.12176585 0.055211917 -0.35705996 -0.035381474 0.008401165 -0.08889491 0.14065777 -0.21973424 -0.035775077 0.18083736 0.36815378 0.25044873 -0.19371971 0.24217142 0.18833399 -0.10647372 0.07997851 0.13462031 -0.26352766 -0.12439579 -0.13369378 -0.12755884 -0.114913136 0.017017795 0.24284627 0.22888023 0.3263378 -0.20448977 -0.18858111 0.010253167 -0.0533575 -0.17210698
6239.C53A5.3 0.26052165 0.02614122 -0.15842769 0.13292201 -0.016424764 -0.111020535 -0.14682032 -0.1817617 -0.02103744 0.25632608 -0.077770315 0.2542198 0.2295156 -0.14771885 -0.1259214 0.24407524 0.14706282 -0.103744194 -0.2560873 0.15180781 -0.19577225 0.08375406 -0.0047428063 -0.2912225 0.15548532 0.21543744 -0.23929161 -0.14861216 0.06180998 -0.08466264 0.04898886 -0.037039347 -0.40046453 -0.02164513 -0.20335642 -0.026409045 0.107655235 0.23786387 0.13462745 0.04623635 -0.08847568 0.123085506 0.32519662 -0.034614753 -0.028360916 0.35093975 0.18270928 0.077797055 0.039493803 -0.0847247 -0.16275465 0.0210264 -0.08022806 -0.1661977 -0.029522205 0.030266248 -0.3118741 0.15106654 0.11256285 0.028603403 0.0084788995 -0.0064780954 -0.3270267 -0.021963052
6239.F44F4.2.1 -0.0013844519 -0.089032374 -0.3640911 0.13491797 -0.18376532 -0.0112091815 -0.2313464 0.12714644 0.022803882 0.23146567 0.12752469 0.07234134 0.10024984 -0.022744732 -0.24313055 0.011273164 0.25568673 -0.2191158 -0.06011352 0.49107796 -0.09979814 0.15543483 0.06252692 -0.08949968 0.24740797 0.10610867 0.08903024 -0.093756564 -0.017360423 -0.11918961 0.18644547 0.23692371 -0.38155818 -0.0036259491 -0.14434405 -0.072109684 0.13084036 -0.13378662 -0.006823566 -0.2243266 0.10568556 0.27545205 0.33127365 0.20807035 -0.027830454 0.11324688 0.32001328 -0.010224053 -0.3331222 0.006251743 -0.41722158 0.18240711 -0.106088154 -0.08646527 -0.001904334 0.11923691 -0.006122744 0.38471153 0.21459441 -0.026449788 0.08763152 0.03437791 -0.033842042 -0.04012795
6239.C37H5.8 0.12995324 0.17919017 -0.22361805 -0.02734288 0.096397325 -0.039308567 -0.10060182 0.05067974 -0.14546438 0.14237612 -0.164936 0.2957789 0.4177157 -0.4341036 -0.0046166675 0.27418387 -0.18903741 -0.24471465 -0.21357185 0.122557364 -0.0028347375 0.025338126 -0.15596105 -0.31661376 -0.07287445 0.17654333 0.09942782 -0.42863598 -0.18091731 -0.057400394 0.14277071 0.057205863 -0.20030881 -0.014270998 0.029668773 -0.03490935 0.09446088 -0.2538848 -0.10439199 -0.16925555 0.058362037 0.21953204 0.27901644 -0.023571141 -0.21588491 0.06758885 0.018962493 -0.005729435 -0.18338253 0.17941557 -0.24432485 -0.00835438 0.07544981 -0.016860029 -0.19698322 0.13485286 0.000117528994 -0.17764644 0.12437887 -0.15641043 -0.26846668 0.15156636 -0.20276801 -0.110237665
6239.C04F12.3 0.24245676 -0.18959549 -0.03214774 -0.101205386 0.22196016 -0.2744111 0.23000151 -0.07097392 -0.16722454 0.04011417 0.21067253 0.07709018 -0.28826338 -0.2696858 0.06307363 0.05787482 -0.06563459 -0.21321128 -0.33865446 0.22804542 0.089237 0.19183512 -0.013097474 0.13329655 0.36109057 0.2287038 -0.35262236 0.03616675 -0.22249137 -0.052150983 0.1203405 0.23315993 -0.307428 0.10420483 -0.017635027 0.16497557 0.0024332386 0.07722748 0.078543946 -0.26952985 0.14633895 0.27164486 0.18627453 -0.11373551 0.070228375 0.21428339 0.1589953 0.025326557 -0.19176191 0.0010293596 -0.10707572 -0.11090627 -0.06488449 -0.19005606 -0.40494722 -0.011154271 -0.30539387 0.15703529 -0.041081782 -0.11170829 -0.079104796 -0.082531855 -0.087032445 0.060249403
6239.Y105E8B.1a 0.2596218 0.016929869 -0.04362814 -0.20867279 -0.056496534 -0.092058346 -0.20552266 0.05977741 0.09320136 -0.044161048 -0.043681797 0.28817725 -0.06390044 -0.25537306 -0.13713057 0.15797807 -0.040043194 -0.16542594 -0.07990588 0.11248198 -0.034908384 0.26111835 0.06978736 -0.34227738 0.14352809 -0.037552968 -0.12476332 0.255649 0.09065169 -0.10988212 0.017109405 0.06745145 -0.1385133 -0.1543957 -0.12840706 0.19851956 -0.11764156 0.22816521 0.06713956 -0.13003294 0.06942876 0.3474222 0.024676567 0.17394643 -0.121345736 -0.10376192 -0.14654401 -0.23078556 -0.21334769 0.045696083 -0.07641331 -0.1657262 -0.30594426 -0.026002318 -0.08696572 0.21083789 -0.09667316 -0.07158464 -0.086983725 -0.05975071 -0.29791766 -0.029536074 0.17081879 -0.03581942
6239.Y71F9B.7 0.14039415 -0.11238901 -0.51093733 0.18300347 0.14498065 -0.18215626 -0.13048346 -0.1905778 0.09753736 0.2124471 -0.12538134 0.22438975 0.11818167 -0.017918112 -0.14161924 -0.1492539 0.07355487 -0.37353402 -0.2553279 0.11467695 0.13130975 0.13518797 -0.11308907 0.014103109 0.18466462 -0.047503 -0.06996739 -0.06982684 0.099331744 -0.048710648 0.1965578 0.20480809 -0.28746763 0.13770151 0.035399806 -0.1395198 -0.047944386 0.054107837 0.077459805 -0.07264146 -0.0024382037 0.23860231 0.19603103 0.15144786 -0.040375356 0.0952861 0.44490656 -0.07530612 -0.40824106 -0.09792602 -0.24779363 0.105370425 -0.2918061 -0.17383733 0.0057413317 -0.012384301 -0.1729825 0.25339875 -0.0985089 -0.21653315 -0.13054745 0.20917226 -0.14009818 -0.113384634
6239.F42A6.7d.1 0.3065049 0.08675847 -0.07213095 0.016646273 -0.09711091 0.26336592 -0.08281026 -0.13906945 0.06766932 0.27201912 -0.021682335 0.26605442 0.13454197 -0.09122636 -0.09223195 0.31287512 0.10672592 -0.045614563 -0.3162039 0.25318274 -0.16940047 0.1195124 0.09255258 -0.25317407 0.20593086 -0.08792894 -0.057901934 -0.03707322 0.05088414 -0.020091627 0.10997285 0.18909417 -0.23952942 -0.15610799 -0.3190039 0.0018800476 0.11456133 -0.102018684 0.019530848 -0.035097163 -0.24087086 0.13653445 0.3618966 0.3363363 -0.21353899 0.2144571 0.3185542 -0.022166558 -0.01513349 0.2332595 -0.27724665 0.053172667 -0.03903097 -0.041304987 -0.18204206 0.029165082 0.24294493 0.25355014 0.17991483 -0.16476649 -0.14664832 0.055185225 -0.1491337 -0.19268762
6239.F35G12.4c 0.014687716 0.12948215 -0.3449295 0.067516185 -0.10383281 -0.11783848 -0.41444743 -0.14755735 0.004965048 0.3177988 -0.14487743 0.1397439 0.23810688 0.20302588 -0.13269037 0.079651356 0.3243244 -0.37450668 -0.29503837 0.018944474 0.0658595 -0.072139926 -0.07560034 -0.26796323 0.13599499 0.2209131 -0.2170343 0.03034988 0.00026518654 -0.21334037 0.20893155 0.10460376 -0.4424348 0.092213996 -0.13476303 -0.050084203 0.24753107 0.054697562 -0.09370869 -0.3211963 0.12492855 0.1147452 0.4579507 0.18683684 0.006186196 0.15925846 0.110915855 -0.0446476 -0.18258986 0.08613931 -0.098236 0.2760431 -0.025531063 -0.12628455 -0.13101108 -0.12825038 0.06241695 0.33734024 0.15195076 -0.0829687 0.055562418 -0.039990112 0.11713345 -0.021979365
6239.F07A5.7a.4 0.24590597 -0.07523338 -0.2902863 -0.1885158 0.014063295 -0.23539221 -0.19545768 -0.03959151 0.08420594 -0.1041423 0.14496906 0.1585 -0.06188406 -0.41903344 -0.06496919 0.10262751 0.010335873 -0.12543146 -0.20115203 0.1097656 -0.018541843 0.4219285 0.0031493492 -0.20305777 0.04631937 -0.0803817 -0.03293029 0.13517559 0.12062453 0.010081085 0.07931004 0.23242052 -0.11471688 -0.11829437 -0.09226826 0.0763141 -0.014394384 0.20874664 0.016738644 -0.0803097 0.14587212 0.2677084 0.0071851253 0.0860085 0.05596681 0.003821077 0.03289265 -0.048900556 -0.1436923 -0.07005993 -0.17473833 0.12094544 -0.2382566 0.20972714 -0.16192974 0.17826635 -0.10643607 -0.011942479 -0.0690261 -0.088197775 -0.15821199 -0.09269767 0.23505545 -0.14219315
6239.F35D6.1a 0.20260276 -0.035897657 -0.32908875 -0.04124923 0.21622317 -0.35063842 0.2888214 -0.1194847 -0.18133382 0.053742774 0.3050825 0.35569158 0.13331068 -0.22214146 -0.040063955 0.16282673 0.06359541 -0.20778579 -0.2641897 0.4078274 -0.03611138 0.12336954 -0.007823974 0.14484867 0.12576148 0.0951502 0.045514204 0.039591536 -0.07752239 -0.021990811 0.0918627 0.38189363 -0.26780537 0.044018675 0.090012126 -0.104616195 0.12802266 -0.0037758409 0.011113112 -0.32023805 -0.14253925 0.2863274 0.29715848 -0.13302702 -0.13408294 0.45282075 0.29379973 0.0067176856 -0.107379615 0.018994858 -0.037117478 -0.123207934 -0.084119365 -0.024806492 0.024916189 0.07528216 -0.10920995 0.013494161 -0.18058044 -0.06466514 0.119633876 0.015421141 0.113311745 0.12875259
6239.C15H9.6.1 0.2817612 0.056582734 -0.024920046 0.1839094 0.0053544277 0.06477793 -0.17466573 -0.027001675 -0.1937574 0.25684112 -0.033271186 0.17619966 0.21993713 -0.40740764 -0.13539736 0.103194624 -0.111666396 -0.5150533 -0.15545823 0.1751602 -0.08905083 0.017564088 -0.09568213 -0.24986535 -0.14691073 0.12465122 0.14714754 -0.33552334 0.063213505 0.12066901 -0.026205841 0.17403859 -0.029805254 0.045064326 0.19559458 -0.0044757295 0.05060394 -0.21867777 -0.209171 0.016036522 0.09472291 0.32399827 0.39209133 0.16146658 -0.16453436 -0.05969602 -0.022903472 -0.22629397 -0.3336064 -0.003112434 -0.077812046 -0.13653596 0.24382623 0.12718496 -0.29486266 -0.1151746 0.10724215 0.018705254 0.116609484 0.0037393146 -0.36163288 0.040170077 -0.09373425 -0.18741994
6239.T25F10.2.1 -0.121874385 0.22193658 0.02648286 -0.07930354 -0.09294401 -0.08416108 -0.015425819 0.113403104 -0.038654074 0.14733152 0.08149536 -0.1315136 0.07087019 -0.15301152 -0.07097563 0.039595738 -0.17037909 -0.063650295 0.018668499 0.49331403 0.10148601 0.066306025 -0.14292951 -0.32208177 0.03647759 0.15477732 -0.19338317 0.2712309 0.09012367 -0.16326626 -0.0037278163 0.03997074 -0.41196814 0.110724576 0.034616303 0.08385316 0.43847415 0.31335333 0.067478195 -0.2634696 0.01211161 -0.16615479 -0.13580163 0.15498568 0.11402041 0.18273956 -0.09783896 -0.25221306 -0.09988256 0.15869322 -0.0049178964 -0.25093982 -0.028843854 -0.2683818 0.3309248 0.20128773 -0.09815988 -0.0091558015 -0.09170774 0.10013457 -0.11005531 0.18300653 -0.36700612 -0.13136896
6239.F26D11.11b 0.45727056 -0.05767778 -0.030437307 0.06901752 0.024398547 -0.14107841 -0.22955887 -0.05366673 -0.055513803 0.24436694 0.41598037 -0.0076946323 0.08865895 -0.005895256 -0.03768847 -0.05850608 0.21113588 0.022618359 -0.2918612 0.42290825 0.078917086 0.17702785 -0.10981696 -0.14389744 0.09201576 -0.20136245 -0.052707016 -0.14185737 0.016300833 -0.03465951 0.07739276 0.11508147 -0.31294605 0.05478589 -0.14286864 -0.136382 0.033155415 -0.04237138 0.08748329 -0.13962896 0.19212002 0.13311164 0.22070616 -0.04950765 0.23758052 0.003755222 0.16867092 -0.06892749 -0.03836368 0.30525562 -0.38884807 0.20778623 -0.122405484 -0.083118595 -0.03015543 0.12195903 -0.12702131 -0.12171623 -0.24042103 -0.06466106 -0.047761936 -0.2543606 -0.037849315 -0.07991675
6239.C18A3.6a 0.08163626 -0.05610787 -0.03299644 -0.09065866 0.01882322 0.04914337 0.05959149 0.12805253 0.046958838 0.19432561 0.30372706 0.04546508 -0.10032837 -0.029766103 -0.0038845078 0.16826643 0.015566711 -0.1255421 0.036283884 0.2126798 0.2535399 0.05987598 -0.016242372 -0.18298146 -0.08900587 0.2272804 -0.14727919 0.21117544 0.2030675 -0.06143511 0.30161834 0.0814901 -0.21826376 0.12826003 -0.023178201 -0.0735575 0.149632 0.02385515 -0.08252955 0.10860972 0.071411885 0.21182778 -0.1204963 0.2794933 0.27180287 -0.0948893 0.031995416 -0.024446195 -0.19798584 -0.15570982 0.2760358 0.40183085 -0.29077932 -0.3128727 -0.1795495 -0.17791864 -0.036366384 -0.06504385 0.09230103 -0.33425626 -0.10202207 0.09556113 0.14513223 -0.015042768
6239.C27A2.6 -0.04264225 0.029431323 -0.15215562 0.091483645 -0.24758588 -0.22147089 -0.13316178 -0.30328593 -0.13849261 0.21162583 0.059265677 0.08004442 0.11473859 0.01785393 -0.090401806 0.15102974 0.4975956 -0.0052682622 -0.24475656 0.14788494 -0.03401415 0.25100297 -0.01999115 -0.23543915 0.2911687 0.036606725 0.08866287 -0.13775633 0.20030712 0.036459528 0.38757774 0.14904034 -0.48850378 0.03349324 -0.1873424 -0.1271726 0.18193315 -0.014494543 -0.10073301 -0.3227394 0.25632113 0.2742593 0.14915726 0.03647509 -0.08689774 0.12879035 0.22328883 -0.17042542 -0.20957497 0.30810902 0.014178834 -0.14776157 -0.21653897 -0.28051722 0.075896874 -0.04231271 -0.10786918 0.26576605 0.081367366 -0.12032117 0.041773126 -0.20596279 0.010491377 -0.21531063
6239.K07A1.12 0.09062121 -0.046956334 -0.1954245 0.18317363 -0.07886999 0.049556226 -0.08881089 -0.12258487 -0.08376504 0.3035742 -0.036429647 0.31659096 0.38567418 -0.1585996 0.018644636 0.29036596 0.4049608 -0.21498325 -0.14724295 0.20668904 -0.15515633 -0.040761366 0.07606431 -0.25950557 0.31138483 0.07478045 -0.16259088 0.01137973 0.09730811 -0.024445698 0.25854418 0.20850374 -0.39689553 -0.029123124 -0.33871526 0.31635672 0.122828506 0.24416538 -0.042215243 -0.073023975 -0.2358902 0.13736287 0.21465077 0.045530573 -0.08097033 0.40145513 0.09081452 -0.031026388 0.032685384 -0.14645943 -0.09384933 -0.13169755 -0.08902007 -0.20066963 -0.26171798 -0.023657233 -0.006233986 0.36496064 0.112588204 -0.30765244 0.0809746 0.1818077 0.010859366 -0.077826835
6239.K12C11.2 0.2982226 0.12532562 -0.16036923 0.06367 0.00905322 0.04436374 -0.12726772 -0.24999893 -0.17290884 0.3461834 -0.17252642 0.3856033 0.09911715 -0.14452405 -0.14889336 0.1348112 0.12758335 -0.1256229 -0.25082836 0.03142042 -0.09577833 0.15855758 0.14356238 -0.19381617 0.074747875 0.08192494 -0.12058973 -0.1205793 -0.102965795 0.06783065 -0.0018229698 0.049751636 -0.6536936 -0.021807525 -0.1481171 0.13894975 0.029625397 0.15466918 -0.11233482 -0.12679312 -0.026084697 0.18073077 0.3686306 -0.054057423 -0.07866308 0.3079141 0.11576349 -0.22229363 0.042595923 -0.1341385 -0.018144527 0.100424714 -0.064882144 -0.07147681 0.020436531 0.14551918 -0.10187122 0.2850826 -0.03070877 -0.32440248 -0.036967188 -0.05734695 -0.055824276 0.051023163
6239.C26E6.9c 0.32963815 -0.04783754 -0.137189 0.061722122 0.19618343 0.082242 -0.2112083 -0.1906774 0.09833292 0.34649852 0.039088134 0.3617558 0.16841933 0.0025653744 -0.033953544 0.13196136 0.3802725 -0.21710207 -0.2970373 0.19361001 -0.24286158 0.095132194 -0.062396932 -0.18650518 0.046945818 0.14077818 -0.2149541 -0.031304695 0.19019692 -0.20311451 0.1825956 -0.11448934 -0.2658936 -0.11837301 -0.079133876 -0.06157779 0.1160221 0.24314442 -0.00012795272 -0.12165795 -0.25247076 0.2398081 0.23757897 -0.059463684 -0.11033491 0.33238718 0.23464848 0.091938145 0.1522714 0.17240357 -0.061598435 0.06170982 -0.17182711 0.12383962 -0.04845409 -0.008875032 -0.19485743 0.3319213 -0.00020494718 -0.059822746 0.012318899 0.13788421 -0.024309315 -0.1560191
6239.T26A5.7a 0.056462925 -0.03434126 -0.1284039 -0.18320425 0.092523634 0.16125251 -0.12104326 -0.04627232 0.037857473 0.40263814 -0.080700755 0.1570715 0.046066288 -0.0023489434 -0.16088796 0.06424473 0.33573186 -0.20580387 -0.4260248 0.075572774 0.05530194 0.2641232 -0.11953943 -0.11698581 0.24687257 0.30046785 -0.33213592 -0.024653815 0.109836556 0.003537356 0.43790725 0.2971031 -0.25362885 -0.058520835 -0.0015341925 0.030828772 -0.0754761 0.34054926 0.059390355 -0.14380312 -0.09996942 0.19350682 0.24916437 -0.037308443 -0.10886426 0.42716163 0.020119712 0.21928678 0.14189366 0.22566892 0.19105683 -0.16142945 -0.0445654 -0.1641183 0.009810859 0.026433928 -0.079597965 0.48078078 0.0890327 -0.14075296 0.1273687 -0.049570467 -0.08666524 -0.2197051
6239.F26B1.3 0.068952374 0.063575536 -0.49661824 0.050976735 -0.04493975 -0.025547635 -0.23385088 0.039641693 0.06008327 0.13909414 -0.1684972 0.2547584 0.19107135 -0.15365621 -0.32408476 0.10196732 0.19869202 -0.28732604 -0.26908007 0.26767915 -0.112852424 -0.11981737 0.03501596 -0.1282598 0.10978065 -0.04383965 -0.2235393 -0.26296437 -0.012564082 -0.16199188 0.35282758 0.036205057 -0.4126998 -0.063747734 0.052301943 0.0051005795 0.20543844 0.087017946 0.019482225 -0.15330474 0.21866532 0.23576221 0.26688844 0.033473846 -0.1450725 -0.021659702 0.2198859 0.08544547 -0.35514852 -0.101425365 -0.33175537 0.18555863 -0.21893306 -0.27887195 -0.032020845 0.01634868 -0.04796494 0.27977848 0.061178524 -0.26432618 0.17030866 0.13944782 -0.022518905 -0.10157268
6239.C10H11.9 0.26853943 -0.12082355 -0.22452773 -0.048740223 -0.1504902 -0.21877548 -0.13370344 -0.3522824 -0.21935348 0.26592273 0.011276665 0.056546867 0.07858497 -0.00061331026 0.024802666 -0.029407054 -0.029900987 0.01852316 -0.022067498 0.40184033 -0.020362223 0.18892781 0.13447677 -0.28250733 0.036707558 -0.15452455 -0.073734365 -0.050672553 0.1560435 -0.16512017 0.06326031 0.13266852 -0.20786978 -0.1540202 -0.06924987 -0.1111648 -0.068011254 0.06673174 -0.06946746 -0.26410782 -0.02684875 0.12563308 0.23651554 -0.00601324 0.094987445 0.09937103 0.19515084 -0.29596937 -0.20561694 0.25576895 0.02937852 0.14216281 -0.039928634 -0.12688129 -0.07413448 -0.08053035 0.11265981 0.11093659 -0.31667382 0.12908646 -0.0006552288 0.046444897 -0.072841905 -0.24743836
6239.F01G4.1 0.24803512 0.10808033 -0.048940834 0.12461147 0.056265417 -0.032603286 -0.3357593 -0.29680595 0.103566095 0.37227827 -0.17350337 0.13122751 0.18454768 0.0684538 -0.118046835 0.14457737 0.24435465 -0.29719442 -0.26020095 0.2710325 -0.12898488 0.079525255 0.08264034 -0.18659692 0.31617162 0.15600573 -0.30270964 -0.15898582 0.17436884 -0.071765386 0.038869947 -0.058811482 -0.25018656 -0.09520746 -0.17872328 0.037707314 0.2281017 0.16266188 0.07555444 -0.062121358 -0.17940424 0.22610377 0.33088073 0.03241812 -0.19258168 0.18564108 0.12521428 0.051904526 0.09232615 0.18018652 -0.002716591 0.00556957 -0.09464523 -0.084759764 -0.015503175 0.026026819 -0.26421863 0.3910132 -0.09610505 -0.021305727 -0.06231321 0.08707317 -0.08856455 -0.09106726
6239.T20B12.2.2 0.0150686875 0.042055603 -0.32933977 0.16678573 0.037858784 -0.07543105 -0.17146604 -0.16965398 -0.12540695 0.06671902 -0.23052473 0.2504456 0.03996813 0.0064946646 -0.1965092 0.32282802 0.2258515 -0.2830501 -0.21417847 0.23990516 -0.060135167 0.076415785 -0.22737335 -0.18208978 0.12706418 0.27850392 -0.3422277 -0.13483433 0.0166133 -0.1398497 0.16436616 0.071647964 -0.4527118 -0.2185273 -0.19815744 0.06885612 -0.002148884 0.16813955 -0.043926243 0.035950597 0.050212644 0.12614101 0.37991595 0.15193015 -0.16383012 0.19105239 0.1636594 0.006179664 -0.097870246 -0.21946514 -0.09081181 0.022853998 0.062063895 -0.042039618 0.14360078 0.12658903 -0.10110011 0.38721064 0.20043997 0.07648199 0.31834418 0.27264243 0.09092577 8.0617625e-05
6239.W03G1.6c 0.20582658 -0.14733543 -0.041679237 0.20992067 0.032526586 -0.23350602 -0.33688992 -0.22512658 -0.10300288 0.09166579 -0.09083065 0.082854554 0.07228126 -0.0562419 -0.120639645 0.1360856 0.2132369 -0.25193924 -0.38516408 0.25586334 -0.04695817 -0.0032786888 0.1599316 -0.16741419 0.19683124 -0.0907775 0.078128904 -0.073516 -0.010471835 -0.085693315 0.18805254 0.27589977 -0.3881065 -0.022154054 -0.04367544 -0.12152373 0.00862297 0.030939974 0.026818367 -0.03941235 -0.08107257 0.26177537 -0.011026135 0.17422642 -0.04782392 0.3465492 0.21591114 -0.038135923 -0.25939542 0.08098267 -0.19438513 -0.13634586 -0.10073432 -0.20922655 -0.16871855 -0.0916469 -0.07211339 0.46601555 0.09996557 -0.06893201 -0.068406194 0.16211338 -0.07585189 -0.21909887
6239.K12D12.1 0.32647997 -0.043868553 -0.0802237 -0.068079345 0.054020997 -0.013606413 -0.093534455 -0.04941913 -0.020696068 0.17038408 -0.13178533 0.17059734 0.4756352 -0.2345781 -0.06769711 0.10052172 0.25174376 -0.2962153 -0.33401152 0.21716745 0.034916237 -0.035918653 0.02884378 -0.38959423 0.2869261 0.095557645 0.04064741 -0.2691484 0.18003972 0.11225536 0.112948075 -0.117495984 -0.43662214 0.028345829 -0.13877715 0.09255682 -0.1557752 0.026525002 -0.0926054 -0.23829657 -0.13398811 0.06773606 0.27122918 0.13487604 -0.28356224 0.31936797 0.0803191 -0.13635193 -0.10136839 0.12265849 0.06438531 0.050770607 -0.10457734 -0.21447664 -0.161308 -0.22712256 -0.0063856896 0.51060545 -0.002473789 -0.11793208 -0.14794517 0.15212327 0.07833365 -0.172703
